{"layers":[12,16,10,2],"weights":[[[-18.7570018116866,2.422087903753651,0.9007257534074009,-5.38872710392389,0.27832624636895037,0.5597299352641754,-7.396969346954857,-8.053812170923448,-4.779871185560343,0.5087847697617004,-7.599383008353489,-1.4787828969764094],[-16.844139701824798,-39.20176671454025,-6.138574924056914,-21.670219633440418,12.61248887587749,-12.565974226087043,-5.794844580296364,-43.26844678594861,-1.9481522804588831,-5.470861572019111,-12.68297269883529,-9.406154650327517],[28.931660559965263,-9.736032258552395,2.446886937880788,6.708977445732315,-54.54544335319499,-10.34560747925929,-11.142973463331524,-4.709900983495011,8.14068282942478,9.346736863938132,36.169518917383876,12.797597532667929],[5.990708320573553,-5.23139504766651,-2.5745430109419507,8.27630203548213,43.33997204694498,6.3306099209757525,-7.847357109716267,7.469995661903153,-1.9882799912717688,4.357251579743999,-2.6737712200641366,2.822529340358258],[-5.201676794236612,-7.487534334347353,-16.96620542085382,6.285504749619723,-6.837311334499704,12.500393795288804,-10.823925482208525,-4.939368552824988,-19.11828415714484,15.553698283629068,5.4477451116525275,3.713611530901017],[-0.5247588848375888,-2.0367544744005075,22.839488963720477,-23.590963641004443,-12.079231769418906,23.817436192372213,17.505389607944565,5.225963189663947,-2.884754449316008,14.383119049815699,4.5683712271662245,20.92499375565511],[8.326936449493171,8.024413211341958,-9.403622156503342,4.834356404877396,-2.825626638565911,-7.682507489725914,-10.908727385845971,-2.0247298019393707,4.192988505141373,-18.101861628480407,-0.11372419653686597,7.021807182029574],[1.822071249526296,-21.55372488117963,-12.746949953430992,-14.148531529493493,6.189479622231438,10.774249381690732,8.552654783555914,-27.164763978070017,14.796558683045044,-10.905637720216166,5.6112545689852285,-14.671654801355364],[16.575296710674134,11.049475732392871,10.964090157206707,-0.01557679040663773,-11.24801755456244,8.962906106442947,20.89294730230651,3.7268526712218364,-10.329008730588368,-4.921798188810187,5.624684123698887,-6.1927865830967495],[23.40319094862539,9.803034013389148,-13.738607629540068,12.69714242275985,4.876732125067161,-25.32656555453409,21.000378508900848,4.092838581137685,10.60704449487086,-36.45226024943225,-1.8348340763633444,-14.516869563385713],[-11.596349550986274,-16.529553774997403,-4.004216063591761,-18.843346525239962,-10.557177189298795,31.97308168220386,11.394478414856204,6.8216225922011375,2.4345777947941736,1.351062345686861,6.983871665250651,-13.165952376807162],[12.195058761498402,34.75210049782389,-2.682051787022324,-3.733908617813691,29.33190864657284,17.945376126652224,-0.9524776915545935,-1.8971649445006245,-2.744946959538978,13.03464297088331,-19.261948605231755,-14.57143098869901],[-22.97962276327341,13.068032724995387,27.586710224860028,7.011011490999238,46.584888963837585,-2.1811837614192435,-1.226898118165832,-9.726107539694489,0.6493384933054618,2.889144506979983,-17.199217799800895,19.57791970068354],[-9.245181061018322,9.34932294442211,-0.7679914538056494,6.544140588302481,22.776551911217073,17.518013298571812,-11.859190365092056,-9.420370489800304,-8.470072095415363,-8.398661100512788,-11.587042233849617,26.774815226126695],[-4.785210698052131,2.6981132529307934,-23.082407466777543,23.775445018393352,5.334523410648454,7.740058323863417,-1.4274537029540275,13.134743691518253,-3.763875149216442,19.62295077574471,1.1237107729533065,15.052730942857],[28.939610974713133,28.49421583482689,-7.731075918594304,-24.531603921526973,-20.410798816419703,-17.016082181987407,-6.7979620595466566,3.939894089654525,-9.329798609613833,-11.154944472210552,1.9367808146911965,26.86423896493684]],[[0.942218269729109,6.929126683637904,-23.20841039352314,-6.0261188452964385,10.007660120507845,2.666203396084115,26.596496924591005,10.497213642521029,9.571771664716202,-18.80454880796877,-29.742403976435558,0.33059260915168964,-0.5992393238566482,2.907518912040112,10.868439574870647,2.3686819965137054],[-7.396829231314425,-4.180028766780873,19.811147816785063,-0.5183811968813717,-34.67724151152863,12.795067722275094,10.747464490443223,2.6899157329483896,18.724288395357117,6.430047364104374,-7.177963099939879,-2.5872027702448697,-16.518117994183584,24.03441456678547,1.125015067076653,24.428401495734455],[10.88134197226992,-26.470189802855455,8.871368458686396,-12.290517758846386,-32.17742100802836,11.26310135236678,18.22400053017978,-3.502618096831855,6.552450178641521,2.437555525166541,-31.083818871975428,40.55668006055936,4.065503691864196,-29.320056422921695,3.8921034042079947,18.507565117936757],[7.4252730699049465,6.06429085353994,18.5084572364768,7.598514630509456,27.054994954744398,-13.676687654706114,-10.287555435236262,23.91144485075656,8.580166347415611,41.068311775581215,-19.12469543189224,9.636048878771616,4.249825357139408,1.1565317178119745,-11.88971838065889,3.1455491739978534],[0.35171138971593974,8.583556135352044,-18.447618328486175,-2.964673758646075,14.841445485264916,-1.7221506140147003,-16.013684301158282,25.92987708859826,-20.24274289082864,-13.59932322221702,-17.6098093682379,-16.78340523722054,-5.4953297295419965,6.010572110186816,9.41558935690334,3.6501186453039627],[9.837777579153572,16.344655337328284,-12.150461350231854,32.369448744443844,14.923387069489717,13.331573714804291,-20.749144379304546,3.6191200462496136,-4.193217493097259,-9.813030115367065,0.7131407294736899,-3.243963770226977,15.825231278341795,-2.3794673039518743,-9.297005786925205,-15.76515758733368],[18.259744917044756,18.309756169315857,8.59917541856589,-13.363151703345293,20.353585778027494,-0.10832364295823804,5.079156749878386,1.2766792868585524,7.637808661528562,12.494946680146626,8.968098483710442,38.2226744170694,11.860659857101485,4.854311372517695,-32.07120076023077,-1.020511428545741],[-31.390948194871818,-19.366586697917892,23.683872772446428,-20.50830350579274,12.040015451557249,12.82538941468864,1.8436379641569969,-9.950900838163845,10.62801549140322,-12.687824683003196,-14.869751603904993,-14.743341813785102,-20.311836152698362,-21.781330402714943,14.999562126805785,-9.174887394512773],[-24.485599420239055,-3.88032179197059,6.2373832814102625,-2.3191733090382085,26.05881536626196,-2.203916160836009,-26.267191077156397,41.44982554553945,7.100282768917907,29.997780815872364,1.854902955946808,9.582184381216761,6.388665005535895,-11.035769612447286,-14.814164996955874,-14.693130610670169],[0.520938907851761,-20.672997138258115,13.333218004042541,-11.535279623196539,18.470838028241907,0.27195173684836244,-23.925603147227847,-0.29853252786663226,-11.2581257771395,9.623942431476998,-4.251287015578469,1.602002594799177,20.31721111604345,3.1288232606654467,-16.330857935325355,-21.809424320631923]],[[-7.7259621036823525,-2.760477373782823,-13.567852155333865,-8.95531100537157,7.13674582625011,-18.769748680792983,3.219575642441173,38.09722339695658,7.048723192458047,-0.6479233300965124],[1.2576693925664424,-12.958292513869306,15.44207846557779,-9.960326968364392,-23.998517358431588,13.020926294691185,11.069658888777841,-10.897624732559372,-0.3609889308513299,-3.1008306037880775]]],"biases":[[-3.063778204044785,-0.35461561757348486,0.5650266077498219,5.698117899660097,7.259037501822178,-1.485250146596831,-2.5257409391902073,-1.6603909919019288,-1.684536565262103,-2.4405412283105377,3.1349391208414468,-8.993913417222483,2.4876205807849763,-1.8605326019561321,-3.201090288561348,4.791518880432148],[6.156778959718574,-3.783517622964766,5.012091592657326,-3.1087745798487396,3.1441190838679156,-1.849120491812437,7.459566307594696,2.938916523768979,3.1480236405149165,-5.671109884535035],[0.8102708480672827,4.00572295186555]],"_generation":54627,"_fitness":0}