{"layers":[12,16,10,2],"weights":[[[2.645285432038687,5.503126095388638,-3.6854352399885175,-0.3590578230925249,-3.583094069139518,1.886000909800086,-6.878409607650993,1.9627594298980726,-0.7951395342276886,-2.427513531971945,-3.886912122535833,1.349725155817498],[-1.3415521440487952,-6.689902565706871,-12.555797812513905,-1.0073323537841345,3.136950574915692,-4.710030657140694,-1.6367969150654345,0.8351233620999581,-1.109448255778329,-1.6520238746779126,3.0092642523886797,-3.8424760725419125],[2.62971239753903,-3.7844548283391135,-10.04958070672516,-3.4350504947615415,-11.624500366159797,-3.2198048420250163,-0.19905677577000278,1.8756925114472947,0.9789804998223272,5.501890854903807,6.890541705537136,-1.8480232967325088],[-4.66109379980107,-3.5550956078568228,2.1729504679003586,3.973940536027958,13.858843194277219,0.4507556660330492,-4.690822506197418,2.685919586869426,0.26821972482191847,3.3038825801740175,-2.390839346456256,-0.6056933433104497],[-3.7530841639204744,3.7894727894818043,-1.0814042095851564,4.341106753053048,-6.5821985740568705,-3.00012278828105,-3.29405181006891,-0.24061540985518715,-6.001889828298302,-2.715878356134469,5.9060452289094485,-6.48217821231749],[0.4003718196470142,0.3889920879302555,-1.3558735506693298,-2.8996460963314568,-2.598977805680415,4.374617684674854,0.5680843734174084,8.677074563321911,5.297410617516981,1.9364467751808987,0.24524935849791807,6.811044270198852],[3.233144176910658,-1.6322891326113338,1.508471105019701,1.230999709862367,-2.8594522325573006,-0.18726513823987911,0.8552698985457268,-4.753337165963303,4.338871093987765,-6.413648653191497,-5.64173775679393,0.5110409096629294],[-4.218421645302998,1.9552297810688273,-5.467284320871878,0.3518679646124382,2.4464294185010536,-0.033712625893647985,-7.14547559128956,-1.6033082217552936,1.3441786256035897,-2.164475100220023,-6.361589512896903,1.2149121347941563],[-6.330835725746456,2.2870077482934588,-2.3384145743270723,5.977731161590879,-12.631281890249792,-1.012937802583312,-0.35347492942240977,2.8881729750854244,-3.5743997725501386,2.9482829359024296,3.864373907785841,0.2334405727817458],[6.611411346548666,10.41267557913434,7.87708311313035,8.219696336056064,-0.8062290651340946,0.9694171988258994,11.589787757915339,-3.2742331567686938,1.6615949295607209,-6.286387970499874,-8.234575505126957,5.042032172702253],[2.335732084365711,2.642578599957965,-0.1256828398948435,-2.8138908827259494,-3.343583889750154,-1.7778375626098974,3.409587856355197,1.5552256685862114,7.83142426298389,0.8887565340533038,2.082296111346735,0.6728769971382701],[4.325410531804201,3.981179563409377,-3.100695424928326,-4.801973577254998,0.851956049956558,0.5320694423404851,0.4218898992180484,0.9226827980615234,-6.6189578152924655,-1.6723751916001488,-4.129725651070661,-5.490868458902732],[-2.235224917013577,1.1550256407497173,1.4821744711037375,-0.9791794928720379,11.315008934936717,-0.3313990984314794,0.838100595250163,1.3897454949879644,-1.3931651970748877,0.08207046212934246,-3.1413668942878363,-1.442354708852599],[1.2314338367968076,-1.0777709345984001,1.305763285814542,10.986689626629067,6.796501371716982,6.049075593444571,5.2159982893385095,-1.931204278663026,0.622457911971763,-7.655685456206982,3.8192459955859857,4.627553657982708],[-0.9283402931592715,-3.4911344140916944,-3.805914035833032,-0.14217967562224657,4.8167231608262355,-4.281627337612935,-4.142864813478135,5.670026247998958,-1.3701629955645243,-7.464947329905475,-6.681966528096186,2.9976150505070267],[6.54766071714674,7.889307726251494,-6.633861174875101,-3.8432014455839427,-0.3254134342757961,-0.10469163811333383,3.692661742450176,0.2037708971483759,-0.04620962229284148,5.782674061232538,-1.5883156395282438,-2.1332050353870105]],[[4.665539911026038,-0.8890668139590973,2.2316695776728532,-2.1114212787837148,0.006703084859329245,-8.014105836375629,6.914660241528036,2.097534830381992,2.7927626543720296,0.6207167153231685,-3.767363471205123,4.050882282702213,-2.980528159851709,-1.8365196016120438,-5.01779154346938,2.8219541296672763],[0.02267117143906655,4.773172860640942,-1.0229987382285903,-2.1891688186250815,0.24838241209175616,-3.9291832224001895,2.6238282338230983,-3.328474970030615,0.2735854855662241,-1.9820270924497625,-1.257087144650435,5.240244922339249,-1.4810377468356826,1.062256884290497,7.787689621157778,1.3538379982687054],[3.682150090005642,-0.7051145316895406,6.389706868795332,-6.979852069413267,0.09634733569395651,3.813447611594116,-1.9667338324127779,1.0378830883463832,3.1298675806791043,2.2515867711083755,-6.35066147033743,2.273119498694197,-0.15254222862140443,-7.652554770914662,-6.585363180278442,-2.450562567969071],[-2.1608858047430424,-1.366758675879001,5.013993090862305,4.766745271180913,9.296866991389564,1.141410695277786,-0.04570952774818013,4.568865388367582,-0.13357528932317808,3.751691047832152,2.7100488395580538,2.697241144145209,1.2411052478396507,4.51807270538788,-5.513781599791608,1.9521369811295701],[0.593043576508798,-3.0774832884933385,-7.166975585393914,1.9281346749755208,3.9192808337979916,-1.7634890706605082,-10.009414139848102,3.354852100168459,1.6280907447600812,-4.332737784612421,-5.762290122640473,5.2205728857232305,-2.7294143956344743,3.3794859151447483,-1.0606283296887087,-0.6079611267018415],[3.5771538772934925,3.072997019081662,-7.508628131238559,6.297121428612945,1.6286123439220064,2.7842124690435757,3.0290746359934557,-1.269015957567958,-3.294698836438397,-5.90185555715166,3.1490225196620942,-0.3129242245837371,11.216952260453036,2.761813058528212,-4.016804422593015,-2.3794595089057586],[-0.5025806104821936,-1.7062304506598687,-0.05731747893933972,0.7310114865879226,-6.4184635162815376,-1.1762599482413192,-2.9562910682199446,-0.22403178208100263,-1.210665107416399,2.6664719514410042,-1.1042885065027361,7.858290783185691,2.5092021593445644,0.3590724309213737,-2.404829706119694,-0.29822483316956333],[-6.144591224660642,-1.9353281445774122,5.852459703154805,-5.250025817627272,5.694093069694069,0.5550307227373569,-2.732403559141745,6.807227945377047,4.893348097969762,-1.6045440183509267,1.1718982741924993,-0.3336895117460693,-6.406563176260431,1.6625741393377464,1.5683883044335643,-2.471239653747524],[3.000243993663028,-1.7242472018454633,5.077377729647946,4.074319752923442,0.13153954551526115,4.742870507868997,-0.5773462982059416,3.100056940384318,-6.749968501390504,-4.631663736733717,-4.185442310134154,7.457230209129309,0.6116538415279152,4.5240434341896805,-3.819874282353098,-2.3177412870769416],[-3.8709074214854975,1.05809111242085,1.67089418793683,0.16002007109244115,2.8691947521000065,1.7894034307503068,2.5968039732504864,-0.07150690735878826,8.088510028773475,2.2338178802600512,3.261480427859091,-5.140545232745272,-0.29616181293973126,-1.0173811664459638,-0.22420555376016282,-6.907215454577625]],[[0.842279428224797,5.664552409662292,-10.660086307040359,-2.125490344459613,-1.7568649014319804,-8.389631413109743,-1.943223410639738,6.707449672452363,-0.8461772727943616,9.404811380275497],[-2.2359110877988986,-0.4528342295357132,-0.7340427262962295,-3.337451044994654,-0.8415815819421073,6.359577880458591,-3.3567318013332934,-2.2915473442298935,-1.2758754785453514,3.0605085093784807]]],"biases":[[0.7328442620377054,-0.8505287486681946,-1.9003820258303246,1.1639099218895714,-1.039229672045809,-1.6372885863794608,0.5685807910023449,1.8337219559459415,0.2176917159135744,-0.20048013262323672,-1.0464347574826536,2.139236302630501,0.7280087489945151,-0.3525568545175714,-1.2336318134932827,-0.30060248959847846],[2.422200681913922,-1.027594378910682,1.5127642969471473,-2.39920950296995,-0.3443832657276398,0.30375453552872816,-2.369790778786207,-0.4259656526411906,0.7212996654243992,0.3039279392395829],[-0.5525411143445441,0.1879300562052364]],"_generation":3027,"_fitness":0}