{"layers":[12,16,10,2],"weights":[[[1.4265982139620446,3.9316911259662595,-3.591472574204767,-2.101234268056281,-2.96204530073797,1.4288849496792015,-6.697722560914759,2.616746009315579,1.8024635778039866,-4.182441641981477,-3.826012302650153,-1.6654464362414891],[0.25253513838117436,-6.232657235433679,-13.03060196927187,0.47221400815276227,1.9539488718281957,-4.347056617890157,-0.42054413733088336,2.757930105515298,-2.949277459374251,-2.2788204610818705,2.919294020566934,-4.9796806721336395],[2.2043490130875942,-4.1538731250074505,-8.997720884393047,-1.4132161864108845,-9.210768893389304,-1.943394596091359,-0.07062303747336275,1.7954763997234222,0.12918333030729134,7.912672932868162,4.070456995885102,-1.8396680326837744],[-3.9744445334231733,-3.8046697245234107,2.0760483639599268,3.713662329665557,11.190758147303622,-0.5927855095353074,-5.899149941554716,0.38223705747368053,3.185545108123901,4.293144603533972,-3.527431207975643,-0.5470609269213199],[-1.3800157901160754,4.530980922389898,-2.199396071756103,4.675912468524119,-4.004594809302108,-1.3253134962647444,-2.21313966310308,0.005023706430569635,-4.0266352214945105,-3.856669997036151,3.210384283511333,-5.701966008784744],[1.56868154744665,-0.09954123631289241,-0.6469191774422482,-1.704282482124147,-2.577730500385214,4.843527205362435,-1.2449521317452636,4.866979639567105,2.1754144016317274,1.7989656416215394,0.8249301795062458,5.2673022295548515],[2.093542428322486,-0.021460651163855225,2.291766779394126,1.639461468240315,-1.7151179466335993,2.805969274666014,0.013955745447514753,-2.7834171714006644,5.101033946612198,-5.95299679438461,-2.7570378948321217,0.3215675394944105],[-4.815048810165968,0.43342048986152604,-5.013512465542368,1.4238596128575125,4.263367204085234,-0.4628744425912912,-10.124815158489259,-0.31776759358531026,1.0948734846645047,-0.8007492041064651,-6.372204482107651,3.3824604359332175],[-3.0845636366017626,0.7708995800801957,-3.654903113892306,4.9113696730723575,-11.096450415063147,-1.1913179715506215,-1.5381668826913548,2.917688738056025,-3.578996883225341,1.0729326423596257,1.9287162077566464,-0.24571409319334916],[5.304793785674322,10.776120879657567,8.87167171877062,7.37038189979523,-2.1997065755160694,-1.1691854674406064,10.0439322839422,-1.9331139702916775,1.625318107781725,-2.849489583220176,-4.1480479919976165,1.7701826782177368],[1.3469124929931278,3.434454417308139,1.3715464405421902,-2.8399140667433738,-3.410441984325337,2.2060124321024386,2.34988639426752,0.48796866184236,5.972522304587201,2.062071189763068,1.0322848640284723,1.0923932147684916],[5.90032479131323,2.831855851593049,-3.6439650919660016,-8.656122057894889,-1.4898909615520273,0.6774713757163399,0.3398695190412401,-0.12593992024669526,-8.178874898505955,-2.322172608475103,-4.828101478304554,-2.381242949313791],[-2.296808155327658,-0.1669621372192472,1.3686089305960114,0.2988647240052299,11.257344646640485,0.6606091991505687,0.08796622967083409,2.0899468663189333,-0.37764079199681816,1.6118443448446,-3.5599669494697763,-2.493069705796709],[1.0781918850070846,-1.6686389307139176,2.758961839664522,9.876793958923692,3.236458697594787,6.8855099856583015,7.198177233127833,-1.5168726700148654,0.2001771383949639,-7.330637583208554,2.6241985385037383,6.207734583833066],[-0.4955464558306613,-2.9175229218515386,-2.389807756810248,1.1180497380851864,2.3607760739074144,-1.5079180608160148,-2.4652985940135648,6.136683165503834,0.33174397703808334,-6.016961013688032,-7.563045441638622,0.376272242516679],[7.6694318884704185,7.930805367238538,-4.140802825626946,-5.076891940670288,-0.1154453437364564,0.5797836177520358,2.2810530375011644,-0.8161312225845933,-2.0635899290959827,6.656142180181407,-4.302887848431848,-1.0089581605368148]],[[3.8748039068671374,-1.8330707303767122,3.060170893379951,-1.1973961335152994,0.4142699653296975,-7.508776573524316,9.275472545561586,0.720784809950785,0.5502409095368105,-0.18016297979362395,-3.6982964050129348,5.338429204834955,-1.6582526242259092,-4.365125970033735,-1.8345101596963398,2.793596414581428],[-0.8080751776021984,4.090199854167043,0.10428716063319311,-2.3597277230560434,-0.5134997612990355,-2.1595045999076756,1.4876461436109014,-3.0287864155926294,-0.21227980505352384,-2.917859123464439,-0.30877082261971556,4.017699949262703,-2.6657816630584232,0.32548000944549427,4.013321806570959,2.4754424259916576],[3.4973335980796034,-1.6207347503761005,6.3357051483625115,-5.766472599916547,-0.29513609226151016,1.4899642733268728,-0.3252429892849094,2.666551850604375,3.075632553514179,1.4097431180533364,-4.793585487830206,0.9637554292153074,0.7142880663008232,-7.314039360878972,-3.9959697917332058,-2.602634653230995],[-2.725666810356195,-0.9531504140680491,4.244291457950699,4.349079748236765,7.9598980086824405,-0.37467219132888,2.695036537555815,4.965770011154552,-0.7242831128477549,2.8488450420358253,1.9545760374144259,2.5527824107620614,2.6899073708777195,3.041558014041228,-6.585861625808265,-0.6083531081646978],[0.7208186760988745,-0.3452099810287207,-6.721291569794751,1.0251258134638535,4.064203132366541,-1.7677782382601583,-7.929822305924617,1.9140515499578221,0.1339314196357123,-2.7584339865168963,-3.4534695917542964,4.719030860512622,0.1257504137174963,3.608461108516981,-0.3755130939872425,-0.7435897937200635],[1.3501747095447867,0.27337329354645423,-6.871759378103078,6.267914119710634,1.9351823130733674,-0.15625986758587662,4.49278593875292,-2.279102834898043,-2.4541822879751676,-4.729658274662569,2.30346525313354,0.13095505641395852,9.705045119194445,3.359270414444611,-3.4402037198647886,-0.18859741855168044],[0.5886303912637663,-1.9149625465622464,1.0231897955947002,-0.6982810463765814,-4.642483185176515,-1.1940282059459446,-1.970657905859531,0.08858207255133241,-0.5890558433466024,3.5281281355097547,1.9076527188601597,5.457892582063644,1.4966450170367025,1.1536835652879043,-4.415894000761771,-2.542462796008472],[-2.3076545726076048,-1.4713709020535382,7.946415518519256,-3.80049838426766,5.312695791030473,-1.2306574895419036,-1.4050463778801714,5.771255854277105,4.852714753823961,-1.6696398361149494,1.4241475388432059,-0.004056675761571343,-5.160555068982406,3.5909619028990174,3.758679882501505,-2.2303952056897525],[2.290721783327979,1.4318183246121707,3.600167932693355,3.3748936590138277,-0.14076428098411264,5.039407639519814,0.799804798407392,3.7798942387498515,-5.585830855580905,-5.561444326637947,-4.226694140477907,7.491135280915662,0.8638047014602543,4.0226984137753465,-1.5877260425968236,-4.01692835259696],[-2.9539296851846584,1.3944273437486319,2.0793585904367395,0.7300078028506083,1.9415129933539248,0.31381957980385716,3.779190799205302,0.04752310549576946,7.959079275812359,2.9429749637337452,2.5770701075977915,-4.891804550017665,-1.7262983769005062,-1.842614254129959,1.3477427651430818,-7.555890916615158]],[[0.5828821721353914,5.70409578856398,-8.872804002821685,-2.6216210245249982,-3.9171888156330534,-7.21357635189852,-1.2605420684093902,8.170888888057263,-0.8791171479285609,9.169044574731915],[0.6518730605623432,-0.4319818947996754,-2.273644164863925,-2.5402285544340852,-0.9789326210730135,5.619427592018337,-3.003283310672733,-1.565158729284311,-0.62142035913504,1.8891612403770004]]],"biases":[[0.8565713974462223,-0.8349950286335317,-1.773620836072406,1.9251012024475227,-1.5467193835494275,-1.2365562999590964,0.38885386809736844,1.9684560844239678,0.6131421946102049,0.026301527774070604,-0.9965853362466941,1.9311019101378584,1.0214497487182204,-0.16408571449188525,-1.5436265247455716,-0.4647092390848356],[2.28645707397046,-0.09665896553995021,1.015770767005957,-1.6979598361442363,0.05801122827921841,0.45649437313485164,-2.5735735779249236,0.23042252391149537,1.2256711139411849,1.2182706523549336],[-0.6628603594942563,-0.1682873420264413]],"_generation":2527,"_fitness":0}