{"layers":[12,16,10,2],"weights":[[[-22.1591135110597,-2.489416957608732,-1.3248153920636536,-8.530999517133951,18.761825707745658,5.980733389976239,-16.756307700920452,-27.172289329379648,7.463379596591516,3.5631030499314615,-4.285099217028579,-8.666939766613627],[-9.690754913064538,-42.99557403662451,-12.688993395744577,-48.068293163467715,6.177917764849251,-32.36355156881125,-13.534806505572258,-71.31598635821734,-2.5849986936202862,-0.7909451526234919,-2.578734465871136,-9.093264284220275],[25.200586581155353,-11.609938095575107,10.59763120136479,8.79514505868292,-65.71818358672053,15.529367743238094,-9.331957150220742,-5.7061679085000865,16.559779468019496,11.374088102750832,30.08128906630044,16.76884489631947],[15.233493924910498,-6.9885031621168086,-5.029375389847823,13.791900930863537,61.485037882480526,-18.72933707136772,-6.396175026898481,18.605442436921084,-6.346153546612077,0.7417597023360538,-2.7087889406040166,11.803991685869281],[5.266175090798229,-5.322530509568391,-16.408281754914913,17.010148436762925,-10.997260892675852,10.49100696071414,-3.8606127889642123,-17.456205904274228,-37.671509100580856,12.554748389304699,-0.7815754061004894,-0.29530908825434266],[5.271496437606084,-0.09553001465062086,27.65461031937309,-13.870050313628528,-9.756715150232527,29.346690785459092,17.251536728339808,-12.710801460595235,-11.356287999857411,13.763145573193844,14.035197898777664,47.441486991204],[0.8491711078336083,10.922022353624914,-23.332513784465046,6.059479779878463,2.824883812089578,11.94452845878999,-11.115060687613873,-7.998125783977599,-32.715896745966035,-6.277229565294385,3.8460869026262117,14.460753269332454],[-21.2828175714827,-14.80107786523838,8.262333351600894,-9.76841017389066,-3.8015847143530745,-6.235436855575164,6.387945887843508,-40.933620937585914,-8.133493731070613,17.214693712655933,-10.003133901758813,-20.394451219809298],[25.954997044206362,29.7576330905532,23.437926949630043,12.134720923660902,-13.107838458583927,4.955329754544817,3.8896280219899433,-1.6456082209322702,-18.39869091636052,-15.05104000128466,3.74872449917987,-0.9638187460641512],[30.715074355865738,24.864040992097625,-10.698161340974092,-2.8113986332701524,8.139625349281747,-16.951266409737364,6.4699232257616845,12.015496124056135,34.12861229422795,-22.778449468286766,-7.851540248388533,-20.01830021993777],[-1.6384987134340463,-16.283982879995335,1.7140080746179824,-27.807340380977436,-3.236603098742139,28.010482944184854,8.422952714911627,-0.33200298353228036,2.709327082190619,6.598700839040775,19.903861590045924,-22.029950473450207],[6.156590727553359,27.378508755589166,11.52420307374172,-2.780716882858412,55.08810910099725,24.338074497734095,-4.505738813976816,-8.117969677516214,-13.970974941480044,19.417500645764278,-35.21272917009897,-23.381171794047475],[-23.384866903474666,-4.653673659735578,22.148680143946084,11.238807799391466,45.484192364201355,-4.0259685160903915,3.751376109345413,-5.680958035795423,-5.8885932705715485,10.072965003132142,-9.283763013471843,39.30196275471626],[-9.695420832240519,6.983658562614908,16.881365181923993,2.681642854121276,25.22277006722382,17.341381723459474,-2.359838188219895,-6.421114047892983,8.272331079094911,-8.620031987832242,-28.78068994520184,23.552768943632103],[2.3552381600231023,-1.665053254560796,-45.07465977061834,28.905116203646983,1.862019465771048,-3.113852997044417,-11.811985147189825,30.566995349212508,-31.607348797586717,33.083243605347484,20.3370889787732,16.674018456562628],[23.520145022668277,31.65702204258869,-13.18186846964692,-23.46192691307576,-22.623498014784385,-22.265200335618687,9.377961402121976,1.77092609023179,-12.417110993888116,-9.271196409295055,15.751140101725758,16.031336034583223]],[[3.5902058739592575,6.417644139393025,-20.130981764779996,-4.126236489079212,26.951736947962868,-10.710425098040854,17.838382988847087,8.511190364281967,-10.460894614199127,-26.680167878289083,-34.37550268419593,-1.8228871223403245,1.6920044082929764,10.876925161394396,2.3004237479290506,4.594004377483139],[-6.5191460247612145,-11.911888855913428,26.21899946872576,12.170526488629347,-48.162922110473126,14.505696822480026,13.749970323038728,-0.42111126896311774,15.881460414893592,11.321392812493484,-18.957617427754954,-2.550276087798609,-28.70493586607675,18.12219111577859,0.9370740406461554,19.36849131494574],[19.56163140356664,-19.988392912733943,-4.810567737473195,-13.050747861567674,-28.711997458480425,3.510947556375107,19.363047914381823,1.2171664234074138,0.2464667817275029,-4.769942592785135,-39.4338342949815,40.142704149096076,-8.64644169039511,-34.80163580809562,18.611824474944346,5.805049681020307],[28.999924030624562,9.81989612415124,34.30242877294611,1.3570829523750199,25.035255709279184,-3.8766869158429125,-34.69703055386533,35.51534283402189,7.9120004229011185,32.531386354746694,-25.072802881369476,13.606133716405,-2.24487876619198,10.739375538687622,-3.0534132402600465,7.646572161777953],[-18.30938692181459,-4.3002879899037945,-16.594200059518155,-17.75192381008451,24.49132069131273,13.382939110764005,-13.452294619124912,32.448837071899945,-8.099122154046425,-31.421493071674888,-22.596591111090177,-2.5464287445046168,-19.472057423499486,11.412760856469971,1.6280639534866697,-11.091350302059721],[23.3861977984308,21.309757176688233,-31.772674057333962,32.47534314526227,8.85098167334234,8.788340596734962,-13.320626685166316,-3.8233052620091614,-8.130695634769262,-27.708363525158262,24.76373880938386,-9.761265698096679,36.121742429074175,-9.610989160468868,-17.15885277493297,-4.119642956210152],[20.692139601775033,16.501303308066408,1.2634062850804335,-17.35298963072618,17.39624676645084,8.507940244972836,25.480423255529463,6.9323859724095245,18.00428754314416,20.284564717390477,5.35727866488293,31.355664615709916,15.573639789608027,12.177620313222901,-45.69785512923811,-2.84466982762575],[-20.729479201197993,-31.67480314128124,35.625774598328334,-32.92202992387486,18.885800221624336,15.934076944897997,-11.78112017038423,-14.786791153432125,9.077341222515015,-14.267821515519339,-10.996976679731532,-40.2393813201012,-14.823896110648487,-8.325370095549301,26.285125132906117,-21.576264909393668],[-16.77199516541551,2.5335281091508026,1.785218758512581,-11.713537109311297,31.9263799232975,0.38314486539743725,-14.258281255128983,35.15362122646227,-16.111003009254798,30.424374328725683,8.68665430938939,31.53266910083017,-9.639888490581491,-27.84976433649724,-21.104798828602227,-22.839389817861658],[-12.908456946992256,-14.481584261797876,10.833843454873655,-6.254049028557331,19.6346629272884,-11.381407031608866,-8.04910740524226,7.150959231253574,-1.9196949509908632,7.569975288337254,1.1274071578534024,3.8311499126678386,20.719465526462916,12.471924384935553,-26.170044822623208,-25.580926202864372]],[[-9.095750878494549,11.322713260327077,-24.555739184785345,-24.779887245165458,20.36531186035648,-27.844258838392772,6.146099465004557,33.98398777394221,20.65469926647744,3.537229525894013],[31.384688849770168,-3.8899923173148423,-4.948000551327651,-15.142740337697685,-27.26559084252552,4.387528379336136,-6.528620181750957,-1.2595647558414922,5.661208991688537,-4.704035967105809]]],"biases":[[0.05374601681505975,4.915524110281788,-0.4855083317186326,7.066813322475218,13.043456701014579,-3.34776001465934,-4.008338443474674,6.693041724702831,-7.927142886434839,-1.594028055391003,0.29235943555002375,-7.564896534874092,2.819949873138458,-1.048051200369645,1.8852541920646362,3.4995780667394483],[6.972699201998108,-3.1210652102033754,8.288045295587127,-1.2286157567932543,3.4142216171394586,0.2994858066004614,3.8848935770595565,2.9767416123756023,4.109990070066948,-1.7816131408894331],[-1.8943306651258354,0.2936203269459811]],"_generation":78627,"_fitness":0}