{"layers":[12,16,10,2],"weights":[[[24.465215597412257,-7.284392588058066,66.60272183885323,-18.18327630907045,36.750714347630925,88.84864869677311,-131.58111307889462,-75.02399034277613,-27.346326400734576,-21.27676843028856,29.704726993733196,-112.15393216062606],[-22.28506298782293,-69.01151931134088,-94.65692578826705,30.249891016551867,-0.31960543657496926,-30.4019430834552,-42.00503417197428,-79.49754680644284,84.90203129026969,-68.31687520792256,-53.999766743380995,-96.380989596261],[-23.357582549074085,8.76537636267429,33.9140462451418,-64.82369012676773,-52.631096290202905,100.65423609867709,-58.070481705427355,-31.036284079278417,15.819088786278892,30.34439767758477,126.46616503044883,97.11744934456854],[-57.21630862641604,-11.713838115089501,-8.557204943203697,45.572070787221556,163.07909124222184,-82.9408360851757,-26.643141518566985,29.007561345083523,-17.289596065659318,-28.577515398750247,9.419078412169336,38.49533186795529],[14.956615760299114,-26.13259486010141,-9.095751448895808,-8.468971300024945,68.93881562218513,-8.285892856634163,65.9512965351775,-26.879847944685896,52.762135624868414,58.822390801679525,-18.860171010175588,69.90354868942354],[75.9717228779308,-10.792891287641437,-76.83043815997726,-41.19822701079189,80.68550755988649,-46.00250034956389,-15.040786965959876,9.037625062339956,108.87457084199721,23.083251253367454,-42.759902095373654,-11.928649275716527],[-48.60318472267741,54.66250867323104,65.01461243654458,-50.1342663879254,-82.14693701818047,-58.76569703178607,-73.20014619703494,-16.717764331376504,-85.46586773118254,57.11971746422731,-20.64320247180995,13.30880223303518],[11.331063825342861,-27.702606968999465,28.494108273628235,-27.62035547948762,36.31939513297503,-12.6058760612624,-39.3391339533642,11.146771663767113,-69.94504645331772,113.9660400359313,-34.0192627296553,113.87692079290785],[-10.122516403473936,-17.826480457117842,-41.1341376906442,73.76953643270457,-25.541074956927947,73.1366510149748,7.525097561489283,79.99280057488741,19.410164723941875,-2.263696622074474,-16.120928324395518,7.893690206861143],[69.39234839488822,93.12576826919232,-126.49857840607827,-37.97154275629604,-54.835070635458784,4.703041947555439,42.43960007992407,26.38925881068345,-16.647854101390017,16.585710464368027,-12.380375168976203,-64.39368738611964],[-37.68062903113449,46.368656374481866,59.772890263539146,25.800731266171983,20.402650324276138,30.58675501288277,44.05854301470257,22.177841300767362,4.250299615316061,-24.823369450888215,22.22737186343635,-4.184949346473809],[23.237326596188716,-50.352025685687124,76.40187377369199,-53.70384188690305,69.02962762356611,71.69211930205411,-52.19187076089965,21.970264735450627,20.70076460775039,-46.47550609403662,-8.624607647981676,77.9568140487811],[-81.22358629035774,-31.07334705311235,21.874078618148186,-44.44863013145421,27.885961666984787,-0.6012733890248282,45.07348334158334,1.4244537417681113,44.27964000168511,-119.18600487496053,18.385905880259596,20.99735188610127],[19.382433689335954,-97.29083457617642,21.04451386138529,81.93823701942357,49.81430565335837,-54.85097307893401,-27.794574647656734,-112.06251350710063,27.47149846632149,33.02768627043539,9.884468310246508,97.77511249054686],[4.293187777366242,-53.6614847688835,5.557950108122619,108.72136928611602,0.46335240652052556,44.163829664700195,-9.29232454971714,22.39273699653415,-94.20685737151861,108.19295728742414,102.14133207272494,11.081006181945549],[46.31702828910821,67.08675607423397,-108.51516722759769,-135.16669480184814,-26.620963490172397,-5.931532460565531,-25.946702537143974,-93.80753191268093,-95.59688330778484,-61.94129035814463,20.736229994636986,106.22162537239952]],[[-1.0205255129006991,50.30280748434408,-17.242597212608963,-48.429212780132815,92.77027971802754,-30.94816520902312,-18.400788459848226,-19.172130722554538,9.239924745090535,-53.60356372483804,-90.70611253726776,-5.44811323067506,-6.179407379018759,41.57928947648737,-62.479693128652606,29.200044892989457],[24.087873847781704,-71.6247397336795,3.0853397012734467,24.189583358923397,-28.474752424156932,-46.89563848161991,73.75323550537667,21.89854123553402,45.70306829628043,57.43508788280703,-23.36834796054089,31.561226081481077,-89.20354213224024,16.406283541413245,-31.077962089341117,32.59890922040617],[-79.9253005823081,-37.48888074863841,21.508325428456715,-79.6438722968192,-38.224301274159686,48.08123862907738,-75.64544535175396,-6.9187426918693875,76.34748616023474,86.11532935372634,-20.72210535709287,13.196932661586533,-28.081659097254548,-53.408071136145146,-27.870549928368924,10.586740598446706],[74.44976441118617,25.793016559046976,23.61986440226195,16.10150317833045,41.90865270530079,-81.12078183361463,-53.77135475863793,18.924754421282515,15.919133566362206,80.39825802393425,-3.3788597669272447,46.81529874921408,26.683164343040602,1.613754638546598,-73.38494987426986,21.412909871793413],[1.6623821237981402,-51.58157213151401,-91.94825324492862,29.78793160560948,16.778044242105075,-30.005753518330383,1.4467633777294377,20.81376737361751,-53.82795577497056,79.04002746958035,44.97703698631636,19.769258612722094,-57.039169718936904,-13.297863038401367,16.701648361674305,32.563077522029424],[-116.52244456937017,16.33313891386356,-45.11246733002076,83.95139636389143,107.48725347544647,20.55740497849546,-24.83724046631091,10.320270110994716,-59.65399399318242,-34.84397718485391,-36.365260647873995,-5.6688758762860925,31.039163771874563,-45.22954167534693,54.99772453907327,-3.3386862123453818],[-95.43960924659856,24.7466395720538,1.0497295669084963,44.509170069663625,173.89741844150043,-52.65847081856716,44.78216253632512,5.3393846912129685,-40.948931060342446,24.275768134210125,-46.67739974425921,-48.05016687200189,-100.869299417649,-61.136809176182,-40.05879973170375,-27.52795856745983],[-54.999190742191544,13.832161372755767,60.63541993894262,-122.10470326149571,-25.392697135725438,-27.404010165745525,107.05084551298799,-28.148127973870345,70.24382057138186,-0.5653884030322355,-44.20613723120972,-29.688484707005006,-55.70215027904842,4.140998654126035,63.28329515286162,12.277985427647142],[42.22220485945334,27.356131673312586,7.104663623711451,-56.94552259862458,-22.888221648351625,12.165244943180442,-85.14558839911035,123.7950738994599,10.363754089345122,19.5761762103426,-141.48503443181224,140.85904955217535,-35.11544906581796,-106.35207947520637,-64.67659524951519,-35.835391157518515],[-80.63115932876296,-62.232036416852665,126.18909614917646,-24.291757542453013,47.86902061668386,-1.9984481783478942,1.173212974567484,8.231289281865813,-80.60326229111331,43.33349537749134,-24.46745332033161,127.12178844988874,27.18406766339257,-63.195610626720594,-108.51886359579284,14.369936833042066]],[[45.04919186764205,-41.486782976654254,-25.320407960619615,-99.03587837322154,-71.25926615198304,-40.40139069046524,-31.99341701996676,89.64582888715793,67.81735918268096,-60.469792762534595],[40.95735048676953,-86.52275242083088,53.916316191788255,3.5318495318880045,-43.84857987723381,15.548455898322793,-99.2579419096221,-35.15241649387015,-111.28125695938964,-47.27254093539114]]],"biases":[[5.631321738600062,44.89311795314821,30.19385045077929,16.25832596925473,27.599606726511936,9.9629328277078,-15.538249665607783,-14.46442913427435,-11.450225412242853,-0.18277551874909598,19.57562537570064,-13.649220372543958,10.315114890177679,-2.0615629953241807,25.11755353320396,14.540139588377986],[30.363981536557525,-14.669062506982629,39.411803264801804,-8.394725391199472,-8.00402117513154,-2.519270461912697,6.8954473107166825,1.5540701294700687,22.198124241154417,5.426275828989599],[6.7045370636434445,-18.192427797031062]],"_generation":736627,"_fitness":0}