{"layers": [12, 16, 10, 2], "weights": [[[2.427961066562923, 1.8124406635900128, -2.6750523613038575, -2.1557717811672785, 0.8945093942713649, 2.6077452588726144, -2.3325156884732667, 1.978737843695909, 4.812424067281865, -3.558023625618053, -3.9843199438655574, -0.295322870067958], [-0.42527664082233296, -4.236750669045936, -7.4802343361892625, 1.6812452170021912, 0.31902610539511367, -3.864580058368075, 3.6583095376158106, 0.07870589316784567, -2.795536906404228, 0.21592967340406677, 2.591892806050329, -3.9496615082267326], [-0.6593623463335166, -2.3000334629865153, -7.50600700680655, 0.03838409118421837, -7.224753582109971, -2.475073623119277, -0.4172319453166413, 1.1510692683927968, -1.6162991777151854, 2.7572514047235686, 5.730023583340692, -2.773442586557061], [1.0106390438523953, -3.8902616042268665, 0.7554721279427495, 5.8224659493373965, 8.990209616147729, 1.7867486561444872, -3.843560546700426, -1.452922877052772, 3.65569762781593, 2.4879313361383413, -2.729882832203514, 1.0888348614999557], [4.488548786041545, 0.9776906005752968, -0.6765229490692418, 4.159444154537751, -7.180816479516517, -2.137220079032119, -3.3409983055277825, -1.7697686678018294, -0.2783275834761746, 0.40135885265606114, 0.9031008901271119, -3.861287097826556], [0.14645582146692088, 4.965081643595541, -0.7589622404183297, -0.2044047385931082, -1.8107483683986614, -0.1548828792675185, 2.3287745088251013, 3.544768426120785, -0.24329290493792968, 3.575297260415538, -0.08889140954304084, 3.8149120401679197], [0.8289263765045392, -0.4215263727725788, 1.030338106430813, 1.4651678282400407, -1.729304539491325, -1.7204883597985599, -0.3363726881118826, -2.5026809215798536, -0.8324514330854718, -2.234852222888582, -4.70624002419244, -5.028393591512693], [-2.835365377003358, -0.8704434548542054, -1.7902347319901193, 1.7586451425080822, 2.2257734505339553, 2.7642473281426208, -7.768313282310962, -0.4378696133692331, -0.4199017616231905, 0.683278402286488, -2.1384523771531527, 3.4101284899655973], [0.21263958808485886, 2.471342304855889, -1.879241260046531, 4.889810438662768, -6.715982580575124, -1.9796275767958624, -0.8057951206437858, 4.050352553646004, -0.5971243157561078, 1.9546995854094265, -2.731886997532669, 2.8561813800307148], [2.0037199552367033, 6.0883399818196065, 5.271874943782016, 4.3791981746775, -3.6620865788116337, -1.2913227618050245, 0.5487029079832725, -0.2098130707087575, -0.616303538055521, -4.094826301915124, -1.3054748194510248, 3.711101972309819], [2.07134309432775, 4.53738171186468, 0.875273542418389, -4.3897152206666075, -0.8791251302182577, 1.8984676263659228, 3.4937695837221097, 0.5549223780894962, 4.21953792878215, -2.3473746427841182, 1.1048415930914224, 0.9324733952190585], [2.825199641462483, 0.5718796304621, -6.670830708773543, -4.85150790484645, 2.044104395594398, 1.4347679128405182, 1.9851439260633792, -2.2262145347521547, -5.428779358559776, -1.2930587673790837, -1.1994721640267672, 3.1466514938395385], [-3.1188237171288984, 2.2121241275205654, 1.4201321278124137, -2.227653727234229, 9.946751759627983, 2.0626101420459078, -0.2030626894329753, 3.8959065409014495, -0.9813635862707921, -0.46067151401732104, -2.036724082064825, 0.43491082036980677], [3.1767247235826535, -1.4624690515261112, 3.0641956488268782, 7.862109592756901, 4.557604293448902, 3.8733726772581027, 1.8856715941034263, -2.4885502662798835, -0.459881126783576, -5.942490720787425, 2.05531039875003, -2.1609118842595127], [-2.5687250111402067, -3.6570248464406676, -1.537075882972624, -2.879998126558783, 3.350555449627602, -0.9278272958988294, 0.993417189212349, 3.324025329317724, -1.5337584240346576, -2.991593327436938, -3.533334249519733, -0.1357375611009738], [3.3432010177131937, 5.516034478812102, -0.36875054031877436, -3.511433723848622, 1.324128786561573, 0.21872497516750367, -2.604789398546553, -0.19615470180870082, -2.99592967608741, 5.7719191784351285, -3.0061589177111427, -0.9378263886681637]], [[3.1512177028266897, 1.5768080556718977, -0.14630727837538532, 0.29949089364505266, 2.6886202065147065, -3.6745061693941405, 7.761444095160231, -1.8034023497180793, -2.6233290959189706, 3.1536033101201077, -1.999432332098646, 1.7687619285719358, -0.4027259944940187, -1.0584432790316864, -1.9726315665124465, -1.2796312983241502], [-1.4912273092048813, 2.1892877538047335, -2.434046715951544, 0.06028746641952837, 1.267191778245645, 1.548779566103511, -0.7472497958145425, -1.6317356069606574, -2.894801935812346, -1.0398973106114624, -3.0709922480814624, 2.8050471270233746, -2.2941056127911583, 1.2471499655113847, 1.041450929806605, -1.1896410876442216], [0.6171611598529605, -0.6488753558297952, 2.0152784363694414, -5.372292018590484, -0.7401324280977077, 1.5952487676626415, -1.2384262454858261, 3.6994606193938138, 1.294163689823408, 3.4544407303960063, -4.807820225633004, 2.4000583304819534, -2.0981615505811213, -3.4954908226875014, -1.9798203977236728, 0.35281733333973314], [2.1791686200551417, -1.667315969569719, 0.9616322667584674, 2.5436149756037842, 3.2843816228315585, -3.8507380786619945, 0.8273204833853605, 4.03831990836385, -0.9025027184733762, 2.1120003188886662, -0.3379674404400223, 0.676372418138672, 2.476650880084046, -0.5011493623992826, -4.556077187613858, -3.326447039208441], [0.798772577770709, -0.47342526628417353, -3.814446661378795, -2.559898819865344, 2.932634552148507, -2.6517543621111455, -4.718007290195675, -1.2243304414327634, 1.0106289867394744, 1.170157609845236, -3.218931148637636, -1.4445929222481073, 2.2256826603520574, -0.4199055957528487, 1.5727241412569093, -2.2713526663628185], [3.7207904131386575, 3.432820612203795, -5.001154833180999, 1.4820321803653287, 0.6685405455007962, 0.12899731317266477, 4.705218174718569, 0.9581229009617608, -4.457752876699069, -1.7677755001776108, 0.7400615522206555, 1.7112133297401457, 5.0417492275636455, 1.6094980737085458, -1.4204405105639704, 1.7312659268105843], [0.46593192258411775, 2.5831659338827317, 0.6125572506551502, 0.17079827354088598, -0.38797745977131326, -3.5826263000284646, -1.7751939256743832, -2.4572292447421695, 5.151548697721777, 3.963680613354848, 1.2603540449699238, 4.2150634972689875, -0.0751698251515297, 1.3637173442501536, -5.668600271799772, -0.513549144046547], [2.038148799332414, 1.9229634812896226, 5.454207121349082, -2.648385428070103, 1.8445832543681093, 0.7552314073984865, -4.2930462111612275, 0.19284424474343254, 1.7101034010397445, 0.943140915948746, 0.5421199836008861, 0.7038307240829564, -3.567124804333206, 3.3353908148222344, 1.8980477934669544, -3.2273096750435974], [1.45173081840028, 0.5594828271119844, 1.6354452716389896, 1.3910520414168044, 0.06750183165148269, 2.4022650263048044, -2.342931094048198, -1.4296496781329138, -2.8750949679373177, 0.08830614618293964, -2.0052513082282433, 2.386472869564034, 1.2577243688843722, -1.6948001623288174, 1.9984488541591152, -0.9911959216589779], [2.862979657966082, -2.316849577032284, 1.6652028805994958, -0.02156860316150333, 0.6913308961450267, -3.0393512812609256, 3.8713510420671944, -3.008261005040109, 5.352656762495913, 1.6846008704523752, 2.0781218960831485, -1.129959152914747, -2.8704263784814246, 0.13148860789588435, -1.2894088489028435, -4.478133588283924]], [[1.0085205136306619, -0.7054544751656671, -4.714114265692536, -1.7056264081426527, 2.454309544736801, -6.740361313742608, -2.3999790734330775, 6.158935112585305, 1.0345714186283932, 1.6577852754614544], [3.5211499616175943, -1.3920077631468282, -2.4707101234802944, -3.5688193602284852, -1.4309260780913775, 5.419042406029059, -3.094061614972485, -1.6362227574603763, 0.3966606414981683, -2.187480308293594]]], "biases": [[0.19955927436163293, 0.15349218427197783, -1.1168800924113538, 1.019332032020589, 0.4881847449201624, -0.9061642365477036, 0.6132634422359025, 0.6522627206801374, 1.171646482954833, -1.5486413742999565, -1.0078968202920602, 0.819087164347326, 1.2797240943707877, -0.4299104607127947, -0.7195640427201387, -0.6953672392812053], [0.9390255860997468, -0.23777510435825, 0.8931144381521476, -1.3878343657962235, -1.202671303299427, -0.8009124684945371, -1.554640859791531, -0.3649653637395458, 0.3615447847887191, -0.007094527585866317], [0.4434997941169178, -0.5147200554614904]], "_generation": 527, "_fitness": 9999}
