{"layers":[12,16,10,2],"weights":[[[-15.693454188975167,-14.513152466864712,35.89418201215942,-37.14432504370355,17.740179169981268,30.083704818344057,-16.160292918873516,-17.029192030780624,-3.24215385206551,8.645967245175274,23.693002691494357,-30.682870821527047],[-29.0906328111498,-58.964034928783285,-30.97644698907884,-22.58333785960281,-33.007946384132474,-69.78918338543065,-49.59874370440076,-52.12332874725744,-8.836668259921446,-14.05339826439129,-14.835164002145287,-3.455970059547712],[7.8822238378080005,-14.539727388746758,37.15067429663418,27.880583166510007,-61.433344512778156,23.882924999521073,4.079500550430856,-2.66918385195361,-19.492060876743416,12.643840123871481,73.0172653747902,32.68019747492104],[13.385159327827076,15.836609116712879,-7.369225190573887,28.791202041046873,108.09056821724037,-15.136521876663995,0.9388419892519164,-0.7473055640522699,-7.956755386813429,-30.242805027547238,-23.453479264206702,-19.396802336903903],[-3.2327952418277666,-21.564376122223923,-30.06718969886551,16.538620154633467,-9.109753095271222,-41.015405811256365,-35.1680692602094,-17.237975020398842,-36.765592720607295,8.82789810227972,-18.28067744973119,6.582053661658104],[43.16020221573746,12.555326724114742,1.5553309206619734,-49.81096848440529,-4.299871323183851,28.579430526762874,35.97864450975391,-5.031565486337681,13.14217592130295,14.159014922584673,-9.462626652697168,25.520358407310884],[-49.27981748902682,46.78662378530798,-22.52110283495219,20.319698472915956,-16.230706150008288,-10.118605464470386,-19.475828444592086,4.5168804374753035,-54.2247839113433,4.630512038164695,12.631730642902783,20.20815237421316],[-6.776569430226512,-36.39011223317375,13.07011195306629,-33.43336230753995,-17.267281147986242,-8.47032751269384,10.05926676092384,-48.13266995556294,-25.57027175637053,14.504639031812935,-7.123328334623294,-0.8605857049902975],[60.991392614838304,9.37619801752543,1.8866369003702173,68.5878408187543,9.583430752427752,16.152667084565987,11.673911070295931,-5.432109226288181,2.272322020548888,-8.104661704429402,-3.289662317571456,20.39087446575027],[46.96148706477109,65.02111389396443,-75.55988837908522,-34.70375024506682,-38.517565546836586,-30.879642314578497,6.55298591192553,-33.93425112136232,32.00476582568655,-26.329014115429896,25.104536951598185,-55.14536527940331],[-23.31390582835841,-32.81604663735522,51.69120981799792,-9.708049169787504,7.857803313908697,55.37790737271602,-21.90670205780055,30.031198686786187,13.699849966656654,-23.26542688124604,9.146882975343955,-32.012031543207954],[-15.543825508635386,14.873298177428092,16.200957821944307,8.285134633473165,96.67902160351919,37.71242842267402,2.8594026541292417,9.024605238730446,-2.282699345421639,34.38142985925299,-72.35933479803232,14.46997535598993],[-23.966864896830558,-30.975772391736328,0.8180000525235843,20.556968066840202,43.987681255269,-20.611648648869405,9.216271093250155,-8.34171922148536,-22.32912176984983,6.809628105749642,-9.009577087903093,52.90199080351866],[1.9322043702166454,5.118325107910433,-5.14219591642832,21.767489175123856,61.30426387421368,6.119373974735423,-14.745635231552686,-67.87048012014839,1.495586415277967,-16.894393787327747,-35.895208241084276,54.37837361404861],[32.611785575403836,-38.01148054016275,-7.842496776772055,57.66248786463102,-3.510337370319332,34.52698654744703,-16.704453189261585,10.60142768983791,-67.97806588833727,13.334013628596223,16.132730777350684,26.809980203268427],[33.31028963560548,53.46593266762294,-3.682479132260717,-75.14407870025566,-55.069338280806036,-11.302620157312885,-24.552191304729174,-14.364887387055543,-40.90455659455368,56.73962213915728,-9.915939483727726,31.89789632736569]],[[10.9521263928829,10.903494070976722,-28.03782899838516,1.4061083803374714,45.56108306472953,-28.540865382643545,3.6865390750855886,31.507910813858146,-13.333129119622223,-33.16096801343389,-47.00868975408112,21.41051039978846,6.96048549067732,40.7836766798751,-19.94217202912495,15.016637685810421],[-19.12250612140499,-12.783375139033263,-7.69009847878405,41.29660719120175,-12.088648449782838,-0.4999610558124298,9.400609632038915,-11.606397013561462,58.86255855036926,47.690060211507166,-19.843599881726156,4.416832064853036,-64.68807822053468,66.01452457121647,-10.866135216063585,7.654983037741472],[-0.63674825008342,-16.190673396752846,1.9442476037066962,-37.35490863567967,-30.0294361918659,31.47393272106931,9.328297204973367,-41.484535305482055,-15.656274154123116,50.20130309380309,-22.200565791302147,19.17627097120329,8.60471415594943,-12.544791488355017,1.167198330348477,-2.194726086398764],[33.681133835024276,32.48805688825419,-3.9522976923807023,25.331447426176066,31.07911804117252,4.470442941346051,-56.80706731333457,12.278276198628793,7.983159124188973,47.47240727285636,-16.520265193632223,20.852950125648256,12.41073828095104,7.571899706399517,5.861946291928614,34.16633164947494],[-8.112799753888329,-23.679642306312843,17.513024129091438,20.87927663881222,24.530882035278108,4.320634166912495,-8.157374902679482,18.656105375275832,-45.84041225655104,-9.07956098060839,-43.86168097247413,32.61930126026368,-31.258390199175103,-1.0240088084112007,13.315089264435455,-20.899283031349178],[-25.744708259553313,59.970044500072525,-0.7753014117151614,36.35341428036267,11.268142073965443,19.662506708955775,9.351157904655203,-7.997104866617078,-1.9235998718589282,-52.918170339997936,14.943856979376491,-1.7559074895518065,53.403042219039655,-25.049225495738405,-23.97355234760858,9.412678690168933],[52.58449313003278,-2.1843211148384984,2.2622676329216205,-36.14198987563289,6.747658188811652,-27.206727066735144,25.548232197872498,21.873151005160828,32.931619363112816,36.99547186469366,-14.944001818783674,11.640631089870398,-4.522178890357133,-11.91429691321612,-39.521034390845635,0.7142393811470678],[-29.187463405615777,-26.031763185715683,23.975748758534326,-67.49334378221252,7.786447599209068,-9.348733798270368,-2.1500227838303463,-0.5450058556088462,10.719174415626373,12.548745182914217,-16.983713338192448,-53.50333186773803,-31.224148624958957,-25.815044524095892,7.649962669690263,-38.905925990457995],[-20.61595217515096,-15.700105927234228,-14.226806519176144,-31.486264977830594,-11.848086195351698,-6.211842745206036,-33.428896646869575,41.032197379690245,38.06635904461918,13.553628852329053,-21.874350065213132,41.489587268500635,-15.975100363410862,14.116376369833,-10.805791225938338,-3.624792018890377],[0.9516051139733912,-52.09423825982175,15.195131929510687,26.87938785950289,10.421818571602724,-44.003771838720624,13.624772157643193,-19.774144434914867,-28.630897083586206,28.300922690911886,-0.14667175069198124,-1.159361178782056,-39.74394116317264,14.722820348054414,-40.038232816711066,-3.5337943763704205]],[[-6.379423170825553,-8.940140652333959,0.9979167794678638,-18.93081325272572,-1.1661836472910885,-2.211013462699868,-6.930130482097488,56.176993170735734,13.499825069900172,18.53032300058126],[44.67270366708566,-28.026041178098104,40.59339484990521,2.1858313599615733,-31.66513398375826,28.51752080908595,-50.064182288044464,-16.042025216455524,1.3324984359684706,-53.95834986166151]]],"biases":[[2.453032036180984,19.40220622926498,2.439837216223677,7.4077814259295,12.624309029905202,1.7675377077006313,-11.157054647569264,2.7684810355960887,-14.781601357621337,0.8948155099163589,3.164122788567378,-16.226568839016863,7.029916376511108,5.2363809988056556,12.693385572913872,12.971454412850715],[10.168587876388655,0.25039396041093426,10.476435802962875,-4.052053857545611,0.4587786197345467,2.712997868324915,11.644766525725291,8.380401827938257,7.551296667956751,3.0640044837113987],[8.766912419671286,-9.937986211056476]],"_generation":201627,"_fitness":0}