{"layers":[12,16,10,2],"weights":[[[25.44427047076518,1.8781980316661442,84.95531574071215,6.273101999274774,42.62718605419034,54.28354100691402,-79.86039561140238,-61.79135475868063,-39.561692688870814,-11.328670527636726,-4.387864042119306,-49.354590318930214],[-52.14026181610489,-37.504348834379726,-43.8431753843021,24.20829041036456,-25.15717216906214,-44.959592673038316,-60.04456610813224,-94.57248062941767,46.86467924848443,-26.342273089998354,-76.5382400598879,-53.67051416369172],[-10.080797865097987,-35.82559600879618,29.372781523457924,-37.757461733150315,-53.52039260648592,73.471895264759,-32.06759940196196,-17.590357116738126,30.651630901163877,-3.1011766107618164,86.9950170153785,47.010783768870674],[-47.36404024859882,0.5964944931257893,-24.13060942112927,52.662854875980784,178.69208589527466,-111.88781859236498,36.66836700878134,31.458175347502216,-27.650580493885503,-12.757999419092332,-2.822364787256112,39.03275630838329],[33.02647775142473,-34.6842528106417,-1.396101877716717,22.819347504264684,53.633333180343065,-18.321162643468362,30.865851803961334,-35.19901379061585,4.626129293326889,26.38195965661516,-25.18007470115906,14.383951931988989],[52.63897894659834,0.08213779385212677,-48.06765842965539,-90.9361050008152,24.12834850980813,-28.063087001621934,-4.781890326767257,-5.868258095978169,93.80346310963856,64.11963795042017,-2.5889582216397176,4.273252568046531],[-48.61168006591086,6.9342072434348,-10.136931375404478,51.92166872118202,-78.6210622763052,-30.807821729978762,-52.437726262069724,2.74994502676675,-47.11056323266485,15.100152964324597,0.01746746896236097,61.16808070265833],[2.8010545957754296,-19.450962808910674,-6.291826084402923,-26.293248690804077,31.026911961744908,-9.234793160836599,26.1014189547735,-22.076681440940465,-41.04437004028799,66.96020278910713,-30.88176205084116,105.35189686048416],[7.082681938818862,6.702875039894824,-10.591481669191381,48.14534799590387,-39.608066716965055,70.23594041545098,32.363870230773045,26.38624516996454,0.9260396974585772,-8.215126400576077,-8.633668879536069,14.151883782265411],[69.12199210262612,99.77226531602177,-85.26695672196229,-14.385425773824634,-55.715769069139924,-0.7140584307777302,41.00290230524364,5.6089390573389615,5.169389336598861,57.11826501093189,-7.177371782919503,-67.0406343334689],[-36.988005349532365,52.499753096274624,54.82195825970918,33.23618989144513,10.17686766955083,61.86136145822358,1.5743191517863464,20.218952397885896,0.3271251122104586,-22.239707936867283,36.58921719395626,-46.26881556912233],[50.18821174888137,-26.566625004823027,35.88611811065002,-40.56038931977461,109.03850715004361,62.83433408120715,1.5568617804576441,-7.476369960900268,8.087191001831844,-6.979564696859991,-16.410323794336094,51.65680663829],[-80.70047335008228,-25.97593401035587,-1.5136534689074348,-25.17647327671554,47.25709406088886,13.792304168346497,22.707095458703506,18.07979606816998,-16.16345310520939,-91.93616200056833,-15.837776163269048,15.947418615267544],[28.99728264835708,-93.15364927089564,-8.200095724558446,18.364729620622665,63.545370728922904,-15.8938839654897,-58.990640585159085,-100.3063280596417,43.452460070922996,30.45735991831439,-4.798993612819776,51.8720495666276],[-4.550472194183769,-28.53431859357363,-49.201908610409724,123.71674641103314,58.88118104428772,46.24363441893894,-1.174802681807367,24.24852690074894,-92.39230162845041,70.35160849587679,67.3721399316234,53.221158959137554],[23.595354407619133,64.02804298541878,-56.42626454861183,-131.45411451136775,-36.99599705018194,-10.916621165120143,-8.567787754729332,-59.9561017231226,-82.66143119545735,-19.006780189497032,25.46684122920508,88.22709364909937]],[[-0.336108634920993,61.04689618074868,-29.086764767810422,-45.35088012995187,83.4810515968847,-17.285860700106777,-24.95478129545315,-39.9450481860502,-45.95885296136294,-60.217014003449265,-65.80935538273444,20.98711360925463,-4.723461543767724,66.63869615499995,-75.75559758486418,59.03334582541635],[-2.633583729723932,-48.76870531438527,6.8659271690599475,52.68074185005487,-9.996463474191689,-33.7498521573888,14.932345229718193,-14.874150036539175,84.21952419917048,61.596839981606514,-28.409238087519707,-23.06794164750265,-92.89025739048698,14.348380155598267,-24.818405566379262,-0.9910215581315525],[-65.84796282294519,-36.41384809081469,1.5338919841763792,-54.81085966868175,-82.8400440624139,58.47159543985835,-44.019428157613675,-10.085982937976903,51.222942540951955,95.66422338670937,-22.249965438860265,14.21426755932124,-6.4518513293646675,3.5973239581757586,-20.358036633618408,40.158277148179586],[67.24254634556252,-20.88607002026082,-2.681697911912356,-2.448751728403258,50.11659746398627,-54.18466018937068,-27.83548104501487,29.97599666573281,-20.517517083675145,71.81906458260522,30.63296175327626,22.839608548022763,33.356454469442895,31.21514559048484,-44.063708988318496,28.830717894367105],[3.867524341464265,-17.288375318584766,-85.48121447862785,17.987446865031554,-14.909040308519327,12.147505841188872,-19.24091059296359,59.21324170598019,-42.31430580619574,46.34281562621155,21.388883387629704,38.150201011485265,-47.450259599245285,5.29525736295471,5.465255347255216,62.417282522866174],[-88.3543195876873,16.394075417407095,-15.407983603931672,67.7565906555006,78.33281073258321,44.66221591403378,-16.38993871014555,-40.03902938925541,-27.24771987510562,-75.27872319469748,-58.24141151053323,23.305236888298786,10.426620643868768,-52.13073906652185,36.367917500526296,-0.4710318339429852],[-48.58139380433003,16.22077868987463,15.561244425118453,9.35564894835666,80.22692140507449,-45.74820331051116,44.25275484357023,3.529246934914941,0.41583555965783797,56.28205062161069,-23.676891275849723,-44.204500037135034,-87.1212239974818,-28.26752726542323,30.486156325398422,-44.41697453996998],[-57.391751651100016,-26.20288191091416,38.824064490455484,-77.35529297870744,-18.935736230254186,-14.494342016090703,63.31210547188364,-24.370493147613953,55.5299809085822,48.06508514047959,-49.019573304283895,-23.73927449986706,-58.42001812227308,-0.8004051877104461,71.9016931042174,-4.294027462646699],[64.15026493459044,42.12652072031999,-15.536548475968956,-63.059795811533355,-31.377525160314118,-32.237278945041915,-87.76543194798508,100.12398908221752,8.756373694203603,0.345901423578199,-98.32288543483635,68.83074963335346,-30.315885387496337,-78.51520563104154,3.1426359878628034,-20.50969899813234],[-82.18144429968686,-70.48487640644774,74.9298906770424,-11.139273905749755,29.79406715644364,-22.870001004568373,24.861034969131058,0.38932619228695203,-19.549351186163285,62.617222306382516,-12.478235218780974,47.832913401133055,11.468634978573611,-85.38284687787241,-81.88551730400995,15.337082308140182]],[[-0.9052293836332151,-33.795718855637816,-47.30281938505252,-34.2341598082822,-47.51128466510702,-27.71088422243135,-33.58083150338269,98.98877328139663,90.70122192182747,-4.2440220166063725],[17.16458168384898,-42.619934367631664,42.071337853246725,-8.386638253442433,-38.447926608922145,45.01539469663552,-72.91552798895917,-63.19570017358593,-43.80007890333114,-76.63786164217979]]],"biases":[[17.956937187387222,20.01711843794772,23.27530760673915,20.345766634982038,12.669575436187106,4.6686657724955705,-21.6025632897857,-7.737684204742609,-11.125765120560011,-3.3321939718952343,22.448468612782502,-20.004035232153477,20.55366858845485,7.071901771875539,25.40245975256462,18.152395611337848],[17.820786310437068,-0.12884377929749094,23.19207884437468,-5.3160865020717,-7.050894029263325,10.147513110391909,8.21255367793169,18.431100708650714,11.654382906605361,6.980062896143413],[-1.5441272052065202,-6.391277327804594]],"_generation":546627,"_fitness":0}