{"layers":[12,16,10,2],"weights":[[[41.353465214043425,9.325706578875016,49.625550318524965,-9.90410904333925,29.77377267958744,90.47250033521,-153.55135506072608,-85.17365263027877,-59.49982469642899,-13.835790338078317,44.662593847787235,-100.08643560965731],[-17.157906749394353,-35.553604714398425,-78.48039055873278,2.664962365461963,-8.110796662609477,-34.649356860664994,-24.88567420587845,-64.16911939238477,80.44400765689932,-52.51878958142727,-62.16919426017572,-102.84919978539342],[-12.578588551360415,42.93781951808704,20.858444705507093,-64.12016577466929,-57.379464492241354,109.92117170755921,-8.79483802002542,-46.13075813024268,5.274950422661901,27.12138550084491,100.322803010955,107.60136855577912],[-63.464471133929834,-30.56797258182115,0.8512631071803486,60.945162158509675,165.82599785992028,-96.3285841007737,-25.136967578693294,9.087106447685045,-14.873034496022592,-27.97211001012354,5.7415653175811645,46.35828353162843],[16.967637949491696,-13.154472182839877,-5.9374524818938905,-8.838920026918414,116.79791621876883,-13.689845212948613,54.32588547473116,-34.049070206598344,58.4448257952116,62.10393885604554,-15.997547483824897,63.97217254378489],[88.2014528518077,8.46912977418985,-80.50074106035692,-32.34264922609841,88.1618589554014,-51.56941991796098,-31.16922040824591,18.839865924117095,125.4546628253511,27.541599208860323,-34.859731954028305,-18.378891286577925],[-39.98372563820572,48.85135057300268,69.29589899261781,-31.989378137068165,-88.89961517898756,-43.06664275308738,-41.95478580108293,12.322813156125374,-77.06204336944853,59.9565409209019,-45.37486641020154,25.54931895722491],[9.571447532937938,-45.76584218932504,6.611257926057011,-14.361680464895041,29.8734060153857,-17.241682976441826,-17.309709396483807,8.302874991397193,-62.676917809529044,135.38904226872762,-42.20923092508896,98.20966617242573],[-8.359069692874547,-22.701355920574,-49.52424309244434,79.11599286875163,-15.033997993169557,63.419027820727884,-26.8190711210969,80.42766650150607,2.0015588710876173,6.356161353277308,-29.86244610691408,-11.816901803953733],[80.70483140718191,94.25811248932408,-107.19837896166432,-21.400207052071725,-45.935034995193945,15.893479575098779,40.75758928167429,11.236909390410558,-7.067346535192103,27.53849792362137,-12.279504955399494,-86.65282840352553],[-23.151782908581815,63.77297719771741,76.53918315084073,24.3094077652759,46.43074175048609,41.71670091831552,59.59659291449018,5.128155760624073,0.13291726187583652,-15.837252558844286,19.739763742737058,-22.775152667979626],[30.70232400090175,-75.45272171988299,69.07424233944032,-47.6434856370848,75.22169186222894,62.09200206642219,-73.40352647699372,4.6244727632447455,11.775878177812912,-57.80477356783042,-12.690987721426488,80.08057002159812],[-83.61348936682124,-46.22866527743399,28.763322597475216,-50.14362499909487,1.9852127218225777,37.781088479783875,40.4518312032383,18.28859452108415,49.56880852284081,-106.94284248478527,21.66631501115244,20.229164744510967],[-9.882108255202303,-89.52035336680716,49.197883655193486,93.59081640936394,50.15789877628484,-33.53826458041021,-37.47790946693243,-65.78150318932191,57.84819288583613,26.210020180957237,16.2748146459981,135.13109522326005],[-32.198336520569555,-81.07007117765572,17.187348325875124,100.30560433154713,-0.01762588899832035,16.790491360719578,-23.200305822412084,38.7147967957301,-97.58486449674926,88.16648392590922,100.25297359948004,-14.604629909238527],[35.64170661505981,56.091749970061095,-138.11538675645352,-160.1348186933237,-25.243060679451773,-7.10973583946662,-12.166108746555956,-91.13651605621254,-104.03502785061089,-81.81340082480817,1.947285928501212,110.92415766935872]],[[-24.59083058905046,41.6858233071569,-15.832964557641606,-34.097694894109395,88.37254767864246,-10.07251490946996,-0.15129132380372287,-27.382990691912138,21.016425426737197,-33.68018103900101,-75.83677221562004,1.7701828831236008,3.896829011771868,41.45326635832534,-96.15706661479597,45.98991420502879],[31.404527715203372,-75.1173762318155,-5.249780811049574,33.87186818402959,-29.79738525098458,-52.31995315426139,59.26288079725443,27.070218901006132,71.13444260383562,46.175908377879765,-23.632517118747696,35.85734485251991,-61.89522994835521,4.27150891987445,-8.002128547961352,15.78677283254024],[-93.9900826257779,-48.86559500818332,33.70236866086324,-100.51679118375284,-35.77745036481512,42.228843205507374,-93.92222635865936,-5.706668131463375,65.73422235879822,72.61815548603069,3.5687277669334594,24.44199228544853,-44.26316311798229,-48.15372128382049,-45.078626549169336,-9.735749829385997],[56.44123167569535,-2.6799774461215704,31.46460568025264,25.33099053088669,27.862218178612142,-77.4687886686341,-53.93630429427837,20.602330203799074,28.22345575889878,84.39985306823795,-28.05313791211995,29.69604562971086,22.545870812781597,-27.452854907195153,-67.41501503881635,33.25339586731266],[14.675405692683125,-79.7025900174387,-86.88547251537283,33.03264899936969,16.59428290080224,-63.78430616782648,-25.095377463119274,40.90330261785316,-24.163042546636227,86.69710674249755,39.880606021075465,23.02811885288143,-40.72472712288921,-15.937842568573698,2.4139925481680846,38.38075299794246],[-135.35518601449502,1.0110219839415384,-44.68219429652941,79.56645849821642,95.85366925223829,10.008086265704593,-13.093635508999448,50.18041289460825,-62.75296039698593,-21.352363475529273,-19.887669500524296,5.1037709234780415,11.840107377123582,-24.358423022516256,45.658292574671506,-6.822412065685031],[-97.40800811493843,-0.9871112093618017,19.974320546632594,48.581682376598685,158.94616524451703,-44.192259662021534,61.0900337012265,-6.94776700968113,-23.781938137256837,9.835550260619929,-57.381597453959614,-58.32765259825966,-127.13327899127927,-36.89169275034976,-32.12557356518494,-70.23510084597217],[-76.0624071905059,39.73079833863819,61.44876703221688,-151.1782133840121,-16.652320716368358,-35.17176463374715,123.6968007568219,-31.27905007367223,79.20970180791542,10.283067662314467,-66.75227222756337,-44.004531140070654,-72.0116868446724,44.935620056425286,86.7493095311111,9.00772731467382],[33.58991555816128,36.22623684288683,12.525855382744085,-23.299273397136094,-49.02779579796001,13.070962940256244,-105.69905042455404,121.20772997191382,12.80272701691691,45.52000603414543,-146.6840411320601,136.1727160750998,-35.15634848635683,-128.50926232411504,-84.0079985487458,-28.39025293546565],[-83.18444300117847,-82.01938727645023,132.53426646880382,-46.19574190780733,62.39104496910695,11.058919123493604,10.741936656986471,0.45497705904080477,-76.96590823566768,33.98193966616832,-11.594109210428819,142.44351999271694,3.6072391586464128,-59.85673969301785,-110.07969213439536,0.5154005768720213]],[[33.089454381828375,-57.802741013086006,-63.05425714591301,-126.66311172044264,-89.32352838485741,-42.99827464793134,-27.286182860621047,96.09412672251612,61.84059519350967,-88.96103357187963],[68.93789681252507,-83.50973164491012,36.943953981737735,4.845027670452888,-65.66732575871688,21.948116166997842,-87.4294003853976,-43.077104348869284,-104.25345736080857,-62.27151774600939]]],"biases":[[4.289427441503334,44.57937063435106,33.67762451643872,15.629460368695716,28.240641080001584,7.250300085889368,-10.416921284236253,-16.35082102774239,-10.653908136836268,6.627864399253364,20.36115143200314,-14.35112443767121,10.16611597301536,0.9113747136978487,26.54273663159577,11.541778520597965],[40.01176770378525,-11.859668614637725,45.97381734749373,-13.603039312698094,-1.9823799308151142,4.223340721606831,3.415865348768938,4.834293169323663,20.318485082784672,2.0410810104834995],[5.693524737379741,-24.084580227976804]],"_generation":791627,"_fitness":0}