{"layers":[12,16,10,2],"weights":[[[39.878073978810576,-11.571744195864444,65.98630543718816,-38.75097840152031,35.1369574350256,95.69443325955041,-130.9252551637488,-68.07736650963398,-34.34951218955407,-32.98712304560647,33.032320549138525,-117.07485831421971],[-13.114280183233575,-60.75777286857701,-110.94731643258193,19.95658466893945,-17.766900379043292,-20.85554189739797,-37.170501703033516,-88.93453113218499,85.33549499077478,-72.45390459672063,-57.5983881620596,-80.2994030912444],[-13.008229306509964,-1.987893660925646,25.56206881167836,-49.2850081518487,-55.23327387292409,98.80632455112271,-48.701989509222834,-37.21171234584003,11.401659579003267,22.729641591230873,99.22401802950664,93.57954832207321],[-62.6809525610269,0.06670065354136404,-19.189139969840532,42.43568815091352,165.601406175333,-79.1928784831943,-21.676178704844716,32.514600864529896,-9.101080432442407,-24.404212369278138,10.380309375547288,39.11468769316286],[25.852843939357506,-28.750758898935516,-11.231045800098677,-9.232673394353347,82.73900056459249,-7.9553875576393605,62.85101127007108,-22.8281250252049,30.961840505969672,23.759735594511426,-6.1567219697842805,66.32081449499813],[75.00817366471587,-26.680552469206305,-80.58869269631316,-60.675474187068254,62.58603060838546,-51.2704981239963,-13.59394228322569,4.360883307988128,91.51404018784775,27.231653128023776,-32.451919135225836,-13.596885980986547],[-54.79195598148986,49.464666587605294,66.22771799588278,-39.042129905526714,-66.69633961014294,-47.567396167560204,-83.96491807121728,-15.446698647671578,-78.59214460171145,40.13306294325736,-23.297222040559014,26.727511750666434],[16.097423368175853,-15.73285518323703,43.82214719315955,-40.432898123310245,66.63182751483704,-9.477545045023806,-17.575592720168036,-9.22026224099477,-55.8291863912241,108.58943944844114,-30.626397910794203,125.4208198982653],[-17.92733150607063,-3.1663337120029107,-45.22638553447025,54.96609649851711,-37.49000261968176,80.21330102877633,-0.9735827301366705,83.06370496242882,25.688837646980488,-15.266462151311426,-4.477946334364015,-4.327499931556715],[86.26031174519464,94.26209621024712,-127.8263268668751,-55.44527269874594,-54.551382756242056,6.798350477460163,33.07553677175537,23.44983324630465,-2.9103415601475238,15.589522454498475,-23.047873008947157,-65.84422241233925],[-38.03204632839375,41.38021528298414,54.90580627875846,7.049939828285855,22.228752427064492,53.68867205295185,50.296992647814335,34.916371724306664,15.825464205524682,-29.420723988966376,14.932539169746681,-19.201479133668364],[12.887137022907686,-48.67482981248599,72.05274917205277,-51.72429914826521,57.16247500354345,54.480375913452384,-45.265725584172635,20.251217635084693,21.400969299547704,-32.84107699502419,-7.197551106108445,82.01612677263621],[-72.78428988986832,-34.38847517629854,28.04997752901997,-49.07645631199221,27.98980619304215,7.014099449206252,49.78446847368729,-2.613284592077744,26.788519004189997,-102.13477620499671,4.956213703534106,21.841177714664617],[36.50619226682003,-86.66866440116998,21.462154768163533,82.7242498179092,44.46825604512424,-49.368219723563186,-39.35724090653899,-116.93586994241835,41.2904135058372,42.26020325278218,21.73590676728263,92.71771887875614],[-1.7639374323428327,-56.6021304509272,-4.447541754075695,109.22268118430213,20.456741682352966,63.60331757877831,-8.237770599934507,23.758612733436465,-113.03421905215473,116.31019830040752,109.06346680765019,-4.474511466575568],[62.54339807929278,62.59502885477533,-95.21311371667352,-146.95429734305264,-34.498315390524766,4.549487628116852,-30.847530403210634,-93.71493228760193,-106.08942383353204,-52.25360200773698,21.502655090120754,109.89377505322305]],[[-12.551306000167159,51.17858549397125,-23.752028882901662,-55.30346157639293,95.08762426415291,-38.918988055102716,-13.310319401686376,-13.239475935787118,7.127150040704881,-60.67276781458277,-93.25954765390458,0.9815461442842939,13.713309997542204,46.6698463949223,-64.60863116367668,15.030144327179853],[12.832323321089753,-67.48566829159924,5.213399638258202,26.371895803625208,-29.279585186338277,-44.9888314517507,80.0829484451068,-0.04717290916331812,48.041216528659874,60.59685763992878,-14.059412681842426,20.286238516057768,-111.50895610402797,-0.3254570509687689,-21.043849400781767,15.547879219449243],[-94.3662440358465,-45.98276249840795,6.391474575617746,-65.70940242767885,-59.93245409668843,54.232459913434894,-77.66548133893058,1.1892874933620725,84.06977690175644,122.37589997560228,-19.304594962272063,17.323801485095807,-30.460201929721467,-40.45664192436009,-33.57288682476879,13.460231542079578],[73.63235292185398,26.11315591699786,19.012259538707195,13.308818759823998,47.2655816656914,-47.25141387123573,-56.474275261462296,20.869046388488574,-10.78387937573253,82.10996647038074,-11.667072178810391,51.225722712573194,29.875889950700167,-1.5169283978375363,-64.7149095927087,11.710805795121933],[0.2002324313565261,-27.995325406277733,-98.29850749702734,9.706632679821592,16.177942374522047,-9.397721409910746,-5.953592997308135,18.21066939964488,-57.30823665863177,50.417593419640305,49.18402143607886,14.824263867422133,-60.7924945386414,-13.361988368233526,20.013137605980944,49.81376489075851],[-118.08749103588944,-8.469084037191635,-28.792973875215516,64.7490705623551,102.30384964734739,16.452273098300555,-10.678487566352544,1.8420795241473873,-55.302105965147746,-38.54514119632269,-47.647227591200604,-3.1103512685894232,36.45887329513056,-43.784655164637655,23.591472574011092,-9.148946727736629],[-113.12196641610231,40.086081176502795,-4.715813049544118,40.723984745244756,160.0964699620888,-71.40740106318907,35.94535997541642,10.173724513543494,-50.885239422094756,48.23338293096817,-25.79941816542748,-44.75459306741964,-98.5764218715924,-36.52069668827864,-49.19771313153208,-42.026392682234025],[-68.34309679873944,11.508055277732915,70.26653549330969,-110.79145614765207,-24.10595301797998,-18.665891103187462,103.22030953382328,-45.914511560234885,68.39445533583817,5.994294220004949,-43.663127334073664,-22.735514100333184,-59.72771846219736,5.7981757345671046,54.994513359875036,32.51879387979453],[51.69603168785626,-2.6993215564022695,9.60596454147082,-65.48644810555115,-24.24369374728368,-3.5844124119992347,-79.08774140548346,131.45616722864975,-10.96964280458256,7.370109493711202,-156.3560166108247,139.8092812233726,-40.854871504464285,-105.82568642108008,-71.95477463288162,-34.87748427121049],[-105.24318952074364,-58.85417102659243,104.31465394621759,-9.746446358397643,38.27129875085961,18.40599135873675,21.21345523505754,-2.265498019113186,-65.93425156435073,49.6057875511136,-32.12782516250434,106.29008715291332,38.22790230768571,-48.03192774607256,-106.39659461899018,-2.509199404970482]],[[33.70738100639171,-48.77222162009224,-38.14413928645478,-77.69295779833577,-68.78137058156017,-47.66259052479681,-27.302914111709036,95.3631872589339,49.441671962384135,-51.82608165339591],[21.474041452181996,-66.84942466773377,51.82933483353803,-0.6864089017272079,-44.20460442225408,24.243146512326703,-94.25820798091462,-42.49496702852704,-115.31311839379089,-66.02581942882271]]],"biases":[[9.096724652862234,43.31693884552933,29.655937431481295,19.45862896638284,26.846299281244118,6.735347487723418,-19.911274454013714,-13.797208519203771,-8.139301893229735,5.916131243207492,23.11858969954587,-8.961109648907414,15.079196371017886,-2.701861292724302,28.442935874659195,12.680139279986546],[30.151079943409744,-14.805460822392044,36.82426663505049,-8.208151511405331,-10.83394964499371,-1.0265514495377186,11.174668785243252,1.6244312059660666,15.976044926418599,3.643092870223681],[6.470299662598735,-10.772414343498385]],"_generation":706627,"_fitness":0}