{"layers":[12,16,10,2],"weights":[[[42.088339342544714,0.5896243671304611,71.58348900951499,-34.236901817450764,42.074552518990124,82.8729856077349,-125.03695325930374,-49.20478280507145,-44.244296750219135,-35.12173180768682,17.199746145212043,-105.22264103159199],[-30.284533650354856,-81.16605490962861,-84.89063746477252,13.61622487229028,-40.3795993654841,-32.324415130734586,-35.84580625351397,-92.41845906492318,62.89582614963506,-57.05961943117406,-50.53218357480012,-81.53326885876872],[-8.48350122195061,-19.680536013626607,22.65562759784624,-47.24989078757435,-85.71414466516049,88.71281015499109,-62.45503930841006,-4.279101135113935,16.87542377072339,10.716336778612721,92.8507278066596,78.89496825867431],[-72.29758270699256,12.76141621817875,-31.70571029286734,53.9603515683547,189.30046586410674,-93.1576435657511,-1.89411403741741,54.6670640881632,-44.11258471286845,-54.768778387002,4.675236004041229,12.74670849204808],[44.245881257718864,-18.61161214808421,13.266307287717572,0.715212350708148,60.1867242876717,14.20505469137885,40.74031597522606,-33.16403339001553,34.689733862789915,38.579827136688685,-11.598981337269707,46.37864945429145],[71.1050336439921,8.57069862719492,-67.58685918524547,-64.03224217698872,26.73507792465105,-17.47340008566781,-12.113693167655182,-25.84199227929086,76.4467867013345,64.28783121442879,-28.369594934998254,-2.698671719076801],[-39.51794234327853,50.74751518388872,33.04472976890619,-5.645680338104226,-78.4899025253908,-51.38985003793081,-71.28121059406806,-15.8158050099128,-49.05512029451268,50.65237947219085,1.6532668777976025,28.466980610365425],[17.12757050832352,-48.89053211246492,20.139086717315028,-41.463863628469994,35.07120055039911,-17.982072307282724,7.486633063310757,-7.282490463257519,-35.575310233528356,96.30251509171046,-20.07927036442793,121.4599383179174],[-6.412834583462913,-2.038080993091524,-34.606113828761195,60.1752751687716,-4.080841949736461,88.21265190377036,23.94591244695598,58.16088114759265,-8.682606032015405,-7.041298574905722,-5.13169535735358,-5.0588562828307],[82.91887738419173,104.45873088995842,-106.74418105456482,-46.702375359061854,-52.199166907725655,-5.416982824047801,17.76038915506883,-3.7474991689669,0.5969944041760475,42.13148580976064,-24.53882006411065,-74.0410582936672],[-23.66599581284635,47.36847480856415,33.36751359510463,5.686616799181834,7.655468315334591,66.9242360284417,19.023825316315712,44.32277563327573,17.171756341552193,-31.259456636171564,30.638337618380163,-44.94101636052952],[4.1736991164469455,-45.45610084340661,55.1023752649006,-41.42690077657628,66.98905003630256,68.21426105647363,-29.42044292434111,35.346532043093006,38.60598027745165,-16.92505034166474,-3.6057280357369703,85.67247057747963],[-90.95547581815754,-32.396147589184785,-0.7623415414143712,-43.884615332139624,36.199344818373106,6.151950100616498,52.61428956951304,16.14074131186108,-17.039734301035534,-104.188870655756,7.789190102706897,-10.16152670322209],[58.51046903468058,-64.81227472281554,26.60113372255517,46.18724731321939,50.722037294164416,-27.84968916833692,-44.82307798683297,-115.39362342328687,40.46829725231921,51.77993242277362,30.306441889606774,87.54120932823183],[3.050852172746758,-42.38480635937515,-41.27568201437558,104.77046757141197,52.24039198352006,60.71292198831183,-5.6696015845745835,40.84530576547933,-102.50870306515698,91.19988036692324,98.80594152877553,6.484009449857497],[40.88723066255311,74.8745835734425,-43.059171105067975,-160.4072830750428,-20.653549870751576,-11.869350742402933,-37.642782700022586,-91.40135951292274,-88.55462702882643,-47.20284759186659,19.95783515247221,74.03757543809931]],[[5.3707592522790355,62.871715675723514,-6.00361211422921,-48.26958048395912,93.70892729170211,-17.501970691582134,-4.478511135443277,-30.886235050478692,-5.486722360113097,-67.57624389412639,-63.209723616376344,18.972945922990533,3.7134528919267336,58.4155637565249,-78.5784216955879,35.32827147564834],[-0.12092060000141933,-32.640892951099595,3.6040297062581335,36.47451314364591,-19.793454327204756,-24.996125582191326,45.05182222390814,-5.041268077690237,70.91411241328277,52.418150773416336,-6.457693439106845,-6.142719125402093,-112.19776768807492,2.806911494059332,-18.081650958224934,-19.437254869474312],[-66.42033483502047,-34.821538842856945,-12.020850643052993,-64.40504768935561,-33.64980304327548,61.05133287869982,-61.35936926186391,-18.941831101189713,86.53795913762254,120.27854964076103,-30.649945666888076,4.059695489388185,-31.69736718505358,-12.207585824277045,-25.53881637141366,13.439964801123322],[75.07622601101265,28.996014983649996,18.35603514360787,-8.069850916091099,25.465652416579882,-48.87127153491839,-42.92799151054437,34.085977693193975,-37.930795354520924,48.96423680007858,25.57260284654843,35.83927472762451,18.180111473185306,1.8084578602302466,-47.144206404365846,-17.779095642537442],[-3.9938218676799164,-30.77817448482905,-86.6468229644621,35.66270412581477,-12.092767608789998,5.75550370040449,-1.6465748074926756,58.429068146164646,-45.35238763121505,58.59961636559797,34.59999495075486,30.627980409795047,-79.64447132693589,6.371150667254907,6.130159831667002,65.34246729668058],[-110.91622568910859,14.472978689808924,-31.748353926320828,55.071997303938794,103.89375197936221,15.762909542333857,-19.332366501374814,14.692015672904946,-41.14926259702912,-59.44057351056116,-44.51478453976016,6.020254222159094,-2.1422440816759076,-45.750025805712916,23.95782681115662,3.512462257857572],[-102.59889376083746,24.444244406406387,2.953273180662063,32.00348090671664,129.80146332473922,-55.30742378823752,34.42097145993558,-4.197614469998658,-32.12242886796181,56.889176027807956,-19.03000836187654,-33.28009912139697,-113.49313330303745,-69.97862750121642,-22.02469416376333,-33.63977265987744],[-71.90745086900068,4.26344085947443,65.31059962279957,-94.73393885081633,-25.25198971938076,-30.6254522018303,101.59372028873226,-38.18189914375069,63.29168073215223,36.446923577219145,-34.09317532510802,-43.758421748384386,-50.11562596820825,-8.811136705704063,54.430325393316096,40.18276955554832],[47.410846640214665,26.045424541239264,1.5238011497515203,-77.05537380832098,7.322459040305652,-7.4317402588115895,-98.9998465415959,115.25330657244191,16.350757840218698,-6.668641491569498,-119.31354893274363,113.75616534246008,-58.78765851127154,-87.92499570000234,-39.07015056438778,-19.201570682099863],[-93.44211951884826,-64.25321770892471,70.98994763197801,9.774884996755812,8.56650435127892,-14.518800294783025,13.110116208275967,-5.7297479364363815,-62.51031798665238,51.09421042129959,-39.07480514047563,51.67365892514496,33.471685210404694,-88.62849120327381,-95.219845403718,-14.610872180081184]],[[9.112563875953994,-33.85557787113513,-26.93152610621379,-61.45043028103792,-69.53853631573381,-46.73649145431838,-35.59742007330198,95.73334717762158,39.079911971356694,-31.58287610276247],[37.96464947983617,-53.851706500305795,63.45849916228214,-13.86746991233652,-43.46330052156235,18.435591792349875,-63.646277159049426,-39.98273065584948,-90.02736123560547,-79.01021004580862]]],"biases":[[13.714850563895542,35.67779452158176,24.877655086836047,15.348414510533656,27.255903207986645,7.9804676231917,-15.13777629799715,-4.188718610138681,-6.9230501132200795,7.615476428006611,19.582904349191054,-9.60551083028335,12.956496730189395,7.9970766197631065,22.259489919040234,12.202015173255623],[25.010862840650635,-11.75891270904632,38.12749373796171,-8.324448584876103,-9.465895894429313,10.389094013541742,7.1640061384210645,1.2068903984698331,12.705505880152545,1.0688687787973619],[4.445924145095743,-5.997036890813099]],"_generation":641627,"_fitness":0}