{"layers":[12,16,10,2],"weights":[[[-5.947556618457258,1.914865339597944,34.66512963536617,-44.10860839595784,19.075255675988966,32.64944111347792,-13.544246719942398,-2.9924298821163986,-0.09183018992082737,-1.4323953270127998,11.114370957597734,-28.228648271713404],[-26.078338005297635,-11.906754624902193,-10.625163572153662,-29.912327507735,-3.6581016053857707,-76.12424529968088,-29.74820527204135,-52.558006915841254,-8.253626563357479,3.621015938606803,10.910037944355123,-25.835446735265215],[30.30119651219554,-3.698730812525364,19.160592316834297,3.8676312635356256,-61.36875954205384,13.312791120882608,-7.302408198974422,-9.247530394444848,6.643544463285304,16.209739010153754,45.321751404919965,37.694416225941666],[31.384259794992232,-2.516070467033703,-7.48312518506525,22.116799457448522,75.30936342140845,-39.02393853425004,1.9560657140306255,-2.6600575503140105,-3.3544063780139535,-25.6366382594228,-11.056267338282344,25.48889667157141],[-15.036978193202334,17.36891170967983,-20.10241233482375,-1.644762597423486,-30.428212342652,-5.574445266165847,-5.130365056604661,-29.701126067626532,-39.7289695101731,19.83258171838767,14.796105622270511,2.09803813956334],[9.313359555071122,11.213540432341121,10.644078052072908,-19.714982632305322,-12.886871825137325,-8.749902897009344,29.398605503941674,12.201836749968734,-15.767533642507175,13.42721597386361,-6.543748355596788,26.255919582258866],[-21.743402683914532,18.62565183279583,-6.054059722476615,3.988566683639943,5.881811030685312,-3.0354087109116357,-4.531090904089597,17.102018638640768,-41.67411254347178,6.486461640186778,24.48399520128681,-2.253228895454974],[-14.794109090094583,-40.04171931194752,13.301740749957204,-32.215414942688405,-14.181289170143748,-2.8660019058310717,-6.882212507516995,-46.091511342354934,-34.22690745680087,19.15616477478569,-16.559588802000803,-19.91284896855223],[45.19145676177776,22.984125196728616,18.329683419849385,49.09933439209239,-2.276563310026921,8.35168408019737,-5.961100438207804,-37.575702670211946,10.150799896311751,-12.293365456565542,-6.435154092890302,5.269170093497129],[41.883514079260976,41.950713734609295,-59.23594457529474,-23.424947028848585,-1.8599141442053067,-17.274829997541445,4.824017942401506,-4.450362873984289,47.51947284628735,-23.184663285781248,14.795532290365706,-29.484604412816225],[-13.744484325699238,-10.324677435363245,18.68200156955132,-5.305693013667135,-7.886288613441185,53.162892694019476,-12.401533775461145,27.20056449758188,-2.17307645426099,-24.205776888034407,24.85710786104857,-24.824771649141795],[-19.936387578986434,12.155115922322604,25.78234225019081,3.60396916877428,75.9763728257849,24.79319565486314,1.1022141094156477,-1.319331361541771,-11.334348102264254,24.185528839678902,-46.58737891932678,-5.7482358504404525],[-17.076933867254148,-15.49760377081822,-0.7642321048327176,23.576245203364046,57.23385148056788,-25.02690385866963,11.069521110765994,-5.985055171702909,-7.940256269275563,0.9484078523091753,-6.4180363335113615,50.057161831511586],[-9.541672575723286,-0.6334890061879871,10.770142709641897,-13.93472305703277,23.99458952962687,16.98063865290847,-5.512906744372614,-45.88630364737737,17.796032174266823,0.7112239689242007,-23.971594115340874,48.72922645195453],[18.1145070318794,-19.389688917023673,-27.298653779929282,45.5691686796563,11.588072062514446,11.968578038709074,11.665995706127076,8.623448218506,-54.67286362751,32.620925648537934,8.75953695437754,40.474571536429266],[28.27620481995471,36.60469040847799,-1.117851209412253,-52.99829910824429,-26.959817505726157,-19.63101234864363,15.32629518149385,2.0360254322721825,-26.182739609481693,19.054391069025776,-7.238348158705503,10.198771149646234]],[[12.84098707529648,-0.4030134579247966,-24.01068009066786,-4.894622120768414,22.73314902658676,-16.83284712788763,-8.500268682286059,18.484599331015637,-5.96267087957884,-11.475360032576585,-26.790345117253374,23.926787183255065,-8.806121540639456,21.34763731236218,2.788245991340233,31.49212953246992],[-2.94777229116223,-16.032361586007,19.579794354361074,41.94750622589737,-36.63877105693585,-13.544948172187084,13.118490642313784,-14.304792966050877,51.631537536622275,33.51077228160739,-7.131454572582537,-5.583924124107442,-15.289474041581585,28.326537076212844,7.421395046502926,22.231996621213966],[5.837404614401379,-6.847439526432437,17.193654497634927,-28.050797056683013,-10.145640482708458,-3.9347615649143557,16.905910017835765,-30.047735685248554,0.6550396681666208,27.245850057018004,3.231379048759855,38.46948479282199,8.893308116737987,-41.543568720921066,-3.945793116837848,-7.104539569057415],[44.968751940317865,18.567832181479574,5.772066912338209,3.1155670425116537,35.648008046543474,-16.398589728183104,-38.561163797747554,25.047377573852785,6.0246330149087335,42.589414124238594,-32.685299895505736,27.032147884613426,2.129367543289273,-5.051720631131972,4.5874100073713295,23.748676013696446],[-22.302579505679024,-4.7645451215107935,4.1136874150477025,17.752936771542856,8.394049693808464,-2.622052447761931,-28.068301818003935,11.961217516796482,-28.055847065596307,-14.8193068778311,-15.25243868824127,10.474752784093067,-31.50737176295979,12.796541452298996,2.0204592131173866,-25.836244845441033],[-20.3948457574693,60.274539382918505,-16.527802559242357,19.567148992139142,0.21764603608097335,-1.0074723838984998,-9.802867652611521,-33.18615966052947,-9.274175018548641,-28.176649273337272,37.70084348390864,0.6591427206150637,56.15273303018795,-10.478696779388766,-16.941662749492604,-0.887791168003213],[18.980723823911408,4.393587037216585,5.129880358111448,-13.201789579462066,22.972989746659675,-19.138277846383378,39.111217904666105,26.09904547692965,45.3296059520416,4.835051250504854,-12.667224732360005,32.604476208574404,-3.272818542663106,-1.6894174720968271,-38.57645882018462,-22.732914559284808],[-22.245404803755083,-29.93996657591885,38.26707993996792,-46.44893469260807,8.472456619762687,6.140200957400323,-6.603304457067555,-6.780357251608225,-8.212996690303248,-3.6520891420406674,10.933225713092755,-36.56551327722962,-25.269721649211125,5.911795448419641,11.423015026304032,-22.07887057194341],[-25.671173600752084,-8.07622327823271,-19.988400077281362,-13.354274854506027,-6.353283370174484,-8.779199388284821,-5.646758504351899,28.864772048399978,19.738340027698836,31.13955631911594,-5.556145689358327,24.46910301637109,-5.906949299731979,1.4782870975694267,-26.50811381168788,-33.784347897288484],[-4.099746786003997,-36.38458553405191,-7.833336353884534,7.3800125357794295,35.586554087267466,-24.65926995050989,4.2888633360600075,8.312914459426382,-14.60201203614213,19.88929198397889,3.2328954230940816,17.757323299780058,4.608525526705308,9.008779402199854,-19.415210326086722,-5.0769803332655075]],[[-0.7375445484401508,-1.9645316776865118,-24.04722137719149,-1.6837820271963493,-6.4648915230686566,-12.738798510677547,-19.881964374254625,43.91102252722583,38.33025259158417,38.14426239374178],[25.016209268791044,-33.71577771321052,21.563663597869862,-23.531805978742362,-52.33537796349777,19.94040250067914,-13.229994496033392,-29.586143190759493,32.15835871623384,-27.83500573810612]]],"biases":[[1.1032332586553186,10.855715091809945,2.517592800554165,4.848315928265672,15.276041083217718,-2.989895731963353,-8.021348585065072,6.171593758149973,-10.855182954185734,3.1459096468548458,2.2057958118054763,-4.6326515881695585,4.460304605847605,2.995721797943094,2.843020507107205,5.535788368782376],[10.656069886795537,4.992282824741058,8.473699021987484,6.363712540924047,4.105275770462651,0.1877393517872082,8.064666037615874,2.9587546866975405,7.300219780542757,2.547656406013076],[5.0471291924241655,-0.4766975273171635]],"_generation":131627,"_fitness":0}