{"layers":[12,16,10,2],"weights":[[[36.30617766339859,10.708458490411866,91.5453109428776,-7.943710904944524,36.04993388173476,45.86340249258554,-73.11910092538128,-57.835651022281425,-40.061008808888836,-17.07001170107902,18.888715384101097,-47.79633005013755],[-34.63535426544819,-32.97869543443208,-38.70356472980717,7.566095967248799,-42.764443886964976,-49.53063119737706,-46.3376994545644,-73.435854773733,40.91382539353804,-29.4850692361927,-87.15012212825987,-52.39076263061085],[-11.508145352056419,-30.478484341525704,21.374095940977096,-16.325645139069696,-37.811783235121155,82.23722151232653,-30.82134203553839,-18.121580931037347,33.858294694813814,6.283136603534867,83.94240866616506,45.89570007025849],[-22.16346545190555,6.718064582146353,-33.27115296476426,52.683273907508195,169.5188184461243,-114.8584789770414,27.609449429665556,23.924547978493226,-31.565224786750253,-21.03655390457371,-11.954703468329456,45.61353778344749],[24.47549269138959,-22.362062085015783,0.1807452113540392,7.027890006490642,73.64707918744459,-16.92726953885546,42.071792452466305,-24.83397563245621,8.54576260672223,28.729049721876795,-30.79609652211016,4.5012115058675],[17.904729242384107,16.605224762879335,-36.38754630520883,-77.29458065617146,29.337953666004122,-31.320073202365613,13.796743435832166,7.580337865490934,96.60852769159482,44.392389326649976,-2.1453569534248427,28.664021130881856],[-38.372910397538256,13.870951853570187,-9.403826113931355,42.66514574933974,-53.829298518350434,-10.398630299175911,-38.32841000584157,-0.12349489011429773,-56.7112630683316,3.332610344521312,-18.22964260099567,31.24931679469344],[8.678876926268797,-20.11002856054548,8.86813007705518,-51.62585186369227,33.97752577813797,-7.81886495430191,15.090477150408507,-45.1927051705399,-51.90725378794167,71.65797270400991,-52.69816601576813,99.4169366255487],[16.14555022747442,9.931495985580586,-19.65382424151214,66.42867243878958,-29.103816478308154,68.50590841674588,32.35624087968782,30.715138282384743,-4.029636094979929,-30.372627139305838,-18.12575231132424,-6.3296609543380224],[63.06341284511127,103.78949749940209,-89.44956290744699,-10.418812833369469,-64.71367217090545,12.230859625284772,40.65632833888543,14.746243709167887,30.594207704438148,28.806590451752324,-23.07452169227349,-57.76512232677617],[-37.920664978851356,30.705479169598267,61.64873144310334,42.62849332698966,10.013902786999164,55.732226602990295,-0.5417599737231581,21.501372083235875,-7.001595789902925,-28.458939813802225,51.783892595248616,-53.67312397902008],[44.49316841752492,-12.288656007932705,22.983326010995388,-38.927481749909866,133.48251924582425,76.14840329555498,-1.8702850701740736,4.294265978745809,-5.120690532492877,-10.253426319836002,-16.24541126725139,38.798863432690816],[-79.69389521367988,-28.41229315627971,-12.180966829776123,-9.942584041950907,62.89465580688071,13.40909772153504,26.706751175499566,14.378114322582377,-5.605997590236337,-95.68863578881727,-20.209632030122634,18.64112351919373],[30.779408374379173,-70.63688651332467,-21.050720790119758,27.918197516734807,85.19128426952895,-3.213690254461219,-48.2330169321168,-98.2055678829497,27.364310885084365,38.59913445264678,-10.761688904667658,53.5847332412761],[-13.814449159678372,-27.328274423422826,-41.86501232093323,104.77239277361578,49.838172491423805,39.07112021805032,-10.052242652443544,28.10044834468794,-98.30617375051699,58.52726161117877,81.85076700063678,47.45290269856836],[0.731134915338985,60.88750386820825,-58.555596344359216,-134.18713700305315,-50.426907412851875,-21.26123221338077,-26.323808977589863,-52.305209022738474,-64.10949730650412,-33.27617017994802,40.52410128145253,78.97106788572492]],[[-7.226128109849371,80.095086613786,-16.28817565988091,-45.28430532908319,75.65222157652896,-24.785049378561354,-29.91842582796396,-34.09721053629908,-60.85067683829786,-66.5314483305315,-66.97455217556865,24.540174573109223,28.82846259681495,60.22966373710988,-71.5722495217508,54.38478351694739],[16.464507922454565,-46.39553787980461,3.12434869295587,37.24911885795002,-5.763647354494044,-30.476264566595034,14.666305488549767,-1.603683557762739,76.19144419064472,47.80499161892115,-18.027821394755687,-1.318016434806589,-69.41813194351721,18.623851951536015,-17.972299507029707,-3.878209166975483],[-73.84336574110722,-36.39429859095125,22.344838841224657,-69.67769313159539,-85.1742185979019,45.706249786885685,-62.317929272258546,-19.427661879187564,47.93377885871644,91.01864714577681,-21.15012869200619,20.877572103844308,4.543464277669909,2.7348578973033035,-15.554665113711138,44.231773681908265],[59.011150319522486,-9.34681354584067,-3.2603917056550737,0.02682258097747022,43.06826300541484,-49.06423106828492,-33.45158308550955,23.416471862339755,-25.966837782721036,63.36096360036515,19.424586506613352,31.346448104817636,26.008880279645847,10.343310628839571,-41.9003911181593,26.875877565326064],[-21.79051961879513,-11.394716467606852,-88.60112177341709,4.77240754021748,2.652192154906584,9.808267492399136,-29.357762451051368,62.6020132056658,-46.426449773088706,49.530200493766166,29.733826189495257,43.05192094465209,-39.979836054543924,21.411854211181932,18.697951182346557,35.12440409613361],[-79.64165739358624,9.788928170256378,-10.584494646961442,51.72860905410122,83.35581354282552,43.918075919200845,-23.403966042288523,-42.45298332267817,-28.23142838382528,-73.05261591980678,-37.555825085568806,16.45782965340057,23.54769635073956,-20.0654238725546,27.698339447768713,24.44585701059695],[-37.370836991589925,4.41114315051803,17.989935578079564,23.186892063648006,82.24549037706875,-52.55915897581675,45.93208220805474,11.14782529872722,9.585100512137387,64.2832784654014,-24.560903348059007,-36.811469691334544,-80.24611742251791,-31.649019019562267,19.483159350511198,-34.20407934664434],[-29.97820153000861,-2.510698465987448,31.145888980539645,-85.77314960831535,-25.286727858981898,-3.1381094681336137,33.11880184759332,-22.60651681444309,48.112371011064866,45.29789701931301,-44.836759399917824,-25.534577294720723,-63.333746651202055,-2.3237455732162164,68.81705001878834,10.742783857519715],[55.58202671688228,31.470549007095546,-15.268479720799116,-66.21041256098616,-18.828382128356107,-26.17013974083685,-93.87838467157437,93.7894158800415,-0.6818968146047476,-18.99024928612336,-106.92642573998404,61.0106543976327,-43.4623961797664,-68.98972468335128,-0.4182375440114185,-33.298629324614694],[-59.085350900689164,-74.00105321677079,70.58342097677108,12.780608041352675,44.77604932523269,-46.96559400903678,11.655312787854603,-2.249851188783687,-6.31861015070054,86.08942278692463,6.250997190375701,41.59290959109794,1.5062450527561664,-57.371037994486485,-71.40787452603708,12.532984863521733]],[[25.872815301296146,-20.537374911984852,-40.865635556030114,-37.45652809647429,-40.47626937435755,-27.367121201285812,-37.829251429903245,93.34965258610927,78.9628702316297,-30.661876678866744],[17.612066418783268,-49.09389492085497,45.472832868188995,-6.082116946222536,-37.20423047733775,42.74248054347512,-73.17037075834071,-78.9455932053535,-42.191971482675655,-83.71253645487387]]],"biases":[[19.48144660473661,22.32175982169592,21.48602143464061,21.04407383809418,8.106402633865383,4.2396688393918325,-17.28009399779088,-15.870069282562678,-12.777501313540238,-3.0742520791494385,20.123838606674365,-15.921786471134192,21.821320311969078,1.1990260296881166,25.677342045765297,15.542544943261609],[18.631372290288514,2.0093137126589578,26.54543323032179,-6.479729872332045,-8.896930834491943,10.214367897253688,17.825633705792846,16.584719036008227,9.876474011467621,7.685264163128378],[-3.1210997037933277,-6.587736734237971]],"_generation":516627,"_fitness":0}