{"layers":[12,16,10,2],"weights":[[[-12.861690971003735,4.190350275350415,37.51364524945251,-49.078447340825015,17.89555131605232,30.461324353554,-6.159015149838939,-3.8820254756554506,2.286855288689604,-5.463251430592198,15.195647650102261,-23.33126745710281],[-27.55956280165117,-22.240982576735714,-14.395962546645636,-28.69936892809069,-11.062738059531302,-72.12406301595782,-32.60786799724983,-58.29181089353041,-0.1804873165596295,8.281807612612567,20.226211311688264,-22.67469123888324],[30.022628737735868,-10.206522870447754,23.35124294428215,4.985020350020574,-68.2462810105325,9.299902799869756,-4.542960416619066,-11.636808734441024,3.470109255777683,14.240679805471554,47.3094961714864,34.848506033380055],[28.880629485911676,-3.6000602875141503,-2.5450156919289895,27.301186469895804,71.13668673813358,-31.370274519248635,5.447112526182064,3.4157194783753297,-8.307217139902704,-25.93556778793293,-11.723661724814784,22.546495170468113],[-8.954511724080318,8.976647701654418,-12.60963857125095,1.6936360555089702,-30.390214856615405,-7.369616823917608,-3.214953308575196,-25.037838681110934,-47.661538119252846,20.598452941923206,13.260420556749693,0.3137330438409053],[8.329048666311948,16.439875995889683,11.670208880809074,-19.232130389774596,-11.734716633951905,-11.573796383840937,33.80774538242601,8.164015370081277,-13.106316733391303,11.297568183290752,-10.095265497766905,23.508614570254775],[-23.872889466937867,17.269408081952616,-17.989133180050015,7.877517656777128,1.6087814853295435,-0.6092219688350362,-3.326242109976323,9.227057896934419,-52.909142265178865,3.0720824888134253,22.996648310425602,0.10812075966002738],[-1.8621943905682696,-33.502618908712606,16.724781130476256,-36.92608969790649,-16.938689847091467,-10.51766311933337,-0.5326637907295211,-48.634793719848936,-40.56603954315171,11.691747414024025,-24.253537846629477,-25.93827986397755],[52.25155409885398,16.28920358444848,12.912331763908421,51.32256152779777,-2.007826880740214,7.184239153037509,-6.482593244074374,-34.00648873274971,21.713131051949375,-12.048267858570307,-7.695861173234872,7.028443161733689],[41.809276415489755,47.29403421114471,-58.34922462692597,-33.13780098425437,-13.015445067238398,-18.008375136217452,10.96555337883027,-9.232083843477657,45.2276101675423,-25.501453792162565,19.922976126634723,-35.846070198792056],[-13.998434237963412,-2.2840588627718055,19.218788897373468,-6.471088869973455,-10.337125444535209,52.869391115691215,-15.754350359379277,28.05829579076942,0.6204339391249382,-25.103258042610864,18.735651290307533,-22.648814335431815],[-11.028098604553328,3.1942098418524254,17.95286833162158,3.0595996958627056,76.58957847362774,26.412419852895546,-0.5047591061927701,3.6847098678666907,-2.5007131115306076,22.89393044034594,-45.98398673372322,-9.005750689275011],[-19.20592509166415,-12.631384808126445,3.527954497436037,28.479036069760593,59.643916205412786,-28.833079108208896,8.174416556808632,-8.783798944711638,-8.574876011613437,1.4915153213465961,-7.9012200480591535,52.937335114216964],[-11.502102897478295,-8.995123083033585,5.78637983378336,-9.624869742639154,16.7160414623539,19.376186189339535,-14.514373497181424,-49.970372664917186,23.592345449507956,0.050871393318600355,-27.701164413520882,54.24915650137854],[15.072181931311945,-23.23562684373257,-15.391427034373413,46.650585354695764,12.0857991653424,6.405092970139228,6.752213308479369,11.821478349897834,-68.84483483215145,28.95186416365885,13.378559849527981,33.450878378788985],[30.59497664316178,37.89768859066891,-6.279503071606228,-52.85399496046706,-26.754115907411503,-18.7245351429241,16.17631728820086,-1.4799398995473276,-27.896365767238095,23.563383864089268,-4.908715786267933,7.381511800014161]],[[15.081543989727685,2.6713475716385258,-23.491555961754905,-7.017418971407709,25.91736158059586,-18.07832589725939,-12.447835890530712,20.733544627589303,-5.667719738571484,-8.401444935934798,-25.608792499111527,10.136798482128002,-7.810309538291277,21.50859179047261,0.32672151489729884,29.839047700419655],[-13.777937486691703,-12.614732321384428,10.09747481918209,36.98779978550981,-35.477169376577564,-13.246735749191151,17.368877026884665,-14.77920819063812,54.10942364314378,29.767333060592694,-9.216441442518416,-3.037586668917318,-21.63036683038999,26.75063928249342,8.000494445991247,23.951324955078448],[1.9153703665862551,-8.780266590510296,19.78792589561858,-31.267990940207696,-5.948934886186238,1.05789934532988,19.5485442985139,-35.43600210231578,5.934824939635196,27.717236094433922,-5.179521273590045,35.66263708591725,10.954893032768357,-37.833181262650236,2.6518760133006145,-7.090444089480146],[43.72583352428457,13.857992972271655,1.208295070048352,5.3282294417831935,34.09243359976107,-13.361124881107049,-31.37117040141654,20.299036716260286,5.019327758230579,38.80268641803922,-34.24620968463563,18.704801515104666,4.84192133570911,0.13762880758545057,-5.62032597366314,31.641721115617223],[-17.070309763506355,-5.1119259095748655,14.103305312134834,11.416875446298064,17.58051150269855,-1.375077240006129,-25.12708441596847,11.400212501204493,-35.600239311895045,-11.952747318747853,-16.790355168344703,14.926063854687374,-25.209857658275798,16.795741680972416,9.057124366664581,-26.512348576418514],[-22.19490865925386,64.77511694500508,-12.792126629691946,22.66744791340043,-0.8138694627595504,1.5992941754516676,-6.389090431573703,-21.406794672413604,-9.022791603156296,-32.30481615987008,43.28205715314235,-9.253289499089254,55.59620173736503,-6.008267087425313,-19.19362266501004,-1.2598402229249122],[10.32432795984734,0.6332405534018317,3.777133978800305,-21.522005928107863,21.414290241645045,-24.769297242674686,35.7745224646305,27.66635347770758,50.607069024199916,3.3992753997231056,-21.257213987200505,23.453272955830148,-7.081910950484785,-5.23545440454448,-37.579330162382895,-21.678393282394143],[-28.001440548946373,-22.73111206292249,34.152551886364904,-43.04557252710405,5.52508367573428,11.699718822386101,-9.413143983699655,-9.993511985983737,-4.964493202970929,0.016336592504429023,10.918307502238077,-37.61462554974416,-18.24687830964129,-1.9365532601885986,15.326881224833356,-18.232995160692155],[-26.84811839789409,-8.450718259022851,-19.00385627435839,-19.74320457364284,-10.306087415740816,-13.656952925843136,-10.257740554694374,25.666577617272658,27.089325359864205,30.697860044956755,-5.6284970787434,20.22245469330227,-7.031904820381115,7.193593146711809,-24.799528798551982,-23.338988051218458],[-0.911611345374703,-41.24060971781723,-10.070419678870154,14.201201681538853,27.327545012511038,-27.838773964093335,5.941656142933868,6.237979111153328,-18.52780824024975,22.901234110537285,-1.270069679220039,11.591774167481939,4.290725157509918,13.465978985432809,-20.199158699234705,-5.775782713901698]],[[-0.11222362579156353,-2.7548777992857434,-15.493323332027757,-2.6745579928840715,-0.8437024392814183,-11.778364132221215,-18.86924304764508,44.97425499068432,23.312977865275393,28.76700372673298],[20.410970947832073,-33.45889676234561,26.788621289112296,-21.77301371692087,-43.80715942810967,27.29172114144376,-12.800661930845965,-30.6617623902893,34.9261147740853,-34.48216882107338]]],"biases":[[3.2564240812332135,13.06742947814012,0.2825030407306133,4.716846188496203,14.946077899547372,-1.6524012953017053,-8.007439917214345,5.330286195295854,-9.29256615075125,2.631527246197733,0.5312120682451142,-5.372313623351914,5.95468500441974,3.9383157745993906,4.10878241784266,6.42421432058882],[12.893391362607371,5.4849833678276765,9.419734950738642,6.148682509456638,6.873376612553306,1.6570704328641328,7.6159793715469934,3.2527326326724495,7.932201617397778,1.7945383148893688],[5.624509254212444,-2.2063987861344114]],"_generation":136627,"_fitness":0}