{"layers":[12,16,10,2],"weights":[[[-20.56046903812878,-15.30154823592275,40.385981941595176,-37.421645836881346,22.766830684098444,-2.7118384120070456,-19.058723996276374,-10.519424901394045,-10.328763097249427,1.0837484761836895,13.44692358317295,-23.121115876633382],[-38.448760308070426,-56.27396595238508,-26.452027439489342,-24.1924057439222,-24.49591187383122,-80.54100723894004,-48.40880008909732,-46.6496004682506,-18.35945482112846,1.895480125552754,-12.477940611459692,-21.603006767272394],[13.603667857331743,-0.20929998708088038,23.641173116840367,15.906295032430894,-62.0986871289244,30.147722600494756,3.296804826339809,-5.202296288452968,-11.709263289056455,8.83965931038597,73.40907432233384,15.92411342316925],[12.957239237711438,7.201039205667272,-16.261827764391377,34.901870242905616,105.4552845872315,-10.231185693587335,-3.9966337904552884,0.6559346533357238,-11.908185934058928,-33.119678749209285,-15.57737604313641,-9.061052712575894],[-0.5897420224750833,-19.030812576612153,-41.11254111636441,3.5495441984601777,-1.1682567320770985,-35.06915729071397,-48.259793650521964,-28.41979726951525,-40.00586310843268,3.5706169884027075,-16.753009543688805,11.71950841272702],[33.11445906591896,25.615310827534714,4.391025897155298,-54.470931598271235,-13.780800199183727,15.494063784216268,41.452363906372526,3.2269713201391315,1.3473519059753163,-0.29187150225697545,-15.201286251868188,19.59502304342132],[-43.99925406900315,49.69032229502252,-18.647848253617887,7.8196098291679865,-13.822720692848486,-10.164527662550839,-13.898296042885416,9.974488609831084,-64.35611346443673,-9.224674924320542,16.607256304457536,16.473953757022205],[17.126965926824862,-42.539589244470456,10.635977364108008,-40.2955097228853,-36.09044530371956,-2.1138251295505426,-4.118613203036036,-59.286003358528134,-37.14193486225181,21.00609274463297,-5.20305288025685,-12.763304048835765],[52.20111817184606,22.320313761735214,14.242327964565662,65.89958510237827,8.677947700436015,-10.028944711667325,7.8018419339059175,-14.505119501581786,-4.985914534042144,-4.610846699083735,-12.999847940409133,15.13128185986367],[39.37934981390292,59.52708212067578,-70.61975563851287,-29.103277931900156,-27.81719079070844,-34.992773200253126,24.323892087720264,-20.36160293528499,31.84357794423735,-27.15659185886476,11.566542850604533,-52.28421618937151],[-33.62174738453599,-26.60308381203469,39.421959810144855,-20.11537814447792,10.18076288180482,66.72434688453005,-25.30001552424137,19.059632047847703,2.403293023087783,-26.156798965092403,19.550667937469655,-42.71896531002572],[-15.808679471652354,13.396688501476063,13.218620438769666,7.368263791199902,82.60445663744284,34.711267806501326,1.6899104940905563,13.259072837997934,2.311077583929263,40.460005355354475,-60.31462532009044,0.022288089125266343],[-10.438697839659294,-11.731123665209541,-3.040897549639529,11.904225962846361,49.30406902754443,-19.169418143330734,1.454048968552456,-6.704390972241572,-15.436862413548573,0.8050700249503575,-4.424888493145954,50.3005626275537],[-10.716303806467446,8.930724897128547,-2.221650770598718,16.86789445637178,39.85259498659919,12.51648651205051,-12.546072401910543,-68.81028233146571,16.36266798463082,-0.6075073500862681,-37.84273435155163,61.560484649824815],[29.082753110801725,-32.052228390818385,-9.246345092579405,60.21381674319352,-8.955680281673981,45.1536215178823,-23.41012257666763,8.278856770218207,-67.62535426570554,20.65547859474479,11.279823492213858,29.856582322199937],[18.942486779625938,48.310390700193174,7.7257653107136015,-72.40143414793515,-44.975165661119924,0.5198886401388025,-11.5378118162898,-22.987559981384425,-39.60377766527918,48.94337876512297,-16.83271507638872,14.849919043561917]],[[17.09945067718473,4.966484282878173,-23.352766791265537,9.304707995831714,45.13447264292159,-18.07534464318293,-7.405088919852581,21.232139530871272,-6.60909049350063,-10.255471899268,-35.11688095828831,23.49274396556482,6.016745713997764,28.805884132823568,-14.718648876146522,30.085089318040588],[1.4472153499799643,-12.264183317071872,-3.7684881652647126,41.27157182479459,-13.722059423333382,0.34169024378212975,19.6952804431155,-2.0644133951261607,56.99448885958901,49.373684857542074,-18.168291122523634,-0.07016809071242128,-49.62783846209869,67.86358332954273,-3.625599160012098,5.936675256420907],[-9.679874781546792,-23.310394405837595,6.934933343220979,-42.93152255248498,-24.156681460850464,18.480405528832794,7.538395853903636,-22.797002984199075,-10.63800851112964,51.023106512560865,-22.22786281807171,20.568789168470243,13.549244070247774,-8.989594282855158,-4.71135420818578,0.23217403546059995],[32.79553554756318,20.208245022228816,-9.320716902783296,31.24689265927121,40.18298534011709,-0.03534951526671298,-55.74768270831886,15.457924899185176,2.624671258646466,39.30956768443758,-15.950543358993626,25.08769752265023,22.22652880337897,4.10424500046388,1.8869488639868366,27.795203936255778],[-7.6743066501594175,-10.909443419470664,10.805120522771047,17.91989423823507,30.232205909772368,2.238582959685194,-22.623487543018875,35.83767170536473,-39.828351013851034,-17.416361726396765,-38.80320287574738,33.86951848715267,-27.0238406714769,-3.6635740324020247,20.224299344233106,-20.912321411591932],[-23.345186880875563,74.54134810183999,-4.469607407908361,28.08970884593809,1.6541550483978946,25.370426988430523,15.179328686715037,-18.147648338635328,10.234772350522364,-53.51609829473228,19.52179032010978,6.02582416151723,57.62811386769695,-21.63008097204003,-19.880576302124023,2.7081671247459447],[45.72685671232616,5.589023681963277,2.3901948559510178,-42.6365040272148,15.018640426587819,-33.520840110238446,32.31863936850526,15.333302316131423,35.47303917782833,19.82591975243986,-12.270722795760811,22.668723994710458,-1.4582288457438766,-13.666566739301636,-24.676295937813876,1.379759082832789],[-21.919755617027434,-23.694780043519856,26.440778215741716,-60.023941274345894,2.9986234453342866,5.234383928773214,1.7579119213137224,1.6410944906905298,0.8724306255201693,8.473237547371465,-17.986692017512915,-53.84294030917082,-32.96807733272599,-37.57343561255775,15.306839224381084,-21.783569371479135],[-27.27660962680722,-17.390411873858426,-14.375327463312544,-22.308208155421376,-13.161965317343231,0.3869896009658974,-21.547922093531284,34.419969101104144,35.89049359834001,38.3666863715957,-13.818760271211953,33.23363806195509,-16.94722385848058,20.252170084688466,-9.799977276662883,-12.507821035431663],[-3.7787716151140383,-49.56244493517472,5.049860502485593,21.744149375196134,18.2898874009869,-45.73422614830287,16.703994232302165,-20.876063098634244,-30.578238334636428,19.489202400321076,-4.146609260803464,1.2693601438182602,-21.299312522996416,16.63660032601095,-35.72949504906063,-15.173356836238224]],[[-7.6478350262500285,-10.42550872782305,-12.276619756157231,-8.871264783297903,-3.3812055681958415,-12.225341207915125,-15.302298722347025,48.122952548498446,14.148346878062519,24.15766620350155],[28.29478658892297,-36.78618915737937,39.09641107793202,-10.879036922836676,-26.39196777408731,21.49820283605565,-34.129819441996,-9.595554212310654,16.716832367646393,-47.83518128413822]]],"biases":[[0.8106107416032067,18.106407300748256,-0.31244970770093716,3.9317314133897456,10.820999073454226,1.1279904449885207,-11.907706254208804,2.011621695994174,-13.093432314836006,-1.6790173236413382,3.5809188422410747,-16.196914881756165,3.8478897121603515,2.0930940581290685,11.023080857078552,11.551353793057833],[12.923363703487528,0.28613188789232596,10.434265949522942,-2.0796222810269875,6.965897259117401,-1.4473729125916206,8.088730264975819,3.794851945442047,6.768536715342747,6.344522064075984],[8.35171455269456,-6.814455850778555]],"_generation":181627,"_fitness":0}