{"layers":[12,16,10,2],"weights":[[[47.78475250836979,-2.187545969004695,74.66141425725631,-34.61643313615761,33.34796372910941,101.72451346851018,-122.18327949706733,-58.198829020914594,-40.45109510427577,-26.58840031505361,14.235626126742247,-106.16295007599224],[-33.52084411403439,-65.31480228280972,-91.67116941684372,18.44572285787568,-45.46094278737164,-26.048854276798068,-29.027522037920924,-100.30535046458077,64.92287915571431,-69.21709412465975,-58.31059662715282,-75.74339491909436],[-8.967542585477482,-12.95955000041785,26.759930827983005,-46.351941431570054,-78.57803689352892,84.46413486527904,-63.20541255607116,-24.123910710693533,11.976265799869596,21.546948006164804,102.36687280906462,93.00504951785838],[-57.86541292153135,5.80861502035635,-28.094330284507773,52.688057809320185,182.11284881557614,-92.6936107981569,1.8642439903809604,51.060900064990214,-26.408473469239105,-54.65530218475549,-0.163906628086834,23.819550436745185],[40.945174187040145,-23.01018534157047,5.809828450767098,2.0765836325686826,64.11394438514229,7.377914631617122,47.07052104694039,-36.90109298047163,32.13356358830822,29.4205574027973,-21.685087592411378,54.102419805755],[79.25947961056612,2.044593604558578,-71.00588064934068,-63.53821537330386,41.26371212605507,-7.150132589828799,-7.928083671189865,-27.273405154086436,66.16229949544714,68.86287926340704,-27.435969960254386,3.14795288446028],[-35.448968608512075,42.66194075009484,41.02646683640153,-9.750391800471471,-82.46032071614813,-41.9821361328674,-66.47701067317313,-20.031856920156017,-57.8188295939575,50.207933433023186,1.0142874883444102,33.6342336393589],[13.209582877423209,-29.81974242042572,29.44943107843784,-31.622152106625045,40.20252753449332,-17.763877993581417,-1.6350615017035453,-9.045763590180028,-47.609159679097964,105.28706376541258,-29.86896481349076,115.89502800036124],[-7.482680859777036,-2.7105050968467914,-24.37677997130056,61.54967215807837,-25.64493328221171,85.55250862783153,28.27877949226259,82.38893084457277,-5.024767059917918,-13.42766108640808,0.04456865991214684,-3.3421073133093127],[80.82587796585247,104.1522265965881,-118.16084670715006,-47.53228760020878,-64.53075030211929,-20.78774521816027,22.712291931623053,7.445482024120561,6.576679115222927,35.76639730548197,-25.64749922371116,-55.12013511511947],[-24.681591916988726,54.042409160334735,32.10731351723814,10.553702751236651,5.779931209196012,69.20769356147218,29.04187090582181,48.231266368550706,24.73595831226512,-28.898597507495133,16.390941264952257,-37.27553870166603],[3.8490522859974172,-53.48088559720629,67.83594201359793,-39.92690885410779,66.6788145166844,59.45203140283937,-25.624005727328225,28.196536385402474,38.1806564962372,-21.126767203616613,-3.1575941720086154,82.99834262809013],[-92.75768643130253,-26.624487193644907,7.500039144222198,-56.062213338393406,29.027528518710817,-3.0454651214869326,40.00667354758722,12.696859712692886,-10.283003800221513,-111.40136190881796,16.85184966947688,-3.612075583523616],[60.16406241922986,-65.65524946382222,31.72134711124165,60.79011186949316,55.63834952348677,-26.733297796195796,-44.349715899749455,-106.50481676677934,36.63080123929646,47.49483032295764,28.780877521211977,96.45455512659393],[6.572434931824502,-51.76719923299801,-42.43900809057601,103.15721207029915,36.665424455939835,55.53111029562245,-17.182544484163625,51.829394157909654,-94.76240563383291,95.58771018500016,102.662250497431,5.644194338820674],[53.66360006892241,73.4593001787613,-51.205098787325895,-157.02006049731878,-12.007099985751585,-12.5197520424094,-45.414962626214006,-92.59927066055324,-87.71307502229858,-47.99726233974562,13.22632167647054,96.3816234151854]],[[10.397213589466402,64.13111429038625,-16.07187310035606,-48.91962988781613,112.16807213555474,-23.14884250149394,-6.088754837533061,-7.276211524423938,-4.339011342282017,-74.01590669789785,-57.965735633103805,19.418937729321357,5.526081241732112,53.16090684995779,-62.99455219573095,30.04999771369901],[11.024807832223901,-31.86538898823604,7.404021367201738,37.1343867098104,-30.81101541992518,-24.647853350746743,57.2647230058586,-2.394147149389312,64.23558837292136,57.12888908747244,-7.16762602234946,-12.814269167159805,-95.69180987021959,7.45888197200328,-25.899165546880802,-20.29361155027787],[-84.33080820349282,-30.306641298691826,-9.973337348447417,-54.79330262774396,-30.02165752848636,47.69452001877702,-63.30438177065805,-14.337077833539931,84.60361503075733,115.84708064181393,-38.2525750368307,-0.9208152018304475,-35.79650846687834,-22.09086320425541,-31.891469679006097,15.632399177912752],[73.94534499812414,29.526229734374862,17.282389760265275,-3.4751090650918948,42.287685818763116,-53.67230174403432,-37.891653756360675,17.946965534308152,-40.96192854780505,60.08454789276134,21.6505033052924,45.12373799416261,28.535187528763498,-5.307674174393387,-52.24758516078658,-15.189974203149536],[-7.028425753189952,-28.340437379647994,-87.82430009021614,14.838659952318464,-20.817148789451444,-7.597306413806055,0.5755870638968337,50.421909734668596,-51.55956317175928,53.63513383162152,41.382708332691315,33.16105973682683,-79.27796990436835,-18.80379933027902,23.683116480079743,62.574695527536235],[-99.23290046874126,15.651870673256612,-30.076510842266284,62.96932127124848,99.94806519545503,13.666785837830503,-28.255946382674544,15.208329930741458,-51.23027571093935,-56.96999639099391,-46.72250308207879,-3.5459881312734427,8.974447868713861,-44.1188470907622,35.59937953459374,-7.357608823117978],[-108.44971134417617,24.887496760061822,15.929659649924531,29.315024417705377,128.63862292393515,-58.49970474767215,36.585905112743646,-8.028941409775678,-28.455230698523835,55.80627819410013,-30.457777459749828,-45.3397574139504,-102.81844142757349,-69.88417179914838,-15.459735408056815,-34.29346914851026],[-69.37576383258317,10.727237316867594,66.7995512782823,-97.33009018222218,-22.965818693369627,-42.88332847527925,98.45072276883575,-38.65385258626251,63.29749593157344,23.84511532117157,-29.39432761318331,-47.600284423783435,-69.98808022761575,-12.378046460879322,47.319820374994386,35.662169278580016],[35.44507503020227,22.95703925782084,9.10865916600066,-73.73796175503739,-3.2132567341065563,-5.186785548678377,-99.0302253457304,124.58886324096173,9.876341247433494,10.245909830191389,-138.20632305528224,125.6780508278904,-41.00080793061337,-93.7426759522026,-35.78600092209879,-29.152266439027244],[-100.60727584473705,-59.66338869229674,81.80590841589029,13.694092604724435,14.63103285341976,-0.5605423578393828,17.281449810053303,-3.1383857781594497,-58.49796348751699,43.327350789152085,-46.36698328428056,60.44473274517054,32.38040343825892,-71.59766546580303,-110.11270731246576,-18.57199390823813]],[[9.94987184516046,-31.10930347919463,-36.35913593541867,-67.35704047892149,-62.74112763534305,-45.794343103258846,-23.576128193021606,82.88199109090921,44.70340460057802,-40.24634496461079],[34.893109171773034,-55.34514023530181,66.44439008549307,-10.544366418382122,-57.38872002847901,19.234620562037026,-78.53407499071147,-49.06949169673975,-99.8218460008343,-86.00665111227697]]],"biases":[[6.577275204166844,34.95786476546946,25.289940108999165,16.08344667224879,26.00748276286672,7.098035359036422,-13.081487080619006,-3.451394054200052,-6.754611626917019,10.992089618174438,25.311899306257,-11.208392317707252,16.46507208422795,6.341304016758309,25.16988332180458,12.03624346853087],[29.25312367364551,-12.942487982999559,37.96068554698986,-10.990624865508622,-10.407103618973425,7.3938119218915235,9.990804363020633,0.1542992268872887,12.500671596545015,-0.9332668950155424],[3.977357887395832,-6.810068999482029]],"_generation":656627,"_fitness":0}