{"layers":[12,16,10,2],"weights":[[[-36.823415616624686,-7.963662124107913,22.511685974755977,-29.125313012834315,10.985480136753429,15.996679419787762,-14.323830052811518,-19.32770804047538,15.368017934275462,-0.47346456908737283,3.12845678067667,-40.986240403427665],[-19.184855814854476,-36.50523905103817,-14.930598908747905,-31.738628995265557,2.602184873855472,-59.97097620376468,-24.42996452821707,-69.39830424067932,-22.831030050173407,-1.6198751827679345,14.117831362473087,-22.464539727729576],[23.14668689175521,-13.706556579967758,3.527108316187359,19.408519304934366,-66.07489341218933,22.649955277585377,-18.93149511800752,-14.72260595640728,1.680828126214308,-2.490624548700435,47.198663018571246,16.193609589296724],[32.650580284482075,-18.707136158594736,-9.520057896641811,17.49517545531402,61.40610649957013,-36.429117312799576,-6.306725802991764,2.0356838890423763,-13.466021693478051,-15.619743744819049,-2.0100697296164265,14.332413467491241],[-10.545929796118955,6.0275296350318515,-15.762635790050327,-5.285867338226041,-27.88226959042491,-11.365716669986208,9.053578891915544,-19.19984012733062,-37.567028967998745,5.905942326302207,-9.810028729157288,3.200491903608446],[8.584499475521524,1.4030406938185587,14.321457319176025,-8.89747931502001,-11.69670641776466,-3.401194001489544,26.33691205857141,-2.0306573562206567,-20.750604012967038,17.42243311425959,2.413184458548415,46.42446244750779],[-20.044805732058876,17.845508829983103,-11.471202715510023,-1.434398998295359,9.120062844969047,-3.918933944577765,1.7711944990455404,14.960416934266997,-48.52434427905281,-8.43042481472681,8.260580910816513,11.735362054780413],[-14.616816129926667,-24.804782507839825,2.1950017080548,-31.646280189461816,-6.574019965270609,-9.888131580810104,-0.48051339583522,-41.84377523387773,-11.801761462134088,17.657439086594668,-13.799261714790466,-30.66749337717347],[26.80829873239326,39.02535310064878,14.880745783421698,50.11427475403502,-7.109009278498382,4.874521981053935,-1.7897469770710732,-21.431061484193865,1.8855262875768344,-10.39591937947498,-2.2684747817787922,6.678655416004975],[33.46819957503485,38.96603464346786,-31.544288452040778,-18.996408764194673,7.985502900693303,-11.784932863973953,-4.44866378817436,-0.7409357686081218,46.76953980750122,-16.560781999960557,1.267879893422046,-44.589570127086894],[-6.483263287299167,-16.50831167434027,6.31321047284595,-5.324009345470986,-9.000759611274889,44.27921198580793,6.4662229297480724,14.050177228072974,4.995721077004337,-14.310768140734767,27.788912332800333,-17.864038911911614],[-4.704138075451901,22.550797843605558,9.531127681800934,14.93320294056147,54.22738460537858,32.1707380083601,-1.5547167541684963,-5.518542095052935,-1.6476411985838235,12.235964924809757,-39.3465049236602,-16.055610473625734],[-29.415268034719972,-15.283734380105221,13.310086040763975,13.704558049262184,45.5769137010656,-12.341432403893792,5.7659625196195075,-5.900051102112602,3.5994610836906915,7.578256472852293,-1.6936153344660705,42.147208337103145],[-13.771024944838416,8.762643020183303,24.244879736994886,-16.507658290519363,27.976087604237556,27.74272184225605,-5.060569156117388,-20.03979733761914,15.946205279046655,6.79269010170454,-26.334630565965934,42.973685296473704],[-0.5563843822092092,-16.796447645211114,-31.688319359456088,36.216217867679866,13.467795202782082,10.614834742319804,-6.918874817657721,9.266070070762996,-33.80106419605009,31.664671943298313,12.966015562919834,30.77135576497133],[16.789280270178182,40.317388567619425,-8.09130191024928,-35.83339804998448,-16.56538420606513,-17.375887093346552,2.4537918456757937,1.7109151074653461,-4.663920672726687,5.039650881165411,9.422141618347537,17.00892267851873]],[[10.925728376024571,10.534970235419419,-23.00401956109222,-3.9423135380358887,20.571975018060876,-5.708814230579515,21.575902955710863,18.51158528729268,-9.075256751387515,-6.594522733431277,-38.0330873525645,14.89593563579657,-6.418277655963713,11.065949586424116,12.054096650762862,28.117997364863008],[-10.884361077667855,-2.948391732160297,22.049048064831712,42.67540537220516,-40.58358416645752,-7.320522556803887,3.412103887885873,-7.791090189859128,19.956159645099742,34.60721168521136,-7.844338229227658,0.8055363377500498,-42.37677196329076,21.240847394644753,2.353432307552373,24.82879368602286],[17.705654449266643,-0.5551612024235488,9.28006839667264,-24.664275038197047,2.856443712359989,1.7703145875978419,-0.4979883090549549,-9.082032659024895,-3.636295654269919,12.926522082298716,-15.696841870007567,33.327125160341964,-13.197091116231514,-38.37311625718983,11.336773502226336,-6.658134547099856],[40.983694149496,18.355456961607793,13.50113499249574,-4.6237903688341175,42.95400381078294,-4.7303851576757605,-45.8293514165046,31.276426420910777,-0.842680421851613,38.87489306873896,-39.01130756306715,15.905801029845696,11.585230060029577,1.267140877624684,20.253417165593724,23.60185275273997],[-27.714339617598526,-2.3333853772604067,-5.21247415741912,4.978874877914211,5.966506924862262,-15.056248819955243,-26.239075826243607,23.237995254815072,-10.078238787789454,-14.197181588887613,-29.174316918870172,12.78148321725189,-27.556456345598836,7.46545282581673,-2.7404536476272376,-24.327617395481802],[7.947388124900924,50.10056317259677,-30.14016877002917,29.652960830672082,3.0366573250958706,3.6330462386284132,-20.13102144338737,-33.786307246507796,-5.732420105991409,-28.096697334769193,30.861413749381263,-9.578220147029306,35.79645194684859,-17.580670277962877,-15.403801902300414,-3.4407156644467305],[9.101056570928604,0.0568612708917649,1.7078045436764262,0.10087507190105413,17.249713172291454,-7.42998560569948,29.779387870356995,4.529131357355864,26.82295991249062,16.000459397351648,-10.925740973794449,20.899093724718583,-8.658695539634012,-4.4702468459728575,-47.69576232568057,-13.078460712825821],[-18.645397861031583,-35.29341496505727,35.453893485510775,-29.137544866380797,11.995946492882956,10.171654916463165,-23.64101319936826,-14.697336967216824,-4.6431241152726495,-22.95444818481706,6.435564028797744,-30.920846045162836,-26.797715133475844,-4.028576940589048,18.079454522034435,-3.350920901773468],[-25.52363878515628,-9.127970808506369,3.1246506823820863,-10.138103896362283,-7.971037362849658,-14.67300717316251,-1.2473272919784217,29.75147350276049,9.86094749214229,28.05605714739508,-6.7610113408121055,10.316908256843536,-5.331303808828036,-22.604353775381583,-22.600007266386267,-14.263139533075675],[-18.274938070159784,-22.261519708785453,8.068140567283463,-1.0833685022293453,23.322949985864682,-23.19682594061897,-12.223532021326072,-2.417447278420446,-12.255321180254423,-2.4282239935636176,7.460425975728939,8.721835834099352,8.407919863666805,12.149016112744661,-13.45906817000638,-6.210809988196478]],[[-1.9907777323523077,-4.9053482462582085,-20.11111036678851,-5.425277309271301,0.1264580387512998,-20.10439249879743,-15.77034635438915,50.196116395985825,44.22071688929447,23.03119044204152],[29.168735175729424,-30.127974090048397,13.340330951711794,-17.682311303571826,-38.32520480938425,9.79337947709072,-5.071092267347489,-29.39004462582028,21.28735148789771,-22.05977720767612]]],"biases":[[2.8210316102396016,7.687728573574082,2.866250337780717,5.527579799167829,13.989701477686863,-2.7162738459611524,-2.0198404407480006,9.263748578263097,-7.9717645670263275,2.657060270816464,0.620756408144706,-5.410665714815842,5.259239333122306,0.8539861764658716,0.1201600661168751,4.159379641606299],[9.461842487642311,0.09151991183836045,8.456031413327379,3.148121485788256,2.62893206742244,-1.2615279314518695,8.430021166647862,2.320176632270783,6.019374470431669,3.055276967520615],[2.4008716895791613,3.940897946147714]],"_generation":111627,"_fitness":0}