{"layers":[12,16,10,2],"weights":[[[29.228357080821997,-10.74618374110754,74.90900132961313,-45.86643920012341,18.372203166132774,45.41644275881634,-82.82186883191518,-84.60757463141229,-15.014669886871033,-25.79782226343802,-15.98080754339441,-53.98522313828271],[-12.879530872697112,-49.80575872660723,-54.34989694364126,-14.694487803416798,-17.162508124481597,-33.29972675167916,-64.85681913949347,-74.10707441417655,52.51054302962123,35.316079163103225,-47.97863022948405,-23.747319252143818],[-1.9665832627532165,-17.820422532663574,26.310481444528737,-4.495307665344663,-50.98256272917832,62.65712876752479,-3.933136687785465,-21.339232489277308,28.02587267067651,23.74364655213972,75.9102424185504,14.86828320898525],[-30.170686638546318,5.497510279186689,-26.45703796453172,48.928236154878086,136.36006726637297,-84.93853166818683,-0.7113446608394352,-7.579814110609534,-11.34132591423047,-3.7080115356113637,-7.590194571504149,36.49573556228619],[-17.31968541018285,-8.385587516134553,-5.28424392024455,17.48921381698462,60.74809860003161,-3.0768502795571298,40.29434068137353,-16.164277221731158,12.95473164097566,13.99687175125093,-39.002802711169714,-7.722917636347612],[22.80773552709477,-4.994618529195684,-47.10266880248976,-96.05024534346742,34.2408025913852,4.951438415695118,32.9467680439798,12.224998812527897,84.5934309043855,67.09574813823397,26.290740471853667,24.992168297275423],[-60.93699602231872,19.72873391241063,-4.363989054769593,20.21780997434335,-20.358121115520934,-8.632783630042086,-25.84659642877713,28.419336895052044,-30.56313029800075,-5.500881352776914,1.567139163900566,22.562870073270744],[-6.339310578197153,-53.23701929534107,-6.552593866107633,-46.50718278415643,13.842440365031855,6.6864526082240605,52.605519272858764,-49.86630110757967,-15.532964634630947,57.5808589964615,-41.00201052862285,37.51308760517956],[46.12167163355243,12.586718248622375,-34.71608020618409,64.15554666533495,-15.344652598228059,47.40602682385824,13.38983519744686,4.931698989283149,30.687551213907582,-33.89455741035754,-19.342499338850732,16.051979322100614],[73.24761048464767,110.98789056117099,-102.02715719235101,7.9912287625700555,-41.96474325342857,-1.7534342811572545,5.387526563838445,14.465837570593791,15.946851142472621,10.947173778786802,-2.605789997338898,-41.7858493753875],[-28.705603166963506,10.65546031266899,58.608563885438066,88.59626596710518,8.12191722658138,52.597254200680474,2.7637196244171243,10.91680541037917,-32.07609495886692,-42.806422977919105,60.20070927458512,-70.6350611072684],[44.237309846005964,-14.256821025247204,8.658380610579197,-24.70340746323024,123.59183081048253,40.78751042271125,20.05552459235747,23.54808898350651,-1.6672940478282539,-9.464861729313716,-43.10959547955936,42.44865599625989],[-61.56068733354617,-44.295550099919396,-12.184831677482478,0.47427582212560687,50.72959233594785,17.202250597387533,26.04443570625787,15.347020681218737,30.11239350353507,-71.01492104725685,-32.35330762805739,14.141811841398722],[31.788515470287493,-62.11144595202668,-56.08004053268848,30.12733373981321,105.01315995882373,35.78920643245723,-43.24769893749959,-67.24914825761088,19.622529662658597,44.81184015660076,3.693360613568072,78.71633464808689],[0.17981107215657985,0.5110866192998037,-34.835624965503364,87.57196818327157,23.036149431146413,47.88605507847584,-25.60309183631144,24.847690168272603,-99.25723334821012,61.16796524605679,84.7712378065511,55.13068818960497],[16.249957425367093,59.9465076567642,-46.70226302324912,-136.07755440476362,-62.128356008205536,-22.010362167424944,-10.584014357723312,-29.920626479924657,-39.52270444905727,-47.51123295364021,35.841749300429754,90.27753005231794]],[[-0.7700498343707971,48.33261538395454,-6.5320776896357,-25.999260347240895,85.06701889230725,-3.5335332630927816,-44.95367576146668,13.570999019320592,-42.25608322406518,-45.29206323802354,-48.407884611643986,26.68914379119925,30.61060011432455,49.000175247566375,-37.689679573848,51.20008361985743],[11.550943930856889,-29.28158800901135,16.00588573594359,32.21318965841398,14.020972823014723,-20.615361604843326,35.09620494652634,-16.10250989071472,98.51169619672636,63.71120922028159,-5.317214037874465,9.602215093770111,-59.553023226847415,45.432490621413635,-18.96161731487653,2.984397997969259],[-42.72640658663039,-23.975605253253608,27.90603914389902,-77.6005452358447,-60.10466390974403,21.645666730776075,-69.72033390232703,-37.223002911170326,11.76232228595369,93.92621758778694,-30.321837941151887,25.86647887212872,-21.918718822631934,-38.68777273893098,-24.15414610567727,34.07439774891385],[51.09236840145297,-36.968689223486045,-26.130005669026108,-4.6577705041374475,50.8463512950343,-34.09397414173848,-58.18460833693752,23.808528712773438,-56.28309020087469,67.27194921430767,-13.693398347645152,31.455680647327142,-4.96968450496639,12.89066828091823,4.216647841105799,31.977766217125314],[-32.634376187616986,-16.26925330316557,-49.73603580171264,40.8127363708655,-21.07122797403923,64.67346750581497,-6.22881356673545,60.1972291180755,-54.80799680555886,29.683678218261875,10.621717204309466,53.55970363396194,-43.84118773685998,25.75634302313363,10.058796495331599,8.766866672881271],[-45.56206128520914,29.200673825344857,-47.95290089768758,57.549114076833,35.08378710157274,47.77272419418824,-28.749342943900785,-22.056116450247938,-17.46770413115603,-63.40755202988595,-36.99705561886923,3.0773547172392153,18.698381835744467,-4.600517354635817,41.18397960442579,4.806100922253471],[-45.14186077815494,-10.644878474247417,40.23946607907717,8.592854982457185,59.44646240951003,-36.30926514126203,49.63980573416112,-17.92583202648522,33.976521352330685,52.511330102569026,-24.94777134454094,-13.793589414715417,-49.76390803697265,-31.066033845813134,14.68796034157077,-41.4328939066785],[-21.760369516044104,-20.49470774043267,27.135102864701334,-103.58950727687615,-31.992648146925074,26.122590506254305,27.72565524335594,15.92803055873791,42.61467592047977,51.48374469808234,-37.829191339104405,-43.283994421715036,-50.82822880211027,0.7891603442898232,67.9999797326529,-0.8218299545045411],[7.902183294592914,29.59445429741909,3.595027262789443,-41.43323749328435,-26.126044031686824,-60.913089355487436,-52.749123619363544,110.01997086211527,0.23902196884800478,7.2237405922214535,-88.65319831022133,47.364983219560656,-33.87991175615727,-28.61450444683415,-6.495431425035503,-27.98595780075354],[-17.942630990946043,-61.137879021875875,35.68108413258776,21.81582608117005,37.86205373421967,-53.80896516859298,48.4248165193338,-26.613202758650207,6.951107016554652,93.71651912666175,26.731085136565923,49.69298774278097,-11.855719670246526,-29.68310116634942,-61.54016574323955,11.27085176429946]],[[23.13327778491611,-2.6201462023342135,-19.99429384026434,-37.63059914418561,-58.456934897630795,0.6482613267016847,-39.96644695103777,78.47104801005804,103.60503124987571,-41.50535862253956],[30.612246521964877,-48.85935139531608,26.753523848722452,-4.865244236045913,-6.679179313209552,48.79087945815757,-51.2182362379013,-39.04481812712878,6.65364467297227,-78.09115377402257]]],"biases":[[18.01515217139752,24.51337110230341,19.163029672621665,29.51416898323504,10.331227437507817,-1.1186056632398291,-15.540412301753754,-12.365765404234185,-10.260411155917494,-3.9485515329456193,12.920675916218762,-10.012100021546088,19.53433326702666,1.5835768663486915,24.417134351169928,12.739456933440211],[20.06210960780848,-0.2951292356991406,24.750597506546825,-4.913792877738878,-0.9083080917195607,4.6653631715323325,13.273771917106549,16.285692831598233,5.224776595935812,-5.431785708289841],[-7.69842225785537,-10.402060236559375]],"_generation":431627,"_fitness":0}