{"layers":[12,16,10,2],"weights":[[[29.126826283838195,-7.076725536449337,74.28944165504217,-16.6505171018479,36.27669113571055,91.61372095237098,-132.41432833145075,-73.26806549804282,-23.363057315890373,-22.369470116091108,34.81427086166617,-106.3813790584991],[-18.945787291595053,-69.13117727818229,-94.28275827297588,25.717930820565538,2.3213347664445845,-31.156533059759763,-40.02759883045859,-78.5099240795489,90.01999934857206,-76.37768706861858,-58.69694239392453,-96.9892073462154],[-19.415364527253853,4.732034966226242,36.106194645225706,-63.210809794444344,-54.28159380212011,99.15662325465205,-56.77622332776619,-33.15969855251605,10.436891579535006,35.76661603145005,122.58685199838722,99.50719507091313],[-60.3055688279734,-11.99291662982715,-6.76931363431327,37.69913997261278,169.8381266999894,-84.0690681115289,-25.129158047055355,24.26582312287522,-14.096925959168289,-19.33504466702447,12.508547991364805,33.707393852422996],[10.754151310437395,-26.810078816731,-10.10881821951571,-8.802013239758704,75.2193236511054,-2.7134927178990735,66.12936911345368,-32.79503381737722,46.418130924192916,48.23645164731608,-8.081375742595634,64.32882022691594],[78.85748845719155,-13.004233617773398,-77.57682582259999,-46.10709484711261,81.96777643358048,-46.75257574082484,-10.927541143799543,9.512040309250397,113.95162233888908,28.597272713136196,-39.01111229177552,-16.683645968460198],[-51.495765987177705,53.752327351427176,65.56858020320968,-45.85566175506635,-81.85812014106538,-57.813360001523286,-71.1734831109812,-18.652577348250407,-72.94802259925355,58.38567515111159,-12.862133572652471,16.772857303858554],[7.25589154861226,-30.109548921383414,28.553061668307123,-35.10632083136198,42.936471892332264,-4.669789432557552,-41.893245344788575,10.387307777788498,-68.98948837708534,110.74205296729343,-36.241802885415865,116.71597582752774],[-12.5379549664474,-17.70333572961631,-41.784214400481915,65.47587577365488,-20.789193379458638,75.101609424803,6.785149863234826,84.18470736362845,16.952161403078364,-2.8455829005930267,-15.495752874436317,7.3691442987354865],[76.40148636388338,95.73314158320457,-122.40655355490304,-46.283937376738855,-53.73923763387638,-0.7485757088441045,42.72261399031814,22.631542990180982,-4.681150871315406,15.929445833358336,-11.618264359151077,-61.536798030530576],[-44.769603172754536,44.30975361226727,65.08617546162708,21.945282215916375,27.656190479518596,34.43782962780608,44.39950922113344,25.898888424917065,8.101908685269079,-25.383754020620483,18.00351344529825,-0.306690089395944],[16.85235496773954,-53.46984674262684,85.54635751478507,-54.85123031267453,68.20121358107774,64.74336493472106,-46.85818853677065,14.77063369075939,21.935748195264033,-38.867603681960105,-4.9946197369104075,80.1906762208277],[-79.3327413538053,-30.712689492849805,27.050626359200287,-49.83151049373364,27.349115718664315,-3.912874928384365,46.94653149447148,7.575853329040801,48.06299513988675,-117.29142444675227,15.626193582508172,20.317738132019436],[22.440246824523424,-89.5954447098037,19.103470528907245,80.54896338874444,44.71960465805696,-52.98058068130995,-30.017241962506258,-116.47098529328738,28.66389641760267,35.2765002833148,11.262997754317887,104.41512591556462],[4.684975560761791,-56.547403834055835,1.1707941301896152,109.19079198653488,-0.1929158819403478,50.644122696706084,-10.320006189967897,17.953511065856038,-99.60471508114578,116.04008267951643,106.43753158023328,9.152049451852466],[45.42323337008815,64.7343841942254,-97.9327143765321,-130.92488745363016,-18.551555255840288,-8.224669086117592,-33.667609963811095,-85.85901624304127,-95.8639577221282,-52.50234471885858,24.110891277810826,106.76568229749581]],[[2.619585499857513,55.218401306415416,-14.449505199391803,-36.208969411985144,90.24438409953794,-34.02585709320192,-9.569885604858234,-17.49099916635888,2.5556935241496097,-53.74392477076767,-89.31391120566991,-11.12573264018206,1.9685268163167446,39.18280777229823,-54.52321546295124,35.84305653843355],[23.227580936508446,-74.70687868061758,13.550272555483158,21.39030423250916,-32.922369665266785,-45.7115462744955,78.09552813620202,19.384517375828878,46.13703765006115,61.24531750465615,-31.550122145423373,23.03380547608723,-98.0450481190702,10.174645162670222,-31.078199369714632,29.638626993346755],[-87.84136990859717,-38.353714763396106,15.155126134737493,-73.74398688704783,-35.77027006985114,54.374026206215504,-72.1344716117133,-9.010366927269502,80.65741146311474,101.93156875519878,-33.2371186912426,12.15704375394683,-34.309474170497104,-52.80442049544018,-27.91049155995757,13.268417956342658],[76.92675478106445,27.036895982211263,17.665122981381536,14.271918433104094,44.17292133488447,-71.90134185808813,-62.02703506671299,18.17111115951568,3.533843391046262,83.4682269381165,-3.9927953946846357,59.84392628103183,21.42824087115058,-0.7158729962464989,-64.09053409931597,10.740874565349129],[-0.7382578576851517,-45.87403346823195,-96.88288622407927,32.67444148775989,13.210263868488436,-25.880922485505263,2.172811854912326,19.668304111756132,-51.50927039998499,76.04471040621021,44.937988889749185,18.31691904654238,-52.87784677073767,-10.946099745613683,17.226454201613965,33.266617521966644],[-119.0652892461552,16.15778444089363,-35.77132992384566,78.26292006781286,99.73581154642868,18.270219811267708,-17.10039500625582,6.855755682680981,-59.00367854191422,-37.44824976503504,-41.29015288712063,-10.34263169987649,40.45178262640723,-42.84927765166405,58.53502380456501,-3.553622168978943],[-97.51779134436453,26.14398515370992,-0.8922888733798825,38.93794946791774,164.52366925932571,-62.41776235170063,42.15359650286175,7.777881701273213,-42.95457063914314,32.470907487264945,-41.8804875131932,-44.95990724392065,-89.70871910059267,-51.81448304803328,-38.5760713327897,-15.357165135475176],[-57.450338947476546,9.333747116736282,67.06950783772749,-118.70799375857376,-27.057787253141687,-18.53267497833841,107.00747582836355,-34.91432193360566,75.10961671123,-1.0376162429117324,-42.97573152422258,-30.270882550802337,-59.5731219997187,2.369823509551276,64.89322189057651,9.296553162856766],[45.04129458768321,23.56015059878288,-0.4066336865234006,-57.135819054080315,-22.810341838846636,7.2438383820462,-83.26063508941216,125.67023092453167,7.58327304940211,14.541938078543554,-143.7946186228713,138.9959115331711,-29.714362934287152,-109.34169468651282,-67.35512823637656,-39.31972929477263],[-89.89030294862897,-67.52912590178225,122.7001822294206,-11.581477389401538,48.101965744515184,0.09370543108737796,11.690425080430533,10.438822668467242,-84.31054778953711,47.78841156935179,-26.928641155753137,122.22205905002674,29.010759334766632,-63.52652148078963,-101.23370209635368,7.001415748730017]],[[38.53172278859946,-47.29306125802652,-26.867830877423707,-90.9362196908816,-77.14974779180936,-43.06806648876399,-32.49230561137108,84.01464844342975,62.61064838877826,-59.7393522503416],[39.566203091694625,-81.94953102267745,51.62191724107836,-1.5680358124106348,-39.484374320776865,17.661133437647564,-95.70783595451364,-35.61596274652726,-105.76724108675208,-47.78843110176563]]],"biases":[[5.734643371324105,44.46281679303639,28.438619810400002,18.728804137857853,26.470532516384743,8.840194604417196,-16.706171996378817,-14.978479468550253,-10.316289739470937,-0.08177170021925488,17.88809296278464,-12.292520197578895,8.987523475841272,-1.843738633410784,25.99487664748953,13.173324390639628],[29.6311853550705,-12.252695488488675,38.46321273281358,-8.447233468977997,-8.641749391003868,-2.8752044608675975,7.680394692714719,1.6597078574967317,20.181737529989082,3.523781960150034],[7.28834212558356,-17.33696800681284]],"_generation":731627,"_fitness":0}