{"layers":[12,16,10,2],"weights":[[[63.171244397296874,11.336651747037653,31.785795305918015,-35.14227749008005,8.463231035770987,109.26054707646786,-164.74401877907715,-72.88804701637494,-90.01858493282519,-26.52137918803424,46.07623432306624,-89.07360931978631],[-56.588051263077126,-28.469180514019513,-73.33221044817428,-11.63186573913328,16.22214048178932,-68.8783305424746,-12.422155583523997,-76.12639403243736,68.33074999116252,-54.26280986201995,-68.21814036320322,-103.03133838286118],[-23.967015733602775,53.0770085399401,33.84463985799252,-55.019915833807076,-80.32056348875722,143.61193696956076,-14.480488540891125,-61.16459002470782,8.046519045219274,24.89975395871628,124.28668662637908,118.80159608038474],[-58.80058165494252,-58.6616452432802,-19.704144942281395,60.06673823910398,160.58800533398033,-73.95126549158233,-32.1484932083476,10.011292270837547,-5.037091318335873,-33.23492279791771,-10.649351841275696,43.63388994865369],[12.694732238601004,0.4154524483533667,-20.164260742696353,-4.245555319838278,133.5370607211497,-21.8305781686039,68.17087340599716,-35.4514996369017,66.43371227894339,63.85143870603473,-15.699489701980934,62.688454832851086],[67.94895014058463,27.362609589449765,-100.47020835677303,-24.915788731003694,106.90594461283463,-38.36410342478297,-43.146163965249166,12.478767064637067,149.16838715533012,-11.167439921266949,-32.867698945123266,-47.09937336022071],[-50.24013177403049,41.874625296225915,69.72386676240157,-29.775293140065827,-110.77449239841317,-69.73324986332737,-31.31594297695707,14.931557863105951,-93.71508118425663,75.49714815055391,-51.96981266312584,40.062830753242906],[6.327842864783442,-34.56882272781241,43.496453580663434,-11.456696373806079,66.46824406166643,-14.386747998227914,-37.87260296529637,44.031762094278974,-48.36599336557142,115.6236961388541,-73.67122492853242,93.59779015513993],[8.35820740588647,-50.57982906055902,-64.0716991347202,67.35547563919637,-46.225668127556574,55.74125599937939,-18.581847990673506,104.62628544139116,8.358119966786077,13.057886789776862,-14.239822868396605,36.8102412637243],[73.96560594240471,96.61552455947043,-105.43395386961409,-23.58127358458288,-68.06276682309674,21.860302169086918,22.744530796833256,-8.215030107893751,-16.02893121020639,13.541664153557168,22.115458165152805,-86.3636175965307],[-27.274482863036148,51.603711374190866,53.577552817600264,35.985135767404486,55.91421872478782,31.13000008961915,64.35660049889269,14.219985352173897,-14.913416943552617,-14.022018945440546,16.387381473020756,-18.643492048947977],[43.14869840528988,-99.19218962871855,77.75187573970099,-33.074658731988805,64.18236403625549,63.19314994579499,-90.57337932365895,6.539846276483038,30.55320023956544,-81.4984138301095,3.4399410287798684,73.66501875877262],[-80.63327007912741,-39.18080471205653,23.51987646803601,-44.774972683646524,-2.9980718179445,45.405764882955154,45.66179116128729,23.52153753847799,62.090746461509546,-119.8857491061004,26.458988631622127,23.587435870589513],[-12.890507276214429,-89.87910551636323,42.830001267959226,67.56595010743352,39.826501550553495,-27.88340825086406,-55.93386435883098,-62.923918058279504,46.67897057398317,22.83001852956774,24.990877471848975,135.51453541970588],[-11.716161572986298,-104.94440396810124,2.406982838789115,92.56047724702502,-22.95456381910048,14.43937170586595,-29.44004429953971,60.76741593089259,-71.51996711642579,103.8111901298265,91.40797350215999,4.447745127415002],[44.44399965932397,36.217501803152636,-132.93972502995695,-149.56057057739835,-30.24002610034631,3.8631684583537416,-27.074543438396464,-94.39696002004335,-108.99125416225041,-85.63091138763279,20.90400465598598,128.0629098189183]],[[-29.212616872573683,31.251891282055627,-16.347582699380578,-26.4020098109869,75.32238818813637,-41.77119623218117,-13.317713286741299,-51.17778577470952,0.1482420272743944,-1.4807112142785306,-85.60425924943759,35.404922836864564,8.584930006320656,51.37391747163018,-112.16311879718612,51.21560084672124],[9.925037215092752,-72.52558128942596,-0.3465176526358979,57.09539935373667,-1.8681520875266853,-14.265370164296893,50.72689697183773,48.044972484400425,77.4181769534779,66.0211743296263,-7.413576096937799,11.78743548178315,-102.62066782050326,-20.789076775339858,-30.096924543947864,23.919471419324356],[-94.94326264489541,-49.175185971626675,24.353978980528215,-105.5839849155397,-26.813077884607146,75.80441307484845,-106.75009914633885,-8.445404456325099,54.94847481341078,56.87768962856946,7.029095473209337,32.16958011009228,-74.46040788481868,-56.96201275666313,-36.92770804803717,9.171257849400769],[74.28748891079101,-0.8847672545052822,31.412452716166335,7.746220241705956,31.47478613653297,-57.145261549023814,-56.10412617204016,28.1499161755083,23.312127834434726,103.73713836991588,-66.14628638613397,-22.2906826948623,31.86175395496598,-22.43216350187594,-31.453725190543906,0.3019277772933754],[10.257460761750265,-74.04000294852756,-103.91629735542912,30.82516978685175,12.39301205036506,-95.85341914827214,-6.609012346521456,41.565029878981925,-50.46785044233683,96.10201206106034,68.46365803254758,44.50002665273815,-56.53156478829322,-30.966365857955065,-4.660886092365345,44.051918099641135],[-152.91350112954999,-2.848370385396252,-32.47017724051637,110.69371973361457,79.38687450968582,14.445961693177077,-44.592705716154626,55.324496788361095,-53.27510549908044,-31.307892845734795,-19.958457968569864,16.891626201766094,37.35587824872176,-32.540967727271514,34.55174533440382,-15.931767646652693],[-110.64612128410326,3.7344178966811734,31.694174313857022,47.29816349150544,203.96211131786407,-63.88093444072779,88.24904695524985,-6.796542832554795,-46.978429396573304,42.16444128428112,-79.06914651076869,-62.713301916476254,-124.79095616184453,-15.14041531366252,-51.981667952145536,-51.79161963392779],[-67.97513144475542,-14.236826758215788,45.58818048461037,-125.19181240348391,-34.14919437517304,-25.36459290063327,149.04028162142438,-39.348119463837556,82.29792789223178,3.0592594359501475,-64.69777447946682,-60.1296083970392,-62.50337067342193,25.891328443299553,71.95073416630412,-9.177865281138178],[63.12619896400317,63.58257838212817,-1.143441474564363,-13.415838488073684,-13.774098696978587,40.80452494600432,-82.79081114207429,120.30445180866538,13.348047263976463,17.461769316113926,-165.8026072970132,117.92097616747154,-21.322773272654658,-123.97027733329553,-77.41667399412034,-2.4135976857956623],[-71.31188760599782,-62.15523252111312,157.01394963917588,-49.221518441849675,67.560462987253,11.872342865128795,-9.235985978174803,14.29083648938908,-67.38760079754212,27.196296087810776,-29.036921233298592,140.00777401718557,-20.777286394146415,-69.35130842826783,-114.93231444844848,-19.246810101188718]],[[44.677650699917784,-84.47463226625734,-44.610237294402104,-141.89594294938027,-99.5712375647396,-38.561826485133146,-10.563364041519591,105.99558384067281,62.061229628778,-89.0406181948437],[79.47024977304937,-105.92607513987618,28.496094423358,-4.5517300519012185,-62.68521748145378,23.870244313827044,-75.62671736265465,-47.1485115827846,-73.22715963980382,-59.30454136290018]]],"biases":[[6.222692407205229,42.34352676420483,32.720480160068874,24.608043313618474,28.271260578889436,10.016590533134377,-6.8626210253351685,-15.271848608297505,-7.372780429631438,3.0171633582158788,27.087906847526252,-14.572580351255848,3.8718608440254823,-3.002760434442738,28.532196707597688,14.302058705377126],[39.674742777281175,-12.444801015735258,50.68405367505851,-14.089681755746097,4.663308638159976,9.994602696283529,6.188706796347441,6.396193230746438,29.225769807212696,0.2266213646602738],[11.472970415566612,-22.62882333988767]],"_generation":851627,"_fitness":0}