{"layers":[12,16,10,2],"weights":[[[-33.844971393520744,-2.9046542374118043,9.660484940939975,-14.203986234333229,19.533978343807195,13.155491845517554,-12.044121327899095,-11.81266025394469,13.738791248054838,-0.6982247163492726,2.650155709288645,-25.15138685773025],[-15.76570752807025,-31.08697014410741,-14.911527769107343,-41.40161772149772,-14.0282652190187,-44.68519817934104,-28.85799600648579,-66.60418292203369,-10.238164762785233,-7.564991764718716,15.135357402145441,-4.9550812191210705],[32.42597262500821,-13.864486326762684,13.485274267752748,22.03532668671249,-62.44164075352995,20.522905048448624,-5.283429589070635,-9.952945498699219,15.456118274467627,7.411434366261745,36.02138654151819,22.779362411038676],[25.15806394159073,-15.896713734751293,-7.011084351900312,20.569697711567073,64.05864016700487,-22.724924820276453,-0.06188878082490461,11.796447257048623,-15.726518310103168,-5.915346311145798,-13.7192076613528,10.50560500461358],[-15.461027929801707,-6.115424660264719,-0.31498458754681247,12.838298717487284,-15.128218502422325,3.9617673715734356,-2.1358937094912163,-14.508375454563023,-33.993000234295394,3.7917497585296642,-7.038770617154728,-2.4475501607509473],[7.552216344199216,3.943396424969668,26.799869791041353,-7.474970974746966,-3.0558702677059117,24.382708815593745,18.190227850059873,-9.611265517135395,-27.383197330997497,15.394315239611501,13.57652661885566,42.71213503052989],[-11.264203176002972,21.66430067409866,-21.26944055796953,12.560588557456402,2.1432130052264093,-3.901497427463481,-11.097327260478501,5.037599164398473,-43.06978619567391,0.18593303717721238,7.113338880861257,16.818134063813396],[-18.127190993933006,-19.758489213127355,-1.1025647344738203,-17.339948859734406,-11.181537401104192,-8.690705026732443,5.518677981111938,-51.48734302310689,-12.394963417739667,18.54184710705333,-10.409482260062706,-26.35318171231883],[22.242405884801677,36.9753384475813,20.977287735992345,33.87004920757377,-4.696609125101798,11.197054877137283,-4.721031269052996,-11.05709773544661,-0.765950184282271,-22.384538981311703,8.626966792470236,1.353976977470841],[31.699553258358662,29.888441360654657,-27.20766069452246,-10.428293588647463,7.851575394160819,-4.012593360081536,2.4900916869872476,2.4603762340658673,40.133559753417565,-20.38231015406074,12.009382747513476,-35.79040633276555],[0.8959711132466521,-25.839629099978865,-0.36800699950835414,-14.763470741520905,-1.4598699428576636,33.57101906620576,4.436948666883949,9.844067284354232,2.3485897637370696,-11.731387641498848,30.22384967117875,-19.599521811913533],[-6.356140215470844,19.706531463431574,7.725846992617497,9.78726405713567,57.97036670582188,24.066796704231063,-7.601061458881445,-5.282814100509519,0.5634333476163588,18.724987801294624,-40.093871604004185,-18.560712884330236],[-33.5258010358651,0.012351854499537351,14.558025105165887,10.609910884673694,41.642011255195335,-13.757619511463776,13.195423057878847,-4.572026411569327,0.4109752755816455,5.75633104510689,-7.839375944571498,44.37437570636088],[-15.964347493026043,7.6345529642159295,26.48524043426531,-1.1489798265916755,24.04036533451511,33.775092345241355,-0.6857043838185809,-14.418832335619834,9.22683239198813,-3.7342543900250402,-28.508832189474784,27.08906919441068],[1.4745437081652677,-7.130560301175453,-39.5930148629258,36.35949340733691,4.4105006292288245,0.9234166480545657,-17.0960883559419,27.543428269066272,-27.731152075934546,14.888490530767461,8.812420864859039,32.226489401084415],[21.679057895251354,37.00065924478384,-5.181656133033578,-28.679092306871173,-30.279303529592923,-15.031107086572879,1.1592133762279064,-6.118669750845768,-15.972711025736396,-2.315800516857885,2.6548588633620906,15.495179620369065]],[[15.198107031925195,3.3984701821263195,-27.43188769558953,7.846237427375914,19.70709796174316,-6.385516073244759,25.39251241822038,26.59181902015677,-15.787912231828582,-17.632663149482983,-48.819088827826874,2.827010706196182,-7.040457817106655,7.04991769689269,8.716207775436446,19.529646975439295],[-14.145216046947414,-19.472463803584954,16.90131084785451,28.61518826610649,-38.451249742775595,-3.370921750891905,5.583439754787359,-4.985190042677251,20.53624155348414,19.001891409885477,-8.784880896772005,1.8971872184306668,-35.80187863854783,13.538046318164948,2.8365820420703844,30.56425079510078],[2.6016113173134725,-19.864710988912876,10.33550627029067,-9.565749738745831,-8.498951009175231,13.152012724994748,13.872049272818298,-6.85835297689951,-6.044190700127611,14.62914179181475,-19.989171915633413,32.15063295912663,-15.59166426233923,-41.22471268564223,9.076813684477546,3.719446248733973],[42.763034417601254,10.94379243268933,33.98396354733615,2.373968079039848,47.60368269645962,1.0977434054162691,-41.49952990216234,33.78272817063304,6.23478475100872,34.16666933020138,-37.63368164549021,6.967324560218883,-0.07240252785030388,8.833336431345877,13.609311490598612,29.76518550469788],[-34.57270104799458,-3.0012135135034073,-11.825273538551874,-9.39944057144072,30.477369285738856,3.097360795509537,-28.943424409454522,16.54087232729252,-9.688774336905883,-21.059361984881136,-24.970911269008788,0.640918212632358,-23.161110611608287,8.999737051844818,7.21598548849707,-20.138233349540172],[22.258778002291375,42.315944772165174,-29.34294293554076,40.62068271184826,6.487323736869085,0.6763316375520633,-18.42192801947542,-20.984376347234704,-0.6177334664481645,-25.2980498696429,32.50563179743741,-12.919449278641851,36.319275654051204,-9.5577204142381,-15.873501060770366,-15.192703226294803],[12.60637530227063,9.731136243741588,1.2730833521581748,-10.157673879638908,10.318542237531819,3.5382954056529567,35.309189773346326,9.167821706910074,27.954468949351178,14.507839767881965,-2.0766661064052436,25.580907283384086,4.721983134863069,2.580397134475892,-60.345089694462374,-13.8381924695074],[-23.872211610238484,-40.0021159673854,29.98310533833688,-30.681184404493887,17.653806279591368,13.379310957789592,-13.072590410068187,-13.886646132995539,-4.719475267445446,-10.68802179780707,-3.288477732032839,-33.7555261031967,-23.80612256091488,-8.928651875785809,24.71365418127475,-11.175887226917766],[-12.257937464112652,-4.516174885827945,9.060674121312141,-15.822217936867329,12.0737706215136,-9.504736601022563,-13.943980503630247,38.16002480976187,5.068499105933522,34.603913337684915,-17.265077272755157,16.102844090236292,-11.427659706520775,-26.47572126423413,-19.749117027275478,-14.279606321136978],[-18.575004857285187,-17.991234330797518,9.290592458154249,0.47155170519209205,27.216115356763286,-14.508436419185118,-3.2263743957200877,5.83793253335304,-12.250268604553774,3.1336753226102556,-0.7488953351171317,-3.25181120715709,19.06169259843469,11.005085629747704,-7.71597790945666,-23.787720655351283]],[[-4.364200813275885,0.11189955663259193,-16.84539085630828,-10.856475280103473,11.38295338175076,-15.12785491444455,-8.759170235104095,38.84683555054108,32.29160913061082,12.889772228958924],[30.056057435313964,-13.671144914703776,7.258430431097485,-12.548404263804514,-35.057666642527096,14.163729391627118,-5.381310751266228,-29.094112242390864,23.660845148307228,-15.37513828238101]]],"biases":[[3.110369572342026,6.900775864103924,-1.535294901411783,3.4565490493972675,9.933188124143165,-4.936557362690406,-2.9479810668674684,7.494240146281877,-12.285649052516668,-2.289109154714516,-2.2810923102396488,-6.54830633636953,2.92259319704896,0.8136355161196591,0.3108432665287366,4.417529313848146],[8.059102118932516,-1.5188642824147278,8.969638386348572,-1.222005009272145,2.5854247106613006,-0.599459732609092,5.9694215316901,5.600528087488987,6.129655052333219,-0.09803156170871817],[-1.9614096555932572,1.0764160555111493]],"_generation":96627,"_fitness":0}