{"layers":[12,16,10,2],"weights":[[[-4.647973446670615,-16.78667525697119,34.80537739991685,-35.39103740823392,12.256786866857329,32.91163539160122,-9.63649078889158,-36.1738460058426,9.050118842840416,4.019935718859917,24.7640765008616,-47.995432642379456],[-15.30705664931935,-61.033713034848134,-29.776386861022235,-26.723117521367893,-47.12474964769759,-52.286163944860974,-30.5188916911148,-51.81397573721389,-14.175338624062908,-31.30712470043505,-2.5380597523057142,4.633317989609747],[19.85604562003627,-3.135418581018217,42.30023958916192,23.52705068739371,-63.46020432582388,13.309750958569053,2.467659986420009,-4.510989042904499,-5.546675191824555,13.166798936816635,65.60792034398054,13.529216751932013],[6.6825983955240105,12.713232381830366,7.352820270871454,22.257710428685925,118.69169729074461,-11.648891719573344,-9.64188359247863,-0.3769316309680064,-22.46662328163628,-33.26186937010161,-17.33615756767889,-10.606237631939285],[-14.925960109317725,-12.117326124397739,-14.756478638881966,29.00263881374893,-3.0067118643096604,-34.47194016749625,-14.375422232796842,-20.413527255442624,-31.99471179953333,-4.837513018146478,-12.476595577397433,7.26706593332282],[21.579592995281846,8.961591640055172,-10.51780310613366,-40.65701739833647,-4.692846271777145,21.14574748156574,39.2519573079935,-8.80259313136266,11.551619790350124,41.70249264764739,-16.999323606956416,39.51457027281836],[-38.1761992076445,43.47800302468689,-23.01690154471327,23.17539496325547,-38.745779016401464,-3.229083979492015,-34.58595699124831,8.275638992732068,-47.061639907180485,3.99456736531929,3.3841104353079134,37.72363066206782],[-8.330489611270304,-40.229754793614,22.151722680621983,-16.351916455323607,-21.246622198702145,-4.938228441093709,15.882552288237505,-45.51949363849338,-33.08879945401729,8.176853824170022,-3.1724496040328525,13.634358192555725],[68.09072641529032,10.814998885012828,-11.84742943938821,57.834080649609916,-9.038555249822037,14.984050413535002,12.183670483919393,-5.634603938700893,4.626568435663816,-26.030556832930266,9.879530275924104,28.738478438505265],[67.97572009540566,74.47560200657178,-97.05621917727743,-29.079387896790674,-50.430389491996074,-42.599717229212246,29.550770317957785,-18.01775701105042,38.69067993918505,-12.531896897461655,8.552955666754201,-60.588616970676746],[-37.80652723682701,-30.094621856299728,65.3241487421631,10.818061293707636,-4.207890340681708,67.18740172695874,5.326168607621036,27.98107000516976,3.3420095661123934,-23.54765655847212,16.780483829045263,-36.50252125200072],[1.7342014554216088,16.56218444867955,13.393308324069379,-5.018181685451482,97.13103423632761,52.18651345699571,4.405545415466591,7.471218770089279,-3.6562939864514177,33.4926377471417,-64.62696671149483,27.255527873271475],[-35.747557500365716,-56.226796371601885,-8.128759605210234,29.428706497078057,51.72168869104495,5.2869395392502625,2.4771473296606863,-2.3849403009208068,-4.69438769002515,5.466980992920141,-18.468667210032056,49.21646246614869],[14.069056487367737,9.910634351425362,-7.6194447613516205,17.19821676446942,51.90248995796514,13.913420809409871,-18.155326061875137,-66.50428412373014,8.063181762927865,14.590212582967732,-49.02756101109095,78.7236763776978],[20.561187601962924,-33.83668631707609,5.738200387456163,48.755019116312916,-0.007782006508547129,54.123793546030534,-18.4714441362319,8.579035228112105,-67.88446116608795,21.085503261642902,18.035430305193714,36.272792731965964],[26.404310296666566,45.0146032141561,-7.47176342162945,-89.41578619364098,-60.885165459569976,-41.151424163041064,-43.121991579647215,-2.5463215268856896,-36.610602603902244,49.06746696471677,-4.566152890604995,49.91297410575832]],[[5.38947732961487,7.926511492353448,-37.6976544491958,-9.942892675191132,70.49612490192999,-21.11083474473653,-11.089799827027287,34.15462876408537,-13.41848051944624,-33.856119131924515,-40.87084047213059,22.753003212775383,11.215530141687449,33.862887554062034,-36.781514778810546,26.266109810744975],[-2.4132826524652793,0.16369615663101128,11.756025251471499,37.8180640651737,-13.348581687844174,10.904228482139912,17.00403836423697,-5.096667722330976,71.49624788994143,36.50865658156837,-19.133156319255217,-6.160110966893425,-75.97126146620477,58.793908946340665,-5.378648955783865,0.057446518211933],[12.216656080738312,-14.705368052953318,19.90929662729674,-42.06681435485838,-41.00894549093476,13.633617707860108,11.14440207467102,-72.58159238166947,-24.70691778981438,41.465117145212204,-24.15720569468249,22.577354297962227,-8.360292946617733,-6.7486613382585965,-16.46893891269461,-13.923671716753423],[24.255305356949087,29.326762082391458,-8.521783406011027,17.948726087778457,15.977441345547202,-16.406684281050534,-36.8537059927401,15.881100318321085,-7.702794395797699,25.50930276437841,-41.159184308638636,36.45230801066449,16.374082548324242,21.53260921432018,-0.13794549985413435,43.54614860899817],[-6.941789660733137,-7.98498557934312,12.453236204154496,22.15866466624467,8.537462252834487,7.979000050960284,11.474381666691405,24.031465868508967,-46.42515496840631,-6.280908905232298,-44.292958918784215,24.731724797925427,-28.727256060637995,4.654168070544598,4.682662690429254,-26.66862452114143],[-26.90376769093216,42.98997523479648,-4.287255856167885,43.10825874978493,7.60222502725907,26.230782352475316,8.470934121513581,-8.12368507509904,25.2369336931805,-47.26511213479504,10.079211926267215,16.209738894112768,43.09398399915076,-49.740673238895496,-24.330797887806074,27.29481296695329],[43.23254172987612,-4.303054905822656,-4.81964056556455,-32.07546566372062,27.874149825327656,-20.737834761591113,35.07450790367984,14.013381929880982,48.31976346927477,68.78932735195298,-10.463398388103252,14.739764241565116,-4.896730968287611,-46.010618577856725,-32.073033825819664,-2.0282576804944696],[-14.08548991753089,-12.867363016622557,20.218793873569325,-78.91079205108167,17.065763511775426,-16.517135298967908,-5.289097602134955,5.051859982483517,18.847706731679068,5.016693983212166,-12.223350044479304,-43.91738309179401,-30.573130558249424,-21.124819937607793,19.16108209669376,-30.721958393885576],[-23.116745633585218,-6.2991075141116815,-22.394937600467284,-33.785055264810715,-10.848652890250383,-16.140179742417722,-46.56293078637417,48.39972849505947,33.10817877363268,27.771565440872376,-20.59147143493684,44.75857897887675,-27.493878686292835,-3.804790761332796,-20.031242525753143,16.41276261781825],[-16.745425647072302,-69.26838602235462,2.763171757797185,44.47421630472257,-8.23577434678699,-48.71257992621015,23.369845449383167,-0.64394589958788,-35.63201121096952,35.05320545993693,17.391174501561107,2.616195632940053,-39.6205889376688,25.56111662918835,-51.79452533307133,3.5676520529517126]],[[-3.742923213750363,-6.236237637134894,0.7063136049173204,-22.33486436931709,-12.431235772647497,-11.784741955473258,-17.855743917867322,47.962799567781886,35.092759243530395,6.834243641880737],[52.47196803528621,-41.19266533741188,28.134632703462263,6.807476796135306,-33.1555868947073,20.15008426276309,-45.14793969476234,-41.86724700258014,27.070478314219876,-53.05686460955198]]],"biases":[[7.779683518028759,18.13316365260994,10.23991189583424,6.562858208174363,10.198986194011471,-3.651006422294931,-8.966851342499652,-0.19360227994654652,-15.48167622362537,4.283802269308014,3.1528209343670777,-14.021229610869996,10.484316403173713,5.373693032158179,12.076651454202299,13.558140342408546],[11.54389405064308,-1.8029891901897905,18.333516597747472,-4.711023915533059,-7.149884166454989,0.9411070735666863,11.059492749510962,12.056966571396043,10.233764544813564,-0.6001989589228636],[11.819207207919987,-6.402302165545628]],"_generation":231627,"_fitness":0}