{"layers":[12,16,10,2],"weights":[[[2.6891645724521274,1.3802529639766645,-5.018870721925923,-1.9972694599205818,-3.903110963589903,2.367832370911286,-5.656298778074025,3.3034774587562636,1.1211617014743205,-8.147621272846617,-5.265357313791458,-0.7348146587462985],[-0.4950829777586343,-4.642088852460588,-9.949819014693034,0.6350785647548932,-0.18279786464069406,-2.544267078665477,2.725893906053868,2.2126151538442578,-3.6673266306976884,-0.5099281097384251,0.47523128215157473,-5.211329092535376],[1.8449831827358458,-1.1792350270827507,-8.21729372639603,2.2273912906535145,-8.326079838673735,-1.0243791639280337,-2.338960868794745,1.5242116792584934,-2.2036582610056894,6.737332770339468,5.5749518976587025,-2.9233717667067953],[-0.7041078016888311,-2.3631112938920547,2.0899613087842512,5.541034586889703,10.565205573444269,0.23791730642247577,-3.689324439764642,-1.6559763485269288,2.5961720540074698,2.516699632018839,-2.7880719667639506,-2.10583867364403],[0.4114287252292329,2.8866000204568407,-1.9059513398406134,5.120574495909551,-3.104586031415665,-1.5128844238085062,-1.8474399784594653,-0.7348645566709356,-1.6819662481186903,-0.2319615809920711,1.4925741002480928,-6.9066495713482405],[-1.366111320994902,0.17154848284573082,-1.0622122554465923,-1.064446890918131,-4.17354280554234,3.5782751431081867,-0.005284057322519631,2.190778711169877,2.9163078652027004,3.848784844230843,-0.411052970964198,6.34453030051134],[1.563658692500231,0.5085326198412111,1.69585937109696,1.539393012661034,-1.112653293917222,-0.1576630931230498,-0.4890174846872895,-1.9732060652966212,1.908145380516308,-3.21515962845568,-2.45459483924337,-1.6492762733101647],[-3.2647070762899304,-0.11189120820918438,-3.9764534044239017,2.4515564088277086,1.7835097683470138,-1.5696372176825264,-10.05108681249491,-1.5993536235021961,-1.0819094249953483,-2.011168565977472,-5.6418537670905025,4.116680633785969],[0.12052408211062708,0.8229169764337627,0.4194737612186774,5.3748096515061485,-7.793725897624574,-3.5118470599802296,-1.143006001804826,4.540493142961562,-2.041900196728604,0.42428107954410077,-0.7779256216380577,-2.052885499364932],[2.983564185527696,6.941045925278311,5.812941592256197,5.63120735373171,-3.8855092055901572,1.4993434379705697,6.353352182542315,0.1486781455972868,-0.5473440001342773,-4.467333467547936,-0.6832158528495785,2.2469521233810457],[-0.34610622452573514,5.154491018798721,2.818929988316302,-1.8019086108389673,-3.128784181841491,4.884853236481353,3.4565333275458547,1.4034842560398995,4.5382264852979075,2.5439958584889375,2.490130874977489,3.3006162344267818],[6.095317590242016,3.54918100409669,-5.153465526806429,-5.7028788843299205,2.3894214742513586,-0.587765424154898,1.991263719307773,-1.97787899464044,-7.1804862599448285,-2.344363105739034,-2.5094167078388145,-0.5085928652006222],[-2.3543590967895693,-1.5128656868948154,0.49530847260522926,-1.0356494994820564,8.837118232601544,2.397762143369086,-2.048554403875582,3.727301956047607,-1.923724914321295,-0.41103767475618147,-3.0885411648362173,-3.3837913980526393],[2.182895339821497,-0.7083542278536542,4.7377413551483265,10.21519384390878,4.072194869437873,4.8886755833870055,3.831827496133933,-3.8256968714092405,1.4798141836296292,-6.571948537976308,3.9676222020422305,0.21062125945918783],[-0.9529572736379961,-3.7983273430633546,-2.6473204718384578,-1.9822592403490322,2.0186998618514034,-1.9527643885745467,-1.2267634382632422,4.291738441831613,2.06405852857614,-3.6143311252500108,-6.0692166646883265,0.8469485361308607],[4.299608274530287,5.894327235981572,-0.5419030556020582,-1.847099525915483,0.3178069581753429,-1.2708846127549025,0.38812964193943456,0.6395229740868884,-2.900110509853575,6.876584322604841,-4.5353564865605325,-2.027275194281424]],[[4.068649518343859,0.2074456130976154,3.15181208238256,-2.198246437805973,0.6783068705718823,-9.05240228733727,6.563403107575771,0.32681462194253813,0.11830479405863226,1.5564201525751655,-5.843889258525888,2.9057500336038253,-4.276144439664288,-3.7206963455393285,-0.7397937592423733,2.074765371199825],[-1.6630120678766969,0.45876774325593417,-2.037202279904914,0.41171769370195566,-0.21994049230734852,0.7435132762340707,0.9030701204126006,0.023165754228363117,-3.5858067430136202,-4.864014347418159,-2.341728789062632,1.2990171661563628,-1.8883006956658477,1.6311584673507853,3.518137312994622,2.080088295882303],[1.2981576489795512,-0.3260474603838846,3.1740282660470975,-5.167438044923451,-2.276849036127458,1.2678825790309896,0.853128366040357,3.2190837291821577,2.6014324080921605,3.4711600647345877,-7.396473661574214,2.0010694172794743,0.9918369616509473,-4.145817952480336,-2.362280247409419,-1.9465978361399963],[-0.4827058024018841,-0.26184409210515297,2.1044164210063854,2.3933030241894007,3.067760789123478,-3.451045752688978,0.7532304209226921,5.8320397898695315,-3.8788820852953485,3.601568047523222,1.0551373175287877,2.796571236781605,-0.9429930745468444,0.9338171509930725,-3.7768888714756192,-0.5030071144890664],[1.9339015454486557,-0.24496719929269362,-4.83724714797707,-0.04984144949054666,3.118262740057353,-2.3616031966921214,-7.577682892251126,-0.6893089658005472,-0.37944295371067377,-0.5394839838850536,-4.228498825414309,2.1911767321502613,1.1878823388882704,-2.09441194006116,1.2600092256246564,0.24945229033095018],[1.936396410046946,1.4169107093143836,-6.313464625516147,3.842365644234533,2.296785388687261,0.7539467462816241,3.6325887075944125,-2.175010799605377,-1.8202222322207262,-1.2716893222639152,3.144350675010933,1.3368083951634486,9.853611260651405,2.2038196814786057,-1.502474572119759,1.7363048331860311],[-1.2194870824426693,0.009207090811849027,1.233428205338593,-0.3134180436959766,-2.479032726753435,-2.7363234393883653,0.6473036788972755,-0.872071777193545,2.9183910978648053,4.835469713391177,2.71905055914886,5.43453719144009,0.7784197269598002,1.2895588701201368,-6.57114100647907,-3.7184106705271542],[2.1034157650110235,0.5702884601230516,6.837190043728382,-1.3535612182815868,1.7198325379243513,-1.7552458676865088,-4.346471022632258,0.6282327104790663,2.7275862349011883,0.11287376191003282,1.698468832220794,0.7265678241708685,-5.028031438720435,4.12545700496738,1.6031826659512305,-2.6603265547863275],[1.3768023000121032,1.2038886637161141,3.695739097223511,0.5286841186000382,1.3523603227176155,5.789780526317734,1.529667273925898,0.14953877875190935,-6.602868267411119,-3.8067008097055868,-2.31502041444995,6.867419234701321,0.634998778030232,-1.712740472962882,0.9336725884180889,-2.065754299083641],[1.1513194375364637,0.3980004109177839,1.0431747814277446,2.8468262303116076,0.8282205877000077,-1.6677893714199779,3.549558187506513,-1.7201828195456508,4.431230285767304,2.691433062740774,1.0378456055601353,-3.8946258297318477,-3.151475043229855,-0.6033513610522784,0.824013131194536,-5.496884173116658]],[[2.795388227069415,4.0522687166612466,-5.0322465846435875,-3.2866544060651246,1.9074571926556563,-6.753149388561806,-1.3433477033030137,4.223953828558774,-0.8114829468669352,6.03437279783317],[1.5997961727410934,0.3244614449077937,-3.4897705089261084,-1.9716369787899128,-0.6791293451133965,6.2641347521750435,-4.312680570087155,-0.5890172297545859,0.37670951549140924,-0.08603189967456773]]],"biases":[[0.08109892727506622,-0.7156659248445739,-1.840537411845646,1.4720949412270663,-0.4307994878205217,-0.722582863429039,1.5717306315231572,2.0103939535486486,1.880940840539597,-0.9084402716092763,-1.0659236580512643,1.539959240498578,2.259222233761474,-0.050140455115854,-1.361528067376967,-0.4714965114604281],[2.231297864644037,-0.6746383206645451,0.9690949768239978,-1.1724344311233283,-0.6871994120783019,0.012445041069430549,-2.0866547147561114,0.7395345794930129,0.8195327020899553,0.9600196692883287],[-0.6937079209815484,-0.13923163527455298]],"_generation":1527,"_fitness":0}