{"layers":[12,16,10,2],"weights":[[[-1.3542201934143727,-9.216896587311911,31.091280312836073,-40.931750592803574,12.028541667377143,36.5214451636837,-9.549911656779745,-35.5642685602747,14.714059897189001,13.371312441290991,23.757142549628863,-50.942769749003254],[-14.126495190923325,-64.74443384772566,-29.623927248998847,-23.396252966891815,-40.64873453378221,-54.09845114048607,-37.771747374791396,-53.651732895356105,-14.928816280801072,-21.33265077889835,-7.059268041220269,-0.044225700065005924],[19.749031673937864,-4.899683410188334,31.21538868086893,21.85013604227004,-57.755276577363745,15.785767277557058,5.434755311744355,-1.5383953502157908,-7.224283340141429,20.733895254612793,62.07305993489883,15.074004976089528],[11.890364703493814,16.28527117242171,7.962587242266574,31.616635659468045,125.2889907603615,-4.189982161019505,-7.803618492561764,-0.1793957784827318,-8.521323231127854,-36.43085676617162,-18.144485977948108,-5.935923184652744],[-13.042721863346927,-19.99993006147864,-15.308815207806507,28.495710735488366,-19.245772170717483,-34.89204456482385,-16.326130448788543,-20.866916741387886,-37.79119172434111,-4.676252759996559,-14.789207498885602,12.863380589722002],[20.390235359084727,5.908692659935214,-8.091379419441722,-42.66692003786148,2.631348553036277,20.977353950463403,41.0589725250338,-11.492105183968917,15.285029196203514,30.519207777127416,-9.879577545223004,52.61448073553846],[-46.57446872652929,42.47796369785245,-19.17210813792727,18.800273160077175,-33.183496281510635,-0.3072935713771813,-36.510279807759225,6.59968851035059,-51.48911775006566,-0.7969130305828027,6.432572264037593,36.96384629629699],[-3.102415647994533,-40.308762677039596,16.881751741695332,-25.58511710457531,-19.14029068307793,-0.23513001331188865,13.389178775938024,-48.965600153945246,-37.6657859972504,8.036363365713003,-4.708553847809325,15.243008368467954],[65.1034557792551,10.52560151979381,-5.2917025617975195,52.18477984467875,-4.959597346551453,13.980320960564663,13.369639919117358,3.4491465907343892,3.8667780681932493,-30.083871466808286,6.760039675674195,35.23276649545529],[76.19740969027463,71.16347361615682,-95.44513721366117,-33.35729968115085,-46.8887955512435,-43.23841810705259,23.2247900455045,-22.923616242438584,34.417809623761435,-11.782346340787111,11.489514211253459,-62.11058576290127],[-34.25760033188821,-34.06432815376381,62.52263257431633,15.17214946299268,-11.53188674233441,63.01581654855693,-3.6361671326397995,27.569049542125153,2.375051806776763,-16.67405498383816,16.141540498972088,-33.57949216696435],[0.41562307408772664,13.446402172735045,14.618007421510066,5.212795870062749,96.45108696229268,56.9592509801659,-2.150917551744603,9.34283376668621,-0.3193143989935409,33.462972839192815,-64.9827233093958,26.330459989871056],[-30.74245110224501,-42.8705174133794,-2.371981846707839,24.179268422971738,57.53150656304285,8.216772835558551,1.3674931483584578,-8.16977939438789,-6.042869285886747,10.465732065894661,-15.055479127119723,49.12007068253083],[15.762906576264832,9.994953897301318,6.652167455495905,7.993101561627295,55.101956633860155,11.577390660227636,-18.25207860044568,-61.45758702129507,7.671641013356296,7.578961185338096,-45.52868880186971,72.99290342510868],[29.349812709203388,-35.029206494110255,6.749736723509675,43.16066144938513,-2.0369422425232613,47.998923816191024,-11.341487445346159,13.057852448393284,-73.17303623097824,19.46863569872448,14.459171822788791,33.448535097737604],[33.75538885207658,44.28459554930901,-8.088432184757513,-91.41125246988356,-53.93049538844334,-45.228504943713716,-33.205333522702674,-9.404917543182544,-39.536930752919694,53.239939567678896,-6.271307152664541,51.708501226705124]],[[0.7625017776700682,6.140236909343096,-39.89092198640745,-5.273639224246923,72.31273115010366,-20.091714401609387,-4.642755136748033,29.18859789709528,-13.236108043559703,-33.962654935765954,-44.77888595421968,19.448495127863424,4.982528751099308,30.082832759029056,-25.264898054747338,20.931261504220682],[-2.596168439133223,-11.415632852639938,2.030704310508605,33.508727711049005,-6.410419733648025,8.26469098282766,21.175213967744384,-9.868297662277547,70.89740668619271,36.591716858711166,-18.645497918531067,-14.231692842548625,-71.77735770283778,61.45883357878655,-8.415147939528602,5.510930474505585],[8.503407805719982,-26.488616451128607,20.977947364617542,-38.64882847698602,-38.455956342533035,22.468349503401473,20.002273567090064,-65.83161290906173,-21.45884622054442,45.07587035493613,-27.345455337373956,24.38735855527221,-7.620719186590115,-7.283605244667765,-21.55696202680465,-10.507809540752755],[28.263941753412816,28.000657904007934,-4.879269353169237,13.464269901667556,16.75564213406102,-17.140375889518463,-34.05191948446282,13.534478176356991,-6.726715732969251,31.979788712602396,-39.46314246930301,33.15090213520805,18.31289150523775,18.741505947048335,0.651913709085827,38.16206170231333],[-12.45389074890768,-10.720660267885501,4.457142914238836,22.93131585229241,7.687709220406636,16.702845324306217,2.0865709344466676,27.891872181674785,-41.83039203309573,-6.9977482600026715,-45.65642641302528,26.309653189058928,-33.08666290870643,-0.17670826841402523,5.503224870438976,-35.86054819779004],[-14.75100905477388,42.83976428511743,-3.265641409118113,42.91304659632001,12.58563166307788,22.039613700090033,12.003299882221604,-7.214775219801829,25.827891185429472,-48.40009744589518,6.693618993093431,10.514492895282244,50.96266872594573,-51.67937245349831,-21.61465770540913,26.836814658853662],[39.45669800001188,-3.220901783788327,-3.8295334467431017,-29.741832247222906,22.57224007012186,-25.469543918332572,35.76141868694703,10.801784788245644,46.959449882212354,70.75034100317205,-16.50050843320642,15.83910442281673,-7.630473896859786,-35.75941300030682,-37.93665779718039,-2.6528968552280165],[-20.29046721053433,-14.142961250227254,22.727925423648944,-73.44228460265738,23.546091672189682,-15.355559582169667,-2.7910294594751264,3.5294913882309555,20.871807643609465,1.0930435481245042,-7.408300424360218,-42.42327889450579,-28.300132305126457,-27.937477899422692,12.986528669147344,-32.448622673281434],[-23.229688222371482,-7.448399480728689,-20.406542609338178,-26.893307819088953,-2.906354364270201,-8.87100042229337,-50.17686844167046,49.842124567343625,33.65881345166107,27.060782104227794,-22.738070844800028,54.7710845045177,-20.587054047010646,-2.7785541829955656,-16.13972625113498,6.525318265122854],[-21.452822117665416,-67.34246449923056,10.323511657062948,48.260066015170565,-0.6412275783391618,-41.96816602483413,18.14775850087126,-11.226371101417367,-41.988236864917,40.72508683795543,15.320424004204956,5.9906253389442305,-40.17172382045577,26.166683762283796,-46.75026114254067,-0.8515587546551434]],[[-8.110667998946806,-4.133129574968025,-0.7982278034908259,-22.378152577890813,-10.073825111227203,-3.860755302405255,-14.706144914402671,41.42603509092365,26.676154091585726,6.184242716870574],[46.932621225926646,-48.9482274840639,21.015759288071397,-9.581320291221694,-33.3732510315648,18.57285588922221,-49.94497931309282,-34.85508218858744,28.16155296987835,-49.45199676483516]]],"biases":[[4.507260674748983,17.667249931946852,8.755549012685096,6.211397905913666,10.071558134981037,-4.490681532537354,-12.182639529962035,0.6761657844991007,-14.66457089922957,5.6734505849472665,3.677407126048943,-14.882731708207759,11.771104783963871,5.398078337014742,12.839298745658443,11.816479226514197],[9.132841914146413,-1.832135521344954,15.14707611967689,-4.33670690340486,-4.854693405143088,3.6450913478078584,10.717458240217875,12.602332763089626,11.849215106548753,-1.8531758939790761],[11.835172619947397,-7.892808014891189]],"_generation":226627,"_fitness":0}