{"layers":[12,16,10,2],"weights":[[[6.846695923079359,-1.197358418002862,4.260353410580179,-11.999032628101661,10.587681279155506,-7.4572998933567884,-4.8999202095292,0.1878873224409322,-0.8439060414917412,-1.017578302328751,-4.381965096369664,6.432112776605246],[-2.727125412448642,-35.16666922750987,-14.312425987880747,1.4123147201542086,7.585115631883156,-2.7297997758636585,-6.108915194682675,-26.460199682798983,-4.772040968265844,-5.956237007132126,-0.8636700370154711,-12.53074465725753],[19.3939321444329,-3.099596258631727,-10.902512736358823,1.2526749138718176,-33.80980329944923,10.541727349553996,1.756601989334667,-11.68729275213045,5.313870621174686,3.1954613523844992,28.065442053653634,10.932870890146665],[1.510307646678042,-1.1273641491115733,3.913170451846899,8.211598307096104,53.876645032440166,13.326835246135879,-8.963553381677732,2.314452710641616,5.0624466082747555,-7.146397308967666,-5.382043988512682,-2.125031461737921],[0.33710613657380306,0.17961638004272312,-6.0792015334239835,14.983816713999476,-12.48632517058029,-8.729317408340485,-2.3907899574481206,3.396838782124979,-14.841347975623162,11.102846808206417,2.4577256028411263,-10.169495614281594],[-0.14417966026415874,-6.043999925621967,14.366142571025527,-0.2644636136595139,-9.075260869388789,5.445655776884094,1.188282871075929,14.02450146170068,0.4793474628460392,3.4554226303705575,-3.1518028932236284,11.721337052015146],[-3.4858085430269212,13.4219481005486,-16.237192418960742,0.01617602262579622,-16.761963853924204,-3.6556624877639043,-10.445879885368777,1.0729181788320923,6.753984598802913,-17.70247428441988,5.620909592394596,2.8505372893545045],[-2.730605364978433,-7.00920828105244,-21.36880170852806,-4.206958497031669,1.678705249061347,0.645321115805305,-0.2307877153386187,-7.128515518824591,8.78882205070503,3.431725307422333,-3.226801180494435,14.966736085551755],[22.16749817577278,3.7488990957321953,18.0438436593555,-0.9059021930153857,-13.760451011147696,12.064426481906237,7.762687160589317,-5.792138424759266,-6.312498290287782,-2.6648562977890653,8.770971269356215,-9.207459441717031],[37.84291637613802,13.232556223779715,-3.4726454242268847,14.653904261873254,-5.331314450056971,-10.458677988846146,14.518822605135876,-0.11529881631252113,8.723378103518208,-15.007629238796019,-2.0894333634255045,-1.8246550715449787],[-7.981129436493179,-6.562356359538162,-5.861381351523691,-8.879771955900607,-12.289930846651638,26.415838756424872,7.081528287431364,0.5241951972709473,2.4454223793229684,-1.8213492410735554,-3.6441554505516516,-16.047569143264564],[12.978210130052915,28.807658399927078,0.01639682329906859,3.7419933144332362,17.376586775884615,7.502819868825809,-2.830028610480835,-4.491835505468771,-4.769089775333042,2.556836380842624,-4.042146293532492,-8.506871527319039],[-17.82430616469372,16.915743181248402,17.306632800960067,7.2220275767671955,28.669419462406395,-1.9256016504228084,12.327961523553636,-13.545560773518448,-10.759107035649802,1.4072939053991556,-7.701591516160686,11.291407330892866],[-13.179956195308769,-2.0979855296967953,-16.74455784012272,-0.24533630693542166,19.87118077528756,13.642663293185002,-1.6793615267425712,-10.312068295746538,-6.320566738760283,-9.14235516297636,4.405293419176401,19.144745800103628],[0.5976039762620525,13.41339064550445,-9.390737820984356,1.445428136510511,4.596674347506836,0.05849574907105813,-4.068186586935705,1.5554193984714397,-3.267777944977866,12.288259310204083,4.437209665322582,11.431177925272864],[21.740785158740742,21.64981620511351,-29.609227429200615,-21.120035859227947,-24.2900977416937,-8.061260963843749,-11.115117046195884,4.144089404835883,-5.831072731582344,3.826951424350674,13.466417606880498,7.174819984082663]],[[3.7593252810494024,4.296519541188423,-8.268837139362297,-4.886296345833028,-10.81238843063766,-2.0837256998425793,12.182727000253005,17.538431337162827,19.39094102706782,-9.363870036090173,-21.411114227042603,1.4740393021044083,-13.776269331039742,11.010410084161242,7.1644492314006225,8.289025988340276],[5.971955938985146,2.7147245032916483,14.453666644651976,-2.8799062797365362,-36.385318761039606,9.869147070587074,14.540988514550131,-4.305062997827191,7.836222579473001,4.608161436504421,-14.392812497760675,11.987177525147816,-10.401145738043533,33.70501766720358,2.864511840100871,32.2388558717596],[-1.1099333908726117,-15.369044594138462,-10.205463962726917,-19.804004908255855,-8.629609894243696,16.288631016804825,9.408811800282814,3.5783849937183927,7.166975792020676,-11.099519504711784,-25.295784144811755,20.92761249186145,15.905276612744094,-28.083087092220296,-13.072690170665556,6.05008114799971],[0.32511878788396853,-0.7154237729158359,15.079022928958171,4.031510659909703,12.952740852250097,-8.898687512472586,7.95733247463787,15.20962538655106,-2.5715299643233105,28.280377471300675,-17.555659892491953,13.827334652199825,-0.18876318681277512,3.810027409740507,-10.69186200451264,-2.1941648705544785],[-3.0285465222172743,5.522243086006144,-16.33154065091495,-8.180427506908517,14.61575129833315,-9.321106987946417,-23.59211714658762,16.48400616819794,-7.279001422223795,-16.59257227275062,-1.4560525017733807,0.055830915149858745,0.7479587809518442,3.8805603687932173,5.578874919295213,-0.10519914105236468],[19.392347290193793,7.3860855368192135,-0.33758094989000387,24.293167023515934,19.571064172128843,-2.325114506666262,-4.314667473528155,-11.112316545872146,-9.149477578704214,-9.185599965873488,5.116190617302303,6.055551253910811,16.217151527021837,-0.09066652315342555,-11.229705487853229,-19.35997319312866],[8.630491472258669,10.280507876953337,7.547296182876801,-24.737173777604067,3.066852320118965,1.8291967121064774,10.250113440508066,-4.790149081029043,-9.291038719850423,10.138034228719775,5.674963150956047,26.653834774225214,-6.11042616936457,9.622963510274943,-11.875097496636108,2.6146469736102995],[-27.466653643383193,-24.568701339657643,22.86973554742568,-17.52037783816546,19.99129113579667,7.690114611059892,3.5358431199821294,-5.162288420482875,-1.2426706663126668,-1.8980785327097331,-5.797468027624058,0.24523813452240767,-6.471392499594077,-11.396072887636747,2.0208300228031355,-11.562659750085642],[-22.674080310137914,0.6934295971468616,4.356627365529914,-0.5576628960247757,-7.783286350556393,-5.8774208076203305,-9.54919789473045,17.9636995310364,6.488484866714352,17.998555871403934,-5.431341074050778,6.2912678142526355,7.612694105568181,1.5778241613919468,-11.807584150770486,-16.407322968654228],[-1.044512679467567,-4.025074152075846,15.147225501679165,-4.700994090779789,4.555899315805172,6.019367093527972,-2.336737777096843,1.459075031161921,7.696821166137578,6.347046247293979,-15.173655737489632,-0.4452641068404095,3.558130525437725,-2.6866135590673115,-6.341929677869231,-18.051654506290948]],[[-12.468203237874443,-3.749555008546682,-6.503146404753197,-2.9075585680988607,-1.605592631243365,-15.3545251747436,-8.499917432152499,31.672780926209786,2.190432544392604,3.752146296988773],[-0.01705207283522385,-3.749199627065681,2.646200575956528,-11.942943070224315,-22.751596075728976,8.900588957347244,6.276267965770486,-8.472602052611842,-13.433508108225341,12.256143291449082]]],"biases":[[-0.012964468386937301,-1.0017557681459208,-0.7695698550617031,3.3080523058848956,1.1122745266313248,-0.7511850330886711,-1.5383305168462436,-0.5502773534879088,-0.15251147664229017,0.013734848166409415,4.962186237236372,-6.583119714736796,-0.49462353879286,-1.979750361039029,-1.0053261556192763,6.014842652438457],[4.978389777251837,-3.5598895349810418,2.336969351179416,-3.441107509427857,2.812113911794829,0.9448780619081758,3.609135703567783,4.17151646704664,2.5150620135868413,-0.7053851589200855],[1.0900102638896836,1.5404918199228321]],"_generation":30527,"_fitness":0}