{"layers":[12,16,10,2],"weights":[[[39.677877489311044,-5.0430715892347315,67.73183838826353,0.13028395454242647,34.663287355873,50.91649698277993,-93.4552446843369,-44.27706952747573,-55.55811456659531,4.610163742326281,-20.935307603154445,-63.19385068272185],[-49.09169165578214,-68.05863266917697,-64.31109993295806,14.022254157559532,-48.90177586741182,-31.405049493206263,-51.435606269298304,-118.78924649052918,66.43444689075359,-43.191132394018204,-67.13311544312721,-64.08997794822562],[-16.042707582051488,-25.945210209049208,28.375656865525126,-32.34577093718128,-58.537805805316374,90.31490473039807,-31.9847318449685,-16.56034898917347,33.02005804196674,3.3093946854186482,83.92314428268773,66.2060851659637],[-59.79501402464288,10.992298797067766,-32.7959236971073,60.94168178648269,171.32543708153963,-112.62503123758822,14.914643459363004,43.50489983341126,-41.57035260648266,-26.239289057545776,6.695053591354392,30.58594886357244],[38.669767571909624,-43.81029563746865,5.222302711638392,8.362408243024651,70.31845476656761,-7.477148303218707,45.600722517581964,-34.53410621021469,7.179494155744565,39.4955086610787,-15.28097239800348,25.97587962577576],[58.29111477277017,-18.591154813993285,-60.160192093064225,-91.20496884939999,22.38183768120372,-34.03752487147907,10.512459103960845,-22.174612223903125,99.14108588888946,48.61418602056852,-15.231814028671254,7.385385870958675],[-36.296994939382046,13.890457483647817,14.464841293594771,33.235495680600465,-79.79751497583047,-41.88947525192641,-60.07559196361391,-20.90266856269917,-48.701632401577875,34.925268453882936,5.215911044435168,57.504000448282575],[-1.5029795912059236,-16.298929989531295,0.555914621035873,-28.940640560636137,32.930027196575516,-7.517522846405555,11.237853237193267,-28.852279806682393,-40.64991969146331,75.1786829207426,-15.43401102833897,113.34696152784484],[0.3546093610991883,4.688012387407745,-19.89350686092776,25.57771320688818,-24.252677757329636,79.73836483490422,30.03541068920508,29.61523310875758,-13.394612224360314,5.884930468333429,2.896707765210352,3.0919628305300844],[60.43494576923094,115.68426524809662,-85.53813750430875,-2.00448775597049,-52.97942805205499,3.590934747524671,19.755515535119176,5.100185036256661,15.969751120064883,63.636327231761015,-12.383372795889802,-76.86777362436702],[-34.529704803948036,75.51805605245976,44.56052600301997,25.996282011707624,19.43639176170497,60.7431228647887,15.14683788408826,23.923649201166786,7.803768815835117,-35.48105225147004,29.908258349738993,-47.472020455067614],[45.02810719869231,-37.21867949839321,41.58026608909998,-36.05667925296447,95.83745549980576,53.05549948709985,-12.790411846835209,-3.482054829274776,18.744980973574478,-0.5440505191370979,-11.791490637524042,53.693370591304166],[-89.65068262095474,-45.18237745296904,7.1996113366105305,-47.45764980771617,36.76212354003682,16.583288540917962,38.122994801066355,14.106832654464776,-17.493780905665037,-102.93184912755105,-10.21948929675868,7.602799813363982],[40.17887694897679,-84.60197111899518,-1.9522080592480309,38.01893826960267,45.6696423641448,-7.2807714076373475,-52.687647733510644,-108.19941775528847,58.55992959321316,37.75163987506358,13.603208977789194,58.46896298380544],[-13.128367525435445,-20.46065854112443,-36.15218104662281,117.0824237892894,66.94475376698712,53.287955410316464,-36.25858373529538,35.00885784544547,-93.50836447202103,86.47511545630151,75.25166991818861,13.801275809382826],[29.655142621625863,70.32485825523449,-55.11697674098222,-144.07890772261206,-40.536029486777394,-26.97540801018196,-8.185502889161114,-63.36193483153756,-97.79217520015966,-45.38816718635248,17.912544097652606,76.93530008888703]],[[-10.284817000115689,58.22305041058017,-34.40495059519013,-45.95388762838428,91.56174222606525,-16.987403679224403,-6.827783133879595,-21.887766152838694,-40.627293359225604,-73.87803219515216,-75.1427400219565,28.595829737293936,8.913747578777112,51.875194273061624,-80.07283973920457,60.96312232006083],[-1.9497573125513386,-68.52256195612664,1.8541108476758712,24.414380668314333,-13.109416453450413,-23.039653601739577,19.5342809561684,-12.327450362535957,91.87937834662797,61.48751956049939,-24.52146999575911,-27.5628401253571,-111.72816396764298,17.160053523942366,-17.89694425263528,12.16280511721997],[-76.30486829091551,-24.047839610555418,-0.44064913436653463,-41.731612509123664,-63.018511597600195,59.04329102026919,-45.58068719810126,-11.419505542708654,46.74041011985511,112.30639615107911,-34.0641715669067,9.68518359101711,-15.877836142083071,0.3924980824004992,-23.23472567967778,34.15417851351487],[91.70662991763997,4.004275362300884,-13.528266281489095,-5.991266945965506,46.223472296424276,-51.290446919288684,-38.499934354009156,30.94767982039018,-21.794333704008732,59.336569848448285,25.620740242278984,23.14364726724887,37.72364737137278,15.052776997223273,-51.30727043880537,15.714178211030028],[-9.681447648170748,-6.266222960021979,-84.81208317285508,8.160844635741466,-5.754433334237113,13.752731696190388,-25.096255354633847,48.4010434198198,-48.24830351097453,64.54797912538837,32.10091172853067,35.370962687361164,-43.908848419511514,7.398863924860624,2.9018651336393675,61.63002935144122],[-87.10741941612545,6.063111458304601,-32.31428873354664,62.76239574382646,89.46332008663225,39.30336656722676,-1.1738820274488306,-26.309840536116045,-27.298342266729186,-78.19348469676342,-55.24039969935901,19.910210536631766,-3.826748934993842,-47.194098600311555,32.4042515718279,-3.5528593070065178],[-77.55314996986912,16.489491822507983,5.354237940710398,18.19676492048351,97.97814626666039,-50.83842498261596,28.22359306569671,11.106640130677686,-4.840369781143972,60.26154720137021,-14.817494947945491,-41.88778857680009,-95.40569337846678,-48.981984480516054,14.579229300228057,-33.67066128438335],[-65.15968176394993,-21.023213441105945,45.92291605812342,-82.60531164664287,-17.238879327961786,-27.008258714247706,71.64282466901511,-30.214179775915742,72.18938643018132,44.515158969087295,-48.239235856954096,-38.968226358983344,-51.45694042453665,0.26447980850530384,74.63571558898434,22.93433580025226],[79.04926408381077,22.713890981688284,8.602290289482093,-65.93904144882835,-14.785151791662686,-20.49602040451731,-93.3831241835035,109.01414106054678,11.761479092591587,-5.677620169970834,-124.01109780349364,78.7301639884744,-51.28944626232568,-101.81673597837525,-4.27047545952498,-11.784725145700179],[-84.59376622526844,-67.32318290238344,79.39041819786597,-18.113777700710365,17.735926004424293,-14.122066930685024,27.51069514154241,-7.214263669522948,-51.049452100665334,65.9254551221075,-11.162368958056302,52.13767196699568,16.463306999842885,-93.59031498246492,-85.99902196635418,10.139826846098845]],[[-2.7278473142837134,-38.68918455839959,-33.158267788099174,-32.10965375741728,-59.46789946091122,-43.59291409344421,-39.11718374904292,103.1267949369107,88.30456335038976,-10.61310727275577],[10.723143892726329,-61.53412808267906,49.29508404875836,-12.300956716491434,-47.58654588450089,42.765763407986405,-81.93264695148585,-51.64840870950972,-56.20966557215529,-64.77258858209109]]],"biases":[[17.62144659420614,26.22267216206272,22.119726451239092,17.054681010221916,23.728445796627557,2.60952286556406,-16.98019616055397,-3.4563390139201124,-11.950877781020342,0.014891152698487842,20.72902277837174,-17.880930660305445,12.883175794304508,4.190012564308807,23.798932080048655,19.855026990729588],[24.44468294014614,-1.9886978006024438,28.50740093799931,-2.264876271463535,-5.285126528500462,8.06960724249415,6.739033478605261,11.735454776735606,9.866928544642041,5.207583879448213],[2.8074052459995817,-6.763633717477176]],"_generation":576627,"_fitness":0}