{"layers":[12,16,10,2],"weights":[[[22.831125747244798,-25.634103924915134,32.90000041064729,-32.20437574707069,8.001576192153733,52.16742048488609,-60.68601543425747,-75.2979299459585,11.225501430061943,-25.000659236456745,12.621397236707445,-86.78955590650047],[34.817582013149796,-31.40424925380992,-26.25933227948811,-28.953944571953386,-19.109957720905612,-35.92330883747193,-29.191850930258173,-69.12642946439232,47.141130534574785,6.428137569723547,-18.911831528820457,-0.6099325997199573],[-36.09190102914936,-39.84078041239831,26.978647007080724,2.9150058235822582,-77.01238635862764,29.511848905432462,-19.12433707922816,-51.653418432437476,14.765636551029349,35.63246818912159,84.8734487305818,34.06437322914964],[-12.890763782779667,18.302127971147236,-14.819661027506537,54.37732398404009,140.1204512011247,-74.0298819587301,-13.012952518081196,-37.98441434387074,-15.300636036855668,-22.616785884161803,-3.3962859752709633,19.96263149660902],[-19.983099024281096,-29.286843932052577,-15.337508645466883,-7.268876541489765,43.61213298865222,-32.81455582208383,28.070606725478623,9.005060604537151,-18.526077779245743,33.36758833762009,-29.512840759269007,-5.901117490775308],[47.524957417618914,-25.218223475355202,-23.19870894190923,-90.21394068095152,-7.540449122355628,25.322241786167584,49.51829240722218,3.676703559220241,33.49314402364379,73.85945108821346,36.88691027926448,42.81126813965233],[-55.15394455209935,39.25708442969089,-51.64522928395453,22.717364208452214,-24.753631342839768,-1.381839257732589,-33.84477209943851,49.56227777689222,-3.7438677093725254,-11.645653516583478,26.653469996939847,67.56402983556822],[-2.4772780306987783,-37.515924758517706,-10.347279852308068,-57.362708498236046,15.56928732837314,-7.056602701142272,53.59947487786445,-51.08872406477403,-26.025317697873895,42.789392705745286,-20.231150774922433,45.06927688475352],[54.83844425359831,19.47197457279572,-13.534695470999864,47.818196329944975,18.45648029948439,16.669867150194637,-28.64150073233261,1.791439999579603,34.83911048741089,-22.707791830758598,15.745189756540988,0.42143376419440304],[91.13920430154428,109.58937245457369,-86.59906778849576,2.637307499458998,-47.69209724361302,-20.291122525942953,31.09568591394664,-25.105806247414886,7.65919906343636,-22.273327212542107,21.860748557677,-26.045198128813045],[-7.707318116278235,-22.11050986386559,73.30922682710275,39.40388324802385,-12.196459464784635,39.59308632863647,-14.667108904108053,19.740266712632334,-14.046461490835874,-25.50976107798014,14.315033338751775,-62.15622871424518],[34.40704288389082,-10.208113722363542,7.602325079891683,-24.988780429415804,147.79879554434604,24.34120548270827,25.693593705907382,36.81355744194677,-9.581305805199744,20.6109758448316,-44.19711642680093,31.021905214581846],[-24.89861955314881,-50.41889620537174,6.294749998145796,24.951154939476133,67.15892340589157,-7.171634984469835,8.615190072440347,-7.760900924991681,24.793162007727105,-24.153184386674532,-16.998981439927586,39.428971204377184],[3.3815925857367377,-11.893361752845884,-21.07415372458327,22.56195950089729,91.77311843558768,18.8336787585906,-49.0737029079508,-58.70364768291182,16.758959378141533,48.65287871856305,-12.666076860654767,49.654867130295926],[12.988471690974965,-27.531735505897274,-29.464313063263113,56.64712135877385,18.288103549193462,69.50481860888482,-30.746697602422845,-5.268111427418254,-114.72266912848846,40.509148858765116,65.20111132459648,28.126235488670495],[2.0610408893376357,34.90239102803111,-18.903777486412647,-118.13012982980858,-76.16410404072012,-22.708169756663175,-38.00230256808421,-42.04926771064769,-25.62641183392626,-18.751423339280983,16.702824647177504,82.78053605937032]],[[28.317273424117168,32.938156831266625,-3.036070040792675,-20.902867661629685,54.23132405937301,-14.396906478449498,-24.33679422854366,5.320550316546633,-19.73890862600893,-5.363693290042244,-53.34011623844769,26.163105064694196,12.981343077753243,31.275780483145144,-40.371248600438115,22.60644530002705],[-11.221165737433509,22.356565136415803,15.050080376016568,23.789850755997843,37.853487081733554,-4.18702621616684,28.717917107228047,4.104858174819531,96.70210839647865,11.663985023005838,11.574080871602664,35.40224016315311,-54.780348331634855,36.22455188216754,-22.48696785878536,18.17125037690012],[-34.33530412738645,23.542435809955357,44.281145087293545,-92.02151267731871,-58.29224042722942,6.008927240990808,-32.089352890353624,-71.66526604060817,4.29374130802115,102.8063921261114,-43.07599425889558,44.15312928085844,9.71078934833687,-60.349800955095866,-26.07116959601078,15.303874454528918],[23.527154146170624,-22.41170935608724,-3.3093418464950872,9.89892002224131,10.014700000983696,-46.994326306402385,-40.98717293395014,24.28257907517108,-27.326982612772078,48.8036105583466,-20.7828845845798,32.54673715541861,-5.733385985504761,-0.5835885145062203,8.821003305436436,35.10397460918958],[-34.54011742050448,-22.317972229199647,-10.656264231568358,25.534172541697032,20.394620712441096,38.89265352514692,-7.4349853605677545,55.00196541637248,-54.60456571271335,4.4748534566853895,7.915363927292521,65.87054824634042,-48.09232676531197,-3.0944108381019504,25.441502000396685,19.16952163966513],[-27.247706296568325,29.57650766770986,-11.527432077946635,58.09720496482193,8.33981464116217,36.35084693511426,-18.848274691558306,2.867271775495948,5.787610441796789,-56.571339894425165,-9.891574023477144,10.580437189943499,38.842876733431424,-13.533017482650502,14.19914208552571,5.203798097025512],[-24.129833329488047,3.217890138075373,11.664843706491233,-18.451692893733075,50.4447702055888,-40.31033541486927,71.74630275272625,5.323651796623838,69.1844430044142,71.45750819717092,-15.646659192248755,26.00086091687252,-24.58068540225058,-14.016182191099396,-41.839111044076056,-33.80009932811528],[-8.149141666020968,-14.496023795194649,28.245969395935738,-96.11451517856955,-35.81648152391925,14.813672511810923,-1.3291137279674536,10.080140979707236,38.134613302073426,15.110273283925855,-15.611524965278672,-11.990288235532937,-38.01100306175757,-4.756324846438097,50.594181512608806,-9.578666564205404],[-3.2426047977109445,13.513000859552362,-3.7165254871324307,-34.07460596319875,-3.2602985663501576,-52.64327436097794,-28.255324760000164,57.941657436046825,26.118654441183025,8.93977694868743,-72.48190723736558,46.94119447610599,-8.899457467575244,-7.672192805264954,12.568023454630895,5.267188064075192],[-20.88945451167592,-55.4609758008466,34.26414778901144,60.04652100166046,41.081644557008524,-63.63082195502316,6.024128547457059,-15.967110271277999,-27.701120785231037,92.83702345891841,19.408317917112083,28.559067267588414,-33.27787237952257,-43.229987421780386,-64.69197763149768,-4.433024542116852]],[[-7.836560109089162,-10.042629355898711,-18.0658009913638,-31.54872789693646,-21.75887300852347,-6.464189788922954,-16.986514456796307,71.75415267509295,70.50443576053594,-14.313489434502609],[65.97417462747852,-37.813136191094785,33.59283105975297,-8.907680418669694,-5.86671174239098,32.62235267458066,-60.81482253928489,-37.66598329269396,19.57303805700749,-77.42284287618212]]],"biases":[[10.819301801714591,21.78827565428208,5.878389323764995,24.435500743764123,8.646629183032621,-2.9350238472379138,-10.109994567613361,-7.589206151419271,-12.3739037280741,-7.967164996881053,11.238152568905274,-11.782848224003404,17.297672470498668,1.8048661936255455,19.40924651157842,18.136706130151627],[21.904158024456528,3.6807868802507344,17.15158362907625,-3.4733284239828133,-3.7411907933402304,1.5578648943437734,17.07780534231466,20.95247969077693,0.8647304785105722,-9.625270546909979],[-1.640579882493024,-9.575526485029481]],"_generation":341627,"_fitness":0}