{"layers":[12,16,10,2],"weights":[[[12.73548968399868,-24.484848610301263,60.50567381497662,-49.63647770818326,-21.260436501567707,52.58567638980093,-51.5518486222544,-63.47697187547899,0.4105830564876381,-35.567540818230384,-2.832847847885961,-63.347649168342016],[16.10179417773184,-50.94562256746745,-31.924571176623317,-22.1960049421125,-20.48541347723197,-38.30098640497807,-38.8182717017893,-81.16371450239365,39.402104099019994,11.20074334692669,-24.752696679814548,-4.227301639315174],[-19.851238170001327,-32.52943614240206,18.407506138240308,-8.368926931533863,-45.18692162165156,49.1691770670694,-22.629584091135165,-20.247321945616328,25.059724386837598,46.21426896492442,86.88542840433995,18.83941281830186],[-15.559008546921259,21.824921692622436,-22.233275888343517,66.26554578988329,130.9335106519874,-83.4835605226115,-20.6470085281536,-25.471142099685427,-5.437795216231134,-16.227234028460423,12.811224898578903,30.313406531773985],[-8.728451479680043,-19.40655638639453,-18.155525304206524,-4.544130400172758,44.35924387043629,-0.9550490946394695,28.050768129632303,-8.98686585669523,-6.334052724099505,29.270514360356227,-22.943135315577525,-18.908084288322694],[19.358198445384076,-9.14546392561514,-33.933331062283564,-97.4492798651229,16.495649173220187,2.6471390483086705,40.72598352352687,6.666681403646619,57.00448617457096,89.72781335618025,48.25469328751506,41.05289336117959],[-56.24011832055894,38.52243375725957,-35.768726587315534,-0.866454001929718,-23.135376451174743,-2.151140225072851,-32.46754063181887,41.853837034636676,-24.204841749510813,-16.693374405580016,26.30907598554017,40.53194277551659],[-4.110658066367353,-58.20288252099681,-19.824864505988074,-37.23034322297453,30.326279736574907,11.369116466099646,51.50005213439546,-39.37752258812591,-36.32864234636803,32.750409988013516,-12.092275273321933,44.59536183379202],[52.16405137605461,5.5129627452858045,-12.551521638061752,39.83615696876635,-3.887810483271311,28.075041443867907,13.433143738191797,-6.048162992903084,41.49322375686733,-20.390212346866708,7.053726145991766,13.178093927179942],[84.68728345145045,104.71399271805738,-103.29463942951152,-26.48348921543811,-37.0933731413556,-13.240505652785748,16.630829447525777,-7.758400882740685,10.120094826157308,-15.765724532180355,9.464911950968832,-47.47709471411067],[-22.133584770844255,3.027483071983888,76.65096104602291,71.52878128439963,6.940314163673326,49.52488486159233,-5.459797303127796,19.311592364173983,-24.052069924654045,-42.06421999352629,40.83964811739882,-64.30328504623826],[41.886143073841836,-14.449772245317636,0.9294530125247158,-29.701502293266504,135.27337328740677,41.38578022662462,39.01584432502997,19.71663451928821,-4.4271178717930075,26.937953914076278,-51.040226416089304,45.351361201430024],[-39.70140970108112,-41.810224815716246,-15.491528512999299,4.587625276452861,57.82276078685723,5.735358685607248,9.503797850690082,16.183392593126175,24.803674362814405,-56.90190018415895,-8.032015163269383,42.432174760870886],[36.81835117510103,-47.912065084678744,-26.16954774669965,19.149294694086105,100.1485971625892,33.274987122795146,-43.56667681234872,-84.80593059648922,23.17628877936818,50.82679380033542,-11.970438040101516,52.151148917961926],[19.579326756521866,-20.458915221340995,-36.26960008424874,65.98163235704656,25.471983097642664,72.20697554151268,-29.499098571793247,-0.43852447888647306,-105.16133681607226,56.70390706538464,82.23423128637972,33.36351191657497],[7.3886787313083815,34.038066463074905,-47.32075905799933,-132.81187802711887,-74.28508925516303,-4.542731771200344,-32.31653330247301,-44.36367747810993,-58.14092697710468,-26.039608999578366,27.407337490228464,93.37481116768996]],[[10.283764793444611,35.95418626911672,6.2851352175517645,-33.20998078608514,62.61273595495307,-15.488824255420802,-27.377038592718264,23.257992540046246,-35.50678173053673,-35.464503097616365,-70.73575647455836,54.66597766051179,5.31668348789745,43.42453678992233,-26.342653600646663,40.25733797639191],[31.716419304695904,-8.939224070701837,14.179861389202301,42.49393196494419,24.71784813113869,-17.052209915885623,24.90845492984307,10.466080401937804,98.89437543244884,49.6336085035309,-5.786644748766104,17.98259310210509,-52.59865148615128,60.695623199961545,-19.93921377634687,2.3096363745346453],[-31.253818999155627,3.683276635058742,52.10072364301486,-75.80795766364417,-51.090520755562665,10.058141018401301,-50.646000966302466,-47.15173746337474,-9.375023059390019,101.41843220239132,-39.690059052493716,53.83940253149854,-19.231777787748406,-49.152219615123975,-20.325132588073604,13.422242061654641],[21.241631866800752,-31.119502673716312,-24.810847901959797,12.883260702121788,47.746575034866495,-32.829219001585,-66.78056212546143,35.136382815958605,-55.74709205993293,80.19995915085238,-27.092584929681927,20.962709767060197,14.366670847074918,8.40427522333755,3.72650554363976,43.1046938997748],[-16.99854484476161,-26.94903745701262,-23.278255793661266,15.821372752981796,2.059460602017216,56.33049076953932,-27.001750948332585,67.13335879285695,-62.984321871562486,4.2830991557574825,14.239619143974293,52.06643349414608,-37.451162789882396,16.060192544184222,23.005869096218625,21.585004875133667],[-27.967658817221654,19.548557085674837,-38.82595458826754,57.019094498256074,7.517349493597671,34.60834946319327,-31.817291975365702,-11.76098007541495,-14.044291247263335,-50.44907117426073,-14.686537347312886,19.010147145046567,30.674775187873657,-10.615066726428402,43.08514638761598,14.737313137783687],[-28.203595910448016,-16.695927089524808,54.68893637702775,-8.093261478921935,70.0805900320461,-44.31862010420893,50.33435689614778,-6.662596115030619,64.90314355940987,72.5173286686004,-24.17010818381748,14.394975094415333,-44.46041275770752,-25.30593079627583,-13.493883965253328,-38.91413173938082],[-32.86631157514329,-35.032428525141945,27.435685489827442,-91.91206305829115,-29.743965002516326,32.64003533769168,-4.538345364732506,15.048558804831833,42.15007599762152,27.8398005273567,-23.36425657932352,-25.801198395348596,-48.427800918825035,4.128250028542553,67.17410640452458,-1.9215723430500795],[-3.54467414886406,38.19777919171659,7.383487094276511,-30.961131732252685,-12.462727979673703,-63.7581178340729,-25.333045420720673,79.4618297640331,6.0458947677565495,8.922450890392124,-73.35066598876944,45.25336969620787,-23.534621251601912,-24.352331307084533,-15.955065038684975,-9.255987517660428],[-31.24140952901857,-67.03218505029076,35.64754111718428,27.55683680530373,44.05959570877056,-56.11056612892306,27.380395581747887,-39.03667916179058,-2.638295781092564,90.80443539730608,24.016442135489154,27.172350696603807,-7.59560145844835,-34.364094801937775,-58.88892570504801,15.941023974220414]],[[26.392500422443206,0.1871418675770331,-20.110555313271323,-28.46590918977187,-49.426157162261454,-11.395323559407604,-34.7897922623167,71.25872242036803,105.2556654200836,-45.06612441542582],[38.03150246267072,-54.18019725341519,29.20539431783664,-3.73295556399017,-7.883769608441597,22.850427115599498,-56.92047363250181,-48.60681529709893,21.606182139124368,-70.16951755525521]]],"biases":[[14.612284485130035,21.160856307924334,17.535834312613844,27.538036816529523,5.618212334510073,-1.650446306644388,-8.977217704295514,-11.82844770950027,-10.044879133444425,-6.824013882513665,16.287137872275032,-9.884501412857004,15.487496834210265,1.7572361115670827,20.5776567570632,14.102230657378726],[20.679255717788752,-1.854907716386249,23.01294435444182,-2.8099692491928194,-7.719832097067984,5.609435722180268,15.46795059716394,19.421389562027343,3.866847519750145,-7.739599884439519],[-9.005462152621249,-9.299250617597286]],"_generation":391627,"_fitness":0}