{"layers":[12,16,10,2],"weights":[[[-24.442053048684464,9.323142200823023,31.54448640967836,-34.63607201733447,16.857932708010292,36.97124152996866,-5.446706717641976,-9.341296662689842,1.4131292772867976,-11.220786965564283,7.215967653345796,-29.62152672859709],[-30.58988628309578,-24.77205772350079,-9.579325322901857,-39.37226748512207,-3.912260182773057,-65.25095895004635,-20.98454472004817,-67.43926347239818,-22.99338310411355,-0.21348901403354043,3.3391681810257854,-31.497371331690797],[24.8059186498405,-18.400027995977016,12.993361608862491,2.8299214084163578,-70.7422434535179,21.104167042238366,-15.57160397128923,-7.086416321274091,1.8012177110052594,5.067699474595758,50.60593112086601,30.109268688843436],[31.09841479707968,-17.27760677722139,-11.924789026800998,17.637683441944674,74.60215556888353,-39.13752760060952,2.7916656382762084,0.23467074565944693,-7.601539836136349,-16.976250485172823,-9.360403134941304,27.911309559752105],[-11.09645971449397,11.127317602069411,-15.106045229231878,-6.056834254846156,-30.163354231781508,-15.571272195009968,4.5449660025937595,-12.407935533505409,-38.14995401070388,18.66924678180482,-6.271026710816852,0.9357303810616514],[6.42369165103028,-4.556985411539521,9.410262678878889,-13.126277337555287,-11.061246728904464,-1.7952187386898377,30.105976357206895,7.4320789966709295,-23.751829677885222,17.17082582821909,-6.011796110460434,39.402016145469595],[-24.733462495399685,14.99135826446312,-14.352164038324133,4.104257508560457,-1.5568561418344007,-10.07891256528128,-0.4613078390625231,15.855083553655149,-38.89499093219816,-9.340177487816376,5.70799919295262,-5.1960054111034895],[-17.631924931944017,-32.347397628719754,11.834675103250328,-27.29752879522884,-7.072094926177702,-9.085229525775077,-3.866656813961509,-46.79228550373792,-14.934724125445374,19.04015275700046,-15.920394747889462,-22.575030924671577],[31.71565289121979,31.757084083694384,8.307299925457436,49.97520403028469,-5.1425935550231054,6.1102782320280395,-1.6043080667986545,-38.66809589153728,-0.03919100886914565,-9.97430332378449,-5.597748003767984,-3.413295222607867],[28.261077464805634,46.228674582375426,-48.663575049718176,-19.58657325082059,-0.19854052747456416,-15.411908491200238,3.514995087421671,-0.9151452917779199,49.608962400238624,-11.247061306743545,9.164653351077945,-44.676233700504156],[-5.874241209041559,-10.213987189408478,8.636221642523525,-10.590355004069764,-7.908719667590368,51.38740566368589,-6.3241640049429675,21.82807940671902,3.1802980578184425,-19.275509115668978,34.42733817144665,-14.857378305516033],[-12.234635357701364,21.200111230031357,14.407358259759944,15.24069835193824,58.73902105687707,21.511994422855523,-1.8323411259186404,-0.9215387469900915,-18.341578600569846,12.483552092771545,-46.919860449849324,-8.068211600627563],[-24.530660576993835,-16.748491299555806,13.855723209538981,12.549834795087904,53.25777355816702,-14.142338495631774,5.998073158352492,-9.299164872246921,-2.177801062350926,12.894598781579615,-1.542374414339222,36.84842541917151],[-12.417874462324614,4.3409391541556115,20.421707640091004,-10.709735316695598,33.6033727046739,19.406950906180086,-13.951252904514929,-26.501659381681307,13.543046937500607,3.623515212201779,-27.157693831078465,53.45618824382802],[9.277776475247025,-16.88445096765217,-28.02512665405151,42.18304630856878,7.055822527323937,8.827814879307724,-4.3032845681307705,11.698444988102468,-48.09085655865493,31.255735252968087,12.752948016176166,30.401663273387936],[24.207652453042215,37.039747112336016,-8.011072770430948,-46.00188548131635,-16.955374268112564,-17.643142035253927,14.308308467659476,-5.233849581580494,-11.493371750673404,20.805267702012344,2.4184821561616934,28.26520944940712]],[[14.014197883762886,0.5122262120466922,-21.217189944423477,10.06975411139375,22.06034010454956,-7.650357879419125,5.867762104348939,14.250657539986356,-3.1449213262936846,-13.185827696685042,-31.87814984732875,22.27320165503453,-1.126073015849152,20.126107319737645,10.978432884019128,29.396248405210383],[-3.108800395127215,-11.670669405433957,18.28857841620666,41.16208390548396,-41.76980465608284,-12.430853593779343,7.357757888108363,-16.354258146543437,37.564952065063494,41.515490292540704,-10.840839279404669,1.7305128365672775,-25.102543280376583,21.505866473495853,4.284278529694204,31.285530433058774],[15.487843793317747,1.3738565221015366,3.492558828302292,-23.87475790334016,-5.612547460062867,0.4851369142667773,7.938393422318321,-17.156103615317036,-0.28820476682847984,28.342756734821965,-2.524233932905588,34.4161016185979,3.7229473181206614,-45.052838289403894,13.405084199541218,-13.972642787446507],[40.39492370060023,14.045810326184217,17.4366621706097,-3.614997718650733,35.422890268010505,-10.505117519826383,-50.457402930445994,16.92344919668286,0.9811457712948871,42.33759836543679,-33.993691099247364,18.596591115221194,14.046058772639526,-5.607019751374374,11.475727408582994,23.69362728697388],[-19.1173382506399,-10.006256149162922,-3.6709873357572875,20.033498747449485,10.95841594806404,-16.12434437992028,-36.47621600915384,14.131178278045459,-22.773308677810512,-17.484052543608225,-30.3918414155943,8.325117436502225,-23.79521314966965,11.859381358397968,0.7821754521935539,-18.378619371219834],[1.1512926976161906,45.995773251080465,-31.888885785301188,28.336791978861303,4.199408854002038,3.8224983070998966,-24.112006474484847,-31.716453684023143,-9.02864398107427,-32.18389372190029,36.445647528545855,-13.496555754655603,46.99478506033857,-21.131302009110716,-13.186041614195318,-13.951044258108402],[20.66781449225393,2.5566113749108643,11.583112549935164,3.2580442908507363,15.451286700643502,-13.53888574194735,33.69967575257995,8.647064296452884,35.32980537727477,17.85567243320538,-14.593218276274365,29.42473135437324,-11.4589909754367,-4.379125236219862,-51.90925880244065,-27.77308973859798],[-20.189899611356054,-40.0913258949114,26.325572220014223,-42.29081550509119,7.3862435426231166,9.882529012153505,-22.739619068123382,-1.0899386272193285,-7.247285155826949,-12.544522158648938,7.330287219479709,-32.800580456491886,-27.71971259787667,-0.7284896117227262,18.43138174244961,-6.91778336387688],[-28.041805643825796,-2.6384322654674666,-17.941746390725644,-12.177812695073293,-9.918768501919908,-5.168104364868101,-3.484497683989903,26.496023211258617,18.251977961947446,36.551739608225944,-3.844184934779142,14.018815808273741,-3.295347216316188,-7.216527153824955,-27.19796575404984,-27.545944287386362],[-13.791137402769383,-22.23557360742385,7.675397350501925,3.7171892975501524,33.873641719262345,-27.312599697290803,-8.925567484115428,4.834586795339306,-18.322771325039746,8.258950889448732,7.090112095880829,16.19876874803659,2.148317642525785,11.551032790028314,-19.31584521750812,-6.086270107516698]],[[0.5654077070136483,0.6722726348920612,-16.89296305789843,-3.441534119448781,-2.057809344921014,-13.680086110367533,-10.346515097718365,46.908471518423944,28.592947970748614,27.5199303521982],[27.82429984363187,-26.19937454247694,23.815943202981813,-16.320137055193122,-42.654853437132545,12.446379653796818,0.5935651166037618,-30.47599157326423,30.894356901826065,-24.848185638205344]]],"biases":[[2.7803695430533795,8.8235444293316,2.1826845729089177,6.015092155827544,14.305189185818191,-3.639383951117713,-4.536801365767757,6.750771346720706,-7.930593830563792,1.0410821050561088,1.835000992395704,-5.764533352263925,2.2547438207124753,3.1030456979801935,0.570228283474347,4.553040116549512],[10.298888423315201,2.779845160218403,11.386066273015704,3.9345005291134627,2.844492799328426,-1.8979739738861245,8.876042857493411,1.4995690307962686,7.0036509016737645,1.7770225514223923],[2.7504905975198546,1.0004279842496668]],"_generation":121627,"_fitness":0}