{"layers":[12,16,10,2],"weights":[[[26.520018506419085,7.1470052238150314,88.46020672916235,6.307080786728691,42.39634961314119,59.06450640083656,-76.7024179781551,-64.62628179008428,-35.18667625011395,-11.610245799591558,-1.4204155751211953,-45.46059149460139],[-47.61449695812897,-40.34106711569997,-50.31370704889991,24.941682813318312,-29.2074145950779,-37.15568109049108,-58.44873538514537,-84.81691125030451,34.591441872062134,-24.70076183194358,-80.18499962258481,-53.594025563805644],[-13.38967741054897,-29.276671561077773,27.71538824616994,-32.08623291340502,-55.043879461975465,76.26608951728299,-24.524659514163133,-21.91367695490826,28.10541530669504,-0.22459906716652134,88.70313407125799,49.45983931919802],[-42.726925583662364,4.104815813888915,-29.429317281544826,54.500721502413306,177.88919042762612,-116.83567510924203,38.64304839657298,29.0921881813105,-34.647199905060255,-13.26190074633324,-8.12061351179373,34.51026761444682],[32.77145815901618,-32.57383947511507,-3.4278561132313796,15.75874193686362,61.877894875744005,-13.349381552389957,34.38247685664445,-38.58613122384667,3.82219864325097,21.186034575948028,-16.495652556565283,14.855153156285509],[46.83093779333741,0.9218577628100898,-48.96003332722877,-80.49585320038614,24.45217164573597,-24.889034235096368,0.5455648171451439,-8.610143641671625,86.53372460630663,57.46377121544949,-0.24120801363804667,7.330933868288427],[-50.0812190853933,6.36657077157046,-17.82279299164231,55.485154157998515,-80.05414367869524,-20.71754037149012,-58.05104528156758,3.3229747575348547,-46.85094470483236,12.912646684912774,0.03290007877686413,60.673581850096475],[1.4052446275173676,-21.361692261840464,-7.391514054590258,-35.73667640628671,32.239235445845246,-15.73046342751715,18.41979449457228,-22.020152125370256,-39.50754482365255,67.534991591093,-33.175504882180256,110.17608984139741],[12.680551671079458,2.8960061187532267,-7.748618845355155,45.84874214630773,-31.54154986253801,70.38290764751865,31.342018238154807,29.741603299384664,1.1050397092703792,-3.806279333221956,-10.20633260840168,9.589780993844442],[71.44396997615678,96.73868882025765,-89.4464956784569,-14.168304728204692,-53.299267184860085,-4.494017642481194,35.750953156439344,9.551489596899723,8.903631244233361,50.25446372695322,-8.640825519001508,-60.36075098147362],[-36.9129854894597,56.40899230130684,50.87204088203307,32.409081403375914,10.828950911500366,58.70359605394104,0.14973727590402464,14.662000078323427,2.8972293004325484,-21.403551014034708,44.054920534502415,-46.824781333793695],[57.205318880148646,-29.506382799159926,24.483785348502405,-45.80456221756166,115.0917433263437,61.53299172022817,1.568267622327247,-9.602038227567801,-3.7934135477584117,-11.038759879872746,-8.811383358550511,59.98328566400673],[-81.16991724619592,-27.471783519040603,-7.221111111298758,-25.553576303316238,45.06213622414313,11.541121501622191,24.60800651846158,16.372996592787583,-8.536273228048204,-88.6693065820761,-13.44572412816321,17.698365885472427],[22.386596045380017,-91.00648366169148,-7.777960615971844,14.381227823087482,65.8552432022783,-17.157096692924025,-53.098121808568195,-104.7017412137683,41.1781651199323,24.108371173618526,0.9249393605744816,55.517793575746126],[-6.599230512405997,-29.20261628635656,-52.0951271536805,128.2929482135956,53.82548494226396,45.413699518692376,1.5165648081901533,24.44430205658133,-91.03645238998214,68.99632133162969,65.45145326830644,52.77751506684739],[19.826187128619726,61.188272558796264,-56.803482153299704,-130.44894032202225,-38.57975137389134,-9.136080858606807,-16.16487850832037,-60.04186470488057,-79.50487134359933,-20.464451062187752,24.036999252540333,84.36912497580255]],[[-9.032133273338797,54.19396946321414,-31.84818940331234,-50.64664988548043,85.29100673624087,-12.394055330969675,-30.80301953208825,-35.67217226085732,-50.148454340156654,-59.94663771055851,-72.21436971666817,22.11055393178779,3.117717216898607,68.9955994966449,-62.01238524880226,62.62165861601965],[13.524922587415128,-48.757541767970125,9.787260559566086,49.663426372391214,-4.393217103270825,-30.975023176930947,12.66577852247792,-9.658890241988445,83.93770390725157,50.9474879276559,-28.700927707080414,-5.958313676751741,-83.946085942451,17.292403796747166,-21.02983362611923,-9.051389705978083],[-68.26561835857396,-33.73315207134798,5.580343796064704,-47.54354667939658,-83.88937677307581,62.64947931172115,-41.13889376059372,-8.795628673018232,48.87260538147733,92.26905596135278,-15.233425418580985,15.521577336806423,-1.0372612486051982,-1.5657444812142665,-24.631974944847588,52.231741375134334],[72.51382846638614,-24.8146331816911,-4.361881934191864,-5.061793171644401,59.07073984002635,-52.56493396239142,-42.43000884252605,30.493622242564523,-19.63305283943677,72.12504116260854,26.26404551696588,32.49498983535683,21.01418506373568,27.036026833374407,-40.244116383405334,22.087213887866262],[3.759593691020543,-6.4343295116645765,-93.75683498558035,18.722932427438025,-10.71855654989852,14.247512762919989,-26.86705817705717,54.659070491895555,-36.30204306151242,44.090647032390265,27.234994790598506,35.94115865181666,-53.599935019130704,7.49851511254432,12.548431335260883,61.52470948502625],[-90.17827218102623,13.364886149308605,-8.31754099384333,62.458041378077446,74.2138839818963,45.42854468217248,-19.927676829296722,-40.72294798684281,-21.45072179126548,-76.49572988939535,-53.0231028394759,16.185968170729932,2.539039419596626,-44.54173039174233,38.89673909510929,11.809535356221584],[-50.66427402827651,18.944016682365444,17.41726530623949,10.996771571680748,85.05547365066327,-41.17957040020786,35.69960441232137,1.2400654571073861,4.506651325178139,59.31741932666956,-24.358922205261795,-39.75918054198627,-89.7717409768737,-30.01995443506776,29.719323009208757,-45.45281150833164],[-53.872489715463246,-18.895249524575252,39.04134300813627,-78.69190486749427,-25.75368099927642,-16.42721326291971,59.93397471747667,-18.08108154417586,48.63607138824217,48.71979611319284,-43.59853489297809,-24.376320116561615,-59.135598432539965,-6.932223728427596,73.12380796297104,-3.9621134465502315],[61.64262839115946,39.888249585555585,-13.662716525268928,-67.55825626957635,-31.89371766331898,-24.965579108539274,-89.90173085910385,92.11219169457097,9.97590169484626,-5.553685052550715,-104.11308524804029,69.05680327623627,-36.24311784492323,-78.94963106244283,-2.373061937368127,-28.64541303363451],[-79.35061075324616,-74.13779756144741,68.70260184785272,-15.821943325920586,28.74710073697552,-19.94132755949806,23.087239529189233,4.96373437554616,-17.60360494374553,68.29732783821316,-1.6592078708317652,52.069663074164325,8.402543126871452,-77.93360816259263,-79.4541067862394,10.7190990712304]],[[4.934647017668992,-31.66445194957722,-44.28111250513961,-34.14165919517763,-46.314244099594454,-29.028632244918647,-38.26245776586706,101.58295888326647,85.61991112973273,-11.071913493472888],[11.764420733042176,-43.66715751031576,44.861553341912106,-7.368893538262759,-31.23594199868832,45.0845720870966,-70.11598163468402,-66.37556505361795,-48.11958536334074,-84.96869669100776]]],"biases":[[20.954835742992266,20.80432519450306,22.701983705291344,20.935854282924495,12.585180800153777,4.399502650748961,-21.424925198284797,-8.150137909133068,-12.147591486296298,-1.7136493208752557,23.011057548143743,-17.545371164116123,22.661762908383825,7.8114851182522305,25.189232713546325,19.13784278261331],[16.125805019258483,0.060534176943487866,23.316284619525433,-2.8162832626964205,-7.571927938954693,10.710926373617957,9.089903904810228,17.440300758713555,8.91856107568775,8.154299020980599],[0.31857166093098827,-4.285943019287351]],"_generation":541627,"_fitness":0}