{"layers":[12,16,10,2],"weights":[[[43.43838761362374,-5.186622593692598,67.12780469292535,-15.29726750437502,38.78086055938003,87.42668244984512,-106.70388377650345,-40.358075412442815,-50.86307483741505,-8.963471875623632,-6.198795446441101,-74.92591099274405],[-56.950580894030274,-80.51211230371827,-72.84968374931638,8.282579448058454,-44.10942810638397,-19.801299939473772,-36.35280217988718,-99.63548247197336,68.72025586539641,-52.958347978902964,-64.5224139023587,-75.4356004670382],[-4.923613747166605,-28.61819927420291,22.953843073609303,-40.27949434196913,-62.937593459539414,85.72629071156456,-41.16659812227787,0.3551199801424956,28.935017997200863,2.1816946300915174,78.89420840121916,80.55751565242727],[-57.07500342881117,-5.145875304412598,-42.07692106500491,59.89009308086091,159.33213472655314,-91.86773340943722,-0.6815116790162559,50.05708071700444,-47.61728550874931,-20.43936015862338,8.763897100618568,29.40776162182069],[42.37429301613607,-24.758447554493557,12.421519561870502,8.306405653041137,69.47169392609247,-9.484082712609695,60.75770721131084,-26.468150128546206,15.922650062484713,34.9576508830512,-12.123236384784171,29.282785841793096],[50.22091411795385,-16.92252310195887,-63.10313969657004,-74.00244096843532,37.31710330420778,-25.645700743857144,-10.953326563522364,-26.76830132847079,107.99676336381633,51.58911019890499,-45.23190713463521,12.563241668619263],[-27.594057247210305,30.734995095365974,22.582157078443284,20.4218749634019,-85.90418279261034,-51.41679724488596,-73.47259057667394,-12.02222801739425,-52.74141810757607,39.16671656644242,20.34296556160673,56.89619003093421],[18.881314063072637,-29.510036952004683,10.883195444961771,-26.53005730571331,28.045670822327928,-17.17884426427524,6.984327887391651,-19.033405996619383,-38.95501436027037,85.70899109425484,-9.58666124595454,130.44826431836393],[-15.185900068013447,-8.633851274646887,-22.77782067187255,36.34735245675537,-6.976347441741936,72.8059959009676,19.423513314775672,44.41699841013357,-12.93050151495914,-2.60670805700191,7.437567570823146,2.505997595465532],[61.16511065105873,111.16258840675688,-85.87832324312525,-11.125858599046106,-54.867790691851,16.423599384519157,17.84684479402368,10.378318912711237,8.9526498775822,59.90924490099067,-13.354366951942026,-71.19740329597289],[-21.10003795055759,71.65722915353079,51.521731037409644,2.6771176500465073,21.89648737937061,68.81317869168127,2.7085764932651375,40.43690880554051,27.72497499965117,-34.72720103553499,28.570399511015392,-46.61453440490136],[36.008665996758545,-64.70199630187994,38.147954852970045,-46.409116752046565,90.38257343122892,59.068057643134445,-23.827574225181166,13.974838188922504,25.891044106591337,12.156774656174333,-5.664892793033848,74.48952075658896],[-85.8013645895832,-37.077958246972614,5.894744233031893,-45.32510439739351,39.568606986375144,19.655380463934467,25.825118842047214,6.3169629201442135,-18.581468290343206,-107.72464772362883,8.255667387668108,3.076080631719674],[49.807215898251926,-84.79618516992524,-2.0045261533322196,43.854000591706686,51.1789557912537,-14.129735848427597,-46.4096379047418,-111.73441540353562,50.162405276193525,30.812292095919847,15.905172089985347,63.98503336049644],[-11.981937340406283,-17.557998988305492,-40.38245004368105,126.86124627260568,68.1232320271124,53.54685984865537,-19.33260326422239,36.02957728942919,-87.68610599681405,87.48180925408298,83.35343767724206,-1.5801411181741019],[11.668410685646984,71.50348408314372,-43.150333192161405,-147.72262682244977,-30.245675855216902,-2.3865910581198895,-18.849268917381977,-55.869838609623685,-97.57495762555303,-40.61237557520234,20.009644702977187,83.27538387222465]],[[-5.956424243711402,59.37522512433456,-25.270888670958637,-36.63759182124078,91.18695231922625,-11.63900084278902,1.5325727902308017,-32.33745578169326,-27.305664320145862,-74.19717611206025,-68.19575219010044,32.97559968213415,5.879513024819965,48.618495423986346,-76.76556045013112,60.14522602270633],[5.221518797372931,-56.58331233047046,10.612779703253732,28.073341438943824,-16.00195596128506,-17.537071017849854,9.943036402782978,-17.46110259563666,89.79143609837352,78.67345550710138,-24.354538545728406,-24.694593552833336,-115.248968446426,17.18739166467679,-17.434391694036886,-8.124559197910191],[-67.91537611459144,-31.323246387807938,0.9806644738046084,-60.81326589073832,-60.88032857770075,67.23644524037486,-64.30198887431932,3.102311706817358,66.59526900195425,107.94784371281924,-27.31261589107971,-2.13095603426349,-26.7143711498551,0.2305434976695483,-26.44778386075463,32.152215552203565],[74.17296181397934,14.025666363319383,-0.5361667846470208,1.1717315293312152,54.41687675847031,-40.140720701049545,-48.85777294714504,31.60066546093043,-31.083860453431818,42.74270442824922,20.840131572767433,33.59666072733325,50.909350249768764,19.233426565206006,-47.3351561499114,2.372655336423269],[-14.9518611324888,-9.611463117478758,-79.48587706080916,13.30974929692651,-2.2305022683852016,12.436709794113655,-38.20705843899653,50.380982967544746,-35.028928820924,55.75112283212556,23.100089209087937,36.15504414120152,-69.13453002946173,17.83086785752747,-2.8530765122070254,36.250959531873775],[-90.51758658964627,11.561028756666813,-31.107585420729414,64.08599031768082,91.90419970638115,32.135254413782995,-12.362301793568687,-11.785706593134359,-42.39251253040011,-76.33735824664618,-44.86679604584323,2.8985591997861455,-6.617845399406995,-54.11924700371532,23.04577165474137,-0.5341615574432266],[-86.487111310571,26.872365692361832,5.444438693157382,28.835380808571422,106.82478013104542,-54.90776355373861,25.993868983655844,-3.642777181409468,-13.839392578071307,42.52678788563437,3.124450725336477,-45.92284276604428,-101.97191749992076,-52.60671962492534,-2.2905573237920964,-33.55755327073018],[-75.3679095808478,-11.07657713169483,52.08842352266519,-94.67976180381989,-16.589767448303164,-7.222740341764282,82.65566985932072,-22.621395129527905,74.38249044398702,44.144904008553574,-46.41914302339217,-32.845345284179444,-44.28976716380475,-9.738563025323389,62.53701753449617,32.33468086433062],[77.91177833556242,17.642616661080716,2.878442833526479,-80.26659348191058,2.3325467481115476,-10.607065685664042,-90.75896399136455,119.81150839800206,5.075595805020624,-22.067210921224532,-127.94554952567151,81.56332983775197,-52.025215862482916,-87.8445710299052,-13.249791308168032,-21.159970639098184],[-82.02764983214917,-58.95056430262908,76.40364662666242,0.9464234679574629,24.2535523644706,-11.103033048420375,21.8217444612123,-9.305603334125216,-58.72000357528584,58.63093367480046,-14.657527708865072,46.97550416881479,18.61900569800874,-91.62233839496449,-92.07518581045548,6.063341559118379]],[[5.10905754189587,-40.6516798841124,-20.94300504592883,-42.44975805336916,-47.76646123989996,-38.12504210714397,-30.819454399282044,99.78501937813243,77.42692415607553,-5.647508501212449],[26.064576239949943,-53.76231084268897,55.73675331730445,-16.729951400381182,-51.26725202520459,46.77019683962929,-73.55429860265026,-48.57487694628445,-64.61069918433847,-59.059456906815115]]],"biases":[[16.20104515262281,29.97179347529015,21.574719049584992,18.67611626277016,25.123250488023974,5.558588021997439,-13.768324900568265,-2.3677631236625394,-5.692401231883356,3.6149310317109995,22.02858870834077,-18.693610065837813,11.272184280614184,3.0516035870477083,23.383121532626483,19.948963349969027],[19.36011084001164,-3.44941336214594,35.25751847575248,-2.586099678618605,-6.357313330663059,9.087776365964013,10.797197168358318,10.939188606876675,10.106257615767,6.751054441115803],[6.497902520123025,-5.337302377525935]],"_generation":596627,"_fitness":0}