{"layers":[12,16,10,2],"weights":[[[70.31521820727548,-3.7182441360806124,33.829765770519096,-47.068746136043494,29.077024344824313,102.46042412932333,-174.89308916706412,-70.92144789392727,-83.46055712010478,-37.73646740004819,69.44146124370718,-91.68012844033301],[-79.25294547131128,-25.70939157801725,-85.98506657009595,-6.339286678077532,11.202081003573413,-72.8217224379436,-3.429306169683082,-54.38775099421998,66.97018260463247,-38.25078346562567,-75.64096352438015,-106.7440196628797],[-25.8126606902933,49.44360803504047,27.234005179973025,-62.7704831074394,-97.94682478507387,128.87729819184315,-22.431883311789452,-62.90166717558302,8.233393450750324,32.30640275151214,129.26427546191027,123.35621258275866],[-55.302938369909,-31.597027563548238,-16.29662082890573,47.77166229482804,176.65052972941498,-81.84618072717535,-17.16942434775707,4.641386218203296,8.78092941334792,-43.245655061030476,-1.379533273427361,50.583453462149826],[7.880517567737998,4.5289284757556025,-7.236665427253055,-11.432801053079926,135.2864549830901,-18.330772268746017,71.15977525359467,-41.79279858199106,73.41302525878918,66.9461463262044,-41.830884830171236,56.5871055788732],[47.474543379151335,10.841838957706482,-119.38922711139296,-24.63238566001171,95.86616145130449,-39.95293491042802,-31.124998217794353,29.638225018360373,154.65268149882957,-0.9123716841689149,-38.11631961424494,-46.75620177295618],[-38.3385656302742,45.520592268897076,79.31738179499214,-60.261523117070254,-96.3884271195768,-56.887279066267695,-33.60040676291737,17.50415452574941,-101.8982769114631,48.873532980938684,-58.25236381056382,48.09448955045225],[5.359300273043089,-30.7436335633248,40.95342457731494,6.787968290233226,84.93169797960407,-6.389772307641084,-43.75392615416034,52.73653414251694,-50.341436268978974,102.1717199812173,-83.18475983228191,98.40028027583996],[8.183229873936268,-40.36008193134538,-54.228395352450185,87.1764359451686,-40.29533313793648,48.27431869527577,-19.242964169547307,109.46497455359055,-1.361797332255943,27.444415177275165,-32.5395438658368,38.473283679405064],[45.772121458696596,82.65956740340954,-95.26975660751214,-61.59045106124173,-57.4235636474851,35.435114356591164,9.391609183351957,0.1711848102996322,-4.288355180780479,22.631241023694596,31.762226416739814,-90.47632563735252],[-30.311120775851766,43.211964887614435,49.018384414573134,30.685878891960204,49.172606464654216,19.02517628631735,50.01894732498597,27.698010463302275,-25.63871273037695,-14.567447129824071,23.770169582697307,-40.2387214632372],[45.27099677449405,-107.23184275078874,43.35008039677713,-19.382750062489297,41.38987219872917,71.12493481562333,-112.62975548501275,25.61305377943979,47.12297065459628,-73.17117186514635,6.796718618730247,44.74597905305125],[-82.05480372972127,-51.17091154280357,14.979606402790036,-44.05654598212362,4.173860610271178,44.374230867122904,38.01645669147288,42.830118800082516,55.91487191202048,-124.29921830127545,27.373126925601348,21.357646501181637],[8.009362918535281,-92.17381205822153,36.91482329758821,70.71786771189439,47.21016691035938,-46.16997515310093,-69.39168813454197,-59.2948838692923,28.161185625197852,27.417243290758936,19.711009471662354,120.8098720786137],[-31.971515012661893,-112.12737131290282,13.968737938784612,96.37488306543511,-0.2091506634438801,-8.49354892245034,-12.956982092703958,81.1158098600676,-57.53968839868589,90.09742687029949,79.21009821201129,-12.28642396415709],[45.499285815304034,62.577030928363975,-108.07768648560786,-137.66980924525208,-21.994262388762053,0.2548308190091837,-17.605146864724265,-96.80500872701924,-93.4396871562556,-99.60097214413706,18.927079236225744,135.85399259470998]],[[-52.443359749668836,33.3130888501802,-24.23166603193801,-24.59533470883605,73.36194543801813,-41.56686961448994,1.7436340959764876,-44.55286821905791,-13.479940311631937,-17.030969215770227,-90.55691966829188,38.069635940534006,7.949768268168056,85.17494158282958,-96.51732603637153,54.49322046085088],[0.9946169052152397,-90.8455847278694,-17.08226070848865,62.191079857151074,-27.633357826864277,-7.106723599462185,38.174024723583706,57.234970597755606,86.27436689429433,43.694967747556476,6.281172191947116,7.822442291997987,-94.64958103749049,-12.537942758589075,-40.023815207319956,41.362202550545355],[-73.91281546863834,-36.67229943350471,-3.697824716414015,-105.8571096211864,-44.59922113290419,92.69919642997634,-109.6468772256163,-9.709390133680344,53.641540611995005,48.083337943339835,38.27953293715826,19.738316210919244,-61.8573839006767,-48.41181603745937,-21.162545103836035,-14.210702103725346],[63.5211969960807,-11.958935830862444,2.128256619942156,20.014641956465077,3.794582178106811,-48.628271121929544,-77.28478839138324,13.135572965392136,14.404820385621244,106.17362196878913,-74.50837196706168,-24.353030232493023,33.1639478970051,-18.451923020346957,-23.95627615531108,-13.276633436051652],[16.884105648954037,-91.45607280977717,-123.21854057291056,57.15250303877874,43.79539862926142,-94.5508373061673,5.468115651356717,15.753833007429778,-67.0980235427707,71.6862281651917,83.44186464829781,40.10816384091956,-58.24759222153491,-31.803781965196922,-2.401077581185422,30.950239966308224],[-168.4005121132145,7.83015094122544,-56.49363169191719,121.65346616533965,98.0645028206203,12.674877314664199,-64.5209750499285,55.963316810291424,-63.45004476381139,-15.244319547144425,-21.55949322687007,16.283650279613635,20.396999693891278,-19.56696927830557,48.721061202628924,-8.974772455497872],[-118.54959220088435,-15.082928279059933,42.83032870318114,42.1258256203393,199.05997349863662,-69.46234318326093,77.85291314733225,-10.135929697275467,-42.382396803625014,47.60750824142479,-89.83600036581917,-46.309754546820585,-139.8528992531239,-17.754909723633563,-63.53226670108572,-65.73026612180578],[-87.0869861282951,-7.512525626676677,48.099003978735496,-121.15561625871693,-45.809724753925536,-19.636263751933225,160.31473320284215,-35.549826304704744,100.48328593216192,-22.356224593104162,-48.58335120985676,-53.14435837981237,-70.9575743127107,9.534380965037535,67.8460629086698,14.909024028207554],[74.07200811626666,57.113922819758855,-11.703763618057534,-34.448074367423395,-36.00935749832809,29.068086421925614,-107.14318484782338,118.49826206322174,4.50109039550564,20.983215245359563,-174.258847888323,113.26257661649653,-14.18202961508274,-110.15775662295805,-85.75386512189228,13.304278746413],[-74.71209027054614,-52.31214294631554,151.07321212535288,-43.22699843375722,80.23846841397395,15.117465769734622,-13.00713882160911,27.293074801514727,-74.07511583902762,32.21436386197152,-24.310771154276274,145.88763619563613,-22.49442432067721,-69.39317490088938,-108.08698071577506,-30.383184643365784]],[[46.45770992082053,-85.75586907419402,-45.661990115440474,-166.85807987639046,-90.61642633417785,-43.76713165728534,-6.630650778507192,90.27655365303282,68.59933633530126,-96.55063861245782],[86.154329408581,-99.10875811782233,31.514055102525848,-14.154435179128095,-45.83135523576759,26.57881111526201,-66.33758938100627,-65.57263609550434,-75.25312246509961,-65.0728389704204]]],"biases":[[4.02218987481329,43.13864187770145,33.99715099592031,27.60806672407035,28.886012790756627,5.189113230434396,-5.74154711725986,-17.916747116584336,-1.3603709461519373,0.9108378606277151,25.44725412910085,-19.787446477044725,2.3942169213917146,-7.244622792675331,24.9568259329242,16.140244236932944],[36.41175559650078,-5.821608038171399,55.858281375174364,-7.649423580313124,3.7174253709194103,8.21209295092617,4.894095890371839,8.619079274161685,31.294973784261597,2.0292557081514695],[14.83900988272275,-23.046297228402818]],"_generation":891627,"_fitness":0}