{"layers":[12,16,10,2],"weights":[[[47.93250289404931,-17.771979830589157,76.34206750259706,-32.27123124453269,26.46427181740876,89.93292582642671,-130.92835413559555,-56.53035411933548,-35.99307284385584,-35.251033326692315,40.326842843838875,-107.16815415555892],[-11.328392920795347,-71.15070854066693,-98.73199298401994,16.969858645317764,-32.29864395243716,-25.58274164104904,-34.870509387666736,-92.58682301601895,84.41380950449968,-73.38984577348745,-65.76524107585522,-73.47961102737383],[2.294563174668829,-0.3593276610675975,25.4658437443444,-54.80585281510893,-53.93838926627592,84.06498792489764,-49.579054944820115,-34.85940124585449,7.709287148916381,18.299667523503878,99.35072545062972,89.39014326680999],[-64.2420697633707,-3.596742912261249,-33.147438553100805,50.98824072322383,176.54824031512774,-88.54676890491181,-16.50989740274135,32.39842059884939,0.5476452570574449,-32.96865372282177,-2.5715679287204476,28.80157726193901],[37.18916048012389,-31.021374888838935,-5.141449769819824,-6.070819422869256,74.9969067710043,-11.89678555843166,51.985689022916794,-39.063945465686565,26.006981401065364,35.18644735974987,-7.426137062126747,65.43158222281815],[70.9476132655613,-19.790934810926395,-77.01928652301629,-67.96002390564291,46.35699303219147,-41.6701930990414,-18.302139911230004,-4.8339919518712735,65.38295549375599,27.49453056435613,-42.46042488624902,-0.7708301901238299],[-45.48024226490095,51.47033671434067,64.09619131096491,-39.828198851702595,-60.383630872978735,-37.25409961812692,-77.80583158121476,-17.229720029924913,-78.75767986602771,48.46722389749202,-10.755889267837127,29.003462304713896],[20.45920253809459,-27.532441592986554,41.54913177859359,-30.84661429503039,60.82093981273276,-17.063078552322832,-11.662336575907819,-15.18853454307779,-59.788267573442106,103.53535353073728,-28.775791533146755,132.5569750290548],[-10.980897021178977,-10.895248638274827,-42.07935602268693,49.650069680105425,-38.275124069909324,95.28397358835339,3.8050933473583353,90.94414884828181,15.577899272711349,-16.753898879796917,-12.526466806572113,6.389928515995003],[85.1948808936848,92.25913634140169,-124.84463585745242,-58.4746325724473,-59.73120377236522,-0.2640904586054277,29.51662555085398,21.07937005575996,2.1981849171228163,25.997953704010396,-19.433609205100712,-68.13027529673646],[-41.25526276964145,44.35028392934731,36.13401926468568,-0.08878650729776782,10.981821645120379,58.757542124605514,38.7381326955545,45.181213539374596,4.473656205676753,-36.85383375247128,16.985852467904575,-2.3631274861730547],[12.537840633209514,-58.237250319117074,67.54926796995507,-43.18436112570546,50.244697388039626,61.54226815009757,-39.35026852928961,28.33869951876207,26.978809207968304,-22.697763499808673,12.257749517283735,84.75375787396989],[-87.87829385398167,-30.539721890992144,32.536133328595895,-61.199542671743544,24.209548614507753,5.384575024430732,44.11457533501212,0.9998226266244599,12.205362552433545,-103.49166930028503,9.080183979828595,21.680181607463783],[44.88995574920701,-80.22406771704902,20.23540734257275,73.18591524002727,29.610245510234147,-35.568938361849305,-43.24942998966141,-115.93324573825997,42.5099882772646,58.65445572074716,21.877811278914493,92.66285724860626],[-13.939804706983946,-48.26564136682319,-16.13365605275161,100.38678173416046,23.96105125414298,57.624597101235274,-18.954073617170693,21.068338874513486,-120.18678945755839,117.79379087119548,101.39459857002888,-1.4466965254112352],[61.74493824150331,67.20338540016694,-71.98625143372493,-150.2790830874032,-28.45734565581574,-15.458296751528257,-35.795661812227834,-94.59780083955646,-107.58730651552663,-53.14968607126476,24.742044591310382,112.83672321721843]],[[-2.6098921568303193,54.499402357759465,-8.710939195362597,-54.147488174435,101.94511034204571,-29.906571606458936,-19.181394763272014,-21.21514645703829,7.198776706198235,-61.44852496158904,-78.44393291806081,7.739568736227647,26.11613581491501,43.522125820180605,-65.42341708473904,19.289614653442314],[18.516532536498392,-66.01229543175045,12.72365340438343,30.50562494897458,-27.489921292594747,-36.191887161565184,78.0513207866326,2.3097564717273755,59.11607581907049,66.60536477381517,-18.25134217326889,4.251106772135043,-121.76182240813539,10.08363080864503,-17.54132034134133,-0.6896874832561731],[-80.36037001645579,-34.3226069442769,5.128225352571839,-74.8922228635085,-62.513606932638595,53.65552172426798,-74.41391688450541,-8.52668984258277,85.52346542269126,119.12993481805334,-26.735275115842583,11.323883888341427,-11.426399313057196,-30.80888599580612,-26.44121266621655,25.945568899904934],[64.2030317727399,26.502894903151034,11.655250140750573,4.687824103751769,49.24856184325045,-44.723978706858475,-40.29098148897222,25.12426188142813,-18.017483787434312,80.30033013795618,-0.8000916172285071,39.73356198982044,16.822903547362873,-2.573442848787327,-62.83654239772667,11.819260657805389],[-4.326019344475429,-28.091595496165056,-89.91198929942057,23.166309299809452,11.882099928244681,-12.482034045337258,-13.146151718219809,28.972412302657823,-59.03451388520871,57.89713483084128,56.984266672269825,22.43193348683753,-59.1653689100693,-15.859606323013569,8.491585982234797,44.60259771055191],[-117.84408524399646,-10.420446211518138,-28.405509515798453,54.089625984451324,101.44903290755015,27.205653105082387,-16.152012622645426,10.901179467947166,-57.96248752754231,-43.236153370210666,-40.41410535685478,-10.349912991719947,43.559812582530355,-46.47124757992247,23.0767096584098,-12.841680817777616],[-119.12776029225824,32.660585622813166,5.504607863531776,46.29481608453219,148.6045531940578,-60.29766376418618,34.35046040809351,-7.565829456286785,-31.61736382581207,59.009896873693236,-24.30545645924355,-38.85850639948925,-110.35567249065187,-45.46011974794906,-39.090660932932614,-41.829142486450316],[-66.771214679141,1.230748241712839,60.07120888842291,-103.84170663075538,-32.316805530735614,-37.711076312728885,99.1916365431196,-40.052035054998505,73.32327920745628,8.80491191565956,-37.45301167462336,-43.55248360422051,-69.18572537300335,-3.8090888105357856,46.44883090634,39.4514989241645],[46.59305736047011,4.895686427168058,18.85332804160719,-74.08881189705826,-12.302924947331574,-2.5267372728482846,-82.45730403536777,133.71323666826618,-9.126420405533837,10.404248721656778,-162.5627398471282,133.25257130962135,-40.32681674732296,-90.27168469592836,-54.71632893663665,-23.216178895073593],[-96.82478196619998,-52.64825778651092,97.68608703555117,-3.5039052417861947,34.258490729167576,19.19206009602592,8.574537895308888,-1.3041899445575877,-61.26587495143035,33.90175548122548,-33.171503160954074,89.00928701003807,30.957473334595985,-43.808641501067406,-113.56894522588657,-6.2999397568486835]],[[32.20142531490893,-42.46180469395298,-29.35681808600248,-67.06627373213931,-67.05870493109187,-40.84827852405316,-25.563567961717993,88.42395357282368,55.36045570732152,-44.08258629431608],[31.405299969023396,-61.506808710261126,51.34379587930636,-1.6378218067487822,-57.81439362147606,37.63100824576603,-77.83002201328415,-50.858533299111556,-117.20410209735839,-73.62794177083653]]],"biases":[[3.164750445764517,41.76180884303751,30.484957185080784,15.444987119970136,24.50878493395887,8.468435651862562,-17.262714907507117,-11.652809812719454,-10.530530981038284,6.829650408483718,24.33901680822459,-9.058258621331886,13.312848784631187,1.1695287353608905,25.19446676647529,11.612756297776466],[29.098828953430644,-14.14911361797475,38.25135101211756,-9.952395699004848,-10.966870194515002,0.213726235581251,10.905373204658225,-0.2890940104612669,15.7195694848463,1.356624452425156],[4.571219848019903,-9.656151947483325]],"_generation":691627,"_fitness":0}