{"layers":[12,16,10,2],"weights":[[[17.07572507307745,-23.138319460209587,41.35916721824998,-39.467223305795784,10.669935898034437,50.15243721913519,-53.68551230572943,-68.72886594155662,10.927844720331569,-29.353597092406595,12.901256840415904,-77.82142857050388],[44.73522049572286,-35.810684083175715,-27.21620116722479,-29.858695365756944,-9.833918312913083,-31.98757247570205,-34.14746026817735,-72.26222184250105,43.90654746166664,10.579214753849229,-14.902603717180103,-2.6024365814462938],[-29.188060614342223,-41.124099412123286,24.114258147862397,4.399238157771087,-60.65147042776673,37.863262825098374,-20.869797437401328,-47.23758559137277,15.133267626832472,41.74930904890869,87.54267229165995,36.57606735419412],[-13.95618923931432,16.894936943508196,-17.405207412700772,55.9131432642644,135.28423106248434,-73.35560569804203,-8.989483352586642,-40.612197278946645,-12.90290461534605,-29.207627466764865,-8.351141798892133,15.2547584838114],[-19.1954547250482,-26.059416105569387,-13.411984746448034,-12.44223925291867,37.197482480066704,-27.76663006666924,34.82913234328046,2.0741325188667314,-20.867554251924254,31.40149980396235,-25.789657221511728,-5.155961530950397],[52.48302683118496,-23.97082531009201,-22.49505493485432,-95.09155004406969,-3.0090482330646013,19.48859733068089,52.44116091519175,5.210463416570551,37.3984161014833,67.92416224562216,36.02682207635091,40.18296195722117],[-50.226655499431715,44.345590031143615,-47.5774899389526,18.813881309817766,-20.49644393911876,2.323006419490545,-32.207403307765134,47.725878393816465,-6.3994728892230155,-12.411963932050064,23.2459066234232,61.811269475219746],[2.2413100108923696,-34.7139016053414,-19.03511711978119,-57.48954533281272,19.484884622533098,-2.0863606525796268,56.045438341778876,-52.38879735890606,-26.992283098747116,42.75634182085654,-23.316395390527383,49.17984637014727],[57.50090963104501,11.743157511213141,-14.23917189147561,52.645007840238826,18.18678441786657,19.07043623106261,-26.515047267747423,-1.6548880509572785,30.65854830281809,-21.696363957636805,12.283617263732742,-10.003587782633607],[92.1056097452888,108.63303744627247,-87.6559066787778,9.477352374005871,-45.15238140520215,-23.718422213334886,28.86677402007819,-27.78481099067021,12.420957829835277,-21.140561063383117,21.22445107548965,-32.31665904532217],[-2.334371838092277,-17.526815550295197,73.46807254595502,41.40558427928891,-10.03196573865488,37.746752689477084,-22.92648919295033,20.479759329914145,-16.575292430660493,-24.166161007353487,19.2437680108019,-60.687546118740016],[43.6982302815921,-0.47170287524880095,10.447063546407293,-26.32765974600602,144.64851746550445,25.043218767136377,29.592921003731654,33.017616452257,-14.17972408082872,20.329307573808304,-42.04551504618595,28.90416699189301],[-29.349585269493044,-46.03858351440223,-3.6440480842072853,20.109215562078727,62.22475630250076,-16.366055621011345,6.886016301138449,-2.7061500378144507,18.13514003862774,-28.161692012378413,-14.868679613906744,43.5603933909435],[1.6307284756471123,-12.06176825458497,-19.101191239929648,17.534255414203034,98.50819815343148,20.411598743897663,-59.36358126392891,-62.252211558343845,17.712321432665906,47.44875631063414,-11.15417825159349,50.79425429961524],[6.084379876275381,-25.02786311532756,-21.732277167911246,61.219461739857636,18.115873263137104,67.00845758125212,-23.61195243764467,-8.38395249076374,-124.62767671712022,39.31274562509865,61.512878149889524,34.114410736979494],[3.352435658487466,34.8547658655903,-23.437266370929958,-118.43952413980168,-72.69251185351527,-16.178890721593216,-28.41133631669676,-29.365590147232005,-21.491271355644333,-20.755455645339172,26.27604526856318,75.5905790519778]],[[26.66884429793286,35.227477787810635,-2.314502868566879,-33.98907335299609,51.5263432308489,-14.253308308172915,-26.446453205885774,5.268964828759425,-13.375409433856616,-4.94532946083998,-57.17834733546511,26.77747031626805,15.186966377048979,35.56829619301579,-37.27887544693905,14.031505158989594],[-7.792713492973833,10.78760913958598,19.392893372955438,34.14614470039879,34.788641297792765,-2.447676832247104,31.644698136870517,6.624981604674595,91.87638174586978,17.587447070652477,8.254990651986423,30.324076392266118,-56.15110476960755,39.28147120428443,-27.720571870652982,19.013088121907973],[-23.427356938634937,19.886619767792038,49.28864906156741,-89.45358357339991,-53.579040063540674,8.962501733933678,-34.31580902522426,-72.90640620347811,-3.9886243744121326,108.51678348142259,-42.65852898769203,42.54405624787269,10.239754750776296,-55.56666291833691,-26.37977281382097,12.2224479150555],[27.07714760352838,-25.421318820534683,-6.223149258985861,8.545557020990344,10.830662246726225,-40.51452576257211,-43.64279215668917,19.74285400429756,-24.212189551663034,52.71609117552597,-21.61881008174328,37.11833803979024,-4.257731462860839,4.634072682771082,17.518182171050974,33.23900232111289],[-38.85154113721281,-18.80651383777166,-10.963441438459752,26.2574184969621,20.1569914097874,48.36458602306283,-18.902863337151537,61.98037015808532,-56.25362792074757,3.0916988301813095,1.2444495114488194,68.18068618903644,-43.149551851248624,-1.3296265111962862,22.48494060494306,25.893505814646236],[-20.40927649310031,34.832905058381236,-21.168810576773108,52.53946318679791,10.161386166968146,43.22368182698195,-22.015509366866603,6.865258543680693,3.465842060335821,-55.67304967066612,-10.573125868742244,9.17498132417503,34.75752609465699,-9.400933946015071,19.535245766915633,4.528004144530264],[-22.54893330260166,6.567635324789507,10.714693141056571,-18.3043745502402,57.255770506840776,-38.634985379392674,59.82294209752739,3.9905260652914536,65.30837107674868,66.84303904809023,-14.739485072309593,26.57283598162095,-23.456723138041568,-11.792818449962196,-38.11479773325508,-36.998145829239974],[-15.488913965831157,-13.473388032551613,17.57062657216246,-99.73496240357188,-33.775761220610605,17.866531626862415,-0.6429624525842113,8.304528792615027,42.21715613682534,17.41253253540888,-23.472044234081554,-16.849649055677837,-34.66089626982789,0.4914447036050759,46.90655686907643,-11.875556393135621],[-4.659456293319495,11.076130975261195,-4.918602528274527,-36.17838329102453,-1.1860065208335944,-56.73124636488981,-25.73036541878693,51.28616926021119,22.716224329822335,8.769383099796412,-69.52624186543312,48.68932028697293,-11.3055786034757,-2.885002852959123,12.753148858555425,4.740837803996922],[-19.185789184479816,-56.66455276507468,29.396099390034067,53.82120180006653,47.38135401146697,-62.60721757499188,1.6003923914469518,-22.74704190619833,-20.71430212551785,95.18727636184511,22.519975849144586,22.343407158929192,-22.929460270808047,-46.586466154566644,-63.15229091842159,1.8649928523708503]],[[-6.7661014014074565,-5.854119333705054,-25.490901690090052,-24.306077092699763,-28.70510134345883,-3.046415256197568,-20.96269010030489,75.36153146492941,78.2480768000662,-11.77576928497904],[58.444933565471736,-29.73690214841386,38.27118604359012,-11.84927602518231,-10.203905218061399,26.138320013469112,-60.83591298345857,-37.01799627024295,17.806025081508036,-81.7131799057969]]],"biases":[[12.964994677691926,23.016830142134314,6.5176930567859,24.644045512715255,8.947206014935887,-5.638195332900372,-9.394770471518813,-7.665399026357065,-12.572911844152717,-10.286846344644553,11.730776741613576,-11.231588625556498,15.98874056149026,2.508401004993562,20.335704575501264,17.548353990638496],[21.08190019391858,3.293492473189039,18.21735651991786,-2.526508058422481,-5.460391827711153,1.9257319551429375,14.560793866750812,20.774111815050137,1.3748873135320143,-10.982850558282987],[-4.014712018291286,-10.151334088033318]],"_generation":346627,"_fitness":0}