{"layers":[12,16,10,2],"weights":[[[54.07554743199732,5.324857850623637,22.71683924280847,-21.384271288861942,12.458543974543204,86.6491996090691,-152.49108179713716,-72.77021917843628,-62.17801603918494,-15.62569174047239,50.46327212685451,-81.27834409090113],[-47.563682704695815,-42.55398074242328,-94.2725364443374,-7.038855481799914,-0.5745253797850469,-37.78190744980811,-21.478734505902374,-64.0355601884215,80.41663359992359,-48.802207996709754,-56.80075557895893,-94.77865030261067],[-17.68588816925019,40.6446735684572,27.851802415438865,-67.11919208300282,-65.54638996035034,122.13105141016442,-16.705185882052394,-53.664218999888774,0.05400686426739734,39.68732219108343,99.73523645186985,116.86113787435119],[-62.24512615964062,-34.997889626082454,-4.802177017231655,53.47198524895527,163.26670236998555,-92.84136363363436,-32.75110545060957,16.55610498508457,-11.060075391060591,-17.562910128750286,-9.564324737005187,39.5625516858594],[8.64724000071588,-9.65114685015428,-18.66104600344624,-3.825700288408236,111.40464990467704,-8.585670755062282,57.94956299335845,-25.546186145541935,51.404168060052854,67.5924494028767,-16.105559928378828,60.291632274137285],[80.07953294161965,12.94190721635147,-92.881838238672,-37.54473824664933,102.06992816315898,-48.06350515778555,-26.758705324513954,19.143556594088682,123.97641770996218,15.576352426010546,-33.40230084021787,-19.632871813682666],[-33.45987689942516,39.84710886229924,72.23324346903075,-24.873230353167138,-95.78824463822738,-48.61579535886965,-48.34495811016523,9.382543774924132,-86.681283313877,67.69955621581317,-38.244294827457914,18.991733619255953],[7.00902971944114,-54.19838870438987,20.162624351754676,-19.22385920483519,40.735128707651604,-11.744715003629121,-25.604100339122198,20.65778141861538,-54.18299607192985,130.13593723880172,-56.282582631244914,105.0573174217239],[-11.048441784083167,-36.36967366777128,-53.89659359452955,76.47467006069093,-28.36223292047511,66.05480530083365,-25.74019536344527,94.40607976868526,15.561963190117815,13.378994563874421,-28.961957525155913,0.8135512384362715],[80.28100491508334,99.3042094321773,-102.26427262442567,-31.11991640615817,-59.1368723289135,31.32956998219443,38.46123481204583,7.500486202538278,-16.894974080754995,18.888884268606276,-10.546283922712526,-84.37601192349784],[-14.413610682835175,61.55276223843541,60.983137423351046,32.54875396359024,48.03364324936066,51.00650463949071,56.32367558989659,1.246143065043426,-2.270612167341508,-11.606537731773427,19.73094388905377,-25.33658513089408],[31.28567245294648,-71.02681384801711,59.197869634167006,-43.197075849249075,78.1295193140376,58.29571553308983,-79.80130706060596,7.12438420622107,10.433258946497926,-57.73629138509582,-7.841832001999457,76.28450667372621],[-76.22583910772792,-50.12049101165136,19.27472825352478,-46.009596097500335,10.480945889049941,49.373877997620085,42.79438676818422,7.9697722720618005,51.299214778172676,-97.34441898982773,27.65094014268011,24.351141523627923],[-23.454426389791724,-84.16405335851124,53.10915844935116,85.69779053517763,50.57346481238158,-26.95836538433053,-37.767946438242866,-64.09707918430365,63.82821452258121,27.81614293369106,13.857057372345206,136.84521366077584],[-34.744753122861766,-74.710915962881,-0.9249584524562108,112.8505267396126,-15.921518386827177,21.755238184963936,-15.57111186109943,50.25936471771709,-79.54178760158301,81.43928539704542,91.0746300230546,-14.930533262683426],[29.763384236972986,50.18469454397605,-128.0724660932312,-158.35956353223068,-31.150064705134415,2.7958510180435825,-14.328070968803134,-96.44775678601981,-104.5884423523329,-100.89727301114272,-2.523951308939387,122.91372825538821]],[[-27.868808864866185,44.14885619087333,-10.022197409787776,-36.79113704496487,77.29583409206955,-13.614616188121905,-0.7088681355243895,-28.972036798723394,10.889967167426631,-24.732972939701238,-72.9225146680844,10.908679798955284,19.047256743529434,46.862710458685875,-116.35673025278786,52.54452360792013],[30.141846412537447,-75.01771757870556,-9.809277136616517,35.53465401177293,-28.32026529250045,-49.91867290978167,66.7944370612207,34.42300975914924,66.78136215900194,53.10720180523137,-19.67209276268776,36.86277545811406,-68.19800080358532,11.216379852396985,-11.501071330676966,14.718866925738173],[-99.67988216334597,-68.88579927595933,27.361434310070226,-108.62994338039957,-32.13833592695934,62.238037993473554,-90.856030003152,-2.4181975543382097,63.8628672080207,68.94308007537865,8.33640656197596,31.51746465043964,-54.59968403507522,-47.1856180192866,-52.861997429820825,-12.015370518098278],[51.002920420351984,1.6556971443642643,27.475299689644448,29.0750577160157,35.78588293198201,-59.23711915876907,-48.26101238709268,27.688705406217892,44.094225748082316,89.60248197017438,-37.18283822241582,12.322733700025205,20.974306661346336,-35.983580340401396,-61.78211895950841,20.027107273438016],[9.29316501082215,-71.97175472506548,-92.05375208642315,40.920079895374684,20.058675637456933,-68.27931853785248,-18.94842121688374,38.796797749081776,-21.967874052295606,94.36642838511759,47.438318322094,26.01752076472387,-36.99811126849335,-21.577326322186856,-3.896000223866601,34.600384628357446],[-136.52196818195384,3.631067542583983,-47.460085737891035,95.83335153533305,93.98187542922508,0.3327337825970993,-24.164431100311695,43.93299790322443,-62.134589962616495,-30.391949652942877,-11.19363346773132,4.958806421380018,7.899282584197962,-21.112072267861972,46.60045536422848,-14.796097500405264],[-106.48677438633376,4.236222369233053,17.439040971807746,39.506081249036804,166.56426752057894,-56.984118108269975,64.08687982827122,-18.808613192551686,-37.88139276201267,-2.7923725739646437,-64.17954239252624,-65.72849179571347,-127.06707397950198,-20.517500301918293,-29.940301136237444,-59.09651307848126],[-65.42565554332967,23.033128100442262,67.77374706518881,-145.38745434620526,-32.14129515694189,-29.446175324151664,129.45949037562312,-32.84375211429276,73.35964950057725,0.8070841162526747,-60.28243743699552,-41.293435096487755,-76.07334079404473,35.59974755055437,72.53751722714617,9.643735289919233],[42.910763270553254,59.645924549705725,2.0626845736176174,-14.355161018573602,-32.38317137463014,31.124962676876876,-101.44317895270534,122.94713756478669,25.86035667292779,24.87075768694785,-145.3680232096134,146.97267383865048,-36.63696381176588,-133.12069067028568,-81.43984107936986,-22.742699533080167],[-83.55257533369043,-83.35317626436078,144.81430004149215,-44.124780600729856,60.3685136507332,9.414989332805346,-4.455775325657426,-7.379137685383405,-64.89179424458335,35.064487063627425,-13.284474766789756,152.41414655724807,-8.135572010317087,-56.08160126543795,-118.52267264547527,-16.04379623425047]],[[33.92842607112549,-65.87814437234967,-46.49758913699827,-131.77020306502138,-90.08087925305345,-32.33961522427648,-42.53331790891205,108.7136931866686,66.43119382930169,-81.4043486008613],[77.81627854714195,-90.59380153520387,47.316104416852255,1.3318913505287129,-61.88435338996812,20.08104019299254,-72.67552083453802,-52.7830292101795,-95.90738798655936,-53.90953858539249]]],"biases":[[6.258963169830208,45.60001343048412,32.421727831304565,16.91142468143498,26.947465886738648,6.967866617276086,-9.120445039032568,-11.542969245101522,-8.297995491948829,7.766018069746267,24.099671309381147,-13.860533214947845,7.418837373875727,0.7801518687492944,26.388081106073678,17.594164079096526],[39.34824693459695,-12.522431892590982,43.43100655610464,-17.345620868326204,-0.9787184382349707,3.51395464995914,4.431339509646106,4.2711676520749915,22.331403671442626,3.7923455150995684],[3.032694521840223,-24.221015431162723]],"_generation":806627,"_fitness":0}