{"layers":[12,16,10,2],"weights":[[[17.782733120878856,-12.700860572658081,52.88373434265893,-52.947648247280135,-9.665703405254227,54.83935277680277,-46.691274465675086,-64.04162816423596,7.524109746191426,-25.217250046408886,6.825425321620626,-74.54171659087287],[26.416255432548617,-52.10455706786863,-43.48933078724076,-25.392197350168804,-20.779337136481267,-47.81597466940756,-45.344049870865405,-74.18928810054155,37.151071998529545,11.640998366322181,-23.574313978474517,-6.7005402347270255],[-24.55969948035199,-28.152269676462147,22.332724643205765,-4.856141772801136,-40.42865217726162,50.054749550284804,-19.868634098670565,-15.940296613666783,29.518912150650955,44.57681171767625,81.16618460976194,17.796884761428558],[-10.326019863647547,20.163896983839454,-28.949345414910354,68.33757281256936,130.81669892100052,-84.37387566588566,-15.512320859141468,-21.494788589279413,-5.830668556995085,-10.816463659220856,2.3332868460793805,25.417548206489812],[-7.1215446696210565,-15.467493281331153,-16.89288206422627,3.683758350996708,44.395399868027454,-5.151804440458179,26.27818415036379,-11.769872277331526,-8.267463291502658,30.182361443995667,-23.044779255190523,-14.340091477216191],[25.92483677645523,-10.571410648891032,-24.395409645212425,-100.50624335847564,16.29287512746118,10.013116263967353,42.49896778408774,6.50258533371355,53.78590702033979,89.32083278717002,51.2572765603173,33.938596225500504],[-65.6128982646755,42.17033916360434,-36.50666694242862,-3.871785538870856,-23.19103959269512,-14.022401276600156,-31.183361649720286,48.192901806433724,-15.015714352030372,-21.533099188153805,32.94135485524372,44.629851120787144],[-1.0487189865040276,-51.53193605845993,-19.813521279408143,-36.32318199783837,26.968864450637096,0.28387840544543896,60.63310317939178,-44.578784270259234,-30.878137912818364,32.78441296431955,-6.508524052400404,42.390165625818994],[58.86732774201729,6.207118793655499,-13.680392452952649,35.69626255581479,-0.488081176245593,21.49674201141676,11.994778538095035,3.5950058595764394,42.0931671218982,-22.57405846598031,9.546379097271506,14.723866499963108],[84.83090807193608,106.91070076929712,-105.0757986872449,-24.283401292632064,-35.746153372205306,-12.275514421927879,17.93551802783298,-6.252369139111318,9.425760558521254,-13.393218903188794,14.211122661061047,-45.096189708470234],[-21.319718264508293,2.491559685783745,79.34051804937121,68.20206658017041,7.0205899013103314,51.12877024668501,-3.9004579878951025,16.308625348600604,-27.38529872233055,-49.787876498764916,30.647579408023745,-69.41793687012789],[45.54109821725311,-9.94252213014099,-0.7678960834857808,-26.028302832204428,135.33300623012656,41.42303450494332,33.15907482703684,26.900133919850592,-4.290315711736995,26.563509687445197,-49.786678957902005,41.3960291832112],[-38.19188417827292,-46.03980000025942,-14.985387912256764,0.8990705043496108,55.77132075664799,-4.065099946582027,15.031554326518833,14.54654237982279,32.20401857700168,-62.21066127149518,-2.9362484831986464,40.994333117042395],[25.906808829996336,-44.75262578065963,-25.06984129232317,25.121896850779066,108.79384321291411,37.471894367569455,-50.27643468551404,-76.85097349807455,20.015064528781004,52.21847503023484,-7.193991194131811,55.85574095282511],[21.087693196292904,-17.185446113704437,-30.732445495860688,64.35841003649568,31.894670316222644,72.92193147733722,-25.302841677805528,-9.13512305511768,-105.205358245374,53.63549053475671,76.87935814579563,32.71662182706551],[-1.3564486523374348,29.63458622419134,-47.71589121585019,-124.7156014179457,-79.34026535739622,-5.8580911306669465,-33.9536475732904,-42.28526684937282,-50.19226642185155,-21.830787168187605,21.55414445791294,101.35601274794544]],[[7.614421905482602,40.93863094756326,13.320258296645102,-39.764691778202845,59.3437649343308,-11.259179893633235,-21.20544006627368,21.250448680729615,-24.592013415884306,-32.08400836749116,-70.08049120214818,52.89901050736068,8.344617245259982,45.20315840405835,-22.041960836146437,44.34239593253686],[23.644701109839083,-10.770852802144201,16.169202320083684,35.541581710792705,26.960463142612905,-19.02851740588969,28.871600056645363,13.30884430413198,96.00416333149478,48.52231186432236,-12.658651520152496,19.50495383837644,-55.10574826096837,50.32303312718065,-19.32920879397897,2.724638349277232],[-32.71042456115478,6.93852723041362,55.36931472061571,-81.10068918422286,-52.04725914243059,15.843564822928222,-50.51442461253344,-44.982342205062025,-1.2256332035051494,103.55835738119166,-46.302875787973356,54.37685872666372,-19.438183211306587,-49.452192021328116,-24.20728096075558,18.083298709703303],[30.047781987999084,-28.040860836063377,-19.648684517152045,9.17387662858434,39.81681962112284,-33.38547468217568,-62.40753929636817,39.365886938424275,-51.42643812332066,84.32899759175707,-16.739824130199445,27.70839013269469,7.438762717946496,2.5469060218660395,5.272087186001896,34.235591215416],[-24.300702547099867,-23.53889520175195,-18.431214301353528,15.934817737973251,4.010225768304553,55.17545568828915,-25.590553665946036,70.20799671188449,-61.42867726449445,-0.044656022777307125,10.722869274345925,59.19732372184992,-43.76621976889993,15.429464021312889,21.09943951916741,18.159177641548727],[-27.322563729978327,23.528574406065516,-40.31358581859284,61.137869808923966,10.927801322328255,34.17525758453327,-27.63312053632814,-6.802361996346839,-9.96540902527991,-42.14084659002436,-8.93172752129104,21.81956665778853,29.303741758108877,-16.85902560487182,36.42364001947358,7.2185167228659],[-32.072059417285864,-9.681047289773192,48.912735763331604,-14.644581143553069,68.02231141174364,-47.70541186402705,58.13479266714562,-8.908097343227011,63.95873250661011,84.42890310386903,-20.944514541198256,10.018612135527219,-44.5732528827558,-20.280767875506726,-16.669219511960353,-37.1934954081177],[-31.05490635621542,-35.96048216318227,33.91652529384693,-88.47542044364457,-25.115043151856426,30.44014891488606,-8.977920433974171,16.854694745004334,35.74412888134311,28.711938527141328,-26.90376080009149,-20.45126370949719,-47.369861497801814,7.861733613475522,61.127693632377174,0.38440858285696017],[-3.283444411115699,39.37254706308699,1.061887492374785,-23.78103188000796,-8.602475488293113,-62.03717125171439,-36.53401551022121,71.81072906459426,6.506431759622166,5.145708313170602,-71.62558726886968,53.94809154555334,-19.24986517145504,-26.7760191355317,-18.311405845846885,-8.064576621826816],[-31.058515657354324,-76.13599728847376,32.44521455972326,26.380201539722037,38.655573833876275,-54.4158887986877,23.346890266609375,-34.47924540544205,-11.63265293037853,92.78208777585652,24.122427308196514,27.058055702656166,-12.923662151227155,-38.97619094933219,-64.43700411636493,16.96925491144509]],[[21.7268180069199,0.36534513422056164,-23.034014794031314,-24.73848569101346,-45.38520672169749,-10.453462005517395,-28.023075383428136,78.64413611784535,104.10580854333105,-41.94208566232708],[35.8816601217565,-46.20523606515003,35.832773365236044,-1.1797211811839297,-12.787422132067013,22.535993930403343,-56.516135566525676,-43.56720788975365,18.24700283702733,-74.62198807125894]]],"biases":[[15.79609727014019,23.049449240824238,15.036095902596564,29.59962385656104,5.614747876252641,-0.5255446403891485,-7.76098094709328,-11.080346926572524,-9.809511887315367,-6.1040978776287,18.05966899022526,-9.936477751236689,13.671763105253092,1.7740107058634462,20.0828103046884,16.15901062731878],[21.055289111723937,0.4513573768162944,21.900692228650183,-3.5897526803130804,-9.397255695294842,5.439247023068709,15.566033587196435,21.25058910266822,4.402222201318784,-8.831678043009388],[-6.358970347413366,-9.048928981181174]],"_generation":386627,"_fitness":0}