{"layers":[12,16,10,2],"weights":[[[-32.778080006312905,4.954235858793657,23.67153848715258,-30.95565170792702,12.134527676256571,28.689922115447665,-19.171187624488716,-17.522257239311823,11.986395229787773,-1.5357001946686772,4.915695912269758,-35.808905603450796],[-23.729545575672244,-32.74487781613307,-11.775662066076412,-34.05139463990095,3.4331344907478045,-58.17317258801614,-29.366138439685976,-74.41615997975232,-17.93483162678377,3.27087920096937,9.846108064017358,-31.36575976796077],[26.652027524341648,-17.69376868768928,12.311143658912178,4.146975858808568,-71.93768597569851,16.729692719872897,-12.492730879673445,-7.166096399426214,1.6227853379357005,3.690286736743576,51.12172298234077,26.356230917172624],[23.76272834893409,-15.755754388824577,-11.827100790332908,16.007731896243413,68.68638338821609,-38.78559130777798,1.0908050821625495,1.176280947603765,-10.823976432433629,-12.090556311834323,-4.185986496136784,19.998575939888706],[-8.587933598561056,6.01891299532458,-10.59732427509005,-1.8063684498824135,-24.448093637108766,-16.609281844280833,5.87543959114034,-17.068958159185797,-36.99874886980807,14.346781874350679,-5.674106975695351,7.004972949123205],[10.163035729833158,-0.6765772514511514,14.030120090524267,-12.896224717816015,-5.603450592427054,6.014345391936658,31.148438361602462,8.322727436517637,-20.499995993058416,18.443054732718263,-4.74634262395569,40.509614545256746],[-19.635061059081444,11.855577403271813,-16.954914660220403,-2.424877092117798,0.7769924351204118,-1.4281967103249908,5.942555365361878,16.500331890734103,-46.16582346952882,-6.468370995914218,7.083281283839015,1.3796075383282727],[-14.867797446808131,-29.48668981825327,15.456180449687205,-29.448170571807335,-8.304138370602043,-15.628251241769362,0.4504980853664866,-44.429637644092246,-14.888631332791974,21.504034917933225,-15.187485710600466,-27.07264637210549],[25.483329264789187,37.46002002754277,15.50471199393291,49.84333316132374,-6.61599451347185,5.827638431485413,-3.462665067629121,-29.95751318679253,2.1489840846266173,-9.994434281788964,-7.577348126872132,4.451379806144651],[25.31136294363908,44.55398390641562,-41.82766320463707,-16.925778694068654,3.851803622879567,-8.210344819803034,-1.8771832762740999,-5.60164787922386,47.34317662984319,-17.129355631068943,5.609978841936162,-41.5898978183249],[-6.074916747861511,-18.09929978083517,4.45748483837846,-3.538207288392268,-12.02102189041762,40.54392893287971,-2.7396764565426137,13.732751120756674,7.171756829298239,-12.241683527726499,28.234487911433426,-21.59629024508895],[-12.607660886721723,17.443727944584626,14.742085418931856,16.019089483100288,47.7749811967255,26.10872620263766,-2.0062032096288376,1.7200268189288945,-12.466066716115568,12.95791381588352,-43.112955652976645,-14.311750913918498],[-23.227419490678237,-15.040721170380387,12.0743424718467,7.2019399124523815,49.436213742871956,-14.822817097388034,9.521419744783742,-3.8797310962445897,-0.9623805542401085,13.052384507589311,2.7050650410061423,35.93518039140519],[-16.768338472475936,3.1709591378469457,24.514832230166544,-16.44984256145935,34.410310059108006,16.782310268534772,-11.302252739249399,-23.86001981658485,7.296872508631236,1.4231684500706256,-30.087312617578164,50.89800329275637],[2.7393723124746523,-10.294126794286912,-27.239741124570482,32.98673337556646,11.124744806932844,12.94033125544673,-0.4142302314862022,14.531518889298779,-40.874221886142095,35.279172188722875,13.613982908451437,31.273238717202144],[24.19088498871734,39.51457154979611,-3.1668634488763945,-48.68053073903398,-14.223028346820714,-21.869802292394702,13.111629895108948,-0.07135366107884868,-9.772379518927583,13.276267430937454,5.5001789913278625,20.61510582232241]],[[13.898769938739003,0.789033486666369,-26.419501265739445,2.6642177788090167,20.01606633058075,-3.3702051826977826,12.016060411403673,13.30093079887439,-6.037622842357741,-4.430791398892901,-33.816273024948444,13.714976374454942,-6.120522067167045,20.795429301008557,15.242663349110343,29.635755108549127],[-4.7102488359658725,-7.187243252581451,18.840519264451558,39.7561713327659,-38.00528028607831,-1.0703139923972251,6.001492015122764,-8.662780068969766,28.745727150287482,34.45981756143242,-5.600160341098118,-1.1710616909033886,-37.25048354225456,16.92398460231551,0.6346167074540733,29.48449790273201],[17.334402547868613,0.9385167624598071,2.3197396072284526,-25.334230167572816,-0.4460279874621479,1.2699891068002291,4.350569926321939,-12.994108778919625,-4.227699737772563,25.03501952520893,-4.751815502043654,30.44487272768667,-3.9803976585486343,-38.84017903887541,10.722231886198635,-8.714028743330791],[42.307209674583135,23.931900909313445,13.365701707551183,0.6279401805205975,44.27284581590835,-4.492284497447719,-41.976137686456696,26.241532546193245,-1.4639470066488034,42.611660405044276,-34.15840422211207,17.914955701246853,11.542360963539132,-2.3972574676436333,8.984799144114568,19.918951571534468],[-25.765035340380525,-1.7113809010505907,-3.3004962698933062,14.854715930085487,4.718673781770053,-15.512604901352777,-32.99414909229118,25.85680679676122,-19.94506153666343,-17.193074890793856,-30.653755714604795,8.086831738679688,-30.6840779545034,7.306852660768948,-2.3834988098246286,-21.68134135238448],[11.34805520170228,48.32825914220505,-33.100343252888216,28.782774281092255,2.058798883931582,9.93195431321113,-25.187470786734444,-32.78865873277891,-6.041307092346597,-26.558305399932266,34.84421159159089,-12.283653527304624,43.11488371307553,-14.010863810067528,-18.15010283346873,-8.799695337306368],[15.942761743084588,6.819928243633581,6.314253429425117,1.4170664652930098,19.161217045060685,-12.580978393418022,31.592904849658094,8.990390552666314,33.10779852650148,13.959409117362013,-9.374458536909852,26.791567366346996,-11.140290688556055,1.77537797262926,-51.10719999590548,-18.31197428208435],[-22.524937366401673,-42.98682791089987,25.57194651345335,-32.893897337769246,10.63268097583461,8.615265703253487,-21.89032288812713,-0.07097733953983804,-12.62927849409979,-10.904693877214426,4.101662455531653,-36.258804535928746,-20.740626388063124,0.3890690215761973,18.194594589508633,-2.865090438168672],[-28.952481940751998,-9.34104785240824,-1.6936750488290493,-12.269260601081147,-9.271901320265997,-10.100641326849178,-4.698687620926315,27.48018959364004,19.220767291246613,29.40618313936831,-4.168326449630387,10.953333684574714,-1.4094738101311857,-18.03073297479018,-26.12789173773611,-24.96415271567423],[-15.652223279874367,-16.27602232676228,10.092569945044712,5.26887774458639,27.42202913199391,-28.633731449844774,-9.354642576041037,1.6981672860310733,-19.539270476874712,-3.9851136669114373,4.587934161920836,6.304305210496318,0.2645871988297341,11.534839586890188,-17.031849609647487,-7.049670988333504]],[[-1.8333706804492733,-1.5262539391035401,-14.888611827537545,-10.704656012515613,3.4761121495195315,-12.978592887247787,-16.195926183213032,54.33621847603244,36.50334320126794,25.324324749878045],[32.26705270977786,-30.74712644975984,16.920689506096167,-14.805290612050028,-37.9440891006486,13.432125196598259,-2.438386515032832,-25.036673406251282,24.418644512864088,-22.150942603373586]]],"biases":[[1.8895949021975555,7.215373612905825,3.180886821921214,5.389254893387911,13.86136832541878,-2.608597180830109,-2.1783018383257584,9.38329875833849,-8.898460105864663,2.843483928735015,0.3705376237459987,-4.7182337132989005,3.619771734666934,1.5553908713189464,-0.5559863895415593,3.185651953557429],[9.2789324912332,0.6011370025871544,9.806924229786276,3.3413051615838496,2.4714609866341917,-0.614146257310705,8.668689547605709,1.8781931044883873,7.520311705130155,1.9710807813625588],[2.2911144056296227,2.915079727429473]],"_generation":116627,"_fitness":0}