{"layers":[12,16,10,2],"weights":[[[-25.747582631487113,-0.18431854083141333,0.7859113408461925,-4.780595276472077,0.6578559859419039,4.198410919796765,-8.901550649383147,-15.457792966902085,-7.906567223585934,2.8858072305050753,-5.885397952040388,-3.996796149067954],[-16.76406620575221,-41.07159876740897,-7.210900070168101,-19.88693877993777,3.078509585846126,-16.59788137633295,-3.389357888592289,-46.48569339316328,-3.6383229969082893,-5.213551971309782,-6.43051285583241,-4.808328280460319],[28.489080814739648,-3.905466690834566,4.814002215547073,4.700245408944928,-55.4896517122791,-7.845779501420724,-10.449823946820606,-4.13467735176485,11.686751017851252,7.9040294186742415,36.7616982394248,19.069837375195945],[6.450714304693557,-0.916987642433881,-5.720186151749887,9.652879901298942,47.74452132359293,2.4277506773795117,-13.190374707530738,12.39512131402578,-5.7172220492455335,5.017955830349093,-2.5799622166538216,10.993791150289283],[-4.361678107016066,-16.291019293343957,-13.462511999094916,2.942018820205016,-3.4609482428246325,14.824469864998555,-9.754354833113018,-5.6999000619800055,-21.47255436030867,8.489044566695547,2.9113624133019385,7.666748626573351],[-1.8495657747057737,7.58297246764423,22.792006160367176,-16.356841318302486,-10.430114314463182,23.300487909150213,17.910147914831544,7.552035897910463,-3.4966225964186335,15.59845408524461,14.330094991524087,20.713515671741234],[6.767304982303581,9.894706511385136,-19.095740968448556,2.597380277719318,-6.398566113810714,-1.220942078456844,-7.8947596577430454,-2.7000833201772383,1.8507570035523158,-16.118895040731797,4.177586074929235,4.888206363015482],[-0.7825606777092442,-18.597878126865115,-6.7757533866321396,-11.213186563722068,2.5597714208934454,9.50081007576186,16.873191249743954,-25.438626245890077,14.13883377029647,-7.949676627344757,4.718808126833941,-14.823967587257059],[14.081393694760898,13.147828328761483,8.179932793645943,3.8225959646577103,-9.075714635288687,11.14060287057358,21.75178396018601,1.0457008882376129,-17.80997104982623,-4.4857153039589654,6.812163260148771,-8.537181030590478],[26.527351408664963,7.424807175276684,-15.326119461938017,10.342180932493873,0.6772905991982621,-17.8214773526753,21.80280623060488,5.949779231847289,12.36919540735784,-34.49217661730323,-3.2884485214602486,-15.160207160669888],[-12.031097389998529,-15.009720408612392,-4.371942106570197,-22.67950167442639,-10.270244336056395,33.09623430552076,10.01215084342618,9.653027950006868,4.497717491719122,-1.5383284582215098,5.727990314446117,-12.859746494328904],[7.591081913299494,30.701468662607333,-1.8603347600798794,-6.073885221058617,32.39321630021954,27.928017077482533,-3.6839978315539774,-5.086578602761624,-2.5911681316244186,15.981538085331525,-21.316289576558002,-10.7002728007445],[-25.469691705962667,16.735390869977042,31.641698987673607,11.341950062507312,43.31159182598473,1.2692120940073262,2.4600739796839064,-14.808415814621004,4.631296990276213,6.181793310257631,-15.79790672830061,21.4001381671365],[-16.400063137078966,11.516587559596527,6.244823203113443,4.964938079161071,20.58869142979649,22.33139140657174,-7.610774008341306,-8.985823211279172,-0.8281722777352094,-5.26371047511224,-17.13331890977679,26.510486211198362],[1.1567280461207008,-0.41217668478186037,-29.565654385285416,30.742869440258392,3.5787387748578428,3.7897335861386625,-0.9250726215469032,15.287289231696374,-10.743220417309436,31.336988713658368,-0.4753878682704329,15.536559936775147],[23.960112038821958,34.72998553677944,-4.382278536081534,-25.906455162039187,-22.032658441330266,-12.442457760567573,-0.8829001871631871,1.2710595460982124,-11.991617182536833,-14.192409597731741,1.2267194158663008,26.174461591160693]],[[2.450102804836583,4.809637152482839,-20.3157301538409,-9.469501129472636,21.24768401426745,-3.1805775398058698,27.467287797971178,7.437988474752988,2.806150915071067,-23.015279087399914,-31.96322999223181,-0.5804336280888949,0.5845317490285227,-0.4744209102218157,7.907093383015541,-2.8164750034240065],[-5.993290602399283,-3.7141740748739718,16.68927087241805,-0.03518079562800125,-38.25811694301683,12.398764640858298,15.122809701709654,-0.40578696627423516,11.478428076141608,12.240216057883218,-7.331640529993048,-1.4698120815363502,-11.801659882569535,18.54633317612404,1.7002843507559258,21.68116383975982],[14.241030365084367,-28.978787317438876,8.252258753876987,-9.474770712521043,-26.542637975864654,13.89233632111885,11.552467106608404,1.6178408673980307,1.485756019527615,1.2377248404308594,-28.517383194860447,41.225611657921945,5.043606544417,-30.10770522326485,4.356440849689768,15.511848007457292],[8.105887524639465,8.260643542272625,21.895253179041173,6.1143999404191325,22.24258845715506,-15.932966450483207,-19.41329862661664,27.90515053418758,12.483697610943999,44.776995965261726,-24.36570954512664,6.36288767246527,7.517367420486063,-4.349910017895551,-6.654393115772201,0.10033534495104884],[-2.9408970560801753,5.600051034138395,-17.14956977627101,-4.772915221863141,13.963631042593903,-3.2192605798768494,-18.539430618534407,24.429135170952062,-19.977970551454426,-17.349477634501245,-16.18961604082102,-18.656594143328892,-4.178074706705753,8.18809148828355,0.7814118121965627,0.3609382460037161],[11.320806897759011,16.438165169602307,-13.852863509408813,31.95028634788504,10.396909849705194,10.680893723432204,-18.65375423868677,1.1191565165386577,-2.9752909498872993,-3.139185529385086,10.556961236689796,-5.942776777589072,13.504641813378855,-0.5576315719528521,-10.630975991373136,-14.12966045280886],[22.62078440272554,17.914693932777983,4.700607419236391,-11.665948158932133,23.891440853884554,-0.7407368142518156,-2.8286446276692,2.9222304316252785,7.214986851387883,11.691598934828479,10.302094360643826,36.08525852730228,7.959257815545342,14.037621261930225,-31.765652810664054,1.5235929234565067],[-29.73893654306384,-22.471701756493804,27.57602273743443,-19.13698199637937,7.326814733837908,13.894001925067508,-2.239623802122758,-17.127589109423532,11.605087927712354,-11.954601772799712,-15.64113414404904,-19.607080730576726,-23.987200760743335,-21.031341640759535,14.086834715925267,-14.53961558587849],[-21.611907624526722,-0.18872376360402296,5.032950806624487,-9.01037284275305,30.32484670879892,1.8186513565871394,-22.7183274761456,38.93295315018899,5.144108693482826,28.599580996867868,6.071807792418841,7.653830827752027,6.378929245133762,-16.26055404279208,-15.50623815159376,-11.37779635013464],[-4.759137159066016,-17.38285879760101,7.301830658892843,-10.69526295943219,23.90219007281989,-2.1174763613087304,-19.430509796319434,1.3582687515757832,-11.22472248878116,9.607014837194228,-3.460641680168991,1.636862350688437,22.540549489966118,0.8428260042758244,-17.028571805351852,-24.327844861196514]],[[-5.533477173767355,-0.33089255053455546,-16.279958356098266,-11.57449123337584,11.145478078208198,-20.662208806315558,9.108970851252844,34.60302669456304,14.987344164524517,-0.31920096373966034],[6.3485477190304085,-8.467798847825309,16.67967882343955,-14.914336253189523,-22.928002583499325,11.429234709154116,14.20798155453399,-5.249263461155719,-3.683417828695021,-7.231064886407301]]],"biases":[[-3.2312554574237753,0.4936977289701762,-2.254906340602541,5.040009685482005,7.324697320280615,-2.5849215899107256,-1.9494482913759386,-0.6751002649559406,-1.019274556899795,-1.2453907129456208,4.290526630065611,-9.347065201910205,2.892194058979245,-2.0701114984016473,-1.2765821748752442,5.382194615152525],[6.313767722541124,-4.380343215807435,5.487240963701027,-3.9238285745812456,3.810521982958249,0.5554004851178587,9.009054088280047,2.69398757086104,3.9883311163044572,-5.96207244437764],[0.3749272078376798,3.5831028374777247]],"_generation":57627,"_fitness":0}