{"layers":[12,16,10,2],"weights":[[[-3.2338570062256835,-12.077626025673766,23.687199334217507,-14.552911555716445,14.447790559057088,37.64576331893015,-29.503477374515967,-38.69522125061279,13.916006801538991,-5.874397323570238,26.52169743926008,-49.31229719683891],[-0.9976886616873986,-51.97993467814488,-23.900520391230728,-17.83611013310655,-47.27889095783511,-35.791462101460276,-34.67837666494774,-49.00543538042542,-5.72748253601992,-35.33235368350168,1.7094622004671063,7.343947328135249],[-2.09116566895746,-5.877014797836406,37.58586970195375,18.61006337611095,-67.80438348776956,16.010189910972244,1.0131743943665172,-3.099947008887338,-13.845144132501122,16.32751802702782,77.5145736507475,-4.333737657344055],[-1.9208459032206096,16.497239077577277,10.946856903197226,14.827944512580117,115.09954404884752,-15.471309391658266,-3.2874395309762527,-6.543866254309523,-15.156690842480819,-17.634709531829532,-19.34340222378591,-7.684430634316928],[-20.035727063464797,-18.273443540100267,-19.182608200842576,7.923304715716855,2.508710492907257,-39.40787127318013,-8.07485535887384,-12.348112668738226,-41.6025066377373,-10.207739396007332,-17.666513078815935,12.863202853053501],[22.715539472735536,2.186494645142572,-16.183274617299325,-39.96392016900593,-5.214440833011157,22.44567390696024,47.287088081046505,-11.187007231179841,17.639949171517472,52.92039796765469,-22.580257924826014,34.96158502966356],[-35.678995119282376,44.47150471745174,-11.418714577423083,34.63198674696054,-36.81438682567401,-15.991598258377746,-20.069172470055946,-0.12446987880927542,-34.93153825315381,-12.449750449032503,7.914574398735288,45.88711451552971],[4.051567818378176,-40.26420863324962,22.667683902011444,-16.528335555551912,-6.801239951395846,-1.6190341910240464,22.296949502322715,-45.36248859558433,-33.30874658489943,6.715650638285477,-12.121130487760357,29.756161080733243],[62.24042749762111,13.667731605908727,-1.1672521702311824,44.80173585937382,-21.22665471791983,10.845498427754238,10.205935344280624,-4.27095758966564,14.33828816152146,-15.128578896820283,8.263047895315163,29.155257763377694],[82.1490646214733,77.2527389252367,-83.33346599719846,-22.328043105803403,-49.77624062460206,-48.66207524257181,32.414377789632226,-21.02260280354928,35.87045313711852,-13.247421552520501,9.019521254826023,-67.35584502205077],[-25.33219857280739,-30.76770481151757,67.09469775364727,3.436066496311616,0.4511455458304354,65.52023764593079,0.21298669255495925,36.57736647962177,-1.775008104702629,-24.56129881213274,27.402640690613026,-32.68009930000601],[7.584348024006207,8.43966631034735,2.3428409355809774,-17.57186158283747,105.05833853072274,51.90053894996206,10.199005957120571,16.5154301544585,-19.90171938636979,18.316251285342847,-61.975996494237975,35.11406075903876],[-24.934195000825518,-67.57042850787941,-9.312242056803887,22.75869461509539,60.38013482520592,13.51383816930018,0.1755680809699421,-4.038407015285562,-11.005858424500415,12.482891163573349,-19.36954395363152,45.68363421586449],[15.33644503981071,9.099992356792177,-8.116203457891517,18.887237667807042,66.78974269477636,3.454931888757421,-7.400163621746961,-53.149439447256206,18.490944896272275,19.18723669289349,-52.174019284039325,77.31957784030314],[11.850690478992096,-33.96256245021257,10.988207436584647,52.17530373577204,10.45108252267934,62.768603080663006,-16.061758779554598,5.054782704497094,-79.97191745487247,28.020959888129482,32.49062831059127,47.44331834481683],[27.41779528642821,52.98746480319966,-16.703020544176336,-85.24008023755665,-56.793991533032894,-22.00387337314501,-31.628526784989926,-18.590829104610723,-31.445140702323773,45.33713757359992,1.0885693197578377,61.895187393376936]],[[12.536907498550413,6.461833884386999,-25.623335806510937,-1.6137263654149017,72.61338177582434,-11.897113346454372,-11.072433029321822,23.461337916802908,-10.2128735859813,-25.149162997771874,-31.4975625570504,26.174375729734844,7.892935109704816,44.28620063687767,-47.88612316500153,41.52815803361983],[-7.688514342553272,17.62775500926155,24.556394262716292,38.0135133242298,-6.997485751521225,5.895319245505065,-0.4442457429046607,-5.755227318419221,76.0485684440888,38.19984514079836,-20.107983464969138,5.1635048139517465,-72.675475429613,58.75716343776901,-1.9507981585595568,1.7450142864301614],[0.8791014924926956,-8.568116916580642,34.349355260540825,-36.62986802859696,-33.672704272838736,7.8539023258289955,4.574111458623273,-64.04594362343602,-28.727719635225416,46.129906207065574,-46.29345317662894,6.765434422971313,-7.1016992452912495,-11.794466759812801,-8.999440868722676,1.0290804512885763],[27.594379444108444,29.512697905195466,-8.565590024983095,20.79909630188214,3.976265288370642,-16.140589560103177,-38.83053662848109,9.60403707561402,-2.3258672884940723,19.392802539836417,-52.27273937700456,42.722665483710266,8.866578291682918,22.78401405466413,-4.6548131901864,44.63938422049197],[-3.552243217553756,0.7411926797934852,18.820924818290234,23.786185405641465,21.72165574006151,-1.9875484371419412,0.9924849292342214,28.904158122097293,-45.13526067194569,9.992504434973839,-33.87501071278331,30.221810647552623,-34.16771747513237,19.55936586354509,-0.6311879342131931,-25.574282618405313],[-22.096385557460557,40.52147839215264,3.3832389417209323,41.817780840015146,8.955886812644025,23.298643237487784,10.770693510404794,-23.87300908334225,21.704300593427725,-41.6476073432174,18.408258668057346,14.554209497316897,42.76103337081245,-48.80067524290905,-27.85948650390247,30.89717073878128],[18.23993473937843,7.160809530815609,0.2778476517393726,-40.160807408208434,31.405315060746897,-11.23682776369044,47.04949422768238,17.39758412200002,42.36026810736667,79.03713813615182,-12.314856207420366,10.448874422464726,-11.704930603855306,-39.01842720612367,-33.974350855258365,-6.853100988281261],[-14.464330355050917,-10.106713731199385,15.350231592344377,-72.21798772566795,17.829661738850238,0.10224754802753935,-3.581175970551181,14.215980584781079,17.656525942928766,9.138782156924082,-18.10907308907323,-35.01948361763136,-24.63197961165868,-16.30033735505319,21.103065480372674,-31.294162438002154],[-16.939392833098772,12.006854940200421,-20.00820894027869,-45.45729598930512,-16.860542103139874,-24.87256221960572,-41.375596138258956,45.958991093941066,28.87276337773882,15.259945598069548,-20.490168446475625,43.0622931717456,-30.86776214498325,8.3581510573457,-6.211825581400585,12.664533865929728],[-8.666600287149906,-63.7462718618224,10.854637749979442,50.64269178397367,4.574362005390911,-55.08604406189008,19.57478822894608,-2.5464466309288465,-26.563872449979844,41.74922791928306,21.25207607095397,-5.293274531557648,-26.370662408037354,25.77038790113065,-49.08904321031451,-8.299761376276605]],[[-6.116196986491408,-3.691715749084462,-7.69257919463793,-22.831217447796988,-19.378700394277896,-7.460135783428856,-20.182228371872267,48.24774992707093,42.62624737620411,-5.167079313430025],[59.936576834011724,-25.534457137671303,32.49025420798722,13.30549742644458,-23.776806136486126,28.406396024697802,-51.00960215506851,-44.970452405729674,22.344147334211957,-58.44407524702119]]],"biases":[[11.214952078714987,20.182293271637917,10.95447624099838,11.484985426789857,11.353122812273444,-0.6407481314660569,-6.602423324663618,-0.5895835649380095,-15.212577826974941,2.5469324401825966,-1.1533857659747169,-10.802276052142421,11.745257669921964,6.205057511328751,16.31603868302367,12.790321661941848],[11.637954840086998,1.3713946986195025,18.92162013225926,-9.205503751138224,-8.737124244723653,3.7201526091171475,7.932639793861122,13.283998486588725,9.505465691285574,-0.42435910775221397],[13.02392370524554,-2.9704163400263104]],"_generation":246627,"_fitness":0}