{"layers":[12,16,10,2],"weights":[[[23.236383261831627,9.674853191515238,84.24774591273898,-0.337647724686121,38.53214380577743,52.9325882670489,-76.66470404645074,-53.85027316529139,-34.19109386934331,-6.6322791471309985,6.442014443266864,-52.93569630119068],[-41.39511095649953,-38.23314606242779,-53.96018654303578,16.504578805389617,-29.963473338070294,-43.24055035200656,-57.76940045823524,-77.51021133982817,29.42478613401188,-27.68616888939681,-81.58331403407188,-60.208909113620464],[-17.91976432269636,-26.471952154835186,28.855337120108512,-32.69242976630072,-51.16248902680413,83.00593746093878,-19.42299216013496,-23.109301726829223,33.118788352253816,-2.043087774664599,88.72590096246932,45.988981343248575],[-34.55545687344572,7.937412516595943,-29.15422038377137,63.2428656649903,175.87913745156644,-115.93019714538288,34.790967097040536,32.44812942649552,-24.322187283962784,-13.633617526244555,-10.190965607180242,43.305443109420324],[28.77052946981674,-28.749775518596437,-3.9920175367958657,10.064061316432806,68.33219214482462,-18.64758424582969,36.22634340146076,-38.19330983618668,6.072394395781268,22.44682607766735,-15.037584348780738,5.12288350121159],[38.45690995240305,5.476478695907874,-48.300941821883164,-72.96339002262435,27.114689916889976,-24.882362796855276,1.846956198514345,-9.102189826756208,91.02571645931788,48.1216022881843,0.6772469926119478,11.84781485401749],[-49.012693305805875,10.615347155026885,-18.055175323185196,45.03255331966694,-75.04552776863139,-13.152588001846661,-49.443162329300435,7.527408721885163,-51.32700515932652,9.102447728568883,-3.0828592001759993,54.939569941464754],[1.1720295897452089,-21.834062252033576,-6.141131784416734,-36.89414367039749,37.28615384796547,-20.334360087267903,17.361491181096646,-22.888773984799492,-45.785884044804064,70.40703228664664,-41.42605409852858,105.55096914017611],[15.395156876881,1.604345589390856,-8.803019421833023,47.95172152878827,-39.66942094803997,78.21408604026604,30.00205324054845,36.14603759575626,-0.6419823146593377,-7.548879580827201,-4.064227610893877,8.272444452329959],[71.95385236306558,102.5532306855461,-89.10336808119438,-4.963855434611077,-62.62527563837501,0.07090368131955735,35.55156278933765,8.521045686025392,15.264098665803319,42.15542004576684,-11.299570432613374,-57.08476095638279],[-41.519959314442595,42.180091032397904,50.94116149910434,30.330874593249394,11.778379991143193,63.94240477406122,6.893643971285521,16.28690992052894,5.9235523363754865,-25.70152267610128,45.78849746923955,-43.140070241130346],[58.281809195288375,-31.419510406217466,23.966908433864116,-48.64153773721511,125.01521864315998,69.44635242724185,3.2628313328222416,-3.121438813260504,-8.153117314902476,-13.416859516584175,-10.40967251472107,59.382875286294606],[-81.64649175438818,-25.742921228887425,0.26152323053056586,-25.3203963953976,46.22354049061473,18.905845267436238,30.48452905862072,6.322124642183825,-10.461338050891,-89.51455096103538,-13.44565710384617,28.896199297326056],[22.32910845089391,-88.78407046041727,-10.180977324097803,14.886209831133952,70.86359057113731,-16.284076405514867,-51.2710709775703,-106.52390849152073,41.44254808511445,29.19675002814463,-1.4984603693502732,48.53799767513021],[-4.210340030373325,-29.928892831107895,-52.50599353977936,128.40513797458843,57.38216364129903,37.20729345130295,-5.296483262875648,16.786316995238856,-87.7382176804378,71.07354234369461,71.19026748937489,52.41308423008562],[18.780533858829134,61.123140164916514,-64.19694946357117,-130.27075068846125,-43.67108906830482,-16.5548469741995,-17.501391924603162,-59.942729602185814,-76.09782756414926,-14.33460811795453,34.80876585419271,82.33162107718154]],[[-8.724562056516055,60.05370819856986,-24.644878531946247,-52.19983432024718,86.86995566632909,-20.71615692692623,-40.174072199816194,-25.536824685357168,-46.75934639237287,-63.477259180569824,-71.70721256258764,36.351378940352724,3.2306954404831276,69.26019074668214,-58.253839035885925,58.51759594662467],[13.820729217447512,-43.378277197245055,3.289787711398911,53.637334164868385,1.0153193491974417,-31.00942599967233,14.364452612093336,-11.76100941149976,84.31551154126136,52.286327325283736,-31.275317589701068,-7.717941130480252,-83.95170538796096,18.739921361552643,-17.95101158408174,-4.213421025763337],[-68.4662908630105,-30.06145758245084,17.300524087425746,-57.61567796723978,-84.84254107222874,52.9011483554647,-44.01055464036566,0.8518691850920711,42.86186384768214,91.24643312598405,-21.52185215871966,16.638610320589397,-1.2040521028994537,-10.034501225053697,-24.88115781288952,49.8718622848444],[67.20908587258555,-23.609276774196534,-4.9826495473845025,-6.9804207111725605,56.16449554350069,-55.799744048549655,-45.8991097825371,29.664087758022887,-19.927242440857032,71.34278654173464,28.150078061879828,32.61573161579475,18.87335572089008,20.061834550866273,-40.799248030957045,35.8674432289538],[-0.09873422862923129,-5.094436394135427,-99.6925868090971,9.031351821008627,-8.695243354760528,9.952430513233626,-28.120181004690814,55.17725494775785,-45.56882686145866,45.273089220281264,25.8860602724606,27.19553426606426,-48.638708366039204,11.027183212427095,15.64063099510239,58.80792315884049],[-77.53620125498611,15.91980079831344,-19.45211892252548,57.458688234076604,76.28838870776246,48.71023060962708,-21.0951689024454,-36.722467699467906,-17.71731514615522,-78.5783141867918,-48.05609497488627,16.444495957421307,8.170260926890688,-40.956095585831655,36.05668067678631,16.43279544270351],[-58.21236243439278,15.104240829179062,20.18720219640018,8.628913323290616,92.93259978617552,-39.79829794061272,41.05805463784768,3.224656548790912,4.80034441783244,68.33855954909548,-22.148519469875165,-23.64645480964797,-90.92990635849954,-26.31594785553874,26.73161004868366,-43.182229641321065],[-45.35495501711809,-8.508118239590313,36.42136311891005,-74.07986310896808,-23.65261759059182,-14.666234181737728,59.46177495663003,-15.523380940213901,47.09195149226908,47.285526358020476,-40.888890848918635,-24.530599872113225,-60.165486183311465,-12.406621162395817,71.47132543633077,-5.925288599585313],[72.8068202052597,36.72642282433936,-21.266757460171274,-64.86951986914232,-29.902272210892722,-20.367959393732253,-90.32094074093503,88.40795274257933,10.899538329264674,-10.91626343907072,-104.02528650581631,66.92057864192486,-46.399011296117564,-75.4791490464432,0.002044232107944726,-30.15376396182821],[-72.99347495123523,-75.61212445569221,68.35406406843508,-14.291204585280417,27.252617174217125,-18.87972189046993,24.492705642266618,-2.2262957258656493,-12.321673233454263,63.12483014799137,4.4413178145336065,45.7406639875495,0.5523378521465727,-73.83146802213751,-76.71226477011658,5.141629932821504]],[[7.03380740779195,-31.848569434341442,-45.72418217575357,-32.33051406009926,-46.796700440187806,-30.772532422952168,-33.547688224526034,99.15123641796646,83.17254139438971,-12.27867876696469],[11.021747565184906,-47.406448751128856,49.04445237658536,-1.0419672842394203,-36.77661333163205,42.9029156279552,-70.80313430009781,-70.96559077736485,-42.69834530205072,-83.53340950363196]]],"biases":[[21.628037907597783,21.740676227116637,23.80966832383456,22.88125462816789,12.53018708499262,4.964823337751568,-20.92348736494776,-8.047154295422496,-14.64488601288439,-3.2943675306041067,22.791566586425535,-16.603370423535555,20.44118086277593,7.218451338846477,26.37205685417097,18.563054537522696],[16.076437413449582,2.702923398298484,24.863311061765152,-4.103654110184299,-6.492286864900949,10.215922427684703,10.885901848223579,17.432141459473833,7.955937939821688,7.252693570582311],[-0.7212934753098617,-5.210758757416164]],"_generation":536627,"_fitness":0}