{"layers":[12,16,10,2],"weights":[[[31.79762027509978,11.005621229991977,85.27791577275997,-20.640621653069932,35.122469134203655,28.84328632918588,-80.70095730955529,-76.11211864395018,-26.139331540372705,-26.33352344267062,0.3371065647839041,-44.86937004236889],[-32.94079010252923,-38.04074337511185,-48.57233194670577,-7.099207644274959,-43.454960672517615,-37.60272456850116,-63.70992489444748,-76.35578859694563,50.59334498086456,-6.086948386041922,-84.16562649463447,-33.34662460021542],[-3.0068179954988876,-9.665852846178497,21.94649151287325,-16.895456416633483,-39.61403694659167,75.10968826692896,-24.34500643728571,0.6392045529402614,36.606213740681746,15.613997245817837,68.10207834554829,37.06148676617913],[-13.67948268798745,13.226452097502818,-25.933188915975503,60.61426033996476,147.55112740137633,-106.03807457321977,2.6634875722841063,29.811818432426726,-13.609216937864945,-7.7822219955199925,-6.8739119980317485,48.98182948954734],[-6.325559965839737,-23.731607443535367,-25.343842830908176,8.578940232081301,68.77715560357015,-15.631710167468281,49.31473057606351,-9.834503055053009,1.4018984555800607,21.13945885380784,-37.77933839278899,-12.778681148108227],[19.548843209729622,-7.933414899411787,-54.59573520221816,-85.08371915109967,36.48166716791234,-21.66627393621264,34.521974654597024,19.93206201430047,99.3705329451068,47.7594172181166,23.849453540639683,28.66448513846786],[-60.65943813717243,2.8156775468931925,8.781212078453725,26.88681259263955,-32.59958603734751,-7.728443711397837,-44.319574840300625,22.499741229293527,-28.872234516541443,-10.329615742145725,-18.390038640021213,25.059471990162265],[-7.1715843787374896,-59.86051885957019,15.001118081829505,-53.27812506386577,39.99532185078542,7.293024963161691,31.062774002979186,-47.97517032679999,-50.244444045460355,81.45767216437704,-62.53734432557745,58.639500352867465],[35.62220325388156,22.113083273976425,-28.93725256748494,85.25360005522717,-26.208453798959336,49.11132819579247,5.019260415713782,24.098077172093728,7.295691943503705,-43.80900442968721,-26.598044932570946,10.35217360646432],[76.83501695037003,113.82760728627197,-89.8314126039636,-3.4035431884195604,-37.21033852281057,-10.802360153803974,24.564375721891675,20.604864457092695,26.402155808013358,11.486601085220633,-11.320859537288637,-34.72499917108658],[-30.132968072400104,18.61787519751367,52.933406217805924,63.816532049108304,14.389783323991288,40.07905937180517,6.084403262631,-0.9781927156110908,-25.06952414787051,-50.39635279486665,59.10453121709919,-59.642848347522396],[64.65910296527348,-0.7426342687349893,31.59224031692392,-27.38836178067882,104.26733189582625,50.29861094326725,10.127491361377931,15.856149794036819,5.2803414959565025,-32.23351348851174,-30.039411800777085,47.10947159094919],[-78.7351101508333,-49.85638548139096,-18.10640369995925,-1.0819058529581487,64.51025186426888,-3.8042963482540135,35.98804846153629,7.960097764304233,-7.882100454459992,-88.33734621845416,-25.546861889142598,17.25245403156331],[33.29441824837468,-50.756880555356965,-39.91147905753037,40.71631096716933,81.91321360313079,32.62567025859524,-41.61706314760093,-67.46950567703917,28.739553611370035,46.13924454112793,-3.173451291861096,70.24818702840142],[9.28028010186821,-4.370467164549423,-40.68744316928791,107.75432818965943,35.520275791250626,57.274227598041186,-26.864894896985543,42.69006385553514,-103.10356816637409,62.60502758192173,68.13073390212766,41.36525363801835],[19.98205769447633,46.03720378757278,-59.3014787500444,-142.83723561861993,-66.04440094299466,-14.473757041402482,-10.368326545329431,-51.594543907214884,-53.613711161555,-57.9304719676195,34.70472085894878,102.7821577305605]],[[4.942735400442672,60.431622035016375,-5.059729005101907,-32.46593018057376,70.97176216695242,-35.92958729948783,-47.29294796419137,9.756538415986682,-46.599619898223665,-41.34408578221718,-52.778177906280035,30.484772605301558,27.732764936699144,47.368196313701155,-61.1257807766541,58.43785172142241],[29.237332467574067,-34.48050512573418,11.047275697343204,28.803992239340957,2.488250903711796,-18.326451953439545,28.43154750298744,-10.440857211190913,77.80651403918048,37.222691965282195,3.5301703709179293,11.28488601089163,-49.128755551921735,35.150968004314024,-8.745623870334608,-5.28859261445025],[-53.56564850421405,-33.87362257810103,26.118287624833528,-76.82231868965881,-80.49010627029814,18.252242260759594,-57.38076791742508,-27.438132506200223,22.582220089074557,95.24389824046592,-24.80414152207877,17.021496085866005,-11.497058122413872,-19.790301985708137,-16.238837568668416,43.70371558915617],[51.661284224631856,-18.741606206998743,-14.469348380712582,-11.329068987087838,36.89382917619061,-29.508162279087152,-43.762606193062325,10.820452967094049,-46.72332986244808,58.542338741797195,-4.017900426711645,29.4436441422947,-9.941169494692645,25.59393146220887,4.598003183752607,15.777965510684943],[-27.364601383893874,-22.008715781456008,-80.68094976340797,30.572604873763137,-13.21498864009668,47.061546915381406,-10.658995431528044,40.746280106007454,-57.46526021975892,44.909659761054236,13.955503035991757,68.97724744327927,-48.628089116104206,14.85829967274281,5.235730158389752,-10.620591760693314],[-56.67607490009482,18.62150626696772,-39.53216659367209,59.924843568799076,47.5675475647918,43.91158116832432,-18.762219204849693,-28.189283663165856,-27.982823622787823,-72.95523797566574,-48.33630934798639,4.002126097833361,26.40594049623338,-8.109952171451301,32.35451403472715,11.35926553341867],[-35.456715893481054,-7.261624182776419,21.41822586491906,10.89992219038916,71.46254841258938,-25.12569141243058,57.5120789097583,-21.885587162681478,8.946932979941613,52.31630792365383,-29.996572995536734,-41.30482758166105,-67.66145329465309,-21.836156509318503,28.1591993023417,-43.39954001142897],[-14.629207328227299,-31.325321982772813,40.951983714412464,-108.40829646108944,-39.97446827846146,18.396408745512705,41.916008686018436,11.183727648792594,32.72426868284164,60.894111530171145,-40.152820460408975,-32.31793903605036,-45.24496583002729,8.839881770232427,67.58801100929291,-1.3630862353103983],[40.727685030461515,23.701421804050355,13.350734613721949,-59.00256955192148,-40.648396362803396,-52.53037317104954,-76.4372829096131,100.60910173973365,19.809969463448002,8.031306970561426,-82.63287896575142,58.38533047090427,-32.42379932363528,-55.10756249512946,-6.829838373983751,-30.70984619220468],[-64.26747799057144,-70.41278437619005,38.469793032348704,39.23056741679656,40.94633877394527,-54.73666455400485,29.92974240837204,-30.206219672417337,6.57420295194809,93.50770147870189,17.763760585060524,42.52711348485424,9.820811216009234,-40.18122408792199,-59.48711407993043,-4.6724719710003635]],[[24.81808872774579,-2.7833393810750553,-34.89823090662545,-23.08525831769871,-55.58506406232017,-1.0158809637335908,-41.85847245721996,80.92120195012056,98.49366006030026,-31.53110915592888],[14.785043344521487,-36.668600799743494,46.820984700737995,-24.3082641569101,-30.0594318578854,30.147926028755244,-53.091390010423986,-53.00784187341151,-24.167055563112648,-63.251559684113246]]],"biases":[[16.5130370175188,21.490443806891587,24.382484253699808,21.9082793069874,3.372079134580337,6.355368431118308,-19.091562293006852,-16.095230597798665,-10.419636801337662,-3.1002912995554537,15.615164116183863,-11.054381533007232,19.912797077718807,0.013896479188053118,27.552434843127067,15.327686457949778],[19.362752805304698,-1.2350573363981785,29.94960379081469,-3.270119517581435,-3.1512300314691064,9.44199448105625,17.43735245836871,19.07645267300196,3.34812561117514,5.308857356190875],[-5.761739721155709,-11.084455417789835]],"_generation":466627,"_fitness":0}