{"layers":[12,16,10,2],"weights":[[[28.67872104346856,8.360555558057694,88.81129331291795,-12.124215566530035,39.052543009111076,26.029767474933973,-83.5333303003744,-76.99180441089364,-23.899146448957257,-29.414094803215622,3.5616551788199895,-39.20960604883608],[-40.77886863180061,-37.59102185949956,-40.111920462092804,-5.29958808591174,-47.64348584463334,-30.927557890303607,-56.19387056472116,-74.6872749894674,46.45842182120207,-2.332534978512523,-84.92402335285722,-38.84648345191203],[-1.6165984558518542,-4.32853480933186,34.912071571689815,-21.84814431529127,-40.624283313169265,72.45520373139841,-24.143440890538418,2.2103678620367195,32.59297036390272,14.772573162165349,66.48279040316339,40.59373068540969],[-8.14150560943448,10.974675270138846,-26.835151499019453,48.13159885199185,145.23157363373062,-109.44144661702398,5.44915965548454,32.529499195957534,-21.412701010262065,-11.476298439569671,-5.508612786370594,49.40725012563189],[-7.511615542546056,-24.044210916103992,-17.599957587961146,20.893656538407527,72.21645978342148,-27.172211396882417,51.7811485243976,-14.900756395879483,-1.637365360659846,25.461385201810607,-40.83480221558161,-14.100291617359833],[17.530118366759485,4.141070270643407,-44.33440538243501,-89.46621183449092,34.50414792436072,-26.33984305950315,31.234462277458423,28.754531608781036,101.18400401602925,48.2684361282329,13.748721367617009,23.68407979741466],[-66.21080816803835,-0.14826306717309654,3.265332684281363,40.20545270486643,-30.834864120118812,-18.774200736259395,-49.95203466143826,21.103675035793064,-36.35071151012583,-2.004613941185246,-19.998498497466397,16.93104759656512],[0.9942360972250932,-63.76391594484238,13.316262136411385,-55.95147325127584,39.89262719776921,5.892296621021678,19.710931227509544,-49.44796327214159,-46.417088847843246,76.53007651916442,-55.46152786005435,60.768792353712584],[31.427088515685366,25.941229886849843,-35.697510810366325,88.0206657339267,-26.903045290016312,59.05260569879431,15.374571015736425,25.90106796120353,7.749010642477314,-38.118048511101776,-21.10522412889508,7.8133055197611005],[78.53718035372358,106.91629239775637,-97.18970469987475,-2.592580578898364,-40.98307506907726,-9.289391744574532,28.347047934566707,21.372844097391564,18.852818610171784,13.241069568358004,-15.134427653377319,-39.563220233244955],[-33.595698024877,26.539596851958898,50.58128707994052,59.44666620932628,14.548371388725062,36.158492250735925,13.375912497948123,-1.6868008624976867,-15.992031529003949,-50.39757250493855,57.95253058396736,-58.751733727951496],[64.24048455811177,2.057544064360811,35.04815691713239,-24.376723831142563,107.35791917307404,46.906390750543494,4.980068268639742,24.583100785904115,1.0215255270520884,-25.700118363979364,-36.9620079797753,48.615956232736096],[-81.6847261656021,-52.36950584990933,-12.74911994569869,-0.5735645891023995,62.91434764704612,-0.7341155716644171,37.69536504988802,8.7206564024447,1.776897032743714,-94.65618496861312,-24.157346001478132,19.363277923239924],[33.100116208026684,-51.86504058301318,-35.97150178409418,40.4316374088656,86.31986299718331,24.84288173082058,-38.57237189386004,-73.82430872371864,31.88260556156641,45.9483194320296,-1.7903035067274322,62.1365051370179],[2.9898316314806523,-8.64717792169109,-40.8589687517952,112.22385681494346,36.1739724597483,56.23335095401696,-30.126520261428748,34.60021965770452,-106.00257446358144,57.70423520150616,71.62614511853123,35.55806235794866],[21.34056494319151,43.85586423628837,-63.46998249547243,-147.07096679792008,-58.90558318873432,-9.021753826209338,-17.1168772384709,-51.058630841241964,-60.34104619731974,-57.030273113857405,37.45790889155606,95.17298765994316]],[[7.239553852408663,65.2993167559344,-15.299111392961457,-33.95694293569496,64.75761450926205,-35.10756298571466,-37.63705926893933,6.67361801198929,-43.20153509854085,-37.186628422283526,-53.61656907933261,33.95218532571621,29.27156681709189,54.94025213708475,-63.371861721464306,62.22292254945898],[20.59520573341639,-34.63430112772671,14.389987857235953,21.87075203464408,0.12388713483697178,-26.81057954813332,36.38216603102209,-9.436528374259915,84.93998714849096,38.47786963081073,-4.541319930141258,20.538058965282026,-50.62883186430537,33.63987940390824,-12.288193438025903,-3.2400338424439052],[-62.54295136227883,-40.510467082048514,21.455744563281986,-83.42677354499081,-85.98820897883752,15.763042716901934,-54.680331385998386,-32.218419495447606,25.031935583692043,92.09604674652056,-19.510829367940925,20.08973646184211,-14.250210304856633,-13.56398117544488,-14.94675326216837,44.573259473097366],[48.23853810032724,-23.660878596002362,0.4564913871065358,-7.519705128507779,38.41486590200058,-34.16314238820025,-51.74468505233141,19.20457257657191,-44.41428735571214,57.13728974916429,4.869861546829719,34.72247865356898,-4.978415485836764,21.07362630976691,-2.0566677762184518,14.691802076818155],[-31.11150173720113,-17.750757450101638,-83.80452955350965,26.739749410360737,-9.601255752703072,47.115012288008415,-10.478022911070958,31.556070720929316,-52.65865685434109,46.140691835620196,21.773244919394195,62.938757868731386,-53.52233401183347,15.543814640872473,14.623333720056351,-6.462235512168883],[-58.689241818421614,16.90261177425187,-40.57158300747915,57.24990345073139,53.41263799009467,41.71858247458573,-16.548663844344052,-28.998024158580336,-22.812143326261076,-84.55231361954141,-46.11170069389999,10.960692745553628,14.508524782276448,-7.498380328867343,32.062674069283034,7.860589491102172],[-22.357120590868618,-3.755873995077167,21.01667056701531,13.448765901151193,76.89303886639522,-31.908860357828733,54.892745352002024,-19.852776207111923,6.827421627688318,55.372662429093374,-31.7049642754649,-44.75271724373475,-63.062174746024596,-24.04591273152417,26.537909560902026,-34.17734410903795],[-18.482810991352224,-25.968267982388987,34.148838112214136,-100.79373373687427,-29.551950057412917,12.661573906392501,41.19823453761127,13.589612185752395,34.58239649526285,55.81867014229446,-41.80024909960901,-32.399057734285236,-50.61076320355636,1.529682215344047,71.23869783576981,2.1692258826030413],[52.54664594252355,25.677828404998902,8.053841611734715,-60.06405085728994,-29.257350718569924,-50.372723588903405,-76.8736348758931,103.18724163124473,13.14373485767135,2.2756364940497216,-92.81540949147352,60.23861001313949,-29.37426765799759,-56.229217452920054,-4.4701469159313545,-26.876550714275766],[-69.88332201339657,-81.57346119755245,41.49615514976705,32.43999296081872,45.25894312809372,-42.85022087148915,27.216330627128112,-25.80131621859475,12.37101504469249,93.32195012985378,11.373504381857186,37.89827375529109,-1.1580294491130176,-39.352158275530925,-66.98007359631029,4.200447009619514]],[[28.27122866809341,-13.783287241140506,-37.2090448304012,-30.98532970480467,-52.31256316656781,-6.168680545874722,-39.47488740195291,84.81448059593649,91.90316963883605,-32.8413742965908],[17.508979565809682,-36.722540098896694,50.04834089409025,-18.728621431095107,-27.42486167801007,35.23755547468099,-58.56804389046686,-57.43120020000015,-32.153040841409194,-61.25253463497716]]],"biases":[[16.630245720880286,21.973663447381355,24.62993799918517,24.017738957602294,6.632973081541393,6.360022795526696,-21.406177299074663,-17.88430077766136,-10.491270056140735,-2.1868623121647772,16.354372848222763,-9.082179614371942,18.439120755042413,0.559460713781052,30.27912036688471,15.417531490175172],[18.246443764538927,0.8254805532330469,30.93595385810588,-4.410120395318794,-3.6908711726552714,9.315692742437747,18.97501339103093,18.88537623508425,2.5243274519592127,4.981888878035419],[-7.104088620110623,-9.553007527737721]],"_generation":471627,"_fitness":0}