{"layers":[12,16,10,2],"weights":[[[37.9771914602791,-13.190463171999593,77.13963828320985,-32.89329974505238,28.249372938148372,100.71341593330932,-133.65087437290595,-68.4891025958923,-39.38382579988868,-31.218490387457514,32.33894744682802,-107.24385650617074],[-9.993085365532261,-76.0730420966488,-113.59254011704711,22.22336522938764,-11.408558277695326,-30.4443066736993,-38.82804585991207,-84.87201451703483,93.72533789605534,-75.24729100041132,-55.11300683756068,-75.82245863109505],[-14.14715460738867,-1.3120964451590162,30.098152902921846,-55.947308180339114,-59.643073873168575,106.24446097616138,-57.813479346865826,-36.81766411238482,3.4666357962939682,30.572805820833015,96.02559037093766,93.21367835493636],[-56.92214728252732,-3.729257592507102,-21.1224282359024,39.15087260771508,171.16874771235052,-79.46300090859768,-22.289279054329864,33.739322193736136,-9.898634325174791,-22.39178939745087,10.860925945635218,43.43570883378628],[25.98437663906988,-25.45091002037419,-17.099441843050794,-12.684955577946031,82.81317725184532,-6.676682686711936,58.77929264638839,-23.66219355757048,36.04424947228673,24.913368825408867,-13.293760858414963,66.61000935994132],[84.32210794705182,-21.225606013594785,-78.59404363240098,-57.82549717550663,66.08500392211604,-52.500373887727754,-9.384142086714647,-1.896614875859233,100.65242921599763,22.73410064138859,-28.842343585690678,-18.968091215845295],[-60.24447741946587,53.353562485254834,66.78131115706833,-47.11795168925027,-74.33266288607034,-52.613303148646196,-81.98473226371583,-20.128370885346584,-79.86207637735407,45.06666758031842,-21.29847175727629,21.762330477668442],[12.617068787182781,-24.033388138106325,38.00825124531118,-38.28084495447665,56.5808854714272,-10.53310143212919,-13.47604847264717,-10.096052280750921,-59.21206986981921,108.58521513278652,-26.916271085875962,124.73794734684358],[-16.99300365161689,-3.519899888754456,-43.26570563135429,61.91486096315785,-42.68427636943369,85.97997251702108,4.0141224403757665,86.49371970821534,13.157588885501475,-13.681551983228168,-6.348911846026816,-6.421675955699396],[89.91557320455138,93.85607776418013,-128.36346490440218,-58.060713927237714,-52.56287948952192,1.8429078719845688,38.747805176783054,24.302184533679284,-5.240301215036269,17.660200898372242,-19.637127944113423,-61.95197989810626],[-44.84737393218862,37.09446069876623,58.12643586968229,15.930137933021848,29.572090184243578,47.22297429488452,49.366921499909836,35.51919229483931,12.316897770350714,-22.01178834172249,15.05348994157273,-8.233988469139428],[14.126355231539655,-57.40181523764787,77.55914116869114,-47.73573271818513,58.54657072600213,60.0064442474368,-40.18289085333759,24.1923871579838,23.489594587413414,-39.18522952503027,-4.202992495732721,81.37769439296285],[-75.04775102996766,-33.175226428979535,21.325261027857703,-51.73250168150677,18.15559366039664,-3.161686779145315,50.62676852678478,1.3410408595562902,34.86194163268845,-108.13595227072966,6.383590720728845,26.416889975453458],[28.804453908417894,-84.12987435623256,21.895867188568882,79.5081270455198,47.68470805160854,-49.22723231276521,-40.559801236240375,-117.70067132687274,41.317995846702075,35.3389012380717,18.52092041483083,96.13466492462287],[0.9839451172874216,-56.57219901391551,-0.9294141863531928,113.45148144366993,27.759803269361587,57.009453116857216,-9.436079427848927,22.296594035136657,-109.76928584149486,114.59396727450833,108.93861778883421,3.899561104017153],[53.00273906502562,57.58999314228391,-98.64475888344663,-146.2514575178445,-24.886504744673488,-1.5598548704407338,-29.39473530984557,-92.85892571426903,-100.64265829336148,-45.38794430720765,19.59196819178537,112.31286380973998]],[[-4.421572642810653,54.996500474217314,-17.81985678544904,-56.9426164812498,95.78125429274571,-41.08256295848534,-6.446560237531597,-9.63248043979972,6.173166529137491,-59.40500997642042,-90.60085391234826,-7.197445115751968,6.001758354030306,42.912284643444295,-62.95806868355622,18.135848551748914],[13.50533505402072,-68.5364987783814,5.483369949737598,28.14752821525177,-32.989617947228616,-47.16356201812392,77.90837692048756,7.090110356295231,39.78823343480766,59.5206703510912,-20.47870608695962,21.938226855315733,-96.73922478702144,7.181732106181235,-19.969130316917287,21.68576265032748],[-92.75739733707499,-39.64568447737935,8.919503572726255,-62.24674246200586,-53.615454488623286,50.95228416136858,-75.65633269883485,-3.502033447905716,83.35951798944345,115.15834971167902,-25.739738868604395,17.53297227367903,-31.75439765268197,-49.90313971472522,-32.488976251385054,12.756497864488272],[72.4138893468624,30.1039938837536,19.959232585418167,10.710685682487641,41.61515707075336,-52.043829821615,-57.70504334981996,22.043390063890747,-6.272114417855265,72.95981590146701,-13.783076406229583,52.46275127455504,29.960984580305325,-3.5192789708122114,-65.54439365095654,12.496636971195473],[-1.4685604135113983,-30.973279367255678,-95.67120229398347,15.743934438669067,8.187444307747496,-14.834115339899098,0.3375320470321147,18.544810113181548,-62.243285320469404,60.36381537262935,44.94285545477749,21.365671882527376,-60.76421757368703,-10.53623520803097,23.022394310069284,45.107574418822246],[-123.50541836244454,0.026324555173417932,-27.20779262017391,65.12950225410475,104.20787690157952,17.25501944455194,-3.4293861554839733,7.367875910968629,-58.355213989095645,-41.2413771689096,-45.19298161022147,-2.9303641572415184,38.85491209385983,-39.577919569049946,25.73205709610677,-8.206476714899239],[-114.51329210789946,45.72504876825659,3.117396709474565,36.08512364877584,156.61095225259558,-73.11093105068473,40.92090976134726,11.844950922028156,-40.64020512754726,44.57407679211626,-34.777890979081334,-39.73449231339474,-98.3143535729787,-44.755668482510984,-47.30659824839448,-37.12676197514815],[-61.26006542681724,10.750434099205583,64.75026718263699,-102.90483999684496,-29.21500907536479,-27.76405716773088,102.92333432101196,-48.6554191183015,68.62617247126657,7.326356808563417,-46.07571178772427,-28.286233786178478,-65.06190031349067,0.17109081148414984,56.60505924435112,30.39573827061528],[52.56380878685231,1.5803350529707405,9.796489757032306,-60.74352775940304,-19.486080989827325,-0.4189794164090454,-79.3136325463343,136.45181530957757,-6.5425545157140865,6.878764385750789,-152.0432093051081,147.89108980057392,-45.62203015938375,-111.51636069835749,-69.52217837438344,-41.6370452650888],[-102.5967877897219,-57.257645938322106,115.43348891972623,-12.809301107508292,35.36998790842053,14.682801035568298,23.88066380404442,0.6038962374711551,-76.60118877251014,52.73773850349772,-36.21023992416486,112.39538390771416,34.695254131010856,-52.80824069262961,-105.95149631183105,7.069308540634497]],[[30.15934617985906,-48.60889982238117,-37.168340774048076,-71.66352738371025,-69.37546166064973,-44.91685820343444,-37.08542923122189,94.91011343530899,47.750585909842606,-46.85383321306582],[27.37437767567024,-67.94680917024748,51.44400686407563,-5.52788037972789,-43.586118291992726,34.72168615582503,-91.54752347562116,-39.75824361459555,-118.79717139392791,-62.694715059396074]]],"biases":[[7.941971168997091,46.25775222319639,31.834760966817356,19.673897612816234,26.124940150774115,6.83721590702009,-17.568376858792224,-15.227854579362694,-7.848528661274413,4.363264034707852,24.048506254185284,-8.281595220640405,14.208634446751741,-1.8168351128562885,28.000241520225895,11.816272769532777],[29.92903911870174,-14.553878081680683,36.50967953968869,-8.95032061799789,-11.102428957361997,-2.4641891205424806,8.467230228230006,2.856547978935686,14.799501983415738,2.633426901052852],[6.461356048966221,-10.342373435620155]],"_generation":711627,"_fitness":0}