{"layers":[12,16,10,2],"weights":[[[-18.232803445128006,-15.859132354961549,45.916695061842724,-43.558495341446935,15.291482183446156,9.923035117538097,-20.856770489228637,-10.08188787996906,-14.093422874471543,0.7741712631532651,22.26815970180425,-28.629903152194334],[-38.25587590369204,-64.77103823022306,-29.012342738408414,-26.762807992243616,-32.88107884300102,-78.12811472077864,-55.80638933987971,-43.41037342701744,-21.978049911765584,2.9722706174756435,-13.888872462926484,-16.087274937192337],[5.506068052822574,-6.012502332511444,19.07218691974831,19.206254302043572,-56.332403650766906,25.149896877795225,-2.3314017402769154,-11.792037472634888,-12.781093197518965,6.451236826607964,64.11973645124937,14.815457954638505],[10.899265067618998,15.39130157684758,-14.459467866942145,38.787963219061076,109.18372185374926,-9.338918847374925,-1.6833955109347405,-4.12605044129797,-13.151588353495132,-35.1301389380845,-18.25140740903795,-9.771764423381315],[4.08267394077813,-17.264173197486972,-40.01343628934176,6.000050622640961,-3.689276106021055,-44.39695838526147,-39.56009905385336,-22.90828320717422,-36.14387564535762,11.382297612811186,-9.962821559456222,9.642969899942551],[37.17047622684254,29.03550832392034,0.5025526508310247,-60.26289881466772,-11.303250073206046,26.749541119419945,35.464316945068255,1.489989077578073,3.852732215504653,-1.289842666481718,-11.645555426910217,22.350842186637188],[-47.0671363926367,44.9066718882255,-22.91632918118817,7.829609082878038,-22.069491313236046,-12.288965452109187,-15.603907048311388,6.272539776505321,-66.15024750643914,-3.4167795737628057,15.962966840002158,13.164345804246082],[7.364421694871673,-49.41374921892775,7.671440433934421,-30.452270859934764,-34.60852548125246,-2.438795808302388,-5.382280637950654,-59.31419653650916,-39.871223684891525,23.392813352949215,-9.080426584420366,-8.742107075163046],[55.62347738446854,17.25678389397719,9.168156062426839,59.58239610247661,7.701008442949008,2.5564512517336,5.78096805116734,-11.574090159381067,-0.9792540215963397,-2.981002555587813,-20.342702967255615,20.295752734715006],[42.60613282434129,60.27167025274824,-73.0651577688794,-36.59166408889905,-35.83954159788668,-33.7750779696976,13.323015673222262,-32.1679275957742,32.190237801943326,-24.786048843120785,13.324625989903483,-55.84656106885181],[-30.557923457076882,-32.57656686398128,50.27268169628414,-21.83519094972861,3.176398030600528,70.35629142777533,-27.72113569331653,25.410046941309904,6.467116121499435,-23.43161620762366,13.07315189185443,-44.4045992985134],[-12.856986198686942,14.048721268273669,10.297953508393297,12.781402395957192,95.54415129349987,40.9632865241458,0.8287083405294926,14.61971584565105,1.1776072486091995,33.10847328319142,-65.6609759215416,4.194731269871901],[-13.813997051187984,-16.624520254084484,-0.549998362709912,8.464079066432273,43.30623554318535,-20.45043768060066,8.52694181591038,-5.727369074493382,-10.910635747373455,3.418877806903914,-7.548109575173316,50.16160524873585],[-9.346113814606715,7.474347701147866,2.27071390122617,14.455083140469858,45.12755165965669,16.20007203229246,-17.575767473683662,-66.22787734366005,16.205955394843585,-0.4008833969330698,-38.29338035116675,65.68186852131348],[35.62447440458175,-16.174463245137687,-4.73164686768637,60.689399028022855,-4.197458498328397,48.04493545460352,-21.412486167615477,11.293176590309441,-69.26868912942955,21.103291244155308,6.243329750254846,32.619514532000764],[14.656310963470933,43.98521319269963,5.216393769951932,-79.83382084047575,-51.639570510746715,-1.8011710879592318,-11.124783515474611,-16.642197848407363,-37.74816368506166,50.29416826028124,-18.693903073152065,15.85624703125441]],[[18.584776771624696,13.897084612955675,-26.732622296660672,7.547854834293308,42.222864576629675,-9.870555281969185,-3.7348246389495703,18.599770118710403,-13.8320216554093,-14.032198020756711,-38.4985697384269,25.85010639853312,7.250438837482995,29.306151384194752,-21.275208865673665,17.495614599323694],[-5.9091627756526375,-13.080938878637477,1.8585423836738508,38.11551964260776,-6.3168387775493215,-1.7786734060483316,15.100910244820925,-9.686377326044386,53.70349538930544,50.07109058656132,-17.221731158578176,-6.110082633947481,-50.01625289850683,71.556735302511,-10.19046346874064,11.502513190295762],[-9.069705701292046,-20.469288783554926,7.108343923322481,-43.372637265177424,-16.559748445291483,9.036755819900911,3.9544980516483395,-30.558153453857965,-12.104652270457901,54.2475020662098,-20.140605519379015,16.947987777702227,17.506246862608467,-8.216199415762013,3.3560302632455357,-1.19570549742368],[39.29519954510019,20.448114907051945,-8.418600359194349,25.878543630705533,40.35818325904451,-4.71261886085941,-55.37792155814326,20.588810625723582,3.5600752967629545,41.403701739133524,-22.142500916750564,26.29989672372136,24.053234312198065,-0.25896327943683967,6.273021940133295,27.965167982313613],[-2.6997449222190864,-15.922659800031642,16.830952061183318,20.40815974819806,32.996616798519874,4.700189645725954,-22.621387974468856,31.316487545732013,-44.49105170054754,-17.12896160868395,-44.83381525461192,32.06877192992463,-38.343679150451024,-2.9463783630006404,14.324520586164688,-18.090184339715265],[-13.166248081866396,71.24622173862554,3.405700177103173,32.58345633090681,5.704694511598042,28.577714460281165,19.49713696074871,-15.278116142192037,5.080250607913147,-46.29352778040476,13.71597844574529,4.86012922268227,52.791757163494985,-22.0958201202645,-21.0815808735865,10.730569887053313],[43.94681717152569,-0.8051641132234817,8.889639560147986,-45.20983050176302,12.961542872076818,-33.87944076210311,28.828410306195874,18.72401852399782,35.96918491622628,21.133951420448202,-13.503416313067806,15.817948902770517,2.733314553918059,-12.739467644164224,-25.421327691828118,15.389988163148416],[-25.039002254921904,-25.978889647876354,26.698037722464925,-60.47681960899614,3.957477966389714,3.601962916387468,1.7159810069823875,8.41166353807667,3.562683030054861,7.047618534228699,-19.30100707266764,-57.21929433336609,-32.181802871884024,-34.17652615762768,14.93769211673026,-36.18705891989429],[-19.93606029096961,-17.23324921123946,-9.064248296182978,-23.753718608863192,-13.61545215391799,-3.560955325046043,-29.25093366279022,30.701281114716988,36.314728569941025,28.333420631745355,-17.018795404925616,22.670672012384387,-25.128006360579914,23.637833292826212,-7.391002236444656,-4.515091225622266],[-2.9615445974717876,-54.624698465110605,9.38217807585,15.82287078826052,13.569525112336198,-38.768879959696726,19.82825593886743,-15.723125602459831,-27.712064705343884,28.440865446914266,-1.5632195900493975,1.7420939880950825,-28.848283467788576,16.075762416029622,-33.37412183537497,-10.988031838139594]],[[-6.855555363611658,-9.880354860256796,-10.5960717108036,-4.184107339166804,1.4980750319744356,-10.43145485698891,-14.79968874469404,52.191458161390685,15.341750528441619,19.801435138258306],[31.25229553586765,-32.24221823689594,41.36601410521606,-9.529686363951448,-24.595131088839356,24.04656083586346,-45.3927442625682,-18.237099494076066,12.159467985384534,-48.86985114626546]]],"biases":[[1.2127582129086083,18.589098582239526,1.1236241137662208,4.061489651543579,7.955393160588951,0.6201583484731287,-12.776334141170734,2.7066792556669785,-14.468892654725607,0.15670274794946976,4.038290647548751,-14.77841739157528,5.902767995258298,2.8295984353157637,15.130525274785997,12.053135892619917],[11.379216003635092,-2.4421850785462595,12.58820315838628,-3.025647158420232,5.451633904638233,0.07889174501379373,8.995422729740932,5.933027607629783,7.562611719117499,5.888908757302164],[7.73099215560759,-7.9789624123694525]],"_generation":186627,"_fitness":0}