{"layers":[12,16,10,2],"weights":[[[58.42837563948367,9.44074774077827,32.26869008875783,-43.62968500619132,2.1902989556075805,112.01808723709476,-157.9463993471803,-73.02929356560229,-80.88903057787097,-28.25877800921942,44.65633040401437,-92.3807233458577],[-48.305844475129504,-37.57127918219146,-74.33570466149212,-11.008508127043566,8.7716866788953,-70.2674482200938,-7.347348512700398,-70.90240522768943,68.99976169526497,-56.96802833010643,-60.323773929867286,-102.32677618604467],[-25.920212468497013,57.01148834017349,33.64656871082359,-59.73762125706036,-78.17311698053241,148.03552948294785,-13.050225807717293,-59.851922972906884,1.119424997780559,28.666102505150825,116.33506787748537,118.02918169014227],[-56.89590186681812,-47.62550922362838,-16.55315622887858,50.20796686721907,158.62682810354332,-81.95499853703522,-30.879137893465877,8.446073012502023,2.879745731054335,-27.352281947383364,-7.412524858696347,38.42206918001425],[15.932233808339685,3.2027189813403556,-19.819605784020656,-12.472753210656931,138.62198400129768,-18.717851838524453,66.11173626430059,-40.36748180171834,65.44364341847805,65.04509457717126,-25.49620636356998,61.494017771214075],[71.30143671206258,24.928486414439632,-92.57655304179842,-28.27486323578014,111.90866618789288,-48.08167116156107,-43.96055038384629,17.487825271603466,136.77365099828214,-2.469585397460469,-27.61453733006311,-44.4968625893153],[-54.89063795397893,38.300426515822885,67.32253188939622,-27.768190046064483,-108.17239700895142,-59.80157111870098,-24.856328224039498,17.275437435667804,-82.36930666357033,73.7088938228065,-51.016113378894026,40.08436911115707],[8.547849984579026,-36.88347368623484,38.89920620139342,-11.67214795303298,66.83645775859026,-16.494958681596756,-32.80940681571782,35.81565719071262,-47.822197855271334,112.58027321127673,-69.37087402986658,96.70192171765854],[9.253301090452343,-53.77699323379893,-59.14584812239436,67.8214172893015,-46.45037280245647,51.09905060656472,-22.221488426036135,108.1623736518106,1.498763310800838,15.136352798370869,-16.027053384453907,33.90032035004663],[60.61394221330795,95.74564593047559,-105.93954306535065,-17.64774081984456,-66.45552041860309,32.76236541072145,23.71106787212652,-1.0298618535047757,-18.745518464875193,10.778659679619699,16.742452379652196,-91.02212822415308],[-27.8785559588189,54.59163311349073,54.87202949593332,37.482691115307254,54.154653035864705,34.13195251771501,72.19101056064066,8.058656249392692,-10.076613794945407,-9.694633905366466,20.36993475878197,-12.711945626356865],[38.17166048930612,-96.32375248543083,76.33230390835861,-34.710691263694095,58.66797101540831,64.93201290423228,-79.34587159917751,11.796034637977222,23.220083600604948,-82.7307427764912,18.848260625851687,70.21150078601808],[-76.32635247276635,-42.961150152377044,24.731786195294138,-46.09921851774233,-1.7685187299926624,50.50760739890768,42.70917639077325,21.47151105995309,54.967240517108415,-117.49391823640251,24.725583541240624,20.83583752224747],[-7.748985517660529,-96.98366631445715,46.725210618827894,66.10022344496836,39.09792265642496,-28.768582593073308,-57.864689792227246,-58.89567030343987,42.79387613010236,29.397066605819695,31.66771095066453,132.14206530852135],[-16.38758514192962,-95.39668703609703,0.049430036430714974,97.54218404335847,-21.91310286237034,20.026820394041202,-33.55425098015454,63.01338913461792,-78.76154397982339,95.2964128808549,91.26468839334771,3.2368374694871402],[37.25954489804161,36.17324520035454,-133.10339573898173,-156.89585306267432,-34.48888337061028,4.252781712722552,-18.47948745375124,-88.83448186546822,-99.39788339030748,-90.23254929745609,13.446928566259107,118.93307105101573]],[[-31.055402671875356,32.87246346044949,-8.367465553931849,-29.419212568054355,70.40522411004198,-43.612287055268155,-11.538467087952357,-52.6918619902549,-6.787015133816353,-10.14768182689414,-84.18196742810986,37.10179933713618,6.910518985454565,49.56737075858329,-111.89119385529942,48.616463888583894],[8.021037723271533,-69.83353799873112,-1.241744485052836,57.39777699910396,-3.7915025412877217,-11.568012604762487,53.774686371993276,45.19965893685463,66.4797904791939,67.60369461931818,-12.634524007435816,15.697537353877246,-90.26726670202352,-26.352839826730538,-24.454297957178174,27.195585456388933],[-88.66681714545254,-52.015351649770636,29.955923050553476,-106.1493244261582,-20.071769779189413,73.9839740286433,-105.38161167067634,-5.634082894299261,57.62814461394841,54.621788203415505,5.488804570174929,28.692294970131258,-72.08710624875417,-57.993876083679936,-38.590542531228046,8.032348066770163],[76.29473707185569,3.297887341938469,32.44119617455562,14.915017635585237,22.580206618753014,-64.76275954815236,-52.32856168166492,31.972833917520212,29.894130540399097,102.27765594899994,-57.73167311241384,-15.441522724632838,35.31063310345101,-29.688285608227773,-41.965024469049155,8.247214119468605],[6.294868715887877,-74.06752419132923,-105.07638827005556,38.52741680344781,5.1525809913485325,-92.1359611339876,-2.667351882033141,48.40821882541901,-44.59094488841751,92.97727391685213,60.47227384482533,43.20726878343218,-53.583670373066184,-29.272673575530987,-1.1786779404925904,51.72243078583981],[-144.78915161046595,4.3455765608200965,-28.642400597396794,111.04994516247594,81.6861581287593,8.982591441611397,-48.325005553264134,58.47021906153364,-52.97405361966119,-32.86587466898072,-18.329136853869223,16.063685499903357,37.07729769435433,-42.85160861644572,38.0791656569025,-10.362841032852758],[-117.9579594429724,1.0386275270388803,24.310102406724855,48.68520191945583,200.33379578778855,-62.56284310391692,88.87361787124351,-8.867456291063073,-57.14779122041444,33.88039047405681,-77.44178548476728,-61.727394787700675,-129.3110121359863,-17.58260022779114,-51.5309913053966,-52.93450144563643],[-77.34414822272994,-6.30660121930003,51.9642677643457,-134.18989836765803,-33.987370774102736,-36.13437833445657,148.97507094437486,-39.536003559807305,79.78152792046208,9.191689698735113,-60.41702268621895,-53.17397123620035,-61.5650782998513,25.664976712075504,63.693853653889484,-13.768402503033256],[55.7423730996785,65.64516353970473,4.08901379026134,-13.268880942750139,-19.710452066811737,46.38809865259369,-87.01583415461634,118.73454617518522,10.539711440765918,18.1445854554533,-162.16228545778816,123.77133051723611,-31.281145935610528,-119.5487662030881,-78.34154618270793,-3.399492443241522],[-71.41057041023664,-66.14881556257569,153.7853355795363,-47.28885252080199,70.62786351211645,10.927620873463296,-11.052251557900291,5.3154275471547665,-70.56179870651441,35.3011637129578,-22.246956352198055,143.42411221063784,-23.775421655366337,-62.93057678342458,-113.54262705283969,-18.652263254947016]],[[42.062554661142066,-84.82041044656587,-44.27622742929117,-141.40505415672126,-99.95782693985905,-40.80068829817396,-8.862294439119255,108.04204549043645,69.52733566349812,-89.2364697451097],[86.30772667825836,-100.4311861793537,32.229315016434995,-3.6324522887372606,-69.01222047497929,25.67315350906631,-72.99724199833402,-41.71353809598392,-81.04969036466811,-59.895084264040534]]],"biases":[[7.101191249398509,40.96433006205674,31.4486975466995,24.181109306028944,28.395095350600084,9.591397441173799,-7.643066379838894,-17.143869109451597,-5.976617298699173,2.3639705995383578,28.150419779658826,-15.346065722498535,5.5097133975662125,-2.4291852283056006,28.378407504487498,15.047715092587376],[40.64492472993554,-12.050523431652127,48.343374380023675,-15.298374281422943,5.2063337007641195,8.741388095052718,4.966590726938071,6.715908015825565,30.32767209026181,0.9390096660366373],[10.980356129277814,-22.66254723080736]],"_generation":846627,"_fitness":0}