{"layers":[12,16,10,2],"weights":[[[69.10020724661439,-1.0572932481837984,34.56015617575744,-44.54208663082606,17.080556593937708,104.39990597657612,-180.67549031794778,-68.87415465933118,-93.46053628299309,-34.34756745259711,55.15457507185865,-88.8210516317505],[-77.25122627144326,-27.129963003862056,-87.07175709888953,-13.646520023844037,15.038388952709811,-79.0692403201235,-7.526781899877298,-57.55072276021849,68.10159736655396,-53.870465768584474,-68.5427791418043,-98.0859666033993],[-28.73026060195295,50.50336624425915,21.970064210497416,-53.885050937789636,-97.77929554690965,125.03400456301482,-31.25276489739394,-63.840957540774546,14.136555115653543,24.978218894653075,117.40770087971357,124.57382157729776],[-60.79102145092418,-42.2659428610905,-8.41269831989259,56.41513405656765,173.21978033336836,-76.48773353096483,-17.729633691397556,7.594999600265065,1.2134935545436853,-30.45760174282025,-6.049521563350776,50.530156713784564],[9.434466803630086,-6.325863703192866,-15.62234542735059,-14.89847484011895,137.4566217325357,-20.83917904850043,67.45328168744476,-31.638456774245746,75.7952378017014,77.04320326303228,-41.54183343049949,52.71620279735275],[46.42941231371566,30.73357396502608,-111.20921871905021,-28.28729731264556,99.8564462142775,-41.93852390532402,-33.980429306651274,24.29667521646243,144.4775168291652,1.4253471788682763,-35.05623420607919,-42.47304107471792],[-43.1290150090914,50.96438514564418,74.30050646464434,-50.75970369183862,-105.14243368306873,-66.97297240223389,-30.03686942721739,16.145623640297977,-99.88239359926895,50.72266473462106,-54.77947368023114,47.499410294261075],[6.874004460126181,-38.62130892089274,53.818303985456545,11.289942076892961,79.50033435795703,-12.870862869762693,-48.40917581955105,43.467431375401695,-47.71243842116018,110.7191656444354,-80.84740337063968,93.20434326280713],[9.574216018089164,-44.238688374373766,-61.84713181408914,78.82593646095636,-46.143057707359965,59.12230446582735,-9.204105777114133,105.30813427847188,0.24559553801054249,16.785013700517357,-27.322859730109133,47.006900784920134],[49.795532846061256,83.55436435453984,-102.0096203447364,-52.03055515754411,-60.38530817927587,30.0235996825,10.653615506221994,1.6806336723144912,-5.24202966456218,27.066440886643264,36.49639824109837,-97.57882595995669],[-37.56611503103216,49.60098177071589,54.34358258530637,19.317478106504506,44.530008519778754,20.012908428344396,58.022430610059196,16.11335007079037,-29.973775967192267,-18.16626395608364,18.838819542396873,-37.164988807930975],[50.08865643554649,-109.21883636216428,51.47717170945366,-22.37281356527194,46.99601114174736,71.11714131198879,-97.52304016598404,24.288954286443893,46.51879923704258,-76.57659777454896,12.990484617176962,60.504612139529485],[-78.51171999379103,-51.97637932715243,16.457786752181928,-52.297871006993645,7.798071796322207,43.2031728377841,36.74916809200281,29.57901964774417,65.60238832262542,-124.54013265416886,29.89454024435345,24.867932890172195],[2.098504956397755,-92.94855868607434,34.60451360793981,66.1280651224037,39.804374532510394,-47.58657489152831,-67.15436086053737,-54.81706891594512,40.01884503733988,26.516065301824444,23.90336395531654,121.06244567350595],[-11.01929658158211,-106.21983419798363,17.782246904056002,90.81941586724241,-8.571674505771174,-1.3817801974457453,-4.738316447957541,73.29430926487099,-57.215780730019425,102.52010682212826,75.81393490440558,-14.306537704573152],[54.68546065404558,52.59945515767994,-118.92996610181261,-131.57046233999122,-23.62274265529988,3.973797712416836,-6.105574134183518,-98.29222492890355,-103.56483167082632,-91.8360821444506,12.813161273172758,129.38669888862046]],[[-50.898606350720165,34.305982213954444,-22.00993544538701,-26.822678021261513,67.91278224504069,-44.83032130586506,-6.8011875783004765,-52.04368096911398,-19.346585666833505,-11.567773288365528,-90.22619142206973,32.68983587535327,15.657027843873175,74.97469188682834,-94.11890915431626,49.8811912468753],[12.047629601142312,-84.86767502501405,-10.002318636591847,55.87182811021167,-22.426518751254417,-15.858498504020766,35.9420903908921,45.37310251336781,83.26718850983065,47.37704024927464,-2.5292903241083016,6.708394877185181,-104.02476612934487,-3.1239071936217595,-34.21879056706862,35.62620882499505],[-78.14016566007145,-39.0862514039261,2.272439501330477,-98.83517407687951,-39.92956150832591,80.8266738322097,-106.22502475495187,-11.879484231210299,61.13647355653314,59.12717838965206,36.63476098283724,38.80644107492188,-73.02077209720579,-59.53805350766377,-26.076056419345754,-1.5937625933278514],[69.18112775790752,-22.512307264351364,8.142616848036917,9.446095138834343,10.032943481261272,-50.920502605588986,-62.102708443918615,18.948329114283258,22.207790478152667,108.39716609966777,-70.45343416902209,-18.795388559896544,20.56836524021811,-11.578935255724915,-24.27697370944191,0.3091909762876597],[16.301327183813225,-98.64876209552365,-121.03845282786408,46.67789288759847,34.595173564765204,-100.51352344313423,-4.7754845059702555,20.66334813895009,-67.12251454410945,77.19584866254698,73.18737885773498,31.812321261933963,-55.41063266536766,-40.92145873283014,-13.674185166269961,30.821496304132342],[-151.9015662158287,4.588896688184371,-64.24469148203323,109.09770028408407,94.60410511391431,12.882388433636724,-52.43691293319868,58.46465825124378,-72.1016355002651,-19.259295914942403,-22.65518672500366,13.77222952050254,21.10083034569447,-33.39828987892879,41.15771873990608,-17.327897683094616],[-110.4709955620915,-10.10590784784885,34.37273837919231,48.63682406353523,201.06932524789386,-68.37593496031515,83.98134066382187,-13.666645703003699,-54.270562130928205,46.46153156639494,-94.95535491525503,-56.19513769812329,-137.14287220215562,-16.389966249224784,-68.59617992140375,-67.20034726874702],[-78.03310483138185,2.8333411234791694,45.33121687954289,-126.04695229671464,-40.410346704222846,-32.74925834058877,164.30549628989155,-36.54780865440896,94.49635914815872,-18.487064387228507,-54.23260381713069,-64.00547348424756,-74.72516493182667,11.327888899648809,65.30728034038175,8.062957973529004],[73.66328936752458,53.0588336632621,-9.949894380316083,-24.346908647278223,-19.996478004612584,21.05147742976537,-89.17831322217614,112.56478184358095,12.207274273238069,20.85271825994651,-166.4761463146889,105.36396744428481,-13.566111448372572,-106.82877646554462,-76.57095596280705,16.165204247356524],[-68.03598673897922,-56.64101596974653,142.84241387961396,-47.71381956046824,85.13242120343159,4.262224440212014,0.839365971003935,23.841038630384002,-75.9636581302323,30.00581034406026,-24.523395702200546,145.9247756581841,-36.516637040011375,-68.85219585099414,-115.36582672559402,-26.004929423627793]],[[43.52536320846505,-88.49902690227248,-44.41542522435562,-163.21579666889713,-90.43358401320904,-39.06791868186191,-7.03752390698327,91.91981551438269,66.65652541049708,-97.82632100418682],[81.7590788135016,-95.4303462303337,30.598532818251687,-10.715507926633842,-57.25222401757387,21.20876127801276,-64.56025800193757,-58.43959801640436,-75.5649888539636,-66.68571821321508]]],"biases":[[6.582684582581091,42.22907935264762,33.38649698976029,25.000345413311088,28.51938758691414,7.312724604105105,-6.626444648966917,-17.009292662423178,-0.23623037574102046,-1.3807865678006888,31.014741836159036,-18.658888749030744,0.7597559378402579,-5.474707240150272,24.677245559192677,17.48921903267331],[35.72606778708339,-5.8504917855811245,51.380368674354386,-8.365773113022602,2.6373647855614055,7.414372241082629,5.629542363974418,7.738598838894957,32.95056335924452,0.7228725645795342],[12.06234693792771,-20.93997578760671]],"_generation":881627,"_fitness":0}