{"layers":[12,16,10,2],"weights":[[[13.069565131090684,-19.858847280085268,49.62612438730774,-44.68142708040828,9.538088030895183,42.93042513448353,-44.7088861758014,-64.97576278488705,4.51838208028142,-28.33197829718536,12.979282425324008,-72.9211309586342],[34.54172996805707,-39.2645536766375,-34.678542876329395,-24.285061704404246,-2.1221977813300534,-29.21203218660723,-37.478769112016394,-80.96935539271293,38.60286731932699,14.028710194067184,-7.776605777929835,-0.7509679353086149],[-23.786818661926155,-31.92226785386896,21.457996061586652,3.1489101013524134,-55.331716738204506,37.263494071017625,-27.05876703995827,-40.85875576206606,14.122774687687501,51.68402824536472,94.54549296781688,34.18311659470822],[-11.614050280839116,10.959857678586786,-18.021222024547477,64.14709119568147,137.58551628439443,-72.64442092733881,-11.32574026324361,-31.668980082960427,-6.72640670762266,-25.621799918408428,-6.885113813505832,26.217792342082834],[-13.558766994568213,-20.121524106178526,-17.75215734084424,-3.9014151715252363,30.8932442206503,-22.803353024235008,36.49614793552021,7.857989198481088,-16.957146255697335,35.82577632056029,-25.61267412339957,-17.24947774577149],[49.34849096741153,-26.16698350027315,-22.24716061104599,-89.07258454846551,4.827350675143138,14.825290071820222,50.68394014444663,6.413236647243435,40.56829757419021,72.72060302731245,28.09688130281776,34.289609338778],[-60.080686661206535,41.24286373234074,-40.432098598975195,19.17070371087488,-15.454830413590985,-2.8224706559200885,-35.327513957707005,50.83781217384643,1.4641155810105901,-9.140172489793835,28.123510544719565,59.059734388581695],[6.8737500488771595,-39.7353728285219,-26.23757183155578,-58.85894420702281,25.661469387892716,-1.292880469276731,56.997798189258546,-43.452735778470625,-27.347200140616273,50.42908539183515,-13.244809240232833,36.34002016318468],[67.56080913520053,5.007396700596243,-5.669684225099805,48.06231815900061,21.790993306338382,24.588203805138214,-14.922886773090259,-9.629918409372285,34.38142193261539,-20.647803036021347,8.932553723954175,1.9440851905447396],[87.40371496589327,114.49576259565696,-86.72526886123902,-2.963304474717582,-52.16472291013404,-18.78717146426195,22.045341679663377,-36.53594626701787,18.78190858853781,-25.835551381983315,26.3532763435272,-42.37138515665331],[-8.434703026350858,-22.051144903947268,71.82547116414185,38.880630778852435,-2.037350907462711,42.813658546550826,-17.339216720132107,15.743319274295096,-15.30637817598623,-21.884466268246264,23.520014377383504,-70.51910891672293],[39.46959479015701,-13.086234188627069,5.058074512171894,-37.86725955596911,145.01122682628943,22.510460486759502,24.93702406699779,30.177605629064193,-13.391412713313942,14.289890453431743,-38.04582586490937,35.47800768981143],[-37.46135888786573,-50.47547643044442,-6.168934968636885,13.074321777304975,55.78621380671989,-9.402587767125096,9.640771023811968,-1.4611850630334462,27.239559873143467,-38.00913659241406,-9.691752199805931,47.775186244400544],[11.977491712788948,-12.765389291876076,-26.05970012364567,18.86423230422661,103.29986064338644,15.978502189732357,-45.60833377862815,-64.79628188760226,19.230970328668445,54.464556983718786,-6.656478628826793,50.70924708089823],[7.132872901958757,-29.087903552113286,-24.254300732128364,61.701518149513774,15.926401267504191,72.06252078753369,-24.48433892850766,-6.433407126157019,-118.37020758581197,39.30662027926921,76.78412043223754,38.495199161388335],[-9.20391939117108,31.59138909282639,-27.409690631732296,-119.87256584771562,-79.98474598679802,-19.199752392140603,-23.447796501485367,-28.572766996387465,-21.500360828961327,-19.866806716639616,20.350805298853427,84.24409831967145]],[[17.268165950125656,37.97129798497774,-1.677201930372022,-37.58465230930616,49.16494813650587,-20.594660164381377,-18.110330168671393,27.016472875567974,-13.203026866670807,-11.34161841138811,-51.96073099582746,35.21305872414572,13.613262772745752,44.93229480916544,-36.52614513522265,18.825201116909867],[3.7568730391024014,-1.1228825893425622,11.46095234868965,21.945323971553808,37.56101309076038,-12.78985150312257,40.377741557721485,3.384084832879808,101.05406209495962,24.44021761004247,6.248875086120644,19.255433551050835,-65.69670693253873,39.89795192025078,-29.15316857065336,10.684151338127158],[-26.59521580985366,27.325636230020272,52.73087106802141,-95.05774829803765,-50.57397820909793,14.739077219641796,-35.49624124157929,-70.5710202605509,-5.653384051225945,96.6675272159003,-49.01873821783407,49.296034107393616,10.760138027761142,-50.98100227334723,-30.43945162652131,11.040213483368888],[27.29398908313625,-36.492443834994056,-8.12626042275045,12.005178582360118,14.774904092280524,-47.114094003193934,-46.240318462864266,23.901921818644475,-29.97674255088431,55.777570304019875,-20.108959014428635,30.265372266619057,6.907403154627389,3.1864149891431532,12.414992032259514,33.612513252050725],[-42.45911287668949,-19.56371815932508,-6.966364687670676,24.952834877486445,8.87386397905941,49.25121234274286,-19.936171507900877,61.2788037769789,-66.82993334596077,-1.597874420696908,3.837318068658644,69.87958291656983,-46.01444133882379,-0.9963573316701689,15.91401349241834,25.469945608376463],[-28.05761167582784,37.3526091611984,-26.79139492079829,48.96301560833304,8.520277524624388,32.87983598614586,-25.59433090653203,5.212458329624571,10.95898398431606,-59.58392242917134,-24.227355497084357,9.597719185636473,32.98877470042817,-4.410720308184332,20.355688094008748,0.6172292683992832],[-20.333865053843176,-2.654871015820315,19.29461373063678,-18.719919374611468,60.94512816863714,-34.63070104040648,63.37302297766099,8.114885829514922,71.54819194913783,77.04313222819837,-4.451912619445318,17.40689126768848,-29.594230467150474,-10.454308638420207,-32.45895768901964,-48.4117422192845],[-19.19810467821001,-19.096951103331307,26.917266806747545,-106.47986528150626,-42.64170648635141,24.27679242138557,-8.217001111695838,13.382528886947012,40.671609358099744,25.32190293884562,-26.83276459828659,-26.084766298939968,-28.43332272346045,-10.038934297294917,49.75172479490379,-17.025942826944476],[-5.201667532794529,12.248508265622643,5.49985755444353,-40.59268590167513,-3.523342521637582,-60.2704277793399,-34.790183447518075,59.99614165056151,12.938495973439306,8.21438619194168,-67.47209365442646,51.65438825269183,-16.86241362639719,-9.357753304373027,16.179734425161556,3.9499497207328127],[-13.701843059062261,-50.25029464474737,28.90238851676338,45.34097348693167,49.21582791180732,-53.09038999424789,5.128825892240291,-22.200456502365107,-9.93318263864391,89.1357284188607,25.083944107464166,31.239000106246998,-28.20820745782766,-48.44622526537995,-67.25547576461538,3.838263367895473]],[[9.61945997538886,-6.552639935749662,-29.519195972006134,-24.88521138430625,-30.133753451986628,-7.314083879968156,-23.812399296757373,72.93243776375847,83.41752364888208,-11.921355220016563],[56.021622430766406,-33.52129086606776,34.70802194518867,-24.88899691550301,-17.892838688777463,31.004520755553703,-63.78077175306193,-34.5975844307214,19.492545507175556,-73.82120927293914]]],"biases":[[14.422897479342218,21.78579770362332,8.294334810533732,25.488204571764197,6.221366387784428,-3.928297425018852,-9.06480496498989,-7.258356928200328,-11.779250996022403,-8.647280892317715,16.879144325737183,-11.241131046388015,16.576676661343893,2.6112859495860463,20.941086378082577,19.297549475378233],[21.800441241345943,1.901060208994242,18.38307483554282,-4.922532753460412,-5.6687796241292645,4.465613099700704,13.69980891634751,20.362377566523676,5.061332737002258,-10.109500550881188],[-2.4374424134208748,-12.882330515862838]],"_generation":356627,"_fitness":0}