{"layers":[12,16,10,2],"weights":[[[57.951651638039515,-12.7747579726998,77.00188910293534,-39.47116675780297,25.20598658518133,97.32273011023555,-117.7479366230987,-59.263486753053584,-40.264800441237654,-35.402879285217615,22.74484048567754,-112.25044601814358],[-25.040510650673436,-65.94910506526507,-97.72000382802321,13.85454411031301,-49.48653653055626,-22.693539166740074,-43.730358408778166,-100.38531769473731,64.89451281289175,-66.7931606882017,-67.41337681501632,-77.94814880317871],[-7.574399007152452,-11.11875776733979,28.804740548306086,-49.00114369026115,-68.51830110159051,76.69282914318552,-61.336671942401054,-29.399739011456944,7.366634647935956,17.34270913063293,99.05747868444665,89.90063375253109],[-59.25835929828081,-2.40612198215521,-20.67409751848044,50.49051903474429,166.2609243171857,-81.00594156157968,-6.141843001078378,37.4006328027511,-11.671456789780223,-63.457772764681245,1.592908431127693,21.688314053499106],[32.91495657109207,-15.482636138084922,2.7625859826409553,2.3069180806706515,63.916908150697,-6.447257816683606,53.414102210674706,-47.25149696870272,35.150253566511424,35.04473346068903,-15.99117395040327,43.60562890905451],[79.62392573218884,-10.783369666591698,-73.80189967441527,-69.79318921789316,35.89541169335148,-18.430535757744092,-6.3977122852776755,-20.191833435285556,72.88870544894996,66.76498047016553,-25.449687466225978,12.723493557388458],[-33.7090256635793,42.00906857199316,51.7323966989653,-19.124125175749416,-73.08334679911927,-40.34034334602881,-72.09694776353685,-22.402581489432514,-67.89106596683422,51.89486952927407,5.667185185641566,25.39303884606203],[16.25182874652353,-30.79869261418584,24.422762007503387,-30.25289359515724,46.912236462870545,-31.038103409107922,-1.3661887088398201,-3.064627871120061,-54.257686891879324,95.34696994065803,-23.058759912279754,122.97822386636466],[-11.221299401778978,-14.271297756443648,-27.96678762157829,52.55142641737548,-27.72046741938479,87.3072379083478,22.452468306228383,88.74219700506748,2.712303904704566,-17.017643074459205,-5.165357368003708,12.239511314445993],[76.56550491289494,99.570227201007,-124.90517910875543,-61.697057905157585,-64.74013107204071,-23.447441549612254,28.17055734596437,13.527032998276592,6.818902683443897,37.34017020362494,-18.572982675947927,-65.19247893527795],[-25.905209230050982,57.20267997187191,33.40707641452115,2.526763144756892,16.703332681334896,74.43421381167464,22.349286814856143,38.913337879136606,22.49872030413277,-26.54228445114187,17.718472141161172,-27.42482803689464],[4.580350562281083,-60.78816166032093,61.48824781020913,-43.20119208966426,65.9787725274574,62.69469441791038,-23.14415733586047,29.348453158968944,38.510855204380874,-31.980168445037492,4.313061798190686,75.66070502142388],[-78.40591360052827,-29.709345702651426,11.562817256263116,-57.15393053315656,28.700599578309262,7.049282723151466,43.04016474493668,19.323306104663605,-3.7883199247241492,-105.61507588237914,17.01493857615215,7.218795355938492],[62.37579892651256,-61.40221233666985,29.472875004324468,66.40470444868878,60.66813788196506,-28.269199864762037,-45.753131365732266,-109.40606901929432,50.9394500249934,51.553378980094294,25.179220053323913,100.74802632974603],[-3.6147277579649675,-51.87722275967659,-32.95054149397091,96.25773949183835,39.1570457734093,62.04365206450896,-13.683772724655833,43.91066654396323,-95.7896020443387,99.6513772575352,115.02003181285909,4.4859640541121975],[61.99326119459961,59.98764442875806,-52.230976130350754,-153.48348121228466,-20.46509135250687,-5.316045816506557,-40.277429096627934,-95.36949319263543,-88.41905674053282,-45.968356948431826,13.948445848765664,102.83188228832]],[[1.0940911737500645,63.0014190613804,-13.567939163845583,-53.410355801518996,116.90010716415294,-24.68000324226741,-18.696215880101093,-1.2791143803700817,0.7677743684475564,-69.24666660333742,-58.81271719074328,16.01787587603299,15.292592803473102,62.79814785621279,-68.77105032927584,25.362728664005616],[12.534877519458927,-31.843691350259206,9.60123149693055,42.477695439625165,-27.420716782885982,-32.08587739441838,70.85062140865463,3.7574642579203954,75.32418278673678,63.33568197350594,-13.591216630469628,-5.317231828333266,-107.774790979727,9.954720155454913,-18.878484586883324,-15.090999617503838],[-80.2750690283995,-26.067788484088705,-20.169547899200428,-57.80868307725876,-45.09454030570675,50.335473056468715,-69.01322520294225,-12.530057397000427,79.85843772219577,114.7005093448131,-37.181231193264125,1.597907289801034,-33.09639836644019,-27.610514475367417,-29.859560703658516,24.306063779242134],[75.51748329069294,42.98867613082708,-4.073304601021766,-1.520358552554909,26.51922157715832,-48.49466103534454,-42.537742986026394,23.312882547425147,-33.251626130571374,57.808112877332114,20.527574122203056,43.04048834046506,33.439240035607405,-9.355134530606199,-64.21984808488016,-14.899280635513307],[5.24820046609749,-36.71657166923419,-100.05932767297625,26.405783489517543,-10.422743007297226,-1.3190660083932262,-8.616832880020896,53.34273301444443,-62.96022176346476,56.20129499306099,50.36856946264637,19.573629493255222,-72.97296065917504,-14.002778070953557,15.593459465449648,48.03222136259225],[-103.46940987966231,5.048488669785448,-31.244065024218294,57.26553740404359,95.32700501867652,20.540753338833433,-25.77826572095039,14.557963513491222,-54.762463009043074,-61.84745174590604,-42.28839991079644,-3.6320135822674535,20.795555889301777,-35.94393296931687,29.857968035619127,-8.335483769788418],[-113.18208709050758,32.8069110054145,1.0554060280583435,34.38463227033658,134.26927544547752,-63.704904764117316,37.235319105275444,-8.295495054059566,-17.381877619988842,52.2701552898411,-20.10208733666495,-39.70482293656617,-105.83707005784801,-64.13465479285418,-22.612539565028534,-42.110405714326234],[-67.5542243523611,12.925408740384137,72.09991502292318,-104.1446819877903,-35.19122428925577,-30.715740234475003,101.74148032824364,-44.573237117028974,64.03411368141792,19.349293349398526,-34.15641822217703,-45.5230404232579,-70.52687766060275,-1.875312969759752,44.79334053199983,42.6206912454679],[32.67966867949719,9.863514216548891,21.74597918539452,-78.26088350247912,-5.81569823931728,-7.807496660494909,-91.50956238892623,129.74502335067112,2.430932509994131,14.978477653721514,-141.52438426306392,135.80238565362257,-43.301629983318726,-93.19732920743917,-43.40606947460687,-28.217264943113605],[-93.8474391986467,-54.07028570486056,78.51738775611551,15.052046756319296,32.37595525785523,-3.576925581406279,10.672991079490895,-0.33783288234210707,-54.69275695415009,35.83262486670883,-39.57384121798065,70.74172193849499,26.532584228604456,-61.78558189530707,-113.19336962308536,-12.923272027597626]],[[16.602872967045208,-33.09269587388712,-41.491518605926835,-57.67039088501978,-66.50555768460366,-49.863683029560704,-19.009247443894846,81.32625013679879,48.68775104500917,-37.66568793037809],[36.71630320979046,-57.609198847624604,60.18065770562502,-9.802370939520566,-68.35579325065854,32.80167636735866,-72.66479596496151,-42.89470148561842,-105.62210981215664,-86.46457955515012]]],"biases":[[5.8939081751317515,32.14068201588351,28.13361913873276,14.72300374950587,24.3390249013385,8.79800798489793,-12.799478037033868,-6.0541559196040975,-6.4193257921890545,8.835763196720372,27.365534039499902,-9.089959896087496,16.69901541946817,3.167299801079152,26.843856081850372,11.711242251397637],[31.076536329346496,-12.730721126759885,37.383877662052335,-10.865737865803437,-10.253339358487638,5.062994954478876,9.646737178776577,0.4751723749257477,12.559980587505255,0.8752746978665273],[4.922365374725215,-6.185142171959993]],"_generation":666627,"_fitness":0}