{"layers":[12,16,10,2],"weights":[[[-15.287848619457526,-14.851607668531022,35.24164783921586,-37.50722635496285,23.046157602379147,33.97881452694848,-13.15370973025897,-20.95095766747774,-4.307331026008114,14.49349021703958,20.638618252765706,-26.284325725326166],[-21.116783825830954,-57.18927914810831,-32.64010750065495,-21.770989923284155,-32.34297458578577,-63.16421939171074,-43.80150707275055,-51.66519828242417,-6.926069659136544,-16.43228104631985,-17.5579526787053,-3.642902333356963],[11.359050915953361,-7.973674823438621,34.16413012944042,17.82769885121507,-61.50234609147027,26.018410082621664,-0.04458983422964137,-1.009477963507094,-15.300832409116255,14.700856043045347,68.10009630745684,34.45839196501401],[13.952841516608544,12.534979284031966,-7.094579279144591,27.49952309327227,114.42293258600084,-10.810968115333642,-0.8587423164832965,-0.7127467473347566,-3.562286862645721,-26.098542412017164,-25.199099144758414,-22.043847212516116],[-5.459897482957461,-16.770099431666186,-26.12115398317099,18.719206069575794,-9.107099269558486,-33.35955241752642,-40.220140585067846,-18.33332717802083,-33.01235578845985,17.980157109069445,-20.507820537068163,14.412521452593046],[35.52991050312567,7.669317581035979,-5.7523563071677595,-45.5712129005684,-3.8424056472644383,28.893905545663692,40.6247331986052,-10.901609322331462,7.190878316704524,20.581809792918726,-2.0696727858912056,32.66664552133857],[-37.52567542545013,48.33953426744673,-26.80477754469214,16.371041502304767,-22.69646437497503,-5.766468363506647,-20.746162607846042,5.1819804859469,-62.989167257067905,7.76637381250909,12.945673401794052,19.743677751405237],[-4.181018926155877,-45.42475512534464,24.543637914090517,-31.724969455393225,-21.71401067002501,7.003590858949717,12.151142992911268,-50.68537116779569,-23.95365275973608,17.494695824495,-5.890276571202694,4.25099020287551],[59.813691021168296,3.5142010508654002,2.529125313123835,63.80030520085213,4.629588967966662,13.11701014156657,15.977903665829595,-8.204119542464174,6.661658851185742,-6.734470783592699,0.15790930603607878,19.041552260755633],[50.81738743774071,69.36564132494142,-86.92428573350156,-43.61132969160925,-44.01944222958316,-44.65497824728129,13.241863853042542,-31.36471154919137,30.46704478466027,-24.763670256718385,20.579392621751406,-56.81427424115512],[-27.60423371131812,-32.63037086941159,47.63958896214657,-5.61040575050879,4.067298637145968,53.79407270933993,-13.431504510294856,32.206880610819134,17.429787246408164,-22.200034369577697,5.965697085915479,-29.200990855766587],[-13.113609760352508,14.871560878394073,18.768307012245675,1.6259722973211133,94.72302849727396,33.63038294338382,1.3096586804250399,13.720907955256463,5.350062930973571,32.740522416223534,-71.61013841727215,19.9816049602125],[-30.7796058158777,-33.17148414716765,5.202634848211914,24.735221977441327,50.88807554070334,-7.2240915827035,4.575649526827373,-9.474235148620485,-21.587821818646322,9.716385312530326,-13.567011689523872,62.4262724891514],[4.870833834792833,2.711269230533822,-4.981414120539398,19.051571338384683,58.69955389426699,5.216491932353916,-11.962794604893633,-65.30147486613117,2.9431092535126373,-9.475570773723184,-36.01873800131947,61.949836020767265],[31.80968742467207,-39.16497781241474,0.6793893288002133,56.24810545230811,-2.9003294094714267,41.91183210978789,-18.605680952519396,12.814305302810512,-68.22927137631432,10.739677419944712,12.387046510391267,25.656688925664554],[31.497746695193257,45.20686608545536,-1.776089325037248,-77.36915576814519,-51.81671184618766,-10.928975890715854,-17.033814114755767,-19.984256209177772,-39.55165140255829,50.757905263016895,-10.136815193461247,35.29919003148381]],[[12.415131064781962,6.335403193049704,-35.058914656889236,-9.715592727118471,50.42128520990503,-27.421544407594254,10.438509792197063,20.773104734648168,-23.47189594534908,-33.70247231168854,-44.06994476194608,15.785716947376912,2.0970401735738693,37.59790712772319,-19.488059734091774,18.794652396074866],[-3.4458704915733294,-16.77876706469168,-4.181957768462842,45.01363079206778,-13.609526339971683,-4.792428606501255,14.165682224367547,-9.714895406276282,50.79142983555364,44.06844708400211,-19.33254185766189,-1.673568642635942,-59.45048018401736,62.20882779366383,-11.519395987685323,8.95642949000645],[-0.8159956677039042,-25.295271899340946,6.395150699245161,-37.92289070724774,-28.155074828613515,38.276510901693605,16.478915335083883,-50.26594620073997,-11.684557276069867,47.13752281621315,-22.16782026739897,28.00455954606317,9.484035002365365,-24.471422682546354,-5.075966069050719,-2.3738817920908972],[43.01845716389016,31.003892476998917,-12.965331905850393,32.906596607653306,28.657284089254343,1.2837919158991995,-58.9451772244299,23.54272501468792,0.7958148208948439,52.91078660850879,-19.583181923728976,18.10312527535187,10.911563491885385,16.693778424912434,-1.1686594481707073,35.41211301567131],[-7.669481481539607,-27.801896155183446,14.457085361875693,21.260859304450555,18.234479336653337,8.84133197268921,-3.7870607886037937,24.885072754044817,-56.450094523561376,-8.412687175521457,-38.061869447308545,39.04470617283926,-31.445707596716517,-4.664910354142341,9.819776416432816,-24.40098063855535],[-29.835223445314693,58.60526848898866,-4.654993560354273,39.61332203879787,10.125366296540918,27.20778760783035,7.502878499014475,-4.398191990503884,11.779437394580533,-56.91914926174675,4.685361822170077,-3.4761414973419025,60.30187653050739,-36.44842310016937,-24.28690887256454,0.4169346382973663],[50.421774125754304,1.8661673929401528,1.4357795791447259,-34.58084674938842,10.999982890901716,-22.962609853874838,29.588227801326312,23.90584878021805,39.432425312667434,43.811011355678446,-14.618573595760369,11.435583366484794,-8.54163202226832,-17.615769753397675,-45.82717604788087,-3.3240227960697775],[-28.055052827672984,-19.559507827468078,24.14285848962989,-65.7404135799693,15.565635398767435,-7.587291909761719,-0.7164256621512716,1.8736559790549856,10.686847331613743,15.61846198505922,-14.897335486645414,-47.037258949764016,-26.31782777032791,-29.309954253301783,7.466989987724668,-40.24830806126932],[-17.973777713502102,-14.611689733999809,-14.287268308586318,-37.320882918449335,-16.22295375502011,-13.931462737318919,-30.69021936342782,45.270287125232144,38.15293347203807,12.650838976678292,-20.81838350245312,48.70339233711388,-24.565024280263543,6.60829865775452,-13.5214374862226,-9.066495282637524],[-11.858220219437765,-58.54683563320097,9.089445444175897,33.177709693099935,6.050855314161826,-40.655115607421585,13.029435462290108,-21.276583417432303,-34.552433673841286,28.76300525162116,5.711501139714862,-2.833809302236707,-44.476566012286774,17.632302545684553,-37.68038993163044,-6.150012842551256]],[[-3.1138846868888335,-14.510168290808362,0.9928455290554501,-18.998077263357953,-4.128179418229333,-5.47387159815634,-13.094786941251893,52.376957810648875,9.866827054769157,16.504510399850645],[43.48000885557952,-33.26990619367259,36.318425404372135,-2.4459538683048176,-34.224863287641,32.364315505297306,-50.83917923232587,-15.092091393325688,6.981804196936527,-47.47500492862565]]],"biases":[[3.360112566058839,20.553679599210565,3.502773466403254,5.471017895667586,14.80561313452968,-1.3143544900357609,-13.189419750755851,2.5955446122819628,-16.49185915842067,-0.39098982590884973,3.8398600746072797,-16.355081894043682,6.725226011780223,3.8995818738081076,11.50161079477881,11.666722384391507],[8.787718234733488,0.942584059906401,9.999309413821583,-4.736533064280908,-0.0346067604349956,2.9204567723446657,11.321852801110825,9.846559754127009,7.262940120363957,3.184516571974559],[10.452016869608393,-9.288720668438849]],"_generation":206627,"_fitness":0}