{"layers":[12,16,10,2],"weights":[[[1.7670437234932395,6.329663917020762,-3.1452389549645,-1.0880180220528128,-3.9414525763401986,2.175117443020074,-2.332435252117491,2.0728636516001506,0.17129317270779848,-3.5048211513824303,-3.4394456569585663,-1.044681902266454],[-3.179612175912284,-9.696856502077065,-15.279538776015562,-1.5076687159524331,4.720737443243793,-4.297477986017097,-3.97235411688116,1.5756575839965559,0.6483005569257583,-1.131037381169049,2.824353456623973,-4.2366736672930285],[6.712941931367901,-1.6750617736691265,-8.519735411753173,-2.4214504473931546,-12.202483843026302,-3.7744156428436026,1.4085153172433835,2.375765585453057,1.2456042886575525,6.99561018298943,7.629548363405771,-2.4437686666345066],[-3.669022203872163,-6.52797664443367,0.8888823266307893,2.7281711819047,13.43063327243344,1.9239228150163135,-5.803222367196361,4.607687835401571,-2.760259821238922,5.507021473363043,-4.2475719825489175,-1.1282622403812614],[-3.8109682068315935,2.3184515596411046,0.40020339485614204,1.1505359366747903,-8.214375074614843,-3.3574779431886217,-4.047160015972599,0.09042191781284148,-8.390798481700845,0.9899731943882972,6.457405354340836,-6.271204517969306],[-0.3367863265683805,0.18722562589651728,0.08431641834512209,-2.9523157622287908,-1.9400117757284527,3.5625794932858432,-0.38793652075680274,7.823625806457967,2.7755874180712126,4.395871388322728,-1.829148156346633,9.157527209475104],[3.4600912678528255,0.7440849605393014,-1.803238135206917,3.231000454289305,-3.057209778263956,1.606058468749662,1.1825380733742599,-1.9644156805405357,2.8431971487438528,-6.122150457141569,-7.846654354554878,0.644486455060378],[-4.578781385745411,0.30074147716983424,-1.836122575016293,0.5143193356980855,0.47130230211702057,0.08956173551629813,-7.314245001050684,0.1787892150272688,-0.934069362376943,-1.6897906877856927,-5.071188554758563,0.16887496199621063],[-6.334185006480988,1.6279682061545442,-1.2483242078109773,3.649856338469228,-13.26114184916304,0.8367290146801116,0.5893347791896251,1.1771299377182929,-1.9356904089188647,4.57260707761508,2.642660834825387,-0.35295083898789537],[5.878807927709106,11.54160335634521,5.189205463586933,8.520454658767683,-2.010985042398399,-1.7221961694605517,8.932693200069433,-1.179043517604482,2.1257383992923473,-6.286039014831765,-8.296088953096545,6.7636031355518975],[2.284034837841782,4.298054638901048,2.0499688966331595,-2.1982801999411246,-3.3165646642661644,-3.943213275328581,2.8074249883934432,2.5132291711859165,8.087902940181573,1.3995488009043688,3.5327810646670192,1.5202381785847416],[2.6473467288757835,4.094517788588343,-3.865918491621788,-3.469344608127246,0.941625987785329,1.253398675062352,-1.41130580765866,1.0042332617049983,-5.621081267147767,-1.9512617845026103,-4.7622905739661086,-5.331624007579988],[-0.15726456328804475,1.3192014857079974,0.6497413326555243,-0.8271284906178763,11.906900173667498,2.4946165374508142,1.461348041629277,1.8582521578298756,-2.617679800914439,0.34587629747176163,-3.8780671297558147,1.179335837544993],[1.1251065637345694,-1.4609808204891461,0.20167056286801832,9.570379791139278,7.960930017943188,7.38140954678949,5.3273461626213905,-2.0287942065727025,0.4357043555087955,-9.92106543998123,1.3333007970957982,5.707060242569865],[-1.3329270853314286,-3.089912953036422,-7.483254530852701,0.9526774472264945,4.236105512276064,-4.735044153732996,-3.489568951010167,3.639179071804683,-1.2427585467707323,-8.251310553720108,-7.732312683186233,1.4111518424116],[5.146910557261731,7.746616185435289,-7.042817670662153,-2.444195918265282,-1.5996732309763027,-1.3355831188505005,3.4889915374911475,1.1994939018628343,-1.6502569658514052,4.869030025305395,-1.368963320128216,-0.14755539183463864]],[[6.060933947456949,-1.4799031991983531,0.8132079520373006,-1.5666485616301824,0.0864657310981153,-7.550245129072896,10.8462668691821,2.4872694084084834,2.00706597437336,-0.11753398612261047,-3.712577936522421,3.2806751840116286,-2.716266183355678,1.6799675801624112,-4.685213342049751,1.4964091738048602],[1.2740402943816869,5.657488169860525,-0.7392315849625513,-1.2488685361350533,1.0335164764027498,-3.1591061415286212,1.829591663572709,-0.07315636646555415,-1.2209606171152307,-0.3162117826508651,-2.35203498545419,3.9620456214875914,-2.4515484433605526,2.7845715251105903,8.994347641581584,1.7115167812911372],[1.6231733225562737,-0.6447502069694891,2.9392535003593756,-7.928087124239785,1.6009264911794603,5.283211514719025,-2.3777464658596474,2.0419225452813357,4.604090312035177,4.139320219829398,-5.9490907950557546,2.326664298112465,-2.0421284566552873,-5.3639735586746,-8.007173634510563,-4.528719843778673],[0.22378219512171776,-2.314859301051427,5.06825653431476,3.57428773558048,9.215565210280392,3.6889202615428753,1.533784640460974,4.768497962044785,0.5309625189612259,3.8901689928535994,1.5739573820945274,2.0347325427298433,-0.6603035516534549,4.082665644801125,-7.14418374901882,2.4237825561895305],[4.342590605939246,-2.76658016921557,-6.793305501472674,3.2259957486307766,2.589743092547119,-1.8047990993905267,-10.716197057565799,3.591142883487895,4.118645231288438,-2.2359546183393486,-5.149154228400192,4.249016502138833,0.4460008661122016,6.002087449658945,0.8990052425830293,0.2550384908440124],[4.822029499239072,4.483096205671855,-7.252559636646201,5.171735826768004,1.4517371088525262,2.306099505089798,4.610894201369182,-1.0560659690865624,-3.235002330322017,-6.848506486016762,1.99518412883224,0.5711350469981245,9.641787880198972,3.6807776672175034,-4.6510302233855105,-0.13598469371235358],[-1.514411826990478,-1.6112148039211796,1.6840474450261633,-0.010152458998573644,-5.709391960508567,1.226023834215146,-3.401045859978143,-1.4015825655528735,-1.4737371453773058,4.23414578953164,-4.372442374774335,8.560332231169252,4.123901044618474,-0.27262913189788407,-2.452549660040193,1.2146402249286297],[-7.607498021800765,-2.774123272798684,5.977834326196388,-6.765817287435422,6.139052843163755,0.6991342877584118,-3.822569945988508,7.042634636866759,4.802366224904538,-0.7340886268779908,1.4086421907631148,-1.8926215228238707,-4.538752049890078,2.0351200117009487,2.1259633415121986,-2.4643767403102506],[1.6574939290008408,-0.7343489786763296,5.303047252487632,3.359818504089316,1.9443732431562424,2.6339291398470865,-0.2958069491166175,2.583582570386519,-5.7210648085203655,-6.150069072932183,-5.502691363425213,5.059312814642244,0.9853242600663478,6.328923108989976,-4.475589784427951,-3.1658123801768108],[-5.2912368659895685,2.3348736142358257,1.937302800588429,-1.5374332266042023,3.75532758585564,2.9732530094155494,5.058506631431252,1.4905635003261577,6.1525988180521995,1.9745617020454158,2.276327992478429,-2.5255325551923207,-1.7453081941019506,-0.1654610436427659,1.1880407716102426,-7.479999125658188]],[[-2.6886124438242227,6.144593861766383,-10.795877764320865,-2.4950014723642844,-1.1903395879679375,-5.926059954107589,-1.0715900660941622,4.941083339615771,0.224036865144439,9.165906646625936],[-3.486677150899131,-0.9411510896592077,-1.1659420230954232,-4.073439899106869,1.8753222552637825,7.408169253255032,-2.9338667356022974,-3.5667838511736885,-1.7716456581883648,2.7585683584886076]]],"biases":[[0.5994040085551579,-0.2217238943499853,-2.1778824967738473,0.6813892669400681,-1.2971580340953632,-1.2148914713896244,0.16407520530935726,2.9668090823304984,1.2671958377416692,0.3693067627158397,-0.8559406662094056,1.538453402177006,-0.15506632438673382,-0.36385331786914327,-0.8297512853447442,-0.1785052314005975],[1.9032003462665052,0.10391081357158823,2.0075575666481935,-2.5810775306912888,-0.49183609363014347,0.4138740987331809,-2.6597604280271576,0.14024547806990104,0.6787441572891967,-0.17289349276005234],[-0.402932690217414,0.027622014628074266]],"_generation":3527,"_fitness":0}