{"layers":[12,16,10,2],"weights":[[[15.401553572360571,-3.8012258057837554,3.329257101954486,-10.003859286236617,-0.6986039954557843,1.599887817577911,-7.680988616512186,1.2635858916642086,-3.675275111398948,-2.0428946774692074,-9.519831620472935,2.3542059602312158],[-3.2052437311814947,-25.964969159152417,-16.67612826766125,3.761208423807499,9.978287375234551,-2.192995822178381,0.05906038972090276,-7.72850822691603,-3.8421823980707104,-1.6016111177508783,2.8343264865377047,-20.660143529718148],[17.340034130320365,-4.080449319442568,-16.558327018471026,4.021828363336782,-34.21232312500487,12.139786492543864,-6.25514887451653,-8.254221621730508,3.516039435699144,5.595586324624109,26.23144006782571,15.128174222018298],[1.68671989256243,-10.007965088130412,6.823010089612489,9.720313271087953,39.36742310625357,9.986653276372438,-8.803452294285814,3.119416498734627,-3.6349818085287953,-0.7780560573192297,-9.662561104363915,6.163290184997807],[4.981926430654902,-6.604184236656091,-8.253770627290388,6.430882421336602,-11.37053465704026,-5.927144288050049,-2.4427713382664487,-5.868192660178159,-10.422744509383216,16.951106600038912,5.173351693278882,-11.498061699555203],[0.5735117389422757,0.4521573866937634,11.689831901572475,11.480888017688825,-4.014000427620836,-0.4608458232001378,1.1880187685920365,17.144036818941778,5.65258663303599,-0.4948815103367501,-4.199479119551989,16.47077652627959],[0.20873433686911036,13.08842706540504,-9.84599547911307,-1.6212830189758065,-18.59277960628511,-5.312844092328495,-1.2531931300359755,1.1479307791604672,6.418597837316101,-19.41977893839241,0.012123871564440808,6.310849390558833],[0.7810147614585043,4.7560964866133775,-15.65653487758127,0.9937966892722191,-2.357836466714886,0.950043382928327,0.19088487558008035,-12.745785806072519,10.260144704114067,-11.774199657603988,-5.597114762993759,11.770241996718948],[17.736599731480478,3.9357839048344307,10.697502318404768,2.24191551638458,-9.830493095073557,12.596075123407598,12.31956884875708,-0.8012401449084956,-1.6300763727330279,-4.5470088478375965,6.936788529286545,-7.365447183883653],[22.73727584052294,12.464871170997169,-0.24017087448773228,6.004877115969602,2.672937840467236,0.9835439055481698,7.590191950840671,1.9219203080794958,15.321767677363649,-11.54899955134021,-0.3923014273078693,7.4050787546223535],[-10.574144566020538,-9.939384155144355,-7.00435624869316,-12.009328596894964,-12.975745295082069,18.294405484827575,-2.8417994961449624,7.570458426958346,5.503106119674539,0.004501443236008859,0.7537005801082441,-10.839265709654569],[1.9579262273490048,22.496420998256532,-2.924632729401388,6.5852109397406124,25.986774225355042,5.892630771624548,-4.518624509819272,1.302921359497124,-15.309046100073568,-0.07441544202937242,-8.483842735055545,-9.723244768724697],[-13.811151622986015,15.934568062860054,14.50238785733416,3.281295099227227,18.585361459653743,-0.38287545318689387,15.218589027232435,-7.212417596228104,2.0068012093240344,0.023310149910312536,-3.58949338273785,8.047086268172583],[-9.041908690323979,-9.268319484409403,-17.94996269946018,4.979864140763729,9.656910436041557,11.349667089353792,-2.582949923669411,-9.333723033975891,-5.245018784780752,-5.825279572670008,2.244318342800234,11.38304279339288],[3.1294054141332692,16.323776649093315,-13.427341668124756,3.534816935614105,2.0648194346626223,3.7599441494997126,-0.8568709964381206,6.590778011236773,-1.5431830782670362,7.58543210962325,1.482001007667578,3.7814134843528864],[23.484854082286297,24.219039128349003,-26.029049792976764,-21.541146143165665,-14.962421414654006,-7.432211534588863,-4.628334925174515,-0.8265048473742425,-9.87002099465084,7.325217465051336,9.408130634764275,5.544072919917664]],[[4.80414784817944,3.8760913391205594,-4.134438472927357,-10.364168562905306,-1.2432432961876503,1.1939293358559064,13.637921820962335,15.564586001098057,7.695060766818067,-5.8837394241268655,-14.266685657721878,7.646685614130774,-10.452437447023494,12.303562579614132,-6.5777497780318415,3.0116502004615273],[-2.6732149131343874,-0.7932763698479506,9.907580722158807,0.10234028828233747,-25.481794930586872,5.524329280583878,13.141821682691944,-8.11109916837209,2.7897786106725353,-1.4333332208405556,-11.570998341667414,7.916498016554975,3.8450607976288276,22.725097778140736,10.109592119953462,44.16893867954924],[-1.2768109681308912,-8.705433182268015,-6.604288093252561,-22.794791017987446,-6.512974967755623,4.268603987807554,8.858171303574533,5.343337725688061,7.7533999784953025,-8.882236294414792,-22.49540304447426,12.434901350024457,9.551018446249714,-33.168641258005124,-13.134432032884442,-3.2476569641207838],[7.151140633121116,-1.2766058605473694,6.7397777789292155,12.293998952637175,10.762443924482525,2.428096095202982,7.320182282085916,11.45227557953271,1.5052168917949462,20.59100649240138,-12.8557840841742,12.458118246781462,3.258198278873612,-0.05794962188454257,-13.976369340489514,-4.8972146567175425],[-3.7214713397499417,0.825648798327271,-19.018319325985882,-0.013259869225056314,20.383728268163562,-9.458226497318547,-18.725554788238842,20.215283506721313,0.46915064028428577,-12.37716332026111,0.47607144321085904,-3.268232175938706,1.4933074773581967,4.889773074972413,6.270393346869989,3.3021518974082547],[15.777705403286996,4.237129711767544,-8.001596477374266,22.068645413202876,12.100280953809932,-4.117235127832866,-4.799002668990047,-8.74435077366395,-4.698483006823446,-3.6402186722908536,5.6468845980378894,5.519943469414464,10.782771329315649,-5.69521419819658,-1.1710302792807468,-17.590767081998443],[4.36298338198921,12.031937143390037,6.333098438763091,-24.6069548160675,-3.6909507873079246,-0.8270457131078749,8.006986020427249,-7.503272972291021,-0.5867015574818581,5.151736003254613,4.697342970544618,23.53618681824052,-2.4798925712461073,18.092838911196264,-7.002720162818144,2.39253479851493],[-21.90600418348931,-18.80110583388743,15.937843410244183,-14.397238097220633,23.850955607391917,10.576291823012255,4.882465817334454,-3.2876847630149095,6.7324229589708295,-5.467013447038875,-2.5840154103273436,1.8711737259801262,-5.246120673493663,-10.31695869436902,-1.5739445029561734,-16.103626450730946],[-19.099257750548233,1.4193706531057328,5.035294168291674,1.4329943059288799,-1.607299687360147,-4.575107050386668,-9.473209569753477,15.395161692090733,10.348305699584685,9.158078145393587,-7.2990237131697,1.7570517219297441,-0.09389654184388581,-2.598187910622146,-20.305973053737773,-10.646141005756405],[-8.510419416659374,0.5407111813539373,6.74089532961314,-7.574178476055986,7.502125972951556,3.5909588918280266,-5.7912117429264125,11.526080696636033,3.5098257693730157,6.551377268714952,-12.398614385643633,-8.562454744009486,3.7901493803070916,5.879397660415714,-14.334945834523225,-17.788699838469682]],[[-5.806074298937956,-0.93779067651336,-6.428080354644771,-1.7362231347225026,-3.838886142912709,-11.993476402009922,-11.452693787506611,26.25308089107548,4.145902609880664,-0.5680516788342946],[1.568983617865786,2.5906968778964616,7.783558109153215,-13.575759036737514,-11.90336941381341,12.663975112048446,0.5238066720498268,-4.297075611875957,-11.924152373422237,16.430380181661587]]],"biases":[[0.595775096186207,-1.0093864006659485,-2.938387366735042,4.9287423515959,1.1515308008806344,-2.544277863170308,-2.5325228844180536,-0.08776532907762007,1.3115108283283394,-0.4543844302127465,6.269486767198481,-5.30827337406563,-0.8118243559988076,-3.1482923451167784,-3.922908895287426,4.327968344457623],[4.852371964395067,-2.4638230253018727,1.308072916472165,-3.6959057566288553,1.485216088782109,0.11974757064957325,2.456237038662902,4.51662749339365,-0.6421664095851034,-0.8003486224680328],[-0.2849403089924896,3.5247116115211474]],"_generation":23527,"_fitness":0}