{"layers":[12,16,10,2],"weights":[[[25.7031978250693,15.370668048667119,88.72317936380381,0.9074314746446297,36.53787366290475,37.92409934560857,-83.89561587300915,-63.17773343527214,-34.917821465440056,-26.22609616222258,13.126441381490075,-28.06808765769699],[-37.53124476175807,-23.016766148257826,-37.86121908393863,-9.890912772811944,-45.16196667125705,-40.100157096405475,-50.98840727984623,-73.75403690705399,50.49407434270335,-17.685683795151725,-85.7586144875008,-44.63773919849095],[-9.644788164992715,-19.340924645393702,25.71307920688167,-24.95380833132078,-35.07907696541052,90.4435958692894,-28.07558716179331,-17.812032039500902,25.723376734575663,5.125823230611195,85.6963439458738,36.50461256619143],[-17.014504999732917,-0.13227788838396337,-34.95292654221734,46.62322289503195,164.6137442688177,-113.35038846888207,12.533388216440454,33.656413253897945,-30.7726980693492,-13.680755241390886,-14.511569744537676,55.84028111205319],[26.315779528502873,-19.055564371649165,-8.513776878347358,4.914913541347764,80.27626442495429,-22.143129964415657,36.27569213797337,-25.168472638913926,-2.4228349748086697,21.83958409982526,-32.970837832984714,-4.987408271981125],[23.17068693011727,25.704007678726644,-45.85363150613255,-84.82738561060769,36.548690215780326,-28.765234622359493,3.989624279617709,26.219234230469446,84.85976633332542,57.6912424576216,-1.9982307117484472,18.79701085579997],[-41.93179659841168,5.052941480606675,-4.974340239478337,50.964542840582006,-54.646412795119865,-14.063526357077343,-52.49766021162062,-0.5727902149354813,-46.119244292844414,6.780788946414636,-12.597077548181202,17.537449448621118],[-2.1511062052244068,-27.880534558786415,9.606914318114633,-59.76622542169207,30.74365772317543,-19.48878792855633,6.3372468670093545,-46.11011749015136,-43.368029460675665,84.10386828379069,-44.54863123181253,91.85864549475471],[30.934378425491428,7.498711289901552,-22.681561291291747,73.04569774864575,-23.033296198416558,63.5367040900894,30.828469318898115,31.625745665739206,-9.303558491690472,-37.206619786475194,-18.004144424846352,-2.217581058938684],[73.28301413682823,107.11924588503722,-89.95303030293053,-12.085539194229257,-66.78860541861002,9.991851769241933,33.00969442008295,20.447385845692708,24.062215685726986,24.01189195982769,-18.945880138740474,-48.06248237746329],[-31.92521676484484,34.8190918418209,57.16076857761553,41.71284699199185,4.539296949728733,44.50371205635066,-1.3118287535211606,10.434344251143731,-1.195965150810423,-39.32716471588334,53.55510173782483,-42.7271999756986],[33.40841175371825,-10.282868564334972,32.61513257984752,-44.20828241561965,116.00895989286525,75.5087860607144,3.1123206728366872,8.249950149025702,-0.08126796548154186,-11.9627645540091,-9.104237364875056,41.14005014444673],[-82.04510551799248,-39.00320553694078,-18.583936619433548,-18.987262252589325,64.7528956891934,8.913919233662117,24.750381312656238,9.55552535356984,6.643345705704899,-96.6758172790539,-20.529172324450144,21.34308580393506],[31.810554227032902,-61.49185182653189,-21.457136454874647,24.594643333629158,85.3307420292046,-6.509562003482043,-56.4138563240332,-81.65370513612349,29.659050840756617,38.46016794508363,-2.47992230902008,64.26361566312428],[-15.305848296509227,-20.22070628019213,-43.9171836696029,109.79200988047046,43.954858214133374,46.73040152404098,-24.31203729349888,33.21216151376943,-95.8601955696454,65.64919439839906,90.04616453768482,43.86841003858705],[3.5256847326543532,63.950027010332924,-49.680424389704946,-150.14647864107553,-45.55783465285859,-15.742827777223278,-10.525490951735708,-56.968602098483835,-71.73390916413143,-40.24416583163359,35.403071582380534,75.47589492768725]],[[1.1525314025204678,81.08750201330994,-7.801864319675097,-39.21413209338777,78.46173152904142,-33.00493044166612,-37.59452857870715,-12.7549710521433,-53.2408471761311,-61.20271411540838,-55.24496962752741,27.220700096802787,20.733375096729123,56.334624205621104,-72.98745460178624,50.00934391360284],[25.812869137654523,-35.75458365139196,8.461884014540221,38.72607187549142,-8.906176410388504,-34.15292137166893,18.73325267695707,-14.676014242604873,78.00904862991969,49.51475760789259,-11.16114906704936,-0.3633107443711113,-67.46027622053458,14.639266699881611,-17.295851050651194,-7.230080698459112],[-79.44299615504568,-35.510690063690504,23.474661523098973,-84.77584993504136,-69.4902970657681,31.654604228393232,-63.20162603146178,-23.898058958455067,32.88206057525802,99.78299223161912,-23.820580833809256,25.371284000827835,2.5092027459153416,-2.657241247394695,-18.18268193195384,36.87286171095257],[59.663181613240184,-23.33198564836535,4.867572435783931,-1.3600368052177432,45.709630041088296,-44.77095884968627,-32.922822944596554,25.657561089628583,-21.56355925313969,59.67265987485439,12.790110666322626,28.764334544149936,12.526924219885455,23.313356855303883,-37.20026447792146,21.368296102108594],[-25.241451972460325,-10.038821618328955,-97.14598859776116,11.901994688021007,10.162351324070098,15.096583363078725,-26.5249718805063,47.17495967794469,-53.81459594401969,47.15828581898948,28.827688845923923,46.445874317336504,-42.01946523580842,23.285391479218674,21.347784158417234,26.840642636038922],[-66.12826558832211,17.130544626689918,-19.212104411622462,44.45374415281837,77.20943794751227,48.90686570957495,-28.0226141748048,-44.447302749177055,-18.603632216356946,-82.55430478505676,-42.301825004045796,9.96723276006076,27.476860672878285,-8.450822819053329,29.250084210369423,20.65941487540345],[-32.815178583980455,8.393537421003922,13.688771617447706,17.043144458915595,99.17433926425976,-45.83621275517586,45.99919721788219,5.211489082188958,-2.5567547185321673,61.19889822432993,-25.088584882944634,-35.814791805219876,-88.11643716700125,-29.334854675151846,24.110424332929288,-49.153014687436325],[-26.62722061714487,-12.648054119692173,27.484511303960637,-91.7860645866417,-31.493928072220587,3.4688995533619806,40.67022778931065,-17.980736350726424,42.11326706307986,54.014678401739744,-51.53683780820211,-29.13481253571799,-62.1895345965588,0.2950905393039239,64.13322973272095,25.63598378838644],[53.51720159206512,30.347183769088666,-19.6665584659506,-67.14337250257704,-24.895846207098394,-31.304736867465206,-89.15411179376187,92.68870695909705,3.706614158347135,-24.268244920618915,-103.29252597875289,49.328495978123094,-39.66119969955733,-69.74408667353978,-8.628610175131424,-27.34749109223265],[-59.85994125032383,-76.66971675501414,68.61367807121056,21.363028394512146,39.28731476332285,-49.082486437794735,8.271391010749,-17.44695230983666,9.311710665536946,100.1884441475936,3.3592582338776635,24.820495280543955,2.571036369766621,-55.78764103350166,-75.73287382714693,7.808980277472136]],[[20.85766179533281,-22.951292257540747,-36.739390061599806,-25.963338491164997,-51.49312381320062,-18.764769739516066,-41.85408190261795,92.50956902471992,81.34394335814584,-26.43001105575352],[23.49121944912381,-59.16033227451292,45.782699159317524,-12.966986401006713,-43.02168015597163,33.28892603142127,-68.65147666127167,-73.88509564061046,-42.1714728029624,-89.4488506496474]]],"biases":[[18.502932852500752,24.664412737217287,20.142406277548968,19.473496124925603,6.253069385462375,5.411191502564559,-17.51558650530194,-19.144834969472843,-9.330944451258691,-1.995444559814136,18.771457283947623,-13.565941878070902,22.79847828122651,-1.2010065800856904,25.201158726010902,14.074292847404694],[15.434212997154392,1.1662404406949214,28.11879567144683,-8.407600067451774,-9.469972169842375,9.380576547078695,19.089999822602614,19.385002032267195,6.239115125449443,4.659874121882277],[-5.053321673247058,-8.841617176921652]],"_generation":506627,"_fitness":0}