{"layers":[12,16,10,2],"weights":[[[37.68067292830719,2.358708694528095,47.44574096004291,-21.45509558541687,16.514102224064604,89.24519110988834,-149.48129548619178,-75.56226245355364,-68.6663111441789,-16.381902239678848,31.203450807509526,-102.5537671854448],[-17.57739730138438,-60.04876608070341,-93.94223092777344,9.841756474349289,-0.03778199288651565,-33.100956325943706,-16.37281890367292,-73.7925938625101,91.68680165883144,-49.54194427758343,-54.33543294703354,-94.24114849032456],[-6.1160760296526675,23.71855714323096,22.3459735027283,-69.94011755580343,-60.272829752665636,101.84665729970389,-37.153355283685386,-45.689049787456646,9.31121687073461,31.60118906048109,113.91742617206285,88.74737314332754],[-57.197280213688195,-32.72319263023554,-14.477407238039438,68.19324174685332,162.4254064696255,-83.48580028350567,-21.725138484389184,16.701577555207543,-19.082629978063117,-26.676171899382204,1.2719005552438076,32.38841076760177],[19.675107032440394,-15.768514827357269,-22.845829508302,-4.812030425721359,86.29439196285485,-14.816667934837527,59.510813642407456,-32.71310781909994,35.98095371745826,63.95310811525671,1.723752140091525,62.90858293824642],[94.7290146486332,-1.3568463756249942,-68.79127685720813,-36.04298185189876,96.92628826397785,-60.92397773342465,-21.64427931392034,11.148075337849688,108.18050711095472,26.364209727206994,-48.08462309049645,-6.936342363199131],[-45.07149163106573,53.19638008455231,76.18836130797595,-39.149694854756085,-79.46395615911078,-37.328391367296234,-45.986201171437585,-3.2392665852086404,-75.35152675795095,56.37195692866116,-45.605625210259994,23.1347978389373],[19.045395515828286,-38.61737526542745,25.583246757938532,-18.732890303753877,26.569787488574345,-30.904514423082233,-25.308378164718565,15.393131124432939,-72.2008536604302,128.98243376998246,-37.8647054417763,99.71291828175913],[-9.487304620576,-15.467035559164392,-56.30354089694213,71.91698034095613,-35.07895753141302,69.67196307592742,-6.355955394454916,96.42468982189833,-9.327850877422435,7.832040800958991,-22.214533646388897,-0.9404255854551993],[68.96143910490066,95.72399878824001,-118.02676421907348,-22.671614869834368,-48.60631748469559,12.840373326487555,37.28232864255109,2.8989563208199614,-19.407876013837452,14.875685120056454,0.5786970900637562,-84.62648204845446],[-29.77378230509327,57.308929063590895,80.5259890210667,23.12352733881616,28.770570022882836,60.41872198285339,53.68136187784624,20.95978258075522,-2.571307806822563,-29.216442273026885,10.03357602711767,-19.278737904512433],[30.188619968770023,-70.96034167603533,77.8014134313882,-65.38131480988173,56.50278311292824,82.92252953671974,-64.0005213669876,16.504037334972256,18.716538200985664,-41.56007645828169,3.051863200750341,76.56516099900358],[-86.04454388638085,-33.818772675126134,13.149995953167792,-32.52776535552637,17.287494881842584,16.37095412385041,46.38505764356125,4.267305961618458,50.90202605119285,-107.29709779054409,17.46838898360886,19.91108818150329],[0.8731819539022612,-88.90468957351084,34.92768286514215,96.41905530223896,61.406984065061536,-33.320010789771665,-28.06397381712999,-80.11242563056416,49.65140374442335,19.594874586992354,20.613618895891243,129.74288801776353],[-25.030413044976715,-72.29258570401325,4.879869829720156,109.73834933204859,2.947628688544458,40.697307089542484,-7.607892352852274,24.13343745000009,-107.90028104465742,82.24180363137819,101.64228443280173,-9.532033587723971],[39.65956770439674,60.559205384023045,-109.15384621193334,-150.12406560388746,-32.781365543622776,-15.386908609886786,-21.800351026033315,-91.59114736878365,-93.56766811815983,-58.14452729959924,16.05932235982227,117.71119249555302]],[[-11.372680760049269,52.49614316287309,-19.4718633188354,-27.579617583609277,95.21099012597173,-26.619336411480592,2.794684905875503,-32.25433223528491,17.88261751720507,-32.653505888775605,-75.12055012332208,1.2943271338130693,13.028601738114705,43.309705252066074,-71.88036424953243,36.87721727420679],[24.743781075031812,-70.39065747307988,-2.38798691808347,45.17581078628158,-33.24301909081433,-42.759347816887725,58.488806063430005,24.72853936678935,64.13157588600126,59.5025341046794,-9.83785269760588,38.312342799971745,-78.0406316597322,13.990503059389214,-24.19455778745592,21.636603658518304],[-86.24808689664493,-53.60671011557525,27.43248756013164,-77.12466894859902,-43.23501648031618,44.35762779798474,-91.88219251645558,-5.021307047835695,69.59708670110604,89.13453410276082,-11.309036786756034,7.748109380288768,-32.11203830545416,-46.40142299759026,-52.747013840975185,-3.825740426582705],[72.5473774564901,13.22563643254698,29.601675229553262,18.67671790183743,48.87780526398971,-87.85250210137639,-54.83565106646774,16.289401196170804,15.197038674717781,68.4723758735032,-18.576442380108364,42.473441854399645,19.854167020506125,0.4103008019862622,-74.77980113299087,31.869689984358573],[2.196602696348714,-65.33799081121738,-89.25874379818262,30.569352466016838,22.933770436403606,-49.06088337206503,0.21007533002946172,29.303441005877104,-36.54707758281374,86.997120556814,42.10126741800744,28.371698779092934,-64.39797686586063,-9.945928270060982,5.935872008798502,33.1795807970741],[-150.7397373867825,8.429334360462986,-42.34938916801443,67.73289574803451,100.00774571166687,30.977114022975492,-33.560591368163806,24.005528982237344,-66.24854892955575,-17.005028190077844,-36.50051069012403,-5.402800300763107,24.217204313234788,-35.27280033155573,64.22455908670219,-2.195975784373731],[-92.99825280640015,20.831955139926364,14.142413254771531,48.055320166768325,173.4718127679986,-67.97851879672672,47.465406487385906,5.336105351691228,-13.362399699442232,10.152991297213362,-54.81661018289271,-61.580720528856,-114.54069999886235,-52.476661562002924,-36.58662020374679,-48.72812678286024],[-74.65755034565329,28.938440433314376,53.55946662277569,-137.22290155759916,-2.2626149851308135,-33.27563044744216,111.76274943206761,-29.727542376213286,72.53095224280233,5.121354153548921,-46.14308181339278,-44.533589141670575,-60.80164880550507,28.61082968408046,78.26579098542668,11.789645589060788],[45.2935362220165,32.33793738713063,3.3375845657562597,-27.46179733633304,-20.326460668187046,14.032546934674501,-101.08842225725333,112.42769053513724,-0.5729654911309606,48.05808317001955,-144.00412948286814,153.4258379376727,-27.438571899581184,-126.16755438511417,-83.45792486107315,-20.419102736962248],[-72.9238600176075,-67.28115250510277,141.30269776925348,-44.43855604431276,56.77639473068766,11.69625536252213,11.166873458554292,0.6142625259057594,-81.35424065120687,34.400918250975515,-18.10132586736156,128.58888230389758,12.849607496747154,-55.29951198872108,-112.81058457284385,3.7100239620409683]],[[36.75613244459592,-46.664877942349264,-41.00826099086752,-119.31635678398652,-88.50144724798407,-41.04979996372565,-28.16764811015569,98.16645972776875,55.11674200628101,-81.16949754380093],[59.38360026740288,-91.53024931614414,52.99577587592223,2.795106576605924,-49.24551199754505,16.011349323489082,-105.33772095297707,-35.887445429451624,-99.38985787690676,-43.268583971313916]]],"biases":[[5.416595448860582,47.12063749029151,31.97640093161464,15.431295297683198,28.80923984234422,9.76074077400529,-13.534483655928188,-13.937682665490376,-13.405702061316966,0.1781670440172391,19.446081354952693,-17.515244647820627,13.30575527760952,-0.01508433552953363,22.25456724976525,13.612309367044235],[35.27445403879337,-12.499951984646936,43.28276623340304,-10.58483490014304,-5.276877380320516,2.8251500754516985,3.8544241945378848,1.7748761466777847,24.477158119993096,0.8930072764677667],[7.953356481757501,-21.32585423136207]],"_generation":766627,"_fitness":0}