{"layers":[12,16,10,2],"weights":[[[30.820546832837824,-3.540176285408455,54.669043995259734,-17.296893346652546,30.150419985462047,78.94445728061548,-138.52137358792413,-77.21131181909446,-46.65999910133927,-14.691215986325227,37.70851240903673,-106.9302203888],[-16.002896041632646,-70.19081159634631,-95.51122128940347,28.470349310696086,0.5717835215039495,-24.893880105707407,-36.440693971303716,-69.87855501642557,88.58117242698798,-56.3487018819411,-54.567205194122025,-96.06925056609208],[-19.807708108898566,17.560890999271933,30.08922192705923,-66.49913455924766,-52.34685387060576,102.9457347201508,-50.39611641842898,-41.42743879384614,9.900323776701018,30.76051346983478,126.55231464714778,94.23846958366406],[-56.092270851883654,-22.319554903315453,-10.943301665043128,53.25468289402281,160.44838985223137,-81.20020313327548,-32.20201804867577,23.086188434724534,-17.951448333086276,-25.9314006428977,8.709267010461069,40.99361971083567],[15.402228173736948,-22.60081479866421,-9.550364254676097,-7.107816699754172,76.89009344514288,-6.744295706730945,59.90641100540369,-35.566921922697745,50.89948983696303,56.907729869666994,-18.31158080705096,73.88233946498761],[78.78222097517798,-12.061212900768945,-68.5426598736006,-32.3536987993367,84.20906635288877,-50.591063179221464,-19.80210314902515,10.214435230113164,100.72424741105684,16.779874705699157,-43.157467548962465,-12.505864512024601],[-38.9910482602954,59.52778091457361,65.25254496164753,-43.41039592208303,-80.75831680739891,-52.94401042358012,-61.22388671375729,-10.829562041258086,-81.29318970821974,50.6712682038091,-28.928006908338936,10.184429253889922],[23.121548539071682,-33.786281465522194,31.504231137567345,-22.285717091275785,25.82335057150912,-23.912959355207736,-39.88633810130128,10.366612926074765,-62.28598647483738,116.05919354546737,-28.266888698407186,110.89680287806863],[-9.984622152915014,-16.323284575614764,-42.63133122786657,77.39360601534494,-28.076458533265306,71.72036806750197,-1.7510996921034172,83.67917609463785,15.420628787646292,6.27067085821716,-14.074944160037825,6.362013260435348],[77.61184990627508,101.14251541406789,-124.14532132509923,-36.40068052517697,-62.90941857952308,5.035152443880292,40.53872880696072,27.1144714519802,-13.620840851106683,22.043273118723434,-6.4470813704435574,-62.48173902185517],[-35.61104789490795,55.21810459467352,59.891707449261325,29.588587921795977,13.64926961087285,39.98931292596856,49.09984464348543,15.71765800873893,6.549469946835825,-21.14890002606607,13.431581185550472,-14.040617451210904],[24.710334771788347,-62.76517775970756,76.01025736069809,-60.4132411285486,70.96893520807775,74.58712586662426,-51.66145819344337,20.650923696013024,17.396116818269583,-52.14017961911453,-8.887471722030524,75.32757260566127],[-85.18208704557213,-30.18830005184549,14.215919486854522,-36.26833623043085,25.489471511830356,9.072823352406648,36.08213661965332,5.609079205091835,46.89777865448542,-114.78465500293602,13.347608794942706,29.000560151639736],[10.936012114571168,-92.68368888392811,24.806508826604528,80.76631010489187,47.731391086857755,-51.10141849876322,-34.34229855260208,-96.7235365733351,52.01206306196812,30.925198230795015,11.249652242540911,95.40545015708054],[-2.4925579482314406,-61.778024903500096,11.40971803617437,105.19621750639268,4.001228743937666,45.35869016359842,-12.604163349427035,33.13234091917697,-93.3437074592701,91.35548682325845,104.45445751752888,1.1574443167370148],[48.11211769768856,65.25389125148371,-113.94909616089265,-148.00769888800198,-26.55345569861009,-11.05411997574095,-25.503428716736348,-93.88256012510806,-100.49494221621764,-53.28046456987971,18.24780525083459,113.34887398701181]],[[-9.81856060327965,52.83415229280856,-17.730880506909344,-41.59083010972801,102.91041664088502,-28.866221401421434,-22.31393496207787,-22.567681713941557,10.34912671774357,-50.88654123188293,-87.06194612333137,5.264876519646693,6.945736831318335,37.126396524884754,-62.678516963514255,45.18589079924228],[19.605708676594432,-75.22284925123081,-8.63490450176353,34.86303779632667,-33.904191299331536,-41.317318848913494,74.6819466709231,29.47523322642462,47.498263224375066,67.1717561969108,-7.2945848696335345,17.767574112878396,-76.50214194060402,17.875721898014362,-33.50447044603886,33.19125158419875],[-95.80325079194031,-43.82454065621234,16.75793798686489,-81.27085923649088,-34.79406257088413,48.926338708050274,-91.61433503086161,-2.2372559315879306,74.14587322429074,90.34200263718778,-17.671377731714962,2.172606125210994,-27.54900999994675,-57.691189822515625,-29.0551103794235,8.397662942149797],[74.36652025274984,20.588541208752495,14.658514010605213,15.800032215859787,43.804978016637364,-90.59034745764403,-56.82193305002509,18.25276157616593,21.265850569708483,74.84842794051673,-14.602681506928676,44.60459255006619,22.66970815708522,-0.7155722399121781,-72.05559360026943,28.98499748871469],[4.251423077601376,-65.10832523451495,-87.03304679036005,19.6787439617682,17.614733110496886,-47.962988066802716,1.977297728442048,29.88368488711632,-52.77219842475198,82.74805178598419,53.71683948312711,25.905732807899486,-60.68661840371833,-19.043384546401498,22.749627944217213,40.139304536063385],[-134.82650004642306,16.507979960297963,-40.36891663110243,76.09876969493668,100.56709916328356,22.49554199202747,-30.36928082034071,12.327501100891018,-59.68262338031993,-32.62489841167887,-33.0547844863378,-14.584039695084023,22.64401370786504,-40.15366134572583,58.09634040884659,0.030711005634384447],[-98.32496121695829,19.581433108936253,6.254639509364378,42.76380781224283,180.44366543215358,-49.490237602291764,38.134734729674186,-0.19194799571867277,-35.59083972946579,14.420474907893457,-33.9848783599577,-56.651356582304906,-115.72994084655834,-63.11065035992133,-35.48176690889185,-38.06118379584167],[-60.02647453249938,19.040645437888,61.14003001068694,-131.18036703095655,-19.332267503738983,-37.007929680996625,104.08468030420629,-23.29241837003053,64.25618553870086,7.271751274720182,-47.72988607244357,-29.14705949017011,-52.13601499925023,18.434143024242843,69.41798603236604,10.336326298774477],[31.355102993790055,39.29118636618665,9.121138674512714,-55.49330573071472,-27.13818360552007,14.493828436635605,-86.78262290177337,125.13080975557615,13.941064996293305,19.63975222937124,-151.23717395230443,142.76221926323237,-38.51625867874357,-117.49361456032746,-82.93139099610043,-30.398369035209583],[-71.41381571707194,-56.72879937679625,137.63225608818246,-29.251130100825492,37.38449217396497,14.057156065993691,7.22323504722421,6.644599701223971,-85.48771745936152,38.48861345107449,-22.58265906241281,126.03247310858437,17.220699248687385,-61.892626490353315,-109.27745632290063,21.05708934052047]],[[40.32605241739749,-44.72983640635205,-27.07024711488608,-101.06841855157464,-71.20335577967128,-45.34638477754972,-30.135724381785824,102.28563905528937,63.81134837249212,-73.39038099125531],[46.369965558383605,-79.36023175532468,56.19464434624763,4.764425252539944,-46.72737963231695,14.43726606154323,-92.77525456135596,-27.686183504900235,-102.8369179642833,-42.8511416007302]]],"biases":[[4.402670034191967,46.07002957151837,30.553417366123334,17.688810752321878,29.5735003638085,10.130439842315017,-15.824696125803227,-15.292507395848812,-15.717700165248225,1.1122529223274733,19.71558930709341,-13.711399541499796,11.409401220093047,-1.4544944519500813,24.730112089961303,13.412303563296259],[30.49736141045148,-14.597184087754503,38.86221239785265,-7.268603930784137,-8.14556500321957,-0.397548182654729,6.793317939319931,4.020608411349316,22.3678441190254,3.0561401621584765],[7.574303188351676,-19.207317701161113]],"_generation":746627,"_fitness":0}