{"layers":[12,16,10,2],"weights":[[[-7.38410569369806,-3.445647633720891,4.6627429832833185,-2.63564894767297,15.419509498882856,-9.034830916105612,-6.834679866320541,-1.6716443751415289,-8.769458478744523,-5.3836859932221195,-10.358954386691147,7.908762633932856],[-7.780412455984859,-35.24279219511977,-2.102271851002276,-13.748351716165253,14.722163125918309,-4.05578152958224,-5.7616876071131236,-35.99545546308896,-5.265524301549229,-8.993771685142189,-13.02535690621538,-13.294419156707429],[29.033201253644386,-5.408025093381769,-2.1015264269068434,8.131705495739757,-50.92361057280234,0.6053503476023612,-4.152178827522748,-8.559122837032348,5.992825119155611,8.897588883526025,27.537144404539287,13.50153031988666],[-3.4343614504611457,-3.246755991411206,3.443313656470265,9.171120490641094,48.88672348880846,9.790111273671016,-5.236142211620954,6.178722864438857,6.223688701961292,-6.421550509436851,-11.047624651269023,0.6294515394274491],[2.7978056864647973,-4.810619841832983,-12.719463188916308,14.214245880284766,-18.20194730791532,0.17656744383103806,-7.858229252625825,1.6549005946257553,-9.151908757807401,14.07945042575919,5.420832118046631,-6.464920139630692],[-5.776506416828831,0.04447562011706721,19.908653558312825,-11.964293930126328,-11.521649947220114,13.87599759691105,11.678321456529105,13.687743244435541,-3.1410116685710547,7.282084962387644,-0.08502959638906625,22.88295326862335],[1.8308739331368133,8.821039470519306,-0.4583597285761046,8.38684522382027,-6.220661209983473,-5.158809974115272,-5.805822911283335,-2.1542400950209,-0.37895827688317896,-22.56328134877916,-0.8822234357213536,3.9915280924203156],[4.856042634006262,-7.944801615196197,-25.102903892223157,-11.43223657160719,4.333631098146961,4.03350668764377,-4.058741962610216,-14.252906559701007,11.609102063175047,-4.462796714922275,-0.7941253828612642,5.10258056734464],[24.32088139769185,18.155512285919613,10.016822978934364,-1.240207872067269,-10.22343379205444,6.674595201470518,18.371051648691573,0.04047243126635133,1.687569479967653,-6.691800059095852,5.596439372385104,-10.448287648887833],[35.02278150622082,8.479632492924852,-6.978476362053495,8.423548911400376,-10.986299555184168,-18.615683416299202,22.17131391693629,-2.3559234871172006,14.516465030968334,-22.312307462090743,3.0611429594329773,-7.198063414202193],[-3.963238298778529,-11.766795065671548,-2.3370202564132962,-23.402848539737334,-17.971342491342938,41.05569904014293,4.532306421503985,2.8467866798794668,8.361710934892148,-0.8443608314944042,1.5501269996761335,-9.829717610109162],[8.83006679449746,36.55152904524815,-6.884791845774502,5.942248097948229,21.270082371688538,26.916081305885353,-1.7830023156907417,-0.6622653048418841,-11.27514192948212,10.680844904408964,-18.186208913270455,-6.295535651633108],[-22.935150763126636,13.905356184385917,27.301077509147483,5.70874017326713,38.74843334269017,-8.118059062322239,5.954834754180476,-12.715079915842455,-3.962884349276581,10.050144537575079,-12.925217532972027,12.289265093426655],[-4.800537353590681,-0.3069380091951632,-4.35846259232436,9.549281123464505,25.78340166721919,13.014225770536637,-12.768907725893547,-16.87348427039716,-9.406888068703909,-8.369717602297072,-2.210618443009601,23.859824637396834],[0.8728489959352936,11.312775434526923,-14.274465816227208,27.53439834302112,6.203595802719834,3.839088855102601,-3.2301303525338674,5.036599291988783,5.591280634960746,11.013364723854872,-0.13108647569479467,9.71317968482641],[36.45572445769716,25.302053703415243,-18.36585862766972,-19.734466937028095,-15.033292484744301,-17.379668023707598,-15.354014012515554,3.04886152243249,-2.9957535547821057,4.314345785741929,5.538887461885083,15.485091698882963]],[[-5.717955070885394,4.621853841022017,-10.8696645137885,-6.6181558079733485,-8.86313617873588,5.208765615131794,16.77505507266319,16.02670050185402,9.69850988829362,-16.189451611597075,-24.649577340596988,-4.424186623533361,-12.805897591995373,6.175626509735155,14.88433129867618,12.009141799135094],[7.741590565019655,-6.9836297465093455,21.52866833648216,2.4785297265414457,-35.38758420322829,8.452803395378904,10.205859429734339,3.870993186506851,9.649321436927258,4.007273106377351,-8.80754165714225,4.275166913408651,-0.9240354100484531,32.015857017944704,-3.7073421193268388,35.336361168173745],[2.0560769319341548,-28.66459698373077,0.9353161379613798,-13.455647230924246,-19.85303020186403,13.926879872609875,16.153902030319625,-1.4663513408842856,7.158357386665362,-4.014668000205044,-27.882457047646334,37.72817647299545,14.41674092181404,-31.860017935362404,-7.666648582226517,12.213659167925446],[-0.014513927253088643,6.525532086783369,16.826288695841136,6.899270898103071,19.276698332227703,-12.073682127109516,0.9842679315772415,33.702556498160966,-1.2169632771018832,30.653942422613206,-16.165062505463666,18.02582932468548,-4.210199687760888,2.8892159509077247,-7.8351647017610375,-5.378498856870438],[-3.3814715630623713,18.13967878290533,-10.398398966474515,-8.288978892008162,8.225212858127673,-8.144685233909364,-15.691941610722864,22.034851009123496,-13.33841117061859,-9.987105751494811,-15.281763841285485,-10.25475469861133,-7.48006952673649,8.925506054794763,6.40063560879926,-0.1187959199535421],[11.386108773941107,16.24072708701271,6.736082480282405,29.695079172365027,12.855050311853459,2.998164717753953,-10.072623599835682,-4.700047516423788,-10.249401174869973,-5.005472265205877,1.0736734261773622,-8.893575371193362,26.42561295602232,-8.3438623781644,-10.692674527023453,-12.212245381061896],[11.021786727520956,13.987914239960174,8.65501454141228,-11.883574799671052,10.986513197526303,1.438645741097994,5.697221081140888,-5.341123016380014,-7.497258714593415,18.981678706631254,0.07132906292739188,33.870724544369764,4.967033764044162,6.73985195825766,-33.3952664792171,-0.12299139888876916],[-30.41493335872534,-16.25699272098216,20.581227304007363,-28.955635529169903,21.91354100871065,7.204296197358263,-2.8676009905351654,-8.367862361284928,1.797017889206273,-3.9125234312715422,-2.806540226926183,-9.000815673206953,-5.360260209004997,-20.994699689590487,11.873420034777215,-3.603441626171635],[-20.863027160968283,3.51394339980416,6.46680275349924,-2.1702725422839735,3.942080810479386,0.18066877762723105,-21.218863386051048,28.39863402895727,6.496859717319766,24.365315947825927,-2.7466199861462,7.471557738367581,3.539996901658967,-4.679061290897043,-8.818150298826184,-16.155349771682623],[-3.062122040272749,-5.665915527637896,10.654833906701564,-8.982960277038815,9.092043121782469,0.6989701757030254,-19.765034755945067,3.3310825319943294,-0.0016397423145654844,7.382612284216955,-13.612891051061668,0.8429470690587852,17.464369791407453,5.998828108398085,-15.570978114627694,-18.94985963745861]],[[-8.980156805928294,-0.8258564550214288,-12.056128294509357,-9.300836217384104,2.15933095868585,-20.302679080922925,-3.6918128976634765,36.759152483904494,10.905222451975618,1.2866353559394288],[6.767369226011765,-5.039907571485729,8.222256916524241,-12.802692279444717,-24.64263459581916,8.931245517919699,18.61308483127327,-8.66971425845039,-9.771167456371614,11.629244530280431]]],"biases":[[-2.1432218155468177,-0.6891429082655948,-1.1991797903945207,4.730296859872934,5.09400005634854,-1.6882226274913996,-2.5603357467949284,-0.8588945834329085,-0.528745822579326,-1.2672141840822921,3.778771466242543,-7.360965786727152,1.3108937669468526,-1.749501953130311,-5.193537555904063,4.368809698650449],[6.086550504458635,-1.941711753762004,1.1392245298497647,-4.687028712965785,2.6468599391624976,-0.9566027092352536,5.024901548165386,4.183630300064036,1.4316566786997762,-6.5829639194018705],[2.382794001757498,2.712563544575781]],"_generation":44627,"_fitness":0}