{"layers":[12,16,10,2],"weights":[[[32.70739300637066,-15.308497630956179,81.66235826193567,-41.400545257967316,-1.0281167841227479,59.86639013850886,-76.85662120110952,-94.03217782646337,-4.382565755534273,-18.69367671268353,-7.352032991739376,-53.02555351989688],[-5.187535669764703,-49.48083691707442,-58.66466091849458,-22.563566518429795,-5.104471768300036,-42.846127498120666,-50.88554701360401,-80.64805110853183,51.17553722895557,12.292293575247298,-31.20453690722339,-17.89462192283297],[-10.529087181075681,-7.789371608232553,24.927727678464294,2.5386207219381034,-43.623660950569366,57.131789189894945,-2.1060228613466334,-21.213768817283615,30.572183029226025,33.53036826017167,69.30904824482859,8.516167077487871],[-28.652451493732205,4.366742455468257,-27.542328189496683,46.75179310011299,139.1596952681155,-92.04662018668091,-9.294143890945563,-7.264377918466694,-9.907027724330687,-10.933987166383575,-4.617726978718771,32.908825202763104],[-15.187407206480868,-9.621630128018912,2.183729658952651,8.406343971934751,48.29191686347887,-7.074070395543969,33.14230367939739,-9.403923939496643,5.926404988974755,23.610584478414243,-30.363278886220968,-11.7101894247847],[12.885776887000661,3.290587489115296,-44.97871465859459,-88.32291171321404,37.25234293131438,10.998290446308735,31.563515890650756,17.98618185610765,69.4274750001743,68.45587686502022,34.045405769213765,34.20070409511943],[-49.5212523056093,27.099021181155443,-14.053707340368053,13.04936409704246,-20.30724883846038,-9.077332938377756,-29.991862100413854,25.311349034137542,-28.87630481780936,-7.9033393837126376,11.035256912391548,29.448058729229956],[-6.56579086119762,-54.72408905112886,-13.6627982519871,-36.34999592409817,14.374285403033255,9.69000170914581,65.75975533288074,-44.47813450471437,-18.287829600773744,34.98920282087634,-40.494567443767366,33.960640669317335],[60.61308807294183,8.589959331371618,-33.49383692362651,62.990726411775306,-4.098972668944971,35.883936861938054,8.933860914076238,0.08192359684454287,27.137410493037514,-13.751316661434222,-16.699988492559086,18.880120414541672],[86.63517136390615,111.68811813072078,-86.47016313271737,-3.3141614297535167,-37.189672025904976,0.35532864568321565,16.48583457035635,9.15653684597628,7.352793455244486,3.0612670444742096,-3.35234283309055,-34.77254132288501],[-35.09638743573154,10.217385000041412,62.42625199593811,79.75938157293724,5.9744050016438734,47.65773778943382,-7.676143274730164,4.871320176191779,-30.08631915115055,-44.305558448653336,62.26450845077836,-68.07685778587965],[49.843420578133795,-13.757961514050029,10.376811527034878,-20.92794004858061,126.97819049524661,45.89312352806038,30.222597499218722,12.334381465234722,-10.63024499360905,-7.8665702018763,-38.79404829606296,40.27414048039057],[-48.36950974046421,-37.362302778705484,-11.898548170666146,13.194408086866853,48.723682731363624,15.769807390053366,17.16642101553984,9.885131024701913,22.58958753615261,-55.33105378436744,-32.81396634192272,10.948140428660196],[28.06209405866128,-56.34343949252063,-40.69695537853349,24.710395188895536,112.61780140150144,29.402205516267955,-36.64036469944852,-78.42518627769725,5.486600113517911,50.25106862247708,-3.771848205691756,67.67510637889771],[5.409996011618096,1.857010946424388,-39.83060247603774,86.07265669620816,24.52717648715017,59.020731753070564,-20.885729473945922,15.270412647100745,-99.58906205987707,54.29173254858733,77.4392548811463,52.17137190600254],[10.39013370342641,53.56646158979029,-48.95198762112071,-136.36453407218946,-65.92068635330834,-21.672821161573758,-17.515853742070224,-31.216248753752563,-46.50249020542133,-53.51460646497914,23.175728990327443,87.18368107325662]],[[0.8106005750903489,49.17476356235344,-3.0870661282425793,-29.531891232614143,83.13257785423225,-14.260568479197229,-25.96342121842932,25.017705373027106,-39.31402117167146,-30.307471111053477,-47.67343913904123,44.04105317874726,18.090310674495658,43.28655561963351,-43.310600874154716,52.10204984564916],[14.245309334214607,-38.739181674778806,20.119798780062307,30.86093793788654,19.358077582570967,-10.489533307334042,16.735807786062747,-7.843394039803284,96.36840394318249,59.100570474733225,-7.3832767158287425,4.051475051457695,-58.80122926726371,58.27671730454373,-20.369151608872098,5.308068169856119],[-43.28332367629824,-10.424566009681667,32.601341418626845,-74.67855970114839,-62.249195414623166,25.15110777715581,-61.641925696956996,-36.04611902390086,11.93800592256429,98.15843715975784,-29.279803118956828,27.318246641792037,-18.17373146244802,-30.901476754319376,-19.010502845113937,31.98431053096812],[40.51247174136328,-24.182025042739337,-7.187741884316691,7.850158580497031,45.66561956374457,-31.48375064908626,-59.294957426916135,26.54944964151257,-57.61566450521404,70.06176212683499,-21.62302110594335,23.918397398037865,1.4533247325655727,13.638726148999426,-4.403574124890519,33.90343521641299],[-18.747062148251366,-20.68852145390073,-28.910942833741714,25.889225443669122,-14.804173315421574,62.50982866563489,5.976019842443442,58.958420855206434,-65.46528241486907,18.60966326802229,10.441363276091515,53.63753566789679,-39.546860964783626,20.31250732890281,12.503198236062412,21.26883146018407],[-34.33261703480255,23.18258894064779,-48.285429991742554,57.303433694901145,33.232004566674746,45.280380083241305,-24.850049365833033,-16.807011388198646,-14.215895942868347,-66.20453274158696,-21.994675014963512,13.113157645199308,16.507965376119312,-15.4323156908636,31.383208617055743,5.762304088055],[-46.15483769936478,-14.607887744717111,44.36760010939319,1.5669322694467323,56.995430113125465,-32.81550026019911,49.588307100932404,-14.680501475580147,46.50082166458823,63.27015841617153,-25.503968667198585,-0.6085194365327933,-61.71069235809782,-32.55585355848529,15.708092620889742,-49.370185523156444],[-27.453007933683487,-31.324957606170017,29.4793200431387,-96.9219497130683,-28.7494830154289,23.53181085839706,26.92308962783294,11.887449852759858,35.965672396515664,51.359191698167734,-29.224294222547922,-46.2811984059718,-46.09768515195995,5.933203439140918,65.64437946046723,0.12197952402446224],[1.0011328609046712,38.57012333866823,3.6040698149810515,-40.02621265490552,-21.733186540514343,-61.35062007826382,-43.70743145048837,88.39425476419366,0.6385479188998774,20.84982185511893,-82.03820531557677,43.780337793098845,-25.29263102772329,-26.112852781827783,-18.3860694054976,-28.701303265400668],[-12.938751155625283,-67.07700223799117,41.05939084522007,27.636139339862694,36.77944466374123,-51.03382919966174,43.081376190577636,-22.03288473077391,0.28144318697690507,98.45632474407967,14.9575861296094,48.74319726303413,-16.238540500337223,-29.272983851462392,-54.61996297214924,16.182952006510273]],[[39.01362442220377,-5.265292155712515,-12.303956146918388,-29.83472625016575,-59.54734095121696,2.670272757349856,-45.43543524786949,73.6915337602947,110.68540195684908,-43.06558041765754],[40.95442689083413,-36.30813496213827,30.545237156264317,-18.612735516710167,0.10252954504357814,40.605321547928334,-57.15514951845426,-29.823449205575436,7.452057838167413,-82.36731841519705]]],"biases":[[16.736825776592724,21.683847379503284,18.882149641303084,27.35763937519661,8.751611672202689,-0.6917239151983401,-15.299236508669036,-13.189409400736276,-10.379620046943025,-4.82417493556811,15.438619022818221,-10.421512731242402,22.563427628226503,1.6215449210129649,24.627988802405167,14.18694380554455],[21.04854753133946,-1.239056351110746,22.49356109995859,-6.375247323606714,-2.927548185952318,5.041955964225128,13.363965245627504,18.85961849151304,3.7558759707288982,-8.62377186411757],[-8.181184807296772,-11.74849485302672]],"_generation":421627,"_fitness":0}