{"layers":[12,16,10,2],"weights":[[[-0.8141374382410953,-14.16107616005555,33.71193598909443,-18.14594153479623,12.551496171044814,40.457861793573514,-26.30712359302333,-40.09485355531424,13.918767021140058,-0.4464215736089564,25.032640410050323,-43.91004929266374],[-3.4745512496808826,-55.49663447767777,-24.531562865194864,-15.69503739189952,-46.693999250182344,-46.505795051617305,-30.856668068225595,-45.71131413480884,-4.264333829834128,-34.973567019287465,-3.7654761312411895,9.330390264134515],[9.665433323745251,-6.007231176726646,39.034979479537306,23.03817117029968,-63.4119451091017,9.437436866670538,-2.1982459429484855,-4.032394179647973,-13.321651536833029,5.95750935207497,79.70524835629938,-0.7891245180475617],[6.549675153205363,13.178736194378967,9.910253361348312,15.068427074177905,117.75470284227863,-13.905504885165248,0.5366653611574568,-3.7404374293636877,-18.081550263784276,-21.44268286319612,-20.496964299315753,-10.902660878221088],[-15.331142270951933,-21.453918916361705,-13.191661924303405,16.38348595095308,-3.2650132726920083,-35.02033008870519,-10.331490112860212,-19.181300346071563,-34.372666432235306,-13.422445301641176,-20.88611108200625,6.283269748040432],[24.219384987159764,9.110211185901788,-15.478481577414023,-42.36692745791872,-15.663248715580924,22.444663973639116,45.123162244785334,-9.00564402263496,12.676045566778559,38.69428770236578,-26.499219994160494,36.20236497661377],[-39.27223504116077,37.178708067816295,-15.224927470186222,31.804882171635555,-37.80942202709158,-6.971258473544178,-28.4508735449819,4.251693737346715,-31.289403120332004,-5.715223724554337,11.831990862101723,38.96536869006176],[-1.2586872863274512,-42.89826390457439,19.10531996083704,-19.499890457894516,-11.815622965928128,1.8647727522074615,16.692547298679553,-45.718705321113404,-24.368301468256888,1.4800844402092115,-11.60618651131203,25.772991193648924],[61.775807537326266,3.9875483047710656,-2.434951609058113,40.36857604767318,-12.559806693561615,19.12046519764377,15.470762204780486,3.464681718935262,17.986861732507297,-9.437856092081695,11.692110859457706,26.24829788385482],[74.07750676565085,81.26918922581868,-85.02300181895185,-29.096079523402643,-42.5475768942686,-48.93305220388228,27.50557043029118,-25.84205105051733,36.46347714343064,-11.63960097753104,8.115100598161998,-60.978007359485474],[-31.491793919463774,-33.6776882126623,66.50854966488407,3.2605422106837256,-1.5822549575838336,62.638745968912204,-2.0669717117714006,35.01395044140299,1.0087723536803788,-15.457703051525655,26.291707462897193,-30.496239028357184],[2.0210138960051918,8.786761982780407,7.7262786613944385,-12.397121655228368,103.56247885214194,51.86547011737828,9.530296430296968,11.360578201044952,-13.452063089399642,28.435349738514663,-62.174716137597855,32.78986174977824],[-31.879333245413463,-56.166721001381305,-8.686118332975187,18.954325785008773,65.55334645714372,13.685925106707995,1.5383920502490074,2.4175765655766415,-3.794944122565343,2.167063574907621,-21.583547037636063,51.59329311201749],[11.544025746797567,14.517378132533635,-3.9240915540948613,17.848772214161073,69.98681619421355,4.193994378420383,-13.099526543858769,-54.03854206914208,14.314845931261658,17.776996765340883,-57.4573740421893,76.31199532232742],[20.295371824556668,-32.96525790235949,14.076236916027602,56.32263947830174,3.844706138012144,65.14070688086811,-8.629061159001894,5.529524213949908,-68.51305028223557,20.132140971565825,24.150503838073192,45.68429512175966],[28.29634486493579,50.40376974477671,-12.405728469716111,-84.19928035226047,-58.25042164387218,-26.35528671798365,-38.08605853776359,-15.7690597522449,-30.96443356968344,43.81509523334797,1.5113542232358381,65.72894169415665]],[[10.648354013655947,1.7005505596179775,-34.400502023866125,-4.056768729447765,75.22038846298457,-11.551275676734633,-9.560191555306464,24.11512702828789,-10.95169893363423,-28.39852976207658,-30.598510577026136,25.53611058228102,15.452273678599637,40.75558439566694,-44.587781441300024,31.64251804155924],[-13.54339191066352,6.379217940634616,20.43795110403619,45.3441026955017,-11.25465303314684,6.549260956684707,10.303575384746388,-8.977460616056366,79.70755635521853,41.96729225377708,-14.79521915038471,-3.901147175324589,-75.01488225649474,59.26917863535495,-6.4841635350253455,-4.371746633953825],[0.4916604145932651,-14.309493229737727,24.221210978482073,-33.34802269411973,-34.06737160664383,7.755301560592786,9.447695050140048,-63.515554609733876,-30.357940218866446,44.79743078991007,-34.79887110851841,13.023532526789309,-8.36645154675994,-13.153761412867654,-14.808081104127918,-2.529100162248283],[29.210793204900302,35.37841229410197,-11.381356507354205,18.43933961507624,7.930184791131528,-23.21562956362311,-38.90681420508167,13.205476106040399,-3.814602660315927,22.012558952788037,-46.49200308128303,32.58509903428682,15.372706260280747,26.30465702636438,-2.136812067487921,44.3021987442874],[-4.659521236802614,-1.7660194892411876,16.94519504736167,21.948178136768636,18.20487550714128,2.330859488356662,11.502028500793205,29.6283483472013,-42.59579919755269,8.98387064425788,-34.96853253598661,32.14462786588323,-30.650291089382513,10.90072693224183,4.063322752101775,-28.84939632210396],[-27.740719086384846,42.93801371876113,-1.7558001578570843,42.80010509264233,4.610726317443547,22.779925939695673,7.0835986732624,-18.92645011395331,22.530975693145024,-41.147071351056766,21.176417878619947,19.506379507704622,40.565815612993084,-50.079836732511296,-24.382952854278955,25.69206448306447],[26.862400978388667,-1.7702362750463425,-1.2319425282586196,-42.46295371301148,34.13011720955172,-13.987592335844438,46.78411920854755,15.70257654209992,41.20585303845769,74.24250878403804,-4.43397598013517,11.87720629033266,-9.026539058008709,-42.817951126837386,-39.47559376921622,-3.668028752949283],[-15.90017268718139,-14.285194058214609,19.987371080838336,-79.78201145463136,11.983609879414873,2.2502917934790214,-7.468556567080257,12.466620036316645,15.051129373780327,6.870491645106283,-14.978764620649102,-38.79064340772799,-30.25099677424133,-15.400404889834258,22.039975031187833,-35.989356794207914],[-14.19104650110728,7.493732817037985,-22.447858996779594,-44.17330996590422,-19.08598701790215,-27.30893870603787,-36.555297681970615,44.39155234575061,27.349938205544003,25.733028397312047,-18.88410909455352,45.417552439028974,-30.323457685918857,4.695995857561286,-13.944104240386096,16.763465331849467],[-14.71432342755661,-66.80320978165108,9.499619048770244,52.74609770690553,-6.324852149407186,-44.48971560811965,30.581438469460593,-2.6084526816246507,-27.192275794861818,38.215656709299125,23.741299010623706,0.6343045412931045,-25.108650830365914,30.891623383885022,-46.16375365238957,-6.816149608415746]],[[-6.685686469289271,-5.722232396632077,-5.1419064241716,-25.75866847006561,-23.961003676829964,-11.39890056613265,-18.830364426804568,48.07885011026875,37.64627318891844,-5.67018119209939],[54.638041369984336,-28.66324694179325,35.383137332415274,3.2081220843022056,-30.00943860187709,31.090070620677373,-44.136865008468256,-39.91872045143937,25.838826724766825,-54.213162025523765]]],"biases":[[9.772101057470548,19.27490627682912,10.623476779155714,10.5850944026526,10.71026130131326,-1.847872861672313,-8.044488416633506,-0.28079531673733943,-14.319108861017448,3.563403720297468,-0.69219383695506,-11.765976029820964,10.726617764062022,5.150812583649713,15.82882930380561,13.679747742477282],[12.413262236014244,-0.28363473096224384,19.543397476579003,-8.265982760279773,-8.890224071367367,3.180400659519012,10.73145372406241,13.648390156121541,9.141855433828251,-0.13695777444769075],[13.267649096623016,-3.602934003550975]],"_generation":241627,"_fitness":0}