{"layers":[12,16,10,2],"weights":[[[4.198710864144791,2.5554421174597888,-4.140529879963077,-1.8310796920349388,-2.4350858514348537,1.3469377699606044,-5.925997063176518,2.1168233533376517,1.2137580952780707,-5.271895922000241,-4.3358267069250935,-2.26209896682557],[-1.3247547525370258,-5.3081284037542025,-13.218766053111855,3.126968013574224,0.7212911574991996,-5.034691075360732,0.9062262426480214,2.290155243935772,-2.7673189335303445,-1.9169717972709284,1.2628569738563504,-5.126245996288251],[1.2110494457215892,-3.32186223775722,-8.471861294366501,-0.3610550367853461,-8.814683901725743,-1.5785952947613076,-2.463733672327284,2.552141438078292,-0.7538593942152508,7.424789183222393,5.686794909419268,-0.22905522880620585],[-2.9765341582842058,-3.5918302456125213,2.6991778198474106,1.6343872777283508,14.05470116208773,-0.4489855431231252,-4.933750842875529,1.4135008977485815,2.0737533337491416,3.805195700252413,-2.4926322665475893,-1.4874209637253313],[-0.43944084603934674,2.176465925868917,-2.8964999854020146,3.561952268579818,-3.3704983883461437,-0.5102239936279043,-1.6107059084438846,0.5108298439404674,-1.4475645884581896,-2.907974754379135,3.187759034153378,-6.390227246617987],[-1.5771187977535264,-0.6058985296224861,1.5189854387862698,-0.466678084709886,-4.235563719106019,3.15417122070082,-0.7421239575903389,2.73850398366762,1.920325353843929,1.4645110744531546,2.986539866335373,4.548923615394775],[0.8893261861468705,-0.8632602382490678,-0.08151914308302413,1.9544161693773952,-0.4401691465681694,-0.14055508790301285,-0.18115535648464293,-4.517619486729464,3.808580899891136,-5.79822080160738,-3.0861164770136176,-0.5524320895499036],[-4.756221017801176,0.08126892544343328,-4.659165991530187,3.908833352194031,5.1767800217857705,-1.8130064333348828,-12.100027137338014,-0.965187521547774,0.06990670855372616,-1.5452452253626228,-4.726889510150599,4.176380224684092],[-2.375999373915404,0.3486355861726027,-0.7551686487953366,5.481580918497464,-9.943644745492932,-3.1319193434817745,-1.8835391622425368,4.831691722448764,-3.559571558974973,1.814437448100002,0.9421430980832959,-1.3819333946116688],[4.728682263820549,8.849413578787779,7.202403888436654,6.952887514327534,-1.5439804974673887,0.5331561073727874,7.794494963095112,-0.2923554477747885,-0.5301545871286536,-4.231258020036891,-1.8090720215915395,3.9467605811026254],[2.692426101864074,3.4033765579752053,2.920452552113902,-2.7547803809204807,-3.6597967456204175,3.250563319175064,3.7223695182396526,0.4739952588785135,7.561184462855218,3.7065127980878234,2.215857240407376,3.009334795061866],[7.600840083784144,4.852771904329484,-6.035176551831463,-8.181760569309114,-0.05013787943591386,2.1768554810612404,1.3216506789911373,-4.270721782642589,-8.06946101564866,-2.781785492567269,-4.271335547170154,-1.6594439167269526],[-2.0144598968671614,-1.2398612756319063,1.8345339988181018,-0.0187247342464186,11.042501488528623,1.7779567381285803,-2.1176983490443635,3.2526605983062034,-2.52556974283108,0.7779445333289629,-2.7006643416563487,-2.3381716748590486],[2.1458533252363603,-1.6081812796731418,3.757764969621308,10.225789147125237,3.3421834036106204,5.4443732851502284,5.063377048346631,-3.094780682303784,1.4495330947395766,-7.433792663836631,4.595616458731519,3.688033508460664],[-1.1637697733502947,-2.973096305506128,-3.2687514346964237,1.0159248429505576,1.924396567317654,-1.776568698403015,-1.870726633376356,4.409263334417366,1.08506780518519,-4.129855942685104,-6.312992388177541,0.1464883188748132],[6.983430492711523,6.633792259137471,-3.670543767198723,-4.068028595244679,-0.009834415105731409,0.8732506479875987,0.9270651644268098,0.252622143354509,-2.5421332693232013,6.658364115959322,-2.638340417888947,-1.5881925410489657]],[[4.140257978863227,-0.4295290626211195,2.7197392693103515,-3.0795894060336235,0.6323307937297437,-9.809653564110606,8.287781057974264,0.0746410437992317,0.4376812585805022,1.0542970361133723,-3.55320783058831,4.946663669047909,-2.9048201191852017,-3.0993584314462486,0.5666702459961186,2.5641682165649726],[-0.7565546007221744,1.9821483703850826,0.918539677379802,-2.3217651981205347,0.08092636044207391,-2.1631410608587758,0.9699831427410429,-3.5877373820894247,-2.39019173182473,-5.434489185869012,-1.9301574523289524,3.3822295277234264,-4.908160711753397,1.2230527414420473,4.792041727360304,2.7774001147551526],[2.903009235874866,-0.22569865317798873,5.289730398222696,-6.273884178402426,-1.901497644052928,0.8396886478401162,0.9264726577517989,3.82304616130097,3.4948234317803513,3.744517705881416,-6.725408396725793,0.20915407943773223,0.5502856577239381,-4.203791114128212,-4.808022509015281,-2.1539784978691183],[-3.310021310431492,0.27000298706758497,3.4626859800139376,4.9225137445782225,5.195171479881955,-2.8866205367846205,2.704124075528788,5.33505595264481,-1.955767219517056,4.521130104217926,1.349349830758207,3.934784829413909,1.614041895581138,1.305580766652528,-3.965834691519054,-0.20867004124023553],[1.0371435728947314,-0.2601584792461401,-5.602950506223622,0.2261430438905645,2.188497840921868,-2.2397768442215487,-9.602652293263205,1.5568950910057953,0.3834570531378313,0.3933864558022334,-3.6226265579882444,4.076776685167611,0.4523162394763902,0.20082022689770257,1.6737632483999487,0.21859379784432983],[3.6696719680130307,-0.9102280701289441,-7.031050440463613,4.80894005285653,-1.1736705056059622,1.7899252923526379,5.515660783087086,-2.293352783502283,-2.6007715147191055,-3.4175602602077455,2.5760349846485115,0.823494704195991,9.606219820867977,3.362523517693586,-2.408121016865369,0.02313160995104313],[0.4477269604651073,-1.0028927303444235,2.9712062797265957,-1.548683482395917,-2.138578159904059,-2.746116777588722,-1.7735302398651565,1.036799965952795,1.6273164352751532,4.136429682999913,3.838905029380338,7.388387898982091,1.9727226471220491,1.021651091699534,-6.606740657356619,-3.270937419904936],[0.5954842179086575,-0.39234578697751066,7.80411644224687,-3.212903577829539,3.246390212712457,-1.3055620372172285,0.4410803211323024,5.772731982733318,4.113823814244059,0.42265916693555805,1.257695612019037,0.029898065437190258,-3.666265791295733,3.525106080070179,2.4689967002653335,-2.042425600950061],[1.1667445741938547,0.959727628507794,4.455417615707896,1.0923184955152945,-1.1392653747283128,5.732180964918138,2.1856735401692635,0.669777440581665,-5.798248208115233,-6.044230790375819,-3.5902477781766238,7.399175976678436,1.457600397960007,2.4033617531346056,0.9886533467363758,-1.2818552227800404],[-0.34530646092677075,-0.00238093881781052,0.7265936476831867,1.4238742800961481,2.0874911281023443,-0.8737185749924068,1.6585770824711668,-1.327963550749207,5.308799199242523,2.8418545746532264,1.1398110219573623,-3.591747684164477,-1.9587590685536178,-1.985615642023198,2.2966559082490003,-8.40374010656337]],[[1.2301077088430137,6.3378903668462545,-7.957868951107579,-3.536191638227362,-1.4650163559728513,-6.311444597968546,-0.6111742266816889,4.958866134669149,-1.1755833704693888,7.668976405004126],[2.1060678498136696,-0.39426814547078903,-4.511959881648942,-2.0588947319602013,-0.7417885141844063,5.408926243535056,-3.647165916000361,-0.6368308732752941,0.25075249387600873,0.43152004340883426]]],"biases":[[0.48041283330123796,-0.9511725216370859,-1.7531419308981788,1.603182707534653,-0.34055871619487293,-1.0656647726733546,1.0398445751384666,1.6610137035475705,1.298955702090591,-0.6718638262091103,-0.8670409383509785,2.0877845131054955,1.1270296718036954,-0.006484881835534154,-1.3453041454490442,-0.23763526871436266],[2.1424174675860868,-0.17871742925617778,0.8605627446517883,-1.3999153236673414,-0.04907192506791877,0.557960270670791,-2.1131709309166595,0.507931515167486,1.4100672366797675,0.7139059286401559],[-0.4242703103022638,-0.07660348290125941]],"_generation":2027,"_fitness":0}