{"layers":[12,16,10,2],"weights":[[[55.49624411499385,0.3172234194523254,23.38267680890203,-38.53178512841228,-4.475495091662472,110.92446453742545,-153.78731120063185,-62.68446827796293,-81.5476724504518,-24.648500152571987,49.21862530070074,-87.93520279224444],[-41.663207534808805,-36.20672654973584,-78.19486107765579,-12.923051084171817,11.986351865779255,-63.57417692239296,-13.156428259676483,-70.46831922689725,75.79335107911177,-49.21188610219986,-62.01592067371156,-92.96736404522498],[-32.08948476333395,52.79594976349949,28.865719397564018,-64.39334312016264,-75.27606355872761,140.72105481826335,-14.653775275479159,-61.9863068807011,5.932418834276966,34.399314091700774,119.13710898706594,116.00006111108236],[-70.55797138716767,-46.91420209750172,-16.77696031570578,54.32546556509007,170.54576544168816,-85.55680056748777,-37.610215608384884,13.905920318947175,-1.773707641547644,-21.28444609302483,-7.857582868619405,38.18501705980779],[19.016789170515736,-1.4195049497825272,-27.594740151971322,-10.424212598173435,131.37098743600527,-17.521990882545275,59.07056729512381,-34.81278838433475,58.661428202463824,63.41191498968502,-21.751348768604853,65.3966436412536],[74.27035625706172,23.464280388678677,-91.50770116087504,-23.33901952678235,104.70000567349511,-47.30926251712218,-51.81688104480848,17.42392725778836,127.84212619370295,1.6416401591485454,-28.246539755262457,-42.268909832481455],[-62.26417048551222,40.5471846528256,68.88246861818082,-27.68367368142715,-109.0217649418375,-62.8168506445834,-27.413519613460945,9.30321229317472,-78.45707364018291,68.75979484611037,-49.88828211598735,33.842139730037175],[11.749652916972874,-37.246352440382296,43.41667050941303,-8.262186854664822,61.655037620192026,-16.15559268441852,-26.120526881678632,29.726729824749768,-53.12649579195653,111.2608991698266,-69.24000568976994,99.10865353010783],[9.400366822028998,-63.12200313796945,-64.0363752446848,59.974697340062946,-47.67570303127458,57.0305733636121,-16.046081905214486,106.28968035225708,-3.2810460122847855,17.18466901302096,-18.82806782625525,35.59900417968535],[63.128427760592736,96.61654023493818,-102.17381092120348,-23.136699944892147,-65.88589841274647,34.49325987427998,27.778428749634095,3.2719865689271694,-23.358026001636716,4.882744925587818,10.823796618965092,-93.17423985522993],[-28.893821484055398,53.037536190584376,60.33552303279123,39.871209141311866,60.324990609659686,42.72169218630415,62.9300045999078,14.941130868357497,-15.101535030411407,-19.50895347990523,20.280805916019705,-15.212214961453705],[35.55980508431139,-99.28163444608563,65.8971587247444,-31.654212902839262,60.206105757286615,64.86852483670935,-82.31225738218339,13.849187390072256,26.228300553001013,-78.16935167219742,25.249588218960426,71.01497079108846],[-86.30054741075136,-47.206975618788775,26.61753453444694,-46.82772904972447,0.7120360121667073,56.88452767579699,46.434547029129405,15.78021878586259,50.26545662709956,-116.82519224054326,23.577902432016977,22.999748077551757],[-14.445637040274708,-94.5387667937572,44.41372272974869,71.4350961680104,38.257795969767656,-31.663879298802918,-65.82842944872897,-58.470781240847906,52.59411454570944,27.78663445871312,27.446805373661206,131.18408642421332],[-16.734028324962683,-94.65822106956129,3.6351369379023355,105.26154994644068,-27.469616908502044,15.802036130428725,-39.707284819558055,53.46710243027681,-84.45907688340259,90.39901792329775,94.92043499595312,2.94954887705847],[33.96842921536026,37.713889635286684,-129.86547996146834,-163.07102460553662,-33.91900619592674,-0.3087038009211077,-14.010058631478678,-87.3616443513358,-92.5580530036394,-87.6740552763255,9.721054428017917,125.41639058249527]],[[-29.92307137217507,35.21052773816993,-11.741678500599274,-34.106551139746415,64.90931132720733,-34.5882131835057,-17.51954250539105,-57.77123261957626,0.47969291918734946,-9.32550389173415,-80.92180157799899,26.98458372908671,3.351194460006758,49.786833821476485,-117.03303924277618,46.09620836688858],[14.904761841410068,-70.40079481993247,-1.2513919931464899,54.60579623437102,-8.35724829147018,-16.945202071958526,58.44361065548132,45.81295476267528,56.56721267549825,62.81906005407627,-10.11555421413582,11.965351525722669,-88.69791824125593,-28.58841554138029,-23.425108127660067,35.366174708734306],[-88.34036775758825,-55.57173836191246,32.125529491023194,-109.6217439749686,-21.174770066756032,77.25449319174713,-103.79168992315537,-12.904994902378023,61.365831487639916,57.302222555365994,10.90791960137702,30.785127507794876,-73.29535907357526,-61.41265251578555,-42.83086836852316,6.551312979418293],[66.91142733285334,12.35401086795049,33.828432828778936,22.618160324057673,19.86445025133598,-54.983457083935264,-59.377940466240645,28.9354768011407,30.509682096962955,110.56908808536852,-49.442910580380726,-18.741700856445135,23.13075251757271,-20.278933230590795,-47.49032610276425,15.310277516629043],[9.198488101026511,-80.26181138301314,-96.36893961643601,37.45460043270443,7.057609623581435,-84.10171417580943,-3.090796209908552,47.2453934302123,-43.23078465464806,93.47099264579583,57.921572713216186,44.628447352317345,-55.623520701715336,-33.96333645673102,-7.633813209885637,45.10206932286289],[-132.0477564704636,1.7588225426704056,-35.95118026045683,109.49765378506295,82.94208370412525,10.604602473482101,-46.46240827088991,57.63751779438435,-51.02928576020783,-25.654355832877155,-20.019868927585243,12.22631818271126,40.15951254370199,-46.65049650396478,32.99903182926699,-13.695904827093866],[-115.3336231905228,-11.808161130743036,18.253115612403317,42.425584224469226,195.85446079590008,-56.390511935188826,87.38820641987108,-14.207759146976175,-61.3243732575312,32.798787381272184,-71.03562508409689,-61.16864013874487,-131.09111421046367,-13.239988771923265,-43.57905716368855,-57.77795574019426],[-75.25729573178398,-1.7615873233440191,56.05312612984753,-136.5496037657573,-34.95257612535948,-34.64791799459197,150.41090095605935,-44.68036229428156,82.76896247138734,6.3370582547121845,-55.94382384628252,-52.73019166082948,-62.00155270189208,26.433673285449757,66.79600900048888,-11.30671024897745],[58.85228948622918,59.93054568099408,1.110044452549169,-9.595083480418516,-25.633533758475053,37.815080790404004,-89.36728954137759,107.11256632266786,17.049379610278564,18.85412340840717,-163.91403290885086,125.76625643796595,-28.043505364075067,-125.79702001552002,-82.17126707154172,-8.742760290234376],[-75.48337973652333,-64.56011012098645,148.14142040580398,-42.520779031998956,68.8301653989705,12.671680699925677,-17.85774057985681,1.5203856260574649,-71.29674272841552,36.17015090153524,-19.05930932696668,143.08440828997627,-25.150897253205088,-55.3911370847335,-115.22607361484268,-15.868935541528659]],[[34.53605731684228,-79.46046445766264,-46.34485671468776,-136.01091446211973,-95.84995023085084,-38.21593016271403,-11.690041723677906,115.43693516050996,65.78350439561959,-85.43684484540253],[91.72212539410211,-104.10253025678166,36.251441938509515,-6.649987627594691,-67.56020023480916,24.634655647486866,-76.10685761077207,-39.53206651616332,-85.83129471777598,-54.37278068288378]]],"biases":[[8.265533075371827,41.24284517133299,32.10824378782133,24.3777376392767,28.06977396535321,10.12979424568509,-8.67799206434959,-16.79925146526031,-4.165948028287698,5.131999892223835,27.739093231656607,-16.540551114384694,6.877424819901027,-2.2650524719223832,27.23892015359727,13.684862038918375],[41.025526077035344,-9.802701326455256,44.15700381449013,-16.698738028691714,4.8624879285088225,5.740374543863814,5.880642051171698,7.269946418949658,29.125758556511972,-0.3294706298085185],[10.57967345826372,-24.636069834599148]],"_generation":841627,"_fitness":0}