{"layers":[12,16,10,2],"weights":[[[-7.115274370388199,-3.746688900399013,4.514894153759024,-3.8398167893756456,16.12350983829689,-8.598453762567209,-7.593471416778095,-2.615309741863093,-8.558421046443556,-5.5326634614733905,-10.598988469235643,7.381933648278239],[-7.588874114901822,-35.683804821931865,-1.7056463911584068,-12.386921293534863,14.408946764130855,-4.529069774327631,-5.924853116606738,-35.94078891442728,-5.659521004917676,-9.019545907321247,-12.91713306584642,-14.12668398163197],[28.40491204351713,-5.663287008073427,-2.0549368430367654,8.182618513407359,-50.87633318745061,0.8655912940251529,-4.317236142393106,-9.133870091117494,6.21146868243628,8.778954874452305,27.433191236561502,12.61220945043527],[-3.6246389117285616,-2.5454013542833596,3.4467275564268527,9.298962899587051,48.04927725530373,9.745641357645923,-5.254222325622573,6.478649769243777,6.18271178877885,-6.253327857994421,-11.493895713905523,0.7857238908756075],[3.354204638272421,-4.949641761833553,-12.907953561942723,14.5375948479626,-18.37093710262927,0.5371922752622106,-7.6498197812770785,1.0590859085055075,-8.998401591715137,15.101620146079698,5.489662626376392,-7.347401710687096],[-5.776506416828831,-0.21607390418149258,19.57806195395994,-11.874687701606659,-11.719339598325998,13.854914671120882,10.874484489541084,13.438606544537945,-3.0345031230807784,7.587295336765256,-0.08388945406196033,22.595022403431642],[2.0645683323304067,8.75594411740869,-0.6828824755740246,8.505762997051294,-6.118339433209746,-4.7460669485993785,-5.801910339829629,-2.9365302107931623,-0.5492331472876189,-21.89681708854603,0.21927127117841388,3.0020978780044016],[4.85199333316429,-7.550721638417245,-25.04260790024123,-12.43222512735761,4.159571215399221,4.275895741960138,-3.116468755909601,-14.298673100430726,11.75729553930703,-4.114096914493119,-1.7055805405158817,4.9124756856926215],[24.26934483018222,19.049719645564835,10.354163474215298,-1.1419754975113663,-11.418558376483343,6.546584617652062,18.266774797377387,0.5258949930034891,1.6354732903248483,-6.429009823813858,6.094233527231906,-10.533378973618774],[35.46193763902226,8.259721847774328,-7.029647464169607,8.258423022110147,-11.3225371824931,-18.60476211689502,22.346946919901747,-2.5184670773432476,14.634079094535174,-22.308121447220106,2.8329199333858774,-6.678862593688705],[-3.714086134334084,-11.868590803727937,-2.0473805730859684,-23.20169402677854,-17.359685481974914,41.05569904014293,4.3649427115289745,2.8895239019750876,8.30922728964773,-0.871893406533496,1.6645767677818681,-9.944975750599887],[9.466375393981469,35.48651922839583,-5.611775054719725,6.326791133829678,20.665315662796438,28.21884108759188,-1.781529169562347,0.21989653918828073,-11.268428214063306,11.025063053080354,-18.04777571327511,-6.129827501739139],[-22.932009383291376,13.470967328037421,27.44583830779663,5.508885602573548,38.20285579965227,-8.32580251665422,6.623746546402712,-13.280543718259494,-2.995853668742127,9.243921559474305,-13.879733403260596,12.318073458364386],[-4.594848889620621,-0.9327630389575304,-4.47953162326682,9.03176028245342,25.639926365822955,12.756035642454949,-12.723002080296984,-17.134342746908406,-9.180524978253024,-8.42469836255484,-1.2606884349130874,23.532003936800695],[1.4139733960333865,11.10824301564008,-14.118288092089749,27.175070485880607,6.55775842341521,3.820714605542836,-3.2596598307521822,5.206827752909213,5.452310355269513,11.148440278046367,-0.13242756155635915,9.858342700743872],[36.59654869387703,25.322284852051993,-18.4460732584212,-19.742958586445006,-14.812246222491895,-17.737930542161685,-15.299263642948274,3.0992340514521866,-2.846593910259645,4.532973447813716,4.796224110949548,15.279092861266856]],[[-4.69826231000862,4.641255517475816,-10.849453292300566,-6.147451823578751,-9.327911387116224,5.260044160406828,16.74813616460875,16.009860711029336,10.193210048454652,-16.134000448537236,-25.07565473611077,-5.293370053299362,-13.276933530244488,6.5298682542431035,14.96787838009761,11.90283643409187],[7.900751582705657,-6.435474944429352,21.58672544089504,2.5893289148232266,-35.35061571940534,8.631783944816416,10.051738207431418,3.914073133821198,9.861589481440815,3.784438375318409,-8.999776608546918,4.060984005220082,-1.1709539752058238,31.844364677247995,-4.148056791327775,35.10622632109518],[1.8309323237221606,-28.457626532581763,0.9827668682729888,-13.215054001023528,-20.15982902618672,14.211881959076944,17.004082718557125,-1.366472962989443,7.216552732282821,-4.338204946613813,-27.90559467289478,37.63299500415653,14.508240326172212,-31.72940089520269,-7.745869244926595,12.600339562088704],[0.06669545155527443,6.493854419585506,16.563434662038752,7.6312248153577915,18.33991721265214,-11.697769159143249,0.7699401948070784,33.060832706064126,-0.8430926179949688,30.390107896050772,-15.680400669868403,17.672780238422796,-4.268038736094484,3.2079560517072516,-8.192731141317907,-5.398900738883268],[-3.674440874372915,18.21075703797073,-9.352036040111283,-8.400330162324273,9.041086658167565,-7.627341438748891,-15.986158607770252,21.68765048111879,-13.26188797339231,-9.99094472314672,-14.423623647170558,-9.90281231401519,-7.0739334485993615,9.518010678750999,5.3131078031279895,0.780097919952972],[10.14452941658488,16.450368194249187,6.640555736910025,29.765622794464672,12.251294420865356,2.523289195621376,-10.475786883664181,-3.9454703647395646,-10.939753106357712,-4.942359966756135,0.6895644203420567,-8.699986017956956,26.353417310530446,-8.635426143825867,-10.889554554344478,-12.069519873310048],[11.206523055373879,14.062612427165904,9.1439269920839,-12.900356620420844,11.21565353589569,1.6225786867049208,5.9953780679515365,-5.552335114679635,-7.828130632823463,18.970609902755243,-0.14081048915015446,33.18304786760941,5.257368729807182,6.871402915573424,-33.51071753437473,-0.2363238787614771],[-29.739429003435713,-16.287231167691385,20.024401426045003,-27.90097729937205,21.84542354281595,6.9563017372984515,-2.8462377921144832,-8.050895745815117,2.2710772432856525,-4.0726824636352426,-2.2988949195084163,-8.667357465265919,-4.546088742688906,-21.19012719944344,11.47097204649081,-3.3730251921707906],[-20.74516533361436,3.1429809073713444,6.0091960057529965,-2.1881135964684497,4.1740184828884335,0.058165809058762646,-20.897305345220566,28.748831967380017,6.153235572776622,24.171721731608393,-2.487311293724764,7.1637053538644775,4.41270767427767,-4.7078181555541985,-9.123590888253426,-15.875346598033444],[-3.263389961339365,-5.583156076299296,9.782610466905206,-9.774801962298287,7.781944468366742,0.7565883622470642,-20.029569282770904,3.462571260137257,-0.23357552031291104,7.1155428566099985,-13.673973253285613,0.8429470690587852,16.79413309144999,5.8349640422403946,-15.425334661338095,-19.085517415538142]],[[-9.071036215200655,-1.3179121503202926,-12.339461367712161,-9.297303585300856,2.5761455284963515,-20.21262791073938,-5.165175633949364,36.86991963356718,11.018665003368366,1.2253351974238234],[6.67694029620158,-6.0489190025182795,7.845107087883986,-12.92593359424694,-24.50845084366193,9.150339256503786,18.6433828597909,-9.32816261447529,-9.766531463151079,12.149337856364578]]],"biases":[[-2.1096518183545934,-0.5685002146798103,-1.1359617583527883,4.900350181248115,5.05018203387371,-1.8266868496219815,-2.352378308870436,-0.9229238838695195,-0.6419884709356828,-1.0514977804616552,3.7722323344772732,-7.382976977594454,1.243810599237596,-1.8867729472929435,-5.294454344521753,4.152463057810642],[6.084959170059333,-2.059663127937618,1.232814586267112,-4.840757213588415,2.608016230203849,-1.0107276731320836,5.147676729563379,4.272647713950397,1.3679498757773842,-6.5113664753941745],[2.4104892946433223,2.6259103953648]],"_generation":44527,"_fitness":0}