{"layers":[12,16,10,2],"weights":[[[38.97934832153704,0.43973054167168124,47.531901146572714,-17.874075082378724,25.60976818708276,92.50277612655466,-141.7736104934102,-71.2552546025366,-65.89608624868721,-15.329837281040069,33.03873530366813,-104.90425837469569],[-16.337591700100493,-66.25150519056115,-90.48251460718274,8.019992567141452,-4.880260628862136,-26.96373770833814,-23.34933397741376,-72.60922290892603,88.37348038029087,-55.656531400412526,-52.03629420034773,-96.81013166569332],[-7.33620851603749,22.231011072858806,27.347607947159684,-67.28690117955558,-62.65078231569974,100.56074723571065,-48.4877886026644,-40.317068690082806,10.698666375358979,26.9291986345556,118.51048601630532,88.0249417399922],[-52.846887545039245,-32.53435695134602,-21.39192685875511,59.505706113579535,161.4966113917115,-89.05898707870315,-22.495469227109275,19.407707126636478,-15.634957178124505,-25.89270739314631,4.9766015663697125,34.25655920423243],[16.834067898991364,-19.381046177618032,-19.62420199976887,-7.313309410042885,84.83341058341198,-13.500997639627018,54.72197178794138,-26.990462622470368,37.23787168294377,62.631946954072525,0.2534907091526988,62.4696480822837],[88.79905276943883,1.0274241255703203,-59.9812638519569,-33.028104591707084,81.66360971365334,-60.47053982668355,-25.40279986989461,7.514904686992651,111.3736165112258,30.226240231770042,-45.740999553714936,-8.42587705109733],[-43.93115748750854,52.861654421278146,70.71187354980817,-40.774675133126976,-73.61963313309809,-42.23440068364609,-45.71143002283429,-4.84636410474207,-75.29898163306842,57.15809175934662,-37.743436193219765,23.15594388468776],[19.053533349968344,-34.47025913933048,29.00828008278701,-21.696355706479874,27.726379156952238,-29.81499554822713,-29.464174116398272,21.122164429797643,-65.45844477081053,118.44865865354011,-37.00260461975319,105.45646263264955],[-11.234822753890851,-11.833428422813302,-52.36578298356481,71.52147292803201,-27.820467096449825,65.40156244563529,-2.8783316673365227,89.26951995567455,-12.773191109126106,0.7932710812385296,-19.304661047643474,6.7944043253510715],[67.87006404376618,94.14440487187593,-112.24588866550862,-18.882598823094497,-47.57718731034123,16.429874898040268,39.208402424503525,2.5944608610188573,-15.413765490403515,13.07472020694368,5.729907949971752,-83.51261481087951],[-31.72127011204717,54.7422444116412,74.09738372092446,20.93358479924379,33.31371391509818,58.27139817857433,54.33222161905715,20.40074051207278,5.534814406202442,-31.70902692231996,10.950575828648814,-21.115001168045108],[29.872482545721148,-66.15475914767994,79.38133953198074,-63.22021833373821,59.396556945994334,82.53667568641846,-64.27168814662745,17.23610637509295,12.129783187505977,-40.09473271591798,4.691604402418995,78.14041187755063],[-79.75711296088195,-28.631127286382327,14.973318780437623,-35.96372239809852,28.09503123046634,9.177593449519515,40.26886552260246,1.2487851040957345,50.19298522687247,-113.72469607617357,15.392896312885654,12.241065945637562],[4.311635421749392,-90.77809054972104,26.486118150174295,86.62662229866918,54.73816420108079,-37.92225820559849,-33.6721682090381,-79.26165154603999,54.01352212093444,17.721460058790694,18.024515822433337,120.6304198167317],[-18.213772889226227,-68.92481475392385,0.46065977804817304,111.07230708187615,11.326049715775493,43.2976780371807,-8.270849237736385,21.17157878828159,-101.57940740211284,86.08842650884417,106.86900969106154,-3.199748749853184],[45.325979419086835,62.52970491471849,-121.61616217599523,-151.29967840226183,-30.916064084834936,-20.33731880478248,-22.969450667684953,-97.3837195029816,-100.0753976545948,-59.641184781945476,10.383789442992395,119.1298623672572]],[[-2.15932817240194,55.68930418024965,-17.679895187013056,-31.70305212469553,92.43902578137583,-27.857999195658596,-9.17703634415749,-25.22773746790133,16.906070553385977,-32.28089399818341,-80.36951428913456,5.172359849434914,14.712895362152398,43.10005020067615,-80.89064209859468,40.230595216311926],[27.6326186401441,-71.3624220865125,1.1426986620411934,51.31010725958991,-30.3534005205881,-36.445220787418094,68.46587652196658,17.658780644568143,59.73193752514099,58.258129846232634,-14.91196365100974,34.79201951482816,-76.53489527628363,12.021038586184355,-26.325425998842864,22.34503885372502],[-95.22005971429641,-45.95186832537892,31.26465709439715,-80.47632052231364,-44.98777981731359,37.17340372482756,-94.16650956474653,-6.7754012729354205,68.87277497279167,93.90582280391524,-14.974959655225264,14.674409639192145,-27.041766962482832,-45.768170615858416,-39.8807088660555,3.311537565090602],[77.60532675159027,11.747503764676983,25.60712984458768,16.014523900507573,40.859259181896256,-88.87392012391227,-58.458825516751894,14.944696188868598,16.58593095431586,74.82419107879268,-17.887578003738362,39.729167720223465,16.26711278063632,0.019478113520404988,-80.22031149003591,25.144557794116682],[2.510711841835339,-63.00198608695755,-92.65638898899466,25.958096842625555,13.988342872111918,-46.8958401455187,0.1354597296633285,24.872310513482372,-40.31361899731102,96.4317671294384,42.515500698202125,27.281343602351793,-61.1306660277953,-15.339720536472598,13.425633802274575,29.956402647685152],[-152.74009282235804,9.94435469253008,-49.56152868605149,65.09442274439108,107.234692084953,22.92303628437177,-29.908293199360806,18.042101238086257,-59.0499982336677,-16.364684005315077,-33.927793734177264,-9.794491686108362,25.286568821821785,-34.3088193016526,62.46283630619872,-6.129872678728592],[-87.37405992653132,22.074539193471722,12.887814472040942,48.90091771175013,167.9010721877888,-59.32473529467656,45.08644661142814,10.103734196841444,-17.27034743836942,7.061469610753988,-54.13838187996236,-64.18839094600453,-119.10720036206466,-56.44169084090616,-36.94520033659223,-45.139134571601765],[-76.26309535061769,26.916524044279036,56.160439798517274,-136.31380620299717,-2.4805306458329097,-30.763268052173245,103.065441258366,-31.06185429259892,74.12541450926119,14.388064297224275,-46.21439606587317,-39.698885148566326,-56.31810095420346,15.161281017287592,71.03928396713637,17.845866060038922],[32.97536394796988,29.84403231437668,4.86662856050466,-30.722527878843962,-18.279138767697347,14.82379245712882,-104.37455577932126,114.95653369828453,7.166050535343524,34.28167005681151,-146.32207172809066,144.89689677466833,-29.968968449717565,-117.73565618172267,-77.96642993586819,-22.60990283163753],[-74.91263405843969,-67.9650375053674,135.6139816559551,-42.755558422482046,52.70999730369592,9.63083918499251,7.1945141695595725,7.175794458761843,-80.49314472416218,33.996645699450546,-25.573507251284404,126.25746639130516,16.278235906115757,-59.84189129347495,-107.44374344993054,3.2803549933186193]],[[38.93836782341241,-48.979492543783095,-30.77953899446511,-110.08417471570183,-84.87804706502122,-39.94566042997637,-25.58819823144184,100.8256085166175,57.6340046642236,-83.06784490196937],[57.78292614478785,-91.16929931524474,47.6198503797325,-3.697463538483286,-49.31102737283213,15.208239516495086,-98.80095329041097,-34.337145607921926,-105.53563601979774,-33.31750418763377]]],"biases":[[5.13489591556645,46.41769701473665,33.229932699616896,15.611860699118246,27.100528100836115,10.17476851647823,-13.935816714753653,-14.149896572495026,-12.107218792414615,-0.23880566800041325,20.168291406909336,-19.785052112483815,13.11638741304814,-0.08981119434287203,22.081117859523292,12.038216820058281],[33.46612361096578,-14.295595056676007,42.016351799981486,-9.156351046014677,-5.669990608136117,2.824687487573599,4.204794593086482,1.6544660221879783,24.621434084997258,1.3124309633894977],[8.178099492466055,-20.381650999456692]],"_generation":761627,"_fitness":0}