{"layers":[12,16,10,2],"weights":[[[50.52200690021591,-3.4949186144292885,65.65962827293343,-25.09477033361548,48.60942186909937,78.07172953895348,-121.22976281229695,-49.0926514186889,-41.25739713071135,-26.43425315209634,7.178666966664861,-70.416678591199],[-41.61278827433135,-76.07272404588319,-74.91135526958118,15.538716528724985,-40.319230755566046,-14.73038232242382,-28.74332874651473,-92.10169094149812,62.64241217268949,-64.68665053890365,-55.66537829223685,-70.20118939462152],[-11.545886955216956,-18.860335340670837,26.85422096760108,-56.35459925986428,-83.60235291160349,98.1218147203009,-48.09924896868235,-1.6273790978094425,16.74108991556741,12.28885918938689,87.1471545973814,75.7764410082459],[-75.89025990870776,-7.961295780779298,-42.4042742319469,61.39863263842268,163.3845908640753,-95.72422264542908,4.343923703594724,43.68147920879473,-52.08502241748537,-47.15595249234266,15.890488457910529,19.10055734635454],[37.22985622301368,-4.090831020471438,5.48818332440862,-1.8380262392899454,54.00794514176514,-10.13005610056504,62.410429090683266,-35.45663829739596,28.332132750169233,32.738047728131235,-9.320950744896251,28.627133649308544],[54.30557515295695,-12.09470649631551,-71.04314464257956,-68.96501977516964,31.556766912400033,-22.130660959107455,-14.947502872092521,-18.90748858216572,89.03280062833653,50.744477153755,-46.64620358846782,-5.203236663727057],[-33.33216101622406,43.13623519234581,36.299968855864286,12.412244466710812,-96.5020536895093,-49.740321433334685,-75.2000606525412,-15.396514205302987,-41.99761854823735,39.77194357130903,13.593417369440221,44.13576226974665],[30.718186648706656,-49.01838657827757,26.571313956588753,-40.66692565039874,41.76163491891809,-24.842164700904362,0.8894329110597923,-6.439632962269089,-30.71666732315679,96.01120400585606,-11.835292528067948,116.19285216122942],[-21.240859595801147,-1.7328404503029993,-35.47985623299584,57.387300059108895,-7.998662684043219,80.13505278289604,23.72137789671659,40.98050701155027,-5.817423231710736,-15.133002454719197,-1.3883104848288026,3.5779907392082886],[75.9527202853359,111.78571217668785,-93.00723969765005,-16.312190512557045,-59.001332265728465,1.4894989469697522,7.964100238294622,0.2333577415998094,8.838682206825283,47.90748684851954,-16.795920450802562,-70.385962029151],[-19.96144793107064,73.4505557089638,45.521488308181496,-9.986785358970799,6.207893835146507,71.879557952321,20.70466446276463,24.804021827179206,14.356532641575063,-39.9409012555568,19.969940637079418,-33.845902366474796],[20.944777290166684,-55.9330574914945,43.83404775807388,-35.36018795081206,88.05754351951632,63.04861067218003,-30.833295103274978,23.540035341677555,47.54260712648398,-5.642846076622188,-10.67384671559914,69.79915459867082],[-82.56251860339755,-37.490002648861314,-8.967190589822481,-43.53268481368316,34.569216169699914,14.832614945791457,27.092722891686215,17.027531532628267,-5.960670073627329,-113.02807202525203,20.234990291594894,-16.48570180661331],[55.73930756795375,-78.9919317654575,11.545754198656654,46.39347127365747,59.56238198935952,-17.097090687425666,-41.77441372878576,-119.12210059769343,55.53887172617117,40.29561611226871,28.725332548724328,95.76390458132627],[-5.571733471387895,-19.036475125617056,-38.67379757856668,119.24282665593378,70.3295507609323,48.10196319735,-3.9625580733034074,22.95025210873249,-84.62737758370432,85.79909674507692,85.86275776327183,-5.807238245063594],[11.221496158127039,80.41875841667573,-36.84140241338155,-151.96843102673657,-30.297648567326828,3.8597507028653015,-29.989292247624775,-80.69475479556908,-84.39223703907696,-44.15394343731927,14.419512443856583,69.70279948507664]],[[-3.8896504646636316,66.41457603225624,-27.2786351820963,-45.31923836864938,81.85413171686321,-28.399875902207558,4.635144835376154,-32.8349045841015,-26.296484072579513,-61.486290394851686,-66.42430560012778,37.06718368110913,6.453529665962632,58.99194143390905,-78.00743751208266,39.667256007074386],[-2.462389668516287,-39.004645944737284,10.148336464401277,35.20048016969405,0.0064730593265942965,-25.331689689130304,16.417695697519907,-18.052075018163404,70.60112944827522,78.83508657412081,-18.03755890663987,0.4726963716237408,-123.22259303910076,13.245133017451431,-4.768515146829383,-21.766703415873547],[-73.16448173698679,-32.93986349928744,-10.134505588877122,-56.917500058420075,-46.22327936237384,63.82609392099586,-60.94189513908147,-3.225272920849107,80.19313664094662,109.75621931242753,-12.522983860743023,8.377434291233966,-33.1868881510572,-12.723370530532618,-30.43268350051652,30.36855067374749],[75.70693625979868,14.090423004170345,19.266506292771872,4.06633746934907,51.209765463681315,-34.46570479652026,-51.57785327668786,29.450630306495707,-33.737494992957544,35.314071432811915,26.830944545264288,32.711074425753594,33.2521706849981,25.44587331761971,-34.57197448056542,-16.33329927524169],[-11.3446589177998,-9.543046131232943,-93.08288005134182,32.34510161482773,-1.292058472951124,10.686897907924456,-12.002541895206285,60.90762170525875,-49.794878707527445,55.418515086076795,42.64307017251476,25.27546829398573,-66.37088043691043,2.5015291404121953,-4.037642578005022,48.625422327867874],[-98.34411473602496,20.666709644535178,-33.427322624638876,51.77068849437447,91.76044464638184,30.06852843649476,-6.2586342234980465,9.298231304411308,-33.51491976855365,-68.20642852661048,-49.48558827446492,16.700074144978654,6.428558200345838,-63.98403019037783,21.19981532009189,-3.3958626645466574],[-80.83812110930735,30.119308999148274,13.096152037627036,29.14953806689265,125.73312556634997,-56.87068534180344,7.82765468637278,-4.091509242515648,-31.174630124659892,40.41739497258776,-8.68079629994809,-29.097518383834817,-108.47660816415487,-65.01722230307621,-2.0058860431548604,-33.65742056551683],[-70.63416058717544,-7.219027462788358,57.95019715488591,-94.48439965823957,-19.28566288173603,-7.075274544571197,97.37369065473081,-27.149324678528025,77.98881860707394,38.6380081038985,-53.24031752619149,-41.42722727528421,-40.22646745657369,-7.63494591561527,58.765436543505615,36.21734033073781],[54.415135908327855,16.113048943762305,9.136551315511687,-77.14137780327412,-1.7210116664094999,-3.486833821777912,-104.31836983662214,125.37986677536418,9.81784720075363,-15.351670558668438,-120.61840820250053,94.30723606797733,-47.71717081201902,-85.80059628166538,-22.342289181384828,-13.27573765648952],[-90.31098612185065,-71.24506544366149,71.59271211580234,7.483682570153272,21.322342551912726,-14.745278607277804,14.04894029047418,-8.48212071527874,-60.89836243140055,50.72107130258915,-28.66514404714352,53.90160266931587,27.77202000467785,-87.16293289260813,-93.6281106418297,9.437669053873837]],[[4.2218973082806635,-30.628847575010912,-13.338381411910106,-47.395465737985226,-57.60869040559729,-41.485442622289426,-38.2295692579469,105.83386209130994,54.60755990826114,-14.409163468287128],[28.681956179525315,-57.27641069620267,57.7006223631092,-23.045496050582866,-46.92924006493904,39.1641454687306,-64.85559314820246,-43.388548376500545,-71.51127073372571,-64.47367816576863]]],"biases":[[16.2611887522709,33.99075772342008,23.65494635694385,16.646810455103946,28.443257611993637,4.541062452845192,-16.50275964997013,-3.7690676293232253,-5.223648501573759,7.067714896344766,19.924312346504315,-15.901126872451226,12.298259758662905,3.9672621038169735,22.91574167956786,16.37690279838803],[23.45480288467272,-3.7368316258424112,38.93256934485563,-6.199373621288469,-10.040507923790301,8.466208119457793,8.61449307877507,6.9944074028175365,12.897821362887033,4.143876115445787],[6.062313143787835,-6.131297237613501]],"_generation":616627,"_fitness":0}