{"layers":[12,16,10,2],"weights":[[[76.73714537997968,-4.116839870707376,38.993964588928826,-44.94237980217256,16.082871924106797,107.35136589733335,-174.0419980752282,-71.76796605431817,-63.375667107297566,-27.63406301375906,79.68221484794357,-80.58892534292242],[-79.15527240130419,-21.424019105213265,-98.04923130076185,-8.881170944532576,-1.2525377257768535,-71.6126818396154,-6.153866076384979,-64.75864943108235,71.76974797324176,-36.91063047237856,-71.2539961081044,-107.16333144114282],[-23.586232346374878,47.59891858075707,25.911329981385798,-57.97865168756427,-100.41186632991759,134.61740495821755,-26.597835662442765,-69.73005672188347,4.488469155543171,33.21677742373221,127.03698447627517,119.4940900908249],[-54.45118685183249,-31.318018733899905,-14.063891204943975,52.403987452919495,177.97720347633765,-71.92055159492683,-22.806890232331373,14.0029228045479,4.078712264610072,-38.99544913767268,-1.7424962491082403,55.129812224882706],[14.841639699000037,8.144980965035726,-14.46706410134325,-15.711162205474901,135.05897199914432,-26.141041115861583,73.93221903263277,-34.287559716178606,66.51004938186344,60.53129552698479,-40.61395691525787,58.76846382857048],[37.12056993546789,16.791586642702526,-126.09378720633325,-18.926333778675335,103.11067338416096,-36.588663630703984,-43.11923056662448,19.05382635748938,146.37998278667658,-6.45572584459136,-47.538730026896054,-36.1978898274163],[-25.2848648153669,46.943124582937266,88.55034309547769,-61.23702320096482,-106.73598941769332,-56.00924605235819,-27.028257251890665,31.59867663217642,-90.98679885264106,51.570626652974525,-38.60180750632444,43.2719653242808],[8.745897911071392,-32.64987471138233,45.89010337186379,10.55250623735084,89.6797369559311,3.8419418297555903,-36.91224763207284,59.286287806816425,-52.12412530770627,101.96134642590535,-90.3015111899745,87.6597604046552],[15.020606888956793,-38.8604300256897,-50.533029943144996,90.81681941839547,-43.77658702371625,42.64336748263686,-20.516239055816555,108.93394713448214,-8.631460521912969,31.424647853012345,-33.7989171214441,33.27949664361054],[43.67447656691792,76.94210292507748,-91.1137896152812,-66.30719109444117,-56.59654662954283,36.54137960752072,4.149186794831033,8.62171882250797,-19.06551919151216,26.544280232748704,41.74317988804784,-90.46439452368674],[-24.29761994333477,36.72529553247186,42.20902923511824,33.88767886359802,54.541033812538465,14.208123995323517,58.427958537838904,19.295356003876698,-30.48796933403681,-11.958165726943712,14.056615587907803,-33.72098771951098],[42.09282611477194,-101.42646011995946,41.455126150893356,-15.392123958790828,38.86318454169603,70.87120214583322,-105.45576496548505,25.980796841177625,51.676745882712524,-72.68528967846434,11.441871730195224,45.42385013319498],[-86.27860522937176,-62.12966105301339,19.41152440048281,-47.42381255255905,9.371437568664698,35.39701958470941,37.455763770914466,42.55646100908988,57.3877274006555,-120.19364854917752,20.094427047090125,21.64955041052615],[15.046722637699913,-78.67755466411374,21.616534245256243,71.78239384201518,37.48804720802001,-54.07297304302941,-64.16505959147301,-59.72200716034342,32.21070345153449,27.42262103548965,17.49446987676838,125.64870507111978],[-28.834645758892343,-98.78207059345776,20.488193303559207,110.65489465538272,-6.690994643438083,-9.538461424502582,-7.5902664430820295,76.73303188806807,-48.57657396522083,84.30936159585706,84.68469898302376,-11.802160510637872],[28.57667242502914,78.63643993103025,-98.95552631307822,-143.8583820438721,-13.987063285860001,-0.333874916933933,-15.59157977514933,-112.2188115000292,-84.13271859641017,-92.1673839802854,25.656916676587294,138.21128977486103]],[[-64.01239005242455,37.50453232029341,-28.82063679449162,-20.692131746235788,68.02348074028191,-42.727146447130615,-0.46906469071046303,-51.99241313387876,-20.63307543020302,-10.808429961366258,-94.96672440280419,45.669302903486695,4.461183832553269,95.79872965090172,-101.31355313982729,50.77707591247292],[3.122516881884833,-81.23721153118173,-18.54808625163426,65.74461455613411,-25.970234913366088,-4.514948167034004,36.19639624252942,55.581631958401964,85.214018955943,49.78368665116768,0.1975365534494666,19.24087908318965,-98.76839705843986,-11.808307923894052,-44.54948848099667,48.57307977173242],[-78.54499374846887,-35.05856461666613,-1.3808666288973104,-117.17179432386173,-40.04875586516507,89.67570211741364,-113.8614418483934,-16.985758012323643,55.234370794668195,49.20343197172141,45.57295369274355,18.260395103475915,-66.61875200701358,-58.278973424444175,-34.12060283527485,-16.920424435549066],[52.93666321381226,-8.762402093533302,-10.733984633718341,20.74381449526813,10.552962663491467,-43.69495668599578,-63.29955965839548,7.5908442300560415,21.37091019870914,111.41927673644075,-84.95718194441517,-29.215523290134115,27.8461885906084,-25.9891866023843,-32.845771969379626,-15.171773244534515],[12.434455199906669,-105.56166657586218,-119.7379344866376,57.94376324482261,38.993902852917785,-106.27662367251268,4.870457365669337,7.8340636841019755,-83.31181621940377,71.50754558192627,79.49240705433084,44.27022001385258,-60.38316201803664,-32.73482948896813,-6.711153545380904,32.295222976921885],[-159.9871580328941,7.412412270973763,-47.29932652112783,135.60519527103452,105.68952224877474,19.256008350453442,-64.67950656925845,61.60749331854495,-69.30719704614006,-10.962654557814101,-21.16166902761811,6.986622742773369,31.00826880502029,-14.944728128928254,48.838755814028886,-5.550428117257269],[-113.05961058988481,-5.354263814755869,51.29952573786432,41.04493138613626,203.95228994261285,-65.32865584122976,62.5321654795978,-5.403340184545588,-36.95172538462863,47.71710172583007,-99.81034261113358,-39.90738743579943,-146.77744423819198,-15.326696851148267,-68.83061892656733,-56.86069920067252],[-86.64065054934404,-7.766724143779722,60.499441426081596,-129.8222059002951,-36.130486487482884,-23.599825505066338,165.87476121446284,-31.312992898765298,117.49428915040319,-16.98059760539483,-49.43903799350514,-46.943844093174015,-62.559003713234794,6.081521404640856,62.20015320781272,12.427298602469412],[61.201003563613114,47.86949367739574,-8.543305187431772,-37.02607933896776,-24.56057598542842,28.74436386249852,-120.68274441397811,119.70459303986321,-5.436482599378228,30.86344851516031,-175.44900322847386,106.63820373316064,-12.941743908583044,-103.62510942726924,-89.81940801152,15.942415385053778],[-60.77948222798228,-48.67919165657322,151.12554146248414,-48.83705919912733,69.17413305877085,12.290932144482193,-16.894545768013497,25.94842636900784,-79.8500654358759,33.02696848737185,-19.02526044542291,149.80796716197287,-18.656221703492285,-60.410532632758034,-109.32399824430502,-24.10762913802804]],[[44.879915412746826,-89.74470995905601,-51.40935918552998,-175.15405184921448,-87.86886384830481,-41.28316545085127,-5.606756924434782,87.26416755419204,65.06227731454685,-92.42167818908317],[82.13130753935587,-110.57272282257995,32.2504112372263,-14.477845964199773,-49.81434773037649,20.553482058519997,-62.59816938459146,-57.98456618775641,-77.23102479523989,-65.53399603587022]]],"biases":[[5.711114500286595,43.58348957199723,31.609877228626807,28.330086091133648,28.59275980240877,3.632853408237105,-5.716819528432308,-17.543986519495803,-5.483464664693163,0.9177406752151427,24.83733283937791,-19.73159000392294,3.240817718427386,-6.713267253585661,23.343077653042215,15.016185989731422],[34.592391124189064,-5.238078999238737,54.26999202109189,-4.065600832717913,7.7055196021786845,7.834965692367046,4.052457073136572,5.715174409520055,28.719460601805764,0.42852993076014345],[13.254358407610809,-20.40644809692813]],"_generation":901627,"_fitness":0}