{"layers":[12,16,10,2],"weights":[[[-2.066057779196649,-20.58372981152424,30.791145123313733,-24.614427256532966,9.989294516367712,33.632494914832776,-22.293366652572445,-35.064535164278304,7.893413282956088,1.775705354893069,21.28984101467197,-45.984203809455416],[-11.170690101210646,-56.155752801959146,-31.35508804820317,-25.602560016768848,-41.893251905208864,-49.535991383796784,-30.70150373614801,-52.187226418101886,-9.988233682019127,-34.45848505683354,-3.0239622823815777,9.53853340780467],[13.045319141215352,-0.8424582793675539,35.99337234448399,17.290117513251204,-65.0132048131966,11.78461183854471,-6.964260929722884,-8.052594753383643,-9.507013356202501,12.10163195463945,72.88687287179178,9.538517748129047],[7.746583259102317,12.193239006564392,8.47210866039178,23.74193953475089,122.2244268689109,-11.944292163936511,-6.557114610285879,-0.018811046672920564,-18.815296999361973,-27.671972590432464,-15.990576340756899,-9.973368970951752],[-10.716485958252068,-19.81258742784376,-10.648869125233025,25.26488475812547,-2.7859545152048035,-35.0151241513757,-12.421012651336932,-20.090074395930333,-31.431692555388967,-8.822709179682551,-19.78952532963234,6.648380029909008],[26.194408165170543,9.260329001947575,-12.954593458594292,-42.9038476455157,-13.05592422403003,19.06118203041518,41.041015301064704,-14.055217120624974,15.219840719667578,34.00067363907103,-16.59142076919965,29.06709467928868],[-36.366855425276476,46.122652236233094,-22.252094169914358,33.477846898298374,-34.10027040430331,-4.0795374803305,-31.18755730961936,-1.342665787394954,-37.32773894633126,1.5373610096577455,0.6537854781193854,43.17709265306442],[-9.019663461718439,-41.053718839932856,22.380663046149845,-18.70461180191797,-15.510516652840659,0.39438204947748623,17.68960906421791,-42.585593358032625,-32.34267843781321,6.477375241100578,-0.3622947596238415,22.646834273533617],[63.18506993709025,13.329768333598594,-4.548551851763126,44.4240329442706,-12.082716453631958,16.329454042873913,11.533016022405704,-4.27367926343683,10.805737557440962,-15.219889135161099,4.210059774998147,28.11796335264266],[74.4550437085619,80.59444762670549,-90.77831648311852,-25.102192180779014,-46.0315060671477,-48.32487831171857,31.844268722013577,-26.678502012498786,35.130006885941626,-9.191267720053235,5.232390716570191,-52.10148906240078],[-44.5130989330893,-31.38694757093357,70.52379142454882,5.380499042512021,-8.01076028733944,73.24495072202984,1.3329591253974744,27.069338323329017,4.08723077887143,-18.684240139743103,18.186544197201812,-33.75832712502341],[5.105556231959898,13.582795615514259,9.616488824864074,-8.935535950757162,101.28129423123552,47.93064510879982,3.5321257850066394,5.274378809667779,-10.909039972556005,31.276873142894832,-59.895085258727796,28.51870842058764],[-34.15290030901981,-52.8924439271889,-11.718070149940516,20.837804398852487,62.35915908340955,10.512325143619385,4.706827123984981,-3.1058391280515982,-4.90216823353086,0.5273910094694315,-20.059743191841296,59.238659977443945],[16.30323258251346,11.317300068458485,-5.909435965420771,15.136278002565904,63.29970616642128,9.753582121437066,-13.071534718983132,-62.17858240211218,10.768945555542519,19.33044990788933,-48.949466208738485,76.1618568656069],[23.15858046065514,-37.68685645415008,10.117431280453806,57.093336170127465,2.9890281761826833,61.14487563545235,-13.140690227521924,1.9999644626148059,-67.43654392724923,22.56753259147711,28.38471844405837,41.82605194389234],[26.907576088849602,46.66108023591727,-10.822120952481802,-86.37485135234596,-56.73059811038131,-38.140771952172635,-47.60087416964765,-15.673389040610214,-36.42917874343512,48.02704218600364,2.3724585972626313,54.43473767660614]],[[10.982161757604615,9.049172687801098,-32.0919325974752,-3.0205897881910166,74.37453664379302,-12.519045173272996,-7.3047118007389376,27.75724996311559,-11.217685704303795,-26.58455072542136,-38.06441184835627,26.8720311026185,19.27992372897668,38.05526771666035,-40.21648501123272,24.131960198066675],[-10.25458991657887,3.5793112055329326,19.467678612622297,45.205281913632994,-11.014181906671475,5.362190326837935,19.44958789668837,-9.31850162916174,70.2322216631325,39.863806718967375,-22.092013937940756,-2.7573559395659273,-74.99405139485906,62.2449560957001,-2.3000665929955457,-1.2944032698421732],[2.837071250030066,-18.81531500381094,16.736680798535016,-36.09238639598101,-36.7641275627474,10.070224833724339,15.020073085109857,-67.30747206468727,-28.321347039993025,47.477259797372916,-27.130985696477076,20.501362787734518,-4.303480495112536,-12.14463158960214,-17.80030033642396,-9.517769870541597],[27.03700278187194,30.332284039424316,-10.419821920695915,17.41671681056053,5.246482969440252,-13.642097026489555,-38.802117572523095,16.64538149845324,-0.5369678234302399,29.860193464718673,-36.03075550718647,33.41691984397968,11.684717658352538,26.954730117620446,-2.8394240341318318,44.27704418219309],[-3.818160486272874,-11.436121294368176,12.338673574867887,23.451157804090748,12.384690930266736,4.090875475822213,11.996539631801477,28.986437171512385,-45.04841743564768,-1.2451071647970753,-41.34136779240032,26.31190742546818,-24.083826202932524,9.84771122256929,2.8003163248069214,-31.751070634948938],[-26.841422471707084,39.27797144135524,-6.6316138905046405,37.2660699469885,13.033831177184451,26.757185502759192,7.135424202846246,-16.634443594232962,29.04290573620344,-47.96439671059629,19.290429528334638,17.467834850585884,47.89606089611779,-50.87381526925699,-23.076817956325243,20.07695022113655],[34.67551407311158,-3.39820254641053,-4.3035578961040315,-43.262913993518836,30.451806669559318,-15.74141531100338,34.35305926306763,19.939310411912672,53.19305057634805,68.79592934067267,-8.223626025156804,11.928055258676403,-2.74485887062131,-39.65582902848491,-43.896575705560174,1.3619731988391655],[-14.370637606450815,-15.104146029563799,24.535946156529732,-79.14823015876516,22.877014884584177,-3.271866410115097,-3.8705422200978,12.30192907704283,14.801097703158531,6.342150117155681,-10.930296303150401,-40.919711020527664,-29.028812713538645,-20.179618995543947,18.540593206057306,-35.309697043420975],[-17.934884390715734,-2.651742133953409,-17.845562609552406,-42.08339877172374,-11.652113341112521,-27.335211619807577,-40.0677375361301,48.58482799729306,28.452042491800412,28.218629694750764,-22.893214628286216,42.39025898273995,-28.873750373882483,-3.769560781909837,-17.451704686976303,19.817775642554572],[-18.124011567910003,-76.69602269467471,7.407615495114506,52.66663284533345,0.5588139477161851,-45.808921071651184,26.191832935635972,-4.03198523376745,-34.73790745145548,39.976755829962265,21.055549319183516,-0.782583813270253,-26.84120707614853,27.546897423089607,-47.02877186585828,-3.0674574008793476]],[[-5.086430533662193,-5.087138342082381,-0.19596457351420954,-27.255307113690346,-23.025651383398507,-8.271472397340316,-22.49768006393306,48.75431294597435,35.6090737302109,1.5801374101944015],[59.4808952547209,-34.15003612697648,26.33947650723885,-0.3955619758745817,-32.019862830779225,23.69598950064445,-46.27123996663262,-37.994082291482684,30.093877561687705,-52.38651847480793]]],"biases":[[9.962217899510886,18.43048575582189,11.89029945348702,7.747341491396047,12.104657207678263,-2.2469241155225474,-8.106872623223534,-1.511049671681903,-14.965716492081873,4.189445417452938,0.1768811821855503,-14.06933164378625,10.80514756799505,5.319139670376188,13.036483304724714,12.22677794240944],[11.088328007205766,-1.029746270844091,18.882765369388352,-5.703444108838728,-7.330618920165571,1.9902426567667362,11.235594630548842,12.192288208095999,8.928914772699432,-0.6355667161760519],[10.886817260756223,-3.8314611835896604]],"_generation":236627,"_fitness":0}