{"layers":[12,16,10,2],"weights":[[[44.24293735490279,1.612848027170974,69.02640275234867,-33.100638556830674,45.46085938623292,82.15957745380416,-128.9644018413544,-51.029026709443976,-43.648516741687345,-29.005391718047004,1.805197334246562,-84.10368416628158],[-46.57127507880815,-70.84955167741319,-71.81891379469947,21.460971424125436,-33.654316686610834,-16.500714371153187,-34.24287572073306,-99.01061923047048,64.72933460397257,-62.6115036674522,-50.18120358151189,-71.81579227266029],[-11.981758230915856,-14.08203284752134,27.776198199021827,-53.99105192425275,-72.92270324630232,88.67079532019712,-46.04541830893756,-9.39429074530255,22.576564630776037,3.6529934632446985,80.24433524713673,74.32241811485468],[-68.78516804739017,0.2891782536076133,-38.28719684214002,53.66770434883361,171.32210817491466,-97.63912929158833,-6.1217767894669395,48.587914022611216,-45.57446342865756,-48.20409240936859,7.6993053877451825,7.475900144119721],[34.44611631273271,-16.104523857967465,1.8267504235855343,-6.4338138385499395,53.115946027325265,-1.6559856891338618,57.59346030323688,-44.83465363048651,30.10631513649014,30.113457548247208,-5.421499515112481,37.392727667039935],[61.28242940119397,-2.7662970120915884,-81.25053540048533,-60.623570162943416,31.654691249629764,-23.884429923506232,-16.985506783723945,-12.130215490892676,80.79460860498043,56.62902129287057,-40.14943188722929,1.1977582806667169],[-35.373033869239364,48.16226647176176,28.824961257049353,2.997648760790594,-80.80654219753623,-47.51376091354177,-64.61294051353659,-21.544365690493432,-54.60104006485454,41.78073755637313,11.755030349416758,41.38320139267077],[24.918582386337548,-57.61039212840399,24.862450943847236,-38.91811327940311,40.772590428964094,-24.943228480702434,6.565407226223974,-3.987837277623077,-41.43274080842506,95.5229530983523,-20.396509725435283,112.96138176235367],[-10.480815202832769,-7.426979095665395,-41.09936929796849,61.96447311990661,-4.798440565178385,85.23201753949795,20.278907651604307,45.077453348735375,0.45718823954231425,-14.823121628429039,-0.842337760660339,8.337789737108583],[83.20108779143234,114.02070681468243,-101.71154956114246,-35.2961769230648,-59.12477462196625,2.4382051376647325,8.752110926791364,3.94535279844125,6.503224148475101,46.563455134159035,-11.453019236102024,-72.03512287185627],[-16.638776209522092,64.77668850376119,38.228992696982836,0.03458861938128266,5.444430184280164,68.27996336617768,16.57067084906803,36.33883014215306,19.57199699728247,-28.304520687632042,34.081834422868056,-36.71644090479358],[10.977042940820656,-42.09301551700063,50.842775947809294,-35.05631063523578,83.83755498007397,68.79042497325777,-35.3742343088106,30.026325206072745,38.78193092349246,-5.439645711053233,-3.7787403054574944,71.71359772215743],[-93.80128062216758,-35.19585527584499,-8.101038933206752,-38.414956999193706,29.718101136648308,6.629565579593985,35.68969199224488,18.91691536644802,-8.638146981975632,-99.07670920643342,13.339082730279783,-18.032313201190806],[61.402031623645065,-69.9344461847037,17.715045999228554,41.894665333502594,62.15828031878485,-15.574667937955159,-41.58413318005441,-109.79262349934494,38.045882866196784,35.84460773895365,36.529504782624706,88.90383409400569],[-2.4840479723995,-33.31773638208786,-48.89528370619815,110.03672929739751,57.98694768735233,51.15715863463312,-5.0435986483527975,31.811968411033806,-91.23089692752225,91.05073472190378,99.80892914126288,-2.9801503202638773],[22.064165681231344,80.28908088805126,-39.50839582905059,-157.19526287597668,-27.28000424879014,0.5449697270301662,-40.70460270853388,-94.76768840728495,-77.05032088221552,-39.61492249550671,13.375201450650886,73.50535308441518]],[[-6.966180462929882,61.77380674034855,-10.4203760075591,-50.76250596107137,93.93773039602186,-22.441659759216005,5.278753695325189,-31.798263479560365,-15.151607639344562,-59.337227195489376,-58.608840966930714,22.054013069091827,2.4828385500789225,63.508039404545436,-73.29809470342724,39.210452143779186],[4.120462878406875,-28.226264143627986,6.424442077998989,34.68048541433895,-10.925602129151143,-21.706250552589548,34.26160572506653,-15.136870953987545,73.6219835553194,66.75062711971619,-8.432471332445491,-1.6965017603879007,-118.31785711147212,9.505265589580391,-6.762507347654782,-20.747992802213716],[-74.21384646953994,-33.19606928229574,-13.159763723607757,-59.78393322699481,-40.69796694863151,61.11705793878487,-48.3131560185762,-6.059833588641423,73.02046536280456,118.05777839797685,-24.10964790605949,18.884260477041682,-27.229671873422458,-20.77421374061667,-20.570290674256373,23.157019231412928],[72.7459827106795,13.185284470517201,2.0521310980190095,10.510887037436582,39.55848668204994,-46.779029184686095,-50.780572532923,33.61837928575944,-37.92889921356215,41.85555332830989,28.09486864310397,30.417986596013503,30.614095961621512,11.757823949491588,-41.212237594324016,-17.71117105819217],[-13.146642151889784,-12.470806426128222,-99.72424443986041,28.36380349514617,1.1813353878946784,5.748584214045767,-22.277694401652475,58.74198790679815,-52.71133172603774,54.217072873744826,33.76612296857557,30.465853444364555,-65.07739236157539,1.81234680551281,-9.343972322791362,49.98415815158477],[-107.42878448025897,22.50377489214712,-26.47300106454975,48.051973574051296,94.39737276265558,19.2912509038592,-23.028054384954615,5.374675651502804,-36.5993132811386,-65.98165256283986,-53.288840802785195,20.63888551902445,-2.354765387590955,-54.702196397299325,26.090345729753036,-1.4766484950891074],[-90.18021307190635,23.135313013454155,10.897492568328193,36.75886591001719,128.23422774403073,-66.21502405736585,19.160435428517047,-6.042599991663288,-32.80204658030454,41.26111517768922,-23.007353422413857,-34.54293769387908,-99.5677696715648,-76.75219725333257,-3.773708785411554,-30.57679330925497],[-66.49198675316445,-3.1265817517147227,65.59921620614358,-96.91322040830315,-19.793664980574064,-17.781737970513255,92.95105625353015,-33.953531861103585,67.05602901050044,32.58926466748204,-53.41342755954779,-53.55825776372738,-35.8306268213,-13.864937340331297,55.37070760172213,30.030772275568232],[45.45861488282503,31.536379002790728,-0.9632796716801988,-74.77481399156092,8.182533148934562,1.7181491121419072,-103.31222923331798,121.38843793073853,10.486239574396553,-17.418778753384608,-123.07668568313366,90.34385205965516,-51.644497970733816,-73.32918911638032,-21.812064350882242,-14.537158205698942],[-90.95705345057392,-68.19369751728449,66.68227529964264,4.662175394369145,17.800865870134828,-24.672257551603014,14.360674065749977,-10.264469644103588,-71.23952244345409,53.062267068076096,-34.851025881854426,57.782085627198995,30.488205233986776,-86.33542384233093,-86.18375738448167,-4.041303626943682]],[[1.7141718592504969,-25.437129008807997,-6.393315221317607,-45.06752476374143,-60.396596152922776,-37.265168789377235,-41.3367128087682,105.01544998649568,47.86286293333711,-20.455252318975603],[23.95016975299415,-56.71647826333902,57.24171755036647,-20.875678815823775,-42.89404905540416,23.06157084152907,-75.59011636178379,-48.43342230216241,-70.08731466969019,-66.44140192822265]]],"biases":[[16.01876647579496,36.553763135835034,26.43118673938516,16.37321561308904,31.699956666115003,6.104540562038061,-17.946124075922274,-3.4796544694398577,-8.198955670179709,8.940921527124353,22.910017805388975,-13.211529043235542,13.300700183094127,7.298091864836079,22.347758259705504,15.920171354139459],[23.37958139115942,-7.219845967766643,37.81296420868251,-7.789678379543082,-7.934188140999528,8.577373916013327,6.95759133945385,5.166002201765575,14.1074474092049,2.8059660560750253],[7.476008953743302,-6.759251448151352]],"_generation":626627,"_fitness":0}