{"layers":[12,16,10,2],"weights":[[[19.28151060128997,-15.721359133893369,64.04530326813212,-44.80505924197892,-21.68156283507163,50.242597702024405,-52.53293354344527,-69.24521037554987,-10.608133918588749,-24.213470661186985,-7.150814323211127,-45.2136393784285],[16.301698821803598,-51.54171216368721,-46.14593242167918,-7.856531520425906,-10.192455979058836,-44.25782479790859,-33.76127764546506,-83.52855760670387,39.13869524894193,20.029565299953614,-18.986164563951775,-10.84264284891627],[-21.802285958811318,-21.70977837858014,23.883095765597012,-7.706277972842139,-34.26685856887417,54.41145101319281,-13.706857072004235,-10.939263770302942,34.57116662519576,37.554981946814905,86.98649109089912,23.948282117256976],[-11.973099988218113,18.491600781968458,-23.85476842929809,55.90012249589897,131.67297465824845,-84.68150016482646,-12.41002272184318,-9.808615707981124,-1.7321145475421098,-20.72953466004967,2.131549816593897,22.345150442439472],[-11.272137945848803,-22.777905472186358,-7.077397606787218,-0.8333640593928451,46.20381528672437,9.607171473803954,31.656169938003313,-8.6802319216458,-4.344222371099419,20.543263767268606,-22.031366364261892,-12.378720890317178],[10.248392038466632,-1.067561907760922,-35.97948417072314,-87.75214732432933,16.67086077257633,11.303026027758259,33.325223605759305,10.613133283627217,57.056497295334836,79.20398450345098,43.180170905547314,34.48433106619567],[-50.1519576323868,39.687095244196975,-32.056273851249486,1.3007494951027356,-20.00158865582607,2.8253674217687346,-39.618474163602755,20.626573573477447,-30.484818658020153,-8.507120359294357,20.344336000023894,35.297252055568265],[-9.443891984287749,-58.74156920002814,-20.57908403191219,-32.995036589145556,35.32799736409475,0.27830887850350683,68.11821869940061,-37.6762699017587,-31.97092781174392,26.492029287273084,-30.455872821458748,46.47775289981807],[54.592161434867926,-0.48944484744964206,-23.30607157036679,38.00435343330863,6.876563151991575,31.496264129714955,15.593091621526305,1.2471338459669865,38.91144013745192,-8.53771713640342,-3.674707122621998,18.49601505268208],[70.78401062420303,104.87528366807082,-98.90329054852921,-17.053963959484893,-37.82043854517319,-16.31703033166559,14.520261839117834,-2.0688131031272743,0.608124174701407,0.35754967275499117,0.8316939030082273,-45.18057817554982],[-29.43899613756921,9.916374231474535,74.54425784678561,82.02941914500973,10.595401586063918,51.18311984853436,-7.936023160769567,20.309209253508346,-21.820367849531884,-35.387563823535686,48.24199569729059,-62.19927215153786],[48.54074904777096,-5.867268095161559,-1.0376862772256286,-26.421364476769973,133.78879284482255,40.63872851455182,32.70343954537513,28.827299193631735,-4.562592615215802,18.953806977870805,-46.494695214792465,34.90692905236635],[-50.329698774447245,-42.384973753367426,-12.360524696499317,15.52866216096553,49.34640851749945,4.923508336187528,15.131367860187504,12.217799422052547,20.842884242880427,-59.68535087571378,-10.429589155891856,28.561614534938656],[32.27674828191326,-55.72889441492087,-23.50883775067373,21.49670575579187,102.28749647265998,27.46972266703076,-49.942492408847556,-94.24790838056613,27.293076424876546,49.77100096282803,-15.386958671978267,61.73126597423211],[5.768569712545479,-18.850666471087486,-30.420180767991855,79.82619254282012,23.881613275172036,76.08453735736876,-30.111923472797613,12.377751144138827,-101.10733467773001,62.20327744895518,87.07448749877194,42.973209054235504],[10.020282951489914,46.6419072338314,-41.27513146516438,-134.44630029523577,-66.40565375537608,-9.721863107760129,-13.226860924926198,-47.670116545560106,-51.25036966645195,-43.19969873148827,21.581474993894005,85.26710101778144]],[[7.8968537142453945,43.80877778070237,4.386830359387315,-33.13613371393668,76.79766948810477,-13.378541456840665,-24.711077973858902,21.214866127298755,-21.851663439331933,-41.030070636392885,-66.52560287942174,56.64743179503298,2.747168690645715,43.8614755074698,-27.273935078010624,52.15431491970569],[26.28059974826261,-7.911214570899539,17.141447533985314,39.73483159204545,21.919551567011602,-10.810242734335176,24.804522431801185,2.9142546235927624,91.15274189223963,48.50789508808355,-2.087516173927421,7.670289236441129,-58.1127086620282,57.097732273107646,-13.516539383962012,6.188467874210984],[-38.289339212289086,-5.3923218923810134,42.55788312353518,-74.62138151849736,-53.46067025173054,10.233894608256355,-55.148977160259626,-38.49641579308849,5.658393760241587,97.23536822864773,-34.375202612870886,49.387240783063206,-27.576327191922818,-48.01595731492384,-23.884909104114318,13.556925839928983],[31.311251578991747,-37.233510261056374,-20.706450140256464,22.71911926324003,50.704630888192156,-30.381298455927155,-61.11093503374053,28.8096455773125,-58.006614307213695,71.27254939779716,-22.154689196954394,19.106354830666778,8.891230093801816,6.792353390194503,0.36908892270417737,32.739402999320575],[-21.02687929674351,-38.57249832003265,-19.37919325255247,21.823216388649335,-0.1261407490174442,63.754232891147694,-24.914233546873724,68.39544023086732,-54.534527644236505,6.308610137971502,10.863168678327577,56.325310560329974,-41.94589184014465,22.718087444952573,19.271039627325948,21.946184834748795],[-25.279403121077014,11.978685731041843,-45.351214420945674,51.147799133089116,16.303388367603922,34.096088050892114,-17.44298903370956,-11.160534230052713,-14.320830961482308,-56.714890447768596,-28.039068868566208,22.91560709768962,24.702802697167364,-19.920385000977287,47.4571191387474,9.845721634137394],[-22.009420496543722,-8.501828763897088,54.748906596701964,-2.250881672928048,67.17410598933688,-53.28838534339549,41.937018966206,-1.8453134258329071,60.958780165830774,75.93248493356421,-24.89564495322878,4.249708205420017,-49.47747564027517,-17.798837834270586,-0.763549063732366,-29.50127292519875],[-27.62108477816301,-25.474027086407013,22.635712721034633,-92.47769584911511,-31.55716020355466,43.12086005261248,-9.201683117988475,17.885130329673714,39.55144463873701,26.48223933525473,-23.01667300115279,-25.350059815346643,-44.689509125948774,-2.8738823537830167,65.66480717707678,5.511478552599177],[2.446778549585283,35.85236460748242,7.305628461191848,-42.97585295935883,-15.794558080074635,-70.82718200978873,-25.22141626549423,75.14321146550189,13.050610995759012,13.629732160561478,-71.19027676945599,38.04301969739305,-34.42622083909142,-23.36783370502051,-20.541625922128308,-12.920790342554088],[-30.160580698568122,-54.50494391475634,38.59118103064147,29.462653261316493,46.831181070801094,-49.51711338276909,21.440195240242033,-28.27551454273598,-7.874327852325387,91.80570127394921,25.047676588377822,18.438005793294714,-12.630846452262224,-39.34771336805381,-58.452122868462155,14.146786733172274]],[[32.78911714807733,10.334012691437371,-14.489704196887784,-28.588289750971875,-49.55362998415663,-16.769958134858744,-38.81952232730977,70.35553355484247,103.80157175631544,-42.88606037718256],[54.937034825565576,-51.94722773773011,34.968705244101876,-7.393555022351092,-7.633492105225232,27.117531067942693,-50.426491386947056,-39.32224631481343,24.06964368586692,-65.89767095806695]]],"biases":[[16.983767748204844,24.27265295273028,15.371027948916113,28.241849935524414,6.012541578450326,-1.152257506808743,-9.520652189523998,-13.171560687993992,-8.404290625127667,-5.781916697092099,17.479612854210828,-9.980616078210478,17.64677506754705,-0.3157350054735548,20.5926718645581,13.331217252320116],[20.65950851091629,-1.7537355419068958,22.53434544914123,-4.272604435383172,-8.344159852182978,4.446560350174901,15.180201094655155,20.80185098401877,4.242232253560695,-8.864532832230372],[-8.845403407876333,-9.859748282131829]],"_generation":401627,"_fitness":0}