{"layers":[12,16,10,2],"weights":[[[66.57878285491488,7.0389700133984325,20.84612457941369,-29.94807696400128,19.666153211320037,104.6546240493681,-154.4027959925762,-61.285373880193184,-64.94280434553343,-9.956246734336313,54.82471626709174,-84.3696002483168],[-45.10430972224579,-35.3587132270813,-93.57147344576052,-15.113926475964652,-4.443254200650812,-48.55648044212809,-8.063326491664297,-53.179350852035014,83.8373933072972,-51.28663004200148,-52.59322850477699,-89.11615883431769],[-27.79346488953866,47.38427993058708,26.040355718124818,-67.7957069021043,-72.6125178270349,126.97338655618532,-9.733220541006526,-48.53322262659655,4.296356996512453,31.01942504770405,102.64116325506112,111.00662828815264],[-63.867880629079345,-40.59861621530854,-6.136024086589006,57.60255524137281,164.95045710415923,-92.53965370719561,-29.353792486230223,11.571520158142512,-2.762525352768913,-19.20666173715081,-2.425658065211977,33.69690665058012],[7.987717349302206,-0.2396647046816831,-22.760694926842245,-17.74667111092261,125.67429741200678,-14.965585026795315,62.35668498072512,-40.42421173357731,63.58884002460193,61.95365504848884,-18.533008327235656,63.64300549908008],[82.52914416633124,17.883823535726854,-88.36450123939534,-43.621252257075206,112.70145188828833,-50.32210998579255,-48.61210751511028,15.22113306880417,129.78118891933767,4.7376252106655246,-20.996994924862683,-28.309206808926863],[-41.79299260350709,45.40276942201167,51.867969769795856,-28.135887091012542,-104.34498639424663,-60.022270267936015,-39.51045345073418,14.299814628280213,-78.81695508062927,65.15868207298145,-42.63551190171265,38.02773820186706],[5.14779527541593,-53.393739412443004,35.78696271813997,-5.807126940467916,54.22725196471247,-17.708684599653118,-24.91198043818096,22.779868966506942,-53.980361165026146,132.21087413279642,-72.475106743728,106.71803237321025],[1.9814857248061069,-43.6660942331485,-59.007633832041066,73.61728900867904,-42.692443931940204,55.7882470078191,-10.889477034801773,108.01164080756735,3.4684612302276494,14.875050938166034,-13.482358027360963,14.88029945282641],[82.82903072926095,94.01064225641419,-102.01149187073963,-28.415581664764968,-49.23500763996249,28.79058060966212,34.19402230286352,7.563875938271728,-23.139029835236276,12.698316445750818,-3.462061920946642,-94.111008921935],[-15.940891275619634,49.30663921195818,47.4198314509831,36.370918447275955,54.359581179691794,50.38322396042664,72.13033403307314,11.666452469013677,-1.4136146701847228,-9.124144814263682,28.62103413705421,-17.403202358783048],[37.02425694910762,-78.29018500666575,65.04766963692286,-42.66707496085318,77.56263611917285,64.12253399424704,-91.20384358817053,14.77909718655375,12.719395518015375,-69.94405110055891,5.9668466477676265,70.49983147794923],[-75.88625170803242,-41.59363028500073,30.23878218033233,-40.4416098439387,2.9788772097979734,59.31254662260493,50.83888058898233,10.746532245484271,48.431639545286316,-118.14002345923167,26.84393739402204,20.380190048643914],[-25.263115578398562,-94.30973357094759,41.75723607493306,64.03444367735501,55.26982663969049,-19.9224535394318,-50.34264089870222,-70.28856713010319,53.767081452898715,31.24038137884469,7.593072498371972,136.25393706853575],[-21.81209415986567,-87.61767610183965,-1.530538250589181,114.82325033773978,-22.870528167438753,21.299403714773632,-27.07569300877483,69.5950293010098,-94.66183995016456,88.53506110799357,88.22795145340261,0.08069050560317309],[21.62631172708953,49.470365850593204,-127.8655103194739,-148.8030841008121,-28.919984692693582,-6.068302752059825,-13.487812369983374,-86.38939368554436,-102.88316449136066,-92.38491182929896,-4.762373087013721,128.31392169565726]],[[-29.64796252910961,39.9242668227768,-3.133947958751859,-51.53680400289611,79.14904079285587,-27.824908601874444,-8.671940865684983,-38.21562561447056,-2.920825000490431,-16.30649781072716,-91.42581925606355,12.309689949526202,15.563907726597831,44.694079423634555,-120.4757463542782,55.714740700678824],[24.930422410674236,-85.6036531176735,-6.96399463518378,43.130768239866896,-23.314339032543664,-22.44140390465657,52.893311553540784,47.42770300458466,63.29951412614983,57.08673330428248,-22.087747882005885,25.267469789849223,-79.7992872710977,1.7503399985074846,-5.812172443671064,25.110224425019563],[-92.44737777610678,-64.4222854493835,23.594440627701548,-120.11459415668196,-28.168997678572726,64.86025859979775,-100.55751203424009,-15.714994525408416,60.846984133594376,69.21680874808094,10.615100841403917,34.62776983410415,-62.841638425505735,-52.30475730172778,-42.29417979608431,-8.567401582516236],[63.19689039129578,6.183322750110424,24.670436826041865,34.03172111278574,27.901335658220816,-66.60709025343462,-59.50295211841851,32.59798159014458,45.147328883026965,92.23784650959189,-41.96694092866066,10.388227699720694,15.205013760503835,-26.521111273809623,-58.74386718203108,20.723368006905208],[3.6809085148625242,-70.92045128597508,-83.40784603474403,28.341185406540358,21.238144146022446,-78.33527685135088,-11.473352593254448,54.975611160833935,-30.66034517473603,101.26243403509605,48.05644621681515,35.21068793627039,-36.52617185840286,-23.455645580404948,-14.36113625033747,34.320596763133764],[-125.53244118961611,-9.066209203200527,-40.821144940693955,100.42877173720021,104.13732804323962,16.08354492147257,-33.15494847033634,43.1952457250666,-51.75078792323663,-38.62485903325272,-12.323647980686182,12.665850540825803,15.888987342448585,-39.57619556529472,31.983453986813625,-18.567362921740028],[-105.01786828139427,-4.596169006536838,13.889449215695048,35.560205977441,186.82280431396094,-49.6718555970789,86.51791157232755,-9.230308980084308,-52.009926120698026,6.941333469865327,-59.84626577069861,-76.51762851553241,-124.88813575782935,-10.54195926426982,-40.9764854503382,-60.21136560664988],[-71.74814241842917,6.589964519008061,68.3958966187874,-146.33696998918154,-34.27166608318657,-38.10015627210108,147.99383023971333,-35.753552024729856,75.59427564671348,-0.8844762817275063,-63.52066593697416,-43.37771491281665,-81.74432176396436,39.24601997123306,72.8221368149458,-2.6491870634693764],[52.20606930875015,46.910135264831965,-0.8029953404677552,-6.455343227300117,-20.93900737987503,23.37663285481866,-96.16081296839911,114.41840706406528,26.302718911449016,28.24250446205479,-136.3047476990908,142.90844614154653,-37.04305777838339,-129.6033438777698,-93.55647838522371,-1.9925350079120396],[-81.96852918522276,-73.37552194847085,142.42246969766205,-41.77347444349613,53.907063637314565,9.675067829702245,-12.93372687749949,4.408741611074678,-68.14911470819933,30.864421519482317,-10.853237631178153,143.33824852127464,-21.805305190751856,-58.11341758589847,-110.63695855058998,-22.485223875140232]],[[26.811363356146103,-74.15141815652478,-44.582097371952145,-131.36912275401764,-92.89791130182195,-33.62458909670022,-22.983191666353793,114.5552148463961,60.807681572424336,-84.4679606546859],[93.21137919138418,-99.9910543877973,44.97008765032172,1.4658704866053707,-59.98915333827491,18.170062666533667,-71.07510025784839,-41.102165441214964,-92.43972679844887,-52.49893193270504]]],"biases":[[7.855441666122327,45.28149893232398,32.80040294448863,19.746354651189563,25.904972521714473,7.010599907064284,-9.505491750237534,-13.604057005834388,-8.829337592132614,10.301831454922487,26.76039710792618,-15.889702911198574,7.638368724984268,-0.23863073743474428,25.833026997185772,16.563707449709387],[39.323285877849955,-10.114429416895263,42.24773723798368,-16.554948364394374,1.436070543634491,3.5092846835831537,5.85053126059272,5.213649234555108,25.147255971136037,0.3637230083608446],[7.322336957012614,-25.047778868401736]],"_generation":821627,"_fitness":0}