{"layers":[12,16,10,2],"weights":[[[46.76465278649272,-10.38541811309902,68.15411757885673,1.0453296575397213,37.60925737764561,56.247073242056956,-92.19937716919365,-42.874717871337246,-55.892694197016624,0.1641050898209934,-17.83608810509938,-58.38377990147611],[-50.067688700688606,-72.8325968478731,-58.14118608579093,18.773219937899427,-46.96691415806702,-26.527477011056348,-46.22014242782233,-117.70607353673071,72.21051057585782,-46.01518082682672,-74.10595891262267,-63.66007299016813],[-9.921814042122488,-21.157150438352506,28.248048735454585,-36.99664194928217,-60.46987646738185,84.56175221115424,-30.777608235433426,-5.496793590779923,33.277086673232816,2.563366034685139,82.47406145724585,73.02281694365522],[-65.80426297985234,7.3777843789928506,-34.23009494426397,58.960788405564166,171.01410328255338,-108.24780027007161,11.099635552821178,47.45864048884317,-39.49568040668545,-26.9453841010833,14.242830800015378,28.947891188692985],[36.46092469269249,-43.663948455003144,7.465522789940814,7.567748469742789,62.167505297602304,-7.080126353845806,44.712984845684,-42.01908477880315,9.153865513972155,41.05925634552962,-14.981197396781296,33.94045224061649],[47.47305223095292,-19.025684700059042,-50.02519820912103,-87.6740161505313,20.934968332775323,-32.438057291350596,-1.4892275693933361,-17.372663133985,99.17388093293899,52.928611523497,-20.1292280742153,1.7592683381640128],[-32.219190499077676,17.73025497483375,17.735715049353168,27.838093173343847,-75.6327661193281,-44.218537542704496,-56.72402260965757,-12.941928134797305,-51.205204852968414,42.33258671177586,2.7413308891345767,61.03994129058718],[2.386114426442281,-23.081915308287112,-3.5407537318350775,-27.361765043500004,34.87549587144415,-9.852093737424982,8.111622478677274,-30.91952267329082,-43.230198360661454,77.42984214137934,-24.866178255035823,120.00430982519563],[-6.535417223396904,5.202404414705335,-18.321172994092404,16.78109747872441,-26.716649583033735,74.16717750667762,31.272096524886337,32.50578931402049,-15.697472396650303,-2.3930145469662345,14.755325410587258,-7.598820461990853],[61.17316776824731,107.15599814888745,-85.5657587695905,-4.27109420251573,-51.92683523677993,1.1104816009162537,16.982823207558855,6.220710263792455,19.6782730143996,62.604385693889746,-17.605061982152453,-76.6699212975728],[-37.7470628659393,73.66304498799794,50.1553464810237,15.47216471625908,9.334190581436257,58.566305967633866,13.994149049648565,28.856799318846452,13.470393757340126,-38.166979960964596,33.65812261969629,-47.23812766208137],[44.7637117466499,-45.895826554059575,43.46771623259753,-37.33994276267603,97.01386532339933,54.32896460470194,-9.523236156822986,1.1583163673700936,22.420434463330643,0.19388350373790483,-4.94492981022645,59.4957111900652],[-80.7445717494426,-42.67553600797537,10.264531680220044,-39.29552481897482,40.584601123073526,14.908833056399935,28.328464189753063,17.031531215925668,-20.336990125621675,-101.94870773566166,-0.3587283282810684,9.736769860112375],[48.76839565558298,-84.83452079369765,2.5458192368446317,31.280721075570092,46.22985210426728,-5.67397741933694,-57.790884614434276,-114.4818320463149,61.64088658203134,30.839910739150348,13.206380965699452,62.43124182449912],[-9.329057951101875,-19.813951624029695,-35.26352280380773,118.84456761814431,65.19775417833651,57.16095222655251,-33.26863816364682,32.45827403069639,-98.60977221961872,91.93342218979268,75.68292136475056,14.564950714636538],[25.556256294069172,71.34139285045455,-48.9657668573962,-145.79126594068768,-34.034547173137206,-20.92682848723475,-3.2755435116954463,-60.00785404730084,-105.15207480482992,-48.58950044242385,25.0042302646262,81.55158532313537]],[[-11.0714385216755,61.126979999995854,-37.054650107890325,-39.85121685006543,88.76767941299673,-16.389836632405867,-7.060958676980157,-22.432951866255316,-40.342859816457754,-75.08324947251005,-74.26763050569893,34.78304791214066,2.9701279295164498,49.92849154066139,-80.65852834382045,66.89898527481715],[-5.043970978647684,-62.69925839815658,0.06533566748682618,27.721726174639706,-10.998717256854109,-31.168399524831422,13.189273131272376,-17.0745982492044,83.9098660934923,63.44714770332421,-24.27679699167161,-28.0024448884761,-113.4851833461226,9.809715783466407,-18.062615786092927,6.924926277340095],[-70.51262145009744,-32.372320705548226,-0.947445410139373,-50.5549312949528,-58.193491875481335,53.59153175027782,-49.18248937738577,-5.738622496035946,43.94578009870616,107.27529808367483,-35.675487192081164,8.111149971253747,-16.37383310313618,-4.974553413557354,-19.740466785237142,29.88403941103037],[85.76654428799843,10.159273070586634,-9.662924923823642,4.193795541147759,45.14805780835966,-48.383631650151074,-45.16019169642679,34.1512293292779,-18.01253874460355,51.92259221814372,24.184153204954832,24.808669149432305,47.92397482038126,14.022724190111324,-51.97910842033533,10.046876018114515],[-13.508349382035886,-4.702493036497166,-85.27861661258106,13.587235938312734,0.2706805174896795,9.11223153411079,-23.734723775730465,47.15380162357312,-52.72420680143131,63.37103543437846,37.50376039101376,33.41399164450453,-45.9048851455038,7.440127772571122,1.5799138931362644,52.91211454999812],[-91.16535190590072,7.229478430238258,-32.80575534167301,68.3027157892099,85.8447889992221,42.074642834992126,-2.6660003976670406,-31.183922950058406,-43.5516536707311,-73.85975991846425,-51.69134621297841,15.443376572614111,-2.500526459664789,-45.16710879255489,30.161564849127554,-4.516713308845539],[-78.65984417879807,17.357324515530493,14.395956286538569,26.380591182762632,104.17005808290354,-49.753368222802465,29.36365744402199,4.764442007211846,-6.821643952244432,53.91840124992333,-8.482204599802786,-46.52902233250371,-99.71999125415402,-49.81778954923829,9.321776663775346,-43.476275736276484],[-77.05822234442995,-20.76679623263435,44.443018962112774,-83.10893183077174,-22.36634664115049,-23.160625621665783,74.52273675950887,-27.257831774262318,65.8772936334737,38.14485362105071,-42.40731787060269,-35.80754839286058,-48.39739438193922,-9.65276322349834,72.0894038535328,24.98747900631041],[80.6691606742334,24.966852836391283,8.187686611703898,-70.49531026015777,-18.697235610671147,-19.39854700853378,-97.0265352935525,106.88797136090817,8.25103172204216,-0.1839632106901411,-127.63892519690718,84.51370518176363,-47.5595001569862,-94.08602356027566,-2.4685953019858062,-10.83704146334316],[-84.19783576359127,-66.11276284133595,84.19403419446925,-8.565270582374424,11.560534619576877,-16.17778778838556,28.070386761109695,-7.592028263104851,-58.37887464138608,62.94602534267896,-9.392742539374405,50.969634892366784,19.38555069011495,-97.28693645102526,-85.19980084220417,6.037911471151518]],[[1.7092233715965413,-45.49981107759299,-29.67705484393423,-35.626870823031666,-48.73231861147724,-39.9941871022747,-38.92917505174401,95.97388231519922,85.53258886910116,-15.802639530382297],[11.968678129045179,-62.77990087455485,56.10076359580775,-12.54040933212177,-47.19378629182137,47.986009042224104,-84.89570010977599,-46.346417276620414,-53.27557653818931,-64.06703323213796]]],"biases":[[15.610217424515877,24.964814306356793,20.624788672024653,16.28348352207055,25.445436905886304,4.140288227360381,-18.40059037575247,-5.714215784292098,-10.643634763935445,2.2353278601646283,18.482720624034524,-18.403792309447493,12.212581559871603,3.0605472835225314,25.699778603490678,17.682948542757018],[23.01998744674596,-2.235698841377101,30.296690422863207,-1.570335296292808,-6.583863785058299,9.870851289170654,7.317156902241455,10.4632502684738,10.85642483836404,5.920370917336198],[3.787846697499371,-6.7990728161283425]],"_generation":581627,"_fitness":0}