{"layers":[12,16,10,2],"weights":[[[19.188761118722084,-22.945789135961835,52.062446703153796,-46.20560024661641,2.8216777927417,50.975902238459874,-53.074709477114,-62.53040096064684,10.687165387381208,-26.181499931331363,8.515214855704311,-69.5590679074067],[36.94284068109535,-44.5987643546135,-33.520859976728474,-25.691965112115316,3.6921378219682834,-28.19676612325731,-32.48294790276978,-80.73938463873375,37.635851555052355,13.940300288158209,-18.678160332477617,-1.8769502185636957],[-30.968171938656422,-27.171576517186335,15.52753783170942,5.688180636449059,-51.740386319381855,37.783431636423245,-30.282534489069462,-35.4031928563696,22.67493346723037,52.51680787723725,94.52901271830652,26.960281758929018],[-5.863348082674002,9.714813863561274,-21.175152946082115,69.40123950504719,141.52746501834358,-73.72540474036033,-10.38711241804666,-31.180742401490047,-9.274483363232427,-23.61720345132838,-9.70385345388614,20.115288588627276],[-14.17570448296655,-24.456779115879804,-16.166095444753232,-8.910540212566605,36.41407448320345,-28.597047838857335,31.572634156465643,9.071027226147766,-15.870522572880756,32.5706412001336,-30.131484562371206,-28.587718044321676],[60.13387831450501,-22.759968641904557,-29.991034752091856,-88.53727675026542,9.02903589025792,19.58295149380854,48.086342436627646,1.5664485476843173,36.23893267790345,67.56999241877301,34.65690018710998,33.08005695679245],[-54.652006926227926,36.35193619256379,-41.39371451314269,19.15725063870353,-17.97926772645481,-9.718775752363447,-40.26847454921892,44.31864683557198,1.7460373688644413,-18.062414558964978,32.57522460283001,50.36071295592794],[4.011257686322933,-38.979690183929506,-29.846201030038234,-57.929565153906175,15.672115349765928,-1.4521192051161351,51.738654114625184,-42.97728685474047,-31.60177516748045,44.26957387818938,-16.65932282154909,44.18510643813166],[67.4880223331264,6.619771483617396,-7.3557561105930365,42.3992264825582,19.385929773770815,26.588677645204125,-4.888345233552953,-0.1329646151046678,42.08926951523932,-28.435248311822573,4.155673610452124,2.367609897488939],[94.60325128213681,110.19121480517691,-91.80708622672527,-5.872688213703886,-40.52149724756746,-21.196352630754852,20.516648621087427,-31.838499476209083,19.287889688065324,-22.45839735056238,25.60346951547942,-36.37208467761282],[-3.122231305087157,-4.286916072892906,72.3900721692826,45.895923733816986,-1.3964601075697745,46.97319014741198,-19.988496378882253,21.750260569533864,-11.91175734283382,-26.649406597490604,26.592321936939225,-71.44319100185257],[43.67450656909438,-9.349390230862538,5.027480172648143,-31.41544568786306,142.06913742154967,24.453455063852694,27.68803586602969,29.118003506999706,-14.57471314778781,17.841027914303318,-34.80824146185312,34.309889633039376],[-38.292706707686364,-50.46351997893685,-9.384350637680054,16.06731058293636,57.7141750501482,0.27373424941885266,9.404713513082571,4.390761370732763,28.076550973540073,-42.30718159148695,-7.005243749824072,46.46884892230177],[18.67930092723738,-13.579699433262213,-19.952068701899798,25.78574243275096,107.45916529369265,21.763693767054974,-45.068743021543966,-67.31646131085101,21.920566343981275,58.14802647796407,1.3763460051184295,54.98290374515674],[13.749721753350034,-27.98204630438295,-19.36618258827206,68.03104004724452,23.399764806540038,73.37614414419225,-26.646369669534746,-5.146807636658438,-117.48678949696753,39.19862574930562,76.27966352840707,35.1501396976373],[-11.104492312658383,28.203465622886455,-30.35687846278711,-124.05308240329131,-78.15540133495483,-20.717201590770415,-21.80056014365701,-21.910058834899242,-27.333920056548237,-10.569958563493428,21.590876045183144,82.06272099975777]],[[13.861109208790403,36.47259564174894,4.8695643384821246,-46.956664039916824,53.340349860375305,-11.280819765690612,-25.43306462856601,29.514424554990754,-14.027806337647753,-19.363136843447453,-48.30217063228824,31.667809230194823,18.080277277515307,46.05823551230423,-32.59555119194484,21.40912525975038],[12.66978477502957,-7.00628016006356,13.994216068044251,16.00616330811999,32.694106931493685,-12.35758096806844,49.8090435931674,13.362698139126012,95.60811811554431,22.61219414622117,0.8662833233333502,18.43407726901759,-71.42972008799906,34.508964766363285,-25.148896048117667,12.964037978168864],[-14.401272715013857,26.782578454719307,50.40603304630818,-87.18964573343436,-56.17585821057249,16.0347492593824,-43.08942794224146,-69.27372460475505,-3.7629731340367827,96.45583831667003,-51.54613684225549,48.95390577356692,2.973614841236291,-52.58961018150495,-23.14354463197984,6.700744575516725],[27.517174109985135,-39.98719659412866,-17.60189701260404,8.333554308723672,22.069331912532284,-44.12463314136818,-52.22152079559416,18.18749197294433,-37.71142996397798,56.591493272488044,-18.876984304688705,36.73898332979019,7.863932890486628,3.3192050873971186,10.497678237780914,39.321340709153986],[-31.42767183963302,-23.860152404028533,-5.927819541000706,20.06609701056077,14.948483136018881,52.08239813717959,-24.372963712395542,56.78411684916101,-64.87621254486618,-1.5935159314287117,4.353708431692671,73.52377970757902,-49.83930133535602,-8.975533423346722,16.184861032378343,21.59656262224844],[-28.338466381965905,31.860221810923615,-28.517800018030318,32.61205822955226,14.674123943047165,37.34123587009779,-26.46188817250412,6.3099607724007925,5.494707858172569,-54.75611363626631,-17.93004757295227,10.144964393489388,35.12571878454008,-7.88224294321656,13.541143520772735,8.619387806320818],[-24.49463146650761,-12.303847535008906,19.56001091440826,-13.020481650633581,62.3762450374513,-40.18369633334097,59.83887516585976,3.2210868558793333,76.75908303063815,66.87475048445506,-11.172282952042385,19.011505811430393,-35.510234373760106,-12.371554403802248,-35.57787956361021,-51.04432203988572],[-14.370011277015905,-18.128515444117195,28.40077434050068,-112.10847792852374,-33.13014097412753,22.86838023438741,-13.67959043841676,14.635347498373145,38.96654212407684,23.44999148618937,-18.828821972154145,-27.173561957818873,-27.334056785121554,-4.112775361962653,49.02509995638646,-12.295607493146353],[-9.73967957166695,21.46796056886058,5.884529614811205,-33.78825054070457,-0.6146793095580673,-68.27648645321239,-32.43696511437166,60.49361370135005,16.329079819746518,5.799184974138539,-68.06308857559381,48.423246208266974,-17.39278682001012,-12.440246726524968,10.255332203213028,-4.454984741532393],[-19.73862202168794,-52.769083715528396,32.78189608106569,43.07927981853566,55.460199779566736,-51.936551235565226,13.383801654280125,-26.915464999969757,-12.048274629311257,87.12594434352803,22.637399118658735,31.74784272151326,-26.80518262886449,-50.71329734043881,-67.80300138038875,9.208812298936314]],[[11.303995707250147,-3.4065343450112073,-30.473124666832753,-36.66977881173133,-31.367473106940736,-6.256027081031559,-24.482156758964777,76.09514357767901,88.61172216749029,-21.550412449658545],[51.88000767595615,-33.608960181385015,40.26919960901081,-30.198572219367183,-11.989489287173743,28.132662047523876,-73.55059393292113,-35.94243163303936,19.28116654887836,-76.86902831188397]]],"biases":[[16.134985607457118,22.754378805344373,8.421862496107,26.36617919791317,7.948913871982974,-5.358205745851683,-8.717066969314523,-9.116628450417364,-9.593231716219002,-5.446167226966464,15.031536894454474,-9.721570916319322,14.640980569883146,1.3233670508129611,21.65861471813993,19.835360145565048],[21.19945385534678,1.7063784477939752,17.863322429079876,-5.710585608678629,-6.1692113109619635,7.084976587687635,14.234053133810548,20.875953539079266,4.159201647614886,-11.629706843955905],[-3.6995782449913452,-13.825232086062439]],"_generation":361627,"_fitness":0}