{"layers":[12,16,10,2],"weights":[[[32.56297287188885,11.68777611132187,75.7391171846513,2.942170697832129,32.495846980405915,43.720090034755685,-86.60853670048292,-62.48717688118079,-52.60915012129307,-9.340031386797738,-12.008189972384034,-64.40671080076794],[-46.839061606439316,-56.11496750943245,-47.617795492646174,20.89921407081568,-34.46696328870165,-35.59218676912598,-69.70581427343573,-99.49454499117623,54.2830911050763,-29.569675961339307,-67.36124731103935,-51.6843778008821],[-6.151909680981333,-29.925804805957867,27.846085954882426,-30.32352755182674,-59.765756555271416,77.95960626179453,-28.626948338035685,-18.159364104000822,41.05666891776367,-5.820719001719818,83.0805847587072,51.42198762768293],[-49.67480546210777,5.482081491286287,-27.292182065128767,63.2005813313843,167.96591996846138,-116.53217576052108,27.226517052712108,41.01667456341589,-29.227156480056184,-17.110300787811248,-7.791439869447803,35.9590673256353],[32.140797014221775,-33.37064391985,-6.378697085612525,26.345765512432344,54.14258811257777,-26.00636357042168,41.63987575475697,-37.820128497304516,13.964738634198424,27.023727052910694,-25.318480083005124,21.66600957122308],[68.13697109904611,-18.34285105753641,-55.93627289498253,-90.33232188332065,34.880629099504546,-23.05642697345802,-8.678216973037271,-11.635221864263615,98.53385280896305,54.628358776072844,-3.460384576862233,11.497096458286531],[-43.46635917470344,10.629005361108135,3.7636071926663965,42.60130300109273,-82.50598373851795,-29.752851664094766,-53.03568872467545,-3.235060231210828,-50.18809777392801,22.797345856489958,-3.7346655009933265,64.14918109301837],[4.379243582951398,-19.031042872594455,-3.0781880762201395,-34.29551443192998,33.1161622874731,-8.302424127613019,17.577677633379697,-31.02435717057397,-46.00786778080869,70.24309876371798,-22.177559473147067,104.45368529446017],[-6.255553182430026,0.6033664438765081,-4.817946023724932,38.99530099438589,-25.427569275335973,73.81857784375838,27.31382225720227,27.84052571288075,-2.8730249264853183,-3.8539705984918062,-11.107009899535184,6.000183048822522],[77.65162242837512,97.98275734592869,-88.46746460774219,-13.99466750697906,-49.32615434524469,-7.596021304552222,22.426691556609605,-9.116083417737771,15.42177146549887,62.17162455422608,-4.32726393224899,-70.17648184447076],[-33.36727493182281,58.30595732274337,44.16745045456106,28.55816095858402,14.875167144240413,61.77528704324384,4.9009195083463695,22.272193776026324,-1.838391000451217,-30.845899427642724,37.51427453973166,-50.68507314572831],[49.50558046819455,-30.742042000825446,37.18751154248251,-40.84976040899008,109.57091426658356,53.95990197926525,-0.3663434070653413,0.8051236010246116,8.545669981773377,-5.244246452605042,-17.254499541944526,49.32026851334153],[-88.40241862990915,-21.380716910278082,-3.2975805858492784,-36.11333930258977,46.30466073646549,12.178720982689583,30.149558718183698,12.267598104440582,-12.839371929548864,-85.39183757021259,-10.9130297034954,15.929553942208162],[31.439424759572546,-87.83614610876555,-10.12424928242456,24.152163255380263,48.717434474410624,-22.078416369759562,-59.5123307407124,-103.18598910360937,46.49584913014735,28.13869018475742,0.3476156376979653,51.25607268972378],[-10.063113268710394,-34.05427846176961,-37.05664143638928,122.51734066104909,61.09288479236219,43.59374141302994,-12.700994570873359,27.694868145046968,-99.44528396855011,78.6275150712817,65.19050129911604,41.59646905414316],[21.285390548830488,63.282830227062526,-51.70841558050106,-135.4234618464031,-40.35315804683946,-10.321156231476056,-15.24027086230663,-60.639159159662434,-89.19615137861332,-36.65044185334626,18.721958311777364,90.1568708690804]],[[-5.295938449585167,59.026249166472965,-33.999022235170386,-41.94055949387509,81.21622621431993,-15.529700265283301,-19.271539630661785,-30.553419490819266,-44.43938332769992,-64.92341529881311,-66.92641131402783,19.777416607467423,-1.3524575653093291,61.39599902101645,-75.2994922004474,58.355640163281564],[-10.296529757638435,-46.64172058509348,-0.7582969327941447,25.35836660645227,-13.217833447725866,-37.48138981033758,17.603092839075874,-14.82876964210241,87.57443439969482,61.398970465858696,-32.57347098424069,-26.617884608877052,-94.44060117263501,15.476397016656097,-20.13643699068397,4.337075818330278],[-75.92661364781479,-24.954035228707564,4.159749455904248,-49.06554013215696,-64.76274427588683,59.882244448609434,-58.66195004120187,-12.759794042938921,44.48794399695085,98.10128174173167,-25.852056958593327,3.111164776351817,-10.060014057887255,-3.8148105239060777,-23.05905840050435,40.06971793302933],[82.29481874845565,-10.191514763266424,-9.528482391935826,-6.327438116112192,56.33894712750688,-46.59308730723841,-37.7207356787188,33.83503604581562,-22.083893898725453,71.56747716117003,31.359929489001367,23.64716031254124,29.593182939893524,31.712808221532775,-49.539693149274825,24.786186595657917],[5.134954447075026,-10.801163548215667,-86.56739653347762,12.121362315341512,5.381649590047142,6.29389783096184,-16.316570743705665,57.03427560884674,-50.543168972962754,52.0282078349342,24.633153009901985,40.0997886123661,-51.10008574840377,8.719856789000433,4.016272769020916,71.89153181704744],[-90.73014200608596,22.349241083921537,-19.41032116439264,66.504871863309,82.02108795374768,43.76585112356298,-1.3166850646338575,-38.186286777597815,-29.782656786026294,-73.34632512306484,-61.156498514397505,19.938545384401255,7.736932626573122,-49.78154970484121,32.87334016270656,-0.06295352594991727],[-46.509948332604296,18.044775826581994,6.009410279782144,16.99372794650538,95.24023913316276,-45.05099967569748,35.407753948799694,-2.4227735232923733,-6.410503408424255,57.9514717791366,-15.819662557861635,-31.699895493719072,-82.23952459197929,-42.785488187527925,20.476995618517044,-36.41208592018248],[-64.69899932393537,-17.009743361570884,44.88710493606288,-74.66107585954668,-22.44392289397491,-18.229247024695603,78.17565857105396,-21.609172880576015,57.46690584061656,44.61929314667995,-49.36364924993748,-23.3331931925372,-59.37357244201137,-12.522987359502212,72.72907189888481,1.8303839463922043],[68.70803416438288,29.80742620629743,0.2851724417126231,-69.48093948733755,-23.794956791155396,-30.962136816711375,-99.38448296371308,100.8001159892299,11.572637825628238,-2.0889570110579494,-122.43875851406332,73.23063473821747,-31.696669752206684,-97.49704234354586,1.2185465294795703,-29.450013651580353],[-83.17247496225617,-77.32002313796464,78.34076142858221,-22.398607565159228,30.69737948064139,-13.755442314142659,32.77843933341611,7.28888957442949,-23.03623724766066,64.26086986181447,1.2708224337415355,48.19870279896607,18.583816352076973,-91.36126938280223,-86.67915595145452,9.032646025785095]],[[-1.0987060838029992,-36.93899873332713,-41.74665258782021,-41.095358078026415,-42.54673484209573,-38.65891366930264,-38.297331927907024,93.46585997754211,100.19785108006525,-7.9589581582008115],[5.349383432970141,-44.59793194628246,51.33475347648401,-10.102551419592674,-33.17224589611766,41.20869885597311,-76.44906603470493,-55.29010174095455,-46.89740841282356,-78.34905597151362]]],"biases":[[16.340535073591568,22.056221975499668,22.362080285378223,20.149748000082624,14.189029325719137,4.726924765457914,-19.58301308756551,-5.6603319364588645,-8.837530980592716,-4.265634003626168,23.87084873680577,-21.94704211203513,17.241924305394317,5.7456205911059905,22.148470602815532,17.617700473043673],[18.427436667077277,-1.435236108756516,28.36329711997916,-5.137177265443501,-5.536974066251239,9.517562221629317,9.3046195800053,13.82377156023964,13.028307095310202,5.482723747850378],[1.9135134797756073,-6.094999915698211]],"_generation":556627,"_fitness":0}