{"layers":[12,16,10,2],"weights":[[[26.17385482682739,-3.494531474147425,75.69658414856461,-34.72754573180756,26.91904256796506,27.219509038150264,-78.29452977202882,-82.94037054095675,-18.166721737655187,-27.901524352736832,4.777299204846368,-61.3797884484792],[-21.029945714125702,-39.972976576434256,-56.3575050073488,-5.297257753941378,-28.496811796703497,-33.73177221456544,-59.661790627110655,-73.21208829748909,59.008258074621416,20.66791619474979,-52.19613515503203,-36.38966657271095],[-6.23287734297175,-21.598007595658164,24.690409502343073,-8.109160948562634,-49.288680736323684,68.75267599790222,-12.56449633799876,-15.55471883756169,22.875487511713086,14.53578637549073,73.74484603585216,13.342876588239497],[-28.465968223933643,11.023622723650647,-33.583194327482815,49.621813270767746,140.8020792499971,-89.05094576889257,-2.1099907570054954,7.981775414937966,-12.373236824738486,0.4970926523617107,-6.263074338552846,36.50022350569183],[-4.808886749581869,-20.504930448774804,-3.6875365634438637,20.12920010055214,63.7286517336615,-5.748580527006493,41.2731481148439,-10.661069948601554,7.759414873481097,14.879411285851418,-37.97994690440051,-6.2792896255727735],[22.747670039111664,5.641040199565254,-43.50181508228052,-86.48397322028474,41.311900293927806,9.834058212422073,35.73284941396337,14.844709139291474,95.28118889689173,53.809544979094646,44.4770290245654,32.7472832667774],[-66.56604468099046,14.712871419940646,1.2534062375722184,23.336844324216944,-19.50462770111647,-16.781621204686957,-25.321587381902663,28.33294100963064,-35.31410544398167,-3.5999845697868973,-11.504251206506419,22.675453370118177],[1.2621368802823325,-69.04774710299525,-6.2846920821753285,-47.77438966504947,24.511886800393384,4.517826989388119,46.47148388955715,-43.17851276169735,-25.504464877292605,53.7639014278521,-50.37622647178609,35.72778122231091],[52.140308445008,12.355512243382828,-35.62495252872028,60.675712787817886,-12.032262101322448,38.75908808550556,11.245961395949967,4.7086667614594715,35.38546132594052,-40.69711999341794,-14.324327043472596,19.39120269198287],[66.84260558339369,112.42154093978957,-106.19583793790356,2.1581906830902047,-45.09363416441392,0.5086322519754207,11.93124971540025,23.60066463404753,15.201177547646902,3.005609608502468,2.389110592865378,-50.28567897295811],[-36.285718412047956,10.280406931493483,65.32185750366779,74.74029362302302,8.368896286357979,49.074767330693525,6.689325029363074,8.253215287755092,-15.089506500540812,-32.987667526186534,60.878582086861556,-64.34470407254983],[48.353687564327466,-12.502341405465724,19.58125244478245,-29.03497599151017,122.35268492980244,39.30002254898611,18.964023140159913,12.178630374926332,4.5150805260597515,-16.51680784533503,-35.52741421578099,50.239002928297424],[-67.33521094227274,-36.909426701290855,-16.204456709433302,2.311536179853089,62.35404410111123,7.364960312617034,27.32451256655609,11.789743759213684,18.155805787338547,-68.502039578921,-38.37533880629185,18.794026439143607],[36.19795598739729,-72.40204475638579,-53.31665797000158,31.883871164184896,103.41153040653646,36.983583813572366,-41.88212321656277,-64.55277747858904,28.983685484403892,49.51781234823696,0.33707400237797297,67.89933445972768],[4.077991785339146,3.483295109532895,-41.60024863291332,102.35780652690178,23.951354182355402,48.185457723834745,-24.623479640131333,39.92377257644271,-104.13861243468884,77.4260987921443,76.17167052614043,43.32643514437314],[12.282100168050988,55.97507669420632,-51.323568503187715,-130.85712190674815,-66.18119570209268,-17.4230055532595,-10.366963348836896,-34.922885564209764,-48.31507197790237,-48.44369201595274,28.790849654471476,103.53099040674428]],[[-0.7567980731352284,53.80017932938175,-7.175238420259141,-29.056444610216886,81.92586817159274,-2.696382728246473,-46.402914177213894,10.93910226979212,-49.12851929399708,-39.471086257156315,-53.411488247856425,29.992493013772386,28.73593844706381,53.66291129880793,-44.834300168440876,56.32691695931223],[14.281724387201187,-28.403009931157854,11.337710458152738,26.36779410462714,6.631516543282933,-27.26895653608694,37.75750427661761,-28.606119441030433,98.71303005493442,49.83249034582684,7.880061677779914,12.059695795868073,-48.71229196729908,37.46979352758898,-7.247485266988041,-0.8413180343138574],[-42.6547769214047,-21.879627202049225,19.11664058664474,-85.74923038139775,-66.13972159716675,27.52296734614154,-68.70952600612108,-39.97108639178599,13.740843477905178,96.90783443321988,-20.44399522310847,26.506483386983728,-28.87340918377505,-37.13481413365372,-15.291815877607293,38.28290317940424],[45.22713260297151,-34.13072525659603,-24.364298317238475,2.966840163062757,52.35407768205486,-36.46167839795912,-48.10695652605951,22.741620746905024,-59.85831219450939,58.94215730135134,-10.324871970801446,33.77074580780995,-5.846674608383049,11.700613909734413,8.079392009380904,24.850388895089658],[-39.82838586723839,-19.447571324147848,-48.404098244039176,21.112341853086335,-17.910661962277455,57.62571483057311,-6.898688746136832,53.05191938989926,-56.34969747365945,37.09049040428384,13.937621207860857,58.00143595631595,-41.69284499025322,26.831417987596893,9.815456678908177,11.046923399684044],[-43.178574378007355,41.21498463717168,-35.10961498048829,51.511105499243534,41.77308347922307,49.595127414846964,-22.00012976711173,-16.19477271505544,-20.033054969593096,-68.80857448140316,-39.79014947659163,-1.7596837596702672,15.307479446405432,-0.14885104353906642,36.743215577743314,1.5017121807524523],[-47.370133394841126,-12.190191259701628,26.26463855155571,2.81763649417421,79.81419028879928,-40.81519433775023,53.11472153086699,-14.932959838023026,25.26794170171877,49.36572164144727,-19.67834702413367,-21.864519687422852,-51.89270969828121,-31.601493872444543,11.785566317618587,-39.00885451652932],[-11.062690891069233,-28.991129485328205,35.828702112323974,-114.9701404884157,-33.045005285383525,34.81799658966501,37.17811318387513,19.479148749145278,37.913850137770964,59.23439003278444,-35.34908998520695,-34.15209541268689,-51.2304018399613,-7.223534610537315,63.54841109535278,1.1424416400238697],[20.84844463732854,26.967308620038644,11.389185063142264,-44.69323990032388,-30.529400936306313,-60.37332372813714,-50.39877040400235,107.80883902226022,-1.9447184840357064,10.794047737534646,-73.91222902773217,62.12418004213872,-24.49547825687568,-32.17867920860527,-14.23160457562679,-39.79302559461449],[-37.46415298438299,-57.322828252405074,37.63976751127325,35.27983749162304,42.51897941208373,-51.14330043393678,33.1204214464033,-31.5911762240811,2.509810020418995,97.75651310116281,25.48481278626552,51.93602810409605,-10.377418337937447,-40.45916746399017,-57.26093745989403,10.559004542201155]],[[21.30202013225921,-2.3987520907175885,-19.7435541555973,-37.83972592575957,-67.86322334785403,3.5899180624261087,-34.33764745037289,80.49225540974912,98.8465762037301,-40.32110666298558],[29.50744806470998,-46.981639578839854,23.694920915980365,-4.3101925355723445,-17.35445348498241,46.11540313513881,-54.104542410499356,-42.248009423426126,-5.730571468751028,-83.31233218109247]]],"biases":[[17.292496345567468,22.682873501600714,22.08768251616574,29.08354701487857,8.818735493914431,0.7316306330671946,-17.079768685300735,-14.322008607966195,-7.290793633673571,-5.143686182332442,12.49476211385495,-10.556815678573287,21.660311371938224,0.05170935358009732,25.896701918912964,14.713714872974888],[19.79158604163115,-1.1588716114472686,28.33961726955557,-3.860869936957455,-1.944642439037777,7.154926598902043,12.326564154658962,17.802821343724325,6.293742769458756,-1.2237917024429883],[-7.74844722317453,-12.010900732896129]],"_generation":441627,"_fitness":0}