{"layers":[12,16,10,2],"weights":[[[-11.028536882527934,-0.6105209039642301,34.795605432626175,-43.242151560100275,18.016118999417394,20.985851895826148,-3.5283385139687526,-2.2263818249830387,7.528325462119494,-0.9518364800488031,14.868978059819325,-27.60789306849795],[-28.597076653451285,-26.38517333780327,-16.41498826012448,-34.34303166050171,-9.767601766642057,-76.93952763671298,-30.70567600571731,-62.1875175254263,-0.9666529036572937,1.637571151555512,8.701513060546814,-21.792512779609048],[28.143683764066964,-2.8252294458386378,23.572775513584272,5.11918354483678,-69.37452532888223,7.5346608213450015,0.46908348446486386,-9.897077820474756,-3.152965250512804,15.297991775436888,50.75279418657003,40.0576988495933],[21.2115934468101,-2.887738134468079,-6.487245646024044,33.24232126241822,79.19975252492863,-31.48289232389871,15.632720827394229,1.4413009639770382,-6.938563572456754,-32.39210974268747,-12.64667434902927,18.90449660614941],[-16.425420986384225,8.476114985747977,-20.456440769570243,1.0822320175711084,-24.21400454760081,-8.099841769668954,-11.191366928633634,-15.30230042791131,-48.40885446995004,25.242044038853727,10.536044008477852,4.268991602528621],[12.028738974402478,18.082874770843542,16.888625541795,-17.53480092939266,-18.521303410740625,-3.3128181360308333,34.613394222478654,7.656478964888885,-16.836019391019082,9.775084308928422,-8.406519436540737,24.808157226659368],[-30.95102094120967,24.059873503250245,-13.224957664125311,13.014873676807099,7.925897664671355,10.774466460354528,-8.279478385150068,8.393081413975976,-51.33180487001037,5.778287471258527,22.231443626852723,4.3224920873834245],[0.8417600756644461,-32.554670623682185,19.313956348201568,-37.850171941887496,-19.75963007144249,-13.386356823842469,-4.726654332440977,-55.98616695083411,-43.099065002808516,7.3184990702443615,-27.949766956350448,-21.739340962090033],[52.01357041329631,27.438803001839226,11.940743922494157,58.543111364043185,-3.894053381977428,-2.8136335823289107,1.6486292682890804,-36.64191592201232,14.420348875404446,-9.82372202743041,-9.854730095318647,10.204925115538405],[42.669905544218956,54.02802309541146,-52.12220042788968,-23.94548142016586,-25.831412943314277,-18.5443356116182,11.41875422091886,0.44987396813121105,43.8213311117633,-33.018077758751716,20.7967904349738,-36.84562928314945],[-15.245408489314975,-6.060552541851159,28.620222204472743,-14.415400543520814,-10.457147817095828,56.48843130808101,-22.359619580741782,23.45854182359249,0.7964317690940627,-21.83064811374649,25.081509794329218,-22.560248211698106],[-17.371601159888964,3.000519022937252,13.913197406344587,9.529017710804204,70.17606920342676,29.78681831455486,-0.9123426093909325,-0.7878256549146109,-6.895471111990846,24.592951308057366,-41.634202922929695,-5.107879045212176],[-14.967462247831946,-17.443971493873548,4.680655458140885,19.34945231072181,58.33322496770509,-23.163137666210787,5.058402193952402,-8.248317341856495,-5.571449457158377,2.649926616537331,-4.170598946030305,54.64904618600382],[2.1514146637899243,-1.7816961317354874,10.77620885989829,-1.7420176130172467,18.87904401715841,12.95337354663571,-18.75393275866546,-45.6959064566742,17.687269664162336,-0.5582210414437433,-30.13824195337381,53.79984766214008],[13.183960990145497,-26.423816557172152,-18.220651988631555,44.66465027660809,11.71736808782973,11.439930816349987,7.2158709583892735,12.819915768889466,-61.34937331205524,20.497429082973554,13.36686367272381,31.105916726796227],[38.3692548077985,42.89735331842929,-8.470627603843603,-47.13916534395442,-29.73790646413741,-23.299703330636262,12.908895774721774,-5.340549708011093,-28.141997362097232,22.729359884842577,-6.5401775805194955,17.803914139880366]],[[15.733375473735714,9.198989765408639,-23.527057492540173,-0.6679829732005778,30.005293539072028,-11.673951326979582,-10.307524171550478,18.16743692414999,-0.04846068502399642,-11.708997836225356,-30.449859025144022,8.669016586527508,-8.096383153451981,23.423436573565496,0.9481860865878052,30.8463587730102],[-8.19858872124512,-20.509098079790313,3.376667202989368,43.71532542716066,-33.375861369292494,-1.9153454088488255,19.864077004744527,-9.220595273867556,54.20006902115322,31.525099342942674,-5.805633257848722,4.219969979991425,-26.808534424547165,24.96629688328151,3.5915723773698827,31.115453102307363],[4.97365067858772,-11.417730088805193,12.612663628107496,-28.26273570669914,-5.824447341471194,2.847625575799724,20.010281349944478,-32.35251433412316,3.8644162851546224,33.06530624245341,-3.892828709423293,34.181963890399494,10.36018888109599,-37.02002780382303,1.5902001072804695,-4.094534504102688],[42.198790955325535,5.021942742307567,0.4058798751063139,9.566795868596731,26.47106061739966,-10.977202035948958,-39.57550890708284,12.838339453769859,9.123975946474792,40.417234664680464,-45.84421069969459,17.60878613121789,10.34261220953497,0.5113929744820719,-11.212547719942924,36.524610536889895],[-11.308782523427057,-9.760383539202596,7.6421723220949875,12.60707653151941,22.206131462522283,-1.9259927251197506,-28.36856115094494,10.872726870763174,-38.481535852258936,-15.747099233155232,-13.610004586679176,14.768093104631717,-15.16472635820471,17.200243834826768,14.88890032943439,-22.75257031254435],[-19.388593108315213,65.00664463995105,-16.204257265985188,34.26450040186418,-4.259898426688816,0.4645294930288476,-0.6637327814631575,-12.014534484463681,-6.856031088410849,-34.326820213321014,41.38068559110388,-9.068937943686699,49.15238894484924,-6.280893384374936,-19.9522692928299,-6.551129313464674],[12.081655752036726,-3.198536118978307,3.4759324613853106,-29.678778894920626,14.685606368976323,-20.844928358797016,35.939178594543726,28.012200326337982,37.825514608589984,1.473091208614611,-21.85498668084301,19.902624617018475,1.3888050346449503,-8.735917139550457,-32.37040768303429,-16.105684187155642],[-26.718715673652103,-30.318436619024897,31.306644522664776,-45.99238738151123,5.103661496777744,9.566328187018144,-7.588643169775521,-2.1034456916426287,-1.8523610113519142,11.957174827871333,9.711932617004711,-39.098923844483195,-24.82343136900365,-5.978090122015151,18.45502035163608,-15.901716881740262],[-34.68165566748034,-13.798335897331931,-26.964815089904263,-20.202029530491902,-12.990522713888382,-6.147293940505035,-14.055203453748405,29.172000310962126,33.683397108712356,28.356837440221348,-2.3487178610038133,18.604217762172727,-12.776596434119872,2.222870961779908,-25.95905847298734,-25.424931460498136],[-1.945869084318468,-57.93420647027413,-14.391951572845814,18.47484120291697,28.491571536133893,-30.14179544765667,4.43468867150787,-0.685300035766794,-22.057245708546887,23.684502104201353,-0.5109133974925422,13.525590419805432,-0.0014911037001059252,9.927654857144466,-19.36985007658662,-2.0241348685569522]],[[-7.030413044173396,-3.255689103432999,-17.936474416784506,-2.7337421183638395,3.712504590901035,-8.982688453597481,-20.03550582881264,37.99346023785666,22.727166280350993,27.924849553908892],[25.856017118432767,-35.10991641163288,24.80672223164523,-12.249925644972905,-37.25268830374153,39.95894498117719,-11.929435613133107,-35.111812238510524,31.867395501861065,-35.753030368042054]]],"biases":[[1.870040932293492,13.753235275174703,-0.8156988757952367,5.838301924749415,14.09981218399836,-2.0128394741113826,-8.378930417314166,3.413057040005283,-12.104578098244316,2.6818816892413744,-0.4479340826470448,-5.693894433334483,3.2794586525893954,2.66194394182777,4.288075911431705,7.687669645233503],[11.39779145280015,3.443966569148952,9.605950439502221,3.9558635591990896,7.150658962311496,2.6146291676218967,9.078616358595685,4.74511612319278,9.845102204232392,0.8443840977713941],[7.080190526245102,-2.946640138744491]],"_generation":141627,"_fitness":0}