{"layers":[12,16,10,2],"weights":[[[44.52945808271238,-9.513490580058349,76.29535866784362,-33.73312273105473,30.04056201518085,98.0990730199029,-117.8850510837624,-58.90525114651,-42.21549606642103,-29.85637730156478,15.471310363038956,-105.118986141852],[-29.175091677631897,-62.30791982288202,-94.81785427260601,16.862156292571694,-45.20319670118932,-20.43902219228567,-39.32310549833895,-110.27986358046947,64.12041182267937,-65.6300995342744,-65.62138556177787,-79.07473188208252],[-7.930064294144421,-11.807094863033761,30.630557707613793,-49.87518057494106,-69.02421770352453,81.85703733384807,-62.663104271735314,-30.16086359706527,11.080035343551497,18.849502583073885,98.81896941253115,89.29050982923796],[-58.09513125873033,-0.4146742434370878,-23.8753168067914,53.413776129602056,173.03673977256494,-92.3827736369276,3.8963005799132464,44.66927440734237,-21.314005139245612,-62.97446497938078,-2.271599017540954,24.58683710897619],[41.986613531055866,-19.44484632003113,-0.785414280815689,3.249292726384488,68.50476445711683,2.8600078812842997,55.12985870223862,-43.390573312903456,33.35527171148719,31.19014268787549,-24.743186227770032,45.59325339371679],[80.18208667797386,-7.846052438105572,-73.06524026879903,-61.22419533328911,37.50961168664397,-11.160052442467647,-6.622642310408016,-25.766949480594086,71.12111762682527,73.41094718495822,-26.44918640038766,-0.3355391361932745],[-37.41855204690109,41.671591968762996,49.32836193385682,-10.010604639291437,-79.89707073459338,-43.14001058645365,-65.07420491725038,-27.949283692131612,-62.30739604220539,54.06262626336209,4.42206004081807,28.383226369350524],[12.81710320293635,-41.00562949999231,27.171716724036994,-29.126837897776184,43.24004612225327,-19.749299727352465,-4.916851560038115,-2.3795741150108416,-46.559184123330475,95.91730520600795,-29.068645627583074,121.39087284690898],[-7.347905923381086,-14.511844976828725,-24.28543584398849,56.62021964674396,-20.83143106116236,85.54311804641769,30.353322824749416,86.79812118296302,-0.21715276123372723,-12.865936955081924,-1.127832983408656,4.6115639513681295],[81.10914281187924,106.56560680555101,-121.10563777016665,-53.18427492953417,-65.71210917072105,-27.108761330703874,19.96940049385742,13.90025920702767,7.898645384882679,41.02572108165827,-22.236133808877476,-62.80191314691531],[-22.96740481298016,57.06655138500745,31.893999843157708,12.344186719236609,9.07177292404674,67.19979960837658,26.0668114038614,43.48285772030945,29.362472891335152,-28.116983280411976,23.818410393997848,-26.598279065602433],[5.79173427856157,-59.923717661252326,64.02607936196387,-37.51670859492901,62.63211341172962,56.98823127179204,-22.07811602400283,22.506905458882823,31.165182144224843,-30.759338508779855,2.5899219250312955,83.34550101573129],[-89.74300570998089,-20.862490386833315,10.125377856808143,-55.410689515261495,29.59661115877006,2.618996219623266,36.76531280589245,20.031372135496824,-7.679370976481283,-104.93124177022433,19.134923932673427,-1.0132871090832336],[61.169444647786676,-67.21331533204139,33.63229702117884,65.99196357721036,59.36857311768991,-29.991715659489557,-42.60059856630746,-105.08306153119408,42.06487031036166,47.66835182134441,22.924284036591807,102.19848693846367],[1.2316697373041743,-53.77128328077008,-36.17996277164832,93.957085340854,36.36266565638628,59.72714865449057,-9.729938449220237,47.73672029492984,-98.16285480091533,101.36870840271808,108.53000554351175,6.750668754152723],[57.18467927686202,63.49593108395896,-53.642062603479744,-160.76500900947295,-16.470908707033605,-10.39205688903783,-36.05581843121769,-94.53764679808678,-93.11957421117125,-46.06431450503365,18.566994080144212,100.82319124699312]],[[6.706229645670542,64.25196347146657,-18.150017532973386,-48.45360821011918,115.11947000478186,-20.57212140864492,-4.399718623980981,-2.6869602952026357,-8.11926229995237,-72.90863784866991,-60.04525882908346,18.13688547369403,10.716720851450981,59.03540808281545,-68.85938975782862,27.03714043412111],[2.920916036016768,-32.020013366488016,12.311654067112654,37.86274087812039,-31.9202820656578,-26.27167576684894,64.06264146628352,8.088793624126073,69.63974325120284,61.36304273224905,-7.844187796090267,-10.546980383538145,-101.40868068455204,9.296780518131115,-23.81810961254973,-15.928411500091192],[-77.52072363606018,-23.341669027055985,-12.646292679653145,-54.76067612770223,-36.07129008616218,46.14327761806672,-63.05932099893572,-15.660176512439737,84.72337233342604,114.79245374254711,-38.34768704722209,2.8910955524834514,-32.699449081313226,-27.664492114697367,-29.65315958469382,23.335561915314646],[77.3480417421834,35.7561313449421,3.2114175191407726,-4.12969047517457,35.23803811330744,-52.98596710731354,-43.50891505272023,23.134936047682352,-39.72313242174518,59.61841423413914,25.188226584678777,41.68907057904104,35.927939359700325,-4.345199323494995,-60.49488150610982,-11.684829945061596],[2.0272689744322006,-24.18626534723002,-96.50240197902457,14.883177964029752,-20.24417881912835,-1.0760168615575794,-1.8921498589326404,53.796117919300784,-53.40525506301854,55.70944279603349,51.37006108100428,27.10730209306722,-77.49015546848482,-15.8713648366157,17.21258927659015,59.5626743978164],[-104.70119632979323,10.995809171418925,-30.942378829568728,58.53095494845672,104.8348885910762,16.829201428764453,-31.501901684793705,10.725122707766056,-55.30714971228727,-52.55696770541303,-42.801287212122034,-4.204039825280344,10.679958539208087,-38.89986929709801,35.83811866330178,-11.5320080881382],[-109.83686578000847,35.00534010996033,12.046613517731183,28.387132363510492,129.1903913757622,-61.15185388013555,31.20344157144159,-10.526714307831314,-25.172958779676197,58.3626054063453,-32.18235369122625,-44.885731685179415,-105.03728707510486,-68.95845020243665,-17.12384583430223,-40.95683040243352],[-72.02983284435535,6.060549401911382,74.3915381284218,-100.08421845181245,-32.44046512531076,-35.09095437939956,98.82236879615095,-44.64091541439207,68.60436211813291,22.15524155181687,-30.373052591143612,-44.7877080926248,-66.9832262442643,-12.170425098416104,44.502180691544176,35.692789289639],[38.16588745950196,8.666703712100842,8.119061106398512,-78.8889629105522,-3.033947087586301,-5.607723918943235,-95.07753853262837,129.78683095530226,10.366010559634818,14.146975548599652,-143.29869854630957,137.6281351124224,-41.40814245477933,-91.37403178488721,-36.10742823204055,-26.00374490722577],[-93.33668118991822,-60.70122557373546,82.34380254287156,18.25738641400578,26.130741338516014,-3.459333482174507,10.607328313795419,5.4077312270967,-54.08501146271077,40.65408815969252,-40.93109169340748,63.989313916667676,31.438124781772544,-63.0680200605011,-114.13828349987398,-16.0506227221673]],[[21.741316718417973,-32.06427219937886,-39.90772515991864,-63.708575923586395,-64.70622055283239,-48.81878695721387,-18.192670938944154,81.94825065612226,50.407205309546924,-31.36451258791319],[39.37733155714968,-56.726565010056596,60.29033126906753,-14.271441990410764,-63.18325370119237,26.373532497509764,-75.59786108194962,-48.06086622681135,-104.74060011068593,-86.5779751019122]]],"biases":[[6.007441079319328,32.32559833187194,26.874106816306412,14.757076787491927,27.372251679127608,7.466023927175042,-13.663803919374432,-4.6067637557160985,-7.252492148250095,11.571939903341551,26.67164301513173,-10.214142409052071,15.821625670566645,5.237074963347602,27.40304838508354,11.494168233090965],[31.131255434392944,-12.49367648491153,37.69660129590681,-9.817501532317088,-10.498152230798858,8.243200987118072,10.584783962514907,0.5695293152517329,13.596110195517653,-0.16830816206815422],[5.444101664104469,-6.857699125225314]],"_generation":661627,"_fitness":0}