{"layers":[12,16,10,2],"weights":[[[8.695919828844772,-22.267237238470198,34.115117516778994,-27.489083668937774,3.647196318309089,55.75191736015163,-48.910167436923125,-51.005075403951565,11.436698497077604,-26.339623975281878,12.81568275303494,-73.57695739214162],[23.581644886098704,-67.1526374104519,-28.441593470057658,-34.744645076495615,-45.47736896286993,-44.301320332015564,-30.278694034102788,-64.47107024250143,31.612733717845565,-25.216044186507265,-9.351726749630439,3.4849611043739643],[-32.9092945245241,-30.231196490173275,30.631209698488718,5.734993975958497,-70.64204460690463,35.5181850810576,-23.566619884842517,-34.82997949675307,3.5728139821236993,41.72198975800625,90.25062201801754,10.280069651113845],[-0.49439570043528486,30.05217938645118,-0.05173735849620864,26.570644247626312,131.94834204602904,-39.454428067832964,-7.453210749508905,-25.15455192499416,-11.929938177488253,-32.556240349570224,-5.669059067501317,2.6329442491247645],[-23.559002658123873,-28.893780175152838,-22.48745339045264,-2.926109490293757,48.76414429364697,-32.43068842074371,-1.4845880711649289,9.785128545836232,-30.587356660286016,19.396689830872436,-23.720644964208578,-9.626196557575089],[57.198045174539516,-15.750730224369743,-37.132248915137694,-74.78176090827259,-6.312468598911028,10.018968860169716,30.090801774006522,2.4670290531586017,17.503172845685384,79.51830197690487,10.116006696550933,13.146687549928313],[-66.22863980961526,27.720497386587052,-46.03717565660816,29.15050510978116,-17.127487552431315,3.630521524421931,-36.164670085678516,23.869727121434977,-25.088901890868467,-6.580334744258885,11.40306175135787,37.070035904608574],[10.358965608024025,-38.57147113977763,8.852793710272323,-29.73241090567854,4.804028197730845,-7.647814101558501,42.53310892236067,-47.3771355089638,-39.47343097538845,36.89243189049584,-21.165508472852864,42.87708007654421],[53.57899172596134,6.094296887508791,12.42275142637337,26.543713332542833,12.494689727065415,20.96711293423788,-11.254051417045158,4.28168172784198,31.875282511192715,-23.052970061805173,15.653231365083519,18.466478427272108],[86.49043779159027,86.85888515180547,-82.0240959718527,-7.358387597370603,-65.47513107053874,-35.95132765764844,31.1019854370471,-14.251748988155411,14.336585730630178,-25.741353838586463,16.92848844105393,-23.91440629629036],[-16.78314678492548,-31.228978959162436,58.17324150888253,14.528436110975578,3.240554039719418,25.060519733338445,-5.74268728748649,8.714861508382159,-25.66977876827281,-11.58413723480112,24.447015062456416,-50.84912857999448],[33.82573896609621,-4.357778696419507,15.558947421182904,-21.44122791449975,124.6630625258459,20.985231837036782,14.743815027706537,40.539492092528775,-31.857933998130683,27.788627039711503,-39.93252800373415,40.92552452925701],[-17.815973892356524,-73.14580817980989,-2.4918401897924065,29.19498708609038,65.10325303641874,10.141149896607219,19.793000217910237,-9.213355376017386,-1.6089771102269033,25.316581881440456,-5.185438196821301,54.75693334410906],[-2.8565975606489777,-17.024208584625264,-25.34583040970736,17.577898144335187,93.54153794448638,0.018152717926593925,-44.75113301801682,-70.83185802853427,12.16750724274141,37.09177663107236,-11.311345595904747,62.76813575729815],[31.854977320376886,-26.55484581281924,-23.421411185988394,76.13416753109387,26.210473810006842,81.00228723960724,-20.843017100648936,3.66465878065414,-100.04233893937025,16.82204068191566,54.262959945868786,23.68510552593986],[20.907928638070924,34.01302870003008,-15.344176293689472,-122.51686455164841,-57.13941301949534,-25.28590854621409,-56.6183470876292,-42.798884208770254,-24.57511548466148,-1.933103490023656,-0.12221624622470997,61.532722379244575]],[[16.14170361169589,16.03124487711879,14.637633909428414,-12.207263187365244,72.53321746817286,-22.6407926499791,-22.416931820187987,17.69415904463934,-19.529493698360838,-2.1835195656205406,-37.5651663263738,31.307307149284917,7.923053327654929,38.12413433039045,-31.71496767374736,14.905219284190375],[2.6989699182584537,37.10483952775713,26.05408007893905,34.920393556712035,12.370122687443727,7.041486341902251,-8.686564495872746,-18.00291851041728,78.00569575944905,25.831897085881753,23.980201074527795,36.17145829325556,-74.21377779089181,56.680654722983405,-8.60197596848697,19.407691322676552],[-19.008064537811144,20.70683797472293,45.859315141781344,-83.58902636496461,-41.04846571028446,10.030487255843445,-7.152441322646728,-58.695510712547005,-13.246635954323674,84.68501777516921,-43.44451629626897,20.392160722115296,4.46966230676264,-40.36912612402195,-18.306292080454753,0.5673930007717518],[20.350624366178995,1.1805574252317603,-17.94084486148767,13.650933214794962,-4.829594619804192,-41.044841892560875,-45.3592979566631,17.274379615229655,-32.204845762595625,36.625556958245014,-34.75812973226883,36.68774378403181,-4.752955531292223,19.944275381329078,13.519357963752961,34.49487417450538],[-29.83681672794089,-16.74055148713514,-12.42820437381601,35.93773239880959,12.083336806322002,13.561919584797844,1.5058355204015654,33.50652494191312,-59.498612604184615,-3.856893284746776,-2.5515988409316406,53.69388730348299,-44.1422130775822,3.6609591037447045,-4.814961777435972,3.3683015971174712],[-35.95258058875273,56.082477901347346,-7.855393475172637,59.20529944194975,11.583033148724615,37.33573929594118,-13.81980424198153,3.909816078688158,-2.738724887456414,-41.52063160594883,-16.52522785066127,7.216261325263934,34.126446500269985,-30.042944302274627,-11.739459578642073,9.193955207684542],[-4.17454319129981,27.01309163794434,6.030703256557696,-23.452930036282428,47.35023065740334,-22.298907751265446,69.67707486079543,7.383480359008793,59.95160705177001,87.94902830091442,7.267101109501755,51.44108836476865,-21.493544399185016,1.1149669689832797,-46.9998880105408,-11.556389994342558],[-23.07626625535983,-20.333858738265704,20.556548701381864,-79.53528455085038,-22.409783747419734,10.288852174906845,-2.1358611878264124,11.423347764336983,28.173259032618258,22.64982113852643,-13.59710067483998,-11.869447986618948,-36.96845597115853,-22.277268556827728,29.682744260598536,3.3095719132766948],[0.6600615709331352,36.85594057101282,-8.469945904672105,-35.46209167026969,-10.353533347227385,-60.48358645092894,-43.412292190125626,67.19326204079685,26.427384900656403,37.45771916347296,-51.29983573516826,47.03454524607079,-17.824628923374814,-7.966101580723535,-3.9277774270142927,-2.9488645615493065],[-17.474579143606324,-59.00759432214441,30.264388117413343,54.85356810126498,36.08119956868911,-57.36023486919733,19.29131230450045,-3.1803153521885794,-30.294180093182213,90.13200116571153,8.524783204049529,30.65993130374673,-36.61632107186354,2.1343953266013287,-48.19482589557812,5.78527431698015]],[[4.608590302876471,-7.303205139200083,-8.776072669155214,-18.214291129412754,-16.61550443809401,-7.856480436482291,-28.22470395513716,66.55559815394656,34.73769414878432,-14.247967926792338],[70.04390132364831,-37.61517519567459,23.439022750743415,-0.8481572816632794,-24.315295133826627,33.38171093373349,-73.24108070110985,-58.34124682495896,23.935735820796157,-62.3292705015353]]],"biases":[[12.03790043368972,21.39339997979444,8.657397344202868,20.907771834463457,11.041514110305824,-1.0378356542958416,-12.089923774963871,-6.363463565608232,-15.44223126072687,-8.00598401298581,4.797498337415393,-10.43897250852816,14.996026534101032,3.4062395644397014,15.55281195009947,19.104894475230207],[17.08889880175495,-1.446460481844261,18.711250546262963,-6.352387272135131,-2.2556872031620414,2.051285989342895,15.791767056382474,11.29468786704483,5.281667437616916,-5.467767807495086],[7.3166250127584105,-10.520946566188654]],"_generation":301627,"_fitness":0}