{"layers":[12,16,10,2],"weights":[[[-17.220043997659744,-1.5376089849941534,-0.23982364911513226,-3.799628914959796,5.955764822523749,-6.834684484297198,-8.937542862315215,-5.504083156856591,-11.46495836513837,1.3576617268114108,-6.82126236299962,0.9461361903657516],[-15.930753277675963,-39.996531555978784,-2.511803869932557,-26.743099568919476,13.89988332282772,-12.275342558657407,-7.775454874354035,-38.09686695262279,-4.508531853266029,-6.864928501948528,-10.109878264487728,-11.812816297025442],[22.43141113323907,-8.206487263746338,1.6354901753449411,7.5661583144958495,-53.64559763267195,-11.799140819742373,-4.241310790008044,-3.0703949909334387,9.503657975347007,13.995334349986605,25.848858289359516,13.485329532973608],[3.905283207439662,0.2954940018999841,-4.679890596027188,8.951264392037068,43.980940083316476,4.399456687684969,-7.137362768508455,5.866680821146021,-2.9020679687049142,-1.1177612473760186,-4.862383745556386,1.8028812731102635],[-0.6376114061298526,-11.844507031687586,-14.655068567882868,6.610599917629369,-10.357172208870962,10.213589070628567,-7.215567593917641,-7.37461663085635,-12.187607476518615,8.848793600968818,8.861519057021173,-2.613682009987405],[2.7010960974056157,-8.978624530868123,23.543488677429487,-22.025382308051157,-12.49885556558479,19.781090322896752,21.0267741851019,9.927474383249134,-8.008526910531783,13.42374485564911,1.688681728036107,21.13158916680896],[11.679331095765155,7.4227069960993814,-1.5506000887892768,7.166859798209437,-5.773146146765364,-1.7556659069300344,-8.202699444491556,-1.6555592900112215,6.5183717657270135,-21.55727459338042,-2.393420366111578,7.461788609239341],[1.6989389322748203,-14.506535302447238,-15.570088743046082,-17.438921560446165,2.018913124815646,12.680214640021816,2.93784727097365,-23.849862271023262,11.02076453943595,-13.250365443737236,7.0955177483921625,-4.223556904115744],[19.616061705395225,8.854249813209336,7.760205225261985,-0.061682630896040314,-5.133318795549929,7.474199828869238,19.651035569718484,2.0502753635394035,-7.150229774404996,-8.808663447521155,4.539799014300826,-0.4959609926832968],[26.247805073723637,12.901216394203066,-11.328020932661062,11.225690001020276,2.603314824766416,-22.794689383967008,22.5210298515377,-0.0005352165416813714,13.251101371254883,-32.58437922912126,3.2416295696086808,-10.773553630931156],[-14.528949323878035,-15.34726349858742,-3.4009966569210084,-18.87665249751998,-13.218805697320157,37.403328605974636,4.149211440950438,5.056580476620103,5.3346436143893605,0.7242377976350185,6.4740441742930885,-13.51505489681914],[8.437945148015148,29.002089786739937,-6.426442412645528,0.21014490298144228,25.964034832369375,24.31250410082629,-3.8947624271340535,-3.241659561305824,-10.059476930190069,9.01484909672957,-20.21146663055137,-19.495159616507316],[-25.569603586045037,5.766132214716471,30.2083471594505,5.545592319405719,51.71102328319957,-2.1638464339492796,5.083631425878475,-13.241403869137574,-0.13333377132716348,7.101339715253143,-16.08099777111373,16.256423657308165],[-7.444964161689922,12.431018297035846,0.7615181929929726,11.770451389271255,20.90528049841767,13.106282420625218,-11.283414517863992,-7.03830225912075,-9.847422508057903,-6.247831390795254,-7.798465606818673,27.324887939987146],[-2.603725936320042,5.509069305788662,-18.598460497079888,18.48728838460392,7.053660647499943,12.74992720654673,-2.2533417743375157,10.200743916830016,-2.737172173534402,20.630040016831135,6.956788590147065,10.167221782807575],[28.555012089003647,27.161549121093863,-8.558057012597242,-17.759074874141643,-19.366470107882616,-20.70976084756659,-9.854736313464945,3.522257286734055,-7.564701886992024,-5.1131209858409035,-0.7126526724951487,24.065517491241632]],[[3.3916354164999194,5.2462908290901025,-19.99252105877477,-5.593156308721054,3.43597983979386,4.110677173711396,26.159157425083883,14.740331401207689,16.625037804263105,-19.52091352289404,-32.16184139714357,-1.8837113791853037,-4.780888502959376,0.33102251655273535,13.509628526668237,7.519302580908402],[-4.239522884984808,-8.292904231831558,25.817697180590688,3.128543820238221,-29.946426076487512,9.490320630640051,11.359827635144303,1.8036920691686278,14.27111161560409,5.537444228758311,-11.484525496187636,-3.0050630994491287,-13.352741701673512,21.768317140354835,-6.522049233055879,32.612389729092655],[0.3450130012580137,-26.8221149645041,11.287561880002148,-13.507456340611219,-29.53672146078364,8.600951326951996,21.479185574435814,-4.197368121028299,1.633244208686641,1.7002737464306732,-34.70751905612376,39.43540745238094,7.3577163922393956,-29.467915356691268,1.630006230914309,15.560479677158112],[1.3532856343604973,2.8138918579772882,13.890137556227991,2.077083141561135,23.075387109512153,-17.779160342242616,-6.665972647316013,25.3160123689899,1.0470522599012044,40.88249663657713,-17.080950174779762,9.059055817294201,4.120451839043515,0.7489407356105751,-10.70558547625632,-1.1044518426716488],[-0.9119324993632023,14.237908197686984,-15.59473204113962,-3.938242120119095,11.450842121033025,-4.0836656683108785,-8.832779137975045,21.289501392657538,-16.171294994512365,-7.838447606796214,-18.50731581599378,-13.66621010357819,-12.627273762231557,5.938431340898971,6.235143083015651,7.269866238951527],[12.340445875896474,18.4050837963886,-9.89047219993357,37.68083644455417,14.405155804097971,10.705604773475429,-21.638662428849255,-4.38916161141512,-2.880533596599096,-6.927441317731549,1.3523178624565122,-2.570733379350726,21.973491458286883,-5.0487145772860735,-7.799760698574968,-15.385528513935721],[17.427837040874746,19.26837257147424,9.661642934362078,-9.461169415220121,22.832846089501004,-0.01963020220254201,7.271153260818588,-5.1899468965366,3.171414797483097,13.985414567257255,2.29162062335142,36.61073222394886,8.83506657843639,10.41821624736423,-30.836615235230724,-6.839534641358208],[-31.718228834690127,-22.997270358182494,22.404535494239628,-24.763123533540547,17.565663810296698,14.948341103072753,-5.213514262108532,-8.770589230198134,9.425417496227299,-11.790417619970665,-15.099192637339806,-12.346229075211234,-14.706220654267208,-22.95499126597391,11.915388113128774,-4.262351206897263],[-25.327609380621222,0.8238250046619678,2.683025751259887,-3.746931724437838,13.63102367495461,-4.6934131243875425,-23.512131102513376,38.617730187471864,12.989539982336243,29.06590215391648,-0.4580915815788894,9.596547272340963,3.760943564658827,-5.87285046578295,-15.828646404079432,-14.749767231327407],[1.0682712497793827,-12.635332736502574,8.477542835692338,-9.532318891258411,12.586674345047854,3.144528769803535,-20.429215404387033,2.294767308565326,-12.304628513236317,13.898506469628908,-9.690381265676194,-2.439453165358357,20.811871531778152,1.91275837520525,-16.047177242681336,-17.946453923975724]],[[-14.050263066795663,-0.7834540620540039,-15.339843554780133,-11.011764055201386,4.336137594076582,-21.340926418787056,2.6396722489467566,38.75165277100324,9.448310873408998,-1.6642688646405897],[3.1821499813034135,-10.371515477720354,18.726389784474684,-16.33213857775012,-24.779630478403263,8.583635892602338,7.607562935353243,-7.946285172663677,-3.389391979944928,0.854096142226614]]],"biases":[[-1.8481106326763868,0.022476420077510884,-0.2956534084848938,4.117164107785107,6.543367582984605,-1.546418673194561,-3.7084093526922763,-0.8224009006153249,-2.313894805078948,-3.9055162757207884,4.192793716238805,-7.505674021004996,2.279207430598664,-3.558748979036365,-3.2681249598420035,3.6257821064441003],[5.28392123846244,-5.528427490129498,3.13164774611523,-3.1103672519525483,2.6373587924725745,-0.12067581326680138,7.349652221119713,3.6303268909464843,1.6648465203659766,-5.9166977057986285],[1.088148372121118,2.570679821477242]],"_generation":51627,"_fitness":0}