{"layers":[12,16,10,2],"weights":[[[55.94839521062966,-13.035516683769181,69.18247156072796,-29.55497319442732,29.61554288182162,97.44012353995798,-126.2127470209859,-55.271038092516875,-38.16049967582306,-31.803891868013533,45.845606275743705,-109.32117689260909],[-13.178996617554368,-67.85647955918317,-94.94046465397955,9.048982997947165,-42.8910713165691,-22.22973495564746,-39.67433795565733,-93.20731286529083,86.85111500713437,-67.30613538353549,-75.56971460682236,-77.78530168458141],[0.10391336266541959,-6.4597297800852305,30.042193870410937,-58.71091047058232,-59.78280168381296,90.77273767588011,-65.26427899241384,-38.74815306877977,8.60136598653807,6.709561144007379,113.99531145805884,89.46470264135255],[-66.49781840241853,1.477902628836923,-29.160995474777337,53.45628194559137,166.43877461438663,-84.71909144814194,-18.74029596939559,40.39628097018867,-1.7682318878227428,-52.14186123153181,-5.4852778264830615,19.720060380162774],[24.033737619371504,-29.686590782816666,12.415909500602663,-1.4956626886227697,75.32848835689461,-10.817546995668826,55.915304450231915,-30.835867735071936,25.994506765902727,39.40495428475887,-17.973144719471186,43.20011096988289],[77.50333003853652,-6.467823908096463,-85.23474740849556,-71.52938757242222,37.96130808977247,-32.103123969791355,-7.471084317666895,-9.900032134764572,74.15519673125463,40.0016083553168,-28.373378148604687,-9.613357789575447],[-38.088694952537466,45.422810555287896,59.85542135537266,-42.487799607072844,-87.91575377012587,-39.75357818428091,-81.16437697928998,-17.182293429489075,-70.45941413923777,51.34876999154333,0.9525636336304817,18.243285112265347],[15.757296743359424,-36.6542876092922,31.91911644015384,-33.12762390411009,57.701723908380174,-30.41500027728752,-10.928661624097682,-11.465772679087102,-65.72744126813149,99.67205666970645,-26.131080527847967,130.23762976008902],[-15.352557108005414,-15.88307268778331,-36.69957685253012,49.68177620862637,-35.43734474915116,97.10274702074219,7.821250397325006,91.35384265760143,14.070102927908883,-12.369952110883814,-11.422642244646335,-0.5240289079171043],[83.49198624845805,94.88496358173627,-125.23325665761939,-58.30076598690209,-69.30670826999803,-12.187259961389806,30.611499865479537,17.900625695589973,10.42397311376806,34.47149183237862,-22.984485196712264,-65.33085658264318],[-33.86903530426635,53.37333413601963,23.653163614769475,3.353644277452514,17.041490536584462,57.696473945518335,30.286578963565834,45.43954993214479,16.592460707513553,-35.86039451514364,6.732956942884373,-8.144165826687313],[14.578360261986106,-63.59034163422026,67.54041698411561,-48.65120463093613,58.88034085448761,68.16405088220566,-30.221797855547308,36.79862233755457,34.51716344748426,-19.205675477255884,1.835943415138766,75.9058637224434],[-73.83875614797302,-28.699066431562574,17.636486834803765,-59.244400186252356,37.149368342328586,0.6230286446477062,47.438844662008975,9.130810371411473,-1.5773073872333048,-101.88797043465429,6.804244689235068,14.705452511461136],[45.825466929579505,-69.39177610851614,29.873735448488233,70.38963075117555,32.78453652052182,-28.272930068044726,-50.18076693389798,-111.07419295506892,52.06404739681024,50.38463037252414,23.04761731014365,89.30628234164357],[-10.54733146644449,-48.644303419297806,-21.087053389903485,99.61536844461709,31.46446516842174,56.021948089740526,-15.457048947601404,16.034884624247955,-109.78386320640347,113.27736898848099,108.03376544172002,5.33629293731334],[71.41030506603597,66.5111544026378,-55.34960576188956,-156.9224742707264,-28.838972507207774,-14.175161578308067,-30.27616665563546,-88.63119377744866,-97.10248407776072,-47.11179808916417,16.48041294004508,111.95527560835382]],[[4.709887476873398,56.952637964823786,-8.343722645500474,-59.208817911217345,104.24117114729484,-24.278941158360407,-19.820623460413813,-10.886094388759814,1.7863030464972027,-64.93249973868521,-71.71259102676171,10.528060716122642,23.319696781507243,46.873772651786645,-62.39165149658246,22.14768662147365],[14.63089323169898,-45.426961141805144,10.349016528023496,37.517739538540496,-26.650908767239642,-34.05528418306867,71.05815178402196,0.5467326419795996,59.40602181626003,63.302691372700906,-12.58882014459358,1.520678529399207,-116.05159735766722,10.333829736172568,-19.825857494733683,-4.305083985915843],[-78.83294715175514,-30.74454598756713,-13.120206251784913,-73.74106966350348,-62.28228784710293,42.639159890955646,-70.36440936742919,-16.764980687820714,68.99968095873977,122.02061052733491,-27.93557179843883,10.42721521703582,-19.872322627630872,-24.17585187347566,-29.38899867761807,36.49559887540114],[70.76053888990695,19.971193433280348,5.061791497785314,2.8384367897036213,30.53559077965142,-51.896397539932735,-43.44246092104347,21.786355070236713,-31.230964863064024,66.82300657609636,6.423021849627083,56.789675242686855,25.00182666425078,-2.906332526074946,-66.47332392617825,4.067689691397108],[6.287912846815055,-35.31552426282731,-92.91163172378782,24.698530305446933,5.442120124314812,-10.043869899425975,-5.456969248999707,41.90627735486081,-69.79132040399543,57.01911160400699,56.935129436912945,6.943356307728902,-62.918632270024396,-16.947047470853803,14.559874390893393,42.850764773010084],[-116.07564321083183,-6.479166669241693,-30.208234295982724,57.19098986574308,96.7733996926306,21.45329252757659,-22.33182367007104,13.311019882472253,-58.39171931779864,-53.24969932335361,-37.260764053910606,-8.26513869896794,31.683925866912016,-37.832656764615095,26.415826112887533,-3.558858472167231],[-117.82001344059314,31.365870409293233,0.046740467107981784,43.65737960630561,136.7840734850158,-59.149834770702135,43.91513301581641,-5.993455782577842,-28.835169267239028,52.26416012763473,-15.361770314901653,-32.48087737193978,-105.67832522045693,-66.03970363271158,-32.52225331167692,-40.52100529187533],[-71.5258931748285,5.489140680015196,62.523629159050664,-94.66313341244117,-21.71548122111115,-28.669382642322553,97.44085673184642,-45.93212847918608,74.95719105425549,15.366132404175046,-42.489263318153455,-49.86095784000031,-68.28430152095603,1.0356205732559811,44.371810230479355,52.5761290988755],[42.47696552329645,2.1518312407663522,21.969163008736384,-86.23720275035522,-19.06408488228751,-6.15316816958885,-78.38057295103643,128.93574114884186,-4.0543214208240705,17.083436277915855,-159.80693560882787,141.0602083549964,-45.890137863464616,-92.58426675176823,-56.581598953729646,-10.282087954272859],[-89.67195611871571,-64.11707888704963,90.55029503108972,9.775661827123566,28.86882090945442,2.563407499743044,14.728008433704325,-4.924005430079683,-50.557516339556564,31.872246709501677,-41.72354575254955,83.78949449227123,29.75343971271504,-49.65754733362749,-109.31902632419613,-12.868310587090942]],[[23.59234506798959,-35.79218165981021,-35.6079078637128,-69.4542193529453,-72.97307496843288,-44.49730551444685,-28.226951800586956,83.37842693823413,55.39978284268765,-31.161154019094127],[45.57702837433834,-55.21174253642515,70.47868118534683,-8.179066928687497,-70.3682653640457,34.84248790762287,-72.11454001065218,-44.11166784666979,-118.39944146922367,-78.48093182707537]]],"biases":[[3.005902393737953,37.99111334692371,29.92795765454105,18.209570995922654,24.153900184759358,7.745150333771085,-15.441164848554585,-12.132533686022157,-6.750917644881684,7.673944252500783,27.02232994962396,-10.37211756132361,16.594445416863397,0.5952463141954923,27.747105651391394,14.176961679597557],[29.745263357889016,-13.059268611878693,36.857769070454054,-10.480484808162123,-13.473188823005874,5.0706825732922916,9.581172367045236,0.36270953194422356,16.42326809333301,0.4185784816357406],[6.63090535951575,-9.358321732043231]],"_generation":681627,"_fitness":0}