{"layers":[12,16,10,2],"weights":[[[-26.097761651209353,1.3764095108640435,-2.94490410081715,-4.429871628526157,10.015921491586667,8.000727400333348,-13.907654808522995,-19.49473277931642,-11.334462273061144,-0.6711459299462867,-5.714030176700337,-2.1211558752601336],[-10.586978221903173,-37.36040758583716,-6.287992129559004,-27.119749845877596,6.074524998419077,-25.550342701373168,-0.618045345451853,-71.9124752777444,-7.12584812001136,2.5827053251353567,-7.421375070657829,-10.116821557356875],[26.327871330164825,-2.8919801194924104,10.27738821425928,5.0040138105496945,-62.21409746775903,6.915199874805649,-9.102438798751471,-3.668880541909198,8.115318603372488,13.893943516536092,26.890960711553976,22.929703635626677],[10.29513049274736,-1.598731002399361,-0.3643491606961829,12.398610207653514,62.94708630815678,-3.276185999212342,-15.918852434533314,11.774547070935876,-6.2588818568373,-7.771670637575074,-8.40711046983198,8.580362182191951],[10.79444532786031,-15.078400370094002,-16.857352214976732,6.868640994466423,-0.4396960765850712,9.382262659559483,-3.5695351502875705,-14.439371021242696,-28.95423076101861,6.471436988686445,-3.952513293609147,4.802997782707708],[-3.375703747713146,1.0135143697849058,26.180509863072878,-15.142082901973115,-9.901314430150496,16.578587481169194,13.945320666470838,-7.645779729963998,2.0389778761458093,8.094696933431484,20.612393239082923,25.853405732473],[14.113958583422434,16.356050449469272,-23.776949608255403,0.10331330792030341,-7.135450171323958,9.842675579678307,-12.328115267855887,-11.112300646500504,-9.182545792517049,-4.3779057477795185,11.383590002643501,9.371951156013374],[-13.255255535502284,-22.612164334729794,-8.21575971968809,-8.02673267961363,-2.15108997581007,1.6833842176378815,14.317831033017736,-26.233597438054314,17.214407817933573,-3.2683235130625943,-6.080947136790719,-22.372786427093764],[11.928465214854805,19.788986614696988,15.6883689918364,5.660148271132004,-8.48100054596822,5.8064303840337,14.292411360523687,-3.789375439536081,-17.783690984110795,-8.722298403232749,12.01734649509403,2.737108629354408],[33.47771331667318,9.164393484543195,-8.313774654258753,4.869626102684677,5.198798837498696,-19.491349481345335,17.607434533647535,17.443569802862967,12.493129981118168,-35.72327255331286,-5.353108183141668,-16.934424733698457],[-4.178133025659553,-12.48355150260624,-2.7646590151950057,-14.582626054303688,-7.330538964713184,39.25602089783535,7.32191910623351,10.982995110708224,3.728980904897351,3.650141700097627,6.564699059586126,-12.916653711211001],[8.845503107477645,24.317317389756965,5.361736504438415,-6.133823497455585,40.831340383509044,28.062588941436836,-6.086313515415271,-5.870600328679346,-14.586472477510968,27.464174393327394,-27.060373411217363,-8.22472085165012],[-26.946163331965526,7.063203717631473,19.755217653661976,3.8679308409536817,43.52632087021174,-0.48361981532369785,3.8820777015671415,-4.217677063218928,2.456338307523339,1.2912277131060756,-10.592473293290082,17.07034348818937],[-17.332079287910606,15.971667467559518,9.166910709397943,4.248704148023346,28.937999863958108,30.57305646799304,-10.238364445614469,-12.083180752558338,-2.798193067990576,-11.100526548535692,-27.116177108969264,15.057421782633183],[-3.8433262257324246,-4.477731770451106,-33.185363953859074,33.223480876627846,1.3622131553518844,0.8437609775623783,-3.0664911166593902,18.403956623187863,-13.770281224215136,21.87466102806796,14.825095910608571,11.855424249598414],[17.465586669623224,30.1103357580257,-10.752570335373013,-24.358491005953677,-18.76635037316689,-7.892356616434096,7.295488019193296,3.3126317403850014,-11.995256861812843,-18.134607081689246,8.029799559020125,24.512616893403514]],[[3.695760650805503,9.200854859679383,-19.831274377315857,1.8776580874718374,15.245324010207728,-4.205816604393538,20.59827316902698,4.4511988817375565,-8.387890274860897,-27.204110915749364,-31.255881895572358,-10.001336781506753,-0.18147802169142258,-4.711348342929684,6.1834450354776,4.414620297340992],[4.256122538230427,-10.513219749637301,22.134245212458026,6.2187390204475905,-35.14178130364758,13.351553700040652,14.263233714345398,8.61400888694562,15.874446477157754,13.450468564996955,-14.3620011436937,-6.623664902529653,-14.006452208243624,13.91499988342548,-1.0746715599742103,15.660578127989346],[14.541817395167698,-26.599620285859867,-0.45232403926928133,-4.689246444823684,-23.04002464733559,8.440229883310957,14.525594498172495,2.734205600136776,2.304860844952806,0.30066678919928014,-22.687876114171615,39.22582752907536,-0.004648290393130902,-37.71433535648695,4.989915134186158,12.688402358568938],[17.81770395399693,12.504553625933223,29.112994175522115,6.272868433650188,26.869676671223445,-21.068477410380716,-37.81989674399169,26.60541521904687,2.2968618520668347,34.14368851084003,-20.76139802065315,11.83867469754373,0.9546832818491373,-3.2879471024782214,0.09495399489826437,11.521707057846038],[-9.106248481238097,7.26758554158155,-20.497339369831813,-5.824752935201997,9.44699805592707,8.520566911095491,-23.257925092147637,25.77038959756665,-22.676115266803095,-27.208300799558028,-20.50603924626531,-8.644622850271498,-8.722824068179271,18.34799415779638,5.050472560730441,-13.641775918084749],[19.00142944212249,20.37494678505444,-28.294995887127037,31.648834627374992,6.240607522335115,17.97863249099975,-14.670841989574885,3.5547007373279063,6.464558262793821,-21.787574363912356,14.744015333558297,-8.337240703547597,20.21970805333301,-4.153288561245219,-4.323832354041478,-14.17416032288344],[23.040722146663285,14.857472038649473,15.305936345707476,-9.693140557462888,24.243818210270852,1.7695572817641303,17.371205443706437,0.0877384976174133,5.835074491164209,14.392389087690063,4.690542652589265,37.852850628604806,4.1981720939219285,8.309842267703168,-36.2244975625383,-4.238656685263101],[-29.91958488207,-36.021508084478974,19.86996615287495,-19.21838421218007,11.335923747875801,8.80545297241249,1.1631254437913925,-10.694909854567886,10.258867871475731,-11.895739995706542,-9.375203458166851,-31.876451328754943,-22.19454234419919,-9.501956052469716,19.02693009154279,-8.081756361603658],[-10.09880006965881,-2.166203113179821,-0.167987348990107,-10.838595865072055,33.866875710486305,2.7536784543211295,-21.487497316660214,41.802234713431034,-5.251274211510789,39.57588238150361,7.505790733488479,21.97582275665722,-2.277474581920959,-32.64781032626113,-14.459392151989094,-6.527554610308302],[-8.985655231370002,-13.53022370577268,4.564489940786838,-14.2874871154276,16.0540451318211,-12.980193985036417,-12.118229192252803,7.763562643248804,-11.911206635871041,-4.852928317503266,-0.2149591718808601,-7.132727397515414,17.919598196631906,-7.327294780731504,-14.172320437880394,-25.89858807943989]],[[-10.629245235454741,1.9452693838452655,-19.34488633936572,-12.301675542073305,14.742870952017975,-24.569719119021038,6.522667706177374,38.419024986715584,12.896350095452085,2.8604675627506637],[18.488797447508183,-1.2455795976395494,7.747180719767565,-21.561380091418798,-21.700900230012287,9.178664604037115,7.78658271383737,-9.06439169636643,0.2219404282073179,-3.324894861393253]]],"biases":[[1.1834088537971887,2.018766214047602,-1.1406267013520943,7.242532325501534,6.5629283562364,-3.7856534434309475,-2.219227604990565,-0.8503323931205657,-4.831778822189195,-2.3210493262036436,1.710131485992854,-10.196252778259954,3.1105966572673878,-4.871623878881406,1.4741814655265981,4.535035734055255],[5.882239631714688,-1.5424549261069467,7.547757221398788,-2.131524458814542,3.6663339594462143,1.9603364568133261,5.314381952034926,3.6067504885288217,5.710344769972152,-5.086309296918004],[-1.155338516274186,1.7007442579279402]],"_generation":66627,"_fitness":0}