{"layers":[12,16,10,2],"weights":[[[-2.1238096252443555,-19.716378560050245,28.318648965050837,-23.579619279564508,20.40564111066186,43.14485517819813,-26.026837960106572,-45.37895738887729,4.508745834219246,-6.684467315231445,23.940589470475153,-49.414692298972064],[9.96252367333859,-55.20613537165562,-34.53828906202102,-14.72937221586656,-50.466564333764914,-39.735421458943584,-36.940018379791226,-58.2024293996008,1.9624669536984325,-40.27460424905577,-3.9966733477894185,-0.8420773039740825],[-7.426367925135943,-10.160016184845405,39.14206132923606,13.401997938580259,-65.04921323464022,16.745180825035796,2.010182910062015,-4.92235500692581,-5.8416254550410915,23.83331560623146,75.25528018281058,2.7595200050592643],[1.1613085689621288,25.52603255603774,13.018634575653753,19.260935250352762,124.41068055844667,-18.83494212660324,-10.590786189371189,-4.173808604474797,-12.328460523833332,-23.557359757483976,-19.159962782342276,-8.937763911733668],[-14.904938913726774,-14.835364218852119,-10.23801724032899,8.2700012604744,7.591220991432508,-36.315710922226685,-7.884874044094783,-0.9853326102705438,-32.65715297257944,-0.8785038750680586,-25.52563896944976,14.743874635178809],[22.33247112857588,6.702753482332566,-14.030667501042997,-50.357165714351034,-12.059395667320189,21.659871204857428,41.02339350256433,-3.9339475644195034,5.1274959782539336,49.184476184421655,-22.0899246670593,38.95540173833945],[-44.040679640622095,43.249564844771925,-7.825104063176705,27.757314099420736,-34.05281322402245,-13.091562767598294,-33.75837393418941,6.692625115020832,-36.54113345797325,-7.387805847179262,14.956943507512078,51.03704734235291],[14.041750192964797,-44.23932986722194,13.52680060119098,-14.744072937399407,-5.397679620578498,-8.404594043965727,26.67798090832843,-43.49768562993169,-36.97277982176687,17.159866294120327,-14.041714271603583,27.392709245026904],[67.51286894351912,14.892728974462338,7.535391654356662,40.41044422020864,-14.05265147863705,16.456425576345445,8.51960747286274,-3.7986023595837235,16.000296833659192,-13.167471939025134,8.258366038403015,33.012073525158655],[77.57011926536268,74.37124197997876,-79.97443071844789,-20.043526158599228,-49.63083615415889,-57.071652306684676,32.73288252100888,-8.265006630052149,37.17215045062036,-14.035372667282973,10.509657124061297,-57.220670157960406],[-24.19318893512772,-34.442613977509886,65.88884872505422,-0.11376874886874326,-2.9595228161008973,51.920228049800365,-2.723710630694526,38.42099034258593,1.279279962971321,-29.673064452574756,27.39483643244969,-22.07174226299787],[11.10241512456292,3.696591817842456,0.936713101284441,-20.77138069307333,107.0798659343721,54.19840623258192,17.790595078409304,19.99550005385269,-14.261979968803162,7.867979142534433,-56.723496566224135,30.36114460704552],[-25.59636627228748,-66.72948608308458,-0.17811488414818852,24.199223507168803,59.480038793431305,17.309970057595734,4.4159965516370665,-7.580907349724824,-14.745436422615965,15.876279229456953,-22.950291690991225,41.47672117657412],[20.38524381906491,3.275512071208355,-16.626333173504136,10.468487771667322,60.76215475640345,6.62107952971638,-9.074085251351951,-61.6661910108156,18.8515456871934,23.873103279734263,-56.25146097487498,82.16193376662794],[15.399799544939555,-28.332232019579333,15.02057782320203,53.57691487752322,11.721332713472554,70.86779740502409,-12.710671838750772,6.609829722577038,-81.85864757181199,30.06926562022861,30.218558553334223,46.71521045464185],[19.617642437914675,49.52090528412336,-22.332841694176032,-84.52632995463534,-48.49727657262071,-22.370006369254472,-38.3919334616688,-18.516640932438452,-32.837012622966974,34.4163143474534,3.648667593849591,65.91423551544052]],[[14.83786402172529,9.732346317480575,-17.499875951703135,-3.8435351958469353,67.45155231830506,-16.587712008666692,-12.822824606258573,12.718872039375468,-9.682993484490579,-14.267383954015934,-34.83842960529781,30.773243033331017,6.204549080624609,47.41841448291584,-44.267658011341666,34.0821199975498],[-8.125734684279248,25.57841717272276,20.95310496822757,30.96302846850015,-5.350457453108946,3.0032083834517294,-3.334467833831506,-2.166219335861861,74.00696526871256,35.14447598876121,-16.458297157032597,8.102343991926283,-67.62393258747855,48.65089959388368,-2.353045694149561,-1.30636355274629],[-1.3208884958170801,-10.799394842343517,30.530512608438965,-56.403275118277236,-41.29399702214942,4.766397520002131,6.709499825991793,-66.68674633492041,-23.950466031037127,46.962056011024174,-47.16224597958563,16.332779999558483,-4.029994795979803,-26.56509735695636,-7.3168060221654105,-3.5755913536095814],[33.84068321948096,28.756941681263584,-12.118947855638327,20.481511255140447,2.1911965976470427,-17.818349236890622,-42.03410289415963,7.579241473483098,-2.86044805734749,24.710884861818258,-46.49432623233462,49.15775444447621,10.915315523712765,23.69191085171277,-1.3872125602246177,50.77715617599721],[-6.454535159804157,-9.975951052149721,10.141626034202742,16.618978016931845,16.906502655523923,6.402984651090814,-1.8594508682806996,32.382337858874344,-45.19397589537794,12.121624416641437,-30.93828825357907,35.74401259559464,-34.85399366730334,19.42093494951303,4.555133459492153,-27.463123753759263],[-28.08349802509845,41.46635435019707,-2.9385575294136412,39.926399965134685,14.429481896201676,27.610185047892084,14.179159159107035,-17.36355485409018,19.842370848808528,-36.46313976205506,12.359223893092462,5.297197389546251,39.89046815607064,-48.88155378901801,-26.348242069465858,31.089618034693366],[17.49855310107303,3.8853007540749673,0.10487762786433462,-38.76597403485631,26.678505069251568,-17.42588960651872,39.39143583949342,14.02551743923946,39.398703070102734,72.75034513152156,-9.547424773256038,17.46455763567864,-13.513628119381913,-36.87661765794597,-29.500599612000894,-11.431503589918185],[-14.370507638037878,-17.595777384909155,17.52530004127328,-71.57453096601246,16.685158150557342,3.288741471893608,-4.142401423748902,11.593453457494121,27.861024512910802,15.066738542133773,-16.712159843478535,-40.84481853206794,-29.587643212745544,-15.307697024992873,15.292661892324741,-30.777246491759247],[-19.987519592620053,17.62884913137011,-17.918813323548353,-42.9153484857068,-20.659284647888626,-24.94416123382147,-41.17590221356652,47.96644099726022,28.94733901915349,17.68921653951293,-31.115852748671106,56.638522280227825,-30.510561650464314,3.2452826842647715,-2.061148454037879,6.859342537437169],[-2.6379585552856506,-72.24735925740549,16.00648542915023,54.78238315037376,5.454343365002904,-55.8025410914356,20.929764013417373,3.4133980158646504,-32.56968693920301,43.84249669476518,19.166045989410826,-10.765978362957162,-35.934120182969814,26.945006723009758,-43.114386812100584,-3.239831686945931]],[[-13.478789231600633,-5.14471643481557,-13.363746104967769,-28.299199931951904,-17.961682451208205,-4.740489367373733,-19.39167649066217,53.24524173438436,50.48795483572889,-3.9336301859591054],[67.16578185592834,-29.575352758693672,35.36714832258367,13.066890756882499,-18.846145238109408,34.01782596986262,-53.50541037147808,-44.90117838852581,24.84513409765883,-52.17088413636228]]],"biases":[[10.541040176285367,21.4664348613904,11.887572759224122,13.669593106351895,10.179993723165364,-2.0788481096158673,-6.366506865916355,0.516773793593091,-14.87290928224053,1.26622696059645,-0.06708165689899903,-9.14281733339596,11.768840660484807,7.003175174882499,15.404398111785962,13.255910165203284],[12.119928178627433,0.3480996944669573,20.301894712384108,-9.393034764091032,-8.949852941162145,5.801501497353911,9.332707470343584,13.143933123126319,11.045644964893176,-3.0521855521716628],[10.955700953917981,-2.8667352236500077]],"_generation":251627,"_fitness":0}