{"layers":[12,16,10,2],"weights":[[[40.10976979327907,-0.49248221870136855,69.75265163207366,-10.641331680730588,32.03518552666052,74.88942626292955,-98.9804190335056,-43.10209775744496,-47.69762614144916,-5.5006272404407195,-17.754092084217234,-64.13575034218597],[-56.25008180761909,-78.43688035216432,-65.54889567704805,11.73778168693119,-48.22894211339876,-25.511015876039842,-42.82850281989981,-103.28304853864351,70.75133780461478,-53.78240439754725,-65.29249080909133,-74.14689072499715],[-16.867870292431466,-20.94287990634055,27.225410490138213,-42.70559930565418,-68.81002740413031,80.77985629869903,-45.65010828504752,2.839601879894762,33.80787241792388,10.5576392016336,78.52456894887801,81.5447605282814],[-67.59662518183451,-1.4496936633516515,-34.68552745714589,58.60662971882356,162.60365243855253,-95.86317515819277,4.837766474267157,43.3112964335356,-37.1758555776696,-19.22839915590791,6.403197674508709,31.351932950978693],[37.33286186556444,-32.61128834145749,11.529576794245065,3.4902339235627506,71.79260317347472,-1.2211194211460572,51.71832529143085,-26.92233590963839,12.21552089661147,31.02951928977608,-19.789851167177304,29.882762693343878],[52.920950004101186,-20.95807985395492,-47.64114865014635,-83.79267379639249,33.664699992553025,-26.16490987351806,-8.041058683332983,-26.602876230818502,113.90489543568306,52.20236209792839,-36.31578577509022,5.950364794152676],[-28.024168695568118,25.516895462630597,24.497789279619486,22.97679465395483,-84.8871330434131,-51.78843665812274,-72.51354316703171,-13.213377212298822,-56.440802467082264,36.32291276174521,10.206845421608367,59.23017387455613],[12.9129394660854,-25.126794822813878,16.36703692273086,-26.791440323184975,28.81944921546112,-22.932301768873526,6.661876916482399,-22.18465170823055,-38.773778685075314,81.59335675455468,-16.091473247740367,125.87095906428087],[-16.71492424688876,-10.998681233270545,-18.573852962339306,24.621496901205685,-17.636170383441986,75.41505480512332,22.42087494837494,39.620573911415555,-14.634519439190138,-2.5923614403267345,8.659350426483066,-5.415622309073479],[62.6926611682151,110.88274106188211,-86.83837022259081,-9.279190504614945,-49.87094397260732,17.93888232040477,13.899583414162551,9.316066142962995,14.221353837047664,58.144345169639365,-10.531913102669083,-71.47921364022164],[-27.69746772945845,71.7821110399201,43.296418859228716,7.494861952650313,19.860488978705185,72.41676477117191,6.118851294059429,32.321445436291164,17.987241248675556,-30.592666685336344,37.58126271304218,-50.529919577221754],[41.46341623881888,-55.596211815503814,34.605442401938014,-39.27637671496612,88.23043962638552,53.89187308503957,-25.040331918411706,12.43543130088562,30.50814684586868,8.25351438899414,-7.258646131545799,65.30899685213602],[-83.35298455515247,-36.931187725231446,7.0987058424565515,-48.328790729917095,37.60795639450306,4.7533610491709295,21.223944871068763,12.226070790035976,-19.89406081464456,-95.27162902664787,7.458349984095122,9.962471230664345],[56.69345664859524,-80.10521911462504,3.833887443933506,41.820699107841044,51.5475538244185,-5.300079627150318,-48.21487820946757,-115.5239626760521,56.23025165657659,36.05707650923546,13.589032563938433,61.7369373404206],[-7.691701156820256,-16.844119770368486,-40.35143553271635,121.9112886488791,62.05328608407608,61.14382254561757,-23.178194077785076,27.918985012865114,-89.64352702072223,86.52633720900869,89.23748843533299,7.391063907248118],[16.82843340999379,68.04957840638657,-49.833874731045015,-145.14877855466392,-28.92355851730703,-10.77789120028457,-9.638305402588008,-57.8607001648085,-103.55068978897407,-49.00950551031134,19.901538466561757,82.95220604119991]],[[-8.930430503374815,61.045246867387306,-32.536611640444434,-37.65308030909939,91.51421920902887,-17.18430111317223,5.038021428355452,-29.068914489646513,-32.222945586474474,-74.21557287390537,-62.973404787274205,38.614051488560165,8.731465661165181,50.72468785378144,-86.54135719259786,61.96441645446644],[6.278911133044952,-61.40864833630347,8.601931572300325,26.875234868810512,-12.977541737023493,-20.124813018182827,15.532705850909831,-22.58481155787428,79.56939359128872,81.5092804985799,-28.772061993027528,-31.287698334363803,-115.30181395274855,10.167092177799944,-17.999856677659746,-3.3034242514656396],[-72.53873249421368,-34.57779209837834,-1.606314144615228,-52.52885633977644,-61.81632807782637,66.32947800948669,-55.91254491392782,-3.9905574747934796,57.50777724666183,107.6202995323955,-32.27824895780426,5.759961833622465,-22.76513030391852,1.2845355006210182,-27.21428391819267,30.366631815555163],[71.59780052413544,19.67133561503531,-4.89688845566484,7.487102207155222,48.75057292997992,-43.950723586602074,-44.32067105991915,37.60495179276091,-26.038761721277993,46.33477281996158,24.19711114719456,25.221516125993237,56.045798251900635,22.723346437514554,-52.63711600401634,3.9717483384254937],[-15.109579120504224,-1.3424209596430363,-85.02256221132536,10.225788370427813,-3.5180047465188955,11.12161154742315,-36.58329617724023,51.83851767886292,-43.85581652354569,62.08611042431643,22.094273652759902,32.61564544733482,-59.96536188905625,12.556588767279367,4.2791310539449,40.41610198875888],[-97.13191586995416,17.34147969199496,-34.156034460549954,69.2672419112537,87.2484815956525,37.993532054969435,-13.748459799925518,-14.873485194215476,-39.58765165046405,-72.59008762930125,-52.89531546983622,1.8576640055190778,0.9959804556113148,-48.27073986070947,23.30672184780277,1.2398261032841875],[-94.36549979034004,27.12656329927706,7.562865764048666,30.512203814534,113.45464534215289,-43.185288034815656,26.64429696582214,0.025850762916213715,-17.383268950447466,38.548699322001546,0.9112756689055209,-50.24313207157435,-103.02813693663413,-48.13496895676652,-0.20365204309923354,-36.81375996395259],[-69.3507409273338,-15.861839623460309,50.47559043817954,-92.29855066753407,-19.777856350406935,-3.0316278767989946,83.99589856822134,-19.537062283557724,74.3978622952463,42.05160932741553,-48.88618005425095,-39.074779703146696,-44.799088806860325,-12.003306473097032,65.32512226351699,35.28633899397207],[75.1461872790318,21.911803582203586,11.576414868891975,-76.07236609963428,-1.2819882395875513,-1.9705074924239756,-94.19212227065847,117.48244393152682,9.180706812095794,-9.450216856312926,-128.85418982046647,89.53436966630619,-47.44496135597271,-86.72255133838355,-5.922900207140037,-9.74545491398559],[-82.90523341468513,-58.89159172204129,78.24109454746126,0.7212404631018347,18.787383692505284,-10.432393512274183,21.55923072104909,-7.5678429655839246,-54.745671491238255,63.572622623294635,-24.438242498461612,51.34157018389668,16.743479866474814,-96.5924377918542,-89.49276866094102,7.328283605122466]],[[-3.5761130965506847,-46.95099772762744,-22.396303546634545,-41.86410083965672,-48.13970782711359,-42.85566895743767,-35.484176160100134,103.38004626657215,77.31378970236618,-15.679002407110561],[18.160523483647935,-52.2116351093283,55.00236630094787,-11.567016954057035,-48.52048223835237,43.60332273949105,-75.24055011578618,-44.70034993409421,-61.4079604727717,-59.871461249363826]]],"biases":[[14.068204986899278,29.828167146560048,20.553382921239397,19.025688353107178,24.460985029421185,4.928513724800242,-16.628976005703542,-3.9784013973076218,-6.993012998806182,2.643086665247012,19.854281725599655,-18.526430895491306,11.155347284477065,2.6898869647208947,24.67773560717909,19.446512841843166],[19.594038300598857,-3.953123035457427,33.981639573906044,-4.406844001541354,-3.9898638108036466,10.537873383621813,10.057788055795832,10.946132368066202,10.733176672834912,4.700181035611107],[4.5755068673923445,-6.880520613626248]],"_generation":591627,"_fitness":0}