{"layers":[12,16,10,2],"weights":[[[38.62266513474536,-0.96767305480675,45.33081040272974,-21.557121553610703,30.62226247745513,91.5097415441667,-145.65090013519756,-77.6587643970333,-64.96715390561263,-17.255164229222498,41.61819048840338,-108.26042441281533],[-15.59367071463703,-63.38301375668645,-93.98006105874278,18.510389291140644,-5.19298575373323,-24.79650935355056,-31.80846373139581,-68.95531827895503,90.34392701065997,-55.946714173514216,-57.45040569855371,-98.33655345788327],[-16.711216566247018,16.417606225633136,30.526458733222643,-64.5578511509344,-63.34558773833145,107.53715629100941,-50.66139815385212,-41.99859931994777,5.52607462130808,28.082361129285076,124.15614184831038,87.79240489341439],[-50.57685561368039,-29.615441418339035,-18.547843883409683,60.951508430811025,161.24780050244846,-93.55054007473989,-24.681054290140676,20.437267183041147,-12.665511893865911,-29.84434008886644,3.265260528471552,39.12861699607301],[19.717651975535524,-26.835165980370576,-13.987748769989917,-13.36212460635885,84.8350390188752,-2.687394228115278,54.264130705483424,-31.737311182157065,42.15776058974714,63.37752059007411,-5.66297508048582,64.03473546256605],[86.84442817278182,-4.1460519040128885,-62.41320009867239,-36.621847304288195,87.00042459924036,-62.62039459735693,-24.1225876306281,10.397266565870703,106.50836357325336,23.28135513161102,-48.87427115562758,-11.895913093275583],[-42.824587443698604,53.12828644204333,71.10640521105807,-39.763925700385535,-78.10891507026456,-48.33086902924619,-59.597101097617156,-8.705743736212883,-78.02822662351979,52.810779192733335,-30.82505582908385,22.20411625136664],[27.182279604696184,-38.284202394550384,28.322510328862037,-22.924775089137633,24.183284743552594,-25.354681346658573,-26.38229638757359,17.287509690669502,-71.75338545607933,116.5538625392933,-32.82761472691678,99.39768491372027],[-6.791911100671349,-15.010598770165398,-47.16244437949604,68.36026303982021,-31.05792012207112,60.611365015421384,-7.074461423810767,86.81187077761953,2.009418466950255,1.6023937501190515,-22.924786291561638,9.964717369809293],[69.28526601239227,100.81540138889672,-116.79427640580968,-21.654511028758385,-48.56550544163031,14.673518488373597,34.283145446433544,11.683209532034512,-16.938856836340516,19.698807122459602,1.9985278388749412,-73.81793402999591],[-32.56556541582061,49.27043187318461,64.66227528499591,26.4502450595422,28.10345625578515,48.28650228374118,49.47936066437899,15.649550733570605,3.3840815686692642,-25.807008769788176,20.728966555547625,-15.56393298529929],[31.26569815940555,-60.289892385476634,84.68306061983668,-67.55872143854732,65.5125361423229,72.81822769606026,-60.11125514896756,19.637597210564252,20.068805993132692,-40.168092459780084,-5.867230602879044,83.17860418550947],[-74.21362906435027,-22.803277634665537,22.398667935461035,-40.83725470542065,25.69624857916363,7.873602575806087,44.78916591371708,1.4349168720877907,45.52744565866993,-111.32206151345882,16.04932189940094,23.08194302347346],[0.5505242009075311,-91.9386120048449,20.83584406975758,82.92482437462543,49.717961926843394,-42.516363041372074,-33.96262337681506,-81.08694934116916,51.5585945606744,22.215751753459916,16.137078014820386,118.1280863175256],[-13.290528202886621,-73.25899534663493,10.982364371991832,109.68836910272562,13.911213248383753,46.324869337474745,-11.929678730840159,26.330961019003873,-98.18528095664048,86.63633273199359,98.09313757739396,2.8673827538457597],[44.18812878972162,66.96346138452881,-114.27776386683995,-139.9989058108888,-28.14308901197384,-21.441232742478917,-16.29513005216406,-99.3078591081187,-102.46395112331328,-58.38374452010095,15.360256455347228,122.08576014184257]],[[-6.7979785019212775,49.184326381202396,-17.467434505796298,-35.19190879854766,96.91365723301688,-29.74519456784411,-11.569881945918553,-29.78865108075999,16.636914169533743,-37.61156725844604,-80.92562767777855,4.9398657065681,9.606168157357352,40.93731496377467,-69.01365833533568,42.149085447761976],[27.09504465600061,-73.86452927795773,-2.491188861884034,51.70551815949792,-32.76311256872929,-36.76843690237637,69.01488423885165,25.12201965863625,52.22981985596539,58.97725667549038,-23.609927861049652,22.219105765958858,-73.58310610584299,18.29893504242433,-28.502135391938992,27.602494221077727],[-93.80935653027863,-42.25167486924719,29.141171125979376,-74.72479175324024,-35.90676297151833,40.771470956021254,-86.21044927807851,-9.331138312114577,76.7227408542182,85.69336413889098,-15.476719468942568,12.346253738189253,-31.568161715852753,-50.77692163516221,-36.094412498954576,7.3070205960851515],[73.11540649608153,11.216962411067316,22.978817326817374,12.927304501777188,44.61112173060203,-87.67523867424964,-55.36535040205179,17.160859510086695,12.690970013006332,74.06131342317424,-21.289656235717104,49.20972068234633,19.174290099836533,-2.763643491293351,-73.08697043900978,23.009974277951553],[0.8543390747119248,-67.75459257085453,-86.52965354909485,19.939753632910318,14.750848329797979,-50.45444387091412,6.125140601304229,23.855508267365924,-44.88177049525745,93.84382389654986,45.9996652909153,25.85030822849111,-52.06795556150191,-11.359992069601025,9.011057656303416,27.376026367976326],[-151.45043110872308,16.986558256985536,-44.36260253995047,58.96959510794269,109.1477409771224,23.861550652040002,-32.09041371746834,16.249447862937224,-67.08869506301683,-17.66062865356364,-35.14381583951704,-12.019718886576118,22.210816654028722,-36.279955305181495,60.15262932352208,-4.387241626247798],[-88.00049420735137,20.519948197113344,14.567479014661592,44.26397941273628,172.76813507330885,-58.75986402932715,36.964521536928565,4.220440200260405,-26.16425931888387,13.898074307588567,-52.10688992084782,-59.79641760121298,-125.55366576779677,-58.63779539338715,-42.66221075216988,-43.38523260427678],[-66.60989111948969,25.518942325406606,59.44597199236575,-136.86520984271914,-7.14577428920298,-35.77246246236708,108.8733000573327,-36.67095902183272,73.659797143337,11.109022941075313,-45.070487746980454,-42.133762702899844,-59.63698149396297,16.037316866745375,65.36654967031274,16.420793565717968],[29.634826630690768,39.4802761962408,4.661651509059206,-37.72450406714441,-24.254689440653024,14.649738109341557,-101.4517308032653,116.19485820093014,8.102606228244607,21.66240220156338,-142.80356796229196,150.37002995248315,-30.03064857605962,-115.08406090292117,-71.3503690832174,-21.865903785635645],[-71.66001749288964,-60.39424360139051,135.35483831090178,-34.28118114519074,43.88511576805547,11.524095877973675,7.972226285726352,5.109597853436707,-83.86287185768961,36.73245088862868,-31.057861712231624,120.42384762326321,24.136921439767775,-64.52143572118965,-111.23713861940105,7.274884249731262]],[[39.60041139471232,-58.5794092473542,-28.425764661581887,-105.19392724252053,-82.69861259144457,-42.31600573026931,-24.905595347832254,106.86020762651209,55.057188885503905,-73.99783521132443],[58.655762137441414,-91.49370494125951,52.70282344313433,2.2192557188004534,-52.199944399299426,16.93145158785368,-103.11831390284736,-29.770432463253524,-102.56756186152339,-34.73771940499481]]],"biases":[[4.263775312504838,48.16065237214273,34.556824535521045,16.143625726132733,29.317087832286067,9.337135124690228,-15.465320680046903,-15.932614707174555,-12.13383958429095,-0.14608916097999264,19.60151072939187,-18.82174644165084,12.066180290582386,-1.3233588047271403,21.916016537842,10.560371549196686],[31.341591095501492,-13.878980361971315,40.92822025823525,-9.361120004252687,-6.515253633272561,-0.04104062898714196,6.727640205338767,2.6149226754780717,24.21311870599988,1.7755660569831677],[5.920250526607569,-19.844563126210023]],"_generation":756627,"_fitness":0}