{"layers":[12,16,10,2],"weights":[[[53.08044894470186,-16.679678314765013,78.2782410903958,-34.33872144831778,30.748940408222,91.29142793773758,-121.88527908423538,-50.41473690778586,-39.93995491503138,-34.0806817436949,43.63416298064114,-106.19188131567286],[-15.83679155148382,-65.11994901240176,-97.54213108812839,8.317840102330175,-43.75494035265522,-19.593853396690992,-34.95448713331169,-100.21213729841985,85.11545895968749,-71.357048746497,-82.01640545807133,-78.7227051811799],[-2.1457088004798126,-4.364565046588628,31.09140407300953,-53.876580624592926,-67.05685220936506,80.60965186334997,-67.6936142089675,-34.280948477782225,11.38837099504331,11.741849789423805,116.30055414426259,88.06549087601296],[-63.59624809159811,2.943897585604089,-28.204104881665025,46.354910646128396,165.30716842260767,-83.71859461465537,-6.143613867655829,35.56564203491434,-8.415169492723463,-55.80618735749574,-1.1023480914913906,17.082319881073204],[25.54151248379182,-25.08264289285867,2.698370360658233,2.8097915359611334,73.28417360128888,-14.652333258948936,52.62441735562948,-34.435550096917915,29.977795027409485,46.26862658511659,-17.078054288823644,40.55199164022755],[82.8916255185821,-14.307134948167143,-83.49035902183222,-62.69798231672982,32.773427668073126,-35.593890047788825,-2.5982208269776366,-11.962492114092079,72.55604417328983,46.569839143991516,-24.508723564165457,0.248033463177448],[-31.944806483415054,43.64688412706952,47.696757185074866,-34.470658721920394,-83.01565801430051,-43.05713327511128,-74.9040285929396,-18.481855256758994,-75.51788162537314,49.07145761221517,6.300826332502711,25.597903593426903],[19.673173956949807,-31.062967904468863,30.10047826760811,-32.15399237780357,49.38419659882095,-34.01940106673184,-9.866047608112444,-5.49056137852187,-60.343340214349,103.16657065132806,-23.37020175730865,125.27751147816049],[-11.760324351855074,-13.378014122563828,-31.613691345853315,52.57006992663312,-30.035777270849348,102.88093198008887,8.844678122971375,91.28164213826507,1.6569276841112588,-14.297831847778696,-10.00680294577377,5.333970439866412],[74.81536369908439,96.84862604092363,-125.70798340338649,-59.94658971379601,-68.88259986228734,-7.732490807022751,30.83412167205783,15.087844614499096,14.106792906466557,38.07251816858305,-30.359013655180327,-66.29738782986952],[-26.446056236632895,49.938017673648865,32.37675242523093,5.171180666850681,13.327479889725314,62.795638274974806,26.33627330964811,50.872124347604206,21.514420474836825,-34.76739098494497,7.065468081647094,-11.493303037515542],[8.267498705755518,-61.75835386781937,62.22322210455412,-46.227886560429866,64.24699333064875,73.34278961371963,-29.127974953641086,28.195210007088715,44.89983634940807,-23.349419868652653,11.24371570447692,71.53091652992856],[-77.50478735359025,-22.648314809886816,14.30513666216965,-52.683376924692226,28.3274107947627,7.617660441613647,46.760498028851025,7.576244231025994,-3.8339968745945088,-102.4493886478222,10.025012815882842,4.175984655941654],[50.55513984987281,-70.7576862919671,26.489108487410594,73.85670116533576,42.338272711704384,-32.439513943959994,-53.89854026102346,-113.32394855197073,51.09401614380075,53.9777060675035,20.153372116739494,93.57354883894045],[-2.6154609531917083,-48.870582004003914,-29.41604362222206,101.00725374971003,34.74754354517571,54.43520582463849,-17.469782821904406,26.07132752511779,-104.31465121386856,108.03796191854356,107.06074264140652,7.894345545188593],[67.27040331045566,62.51363398134052,-56.423915233019585,-152.16212355078338,-21.300720215641626,-14.524698958869104,-38.2984071734884,-83.56295577359761,-101.19449066973358,-46.29904707405648,15.36288692088672,103.92078085450956]],[[5.059158341866164,55.35159328538575,-7.255126782439739,-53.478595211099616,113.84782798118557,-28.237642489704882,-14.896250383015762,-5.1702230575738195,8.217433616052162,-70.2211829161684,-67.43237989378045,9.102234510277153,18.735459489961944,50.5030345377372,-65.39991132220645,20.409329341684217],[16.438900790762652,-48.012360241077566,11.169105751296565,42.187902339544216,-22.508066089800508,-33.97714010106339,77.37718349185853,6.5104467383774764,60.0735702484568,58.58370981517156,-13.670427383288482,-11.24395029630283,-116.20161465114609,8.56783209155042,-18.009614864405705,-4.158977481033873],[-86.81692022097816,-33.461316536203356,-21.515192400271168,-74.78764221980407,-59.471247753824066,46.89863248815682,-71.94911613602248,-12.533458445917164,70.22135211585281,120.27160461369378,-28.97147464246936,1.5152596863219785,-29.53631783556714,-23.49278585723673,-34.659147960788566,35.495680006901445],[72.55384713798016,27.412807331980485,1.899100529880759,5.561486698497355,27.887902733400736,-58.34092211734125,-42.21136672098443,25.389669712199467,-38.29449192079104,58.11946751208189,12.557600676862446,57.493868341070595,20.982409693385303,1.0124767168029576,-64.7613596502747,-9.953244621086961],[5.883155616489079,-35.766964304545716,-97.44882156328066,26.52824084645532,-0.8563552090340979,-4.6063233748531465,-6.292455280307364,44.03456431912317,-57.667545436939065,50.299401360987474,44.15422663675812,11.86783992851877,-67.18265092202545,-17.79269479948063,17.032253344477343,50.74873356557499],[-113.09701395752867,-2.307986940126147,-28.56960281692121,53.66453880805011,95.11404576855288,18.882615575837992,-26.91067110672714,22.450598127371794,-59.98693239941059,-53.602231786427744,-36.95241639197743,-7.109257301833607,31.315320294157758,-31.888540054664396,19.5148538513205,-4.900609630241146],[-121.34603437346928,27.68434256469161,0.44469618880498485,39.66045378872623,140.0881170887826,-63.478701734158136,42.732781692400856,-0.7630976005257452,-27.74857068668631,41.92794995420477,-17.425402768640517,-31.153434126029218,-107.92445428129822,-62.91972093151816,-30.03169430259282,-43.88809214754329],[-67.90184973742373,7.346551818652694,63.254035511160964,-94.40661270163933,-26.27700245010956,-34.481374579612805,100.44628569125213,-48.82754985423667,70.55028199189759,9.879079196892842,-42.623726839661416,-51.10470837148716,-63.71514976787732,3.7487181659079574,38.86856564311788,49.553391823966095],[31.83281969691877,8.074318896231004,21.56725583516413,-84.04188083653072,-18.18198489154319,-0.5764465206447,-81.70979230349577,136.00019324339098,-0.24279702639087303,21.820306588562627,-150.94480363844175,147.84488356041228,-48.16449869045995,-95.6776215347755,-53.56737116335216,-15.799108946247468],[-92.15644697151724,-66.99733461270326,79.33483151597049,20.409016285557442,32.06697750771495,5.997113374812195,16.811133673086875,-9.582459090291836,-45.59005540989021,33.87320814636622,-45.29252128038134,80.06504504179308,29.82820896780538,-56.0135872403479,-103.89485403538076,-12.456156157814965]],[[14.270312670425415,-32.81560587829247,-38.442594034994535,-73.64942064422037,-65.93838617114696,-41.52019727485104,-28.74079190717178,80.97257107710625,49.048979239379214,-40.906141557102906],[42.70413358983608,-52.51188905363304,66.25779479718433,-12.296871545956899,-70.81247188696047,37.2509243655689,-68.31064470333285,-42.74459754711486,-117.11648197490238,-86.42660603660532]]],"biases":[[2.4397252860826657,34.73340556034426,28.685041899232065,17.57893316562614,24.826346199175056,7.1378809801594025,-16.157392990364375,-9.004384989624487,-6.431974495235803,5.999084755803007,28.13567324731646,-10.89143931792041,16.741112474221993,-0.14013507320702967,28.077006842746226,13.050279026660053],[30.931894444478786,-15.706492925436121,37.272265661292586,-10.86277253971853,-13.82754756429867,5.000237692279107,9.977044088114207,0.9389770908738938,14.935290684621059,1.7478440874895265],[5.440260715694622,-8.599962017539934]],"_generation":676627,"_fitness":0}