{"layers":[12,16,10,2],"weights":[[[77.18521842742294,1.3775105284942897,38.71260871302024,-46.10094514663367,24.445080175043017,109.43629826048328,-169.76767255456485,-79.80708877390965,-67.12533185387326,-33.78299120479893,66.8180757812167,-91.65964387668524],[-76.41387599475962,-17.97946425700851,-92.42827025183291,-8.506051282179659,3.6356439760242893,-81.18353548645284,-6.182344152558403,-63.42651536319828,73.16561298973588,-46.4153457454375,-72.9073795853975,-106.26816388106148],[-22.272649706907686,46.0368115530417,20.255118777510052,-64.69243039152879,-104.81806708716172,135.44812167600864,-21.553890513063262,-69.57021938906831,8.694311570681894,34.470870725717106,130.80268748070498,116.30362593951314],[-56.37116627108579,-29.105855990237,-22.41703137652146,44.48086957393461,183.782346348643,-80.63305307504719,-25.954671255234995,11.684401943563243,6.212581895975887,-39.41473112835402,3.7321413942755464,49.501539224321654],[9.301073659569507,5.756771180098151,-13.43603693424993,-12.88626986398602,133.64277267313983,-24.408632944919653,71.24119622257349,-41.757997535856404,70.52049196287156,64.7224794895325,-41.78961880978305,63.210026842808624],[41.678749436488964,13.966735471585146,-122.52523746949974,-23.291241243034904,96.53466435487488,-36.18029152506267,-33.217804410720774,24.17474467264804,147.09993311490453,-1.3855315804629271,-39.341394538415386,-37.377841831598666],[-32.85357786046373,42.88260808733302,84.93318006324633,-60.25175889401578,-105.6012206098391,-59.127424973710646,-29.626502348525783,26.504447679614525,-104.15730982203506,55.0966312597446,-50.47531563200356,46.92546890716422],[6.89871238413736,-34.70575988584705,41.58063800047409,14.109717769168054,87.1808566781998,0.5083939930833956,-40.85569920723958,57.31643611776171,-53.01666360331532,100.57817870703099,-87.23983770273362,85.86710584249191],[12.07145971235429,-44.47833616986401,-48.512417775690245,89.13128117849351,-43.013376148512165,44.03753442302362,-22.797541417492088,108.78299338546675,-4.44504731813693,33.81060072250988,-31.376129069558473,32.51111447321553],[43.231508862992065,81.05096144546802,-94.26980796495407,-67.27473390063662,-54.64435260081447,38.016308122878,10.306680453856256,1.5284989477659516,-17.416338968891097,22.00534979777629,39.42047590017258,-92.16904503263817],[-19.82199143564663,38.34123746839745,44.68783738396446,33.734329388881534,51.70017509280357,12.590080808077518,54.513581180149664,18.76194370412235,-28.99215243595421,-14.683034098330529,20.144881875536772,-36.98419454406679],[36.92088388920997,-106.53665189831308,45.04194980827478,-13.797168537428007,39.50382888403115,68.23724749041119,-108.06904828121148,22.325862521796257,47.7611112545776,-68.8732717589877,5.5213217253554046,38.850550871410334],[-84.85235142369092,-62.92201027560663,18.16448199335934,-44.64835007642166,2.9789583040180037,41.07086697722662,31.581829291183574,45.52346271515236,51.97507531907348,-122.72558383607868,25.08503909252317,19.67703760509289],[13.784865771999593,-81.06279385858366,31.30004632887444,67.89973810783121,42.71562345001575,-48.96522143474459,-70.20849758365935,-51.704628894090504,25.637002906526675,26.181308618323722,23.75424399891671,120.21147388660287],[-26.512753382003012,-103.97731301764505,15.065173587098696,106.45649759178002,-0.4818396308242646,-10.085682654589492,-7.9590267489114925,80.32586356036377,-49.56651979368348,85.48483422090374,78.10921007988239,-11.27842521271884],[40.613792530115106,76.57640391091361,-103.22148705104036,-137.7346466964028,-18.75305108468446,-4.552658267098789,-14.730066120240688,-108.86868537833814,-87.1294449769997,-98.47214041459696,18.49116091673869,137.51972189156788]],[[-56.42747713353119,34.2260726925706,-28.317297111209324,-23.48965863705336,69.37784285338168,-41.271396970077284,-1.053875478015,-46.64870656929022,-12.119006121290766,-7.572282377525637,-92.07681583270178,44.45285335407459,11.38740087731292,87.67946391470002,-99.07050747075999,57.12249281533151],[-3.4565755903533546,-87.31005589693184,-23.230403250278137,59.42316248571148,-26.248913558207825,-6.847975084360748,42.06030479538187,62.80772769480321,88.56723553145186,38.18534330202917,2.724008279029848,15.769780511017936,-85.90578540237436,-14.61628194029206,-42.65931498725366,46.98457230976899],[-78.19452884823234,-43.82953789918281,-4.114115346333945,-113.90292505715125,-39.66115348078452,91.7126084013069,-113.37105176501174,-18.148019981767877,55.90866456861989,56.31290996239245,38.4828410355744,17.460850992546796,-67.28108651738987,-52.488278115361744,-28.434888660419972,-12.157853807256862],[63.40430507564029,-14.35999300869837,2.810874855933043,18.671938039444317,6.575545656909486,-47.20090708205026,-72.41951637297336,6.594255471306384,17.16261566682504,105.65767711512225,-75.93905933320589,-30.968631707422244,30.816246898703785,-18.978114485931833,-29.247063721026635,-17.484983701328805],[19.202669793059016,-97.39179260570798,-121.00169416895028,57.90619086729611,43.750988724095656,-97.11525780559919,5.011584175066121,13.43401500595594,-73.5109352052493,67.85817713502175,84.0297376173613,38.66853018999402,-54.22685518651581,-31.033733714638657,-4.990022811268098,34.06346220555267],[-163.87323861844834,5.953109257938717,-55.11923518596528,123.71586367598164,96.18557347900608,21.745364712302614,-58.285730953216785,54.51159153531533,-67.0975753747724,-14.030180411363878,-23.32345819294928,13.774635064148965,26.747589489530508,-21.77088212456284,49.36294628370974,-5.807907950221214],[-116.03058227569271,-14.905365177240457,42.72350598992351,42.410204440091775,199.05045880465207,-68.59821713914612,71.59718985186616,-13.696567562188115,-38.50025901270087,49.62338038424175,-98.5078185673937,-46.22992720293943,-144.12524024502247,-11.963744793432808,-68.30355835704191,-61.277537445785995],[-86.18702067047292,-9.237615949628035,61.506170305676456,-127.64962984800414,-39.26109732873815,-24.713134172433016,162.51788999660178,-33.13655693244758,107.47725979342461,-12.876970324988603,-50.40288290207386,-52.16650926332548,-69.09915620247635,6.965932592212788,63.9432327858441,9.065960220664206],[73.23399467948315,54.72338015388406,-4.269258658427394,-27.26798797308125,-23.302223561147212,24.159017086300096,-111.07673581506583,120.04367500486643,0.7677506735195776,30.731835157762784,-175.68207621619734,105.91333099427371,-18.481031018110443,-107.49946432589657,-85.97891188444208,14.57819943064949],[-65.75977750349462,-51.5627273651331,150.37255520399145,-51.380099947093214,72.28014068200318,9.818326534585943,-7.472969856932297,25.774300066088294,-72.82392643849818,33.588546090866316,-19.78912484056837,147.83887178806873,-21.400834804097684,-63.43158643336321,-107.14402880939153,-27.154656175810896]],[[46.18579571144129,-91.13713421589841,-56.2041140577144,-177.64853287290236,-92.0419175940713,-39.96387392805587,-3.5333979211066806,85.84112822787579,61.9226075675083,-94.20361894395164],[80.77302390753509,-106.39753404237842,32.355671364391874,-16.572010826755832,-43.93287020558179,24.830684608282628,-61.768237977421336,-60.50986273636367,-76.81407773624872,-66.17801673834936]]],"biases":[[4.859264991843021,42.68550907811865,33.456421812356886,27.71232594936458,28.18014059887266,3.0402872355926203,-5.6305162129948805,-16.414804714954755,-2.919265233243759,-1.0114039845832064,25.948135938330747,-19.411993053516824,1.9382265292905172,-6.066304104745843,24.578972453727893,15.21512399056535],[33.9274638048232,-6.460127281020713,54.3264482917743,-6.141023063711292,6.78975581718011,8.729099699090593,4.781407303270562,7.832256461400998,29.95257505455855,-1.462541759315684],[15.65638448619869,-22.320550459887247]],"_generation":896627,"_fitness":0}