{"layers":[12,16,10,2],"weights":[[[14.861336916123705,-14.74165323438864,56.32735859733657,-41.924668244951924,-18.47541310031188,44.93439305922192,-62.041425918095456,-68.04864692463578,-9.198576274676393,-21.953204174839627,-5.760938651551863,-53.595687164064756],[13.029960111249675,-52.610421804749194,-35.92526123198392,-23.55565543820132,-9.794770096619049,-37.98099808672125,-35.04632131412756,-84.92081055630086,45.56199150064787,14.473430026325003,-22.943951959639772,-5.567232142156763],[-15.685429401595103,-31.92489595500719,21.500451981322897,-4.042097269029395,-41.04903397079029,54.879642331658275,-20.577822138004024,-13.603798134056959,31.009859475295936,40.31089048247093,89.73091849022094,28.93184939853931],[-15.520324586869942,17.000568311946633,-20.158607921333,64.94560459852693,133.9894650544078,-85.73472672965222,-14.102298952940853,-13.992536737338892,-8.478616050345247,-18.381021547255838,5.0276608880608515,25.234407561789656],[-11.416723743403798,-18.045405556927268,-11.970234090077833,-8.308419804785625,43.38132815159735,1.632266028447005,26.400219947747637,-9.379333217629696,-13.323246851511145,27.141270044536483,-22.37539149541983,-15.896726498840964],[14.666632524827808,-7.5928763301588065,-37.24392174686331,-93.01405383916823,17.825055860557647,10.777191422692898,36.72515490768802,11.802354508390808,62.33109383283235,84.18686299939023,55.52729722000829,36.65599011597423],[-52.96043385591877,39.74229428905599,-38.31722571758544,-0.3707895308038949,-25.95129181549284,5.046993142652141,-32.76017495270727,31.948671214201962,-30.477896832587703,-12.96258110620329,26.95985833383977,33.34368701857418],[-5.494765652260431,-58.28481072294548,-23.151556913207745,-35.05810484664639,36.61856422525459,2.593869234044481,60.25487022887891,-36.10658823923697,-33.33494822830526,22.44760317801916,-22.016000655196432,42.70412786747077],[50.35743605565998,8.851415062507451,-13.089148064831246,36.459202142712,-2.735612664031833,34.47199902394907,11.262604073890547,0.42827937763836166,38.681027416927954,-13.915611769709855,-2.450942734455,13.291037045328725],[70.68693538905059,106.60507583189413,-93.9394060309823,-20.71539175663577,-36.329224074367524,-20.55158335869065,11.46574232449521,-2.5511466406920227,-1.9582788307767738,-6.458095602057659,9.64951161805775,-44.99326756018021],[-26.290990909834868,13.677938065633622,75.07786868435537,77.21712531197053,3.6802032537652005,51.38532533736437,-8.508506436948043,18.31508488594335,-23.02478269306011,-40.62840023329165,44.445467793241285,-69.36906601474261],[43.84193018554289,-8.510583953427174,-4.12638369001154,-33.2168215664898,133.84457151067775,43.42763743291161,33.884679051172775,28.073728642409336,-5.020905499203961,24.49296615700302,-51.91823030257453,42.35933678178133],[-46.45261185310497,-42.99323608171276,-11.626153356808292,5.499988407893248,47.974435241569886,5.558899424933457,8.2279414807742,13.167252195348114,30.62363043828024,-50.200827368144566,-6.3107674837408005,40.4435156175118],[32.066164016864484,-51.17424283548881,-19.953627466199478,20.056431245122173,101.79414014436486,33.16701803369751,-44.19588408365783,-83.36225636291395,28.77000470866498,46.82830248148753,-15.433471878935267,57.72874741628021],[13.743402441687246,-21.10402942223734,-35.197614749380236,78.28632525249745,26.84543842197941,75.66289933992132,-32.02803630507704,12.423561217026554,-104.00158888919765,52.303371148535504,92.10435392320407,41.414129905979614],[7.639220070767953,37.462269545150676,-41.17554729059913,-134.52526030929187,-75.50196461679636,-4.49547055089098,-25.934326344667117,-44.2816086300933,-48.25825746628493,-27.724505178580156,30.403359370329632,95.33149074151714]],[[6.332017145911447,37.45155729289679,4.102784113261631,-33.64042840839247,65.02093475441029,-18.944751250927823,-25.542571600056426,19.803993934228213,-28.7125042733362,-42.64705206371004,-77.59773909488064,49.73783936706673,4.038778348694931,44.29960286156271,-24.150557193468956,44.61074973028255],[23.003651529220065,-8.150718728935054,21.343796599264884,41.665686015217474,25.939028840235096,-12.797885430520793,22.349655325306006,3.772754671787491,89.45526396692354,44.6368726145973,3.3751618302236874,14.989292588808368,-51.0378731593097,60.36789398614213,-20.48771206912672,5.865604043390656],[-34.03100990266849,7.0907701728315295,47.8896375024455,-78.78513667997453,-52.250534833053486,9.530867096262963,-53.964873275419386,-38.933017679399015,-4.020974447455734,102.67169815364313,-34.26556292665289,48.31216728269342,-25.92297927248131,-49.00352046792667,-22.010678267251276,12.670662448567775],[29.973443790186057,-28.226020591269624,-19.335005720360698,23.11350859776034,52.816810862431154,-35.75755044675728,-60.40843870628581,33.836193858722865,-52.80302644773952,77.84393908800192,-27.90544960804381,26.146081354108688,10.277911511260498,8.295976398987126,2.636760808457942,41.21478428633311],[-22.842220966647815,-34.21438244242216,-25.641781644760684,15.677836715951843,-0.17803557092244482,60.63219699614825,-23.274640462377434,67.32233709555594,-59.60809692320856,5.108624810685181,15.016114710860988,59.43883170555468,-44.74045894644368,15.51181439075848,16.083550896599384,19.217429441206683],[-33.441866261197866,16.32158155241315,-41.75872082850479,57.31522106212158,14.099073928475486,31.05542525305015,-23.57984440437808,-16.80538011960035,-16.34762523192005,-46.69348001892485,-23.70645188673676,15.96363660868181,22.149022541456187,-17.821940344479867,49.230062611290236,16.901194947595034],[-26.769979932398247,-19.406031523391174,54.7535082780587,-9.629141742959314,66.21160689098262,-50.57581144584823,42.097659392029,-10.640643464417881,59.38741516319948,77.67647226929117,-18.456041363677347,8.381808983721555,-46.01562397042035,-12.837949409473953,-1.7355130557603482,-30.142322704634825],[-27.267037781079825,-27.430911354223202,31.270817960457222,-93.05343015257971,-32.39573812129374,38.11581311316304,-10.462648423994139,9.234436821492817,39.66829701030598,25.734525764924136,-26.89563649100215,-28.24350265921616,-51.087947336033714,5.1800526453594,64.55667442591191,0.8424346230438653],[3.3272889570619384,30.56314231331701,3.3689989103696063,-36.6569686479617,-23.459458274501294,-68.14804352511571,-23.53130115297326,74.60929116920171,8.1435207724516,14.0530554087258,-75.19903286766846,39.14712619644664,-34.49996603787022,-20.565824250204297,-17.240529920707424,-9.900666385924078],[-32.47235870591297,-63.76161980426469,40.246486797885574,27.58821673487515,47.238917390767995,-53.529606541653976,28.754321458301984,-30.350128810019644,-4.309234739376088,94.1231013320279,20.05534260168029,24.441464658827663,-10.789842563583854,-40.597404805049145,-58.99532630022043,12.062538312814215]],[[26.123044200770735,2.770089848279031,-20.249684744663373,-31.10034646535826,-51.96585436179294,-13.728716800169328,-34.09764011136633,76.17017705144407,110.13992378456324,-47.53886971672061],[43.73434917751005,-53.81275849757689,33.25656715277064,-5.224035951416623,-9.332669754332013,26.27000151870719,-53.569439983107365,-45.18285180194314,22.570977960259096,-73.18585126379799]]],"biases":[[15.759638827643913,22.583792126260995,16.764961433170807,27.861382147403774,4.530438159878199,0.33674961504854717,-8.841602643133301,-13.726288293654372,-10.797243450696449,-6.027635166493416,16.5642636971556,-9.595845381437687,15.825125036908048,0.4436839299105837,19.99592853794175,14.248971815477095],[19.699976434671104,-1.974209961923304,23.674624988378483,-3.7656716474605982,-7.229841155509828,6.736448529468762,15.580168085086736,21.96713063935703,4.897091591238767,-8.131098994762503],[-8.187197171928423,-10.137049767845708]],"_generation":396627,"_fitness":0}