{"layers":[12,16,10,2],"weights":[[[43.483056872393576,6.90675167446909,40.103161645711715,-13.702412104630794,20.31361535260602,86.28129955292397,-149.5296358024303,-86.61039675893633,-61.09718589385769,-18.142156794286176,47.58989619645894,-88.66226652553352],[-26.554056960317627,-39.53464561818505,-80.95308067377896,-0.06596048856613239,2.5827161618526824,-34.71500136340102,-28.40179130268192,-66.3638166178689,79.19975372130517,-52.13814596188228,-55.16005769383917,-106.63755251184035],[-14.300856287004278,36.86046452890083,17.93566421335128,-64.68476436032712,-63.329865888872185,119.39160458005246,-9.027942000276056,-50.72752966776833,0.8602839771466528,32.88826149758803,104.63758002641917,112.25013661525813],[-62.28708410529872,-28.280004953321377,3.3611827307330038,63.92723587721545,172.9830132673328,-96.58704527017223,-27.54726169944986,12.972448717000905,-10.899667598730485,-21.224316217449573,1.3750160949517678,39.96763851651217],[8.446836577375382,-4.385470790715909,-12.001224188666326,-7.976304182875219,112.36500815693863,-9.418142895215007,58.59187887272375,-26.90763904899428,51.80571901568803,67.88753172768102,-22.840760180667544,64.11150835908666],[87.37082399790155,16.59163833371441,-86.828723888164,-39.33150172581105,99.44741437681176,-51.90329911965122,-34.00641379317435,17.302255858416792,130.06875615404357,26.243246382022388,-27.928120131819888,-15.130041609311398],[-39.38896169958822,40.124611549503065,72.18051711023608,-33.25089057750418,-89.16493478068016,-42.43867842333869,-41.15991855384937,10.563329637402562,-75.34976552654493,60.34506006036996,-43.82233580095049,23.332901184563273],[17.54307492576998,-47.267763367761965,15.233195011837847,-12.87740883250743,26.83818700588777,-16.753560893454818,-24.572471420185845,5.572414950393275,-52.254278720841704,135.54807942647443,-43.27833246879246,103.4052007233282],[-10.99009636373308,-27.547006436493202,-53.781853443284376,84.7166895978794,-21.42688556139285,67.34436405478874,-24.986942200484936,85.60788904243479,7.537734523889872,2.5814015809480986,-22.423395771832528,-1.9706709526156538],[87.09783400598603,101.24120416418472,-102.91410466578114,-25.934868342602122,-43.73615581151244,19.68509285857677,41.904108649141996,15.426020483758261,-7.97490675246412,24.40202700849508,-21.912539455946124,-83.12616090435658],[-19.728725114711253,66.68252973011164,65.02248997478998,27.925148571491384,46.808353881952954,45.41522483775281,57.06094922990111,3.5083200009827893,10.445317892753575,-9.874101295784815,21.16520062517863,-24.750900788756745],[33.78113183926748,-79.04258331879306,57.112983462495585,-53.354808082958534,71.18023661287397,65.59771448281874,-77.90850919179817,6.148538320710022,14.475964239518794,-68.01676268067601,-13.804953870891069,82.3401085018451],[-84.24259893189561,-48.16891103416989,18.851660036231586,-42.392792565644655,5.362203712485532,41.13098135348647,44.60594008776522,16.944153815837264,54.35773697491489,-104.3029832247978,30.30047894411602,23.764902899803882],[-12.918431400527936,-88.54429433657636,46.33821835675438,86.3803836828858,46.52971808463142,-22.72930928175777,-37.249561586115625,-67.57781729149193,64.13273042885405,27.253823512984855,16.846714823808984,139.58452309437905],[-28.706621833602288,-79.54795813435871,13.939208579527444,101.44845876584438,-1.2477569160218607,13.886509887742848,-20.73017176848929,50.29266303117102,-87.58263936919596,83.87498049146939,93.23335578373849,-12.307045003803545],[35.646823856496596,52.578405879104835,-129.04684038358616,-158.54117797778198,-22.42422901450764,-9.009812559104304,-13.713988776765706,-91.60579063738355,-109.9415203891676,-86.48599040882067,1.1206807341333802,114.79783358459166]],[[-18.49670329479611,37.201594136579395,-12.347596158724292,-34.3160873893293,87.97232584707389,-16.31927459412407,5.2654969320139475,-24.061064279101082,14.975996952973523,-28.752740795066376,-76.19720756952889,3.1715795505829667,9.881179275018194,46.6339697807129,-102.51632802910702,48.069368178826494],[27.824844026256944,-77.93623029210902,-4.890484705400275,37.42553048709384,-24.118587385723497,-58.830671532693515,54.69665037911526,30.398141326059037,69.4669966128102,48.355864780591396,-28.35452041791397,39.49743401326431,-62.585687512281936,14.502389953844606,-9.06086469713847,18.477623884401844],[-97.9149087826408,-58.23555780217242,25.745617617104326,-105.14177502511434,-37.9608363726832,46.83881213513392,-98.06718202798923,-0.2771435196955999,67.4140427935207,72.32032561123539,10.545241802122078,22.465741385116296,-50.738816735594725,-49.419891463329634,-48.88385553937487,-7.803121554558335],[61.90566489715213,8.263614942385765,29.707149601528993,20.01573566849027,34.38900079722406,-75.52887028353294,-46.50979412264519,22.09427713595169,32.50320548328505,85.08023006492563,-29.887342481423456,20.599757088004946,22.587427753017224,-37.016914880025844,-63.7824300732699,25.978054967713305],[6.314149444262826,-65.47682858599593,-88.56583213259565,38.49977929273842,18.971132178997948,-62.03164039799941,-25.176378881435554,43.97027057482391,-20.528779939319733,86.03646987491577,40.2065023282413,26.708975549129303,-39.46252105273986,-20.107099239441844,-0.9902655446940615,38.4327524742741],[-139.22103815514265,2.0641662164344847,-42.9645106196621,92.40903117669801,92.07033128256872,5.534336434186504,-16.004566269587965,45.85903203751553,-70.16724561647915,-27.429422071745623,-15.176064013220536,4.159418285811981,8.69498243867584,-21.449401215388125,35.896032317610505,-8.06462716392798],[-94.6329590853125,1.1124710454782991,19.498120584402592,42.399726672950536,159.22834465029084,-38.964519590775176,65.3712873144954,-16.676285512272514,-23.710255678701536,-0.5325884482500016,-58.94229038281119,-52.28184501225085,-123.20589039903447,-38.48653177794673,-35.56787926375372,-67.18262686927831],[-67.31570591611367,33.59815970270717,62.76088054825918,-147.08559633741876,-18.370872055182826,-24.849119024993346,124.30620305563843,-30.011139758737585,71.35621189623359,2.2381765092523045,-61.24936977271139,-44.249559261463276,-73.42123891692015,42.17630927744263,82.2377858370947,10.699216674233298],[43.07717416993419,40.730468005566756,6.268406669619224,-23.861894405928684,-38.38536571443847,26.374337375554497,-109.02390811897152,118.72670272132486,16.871822713343978,39.18543380745128,-146.68828043114635,140.24686931428565,-32.83819894347611,-124.64672632159096,-90.31810541016404,-21.602785707926092],[-82.41664300916376,-80.02597722069899,136.3021069811042,-42.92672249868248,60.496001009857004,8.256730789659509,7.426924679120374,0.13029596925405124,-70.93344068378349,33.47037458732529,-22.018158662976298,147.35399437880204,5.349323297720426,-52.58955621463352,-116.19820965916446,-0.07268011575578387]],[[34.39389204908525,-65.73161841967702,-59.85453276693767,-127.02825725549336,-88.14150844462746,-39.40230603998042,-37.3599368748464,103.29368305972352,63.22956708936999,-82.42246361744942],[72.39748364774958,-84.26032019186508,43.73401364732887,2.605718035096255,-64.20993794647198,24.207870948031754,-83.47504133578035,-47.01468716133976,-100.78688413716365,-57.39208175472198]]],"biases":[[4.404281058309152,45.96459655174232,32.82020206899737,16.42000314053481,27.46018211315736,6.6884055730528145,-8.788808725486739,-15.531088061532909,-10.577630950081328,7.867631061648309,21.035742229750372,-12.855700034021526,7.8296136706066735,2.30148897200904,26.65392781814775,12.296839268602227],[40.27674054404056,-14.274336724263025,44.47889654291062,-12.39788570217632,-1.9793099110095327,5.191817868827618,1.2863078897652411,4.291012311040786,20.967381990203478,4.53497250394122],[4.850116845364759,-23.933103395878607]],"_generation":796627,"_fitness":0}