{"layers":[12,16,10,2],"weights":[[[-2.099828711230304,1.4522028285689892,4.197727176454312,-3.98799302574671,22.519017905615648,-13.448423270419097,-5.101197050208032,2.714835860708304,-3.58355185498828,-4.872634446509286,-11.978606036844365,13.64170675547668],[-9.477669733400678,-31.455451544722578,-3.2487479651822606,-10.826703497304372,11.059300220187977,-3.067099663019498,-7.2785017550568,-31.37316579287515,-6.177543356346252,-9.568937833284581,-17.281250012274974,-11.438726410287126],[24.811777497480968,-0.8822037690411699,-5.983281499701879,5.820161190212778,-51.35287877451169,3.919780081107016,-1.9582477714199342,-10.2371414205425,4.65912572400346,8.425437996153676,27.289333945511743,11.36719616244451],[-4.185150094350351,-2.861318890140538,4.070451205167294,11.712602986644592,46.1941285009921,11.762609895278553,-6.859005864136893,3.6615192023542162,1.4393835193183184,-7.430718413826511,-11.117010020455673,0.48126638370633257],[-1.0543600679473264,-5.719795650515446,-9.598674590370859,12.627842889041307,-18.507951295447945,-1.7902872038526652,-2.231376828442155,-0.1629618858938212,-9.929156535082065,14.351390173604399,2.1028891809041146,-9.05081334192758],[-3.845658725900012,-1.7931277634670544,15.321037982560116,-4.359535129938821,-10.66830598323608,9.492727230842371,2.642324236394757,11.387843394416727,-3.9554217199423585,2.6597843462869477,-1.386322350905634,21.247786183276954],[-3.3386517811246432,13.13097455229758,-7.024233495368495,5.306799994768966,-8.258469271961198,-3.9311113025367534,-10.001575488397796,-3.7531879970756523,-1.1592461997747683,-26.045406309220507,3.1308499252055335,2.77359434495973],[2.9143926039560335,-11.787192226972413,-21.412880126478314,-4.891315935143686,0.4349319674687347,6.2463765375740445,-3.1109601072497353,-11.692859730227598,13.371413450121713,-6.976798152850796,-9.373652729627347,14.108579716947098],[26.11314952286557,18.835862096465675,15.219563802260268,1.0740395157742681,-10.47683690799249,10.461313175714913,16.162634805477083,-3.0336277186172262,2.4656055014696343,-6.247036796843958,7.972841994392119,-11.6057561604281],[38.00143673901378,7.611019441730084,-3.159812295463343,9.208904084331948,-8.352090195374055,-12.336908448220141,18.308513849560903,0.572753196654203,9.984519917638176,-21.94056205618318,3.023972804060836,-5.555564975033526],[-4.9895959044592795,-8.893339319710254,-5.236524752991971,-22.46576864381914,-19.340220197613096,37.84721090825079,7.3675620143895335,2.7896682464869147,6.161777642596105,-2.8193231404308534,-2.5165182359989733,-12.574488020924377],[10.156081026808755,34.75239161719112,-3.6798566313817047,1.1798396519751986,18.86691793389758,15.893075513984567,-3.099821374260163,5.1312286584329785,-11.82556848237947,10.727971681654989,-11.807890732138828,-7.797843103745122],[-21.147826376939534,16.64877459322913,26.989175754614983,0.1347133079473508,33.272269465051124,-1.2951599024687406,10.134379805212932,-6.988429092945281,-6.6940561736690505,7.36611163859343,-13.260081582404272,13.068263697095336],[-2.8267094544971334,-1.376370737403996,-7.268428217652899,9.892485356348311,25.476002044752384,18.84422801545659,-12.360835467382508,-16.852306190143864,-8.451258131787469,-11.667619679529807,-1.853694068738156,19.083364039235704],[5.242580591129853,9.513622314035228,-12.364998011341461,25.63595512274555,5.6832177013720395,-0.736106816766951,-0.06253395837570941,8.44372283759792,1.672772579098952,10.709376353897886,-1.8844628463816535,8.047880215201817],[27.067267088646393,25.055682007964982,-26.511470756337562,-22.678268797126716,-10.807738344670785,-12.918995607159037,-6.7355889367375275,2.884362678746375,0.3983049316043359,3.9043208985600066,5.614238496518054,12.992569035477112]],[[-1.734767242428695,6.027989664737576,-7.7541316882014275,-11.499204014987166,-11.634846538026137,2.250888251319433,17.7310872466879,16.1464210700228,10.784707014608871,-10.160256228371397,-17.7700266183477,-4.656380414533421,-15.282688768546901,8.31893634133474,13.360013939904933,10.88610335389179],[4.500340099769987,-4.411702818990158,20.36075865079756,2.8649857758758803,-32.775098002929795,7.394618170907055,10.89098580257275,-0.6571251481728965,11.113543292590666,3.678696873745076,-8.831531467715825,5.985225153139602,-1.1307506841268369,34.73862855005742,-1.9028290397592498,35.81446138056078],[-3.060534940347648,-23.774399542081564,-0.8527509348275006,-23.547542679022484,-17.50459507509779,14.31948107022848,16.90350906314655,3.6450248473627855,0.9148029635272305,-13.198364707198353,-24.08543449492301,26.841797249613947,15.872474429628713,-29.636738507764576,-9.495248699940749,10.541526629931592],[1.3580312846932954,1.3187364894013154,19.254184233968974,7.251919675640309,10.298707206605604,-11.552876396092438,3.0868659465379444,27.22025559255417,-6.772610697293249,29.159400889749122,-17.602997857725704,17.47275585746715,-8.656018411716447,2.4466596973040957,-15.496234903067018,-6.2778620622339005],[-4.887970949985359,15.872072875691176,-9.963354005397902,-1.9371149537212937,10.916345865296869,-7.112665955709206,-14.440690564324788,23.257157966359305,-15.921465148044511,-9.306707151923437,-12.565295857741432,-6.873360897039318,-6.190723737236826,3.5870250213280146,5.264682790551106,-2.9408307441345696],[12.080835111191249,11.341384619275003,2.6705791531644585,26.90761450719172,15.954817557213593,-1.241468730342646,-7.685264409674273,-6.652313459291413,-10.251659361663947,-0.8225098853986583,-1.3522258648693684,-0.5157732538433843,23.944173872820485,-10.795220315331164,-9.885737709570678,-15.01290351766415],[11.114410688926855,8.533527809597796,9.377536441976412,-14.955957601542607,10.523381834484894,-1.1639884521500197,-0.664078605809022,-8.647294789032673,-7.122949034223728,19.6264089291425,4.09597570968539,29.045163876820027,5.178470235809693,8.33584069248558,-23.21222395559026,-1.4158871462893279],[-30.245435361482393,-18.296994237159247,23.0363022631277,-23.28434647715805,20.666259077333592,7.103353768499797,-5.530235389954495,-5.315793610437802,3.5132487745903935,-6.242385622201665,-1.501063650099821,-8.170157368609186,-8.803099299135061,-14.464063107207188,10.178795962940404,-7.717775781870684],[-27.00265416847764,6.331055909521135,4.54415766004568,0.6855486008160161,-1.9989478322475716,4.5408039637581945,-17.737790698653193,23.870860928115345,3.688250456067146,19.86733165100659,-0.7244197646877149,8.492473571254967,7.021182740872641,-2.060163971204266,-5.5147222322891984,-15.268163414708189],[-9.805881627279355,-1.7483017583522775,12.393915749630363,-3.8530206612458318,-1.6102440899625645,3.7506940138986007,-16.421987486327694,2.2925109174787375,7.696939965623071,0.8012563882755419,-16.906174856243045,0.16417009440667876,11.710753909530307,2.3769666538904026,-13.85027483928562,-18.262623952160126]],[[-10.68957907301694,-3.203010908317034,-14.566842821715792,-8.016828977274129,5.854433244175974,-20.801577901506406,-6.656109135506387,31.343033809776827,4.452908098765635,0.1707458730962813],[8.555342121909362,-4.84167311732022,6.320408983084845,-13.007720052012202,-25.113398586569904,7.537323630212024,11.602533129957756,-3.7348866012940407,-8.985230170776232,13.424967288077477]]],"biases":[[-1.7728086881845684,-1.2323153914019551,-2.2004619758768067,3.7376749087651193,5.411805899124017,-0.8418327471803658,-4.2336475022554065,-0.8720422048882086,-1.5802837899399529,-0.2655779715574495,4.742823689527018,-7.415570214917211,0.39512648666925554,-2.593361767685299,-4.148742741566524,3.901857640584011],[6.985708347259829,-0.9642535285297009,0.7016293779238559,-4.189634147616491,3.3798470300249814,-0.14970416753483504,4.152853257366563,3.6795792493035364,1.587225057651217,-4.674594729051058],[2.1330298708157662,1.032797960185489]],"_generation":37527,"_fitness":0}