{"layers":[12,16,10,2],"weights":[[[-2.7283240327737337,-16.383502997575672,20.972316329120506,-24.570014444607878,20.305567140698393,48.39677253342518,-32.75011153529527,-47.920589590083765,2.6388349648985816,-13.646366939520531,34.396504990813305,-51.73467927586207],[16.160355721616845,-54.57793925606222,-34.56601031510964,-14.44494007338562,-49.64859424671303,-35.20287240468413,-41.496581300746406,-59.91975745413461,1.9235459259354375,-43.411614391259995,-4.330582652326282,0.2823709142541663],[-7.145091647642897,-4.3819802968339525,33.05121185101569,14.721989141529933,-72.11202210245177,14.27618997185583,-1.1462094999147165,-8.93128729017732,-3.4375193625515266,27.28825559048577,75.20122351286994,5.393846107823167],[4.737694936322388,32.064197975788176,11.914814051381919,18.471644993667713,124.54261657085793,-27.202046663104742,-7.9199640839353185,-4.966867706987653,-11.111347818620365,-24.54222878861318,-15.702098005895806,-6.310258358921801],[-22.264168350403406,-16.05892625325947,-5.687231561997141,13.160948657641491,17.663087810881926,-45.02894288473256,-8.685719646189991,1.8485021309695924,-40.801724764020705,-2.9680523329091724,-21.71234335883514,7.55106027229017],[30.291193017144973,6.517694113681845,-19.13125239139685,-48.99770963521115,-12.07601379180668,21.60394067166228,41.048404630365994,-6.800187402351387,-0.1302867146586507,52.19078750420891,-23.17964204275121,36.58741727266262],[-49.153521953566596,40.57994608801409,-0.4102650909887029,23.188222850172092,-34.68697588083637,-16.925972624934474,-39.650221886966115,8.6219599926052,-36.258995029604215,-16.027546949703826,14.018054365795486,43.40473734823192],[11.130516215169711,-45.89516237944548,12.093578521777518,-18.16161997311673,-0.7021940916896205,-5.274352459040665,26.882974206152998,-44.991780183505824,-38.03243491232531,20.455457388319772,-19.309880564707026,22.486366745547095],[64.64364507396805,11.725153871291145,9.087277746881997,37.07796870682699,-18.04935796853757,18.916894861100097,7.69527777063671,0.1823594090191094,7.99058747229195,-15.094773786118171,3.806205864926743,26.001170234257064],[76.96359850537767,77.54822312645099,-79.66859062637538,-24.874568080003556,-41.379412683339304,-55.48684656767492,33.25274091887191,-19.899482017791467,31.81357243335662,-12.06467452779773,10.680087037315474,-60.11850049237716],[-16.913618573920576,-37.1957459150112,65.72466695866878,-2.7848980480172383,-7.593398051878407,48.974306357459774,-3.33077913308252,36.60476506322438,-4.6248989423698745,-31.726698153459257,29.248182033462268,-21.507363900165416],[8.422842194150466,4.0186551868263996,10.182344488363938,-31.762235734887085,111.55059176801639,57.403528591261065,18.64829216384817,16.24616563936481,-22.46416508340406,6.796325224057478,-57.7557898964285,29.859503425193804],[-28.758796135910636,-65.51150431715854,-5.132082726009446,23.795722318932523,58.81880020127321,13.199748618120502,3.9848096747311046,-6.9279937974162955,-17.795877147785877,18.545486948154764,-17.18075382976481,44.39623688046918],[24.62355691853613,0.37338837653443546,-12.890328531815177,15.207418920495627,62.12127418192521,1.442216883623208,-16.939736509442646,-62.19416127281588,15.527773267853402,30.453907801881513,-51.4843877673764,82.96164059999099],[15.13597444115033,-30.917483020405538,5.401251834230216,53.88683118433895,4.478321466855112,74.05664058996985,-16.700437011006493,10.463212120325268,-78.41748195824306,30.200596832883278,26.382814965895598,36.680554515738685],[23.933040834064006,45.75911618063792,-16.912646403835005,-89.87369186587726,-49.441711214726425,-18.635420989294914,-36.08189743422824,-26.8523482461515,-32.30012008676805,35.626853192265905,-2.052303457736583,61.0309101337035]],[[19.53174846634171,15.83176371579577,-21.707350130862103,6.442876663401753,65.79224511367026,-13.040863000454209,-16.47940882455473,19.21470520736559,-15.849093184323365,-9.567025797789686,-31.687974113342907,30.217508387509703,3.6139259077662613,44.533287149374196,-47.435420692945165,30.496580741727943],[-3.9022088531318464,26.236275922640317,23.508810520553347,38.26685654671967,-3.2779130615390977,5.408113457428216,4.178050479173183,-8.381411949794593,73.34608755711746,39.89414332015076,-16.575725411978567,6.087485997940179,-72.99100677244346,46.89407016995561,-5.001018241454105,-1.9707403439804778],[-8.171978587263386,-8.78488741414061,26.291180984180414,-57.83623670071692,-38.66991169826156,13.66509701673785,13.416109463624906,-69.6197871288799,-27.640805242516077,42.23125580197986,-49.20295213917318,13.731658138045486,-2.5064674573076005,-41.61245804888488,-14.645190833298752,1.36627270490955],[31.88838018087278,18.744324708161002,-19.64079965005488,13.259603574359035,-3.9532046174096003,-13.210914172490373,-44.51774583944308,11.861784402199067,-10.124002873821174,24.79249900249662,-44.408164868939416,43.69020258486589,0.3792496587165896,18.29659436357045,0.505714923528906,54.012381665383955],[-12.139151918523325,-10.834440037516941,13.402573710016709,9.686281514539129,18.38413707600191,9.436909021312712,-4.616538581873909,30.43759161712457,-46.86157871631501,9.336108750149325,-28.96242583055907,42.54878398510659,-33.37202939176441,24.530306330468523,3.958185863158623,-18.531952761936],[-31.27718854498338,47.8980423047659,-2.4925748737578095,45.93029256593361,15.063347846742182,29.005164488266367,15.063183067324669,-16.601913902508677,21.5424905807067,-38.03127365317605,12.839519626549258,9.18566585362108,36.8525844751677,-51.301705801569376,-23.654129168030224,25.61247456163681],[16.037941086439425,2.8137283664265813,1.2714864361073244,-44.03254501941903,27.119854822706273,-22.845571955281123,41.90499795631888,12.38412084064185,39.46251917653375,71.63146373000177,-12.809460759659363,19.102266227686343,-16.99422146211926,-33.015186038183806,-35.090133907129186,-13.112443776230283],[-11.186905909785978,-20.934832300516433,19.092764462588907,-72.19002822693734,15.123713389811158,3.012510520105379,-3.3995475459207545,15.299971000935464,22.454104129665545,11.302628759953606,-11.903344232628488,-38.69519611121676,-39.301667046864836,-25.242200380372093,21.16317596214064,-21.384515587403488],[-12.525301548617765,19.792141690905915,-20.502181952770997,-48.739943693765,-18.962256057757276,-27.107891582828717,-35.50416991868681,57.91983613571127,35.004563501809045,19.810948925442162,-31.37958173868844,53.44493289049013,-31.734143568920587,5.537759773103243,-1.5733413638254947,0.9324511623975961],[-8.172997278635556,-68.20134582750826,18.09995616478054,52.969701867351134,3.9424585099215568,-59.028609866168075,20.515596481055823,0.672598645181095,-32.79312935548035,43.9611185153099,11.330044755400804,-1.8826104417754466,-44.9775431313507,19.176958059812385,-39.98022416412704,0.3334695923982785]],[[-17.11519830492123,-5.250905089518805,-12.708515373221301,-24.67695536894496,-26.498326598575094,-9.352750280615084,-27.181384772469148,57.39718825478969,57.273812613853195,-1.28967392100523],[62.794703861375545,-38.96200871010319,38.48210857795695,16.08470301432671,-17.43142187606691,33.94844613760304,-54.32105552019911,-37.16661991905326,25.108610727565477,-52.73915515320165]]],"biases":[[10.76512861594699,22.305685933440827,11.251782120492155,13.377818394402473,10.001275962673956,-0.3014042740805219,-5.795445545325172,0.6272480670768131,-16.095626393594507,0.9886175419659629,1.6686465488276516,-7.943452835817995,12.343190673134169,7.643634087726618,12.949623007398962,11.870389200852204],[14.20509798573393,0.5431655072194629,20.52293756989398,-11.394749175701623,-6.782227276299511,4.784667021427173,9.45396487023501,10.660369513545556,10.185677025073321,-4.086036003869346],[8.605188029586474,-5.479481796093963]],"_generation":256627,"_fitness":0}