{"layers":[12,16,10,2],"weights":[[[48.82101023191366,4.504677873923037,30.69697092065878,-12.998445177326191,20.613426902750923,89.73781513326892,-146.0663483130799,-81.40942801500236,-63.47833215485459,-17.913183606662624,49.70536313298316,-84.076149148482],[-42.03944776487737,-41.26235471548729,-84.82320082468284,-0.7944445381280468,2.0784342175617443,-33.1175409175872,-24.016303114445726,-73.60322605452811,79.72119764497785,-57.98785076248731,-56.10526249279591,-103.7112719691161],[-17.273750530724303,42.32346957524487,18.469050559650594,-67.8147963905589,-66.05832195893498,128.09230964318994,-9.78231195041547,-52.59622170194128,4.706614375681911,42.570136813089725,102.019000667801,113.45916658799457],[-60.09955229684463,-36.37629275538788,-4.143306692091074,59.527834431978235,165.19595720088125,-89.59273647537024,-33.431538278610056,13.388834840209823,-10.507745130568415,-20.44679137989168,0.3069720948962549,40.24512869189195],[10.267405349820645,-1.8857430964402486,-16.314719797695595,-6.336895802051904,114.61958133618252,-6.309409219751737,58.99967582851431,-27.111597208193302,48.88719300282624,70.78833199840004,-15.982271014287297,65.94715418955674],[83.56967810016825,13.31536650084541,-92.502737944455,-35.79300370398373,101.19867648502617,-50.17809993698956,-30.05138327765049,23.559301490619,119.30125247267861,19.45015204527738,-33.87302984907118,-22.495872887281788],[-32.157616943157834,37.56725636335699,71.38077478692419,-28.22359287547794,-91.63601777695905,-42.45297568861823,-51.56790363397119,9.616521006080692,-79.04529567930186,66.4264295596221,-43.945736604453906,22.888020503807336],[5.55758157436416,-42.976700359243786,13.489344311487038,-13.906803886709243,27.399541773829917,-15.979227935923776,-22.320789951691733,10.822007501771692,-57.06331291542074,136.8122993611857,-47.30479516126122,110.73138001098309],[-14.126156326141027,-34.96815155213227,-51.927942847760505,78.51472910720746,-22.946634853271306,64.14628420359557,-25.250490828704,93.37695984259385,17.21324665370636,9.933170237338686,-26.39394361219933,7.17117193025139],[83.4008653808187,98.33317336827605,-102.81906220984153,-24.256517373055566,-51.597985384979935,26.863435192365923,37.0038456995095,16.59950911017144,-11.687151773858082,19.126451289213318,-14.527964215229897,-90.58962819058348],[-21.09858551445856,66.93617282113988,65.59032370256075,28.371587890906557,48.566369929593144,48.851470206287374,58.36617212724357,-1.6584845804126072,8.103120534499617,-8.149866878975223,21.660200988249425,-25.74338803259563],[30.440168682798948,-74.20237842541135,54.77095636470879,-41.695463898508216,69.30299266238328,58.27955252638135,-83.41888732986702,4.675865333420517,11.201732841301624,-69.42326731715994,-18.435203308509376,76.97609776247327],[-74.60446528765759,-50.24985903066029,26.67104012125554,-49.133643064831205,3.926605976559106,43.09222674987671,41.91433154561709,14.894770888342975,56.97565715872125,-101.03663253067997,33.427201656703495,28.85652082464869],[-24.147647431297163,-85.59772159421955,52.17353759114879,90.67448130178276,51.78739504197955,-22.216509264487573,-39.966720724523505,-65.22612815209375,65.76433911691291,29.349861453605318,14.425093796593053,138.30365961496082],[-30.789853705845413,-72.83740255009035,9.075162540078102,106.1196525763387,-16.223914216120967,23.311321303504936,-14.698483267195474,48.696191589116175,-81.9827970696949,78.68594361817783,95.77397008801927,-11.421213784132178],[40.063610347683216,57.052340693546384,-126.3847479075405,-155.9244502319173,-25.221750260384354,-4.640608739701132,-16.45939313465004,-100.70422157700007,-112.01171290327062,-95.77526452267821,-8.078653647227043,124.07835329744088]],[[-25.76408686222745,42.52718877629398,-11.847881169124953,-29.243169953198866,85.90667795810151,-18.03229266525739,4.053788843118868,-23.066141929632426,11.87407317684684,-22.13576360786354,-74.12427554454791,6.837768008674533,21.309073222542175,46.3584224786808,-115.27633597435657,50.14381780680979],[28.1275716701655,-72.71729650261575,-1.9174484306914552,33.03570531871571,-26.60411277928794,-56.363390093449134,63.3080286418603,34.51235628840417,68.32520564679365,56.09305770197947,-23.565186620907145,37.58898895635093,-62.32910312649122,14.038887285153407,-14.69741353961598,13.165644548660348],[-97.34427669859924,-64.39703889053342,28.602594671927033,-106.53253380386752,-35.63827039011086,55.69537181306093,-94.93966675237631,-1.084207587458876,62.57550336596374,67.27238215919667,5.733723561318047,33.239240284439,-52.0693503606265,-45.12167919594693,-45.891065092726,-14.648392535712484],[53.388909852517884,5.0806256783715895,30.520197255470467,23.939854379292264,39.31532401346173,-66.32919811614187,-50.9737525646617,26.5469038055029,39.28535212995659,90.8049693439549,-39.83176085419559,19.96990284187393,21.349285526824797,-31.20524027376742,-65.72561460061038,23.114407048507186],[5.205502055899905,-66.32893593279833,-93.96220542171844,35.916005229157555,21.779606122811813,-63.54509380379145,-20.216312294997405,43.32398388452428,-19.928158211982367,90.60833662208807,44.68696619555182,25.977888460525303,-41.40701275041062,-19.656586102429635,0.1037734444379047,36.34659484177948],[-137.32612900282217,2.046575977699108,-47.742506959237794,94.48943155555483,87.14195694862342,2.149989026653498,-24.030229319697973,47.621799843231756,-58.719520677474726,-30.99847378234325,-13.208108073819968,2.4712242295772002,10.28926946123122,-19.1700811876852,38.813195932914496,-12.035660700168023],[-99.64950895288285,3.819870377275835,24.323352473379337,42.16865382169047,162.0713744130149,-49.32802259940046,63.48352237519219,-19.77139603555065,-35.081374963846166,0.4122380682023494,-55.60030993800925,-58.349519860046165,-123.93025225839185,-23.798164883222487,-33.530537383020636,-61.381473577576344],[-61.25416108414909,28.312756233707574,65.53818120869398,-142.7054165905873,-23.568236708863495,-26.44712464563505,119.2308272369924,-32.368594956691084,69.75561239595791,5.487654367839462,-61.165181914005274,-40.92917037269392,-74.31586420001095,40.337326658779574,71.8631026487022,16.135677091830033],[46.420628797746524,44.157079728633356,7.588049243197282,-12.69021284931038,-34.2881408930309,23.227133053911363,-102.97666064298714,118.57567050928088,18.379602152508884,34.64053596280502,-145.1292551316785,144.91365751092508,-35.73448628643237,-128.99653901098395,-84.6400730915688,-22.829438660482],[-79.2446680286208,-86.87202685751369,139.31398384210166,-48.10737094615028,57.844235342297246,11.148465974376533,2.4448368416751434,-2.7019596209216545,-70.6117885821663,29.463979255810237,-16.11625662254164,143.9352494879443,-7.809703815846614,-52.30036834096716,-122.49652087832327,-6.568793550780605]],[[37.52816875587831,-61.717309907294975,-56.18592337517676,-127.43826885299121,-89.16329557804072,-36.50106152755709,-41.32982076412012,112.87076054718415,75.30325806693831,-77.99447981053683],[75.35652005028916,-80.94973065036078,46.1879906183699,-2.7960542093343146,-63.996964041150335,23.060713683681158,-80.58134207308409,-47.731890482749726,-99.30603315623686,-53.845720741371515]]],"biases":[[5.228415013304791,44.70619922360401,32.81166066343859,16.79359017476346,26.639824675899415,6.87160271248386,-10.173256928026287,-14.581816415037832,-8.57597297344954,5.960069473090398,22.136683685966535,-12.484933514092758,8.728792619829646,1.0095549387836773,26.507411848854833,15.675762917892294],[40.08237639991165,-12.908539502238439,44.210075049016496,-14.692624471667804,-0.8891793673535731,3.3595045308758738,2.4248256310157092,1.798992593855787,22.236284412690026,4.311026316720275],[5.673368122103782,-24.551236992431868]],"_generation":801627,"_fitness":0}