{"layers":[12,16,10,2],"weights":[[[-15.467997079328436,-5.361362371829821,29.945612482974123,-24.175698047680253,14.568361009693895,9.700375281001923,-5.289106817187388,-7.703811282401439,-15.431888367958424,4.835184877462655,3.8011119585926045,-32.08665971280654],[-21.698011405814952,-40.481884982018,-28.738460207394372,-38.3061837352046,-16.320223707653007,-73.50355228857016,-48.10818199383318,-57.71815040529958,-11.041951228818615,-4.538672547865801,-2.9637748376493405,-21.182257181972602],[10.872639999566012,-2.8251896775978826,17.749106039500255,12.16153409324186,-59.64910912444247,13.695030265779426,-4.438686766028651,-7.883612295506481,-9.722574330700334,10.027543645121112,57.41316670598389,28.040472972239854],[0.25028281028284455,2.754529484824352,-1.4555745679298508,31.25683467514667,96.64942392871211,-26.424239430641684,-0.3497328816052102,0.4363392677133876,0.850408989217869,-24.93709872535957,-11.126204965706224,-3.20308828187721],[1.5495033120046209,-0.6350156400213703,-22.713847158462965,3.8401506035398474,-6.798303888143989,-18.363861946085905,-23.00579152605489,-20.908254452204904,-46.40927108589905,15.993391019864225,-6.255128120896025,18.090709378531614],[27.57782963515778,27.2235452324423,11.07557625333858,-34.7512751632204,-20.248605893639656,5.883910193707354,40.167549756477804,11.498562076556777,-0.39864621238282827,7.351103244595803,-9.971101223818604,36.289594073683894],[-40.265497848736004,39.27981381606806,-8.62566559481198,15.38694142468218,-16.665440767072063,-3.2876904919777874,-14.619668749727547,2.300996325685506,-59.68815319425525,-3.0542447857607127,23.227314533350533,1.734727817781353],[3.9340333615713496,-43.58933622434174,26.192285141829963,-31.387343328183157,-37.08658808613719,-16.601169448505004,-20.496359490664197,-45.91005430031097,-43.61469526264883,13.249049145140297,-9.17300488983241,-17.521747301062423],[54.51053709824863,16.914894714450423,9.654417227891363,77.30879226029778,7.389106738604366,-5.01357453088492,4.409444725086127,-35.098871115450855,-2.245059308212007,4.714806910192301,-15.810522309707098,10.21537206612913],[32.023512482595976,60.313809144161155,-60.55986317128788,-23.220658542994233,-22.074437206254597,-24.739607018467073,21.901709667154677,-14.512850741346393,38.90326382844663,-34.15755929327573,15.643742462388639,-30.702910483071776],[-21.856284764549287,-8.100519425582666,23.718131830527195,-14.295540785373788,-3.442989334123387,64.86780409140403,-19.39820614751151,9.491059215696943,6.520856384475815,-17.640729170464283,20.95151150001249,-34.0907593266272],[-14.584126429543572,1.444347730198966,8.306305678653018,1.984170000581102,91.78251746520247,30.59639983741644,7.3304125750172275,-2.230302568106848,2.3188400229399613,35.90746498364097,-55.65715696503117,4.498170318361792],[-14.414841956541393,-21.46103876202358,-1.3480592767506252,18.678630966529294,37.734124833577425,-24.742612109939593,2.5126010925226,-0.9663944864791272,-25.285230973068636,5.817205685708153,-9.390794774494946,49.208858133436586],[-1.687185319535288,-2.1335347362601187,-0.3863821157718714,14.309294869255941,32.182416379183145,11.26390068203192,-25.900400906367278,-53.135579273590594,19.380870217661926,1.4341947432301272,-32.95255812826894,48.60479700353041],[16.523531014643627,-16.538758736249324,-12.650474260634436,43.98101923561054,7.338305669612733,30.235219583940886,-20.1974147068553,9.380828250616567,-68.31778286029103,19.02052583797662,19.417723331136393,30.719547403043464],[27.591829219040008,57.343810793011116,-14.208696687367214,-54.84385450820462,-43.69916880371966,-13.910247728099273,-5.893061377336333,-6.44751331882988,-37.76504617687561,33.7265043748989,-3.143951199783022,16.5766398888695]],[[12.068734410378191,1.587263406592676,-28.897106271827138,-9.337733222335094,38.62372381904192,-21.120680612218447,-6.194919081142897,20.49412855813106,-1.6756346993679956,-2.6928387914817504,-22.31222820666755,15.694901409717327,-4.392317546914867,17.063593086232817,4.973608693104745,29.296602381462716],[0.23203628756560984,-11.2496066652963,-3.6987041779705305,29.378858144924767,-27.763260710747517,-3.9012373694748397,6.544690013229246,-11.802725811399057,56.17784871573896,41.069659072436934,-6.292219695702288,6.16981891720966,-40.78295159997758,49.13098312844876,2.39554820883211,12.231835178321791],[1.3753888872733546,-12.685774252413985,1.46743877740615,-44.21100802638764,-22.52934899389886,2.0723287468078624,5.988330693660986,-30.637412684286833,-8.51833773975445,37.89547119305397,-7.605066766711026,22.440021299836108,15.998377502188308,-27.102640961808863,7.727094163997936,-3.401256103206744],[25.825854093788653,6.31310813845422,-4.559674687845845,14.99063177976245,32.378705219747694,-5.946164351291775,-60.586911437303755,21.462867411955447,-2.171613317790758,30.09135186152997,-29.781898415739803,22.500288713050235,13.772034134655911,-3.6143636691510452,-1.3895091090971732,44.833694248542805],[-11.862594959283285,-7.125498195109782,4.844952924300484,5.556200327401057,35.57717403485515,-6.169787783048829,-24.192717902876165,21.860308789007732,-42.23040097442871,-23.61014715010868,-24.246655050857804,30.2201770821327,-13.157354293330435,17.33663307837899,20.673589645115797,-14.519127099379034],[-23.01260544438188,70.06664004977223,-14.746669547520002,39.36334744550014,-10.787301925194273,7.93545708555491,4.558076460858305,-12.713392344893961,1.990875891069475,-42.06614721410138,25.27143561569697,8.19028679755421,52.21108364179765,-11.474703536476852,-19.863425403519358,3.271722703744845],[30.44794381965348,-8.748051776146047,18.09444895379443,-36.977004745945706,10.428609356070936,-32.74164954934911,30.16673984740216,18.534327261023744,38.4961691511016,15.38023219515959,-18.76346320355105,19.079586557478745,1.1965858366795845,-10.57664877606794,-28.979431055010668,0.05031564610721469],[-24.11001049525446,-15.573297716849655,27.914284676967732,-59.38796747558382,6.726584462548819,0.6278740682406057,-14.291449077968544,0.7816982596475421,8.430664968348372,5.078992752013676,-1.8403250996934741,-54.43501614802136,-29.947571453159014,-34.35305910946764,24.448799218361813,-19.2927574020291],[-43.13252315779677,-26.50305459424622,-28.656930443633946,-25.644475269793347,-14.18943799168001,-9.515345998718107,-21.219295758573377,38.280721865088694,24.44737269778151,32.825895200656234,-12.044642123070531,23.164843655143475,-11.254250157228402,0.8018296764715965,-20.111403854923278,-22.847975479141247],[1.9956864011682565,-51.795801231313156,-6.43830410022741,30.683638042217954,23.82305870591038,-47.23165717347697,19.843025615695186,-18.258555189900843,-28.523788334125232,24.394058496607595,0.8879466039220183,3.1560113387436295,-3.90686475954291,8.11319694316114,-37.57558566458688,-17.475619421239195]],[[-4.7946581305818246,-10.77470961352774,-7.8259116151336965,-14.51643914314033,-5.557050169872515,-15.740297102758996,-24.218373121741596,38.12958399298027,13.856900662178214,35.81481435842257],[25.439396947092593,-28.958328453817792,35.47924081872398,-11.543447171368696,-37.884401987412055,35.23999900907071,-18.104967154553993,-18.93100136866981,15.589553304630055,-36.47467586218813]]],"biases":[[2.1817989485309575,15.8776260770934,-0.8054193814803019,1.8510470958806862,11.075920975898777,-0.9828309979904037,-10.494081434869454,0.9934833678790039,-12.974913673835516,-2.4703605595738707,3.6759047076080025,-10.300924371583614,3.7994882279120628,2.2521601993443006,5.500612243966435,9.330333156620402],[17.008245847219854,1.2625851418942342,8.686732073036932,-1.2285365239164063,7.619655169741864,5.3867038429223095,11.518666223834552,5.924172603886224,10.613273168045323,3.632723087427727],[5.375487225278579,-3.4199516128508667]],"_generation":161627,"_fitness":0}