{"layers":[12,16,10,2],"weights":[[[42.03871040640331,13.259993954556682,48.54666835149571,-3.329597654312302,26.0262157745749,93.70266496993317,-154.61744865697403,-69.64146246064651,-64.84292524500859,-5.980485438649888,36.7889574013006,-101.67793981075812],[-14.118889448007044,-45.85221576221391,-79.649500928449,0.7802863550492161,-2.299381242631039,-24.94935456383095,-17.848587274461572,-69.32393830441467,78.9259571931626,-40.29170591250968,-60.587105322712574,-100.39557653553547],[-15.036225705040543,36.95798877557804,15.706015424638887,-66.30185681750879,-57.29816427039736,111.06590377727144,-14.863380429974999,-44.47711196759102,9.987403470393357,28.408270203317443,100.91376767719515,105.91821057297985],[-61.42150456659571,-34.54797666035583,-3.4567749538751875,61.894620554207215,163.71027880819142,-87.59838027493231,-26.344162841916418,7.192056574532813,-12.455741844211609,-33.29278698874239,-0.04977870554597798,46.78945249419129],[15.367159431479308,-19.580047575852404,-4.081750757844812,-5.564958118978113,108.9587648616309,-11.827512740697948,53.15243373495983,-33.98955597849269,60.68948843184051,58.8669200749722,-14.700815822639138,64.83615364464504],[94.06569332941451,5.1885666012857445,-74.70185923484206,-21.746941103019953,97.63660716855973,-41.08017793459096,-26.10224678968815,23.395229704672154,122.0718294525983,21.870670345409792,-38.40657013402435,-14.97134273956184],[-47.70230355749432,53.110323088213555,69.79368181722482,-32.06618686205911,-89.6791967514274,-44.41674060547703,-42.242802454246245,7.3957572383930525,-81.40873269592934,61.779117267795364,-46.12629231272453,24.94054342113283],[18.659883472112437,-40.511887336536994,1.996115768130058,-17.13477824609139,26.32333206899672,-22.934626115222297,-22.240166188791854,12.292663317978056,-61.70313088918366,139.42319435057857,-36.97241418124346,96.961071847093],[-5.861714541368178,-22.115037308206027,-53.12711035309026,83.40109660447048,-11.326642084403902,66.83369664025957,-27.172752238734923,86.91757268938662,0.7565402594689277,1.0059024060693487,-28.462961967367743,-8.769929425823928],[82.25836798750174,97.45439356614534,-108.47139825666723,-26.3826539884066,-50.353446086812816,11.570271908823534,42.263162656114005,13.39571713330758,-1.3862383768920987,35.63815615132449,-13.699606710602243,-94.60277138989326],[-22.822693504661217,63.233080680604814,74.20326491436025,18.27210124107016,41.493237755228435,47.2852975012167,58.31365632340764,8.513853360813743,0.2572885644757021,-25.655671458917794,21.207247967550934,-20.722493725821003],[28.975480924175294,-71.92095014855697,68.28666309768472,-61.478634685035544,72.16199050908484,73.18768421542192,-69.34203726593933,10.294522110216283,13.865717696113277,-50.21246938052081,-4.512458727762495,78.41642245479106],[-81.92327547598,-42.65950713429424,20.797020090389992,-48.3088812325448,7.4406093295396944,31.300777591719918,38.216472861081954,16.971850488951464,50.04230803503788,-106.07759115204084,18.903238850720484,23.875497494227602],[-7.691683006380155,-88.78819032487968,39.75421099197008,97.03482545259622,45.9348622127482,-27.20990690989909,-39.80872686530099,-71.23774262845008,63.13572444480363,29.517657961047416,20.84977657054303,130.2987674889573],[-24.181019770050476,-78.04194936698235,16.448619980254456,108.62605198749256,-3.76712005416888,19.946052013934523,-15.020127309313297,32.4809210849412,-102.72565662877716,89.43312325031779,104.699917887822,-26.833216515729706],[30.23164627902758,59.402297801774615,-131.27721449288094,-152.63828849859968,-29.582749948575024,-13.085919049207268,-17.917019435715456,-82.8314838634057,-109.70208953969579,-75.77763935276259,1.7097837557825313,107.35619474594534]],[[-16.35155629317259,47.4575808435822,-14.505733684094244,-31.8707821288257,91.32428499661361,-10.538850938996754,-7.233137413463269,-29.27312219618719,21.8421526826578,-30.802075584859978,-82.63278967490082,3.2787673053898394,6.153504698161771,43.31928142847048,-93.24232079950545,40.287020558910235],[30.540699235984086,-72.97818985022613,-7.501508321496511,34.79980809193337,-37.89082538997183,-54.52587899541128,57.58718538533278,25.932139369638474,70.28637897772388,48.057242893677234,-25.35081919192887,30.13718899028688,-56.72177931464016,10.763239534354923,-7.214518811757685,16.662093290728624],[-96.36746722111242,-55.59896819539647,34.463144569846456,-101.24491324602873,-41.9275821224989,46.43698061502775,-92.25283024266864,-6.003514844665094,73.77063299945026,69.2019170585111,-3.5048840074340295,18.15131764063433,-43.87813518864935,-42.73156473155749,-49.38085066711913,-8.794198643294836],[60.84836794784104,-3.5064106273832376,34.823115157467605,29.75773090921809,33.88887609811877,-82.36122474663097,-56.23364706269636,14.371800121177426,16.64287926620509,81.49738930084297,-30.298289143041817,32.33735004601097,16.171548753545782,-22.715322778176706,-72.2765979850684,28.567616280500538],[3.979794489315491,-64.09528624290976,-88.55567623395035,32.28767369535898,25.150747924193887,-66.8795662723512,-13.925311051570922,37.16941899330873,-23.661624000804775,90.45412753365595,42.7989113643307,17.123358366764876,-38.52274835623719,-20.960555529143807,3.975381041412184,30.608097057620892],[-138.69953818542515,9.828344841972035,-45.21561041506612,80.94753288434036,103.91138751741012,13.111396556508085,-21.359104561030744,42.944639414020266,-59.799986485800765,-15.521851531709194,-25.50039810031692,9.568396001487573,16.903725551959113,-25.457446321095958,51.63274834702013,-5.239430846554472],[-94.91419319606028,8.514530365132577,14.78798534845734,42.3480913540071,163.07712137800377,-54.54932880922202,65.06606636175609,-14.079072068596743,-20.187395942574913,11.431248651666058,-54.184785944766354,-56.142685439566876,-124.68261618873176,-45.67323014215578,-40.11050174377508,-69.1390000500448],[-76.21542399909093,37.04142917399273,57.15730418387557,-149.02247522794153,-16.24640727063313,-31.636765852340506,122.96945746278318,-20.493510087454336,75.30456979294264,9.216090255694091,-64.15759383405434,-32.838359108441544,-62.15223356108116,39.05328976269721,83.34438730956752,12.97075322627808],[34.239733132748356,29.64267426948809,10.205250037382568,-19.24105934020134,-46.592145936821666,13.296067987426607,-101.69728464048335,121.85097401929545,7.317613552801699,48.16810522503314,-143.4493412687545,142.14322848363483,-31.05100336867393,-128.13618745954403,-85.5935780718386,-19.847208773228346],[-84.34085563625537,-79.52494978778425,130.25920111382496,-47.0511556480738,66.05607953710485,8.851213232452738,12.067217757605974,3.611889391459134,-80.92649338895936,39.36490612355132,-9.5082823228142,135.4960067800224,-4.2258009830492815,-61.59743546323361,-111.55918289181746,-1.1153865637825433]],[[31.266030539753437,-55.64093326834876,-65.05149173929519,-127.3147940269492,-94.22806990627384,-46.30070205643138,-31.217403866774198,97.36549394572832,65.44715607459702,-88.4559001489982],[70.22946253157298,-90.22408919411205,37.82723659287568,8.281721536472727,-63.746086788675335,26.271365233372652,-86.97865555303048,-36.79279101025278,-103.84955124922195,-63.25795762917106]]],"biases":[[5.849071782995921,45.8723414626168,33.154154683777925,16.51881739543725,29.119932368790266,8.44891567375651,-11.591422308408907,-15.456238651601875,-12.186065453931516,6.084172822760177,19.686778281499798,-16.436121616923394,9.737646126482652,1.325620093135226,24.584889985467274,12.088495390965237],[37.29231183623843,-13.243085794143283,46.141512004377105,-13.906308339026412,-2.010263135947495,2.053841386125225,3.110492278823024,2.5113540368234726,22.932981737122123,3.534956810788661],[4.980564122595097,-23.952070164553817]],"_generation":786627,"_fitness":0}