{"layers":[12,16,10,2],"weights":[[[11.265473563598668,-18.50689081080505,33.53928670829438,-27.223805857109355,10.193770221683685,50.451128919584,-50.94505034230184,-61.22550401882843,9.288134935102946,-30.024527831267825,12.357186853292264,-62.43897302661035],[19.773443854434632,-66.85543782233162,-26.573990165334344,-37.385901530726876,-42.193870286156255,-54.6937013251612,-34.432315256707,-69.17042398384447,21.59462873819873,-24.833667566949888,-2.793146106106229,6.822406196202361],[-33.50332225187295,-29.523282536038685,33.40321246995762,5.904927370082544,-67.10960321599781,40.60351040002005,-18.476804812441678,-30.35784578351195,8.15307174180056,36.69579232574971,86.78673262808049,9.035587377717917],[2.8873105022314363,30.690451292702885,2.43079311648927,28.470584163965004,129.29761406946855,-31.682145113752444,-4.550010019585891,-17.642463455759575,-8.342201147645099,-29.252526835095498,-7.59897107945383,0.6859477254881781],[-30.07490599923586,-35.809585223879914,-23.06093972554079,-7.0679563410070205,47.66048438942648,-32.97637947548519,3.0508189681107223,12.132119390918481,-33.9817935395031,19.03566397247592,-22.593132875186903,-7.9767791019594485],[49.909669601738194,-15.754247244577313,-35.46543097130868,-68.59433904168087,-4.699443507844609,3.7259308554440853,32.815184969336215,0.8739128883648695,14.435791510009217,64.84533799330093,13.84084156068862,22.051849744651893],[-56.81500118884757,33.029299692739976,-39.91666558588906,25.282130703190294,-16.84411141456094,6.080051919741106,-44.983448562376516,23.272367722549177,-28.430961817290207,-8.138535374631244,3.8920279386082264,35.906267771105355],[7.2441915712598846,-45.02396255689511,5.953119132168481,-24.47401237992279,0.17078200755000916,-9.533755920416041,38.850025351679456,-43.97261751991164,-42.85598975666404,41.60959727580907,-22.66755770217858,35.38156588501811],[66.20339173771873,5.106927554636613,13.960550279636799,40.741492808585676,14.228218274024403,19.06420516020032,-6.095907664027357,-0.16863488086673067,26.44429686856377,-30.41170681014102,15.774276650318527,9.805975552394557],[84.4088482242638,80.12412950011861,-77.58613919932908,-15.215955436988727,-61.95559891570319,-34.10683912508537,36.219622691352065,-21.388190299652017,14.342951674607086,-16.074796094444103,12.719467345496472,-31.968377009253178],[-11.832234676047062,-30.33879816304489,59.27519393559757,6.419186867311159,9.786382719264548,24.043962948590153,-11.1579857518839,5.588548741225941,-23.732033736082986,-17.69590773341383,27.64652373600309,-47.15642231299809],[31.976991124081938,-5.022332275939534,12.222993794038938,-25.880620637180886,122.44514048020991,26.11791959745512,15.666100686542778,31.786951892973526,-31.37357154406156,26.84789080754744,-39.44336216860562,32.54611343497126],[-17.47383578753161,-76.69402532732863,-0.7617216485172407,24.046586933061494,64.4323214595605,18.23294020700788,17.042574760970854,4.861103007874683,-0.5399081592661872,25.693917465374565,-6.423347159369397,53.83476765867588],[1.899801323707003,-9.339413490066521,-27.22179885858794,15.410716213676514,98.0005987517474,4.7760273524614725,-49.83434767990738,-74.33118582821905,20.968346537272897,40.06458447960083,-9.111788423623931,70.13285866980866],[32.73909174610816,-28.434180299396143,-20.69361164326221,68.57922451832297,17.814715870369465,72.21112486763927,-24.63616449593781,9.972233196123243,-96.64129579974436,21.865685689116344,58.569116193615564,30.472907637398507],[25.81848181648933,33.49963697005695,-10.558585463184276,-127.65037646031418,-56.60120769620916,-28.1294902594026,-47.490891134225,-43.6877329914231,-31.379324503694082,6.476102213106654,3.365568704419302,63.27398579271135]],[[14.513576636881844,24.15142993654503,4.454547473766868,-11.623887354195388,67.3891794531095,-30.50170686688365,-19.503939799097402,17.35527419457007,-29.757148027917665,2.1219856919036895,-40.9693244498141,31.0811544920571,8.358035122621303,36.928554645254664,-37.70809004575085,22.702885517381212],[4.444389033350106,36.44427208894568,27.17055487610833,30.930955168064795,5.281452538649933,14.275542660708576,-7.42910709270344,-23.169634928641273,79.5689043555548,27.79275326143622,26.953713345635215,29.71792504825744,-76.30504967961343,61.96927897162114,-12.731663449796411,20.86460688783882],[-21.614231934735034,16.91221803047228,41.425765122908075,-80.25122899475116,-47.919733148175126,10.34260329296699,-2.5191868676462437,-57.92678302572008,-3.7113474747046133,75.57733000399497,-39.531562517514345,17.56636201032486,2.4829748014822943,-42.71305520976777,-13.815162206104022,-6.984913368238134],[25.727906333014428,-4.778723443105959,-16.102026999735955,18.218745189881037,-6.890433547439711,-42.50744891762397,-48.961474132732036,20.44331399794798,-40.48932880422897,41.20056887853246,-33.339572268666394,37.066517138099556,5.5189916472276295,22.302788777843023,12.083774292693091,36.986378524694565],[-27.621050488860835,-17.208137248967514,-13.104508063513762,30.094075642529884,15.779038848964728,11.244652907913753,-5.890475728661407,38.957550387237596,-63.14620210495151,2.9587962901788867,-3.803109492238939,53.429461795059055,-46.70049523178119,-1.9236371875877016,-4.996709183492247,-1.5555202766400675],[-33.53275334791152,58.79088675030795,1.8858579192190372,56.09941752342211,12.34152826660161,38.18457946851437,-11.804759309236749,3.288857467432258,10.1716632374931,-39.33323763138106,-11.521333050832238,8.666301582175205,34.510614534870676,-31.85693437125808,-17.26082267373411,15.820384840449925],[-0.42408769156268616,28.964880439828864,4.5552030890305435,-23.237092162643236,39.55539046082711,-22.882194954413087,63.87646019358013,2.8494581658596467,53.816747714599956,90.15052538862744,3.7907448962716876,49.4228230957208,-15.937659882586022,-8.67693315311041,-43.63634349522626,-17.924055042968558],[-22.37569745218947,-19.561575756653696,19.717636449474384,-80.93379418613581,-12.656834023147324,13.019414692280586,5.713428978357368,8.3913953756728,34.161147394784656,24.303055016378217,-11.517231460963266,-15.263488803713795,-36.06054993737463,-18.697565167701846,31.394035734301003,5.760160979478944],[-2.4427103000797485,46.902145998961394,-11.776299046854469,-32.417499740463434,-15.970479810284044,-54.827897375788595,-44.623208960667874,62.976808231012576,24.144763514713183,30.159668549079118,-51.05515573271429,53.83071421104978,-21.3073638030983,-0.8115664040203248,-4.0066358155869315,-7.5521662910996445],[-18.53725653460603,-60.453878108259616,33.21150087600018,57.723570631127835,33.60210813146218,-51.77523155846036,22.39830773501569,-2.124853835150245,-34.07895376404295,86.07254463207697,5.307058809292277,29.62957388733249,-40.018902860740425,1.3119521230386766,-48.90570458655961,4.231650656603097]],[[-3.325467400355889,-14.784798574882151,-8.209024017480408,-12.388313373992268,-25.191979856292193,-2.668090688639613,-27.42773139380631,72.2937437321333,32.657718373383176,-13.954864272239037],[76.67798688781598,-35.331882957021946,23.684027220175444,-1.0938547600427817,-25.87892999527662,27.257572490933317,-67.2958775868438,-50.1641254994917,17.519893725583447,-60.71181187889289]]],"biases":[[12.593568677127752,22.426215008527112,8.97739075442378,19.0293642830612,11.372377188102892,-1.8660107451842758,-11.369977154238518,-4.026501194499808,-15.894713477765317,-8.455293408938452,4.288165140076053,-9.60477552802585,13.280479778335112,3.5006910885145848,16.328393287684747,19.399277911262224],[20.455214464269154,-0.21514131527461305,19.24519202514792,-4.286487322258255,-1.1017314190353928,2.784738993872948,15.504571769422547,12.280301827281246,5.240237171234115,-6.116273729368568],[8.140514562412243,-10.01015354768514]],"_generation":296627,"_fitness":0}