{"layers":[12,16,10,2],"weights":[[[38.07031768774572,-8.336385196949747,77.8993088892474,2.870894575843968,34.124471789780856,43.9633116031565,-89.2686570982234,-47.47956057193725,-53.66926508285975,-1.893890598931762,-22.615444825989382,-68.56908812504496],[-46.0322461455279,-60.20032143085742,-53.85328340859373,15.884321497507258,-44.23396577783357,-31.896344499758637,-63.99415424123993,-112.65227334723946,63.74643132241013,-36.465238711656994,-63.15970714810872,-60.775686352982774],[-12.07262676658621,-34.0754142342183,22.242834415630824,-21.277154364247842,-61.09636354395269,81.33968911604946,-32.11842189535833,-26.09992323620138,37.67990781441197,-3.7906501512982143,84.66698858633772,60.94304538890943],[-55.36979035884517,4.494114712428777,-25.542337443704213,52.55176536925392,175.73211006120533,-111.77342381781332,25.826184372879215,34.1519503834579,-40.05296416537254,-23.320829060691338,-6.609283047589032,27.591996954046106],[33.22150876198174,-46.71801865608167,-2.6241513096169733,6.349592599696992,65.65687601834338,-25.327297112220627,46.667095630206965,-32.48317880841905,14.951641463710555,33.92525848893207,-21.049489308111408,33.83698013151269],[58.48365890099411,-19.108876985974888,-58.12055013855204,-87.76390445050002,20.045663306758154,-29.914033196920272,-3.6320931864611223,-10.846634806054212,89.29418544522333,40.86429432562201,-19.99322369407577,6.493077613550959],[-48.07586851820638,13.277020939412866,1.4871648256990286,37.369697641530806,-77.9532195391406,-39.946759028172764,-59.55338812777102,-6.691626995960691,-45.19058399212666,28.979084291853813,-1.284745162048424,62.28110473184867],[-0.46725919614831535,-11.5399618803985,2.0541524673412623,-36.54145913710549,31.510720299489897,-9.191273238080683,20.829936015283156,-31.636824723212513,-44.454636237441235,74.9310169939639,-17.460743227518286,116.33405593415668],[-1.179364168953571,2.458273211335753,-18.5450704159523,33.13460905885282,-27.545028911465206,82.3602664194656,29.166031757332597,30.24654634070671,-7.867496812890937,-4.135908205705174,-1.7783249695214909,9.973301750025948],[65.06930094701113,105.3300341372892,-85.2181414644873,-19.04395782238389,-43.72553572061742,-0.6588947655243721,8.893565454517159,-2.3916938993837364,13.253815418724946,62.10818005855104,-13.70786548755138,-68.51022291400021],[-36.51484942879412,65.14006002583587,48.87497878291442,25.324715558426533,28.816686687388174,57.767989682791985,16.009819870326098,26.82252949189037,2.6791690473037977,-26.06065924700281,30.55742126551053,-46.99387698090768],[52.49705345632282,-28.229046559648644,40.273106546286165,-38.2957328253956,102.18392989878855,51.03461088489687,-18.12977940625829,-3.253987644051664,6.192466664082779,-4.534846755797853,-13.719789349445477,50.54989921450489],[-86.26042206714176,-39.0533282457965,-1.5156264080331525,-47.238017295868104,40.53708086366745,17.72305971887857,40.87351084849127,16.735957184901636,-10.229990383747783,-91.49932095678354,-10.385681253785565,13.976123655255357],[35.418215011107236,-86.4495100565839,-8.65483719365806,34.31194638251203,46.76593293009076,-27.380207815093097,-52.57114477204361,-98.6954964900547,56.427566890240755,34.88450226527657,1.8994248590213434,47.071140422119164],[-5.023034972814964,-29.05217930056453,-35.0548457027529,122.34804227982991,60.46364656199958,52.35130384200222,-15.765115078887636,34.07403343918144,-91.01527123218385,80.54002498003791,63.104527464001805,31.261918054764806],[22.771724326431368,71.35512191729056,-51.14189886402191,-145.0618898960828,-46.81359409720657,-19.640590529888296,-23.808998315735376,-62.533325861004215,-95.76049837592527,-34.52117631208401,22.007361390326956,79.69688917540944]],[[0.4931847754269082,49.35302860528979,-34.68462063910811,-31.05618025124325,89.71320250264414,-19.173712497550603,-29.31833344179935,-13.5551109169927,-42.66637364784801,-66.44458660557784,-63.25578100068657,21.89217958083957,8.175587568195068,62.83133191798483,-75.10587616516722,56.63230361566841],[-8.263495709669046,-60.06440160649675,-0.7832180584539561,27.028967227453943,-14.737114140184083,-29.15438949282414,22.630919750853547,-10.791690418096985,95.06619773506999,64.4197239859095,-27.804870487657194,-24.213975424830824,-103.85305422374564,14.39717710751589,-19.634935369223495,8.996239579045033],[-77.87452726119598,-25.767344243349964,-2.7036118533625775,-41.54784396692292,-64.14150042564587,54.64678987134151,-44.99882013169995,-17.25961104406552,42.79175488965498,105.19817378093455,-29.00070446867241,10.360600811740104,-11.954249537230844,4.023041988785808,-18.854519006271474,42.08390895383663],[94.1611246220587,-2.14053622510965,-13.511661897103302,-9.555433263146677,49.548204377392764,-47.328737330854295,-47.805837502850466,32.591076284097184,-9.911396465721035,72.18634494304234,30.271155805130917,27.96104844593515,35.72415490410824,22.229539638403907,-43.85567286664528,17.92680383357891],[-9.067872122609927,-13.956285086254594,-77.96314347479029,6.487957614382618,0.16960994213692202,11.216936252544995,-18.275386578123108,49.07940383075302,-46.3054445824858,62.092281467846924,29.129040050151566,36.54208067920038,-48.77967981522089,-1.9592876527332213,1.739730911723517,70.3752524103086],[-87.1513603901592,25.52168749274776,-32.159357836716104,61.619413914769304,85.98048554397803,48.50285817098205,1.8409012040711679,-33.95114500799166,-36.14971139979035,-72.9752397268848,-57.45826108115638,24.315385926587197,1.844242409939858,-47.44025113135506,39.969581610511256,0.05269209054019916],[-66.53464662173555,18.06222738500449,7.891660336579412,22.540982195629272,96.72614092804203,-43.59959188934127,26.916781394094503,6.480114586162798,1.5608652873850797,60.09128581220917,-11.486421026817126,-33.65378796281662,-88.25483308823581,-40.453966024844,10.336382164212853,-35.53843163566954],[-72.99820800373162,-13.076322478909063,50.65841117457349,-81.70259710907888,-15.501648422153963,-11.327022153143712,83.08341152752263,-18.484376648581627,61.165032352308565,51.97827939630862,-48.53075360857353,-33.33395045615317,-58.375140031798836,-5.692496037180042,69.49714283061337,13.780109496627832],[73.61271019269329,39.1038631802326,6.218030423360778,-69.71540941708673,-16.144185130216893,-28.802024535686463,-82.32804086477853,106.11800058447169,15.042303870545071,-6.674791732580633,-124.2368759795004,84.38460891947389,-41.87809107804668,-94.44625712881559,-1.9092089589879342,-10.713686689650022],[-82.55990789222056,-72.15908395909365,77.52821378276964,-17.249693594638504,20.60153647284492,-12.49583253584082,30.02535708186205,6.662473817725449,-37.41802298844083,56.92653682246578,-2.436050953194693,55.93175715358704,15.044864491908926,-89.98518104732572,-90.09303889052222,10.423642138224356]],[[3.3034198807310835,-42.47138141189476,-36.167589597843985,-40.760261370624804,-47.953177046532275,-39.812287972101096,-37.01640732284191,97.68451122684998,97.56880732000073,-16.324781969876494],[8.736946403082896,-50.59277885701726,45.14970755392499,-5.829622508164451,-48.264585204980165,40.2916689495822,-77.20427427523967,-45.27864072689085,-51.83995299408393,-73.50605274964774]]],"biases":[[19.059674983328428,24.657293106622184,20.857719592162848,19.607204388009205,18.267891235928783,3.889018612450087,-18.72360579607096,-5.845189563898905,-11.214845564729108,-0.051863991051078015,23.725025324207923,-20.54346249061062,14.200833834068638,5.281239208653679,24.11083381095476,18.658385078678428],[19.72211298195696,-1.1925079027721246,30.312953098989073,-2.127902843553785,-5.377725640258442,7.518586211708022,8.207851018208391,12.004599724127598,11.678036405996066,4.707570753882281],[2.0870346481904316,-6.565853434215102]],"_generation":566627,"_fitness":0}