{"layers":[12,16,10,2],"weights":[[[27.428210121922138,22.95982798417552,86.30868052751956,-28.380861145916207,38.18941630937621,30.614066762687145,-80.6256746237613,-78.33272783591377,-29.166958099453343,-26.90907766047863,1.580456564769275,-45.213266025658186],[-24.447860693216573,-45.906979618379175,-60.74430244915163,-1.110515647492828,-41.12793443762826,-34.08565557439634,-56.19008601272441,-66.7878037589189,55.006330046003924,2.2717004412802977,-76.75490229648679,-33.81456163007019],[-6.414081426808872,-22.16298707797624,13.709513745714725,-13.167586044492865,-40.272198181373476,67.83607844982386,-18.57313733242118,-1.7914807796748962,29.035251836628056,10.494596328510426,66.39272881797271,23.70270477095435],[-27.197489422915545,11.65577903774374,-24.869024249487186,44.76067940476757,143.1248815904349,-104.8850789937947,-4.1217833432778175,24.35896953662005,-12.011809952213904,-4.588940034685638,-2.9404508868827466,38.588508012357096],[-5.448853589788466,-26.474579946491502,-27.893686190701736,17.854017712937917,72.6124894932711,-14.978111192956332,51.501616648455915,-12.097940242378131,3.223735453086378,17.57443755199956,-44.65895331062134,-9.941328779068249],[19.603959911940628,6.678279696573652,-53.45499340230925,-82.58999136846828,35.81823792191169,-9.714917076797192,22.076298611554808,15.405987622675061,103.14464705512368,51.45634797482719,31.546662320280788,32.10474825566823],[-74.81229620813016,5.195340799331392,2.222505512320535,24.341531034695304,-20.78647343369142,-14.526744868613665,-35.59738496434768,23.780294259446787,-31.956886130125252,-17.71373145584942,-4.955069384245311,22.990219296257948],[-2.7297827947458484,-65.23396677348907,15.357472614276324,-52.753202155794746,31.475265989512252,5.016293940144228,36.755150684525056,-41.06584314814287,-49.04184769430722,78.99950032135732,-63.005714323723645,48.321041402280485],[39.809199734507004,12.645302023742786,-36.71119297378297,82.63225644570534,-19.93519242580159,40.11324013908343,3.7292898894419255,16.854366905912325,10.387940917761112,-51.447634521455306,-18.73866502771702,5.906059887338455],[71.62812733048257,112.76859982829927,-108.34614109039498,0.39220823963185225,-41.81632582327041,-4.535952017838361,27.942642380131833,19.10405706038224,15.207464499699276,12.057653928168156,-4.27188751841411,-41.17850885209015],[-39.543545071698915,23.399062641633677,59.12664215813103,68.83967242252679,7.105007481833562,47.231934894822324,2.954396590836279,12.447072810221364,-23.16694036648249,-40.37557021604013,61.27389599686165,-65.0651551175267],[56.88322408399061,-2.593478102102878,20.17383914467681,-24.325745473407874,110.13619218288964,40.03272535222797,14.461420605087243,15.60622859069159,0.1818856457308944,-23.53236243864982,-35.21241136618722,44.17538656925711],[-73.07685504228323,-53.66686647114203,-17.501755511744395,7.327954321809813,60.59454065462139,-3.253864163596821,27.081588747747467,10.892035854202273,2.8652967380021193,-95.76937769326197,-31.839899533505164,14.864409707459572],[31.15203398683927,-59.14438080640053,-50.79699849075883,40.505451249480295,104.43746671972993,26.982383669878196,-46.47719110548307,-63.63758726385256,33.48299853226942,57.44317503330807,0.28425107462372734,68.17210923633947],[5.257306860172081,2.438619007079379,-38.83986375165564,97.15912537467896,31.653649770549304,55.42732033331152,-34.06665601825729,38.137326150249315,-101.72315457220763,71.2257143208471,71.8227462014167,48.347367952054356],[25.970236733722864,52.58824033027956,-48.644132709757876,-138.22396895514225,-71.00348270766582,-7.622798160497706,-10.500908057906187,-43.30157506822452,-49.569356471849915,-54.34703736936791,31.91596922469851,108.0618382407997]],[[-1.1713972130176606,46.343525653902105,-1.3009133994991748,-33.67799586814121,67.62220048221653,-20.852111195690302,-40.55359830403515,16.291697318309545,-50.505054966637694,-42.41491482896795,-55.10573996958054,35.36871584490038,31.07861809274714,44.89782232344138,-53.7545651518098,55.16965520574601],[20.00414741817426,-37.37201453599511,16.529145724074883,33.129713718452294,7.279498785400929,-18.51509911759232,36.94866937351887,-9.027448515287315,93.06304223170959,41.92580934025379,4.765565262673691,10.459913396351325,-53.50732631693093,38.51307401340767,-13.851709402487558,-5.173395126498672],[-49.31520165219815,-32.23834001880381,16.09395652680126,-81.61437761620718,-79.88899129857492,29.12268360003073,-61.67467411802861,-28.29279672446267,16.112408234873172,89.50117781725065,-32.952210120495174,23.273725734661276,-26.18896491095815,-30.817108215760552,-25.757924355879453,37.19102814778139],[48.60913632556341,-32.08546982713001,-9.089335758190517,1.0540211550169196,38.203323266088404,-35.06243648995069,-41.05119999514077,14.933263972902537,-59.461409299115815,64.81943345878891,-4.340630688877049,24.104466309814594,-28.00665752651318,23.964676933530793,-0.42712095183770105,20.99815242895754],[-24.074421292365372,-23.66474063357202,-61.943245776922126,26.818611320668367,-14.75127590350155,50.13553318925741,-2.645979037452725,41.26210098144895,-60.41156499029984,48.983101608680805,19.687819438223745,62.7572214379396,-38.34191050616413,26.780329260391298,7.755744061417595,-2.8830339540218834],[-55.01417538858575,27.21696552008051,-33.87142725085555,57.11080623989345,45.229673568901845,46.70355018511627,-14.402444102353654,-17.96189590683814,-15.447452704660591,-71.42895632378305,-41.54474422200314,8.454976828165075,29.503822635769637,1.0669778903335907,32.686095368412396,11.784159245744574],[-42.61355941490458,-12.701692601083032,20.71697140749782,0.9035211327569006,76.05840115871244,-32.67644258666776,67.20405379168845,-21.119256158032524,12.634551156351655,53.77403735797713,-37.218127188018386,-34.591381269871626,-52.13597591672446,-30.60077678190532,25.64143942253428,-43.659235013016136],[-16.055136704806685,-38.85362590325422,52.60853403079651,-115.99273176963014,-35.40962723770743,25.19367835520074,36.258874697993676,13.421230552680113,31.992015324157187,65.42805623987009,-41.16033800688452,-35.44807959441913,-49.822839230353765,-2.5627181062364404,67.472373624195,5.184971277461781],[31.702142021373096,29.17666457870258,9.778671245064544,-52.528802167034094,-39.22071595792236,-51.137347586184056,-61.948421538416525,102.34386802700283,6.240244438689384,12.972728418886778,-83.0365593042168,54.36031480541181,-25.594504964704093,-49.19347580003731,-10.6857450985644,-38.741145749750615],[-56.81514342494764,-72.69731401446774,31.189755449583537,41.339472123179384,47.28856866525437,-53.40055024753222,38.88318538071253,-24.46541126222651,4.28302921263642,91.96925102307955,20.709805130869977,34.778355288908294,-3.243774451373649,-38.05018964947326,-64.05760826932385,-5.45608670503554]],[[25.401856318706585,-7.301175321925852,-32.00409963552144,-30.764110684218547,-55.35013310073536,-1.3395557533289701,-37.45797165302731,86.04260708768808,97.71115220835307,-31.951629946610435],[17.809423341731623,-41.941554193504395,37.6910819516217,-18.07337841382464,-27.840777392634347,32.097988880990044,-61.1855044771554,-45.858171415423065,-19.56933911431985,-74.0775277772609]]],"biases":[[16.883214170096206,20.295339840495096,22.912734823384525,25.547085447654556,6.8819168306825995,4.011928546084636,-17.712157193665018,-14.530378018529852,-6.976131126260383,-3.3282905572465644,15.528947064792197,-8.721667026676146,22.476629355761247,-1.766449452891821,26.412112435072608,16.708289743331203],[22.968612325974753,-2.2235422080979608,29.17840484071186,-2.8733230059642865,0.1967888708309722,8.951597537231667,14.005006559157614,18.266548108587372,3.3613968155312413,0.5774827866903363],[-7.593994639025854,-11.268151617844257]],"_generation":456627,"_fitness":0}