{"layers":[12,16,10,2],"weights":[[[57.49872828980947,5.961142770478905,26.98465765446716,-39.516610628773954,3.4958756914775804,100.98082233913765,-151.37785973616928,-60.638455656621176,-74.31676673708421,-27.647316698742394,54.277748841433485,-92.68343863069548],[-49.35048647801156,-32.71307106369347,-81.37046016175911,-7.1282012995811295,2.6865142885217543,-58.7646797737295,-12.510477283584356,-62.927799036156884,89.70551882447567,-52.596029790064016,-50.37714231860144,-102.72586912986414],[-32.62584859679925,47.914308134599985,30.535442797404663,-64.8283182347671,-78.08710588272473,138.6163320398367,-11.441970946499213,-52.55074123532945,3.8418952817053347,30.37457160964192,112.66799605924018,108.31940732210913],[-70.0334070041056,-38.790556777584925,-11.011637655108347,45.42019414765057,163.1677691063034,-87.82598407393861,-31.657943255143405,15.010323680306723,-4.4902211935989,-16.545407769314213,-3.803357013590919,36.78355292897388],[16.42156668713534,1.8215192325274816,-17.421139890207982,-17.06606954787755,125.86608243418881,-13.86462116526777,56.402637633103225,-41.31456642622268,63.42580297113758,59.048854528882195,-12.98738970485383,68.00196696721436],[70.7071367299575,28.168659929623,-91.55205153940116,-35.69128656652287,124.78780394063631,-44.9037651321458,-48.547367247256844,11.013372771034495,122.03000958834744,7.173022330045599,-22.461441693266586,-38.18871487863658],[-61.96988258967487,45.089210492898296,59.03763107500116,-29.327638271700714,-110.21720641702231,-62.49333427562444,-37.66376125032687,11.689411847218002,-70.7603448065503,65.8786676998968,-51.46497022379584,43.25235101754825],[6.923100615697633,-44.1111827423406,44.65304940287226,-9.847082066237492,53.938473971204,-15.235462389604479,-25.48889501926448,18.671849310239185,-51.38296295988162,124.7129749547531,-79.4813964718787,97.55685802502643],[6.318185013236962,-38.887657200455955,-62.678414651028916,57.78148820641186,-40.66437949698286,56.595548873442134,-14.460257878616439,104.83352870980696,-2.868367218393506,12.677777938721958,-20.667398919523812,22.11733290572213],[77.61068778931127,97.83861711259169,-104.23664518076318,-27.22526359481851,-61.8098101582399,36.50294666317914,26.185386195782424,-6.3609225391632425,-24.558337651077856,6.114312073589776,8.252395797426862,-97.98940269367245],[-22.144011924143598,52.67812495372726,58.58821885030766,39.67826245037438,57.82260103672427,44.53268726058825,73.90121679359363,10.418872570438438,-4.066903507289726,-14.104375373685455,27.1449395139661,-17.703508026195006],[42.0291985520465,-87.3551304510906,66.05727567630217,-39.16865942602358,72.43947406136964,72.6324083883213,-87.25210624195644,14.702869703644357,22.151405268922048,-70.97952331040021,13.169262017009318,74.18014912708408],[-81.34293253891882,-41.47975000497891,30.352369028624157,-49.07107693927061,-0.4797664251814711,59.526688914662955,45.11567231436844,7.323748114935457,55.67255410149345,-114.92185100348792,27.694633295365122,10.389699770667814],[-25.266501859172553,-96.6956007021247,49.36598052275355,74.28197901965582,43.0467307158092,-31.93248279282928,-61.128190394012144,-67.31997813334027,57.105416525351835,32.08679314233322,17.719844482934185,136.5863901481891],[-9.957037129596658,-89.60626589443766,-2.406775545042528,107.41564985126634,-23.440119551629948,8.304202470520476,-30.5407890128548,58.03366458539761,-98.62461852086916,86.29019895043886,91.99919850810623,3.5536173896157663],[34.072586752451386,37.475091890377364,-123.16689215338718,-148.93312760052112,-31.288170639201965,5.4344383049072364,-15.362232129719654,-86.50930742882532,-97.80485396477259,-92.89754108797737,10.875297057595416,130.72194083537403]],[[-29.491990660082678,34.87108212953623,0.7405884312866349,-37.0699677173421,67.41611399405383,-32.48909138224115,-11.255817177503541,-46.848320517673876,1.9743934976606927,-14.780299966443181,-92.67919757008289,16.01227924015353,3.8618065153746177,54.48288904759546,-120.62252040627847,50.303583892558876],[21.558833078795537,-77.62597303286708,-6.836703210960866,54.79376110888308,-18.4054688799189,-18.793938399258614,55.51749387606196,41.1862004558431,54.14780788232179,69.85611826648848,-10.962469208008377,23.16231702350249,-79.6445019558058,-11.52548038972628,-9.815585176183653,19.702121069496997],[-90.4783438460227,-59.531660728037664,27.654679439436258,-115.88479997988782,-26.316766799507146,76.68901755634495,-100.94883934401186,-8.858255335968334,70.75406681903257,61.747675040382575,18.25614032082475,27.407933577695054,-68.79117480512049,-54.50973033913346,-35.958478423494704,-1.8343790072815518],[73.44356709237555,6.81998593136329,28.253630861467443,28.65485588117894,24.68668861019125,-57.85619086253108,-64.85779841639258,36.08731567521127,48.43889188477501,91.34918076311916,-43.45829970687231,-2.017088132354708,12.230517851085393,-35.70937471553572,-46.75846258998897,10.596023897116174],[0.33741503075259993,-80.59005806607448,-93.92814720240224,27.320203739468916,18.32282740553415,-79.91609444928059,-15.009748803511464,52.683237231068915,-43.27490540786084,101.10785400376027,54.57294383187479,34.03268500229537,-45.12305308117843,-26.617318485542757,-8.124936725825672,33.085688228228584],[-130.63675092396772,-2.9417764985572767,-29.927016106140652,110.62776488203876,88.96736996525816,8.53122264739494,-39.96696144066869,52.437077563756986,-54.36969140305347,-27.601034968938524,-12.196593940948121,12.778438382443118,22.106042887956196,-40.941989962195265,35.032356422568164,-15.642932064154445],[-111.3059706637883,-6.622243795686805,22.833084191225176,41.72380837604351,191.1490976083076,-55.96595472037374,84.69633693611539,-10.379559949119347,-49.497150759889436,19.040020306072673,-78.91288899868762,-67.56322275243457,-124.0021917628823,-10.149298959616296,-41.691461594473566,-58.91838584772925],[-72.44928407345894,-5.725990009286057,59.695894731522735,-138.3968083243761,-35.578875646509736,-36.339092875981436,145.01236204394002,-38.806318062252565,78.89203051359624,7.873285987743887,-57.59432688156403,-48.212159714597654,-70.56333524972393,39.15687288416736,70.13175885598827,-6.638321335949815],[58.118664865183405,53.235676950724034,2.7782856865890118,-12.408120627360107,-23.434941432633302,30.444259001027163,-87.09790637387228,117.19412337078867,21.815022788680523,18.11900551594611,-146.51660253817482,132.8868683332946,-33.99222361370039,-131.98306914094528,-89.23808365269859,0.42413627887533956],[-76.79075435210501,-62.05700036238222,151.05206158736988,-41.037133650009444,63.89170231697789,6.0180645773746155,-12.002608817849737,2.094173955183069,-69.1937915107785,28.574281832837382,-18.931095173879662,153.26711596249604,-24.06866749146127,-63.45724080250672,-116.05958171522427,-19.342924387068727]],[[20.452189841246856,-76.19248136612337,-51.802353513193,-128.6024319564866,-82.74342250216752,-32.40447946367883,-21.501937972223065,113.14054218504278,64.96577123347721,-92.52654044749698],[83.64168038291994,-106.05162756057442,47.19370951329558,-12.087247837748258,-58.83290798406302,25.598258745232037,-80.41559002406753,-40.22856151910508,-88.79622796947014,-57.803683207805676]]],"biases":[[9.096763029586661,43.00479504470044,34.058953406217405,22.47707600463087,25.892058135800266,8.712044889502778,-10.322816808868488,-13.96738185087309,-7.031492164348284,5.7759243687627375,26.726721073259768,-16.140283636750166,6.574548227415845,-2.8578170960054097,26.90329679957139,17.085571877825974],[40.301511517968095,-9.453312320241853,43.672068437594596,-16.180505352956366,3.060600650419805,4.987547405227241,3.2353009999319258,5.4914292215088105,25.683531727510825,0.6947003305903956],[11.488341778965344,-25.431527351328224]],"_generation":831627,"_fitness":0}