{"layers":[12,16,10,2],"weights":[[[66.6003116351107,-0.08145282271675401,34.382406720476624,-47.485481913837326,24.686153930547125,102.6881047789717,-172.56873763005694,-67.55241948010243,-86.71936697766475,-35.778788457969306,63.916092674269564,-91.23791652005326],[-81.90076563376968,-26.25402741728871,-88.99500553183073,-12.261840153972285,10.407278900901684,-75.73586153632495,-4.450608587868975,-57.26629108194657,69.74715258042254,-47.6845553018516,-67.0225779709821,-106.53801602410806],[-30.393910585468713,52.79841937992616,21.754182570280225,-55.297381905516225,-98.22903184585775,125.11327458407911,-25.347689189705488,-67.56207657008812,9.307161108569964,24.571388535107506,121.06081256076983,126.63966018450012],[-56.88517415315312,-42.47434905304715,-13.879140062060923,49.03213044339439,177.75281379813933,-82.12199194888613,-18.730020827410858,5.700207999432365,3.3709509060954,-37.425349009743705,-4.968765429411345,54.52819010388524],[8.937593095345516,-2.990775289533091,-10.001206856928457,-12.102636425905265,142.24448501088534,-22.125643279088255,74.06586949338163,-35.59240352970628,74.69153408430495,71.26363222974628,-35.26420042633498,56.34027670582876],[46.195377663979166,15.442233427298738,-117.75728497714535,-33.53797491925856,98.0894090845517,-37.8103926266712,-29.926400958137975,19.884883442719772,149.95723572022916,-3.243984886554855,-37.42383909130618,-45.53392215035714],[-38.10923484187867,43.84252055325886,78.8642637130736,-55.75651656879829,-100.65677300649224,-61.881433247827594,-33.385833445539355,11.921383820757004,-97.30084964787355,53.04614878719761,-60.17200965134161,51.48456644627633],[7.0623526701021495,-31.468167219793305,41.048777436435756,7.3978594192252904,74.4241407709771,-13.603687879089108,-47.753132735866416,47.23178786790342,-48.24653450139501,107.43350865571043,-77.95608150602703,96.54742582217231],[4.4986892016520565,-39.389615871733035,-57.56812339826044,85.05042893460225,-44.50441084492688,56.578093179179184,-20.695765787160692,107.84121821814902,4.62504161893424,14.37702130613351,-26.48333900921349,39.250148459767196],[46.732600813987474,87.27297027069689,-94.72976305023036,-61.832452793285405,-63.046045919460994,31.646851700913505,7.697353932279239,-1.4130850558928756,1.2669750001541544,29.34252587655065,34.93347601842989,-94.44433697227326],[-32.0634261052468,46.98863697464632,49.3889934175229,21.722928555210864,43.20185673029004,12.976517198650392,61.011439932317685,25.628133787938136,-26.955573244253568,-20.443245431433873,22.57835995667023,-37.19006490008431],[47.7547480956116,-106.82383642421118,45.68629448679521,-16.604430413636607,40.90368388418308,67.6845660204187,-105.33695819790117,24.827260859633565,50.39937738729318,-77.58969825412198,13.035884469235931,52.27677024832189],[-81.55425682727854,-59.9316594620349,16.70542831906838,-44.51663072431352,7.20367010542934,45.05406962373093,42.85136991150005,39.87753465385047,59.13791005774172,-118.47228814297664,30.62165443562712,19.206410086529523],[13.860625347604142,-92.22034061003386,31.54044758735205,67.13953539955882,54.79003195787322,-46.956253870893384,-68.11637068120096,-60.0045686836182,36.28149333647042,24.67482375138019,23.723122909241727,117.45528575636806],[-19.54815122435898,-111.06031006535503,18.176865215329496,94.9402168594851,-6.070972725015271,-2.269483148571025,-8.57141402530182,79.48093753881388,-61.15263698597118,97.42401434239027,75.6233630023152,-16.5849180609042],[46.68455582099973,61.20864533281367,-115.21789584299741,-133.70281246916906,-23.70975681332665,-1.5583314409016582,-8.118842747598245,-100.53246878882484,-98.37859658984934,-94.43260104167948,19.4095805516191,130.87518266703484]],[[-50.27148955293253,32.18069807820382,-29.99692977286388,-26.048289329620864,74.1040646865947,-41.24184701818017,-3.995697776448759,-55.32432745327284,-15.877211696537508,-19.827294120803078,-94.35521701852356,32.82771735110856,14.138107852461527,76.29671624413231,-95.84496348476777,58.2855746124486],[3.701169213586032,-93.26692759620747,-18.465985129799236,62.96175072556064,-29.47687072364689,-11.41091933159248,33.748231862723316,49.265390473585725,89.86106009034904,40.94842460550684,2.322926882947707,6.292694487090979,-101.399140007875,-7.8441644450336705,-39.771942134252086,38.91161861879816],[-76.56658536169822,-37.47194833325042,-3.783346785493379,-99.62666879658116,-39.73764759075817,83.91900697547757,-105.1041534477315,-12.39834328096865,60.771057229722736,51.864846614642424,32.40136539526512,29.208884379461118,-70.5994202282895,-48.96991815231104,-25.0726678188029,-8.416508185018827],[64.00588589000098,-20.970514248227428,9.90960651880568,15.463638194709068,8.302694629352072,-44.430591874474274,-72.61523096768974,13.689623539726906,13.135523726728735,109.00504578424919,-70.85543776348915,-23.458074829548615,30.176298545543826,-19.101856588059444,-23.639918086839216,-6.038862261369823],[20.86826600654982,-94.98170245118291,-119.60853731827194,55.20097262906705,39.478623518272535,-94.48988360366758,0.38297185778441833,21.71209707763936,-67.45626469885853,72.30169346377981,78.19391491793075,33.55924892309453,-54.12045561276168,-35.43739858172203,-8.87245040077951,32.06257337581199],[-160.8646227221336,4.021005581410641,-57.70754281342112,113.96756712986,94.73295061670663,14.054789003484158,-61.65306768097527,61.978012198815215,-70.76285886481826,-18.276384366030804,-22.505675562962626,16.67895123864751,20.627954697663746,-27.07454630434646,44.76167646834805,-12.642648658033504],[-114.46021669822142,-16.98832450991886,29.218253474483912,46.77999183626178,198.3418078226843,-75.41240421358837,83.45358977104112,-7.999670469807594,-49.83078413860829,52.48319151074363,-96.99172150682767,-49.762922373239824,-138.0937238882719,-14.837254931713256,-72.88266176538065,-65.67068165432423],[-85.19174169617774,0.3774032236292113,50.74568088335727,-123.09318209905148,-40.641654346617294,-27.170617725215607,160.46488084465207,-31.84872820775975,101.88218015543173,-24.99896962058822,-48.24872046140272,-55.098077883795156,-70.7049622255716,4.544776921884311,62.69569731749403,6.112588775787777],[82.34289374481492,55.9360720428355,-17.50371873155982,-26.562108519672037,-28.197458566720687,29.115075137215022,-96.95081477346034,114.93819289253172,7.235955311613273,22.683521378269155,-167.50934352792203,111.27975143083206,-16.838452912047153,-107.41648984974012,-85.04597055736983,13.691459276148816],[-66.64324600766781,-52.223364670956855,143.8564074030139,-51.93387476511405,82.11000805361442,6.292043674164887,-6.461360809551648,22.550550979660606,-79.26204017304752,31.59019720280437,-26.785223398579355,150.1489059177762,-30.92651060483092,-65.81295102091647,-116.98534430899385,-31.987478749524033]],[[39.19587982367086,-87.19825690560856,-39.990638522236374,-164.5596904005398,-90.74980743160559,-35.036400829256834,-5.3331886552306935,89.04401358812855,63.812757163797144,-95.00700122651062],[78.30973158848258,-101.07414658044377,27.883850883530982,-7.367707608402461,-49.37934069061894,22.846719877494518,-57.918107337324976,-62.445653264555155,-77.77171877377218,-61.572719572457515]]],"biases":[[6.902581756626012,42.980460561489366,32.84022866468676,25.863865249734545,27.88885170912257,5.618011191526106,-5.42063845464859,-18.915240590524764,-0.41026803888973606,0.48576477967612636,28.263299764460825,-18.745137302791495,-0.18159211752966653,-7.625084584672596,24.54831733660002,15.219660512966763],[36.70228056870853,-6.761489185202064,52.47600010690769,-8.325106478577139,3.7620768701156138,9.579995717739719,4.019475769529226,7.319492218532366,31.10354204945691,1.275882368350848],[14.065408159725472,-20.428976224897536]],"_generation":886627,"_fitness":0}