{"layers":[12,16,10,2],"weights":[[[18.96787151509811,-16.326427943942747,31.91819251257911,-28.70685593266114,9.629306841077204,50.8726530392243,-54.29695834513848,-61.76449785642154,13.95109921157456,-25.909876362848483,4.869868844420944,-68.03204639886116],[25.19898077198108,-41.54432484583594,-27.644626602269668,-23.37238704723216,-27.0819641258605,-47.248135416531596,-35.165086519598965,-62.92445061888543,54.845626258980346,-0.9105647642021749,-17.638400212626095,-4.300509213631415],[-45.232931195433366,-30.517636675768316,25.990473522762926,18.46069210333472,-82.78890472001918,33.038673191302976,-18.960661274082106,-42.58047591396923,16.690967307360292,30.384120012526765,84.65042233648389,15.477195989993945],[-13.945091043609494,27.172529864094564,-15.368865227304829,54.79210512678667,119.8196731454434,-71.45825893393197,-2.261011486262057,-27.031905677635518,-14.43028621363056,-15.754121510366424,-5.878984539611476,8.256814083713689],[-21.51090524879166,-37.60862582683346,-11.941197691875958,-2.7192098458462457,51.38546397077336,-41.18081540415319,12.29808993514824,3.3369374990927696,-16.997844299440384,37.65294661299889,-26.68006827220753,1.2040086876553127],[50.76367267734775,-16.03682121625722,-23.033998209704407,-71.50550793209446,-10.305283335087442,15.939584850134947,44.50687070283124,-0.17305937570480523,24.069369390023567,75.18739974649525,32.77021148165473,22.37769228086455],[-56.19525122540795,30.40236559667471,-61.11379108483357,13.461506494407317,-26.802729559261262,6.75693268707865,-44.11870123750489,45.0339941938043,-12.69852820538388,-10.493445492564112,16.627912088270108,46.94654696978071],[-0.8074433835652394,-49.89718857802507,-4.907719403966189,-52.726487668391336,9.354925753961444,-4.2322660695436465,53.1009491811076,-43.49669654168424,-37.308515960388256,30.955462828649825,-21.31864730434371,47.45992324280972],[53.23660610994783,14.046300747032696,-10.681867461910894,44.53919777851707,4.901794008917016,7.5134493647700396,-31.16806035645628,4.171534080253596,30.06810348453134,-30.315216688820815,19.692744078955485,4.003634253347923],[88.87682641053516,82.8271627108634,-90.05553298416447,0.74484642074962,-49.27124923465299,-14.760271805657444,27.412250501074855,-24.357201292945927,1.5373089105923934,-26.535603260652238,28.935522979770898,-18.597375541603185],[-6.662748183523319,-34.885034296227026,67.74196666410799,32.457887329716655,-5.3762594946457,40.37056558383589,-16.022572568287984,10.503455665714474,-21.39265779567321,-19.38299557697758,-0.5254755696183959,-50.24896057925376],[30.58653499470462,-23.879122281374737,2.933164821111507,-15.974104406904434,128.2887297352513,22.866479650475846,35.516442380142166,32.33977513472802,-9.435005517416965,22.877451448580054,-30.356773661158524,28.70380105208944],[-27.22128136274982,-61.85220306625439,-5.413656628158737,42.01504574791472,64.50532004079673,11.167796621458706,15.226174357655113,-11.935741936384144,15.87688972047184,-7.617155256712558,-5.469964891816003,51.66730773224994],[0.9174298704154024,-9.149782794204004,-38.6018935922055,20.3655885781887,77.82781798329113,10.634303372268263,-53.58006233452748,-59.15699998381051,21.776463638721232,38.333998504777405,-6.73029597892891,45.26714016503359],[8.162974806352338,-20.35389775215209,-18.926699787424027,79.49707696490397,11.84582136624408,71.05631059535789,-27.21262004859528,6.104078157340198,-105.75056505367574,38.925028729658386,46.27492007254276,28.353207960775237],[18.59556155986235,30.904968107578384,-27.39283270378825,-118.71474824552728,-63.50848930714328,-13.869521798514999,-42.674457641770246,-31.235960755968584,-10.388181037677217,-10.32325144087125,16.541712024143518,75.58233083896961]],[[12.699771276825173,19.3618811889892,-6.615892326236581,-17.54277199838259,65.48548114698991,-18.696235000115482,-24.418152031222927,5.147724087146268,-16.888693503403772,-6.619979941641321,-51.86757493206449,25.642594396899486,3.4880074956277864,31.77721747681005,-31.767133522179677,22.562156997704314],[-11.47956985428075,28.031844995341228,16.635290552923028,26.974291554044274,36.17110638785982,-13.244956436565488,15.283429059333237,2.728182973116841,86.16555048302239,17.92506639883778,23.024691704433632,27.054969040228965,-63.542635666811776,29.344509698953033,-12.516806317524303,22.60337899056131],[-23.584977259156123,19.495546875150517,41.84268991758463,-72.54364690944351,-48.10634165576808,-0.9910378275774552,-10.490274014606085,-73.19076887076422,3.0870206108450766,96.89639375169818,-51.603495015395566,29.944597651263322,15.441515062873746,-43.90838742312866,-24.714286528554634,17.865931697414528],[11.283065896121709,-19.40208008360255,-14.384894908509851,9.891599549420377,10.067711707999193,-44.563374734553044,-48.82366328902154,31.405444749226458,-31.041675775586356,40.61204907403584,-29.927216173952246,29.979149774244377,-2.8362398129080444,1.8063715534417524,12.517580895950715,26.893202949292075],[-35.91595548922117,-8.431804689505098,-17.709527036655917,29.650558389681162,16.37699721301536,26.946474462537058,7.466831314976328,44.284932357640365,-51.447556423653474,9.42414073543869,-2.4602167076655492,53.47364576430982,-50.88464253854586,-4.8144342242291,22.413481908580764,8.666126626491172],[-35.24931765484329,49.136210511186164,0.37354190163356105,52.734500594155826,21.913347141349874,27.55570184034055,-29.605670443191205,9.88877197523334,-6.407865055037549,-57.26555821765183,-18.320017882755415,13.626218059943318,38.85901735372669,-16.031156768394794,-4.687325243621847,7.833226212152325],[-22.952817773698435,20.21554328087649,10.910029426610517,-10.994163450598881,41.712151921610705,-47.27172925441681,75.27918566006424,4.047225023502649,65.56852553478463,80.94955286054001,-13.390314472626356,47.43389344907907,-38.587030852707734,-0.9823193860498667,-44.52224673472611,-27.10858258360104],[-14.295165071355045,-19.6805202468774,27.943558546923157,-88.44361073675414,-18.320732827710252,18.98291653301464,-4.427216272693997,16.300760438925433,32.28981406206917,13.134405075560474,-19.73265354958756,-6.568536738438355,-29.952936934467253,-8.89332414269124,45.37168382958281,-5.2581221910689235],[-0.2990376383178789,24.412377699261956,0.7230692079506561,-42.43847450355357,-11.963606608606202,-51.30669652503198,-28.40080884084373,61.25659437465354,18.693086494147774,24.32532324464959,-65.97324228326148,36.649619477407974,-20.96115440728095,-7.158016908343055,12.238112965152848,2.9170759773724817],[-24.804035749138855,-54.63856541306379,44.17089921218478,48.093695140840346,46.02151631654188,-60.97018595920715,13.237196293992403,-16.87563918680025,-22.540424203866518,98.18541798090426,24.986751399628936,25.69512443908662,-32.80428565084668,-25.703207737987178,-55.949823006249304,-13.893085390881097]],[[-3.0372110810601383,-19.315438384457916,-20.391227325375173,-29.320313935604126,-16.32365532133397,-16.566707526007036,-31.982470210554386,60.423564543019644,50.35891437345032,-19.621399046243088],[71.73193017761164,-28.987801426693906,20.15363520978827,-13.087085267256688,-16.22556206224905,34.51643085486663,-68.58993168475739,-35.54293791094464,19.299941464791637,-59.00462271825925]]],"biases":[[11.66375610506082,24.550014383960736,9.08812731657283,19.232335047711004,10.12945390591662,-1.0787052007121523,-12.262345962612153,-7.798566353319777,-14.002675097299775,-10.1106312141598,8.73018996702376,-15.239995230125192,16.069405768613255,3.316379292648579,17.19382987289655,21.475513962151222],[17.926691222158354,3.548406004850844,16.269266845802857,-2.643279630555939,-2.3919337362563358,-1.011290664012443,17.150406107953152,19.051090001267628,4.2286063939151015,-9.602523634426413],[0.5857525532698439,-8.08507273763625]],"_generation":326627,"_fitness":0}