{"layers":[12,16,10,2],"weights":[[[24.648460971711675,0.4271620134331364,82.06196438740803,-43.32005566886184,23.736072537424057,35.49828957366644,-81.91895403236653,-80.99643616220506,-19.471837076508244,-23.521784810229413,-4.171230587731006,-62.41181281176692],[-11.01972852960495,-38.56030767407108,-57.24037579888156,-8.894141918764968,-22.341511242638752,-30.588806964504617,-65.88529890690047,-72.26020397603405,55.02061499342523,28.32613713223038,-45.46967019384014,-28.187308666203347],[-3.99477051176816,-20.04300771603264,28.34648175844341,1.7167672963043108,-49.98451603528422,68.28649394665024,-12.230892164471998,-17.521986504620358,27.891067052291387,17.55388336808379,75.97446385250038,12.391432324210724],[-28.35058374950827,7.719746963007475,-26.179077806805633,50.103517406835586,147.96088858766666,-79.7240674361364,-1.0295475336080513,1.7708698212771699,-14.7972978939704,-3.32258046969464,-7.356631516114466,36.13503248191984],[-10.138827687012407,-19.39625931981363,-7.389662396490583,18.01452171544136,63.46829884411869,-5.300993460661972,40.26449441346242,-10.270779096219783,8.143162239207308,10.630041586825534,-41.27474144762625,-3.253763358790514],[25.189715299612473,-1.37951722053768,-45.442316168964794,-90.29532286214311,37.56949322587451,7.185553116542011,32.171541034005706,11.142502295093358,89.60706031803736,61.533863025409815,36.405438255275676,28.10298466668958],[-64.77578058862345,17.691855202734168,-0.1694991349470369,17.704119619213397,-27.313923666190046,-14.16373761205626,-27.472782049073142,26.429364067166766,-34.48544546054954,-6.79369160904358,-4.265383496419354,20.51380077631176],[1.7116522112110002,-64.17022091946855,-5.636918655911403,-52.275337507978186,19.176723380768962,3.9810954697332157,54.963448790499726,-47.34289707328459,-22.402781673967816,54.44570449738424,-39.665163918190956,39.844036636370596],[42.76224919066102,11.39123110284909,-39.026566026622525,60.20943626880003,-13.6536639425934,46.17794067730118,10.666934175812779,15.138387755202272,38.247835237382596,-39.56018276120289,-23.107641618605086,14.151103249347702],[65.43411562824843,111.4248868145349,-104.49387224827022,7.035163795246869,-40.97221244559862,4.965001659836084,6.604385988684383,15.269175738722025,16.50784827765785,9.60413078006809,2.460704777827834,-47.07622021765554],[-36.004227552704116,12.377856984863431,66.08211414139537,75.61319635111133,1.1753357544406045,51.39522015115415,4.448414409431681,5.921638405462995,-24.60046828549037,-38.51329483014188,67.87767549622357,-61.67162559902107],[47.364066870089275,-11.725453180868715,16.64110506265184,-26.802334058191498,123.5506501010753,40.80885581801559,19.007903723381908,17.128732542666512,-0.30620996436963593,-12.879505474049838,-39.349595941303086,41.23415629769871],[-66.19357398899731,-42.699658406451114,-10.946640070137994,2.6599746858410693,56.98667733406769,9.251742747644256,23.283544408699235,17.42988766095608,21.30994380860498,-64.66418250901259,-31.157149794561654,12.339194134389464],[33.86008943307682,-62.7949259697787,-54.40394135511962,25.466790433335326,111.95048503291079,34.672747922750986,-42.545732521798655,-64.43014841783919,21.850483716922668,40.62465590035525,1.6119414147286235,72.65032233799678],[1.1532737286465435,5.065067546908364,-35.4602538287546,96.14235146941355,29.438235202797223,46.13976912456084,-20.497494054506774,32.689951119199364,-98.03122333281392,69.1038811293764,74.63031584976146,53.715401141513425],[10.920157044767075,53.24714994667122,-48.77217865507187,-132.66483328826314,-65.89714910692169,-22.689366890835558,-18.23551832085177,-37.32778031729917,-45.7351628836164,-48.016279662209314,36.63204313310208,95.1255268819372]],[[-0.6841933419760566,55.359642006718495,-4.550204862096432,-29.320033473367662,81.87029740491171,-0.7752162165660595,-46.042174220405144,13.24230186971495,-54.89603222043318,-39.48130433447488,-57.20270081317267,29.854724517622284,24.0762607384124,54.41930035323714,-45.144164184358004,55.18642676840902],[13.876965394647888,-26.80355246715592,11.246139197837794,35.688535853038665,8.99191389027539,-29.597170055997275,33.1377547520924,-26.089334190867145,95.41746877650475,56.2509602896543,4.810772770655696,15.745458829122065,-51.596100273179,40.643794944744585,-13.496006598931041,-2.462361858872306],[-43.63157000358666,-19.092962789964098,20.378872139719924,-83.63632893261104,-67.20903717839327,25.59709384308625,-61.85278315380266,-30.18867077122361,15.688502474577128,94.67288815069888,-28.39222535516707,24.976482935307022,-26.193280121803525,-43.2947870953804,-25.60430447515911,31.820380742832015],[46.50473215876297,-35.44392766679361,-25.203149047035925,-6.2495240665794025,57.93355513808147,-34.59919332402863,-47.23739793306911,24.089069419298543,-64.06254150701189,58.20748115150133,-10.540189508397988,37.23652736230844,-1.64438590270304,13.60218734683157,10.734130827063721,33.0810939213615],[-32.05272583418887,-15.436659826945604,-48.24770944580491,33.3198953530645,-22.822429528438008,66.09309939288124,-8.954740307936099,61.33652981651947,-54.162517513435276,37.91156483496521,14.092366360045661,52.02642059283034,-41.63265600157803,27.60570103486705,11.137305704925208,6.934295283331517],[-41.396137498970035,35.526754338972594,-43.68374830262707,47.55972561052371,39.377698192120064,54.54440811414177,-26.257293143861318,-18.148777632677678,-14.677606765630664,-63.94051110630019,-31.795957883105526,4.721445560533686,15.569670896054067,-2.0121856016563493,37.16706857849016,6.103663161979924],[-51.59008848818375,-17.186370636801612,37.34731715850423,3.694284818680373,67.17494455178243,-38.937150105081045,51.19792111062505,-21.673530936497716,23.502276354526597,53.075247080795116,-20.469928306247418,-19.864893489306436,-42.75465581535907,-31.67099806637863,8.777433686182,-36.20604063775777],[-15.916014502889965,-22.45827238903167,31.947238244425435,-103.33952867651944,-30.181255446692305,27.989774814261484,30.380129027294917,20.550034074366728,34.896794484856386,54.6930037976809,-32.38348824953054,-40.22347747093143,-47.02353528757045,-7.674611385417142,64.29461594173223,-1.296090955010847],[13.843842499284031,27.943123689684075,9.176114054209414,-41.51938803218165,-24.47138287741744,-61.51813709512049,-52.86536589614234,109.36152248567205,-2.053211921967764,12.306197956739773,-83.27681695545171,54.44297181962383,-31.27875774627197,-29.724965528778892,-7.48053051904705,-34.59376402208114],[-28.5351494218128,-60.03930633532377,39.42043177924696,23.490308254527378,41.80573718124046,-56.30701862641534,43.34864951859551,-26.63763099392805,7.804089353089013,95.49379128601142,24.379361867774033,53.92029925677803,-12.921269041672513,-29.25910933232251,-59.14831753549749,11.587389555924522]],[[26.261213632046893,-5.8539151942174446,-21.440507628757857,-39.26067049582035,-60.42686194689291,1.3223562644501725,-33.82268732226959,78.98392607588941,103.09234807487805,-36.7162800838102],[29.40393074983512,-50.89453646134,24.276194023484685,2.6394636526069726,-14.773185235175703,44.41432318436045,-56.23726184024934,-45.61432290565274,-4.414756022296444,-80.58710500389013]]],"biases":[[17.560494891708455,23.347544810462686,21.22525863414949,30.240442541880718,10.015669009266874,0.4606115344235852,-17.411129927284293,-13.936322127670687,-7.940092092835219,-3.9417302805308894,11.972018606108442,-11.776920755721717,21.015032869141333,1.6031960560657754,24.825135474534175,15.026596863273976],[18.831746634977353,-2.0508394739615006,28.172444695402348,-4.191958122545202,-1.2490192235130648,5.542156574304065,15.105610591186787,15.950965643290278,5.627686843225224,-3.2560844525381603],[-7.144372761457346,-10.892134593603489]],"_generation":436627,"_fitness":0}