{"layers":[12,16,10,2],"weights":[[[28.994047986158645,4.6216126003915585,89.38289791798671,-7.581616099928276,44.180168405638774,38.925056786601104,-80.7352557499061,-65.02472625286171,-26.255127168382508,-30.257568478452143,-5.410621226859395,-31.579102167672154],[-44.30573430411018,-31.010316582995898,-43.45632769517067,-7.037139220727988,-51.0556549491326,-43.90023791397851,-50.23246068893721,-75.93710153062914,50.198014033941234,-12.173687957917581,-81.73019613545603,-55.31604060158822],[-10.643993773848983,-10.871231226572377,23.84271760353806,-31.198483047241158,-35.33387476231996,82.08713819351568,-35.19538572377172,-9.948232175894022,32.5006523927588,11.100920421410374,78.42458208274203,28.04476279809983],[-24.67980939955537,12.963483290211842,-32.989313310670035,46.122086230244165,163.0779078258503,-110.46885362547545,8.084110712860236,19.72740140042093,-27.79885886391513,-2.821465123968713,-8.374333095543415,54.293638219550616],[17.495715753234254,-15.560776908754594,-1.6152125402677528,4.150350098203782,81.08285199006178,-20.735973906612784,36.25003872347491,-10.483933663469074,9.297938092050536,18.30273499331241,-41.732890297857594,-8.785017954111272],[26.598965772173234,16.514228081578008,-60.40731696859596,-87.78573498072818,31.301163104860244,-34.22126686091206,8.996863144958354,24.937775600852042,91.0437663953555,53.41901677959453,-10.241298407923898,21.665921678141533],[-45.27394891660785,8.04752826184589,5.298296502526074,49.20050366824477,-52.36447436892834,-18.90782704629672,-49.297743339928154,0.273437753481362,-39.77583144967423,4.025015216960086,-5.60835275129729,28.27273179793069],[3.4023996508523586,-49.764629446273226,3.504936294108988,-55.01613725312803,31.083935588839907,-5.334369031035002,10.890556692643752,-48.09715346179157,-54.08500981915819,84.23440437690311,-46.25832888242507,87.54422672271403],[28.24237204343198,3.0769868968469827,-32.62366714252899,81.50547320004785,-24.88060360362356,63.918887451461075,29.305083830306565,28.829758239291213,-8.36962286278223,-31.379029640999896,-12.57244918837931,-3.314989544777607],[72.54337571430092,111.33733540807812,-97.76705958764873,7.0012259601033335,-59.968309147567254,-5.067659630181896,26.897478076446582,8.639164171136697,20.64608979927188,19.556808164789164,-21.129500586387913,-38.72556039322769],[-31.28726717615309,14.610546720500096,37.08151059418937,56.98279762373202,1.1312532745314712,37.55954394803943,-6.784836312204974,6.78464444227513,-4.245105664931214,-42.799300412080484,59.159245258031376,-49.80911257345153],[42.39788391556826,-5.461937240996989,30.48312807447524,-39.994782577903,125.2807004682243,62.351738647826025,7.49778735290416,17.86837485993143,5.672888619549564,-17.139773710902507,-23.581231885350007,41.20638747225695],[-78.27836054213729,-49.097972336920826,-14.755573234082629,-9.189562096038681,57.3325308391533,-2.740315972312296,27.622116550916665,14.872562274646885,7.490147308439311,-78.29667899139598,-16.06936589316238,20.700663926861406],[25.362907672075806,-56.434378943730295,-43.313989407925334,22.441127867659233,79.33145519279917,6.120682774072909,-55.416512390266895,-82.62768341804758,33.5882130036958,33.59838647408175,-4.051138277159655,70.11287611605617],[-3.4575170441440046,-18.03248419984734,-39.15633009941478,101.6577064341819,39.646099370926336,51.30304961602987,-28.251843762338936,33.02172175096896,-95.16974930626908,61.99538495153488,86.07091825954653,29.73797292283514],[6.437561065804908,59.008107686235675,-48.565260238944305,-154.3346777974114,-32.79498103206186,-8.580782779805668,-12.824378585299321,-55.02671936192395,-78.98891665130392,-42.11006306445934,33.80195996648229,67.71598068560019]],[[6.315298980371384,72.42863980550788,-12.78065250264788,-33.106290414035335,71.43518267185306,-40.726938031907196,-21.01276496588343,-3.8993585822224897,-48.19928406267575,-56.57451839176795,-45.43998047864202,22.066669972744247,25.812214586494445,60.83156305568499,-63.7488116110827,52.81235069255802],[23.007889378817705,-35.78181288641009,18.685713500510673,37.098042857435175,-4.837542346115894,-41.12328624232003,28.283003273121032,-7.295569239462046,73.44848088000059,41.857736136515946,-1.7796041816866974,6.975106215338929,-61.12936320057002,26.611808657594523,-24.501875141222925,2.7105909033781086],[-93.43435137659279,-37.661705588208086,20.0761414133477,-93.55373793758928,-79.35225609926422,43.3586817416227,-61.630798976456774,-19.673202070432687,37.263416772348855,106.57624698930248,-19.564755957506314,16.403889687389036,-3.117637955867311,-13.147666164227164,-20.34416087956214,37.15012350161048],[58.04928497724828,-30.65298117047688,8.066357383541977,1.4740224269167428,38.06142650830458,-38.71483165043269,-30.25651382748586,29.364288586675972,-26.898534069365514,62.911779781672344,25.764655449548698,26.486514602136822,7.771592268251362,20.93511455131094,-24.613889854152102,16.928808205865387],[-27.68929188063926,-11.23980952519721,-80.6215534799466,14.08094048225888,3.6528596789559553,25.740666266491864,-29.17514583432482,41.526651468810684,-50.88418688375588,45.956730323545585,23.13491348970124,35.36301875895116,-48.845425809667454,19.65382553670546,16.555782656407665,21.986354282188834],[-64.26050601494978,5.990619392785464,-20.00495715996169,56.243275288484995,80.6175676340023,50.10615769307018,-29.23386224936411,-29.966394681175007,-15.291131586341741,-82.38692179736758,-40.24386737526555,5.686946039009441,20.008427711969567,-7.040557107392908,31.582492727413506,24.52656077333685],[-24.579094527963537,5.239516403508742,18.452290039606957,13.223911662733851,82.96738919180042,-45.19670884277842,47.20531860467112,2.1786503984006402,2.3192102487301063,58.1501096645795,-23.999368762457884,-28.846394292198752,-75.64172604165478,-32.90657718066948,23.002577324879,-40.1133978062248],[-32.6631357734141,-21.73840425599902,26.872114133320547,-92.24102190775164,-34.61572898010682,1.6907982705010594,34.46021114269235,-3.5790003175079304,32.321788715609756,52.77974248614419,-56.31566376250647,-24.372348757358232,-51.8760914730136,-5.881956226712659,65.8892434970122,16.109845335283843],[56.35621525153165,23.41398655772325,-17.37759718893175,-63.64949314989183,-30.825713534794822,-27.656476067576616,-80.96904664146953,95.14652424478525,10.91878596119429,-17.352555444623306,-104.10634715182961,54.640912674388666,-25.612707730735064,-71.47526121887417,-1.1791986224450044,-26.074321353055073],[-57.64365160981165,-82.07622096018083,65.95391268905036,22.430949361817333,35.41327734455095,-35.488104117289865,8.438142112172306,-9.432982060088015,2.8013630731701946,100.76216944861352,12.079919259813707,19.67675721259999,-9.243765328118583,-47.78534400828679,-71.09558615862397,5.024717257934682]],[[26.578119599068213,-16.45688642362297,-35.165036528291395,-24.030991142887935,-46.38247874547863,-12.749960195257133,-40.84112448897596,89.065350710156,89.8646986963668,-31.236800614706844],[20.215576551770567,-45.62416701437145,56.084018279848195,-9.357524711550843,-36.46492315022096,31.88321982598417,-74.76329180896172,-71.41736917285964,-44.170616020904085,-88.5702513996054]]],"biases":[[16.325129242226637,23.733869672489337,21.51383445182973,21.70534003286699,5.778241116272498,5.092966633545151,-18.05899346003255,-19.49228063970236,-10.943510926918545,-0.3051871599629042,17.76134580281345,-13.431885310274161,19.55078360837629,0.52088082081938,28.91779601829006,12.21312750542633],[17.49730431467387,1.5762789103826305,29.489584913980085,-5.917023798619386,-6.234302423731175,8.74011224574515,19.280985908648645,18.95989546446164,5.986618290972065,4.788103080059262],[-6.698322187318212,-8.78938635139873]],"_generation":496627,"_fitness":0}