{"layers":[12,16,10,2],"weights":[[[-22.467538747300505,-0.5017858600686275,-1.2629481842890466,-2.9392234487413287,24.864429946572344,2.7450298837972738,-18.99455242067927,-22.824178410021517,-5.9022071548774315,5.3921061161624575,-4.6301220759819435,-12.23749109664017],[-8.889745379028229,-38.55475680948731,-12.292020958780812,-45.33633557840903,8.734649220355857,-33.40526140039166,-8.897291517309077,-77.36749024900908,-3.482732457929082,3.3157244304136295,4.354421081290522,-13.72002597497353],[26.59034943289017,-3.731363771846753,6.561719308982208,7.444118495549736,-67.62782049145692,12.193361388829421,-5.749470664670715,-2.2676430835875823,13.824638717491316,13.526123014698577,34.05815998728969,18.987809698473374],[17.52852464066642,-4.101759433671225,-2.8963098751061,10.198133498432101,63.40642259676715,-9.7057182789153,-9.220530114112435,20.146398293731057,-2.0013350587685386,0.4701050715934111,-5.395621114980537,11.779252423720514],[5.217039000465407,-6.513900813101431,-15.649441058840207,18.31804150384698,-7.602947261690053,13.00550476452367,-4.3829900068503385,-13.090107895207398,-38.27548015840758,17.124146207826907,-0.5301629740412377,-3.1117830952996997],[4.853631291196787,-2.196537545746007,26.57705635255942,-13.37316404433276,-13.825855906931267,22.938587280042775,17.162713990620716,-12.247793048362936,-0.8739103251495445,13.47126008526776,11.347148763313422,40.04107315818264],[3.4455791211192923,11.016185765461332,-21.456852659251464,5.080176311599574,-6.159098792480958,17.41278636249304,-12.979571041896762,-8.659432984260132,-26.151403525557452,-10.373616398608634,8.354124489454007,13.25143985707465],[-15.692131608500935,-12.37235383221949,3.6062295023122037,-10.647563212530201,-10.609637187185545,-1.8875000075960102,4.541833148520309,-37.42082338880111,-3.6588507513482327,13.060445648923725,-8.154169726520841,-20.68057816878226],[23.087802172613642,26.779939317110948,19.26850974121636,16.86264690984938,-15.543644514486576,5.490008721083496,7.404850398682373,-2.626182033692616,-19.65748398975176,-16.993963470258723,5.655122606965754,1.50727056931955],[29.552029605306743,21.45600785145504,-11.26738217730466,-0.19401714636806033,6.044436559553731,-17.567086771490548,15.353311489841845,15.693058846122856,23.09469681387595,-18.4152071248819,-7.502409771325599,-20.83517917369726],[5.335497085257947,-12.809548256643529,3.7194325989609007,-18.23382792771978,-7.233463739644424,27.42105813126377,13.438376203913089,0.8552664573559694,6.36870072253786,4.752532745863782,14.808975454249143,-17.949180204880136],[7.4176701308723,21.68484611875763,7.208807606051202,-2.1787170471732247,49.02784968571775,24.40701912970625,-5.190503289874926,-5.6350312137832965,-18.360333092195706,23.608012339511838,-38.17967691281597,-23.86637015652723],[-26.406389926946677,-0.3808670218926842,15.196683850861183,10.089646197242805,44.746851381724404,0.9567604327417712,3.245988739466005,-7.078839749523664,-0.09561447120882655,5.324410486866153,-7.247215025202791,30.428658227325055],[-11.594128886163242,10.8423889760811,11.973219946199732,6.819525899799836,27.927072606696804,18.513196398487814,-3.7911832781103763,-8.349211920265626,0.6357017156905314,-6.4609766445876025,-29.989472361271243,24.394178643872102],[-2.085421662977552,0.783724117015336,-48.238732262325605,31.39949577274168,1.8047059450605003,0.14886596545931627,-9.614912557178204,28.28872529397269,-30.08686948707897,31.686716789009996,24.60916017642536,16.256852685599725],[23.250132902370297,30.406894237246846,-13.697015093775715,-26.51824664592628,-17.745548172353683,-20.352599645369423,6.114326015017377,2.3521302102567505,-14.899871847461958,-3.1523171567487647,14.822908806209314,19.46841304130382]],[[2.0371488743939445,3.819553917689079,-15.836356993131437,-7.275450821711021,23.4871918836024,-12.339045361602128,17.895257792558702,10.185524811684841,-11.317833806295091,-27.609677659287993,-31.798217572429248,-2.3279527860949667,2.5841954117418364,6.819450138124488,4.015291566047292,0.4200360101206549],[-4.868829815440536,-13.500735332783265,27.80468325701821,9.053154574571337,-43.94872995931992,11.064861288071965,14.461893792927835,5.235383859931044,12.910456064526093,13.354152739126256,-20.28901893204322,-5.86078203035771,-23.60310697063345,15.795559557323417,3.381725213988515,11.409411913117866],[16.09463177432575,-23.655997515017496,-6.670327361641583,-7.038815366505785,-25.21522335283016,3.9851032399488067,21.456959396615776,2.217471389340967,0.8986890892770958,-1.9089993128453289,-34.770632567150415,36.78725524787258,-4.207695681871091,-35.281878558455254,11.368059012433173,9.088141896149223],[27.887785973690303,12.280678143488277,34.749357604968466,-3.2946862808556268,22.089713362008034,-8.36764183612641,-28.57876573583385,33.39547542638941,2.707233113684326,31.05254521627034,-24.95509718846608,4.177606725253859,1.2151488645623645,8.25258874976813,-1.6468639266501464,6.533134410281938],[-19.828452254117636,-2.225798275788641,-16.72149532612788,-14.188849576464042,13.466107211241814,12.409582400661,-14.245372176260922,32.68256744097236,-8.934136121860746,-27.065145655024647,-18.829608396383016,-0.27502110751509856,-13.194835386658077,18.33748805339381,3.4614223513023497,-8.97798986521981],[21.607041899044088,20.912775323027674,-29.29284712362693,28.335239954506484,6.542511241092075,14.687789240729384,-10.408298781395068,1.1767635855955867,-5.202043949847911,-24.661575915250776,18.970223946017175,-3.639707482818812,35.407570600180456,-9.102499252643732,-8.956556788250332,-5.9507484435142795],[23.122368797314834,12.229111527419192,3.4432215310281813,-9.947407808876367,20.878261415434928,5.108746170111139,29.1188004279787,5.309248401153228,15.52697306496241,18.452561043584872,4.430838891008491,33.2868966924784,12.295675785522906,14.395926248215202,-49.100263040867695,-4.909116766698911],[-26.771032059741337,-33.55936395051912,34.097215280372346,-28.24457392576729,17.441540495017396,10.466715877857963,-7.096801182129485,-7.53561787030082,5.929366087508086,-19.101827010508984,-6.967260320261619,-44.0581539227563,-17.402436748735283,-8.388495298088984,20.75768222712091,-23.133290823695905],[-14.444183446110468,-6.710820905686905,-0.041023339805682575,-12.605203269025054,32.30341726876627,-0.8476543786269528,-12.130962305877938,35.629453338046154,-14.442394590684447,32.156369013694125,10.841054487419157,28.818541831145424,-2.4557128703035245,-29.78300071256996,-17.578101047078718,-18.018838181432503],[-10.89843486704827,-18.01798170266295,1.7045101086798353,-9.954373185823066,23.042734379773066,-11.029214792592406,-4.549985434172253,7.110355721553131,-12.048191784658178,3.4021717122857473,2.63198631243147,-1.21789243287603,24.73324808835028,5.093080564133839,-23.937496729953637,-31.724170453845637]],[[-9.681006012406865,11.703708770354233,-24.214895425484205,-23.892597566679605,22.178696856889577,-29.660052493407303,3.208270905558308,34.61733490745564,15.42282574828634,0.9811327222244092],[22.972775654585625,2.1843313011891032,-4.818335428813521,-14.126305245371482,-24.029102635421037,3.0453420171746255,-5.545991907488486,-2.1154176346667404,2.4726470931243796,-3.159516423960983]]],"biases":[[1.457469852528615,4.13400516621002,-1.105890574303826,6.502005243216451,11.127622605060553,-3.3055895754609677,-4.908205002955929,5.376576154608329,-8.46006508957691,-3.422208502792387,-0.3949366151940831,-7.871040494570716,2.361286131528101,-3.057628166186531,1.7167844382951771,2.687862603530085],[7.441626381055877,-4.097376458108672,7.702269810975866,-1.6510417987517993,2.7907397935731666,0.966393321226882,4.3107855463365095,4.447302033114722,4.435330922450203,-2.4180777930155966],[-0.8665429994903514,0.7883200779889146]],"_generation":75627,"_fitness":0}