{"layers":[12,16,10,2],"weights":[[[16.68459923072349,-21.383880902181055,53.02333979136619,-42.600028421080964,2.0557558522595354,46.440918067313504,-54.94863188063606,-58.453603056020185,7.959600983607724,-25.04315265424716,7.644444720144884,-74.45607150898532],[34.41730048489097,-45.39027298669026,-37.24585372221813,-28.22576214914631,-0.7099200430077488,-32.110009364256,-39.470470353709295,-78.93916926877819,32.963435139610574,8.371991686969965,-16.717858167362632,-0.33604550156614565],[-31.846232407910545,-28.70328098752589,17.87840525774518,0.8733970745533536,-51.65344982904596,43.56586138356148,-37.4562080409054,-20.018921367587172,20.18958649899317,48.94100300699509,100.9372748464664,23.281539817046614],[-7.25634050807161,11.534521635803932,-24.926216942240885,75.13873016785713,144.46274941288007,-81.58550851003551,-11.942866629586572,-30.806806315892608,-10.817025722686893,-14.60489558930809,-7.851329539716724,18.90929578030905],[-10.161642259912163,-18.413180559506436,-17.990055331274625,1.4774219754681246,35.448734374840235,-20.507477152972726,33.40827158288023,3.64171740729765,-19.863054134230488,29.995047851751583,-27.400251083847795,-26.991663353497984],[56.217441068406536,-13.296536868747923,-31.201491999125057,-99.8984468885159,14.754243764530568,17.185933686704395,48.75941338208986,-0.7523773241771049,30.83337385391042,77.75408854725733,36.65595990389929,30.415147572887832],[-55.733016056345086,37.982285277788215,-37.61762320821777,15.362364292394942,-20.34442135743661,-13.982556234474762,-37.40448857852904,44.838821340603,-5.4619219098226734,-26.17706853090404,35.033926426361255,55.4141098309444],[4.1204481546150635,-37.868821881758215,-29.268000207810672,-50.76541709171255,21.266202374606323,-0.4218801011687808,51.42699470760701,-49.21617924773,-31.61038321034253,50.405151557665356,-24.223563265362507,53.72233137131621],[61.29449075018948,1.630441194377783,-10.38879033208154,48.31377994058405,14.67682086068456,18.219639555348095,1.7851079597129829,-3.5801722489424965,44.72163032231563,-13.384580353768245,0.19392364929247713,6.332599365514981],[97.75872307456596,113.2348602148362,-89.50107836024877,-9.050671198493596,-42.229168552367696,-20.030739704835447,24.714306356743382,-22.764037922863956,15.36568052288806,-15.337237885240466,18.231094814488277,-43.99778990475224],[-7.482630599579018,-3.9529786171863175,78.17060926094662,44.8613356822432,9.199984210606305,42.44647106802004,-17.576639715379784,22.6392475830226,-16.657366411768297,-34.57801790804902,24.86921641253316,-66.80204276918907],[41.12191443062464,-11.130908199067909,8.781256329459044,-35.80153273382886,142.71921605862644,27.42174402016693,36.6656906944226,34.34992064647401,-8.468288796494965,17.544659804235238,-38.35208187716144,29.98447767011919],[-37.43605073754185,-50.45554741538314,-7.2002399841234475,16.019230962235664,55.20239838318294,5.579870851891314,5.913291659931502,6.985131085146023,31.41185930454616,-42.490196774689984,-4.276093990257629,47.61743630268796],[26.459393854353685,-19.408346272957807,-19.562067550223706,28.182977695920346,107.01719393262088,17.040191559161514,-43.622388616290124,-73.04530667449403,23.114358895028367,61.111180478564094,-4.7347093713122606,63.93071772312008],[16.504393289450174,-15.952009936907528,-24.809094991314392,72.8904065762004,24.170787965915796,68.96643119402367,-26.232930738213778,-1.6539191994254259,-116.12386326199824,42.26714707776235,79.37848566905463,33.07643151042153],[-4.299253208042654,29.992356488488074,-36.70787500438792,-118.39807264828207,-83.62691118786748,-17.556723950908108,-23.14482454050857,-29.70164142964207,-34.40243454030213,-8.330342186391972,19.528464783798018,82.64068966362608]],[[14.175137110671459,31.093424724879316,14.764233396745086,-45.70178962731026,53.45920140773516,-16.175786579510458,-30.13376442110692,27.828677344402987,-12.881772332730392,-18.91677073508255,-53.60963598251305,37.77349579463733,15.789503177086011,44.64794103904251,-36.85026166431671,30.286923926541647],[9.43888063105169,-6.183140108086308,10.783806590947853,21.985160211792422,30.665398615076146,-15.965520687779183,46.109879145225364,18.72472621777711,91.58236755947735,33.36941052495625,2.7958682444625644,29.753648017375518,-67.05382127656506,34.64408844690684,-27.726627803782666,8.84041288186231],[-12.641258419656674,23.5735852572347,49.7621340453489,-98.02691524209577,-53.451245872210805,13.098293088014046,-45.767383096069025,-61.77794739631621,-6.588701113648449,96.85904732677047,-49.58158312085231,49.87949692522623,0.39350414823098645,-57.21915484263634,-18.355578711952276,16.772943327725265],[30.19008456335553,-39.31237288887124,-14.41442613665774,12.722931601037478,22.609586311297765,-38.465927852670404,-59.80168505610931,16.64857632886877,-43.23662131726431,57.64340088461725,-18.36871812006681,36.17244015906842,13.07745898492322,7.246908295378303,8.352410368615644,38.33430730884727],[-28.840572560628356,-24.27284872126866,-6.326755014865881,19.603952258297795,14.56948476985315,49.29605093748317,-19.932431081927277,59.52755463675777,-70.33121240209839,0.3156659580838572,3.9300749250818203,70.89032816506847,-51.66399341530414,2.6572195452715466,14.897820739077138,29.30668311917215],[-26.54575549234343,23.371061878874354,-38.823544064517264,32.55820136723873,7.413172149343983,41.24433877664653,-23.974037027374436,6.554183845908229,0.4512135156607665,-44.3538627973387,-0.37381148109981827,16.470923209310335,29.779157058223202,-8.446975103918927,10.484773638898318,10.761214909206224],[-19.845788010480806,-11.081405534609104,20.767896448188214,-8.223530040043434,68.15980601968529,-44.13412433013367,61.47955871537886,4.742886693868232,78.95058655317753,73.43782413618159,-10.697253858363867,12.06015613570054,-35.89840404756983,-20.81191754234435,-38.17034838115263,-49.347747617169325],[-23.178663504771897,-17.243477843783193,35.058713747903305,-116.60364478542209,-29.53869292354675,25.22457716176539,-12.263219082328883,10.69728447552705,39.147661985459536,16.24244418065758,-24.638772719492867,-28.802891232627953,-30.607095164113982,-2.2079259875221817,53.96709686935424,-10.708843169764558],[-10.953958566218162,24.56244889341983,9.517588442672226,-33.87538955404572,-6.685110302077928,-62.70719737836637,-32.74484920570587,63.59006100909483,15.48521435058591,12.591807135311052,-71.03859729335436,48.235763118094866,-22.775387821370327,-18.977625171576335,3.074190599812052,-2.981501178197905],[-17.903587193131887,-60.141112222554675,34.528469097443164,32.56701199719424,51.41289303986821,-51.56084925153588,11.563486751166359,-28.704008865431085,-13.780630384355536,90.22780398286436,20.06965585573293,38.9289677881813,-28.099884647871797,-45.51604773987006,-69.16918724522688,10.750803531325062]],[[11.953278172903069,-4.6509749011884525,-21.875711497277646,-26.306924930776734,-35.74819928271363,-3.877061335277019,-23.605302810286158,85.61698185143567,85.49365978434217,-22.95504291529591],[42.82814620359245,-42.458624073807286,45.630025149807175,-28.431928678425628,-3.755450800827263,30.692281572697564,-72.91571810870286,-41.9025176709808,19.349225173354835,-79.1202841899772]]],"biases":[[14.694703878112188,24.550985576194975,7.868299196658804,27.535096991040575,7.85113367108968,-4.894300962266507,-7.44743931490809,-11.36226036772012,-9.714407863024572,-6.841260558187044,17.143268362372076,-10.540006341971372,13.181707136763798,0.420755181265581,22.831616697930137,19.36878665282556],[23.651784922019722,3.18842325600416,17.625021374552176,-6.372916517139415,-5.391099537763353,6.897434342869022,15.96140780434062,20.07723245799382,4.220729752216756,-11.663887419563208],[-6.537786985727144,-11.614509459441011]],"_generation":366627,"_fitness":0}