{"layers":[12,16,10,2],"weights":[[[16.02400718623864,-6.039619901474679,37.107339863315396,-20.30083003394266,19.31784953720198,47.20719670932368,-48.86068081047002,-61.24638628782954,20.232141565779934,-22.405594645061086,24.47746427943161,-59.951581275493716],[27.877312786703,-49.81946135781009,-32.43609461329052,-34.949968968445404,-45.92515062965698,-43.012791752972646,-37.998432796286025,-67.256702240939,25.186962311127026,-21.03582806704755,3.3711400464240304,-3.8154011560179466],[-18.322268848514252,-21.74459243741702,44.733583659646015,9.783209683407044,-69.67556482759633,31.90648088385244,-10.00038788168836,-24.265650323803264,19.005058243989055,41.631441351408675,81.97084987891468,-0.7736708347214154],[1.8261240452458838,33.06456402609179,-8.29447661730441,22.777238082746806,135.75027454797996,-46.150313529127615,0.7673381551828573,-15.793535684649877,-15.776183861700812,-23.993945394234466,-16.5833216034557,-0.3790446850722845],[-26.66715765113777,-30.140177296959788,-15.153693114497786,-0.25256794205128275,39.974863380962255,-31.209766621896506,-8.765854407446739,8.127014899479862,-32.296196866504175,11.083066105097446,-16.52535059924377,-0.5634562183801322],[33.23451751700507,-20.871936450537635,-39.75885225417193,-65.2999775928173,-9.38387585558614,1.8355853138653473,32.155909976269825,6.37312212293446,7.668460878025695,61.74579245180078,10.71675990414112,42.22607718407041],[-60.063469284156845,33.87449523362239,-31.286429249996456,27.70243814271812,-22.748270256219772,3.249510557906493,-44.95792550606864,26.152636077823555,-31.82558765081523,-6.601054349101106,6.74079361537471,38.58152307497958],[7.738085759291488,-52.23712965610758,0.6404166061585898,-23.903398961642196,1.5081522359886586,-10.985187909251747,35.39918222796045,-45.86743623956579,-47.53609074265342,31.39803922265754,-28.941331342297293,31.41842230837768],[72.60723772404286,5.791061525934439,13.198734452083746,47.13447354785295,12.425999866760408,22.217668006974577,1.9905950883614643,11.981306006127278,12.958749627104151,-27.755368116805812,8.290241136937999,19.738681067349944],[87.72793601942291,74.27799259573973,-86.07829696736377,-20.308110948692903,-56.85202994981684,-46.59375783362528,39.863363251051084,-16.683135343654754,17.807610929809215,-20.001397723642317,18.59794229746174,-41.52281470863786],[-7.3952813332176675,-30.361245730397002,58.70582246142224,9.752361406021068,13.123455448275015,34.268105733218384,-6.311102561183223,12.61349768593181,-11.460088630001405,-36.87880411364848,30.06990944174487,-35.25403712292695],[20.173149720968823,-12.933777453147107,3.5577266370414358,-26.36065077837708,112.69367586468539,29.953201973076887,17.90877065513748,21.54574926694812,-29.5382978167724,28.660096724549874,-45.06760023963494,21.48017264998181],[-27.16073203047489,-76.44259318052656,4.415892535240157,19.584523218094873,59.82884894037757,14.795987848018836,11.105816345480136,9.570239276740669,-5.337002476217354,24.0089364569626,-10.264707777376824,51.94010223276269],[10.263678047491883,-18.303359055050933,-24.937289960209625,15.30542851505112,99.20483206614864,10.374048519314211,-44.84483110835931,-68.33691690241811,18.964929122694237,35.71504123840768,-17.023805783791648,65.42075852500562],[36.97714006562323,-21.363796324046472,-23.439665295272622,72.46263272096016,10.103489961315919,73.5110037074395,-32.30584490034177,-1.0513742656886504,-98.79851281367404,27.61509069821705,61.29069824575787,26.00589659061344],[19.952479981552766,33.08408624327398,-12.146223755526584,-107.2664815898428,-51.907490891717416,-19.424552293955042,-55.17309666389437,-32.10614957642033,-29.389163737130353,11.96840276532242,-0.06444573846370337,69.6717171478549]],[[19.31339901827008,21.08555897966971,-3.1119317857055013,-14.335326359202295,76.16175101581831,-24.670540315998956,-22.87221712094267,28.692616191482607,-35.40169343348664,3.0835737537347674,-36.30059706824918,36.71915078606026,5.851172768493422,44.253209755106006,-35.78091343569098,36.68633869414794],[-5.829661302685434,34.29779634986798,30.94339375269042,29.614168337623003,5.310260334396799,7.104822887030751,8.923391010770278,-24.14653939266576,73.20180240719353,34.90635652679719,17.387180558159343,15.77002061472516,-61.52516758062444,55.94739667179091,-20.45397217867384,20.42044448585576],[-16.101064649175104,7.142298603512858,30.540885376809126,-77.23326472988373,-35.84411023451992,15.679663255211281,2.1772299092013463,-70.2433291676531,-0.3686264325178581,59.42859784339252,-51.41175089685712,14.345230230035705,-3.075065905539146,-43.48514374592311,-17.26926268489086,-3.3940306170472967],[23.181427776671434,4.877502620883749,-13.542720686357152,11.770775539140873,-1.1591930196816937,-29.39536239178121,-45.827892092695464,4.990415222478044,-32.56719763855005,47.916630034072114,-29.805788118518443,29.756115698401647,4.463798917930775,17.560514834588425,10.947455959914784,40.339235607275846],[-22.836802919196103,-8.533557708617339,4.265497287605346,19.384155463821685,5.049104960623473,10.460923995872193,-10.735883910283807,37.69850451578388,-66.76542893124005,5.907869112120556,-10.391673862690961,42.3956384754058,-50.55862205175626,14.108652128893887,3.836286931635797,-12.095228381588624],[-29.839516149156925,51.41516822315756,-2.493895655640144,44.57225561413506,18.53953750368255,35.611170849508284,-3.4354745929943724,-2.935058099645717,13.187152617353481,-31.127511158358715,-7.233795509298957,16.803129268775418,32.49903956096002,-50.82264367933577,-6.506275137021858,24.59817746120717],[7.980739364116994,28.505877290287778,-0.29948587968147455,-25.997910701937855,35.4825392984094,-31.85386555276691,59.84210000121731,4.770760293007447,47.306640669815835,86.5617075262143,-5.323730387383215,45.28259579174245,-17.20191629439748,-13.264833922235635,-43.98883979029306,-16.642267787853687],[-27.22342125472112,-11.775032863593605,16.233366019808145,-83.75323481246826,-9.332394519648453,16.69409201445355,11.61078536866737,13.834027349817791,20.68650460473335,17.471115507483297,-7.152968883147207,-19.663893260357327,-35.76947722516604,-29.121135144575682,30.883592231634502,3.4062002361544184],[-10.870451006573704,38.61528947745649,-17.62304540997507,-28.113807937983193,-19.8828132441078,-41.90725859280751,-52.92313834982553,60.226118932103375,28.870669231410425,33.272053754387976,-45.953246470591075,52.57582723793553,-27.041212415273595,-6.868887568804049,-5.1309541930626175,-4.9834801997968885],[-15.578150276395842,-63.99499548314615,24.000977883453377,59.76674951187445,27.667824360103452,-49.606936780251246,15.954783248098838,-3.3923966304628426,-36.788003253735965,72.52720059941224,7.337866312598317,18.25519481012669,-37.936462362278206,6.785337510953862,-34.58684102898885,8.352103268041711]],[[-5.718347607224713,-17.661130304010484,-4.12155858917276,-16.575464502928543,-19.099987224456736,-9.839409268929703,-26.990208093919485,55.43732290918251,49.925333311726014,-8.870656513794174],[75.24221987852063,-26.20822366473333,40.3262635288501,4.0012794074168685,-23.230042081002637,29.78374646801146,-56.450215011513414,-48.83800745994395,8.989531421319864,-60.73679450337243]]],"biases":[[13.067725664717479,20.79946551554774,8.863886763781116,18.830343982161537,10.99853259470823,-5.050797062612295,-10.097556166029786,-4.422322090488504,-16.304712183431327,-5.658556093672427,4.035586888762884,-6.720115002888953,15.079071573290966,5.582853109071825,15.275124887023933,16.967230350533935],[18.104095647793773,0.7473205558816733,17.932794077245184,-6.202195242924161,-3.4992029197458896,4.45000813621296,14.213424137545598,9.38753416241934,7.199184980387234,-6.64868784883678],[9.033392828739377,-9.489313415890209]],"_generation":286627,"_fitness":0}