{"layers":[12,16,10,2],"weights":[[[-16.91478365953236,-12.987072032489998,42.7719965841959,-38.43154057173596,19.369741845158252,20.924250114203193,-13.598764961846943,-8.760107586653868,-2.0203878495721552,6.146928975490878,31.236000413158994,-30.84531997346599],[-25.807086442178043,-59.787796746639415,-30.51188742353101,-18.51799232336432,-35.90608768961287,-75.5244060612193,-47.27422558868226,-47.154547673763915,-11.62346799248084,-15.798235273762446,-13.780999163751792,-4.125207894716973],[6.384154733273637,-7.177536634526313,31.925772769932237,31.846318692156878,-66.15037852280626,24.288195193684576,2.1833789312645147,-9.300730113161789,-11.928219884059553,14.271330649055129,77.58916854814757,25.268854759779565],[12.060002729374775,18.599061977946114,-6.437394681948555,34.73409875634499,105.68126333937592,-8.81131535195966,-1.6316821132746429,-4.0541158351444215,-9.4626840516201,-29.055203825895937,-20.64973301531779,-13.618847830126958],[-2.8210182476265726,-18.834414556215126,-35.485962447124614,11.266932359699407,-11.926937404417181,-42.99598533982321,-34.17098088157919,-21.600465628294394,-36.92412107021714,12.388782887902227,-14.175708709917224,9.835956904170889],[43.19076152990596,20.838152184778895,-0.9139611689808431,-45.0229354238706,-4.315213654543118,26.476101269786774,39.063735240800554,-4.729465430284892,14.51238407294213,6.832104022451721,-11.726486090585666,26.698813755618243],[-51.68873088477581,46.21178895507983,-20.181712744069767,20.04144257176601,-17.961077672217865,-10.603193815293526,-17.71552875725896,8.180274127796613,-58.13466480933905,5.390491408705629,0.8184048004960621,12.777022426193081],[-3.2030014356411494,-44.83580209543997,3.476460985104724,-34.76160332016426,-24.052397200845178,-9.333664937985017,-0.1335408296806415,-49.52336497358447,-31.00216255019401,19.3085091230123,-8.798433010179787,-2.0004261218859263],[61.9851659922259,10.681515137658435,7.634475700214936,62.83328752529783,6.703499725855438,18.809714891720656,11.736459160606973,-6.459094971250289,-10.559596071838675,-2.1812053561263114,-6.268280509838507,19.64694153536831],[41.045660507964826,61.77686735909732,-76.8345126824479,-38.881337711972606,-32.76932130064363,-34.928135477822394,16.828365827981205,-35.470499145850816,31.136602225180432,-27.58510654362772,21.964910043500506,-49.19302771022579],[-24.698145831483014,-30.16526910635004,53.911647618389324,-16.731952882931765,16.05392344477598,62.38532230041433,-27.00203220747145,30.26347398107737,7.3461671081686575,-25.48343118900823,3.067698273907863,-35.49674843286603],[-18.39263803772115,11.087566001537857,13.70722778913973,12.557116930537353,99.47524871416935,32.4056946337986,2.9078774268280765,5.136348470894514,-0.17187878310160087,33.737960046488546,-65.59822902836095,14.578644110754796],[-21.262980243231624,-22.41892581851369,-0.14354651783396588,12.85242568457883,45.69034093937825,-23.232534693368464,7.543647014553762,-7.985934080547574,-14.431973872543676,6.868516049544525,-8.869035412939981,51.413403172218125],[-5.174787037930484,4.551218174453461,-4.214117883843468,16.381612009601067,55.06721686406622,12.46976408646135,-18.31377851250359,-64.75110689637381,5.827160495318407,-13.691251359013222,-32.510493284566,58.17143409911798],[29.718078325655707,-37.2554742761413,-4.320834970023174,54.737050667555955,-9.23688606507842,39.187499744637634,-15.825293240053188,9.10634027171353,-64.84887966877288,17.6487638143352,11.302172481207489,30.571348572854316],[25.097358743488773,44.581608882131825,-2.597734307109035,-80.0194979411988,-58.065566337173294,-9.008460208223143,-19.458748907645766,-11.115419081409808,-39.905459482868444,55.194879688972534,-15.501978573672083,33.06979496764002]],[[5.5926721358206475,17.268078816047204,-29.85198345577726,8.681860357247336,47.38376597874236,-18.060009822875198,5.574531267339241,25.538758285649084,-22.968716803721556,-21.230134544424228,-42.72240477595831,20.995412950084894,5.520578471147137,32.49276661195133,-17.015407877294248,18.034881647156556],[-15.212933146954388,-14.544699728632754,-2.623858977053753,41.24236888588229,-15.06881879392335,2.446760616272466,15.693624148509542,0.02506280678934493,54.41517818235367,49.79669884408003,-13.728951031833967,3.3924663547919836,-62.27116920051772,73.65489194121986,-15.211024447093731,10.940129659630525],[-4.449755559938013,-18.20573840328815,6.779672910284276,-37.7713623306954,-31.70438560351211,26.855615494340682,9.715819167693597,-37.538432670866726,-11.819119200291258,49.833726577207955,-22.015457669930534,14.028132035649572,14.787918213203007,-17.02685031759028,-1.7583521116666232,-6.071964607652782],[33.17469833289861,27.051634054752814,-5.967382852981346,23.085549643552202,32.99985561603853,1.7652209517957345,-51.313950801267076,15.844365847903022,3.3411193878779044,41.05844393444634,-19.51763342287006,22.40351604576761,14.687831990370256,2.565891755005001,8.441981947007708,35.52103318546677],[-4.1598802791888625,-17.95860015098962,18.150997476264287,26.074060389731265,29.0737120433157,7.169778554139647,-13.15913784774579,16.768528124077363,-44.23585983637916,-9.096692396391798,-47.90173086518406,37.60179574608738,-36.856882256581606,-1.1410658050411988,11.72762178473628,-19.719078631116783],[-28.75515723575945,61.48978489774529,6.448882997340687,35.99508369973637,15.124429905117195,23.078370604843148,14.79835980844169,-7.539662170733399,-0.38164459608234313,-54.550552707735335,15.635596245515313,2.1691035452159646,52.64543686572002,-28.25019383037296,-24.079142682566456,9.873947035395748],[46.9452786622124,5.936668007186654,7.166624622140722,-46.51756408263731,5.76085999034868,-21.816184347606004,31.11516703335162,20.692835935621147,29.374573778669593,37.83004725457978,-15.409935881621514,8.59839900244421,-1.8345372433987486,-15.672180291620178,-26.853902230005048,4.719736991926852],[-29.390111768684573,-34.390958747546236,21.7917302838794,-62.785042306031585,2.9050181399138677,-6.7138692320812945,2.457379679029297,12.941315424938903,8.573652985845797,11.938595792393372,-19.612014550480286,-52.34681577763771,-31.70930029553585,-34.446366507326026,16.729600556165778,-39.53070917248223],[-13.924948321617824,-12.02033192066428,-7.712501494706764,-26.909447509047926,-10.773013114749515,-10.300627724515609,-27.58617131712109,39.438688798700795,39.81078039124115,16.89017290049319,-19.865374765791444,32.374139330669315,-23.455944447103587,19.452542922625277,-15.38268790927737,0.06256597378511852],[0.016529166608069495,-51.52022434052349,11.349897313094761,17.73834888455541,8.86761061072341,-48.09067267066004,17.580981621399484,-13.722540213284653,-23.976586118796153,21.33337402921851,0.8526685861328924,-2.657269046036109,-36.8727512527904,14.655370856650348,-38.26651412887402,-6.13332778778003]],[[-8.390013247661573,-9.586716712113638,0.418343969709541,-14.71797060420194,-3.4783940239437547,-7.363196718696553,-10.223021627865645,59.75732829559062,14.161879080638274,20.063396642256727],[35.42937238825818,-32.22155727844518,43.8757137711966,1.373143088292454,-27.766245583884505,36.5831427838245,-53.20398144074294,-15.014780668378853,6.711365213334745,-55.33560483099449]]],"biases":[[3.306973981322305,18.68525997148995,1.8303736291874537,5.797066736347969,11.49967235973051,0.13309006093512007,-12.850911272702218,1.3829726066865515,-12.862004571958265,1.2635304754429069,3.516667134542988,-14.901799502182437,6.66406142205633,5.556101457102855,12.42843230592673,11.901836903647524],[9.446942587916688,-1.0504135765307616,8.964043235618893,-5.5846013258073635,3.746847735322532,1.4522831892104326,10.956881020345643,7.635856416876253,7.436110159918559,4.570443409267635],[8.3255761737497,-9.285777592505005]],"_generation":196627,"_fitness":0}