{"layers":[12,16,10,2],"weights":[[[56.047733508473435,6.9375074883242265,33.521305392413595,-38.059524665896944,15.398930197735776,103.46728276716134,-160.60750760820315,-76.29509398431007,-90.71507543554327,-24.04495878990385,46.35281080620448,-92.05229341321042],[-55.93394236797018,-28.29681862584228,-75.25273201156938,-8.78489373443874,14.586921247551471,-71.8149894668905,-12.538643286555729,-72.41193471536373,69.7033047769811,-52.857201383054,-66.9140779982309,-101.90616205860506],[-22.77119895826715,57.9995866079192,33.58270451551735,-54.32187085794473,-88.73828663458369,145.95708534740362,-16.31743769106096,-63.07414355476346,8.596434430281466,22.37837054764064,127.85492627671181,119.73172153026348],[-61.482670998958525,-50.951875972780094,-17.272587514113532,59.029430484873885,167.22669166651772,-74.88062910022,-32.959375920671555,6.124886896843968,-2.711775046040247,-32.80011306768452,-4.963386319892505,48.87050645055602],[13.692559620709732,-10.26453839996662,-20.145823033110908,-0.7783655977633124,126.3016562566906,-22.00542070692515,60.79780677573683,-39.90797153325312,62.17868597333478,61.60255828491441,-19.489203847488046,64.23446982119422],[66.56399156577436,24.01009633668709,-103.52483058250793,-26.117704444374496,106.2322110514423,-35.92185164093393,-46.65215872033923,13.455547543175612,143.05835400721696,-9.818271914351564,-35.19385262612191,-39.12750776260082],[-51.78459856706501,50.95899583316594,73.02008804437702,-31.33477450110753,-103.01963046306565,-68.42130696170487,-40.45991769182417,12.469446136813506,-92.9538504054238,80.0448952270968,-57.522662268039525,41.34527944644643],[2.5506919258554857,-38.51117143616479,46.21852891755097,-6.107030274063062,71.97904753990393,-16.49839927013575,-46.1090106141014,46.117666161575855,-41.19950790943243,117.1781113024911,-76.53757857935702,101.13178558568853],[9.383580929513249,-49.50028035465948,-66.53327790261925,68.21419921197086,-43.58720426083475,55.06304488288231,-21.78084879332934,101.43202341287552,6.26905478591283,11.367777492133996,-19.581223871635654,41.94762064490969],[69.60450597550845,96.40942930290383,-108.11107086456964,-28.596595394421502,-63.375932771697364,21.31414856192657,24.8292644071262,-7.2099972848363505,-11.294192444739794,13.743947778490886,24.90326420454236,-95.47653369202243],[-33.384077264775456,55.95188633380646,64.43561818093912,29.999893213136165,51.714942478921834,28.709427402882405,60.40143404904133,17.269038148114657,-24.43844128683883,-9.842180794413705,21.56739333336493,-31.039580082792014],[38.24750262646646,-93.95571341309459,78.18461748664087,-42.354765121767066,60.72585928883183,60.97677371622314,-94.39422025027588,9.228378260369464,32.388048120606086,-92.10542302887521,5.920756678926882,72.90277903474872],[-85.1563046594711,-38.987581532586205,24.926416435612712,-45.350164674165356,5.712429356707371,40.193556182162276,51.15368328684972,21.046699431252847,61.155988063712435,-123.02374194465226,23.869622760257037,27.355194015557874],[-13.41574660866249,-82.35663217077177,38.859622407576055,72.95785751140167,37.151655066686644,-34.436073591894576,-57.86849361356302,-62.40268627981838,49.77085638251933,24.555120799239702,26.676813123165335,138.14701907925482],[-9.216843334467548,-108.07506053583572,2.2941839360443983,98.2338753767631,-21.773056204031754,11.992099440210309,-29.99474819598579,61.50444426892972,-66.30744752347337,100.3973968887304,84.02963211649639,-4.17736350396938],[46.550402760434146,38.43639832121583,-122.43369970828466,-145.0145200432474,-36.850392527940095,-1.0140757387544637,-17.418888607682828,-97.32459800266382,-111.22724404970201,-88.70875471543242,16.802115745862498,121.4452619484286]],[[-30.370497827139225,30.7526451532855,-18.561394673562727,-24.301940770804247,71.9315572591978,-42.61165827419114,-11.528869557168857,-51.01385577954637,-2.532147616822125,-2.425288353815221,-92.15986763669498,38.96559807586442,16.433948361308737,55.381961174114096,-109.69629782863197,47.15973212238423],[9.603965665013842,-81.26197296454784,-0.022943303619392924,53.31962020281384,-8.553946966221256,-14.227155728525254,46.03545431402318,51.63872853004111,84.56961369033716,58.83224536858615,-2.630655474074008,11.457366550176076,-101.47451007805886,-20.38445644790632,-33.2941796496025,28.41901829165376],[-88.16519983944252,-41.06999699840894,21.565620330803224,-108.48896268307475,-26.65431396032765,72.96009586534981,-104.42514834491254,-10.97711142473481,53.00187599175072,56.70816874026389,10.03427527731709,40.41172532167714,-77.61489261289778,-54.44529116060792,-46.766255306593706,11.05934902226746],[77.00944311616796,-6.934698370748964,30.85068749805555,9.791782007736552,27.13747756408754,-56.70169852016421,-58.33053739258358,28.41251283808823,20.478264401022095,109.28741397546395,-72.67264564159998,-24.68974344740126,31.48232476131838,-20.85470094750722,-37.89181807527039,-6.604170989453658],[7.430018369893624,-84.41177667977745,-108.436226662083,29.515073558993972,14.702486800428648,-100.42318080701735,-6.041945020302165,46.197735015020015,-54.06213094625424,90.95024709562152,73.84206763648257,41.306020808783025,-56.20348058698497,-33.9510944595365,-5.029049125152067,41.42860230113894],[-157.79947977209463,4.016067307096498,-32.51977923603856,109.7245005502664,78.9113852061001,13.144670378416375,-49.02337870071812,45.42300623578851,-46.874286388688034,-23.238579186774544,-9.880673036716075,14.105593460421426,26.171105636067693,-32.02542837860461,37.34958586119144,-18.00749104914364],[-118.14735184572352,1.8450667534002378,38.46648258876986,45.345984295939445,205.2338854858165,-72.76844660071804,89.47438536771583,-11.431659981714363,-48.736286923092734,39.786341902226226,-79.78641326609244,-62.666582813152566,-131.26530201355868,-18.71893672817078,-60.71892536400441,-58.23637628086573],[-68.32447866374594,-9.868502792376145,46.006145574700874,-124.26084434911121,-39.82336314496272,-28.794752220280788,153.49186826779945,-37.0570223988151,78.26535968560349,11.048060094835435,-60.65471564012274,-61.79557777504032,-62.85051908222578,25.55808425137606,70.32715675166796,1.2005200039505985],[66.12518737289801,63.12278700411009,4.549697240554453,-16.666960798097886,-7.7739164341310785,33.61211569475712,-83.39013824726648,112.52793510147634,20.10251655295331,22.495054426181483,-167.6075615675972,116.54409361272658,-23.06706011001574,-120.2973271321309,-73.85569027905926,-2.5553648607436474],[-67.73453515627502,-56.90800652488323,150.0965561520493,-43.50496863511408,72.07033967217247,6.148527327322907,-10.32350135877712,21.316985494960107,-69.23036747380723,24.95204490292125,-29.446220141556488,136.9923024095876,-22.158641616735352,-64.9730051862034,-122.01186660036198,-13.713800286511376]],[[44.7515533398813,-84.1197876453665,-51.6980523038753,-140.32234673494912,-88.26108849193348,-31.918339925396502,-12.66531072259209,120.31860865920179,66.16946024184475,-96.76650090568913],[84.73595353730794,-102.74225410905204,24.660369111731743,-3.3103661769201054,-61.663067264758055,17.15771877131984,-70.49143468524221,-55.72373871425002,-76.55563431187677,-54.64640435058159]]],"biases":[[6.961598063867357,40.77116807968288,33.11961800866559,28.670137538917043,28.1951695892769,9.081977925163141,-6.454518409284359,-16.060275516114956,-6.344772815276345,1.6500250873473086,29.370285480031573,-16.789315426226647,3.324659275771961,-5.304584859936007,26.0188576667807,12.80539392426772],[37.87386455822249,-11.899396097045118,50.5160441666582,-12.44443468864517,5.7463915552646245,10.418769628831079,4.922623006141477,4.977090005287807,28.6263063349677,0.2907686846971307],[11.83376297039421,-20.669565661189296]],"_generation":856627,"_fitness":0}