{"layers":[12,16,10,2],"weights":[[[-12.313264942806827,-7.75560296879247,39.797906319324696,-40.406995052896455,22.782079440361386,37.951002902939635,-14.746457143341821,-28.252709101017174,-1.7827048555138516,14.27257470413055,18.660665599736667,-24.72709564284263],[-21.193171480569756,-56.3532926501681,-25.811913037775895,-19.76250075497978,-30.77741754241734,-61.98665925096882,-46.7204196933224,-48.35949458971636,-2.8667660604100327,-10.033687229851477,-14.28029374732113,-3.758923022102005],[15.878867280252505,-6.205032873251426,28.98968219080167,16.282682921286174,-62.58062732403168,18.64594383628578,7.062504694835823,-4.9922523628190465,-10.601679246270454,14.00733513071784,66.65369356698965,27.787915011280724],[15.468772707847997,8.925898848767606,-3.360290355578322,27.377073769296167,119.48119581935777,-7.845333713753725,1.1396177241910457,-2.9008801348100772,-7.064717588323171,-30.395856354298076,-26.711414757706468,-16.32884350585986],[-12.291653057570745,-11.344924082279936,-32.399307766171916,21.884122100805907,-7.5961044521855925,-28.81489101250618,-39.40320044248453,-15.82902532496676,-40.08479465098824,13.752403560285634,-19.646083974418126,11.345147768046614],[36.899522344717596,10.247114442799521,-5.242105592004204,-46.88149280034516,-3.664269656912018,27.11890406523143,42.61392741622562,-13.258966793380885,11.761443077704829,28.411671787497617,-7.115071577038087,42.100331482738774],[-46.054105950364495,51.051129665141296,-21.483044664312672,13.91717561008231,-28.763238590665086,1.1198319652085766,-27.237375855569745,2.6673059657864777,-56.65641484800902,3.5597477675571283,17.54344452898678,30.361371053002934],[-0.2002379155342262,-46.048150655482296,23.89687869691033,-35.84019442866451,-23.92916006650239,5.402497786852464,8.074261754301556,-50.08876459989845,-31.642484652497988,19.791011220984135,-2.5642285814330554,5.815141834481764],[68.90014471336534,-7.204191818060929,0.39195149036879734,59.649459609508746,-2.03083823442552,17.597141483357962,12.943788143585264,-6.765728804613037,2.6361850450001443,-17.221145907622113,6.562967186699289,31.74085104273205],[59.950385581862044,67.8472549332965,-90.1360954167458,-51.38807767662094,-39.64631870775628,-48.08502331610962,15.852844938224075,-27.79315821073906,27.3095750150823,-19.018022064148774,25.602369165445502,-63.762201175731114],[-29.473099595122566,-30.892981034983855,48.90178414092594,-0.4640691684714669,-4.269884814295393,53.561624706843844,-13.007395116642694,33.94573217084889,15.308282999151956,-21.03646176946783,9.197693883394988,-25.538886889051835],[-14.738960008312233,8.687358647408633,10.356782464229758,5.329630853980586,99.23647466674218,38.136170868568286,2.078231051128822,12.042556161982017,3.525869016178372,34.05389925415057,-67.08043109588024,14.961320804755271],[-32.757534685051965,-37.968975425695696,2.7742805328184645,23.625244743025803,52.97143536210862,-12.991872054501284,7.980593067043005,-10.467438600147382,-13.846571913092411,12.569657393424944,-19.454339820219264,59.543399723834035],[7.523352387491828,1.37670293767645,-0.8896153234992239,20.99947952870992,64.60150935994524,-2.7656018521119603,-14.32468867997421,-63.36449518100627,1.1340293421094627,-10.529170698266908,-40.385457277824926,66.0986948287176],[27.346027600235924,-38.04077369575388,4.638567278612597,57.83986655266734,-0.47617873122240467,44.41960869170002,-12.726415729890558,9.61485649170885,-67.08545361465055,12.23773285565042,2.1422202737600506,15.073639053371187],[30.35048356003818,39.66299869616269,-1.851756390817384,-78.34840098058925,-47.26492397662814,-25.695432695436825,-14.588123796768338,-17.87454481037043,-36.25320610571997,53.03638386771501,-9.367791888057532,31.817769484161545]],[[6.443556986044852,-3.43364960485848,-37.84462574683112,-5.76703970697928,54.46680041566731,-25.605065172391626,7.135518845142631,20.987244280520724,-17.0074072005741,-32.17660533702106,-39.564558240150426,19.683138470772967,-0.012863999423256695,37.86817741778673,-17.72409941898282,19.015990676697026],[-6.7057095573837975,-19.868425063829747,-0.20164674271574878,41.45690201618086,-22.05701496685202,2.8341535146667067,11.41780195716373,-9.5115880781942,55.36856855366934,42.39070485852063,-17.98786104691758,-13.73126698210959,-61.636671986086895,67.18789347015283,-15.598929930302294,11.854044506552924],[4.976451365365788,-23.642554410702814,14.010279293121993,-40.609247121967584,-33.945414392994614,33.88540351541921,19.4289167113956,-50.275482913677465,-12.62856379573924,44.4578684627778,-23.715436283481353,37.63397437989539,9.347680756618615,-23.99862921385513,-7.793779628254382,-5.295912786991752],[36.959593354201594,28.5291991954293,-13.332408265539918,31.84980450696554,34.227725874987556,0.6303523453352806,-56.88020525366513,16.898522967166002,-7.162085281862344,45.28837815754616,-17.580963889933823,23.13714615672025,13.28224223357116,18.704938700388144,2.33410815459531,35.25366750487328],[-11.523009079641316,-23.18302837731935,6.5524866949451805,24.176011861533468,14.71810643601312,8.0039435051612,-0.32391160576333466,35.43279639104502,-55.605244349714944,-8.06043051321706,-35.82077812927567,33.27304477240071,-38.862479764690136,-3.5721236930420335,9.959912574059855,-28.773366678738554],[-26.04280329124076,60.02377035001517,-11.074939280863962,40.427066214450925,7.784147389051446,20.90372152969687,8.291456646365729,-3.560894152939917,12.01909888714579,-62.850518045343684,5.541254552670882,-1.8975816485467913,56.53456484563969,-35.553108046281956,-19.54720100424543,10.092038290061353],[56.35994775202718,4.688373059016524,2.9374255933731472,-23.55816764405436,15.492231727355211,-26.146541788616574,36.88316532852451,20.784669039368215,38.58534799310494,46.979236761230325,-14.320159972749673,13.066219182164643,-13.255594289004492,-21.98345062404159,-33.29365937092676,-8.404093548709913],[-32.118914311755056,-17.870520452363582,18.08539838602655,-69.05268977050513,19.755175105533084,-8.507077752693132,0.6826018951046742,6.1575867904489225,16.966908846986446,12.06585301404592,-12.080003932265097,-42.30620291998541,-24.113773276420755,-35.37962487505383,8.097314212641512,-36.99110876210017],[-17.572856685152907,-6.2056082112047575,-13.025105591509199,-29.80775542212238,-15.128641433317423,-8.24315471197109,-30.23239444866331,43.999968073856856,43.867427871068514,11.585019702304328,-22.17192804097777,49.40860726445277,-24.28415943341099,4.5484436196801825,-24.82680011304918,-3.209114376329253],[-13.542493984802144,-58.004160614341664,8.817831904175781,40.30432380978623,8.0687148603267,-34.870695125750025,10.99196077598002,-22.515700904870005,-30.4000939991053,37.07805670731709,5.195208801253967,-0.737000751745181,-43.20157117056846,18.539283182527274,-41.77252574757817,-5.272662237134283]],[[-5.0828189268722515,-10.013738912936407,0.243544881382279,-15.80967419829288,-17.742605996698984,-2.452919822040994,-16.178884151907816,44.8952768210699,7.922142842350559,11.231084398616463],[49.16718113511813,-46.599576656368775,30.248403957429197,-10.724489379540234,-29.416993683288236,30.180281831287754,-46.52456681211133,-27.107641300036136,14.950297732416217,-49.831558052515675]]],"biases":[[2.170818214926919,16.973049223105424,6.183511196256351,4.574819505293688,13.44585166544263,0.22707845896443526,-14.505771598382218,1.9199202367694765,-16.886530586725165,3.7037227668079455,4.003166077967665,-17.421510703361612,7.779976032379398,5.63223970165205,11.03896065756697,9.460940123237354],[9.747152736777945,1.7946209261582944,10.74572517203135,-6.314492154114741,1.8109226652637829,4.465355226654129,10.987315230738739,9.959617510101584,7.989982667128477,2.5135962177221396],[10.490177060159695,-10.47797758348475]],"_generation":211627,"_fitness":0}