{"layers":[12,16,10,2],"weights":[[[-26.28228974789398,2.6130931722240924,-2.0096304261960483,-0.9615429822858823,9.369213931618898,4.247578864914236,-11.281965779617517,-17.59525038198662,-12.813602862630335,-0.3163316049257304,-4.780101352646845,-4.594727434816225],[-14.885577389498666,-38.30720243954754,-4.662989244203262,-25.17418503522844,4.6844942672108125,-21.81544834610773,-4.0033243545213235,-63.34418130260231,-6.670315347726147,-1.5535278233540193,-7.689439864866132,-9.33929369736475],[31.307726652853788,-0.7194143248464205,15.264679614297103,6.068121729089867,-61.35860804696958,3.9809786292566387,-13.153835859452368,-3.503639960781935,10.21678707917849,12.508192935424463,34.83550342490382,23.97629688859898],[8.522918189279318,-2.102674807759594,-1.7320871755712774,11.000252281233989,59.309036638985184,-3.3983805449289317,-15.212076451713305,8.57433837620492,-4.182244551568078,-5.950768087573994,-8.962645997508298,15.827811122029857],[5.04219861989508,-12.595074396485263,-22.008551048350103,3.8659190276752793,-6.711135122753717,7.812379871484124,-2.516161025136564,-11.57785072198235,-28.546999968855708,9.191222522789122,0.4164468325856649,0.5675218775144698],[-1.1507675850271168,-2.7175899386266926,22.090115102918602,-15.72264246884534,-11.081267702231955,18.87296521420434,8.6699021739309,-6.04432962331276,3.1557675571358885,7.442567423061867,18.85050045225166,26.221095846529582],[20.465251159868444,15.926293723630941,-25.110174325429497,-3.8424464503794042,-10.866587924666987,10.297935034647654,-17.07247933091807,-8.022107685177506,-4.622178519672493,-10.346562822969993,10.800945899810987,7.474863913619442],[-12.6551964177283,-24.230921953191068,-8.666374185746257,-8.469159122944088,0.9391730448495356,-2.570393562292287,16.20798394011271,-28.5622065127035,13.419195258550117,-3.684935366247805,-2.405189605827497,-18.551771292429244],[12.827452728647758,11.046820664956133,12.344901092195585,4.613917486955199,-7.591401041376365,7.601669490233396,14.47498684846431,-1.722687742512976,-21.672906616967705,-7.996860478749575,8.996294984394893,-1.6885719406010324],[33.2858994938936,8.967177592444676,-2.4835602488178137,5.446897571683362,-2.6828168718121885,-12.047102446576954,20.742649866927724,12.301214235932978,11.87438737552122,-35.89416774962101,-2.616507411680338,-9.575329149906054],[-6.418064451312684,-3.6531828740990524,-4.704864889257715,-17.75725467231887,-6.877055830113669,39.477109914009006,3.870970162145537,9.63310886803841,3.08894290061552,-0.05663842026294294,9.878442333898958,-17.17782822114298],[6.29922405916957,26.279884688365023,5.9042455784897205,-6.911076107543207,37.1804122730243,29.094833822556687,-3.0096047104587864,-5.172229746372911,-7.273525019639656,24.28857781286046,-25.180253173879574,-7.739734841512462],[-20.08590079685212,15.17678168720791,23.09021849531156,4.465817167543968,48.257448550338005,0.23621658964244197,2.1636045084601743,-6.612304759954445,4.873225456554395,0.9658226698708084,-15.349152193968443,16.445979753374],[-19.36631272307872,16.93060668175452,5.364272195097209,9.494390884987114,28.630261565843576,23.711635807686225,-6.688571728231139,-15.485539426574174,-2.3165209658352715,-16.481090681417786,-23.597028081778586,14.218129908737922],[1.0008319789940359,1.3647104385372264,-31.164114279836927,28.808438409819548,-0.24205922658840173,-1.3737200330615968,0.5649712626362784,23.620529797001858,-12.561300140904299,25.61246207951558,4.952890664630255,14.242756995855263],[20.28595782585457,25.483602619149295,-13.040659360344634,-23.821348713635896,-20.833621488282976,-14.166274558764838,9.391186221618653,3.5271315646855776,-13.45489478389274,-18.745914446220922,2.975659540195814,26.843191086836043]],[[0.7901483491858395,8.252800193156244,-22.12839203155709,-1.8742620334775297,20.004626471292667,-1.5013035708892049,27.265471361926597,10.269058817923899,-4.181792345506737,-22.497237004966653,-31.72286243096541,-8.687256564563077,0.38027325054864203,-7.516043304212405,2.8193471596488586,4.0384180989016],[0.5106661633646579,-9.891215650762517,21.370365512687155,5.0244790362576195,-33.08991606402056,7.887815230267616,15.742868237809704,3.4904722355480433,18.941606739083447,15.623082116454173,-12.421441839290145,-2.746829661567718,-12.845711895408437,13.800892637741445,-0.1256081753472018,22.155701918365214],[14.94158925727254,-28.711266494296048,2.692687942287458,-2.5616134624041593,-25.180816251439147,10.11463284136954,10.652500258444785,-1.7958503426942352,-1.7840364932463086,4.2523450055997545,-17.19598299030853,34.79736962270943,8.002244314820551,-34.14272622668292,5.062275098398038,15.941269738641623],[13.323213288127668,11.671045692933168,20.68170524346312,5.526781238538406,20.291116246791194,-16.23544897469162,-30.905348944008523,28.649734939667578,-0.22210952382402466,38.67367779679362,-22.935850727838567,11.801587179736725,7.808055159209707,0.7285331900428079,-4.2055446114782535,2.927126754585539],[-2.1675981449193995,5.216066309962637,-22.018915445807625,-7.577141305210763,11.501895185299544,0.7972687251154483,-23.8319620939173,28.5614289032058,-23.475055285396277,-22.83225343060152,-23.123615980708294,-13.78109718264604,-9.76032474348425,13.099522214625646,6.115824962793278,0.03199479695173854],[21.305551794156802,18.10684484756245,-17.991127932419747,32.38048837815185,5.215744896701914,12.88598286322593,-19.61061856521307,-0.8563308805572603,4.127799158407043,-16.381600692623735,12.350139326705419,-7.771641751206546,23.60455583252851,-4.156643198862596,-1.5002570817826384,-15.148489393810976],[24.949173108282732,13.998834984948722,7.466449582268484,-8.797802809173444,21.454826527777346,-1.4537578584567374,14.54028582449197,-1.8760523734204708,4.979010398929109,9.599607543591135,5.963473716512894,34.544679278226084,1.3404811400586372,7.230811229276583,-34.509020704700006,-1.801570584494299],[-30.26075466990423,-29.06824045274854,25.61376694941706,-21.803658023133334,9.207310272559038,8.341801454238333,-5.124180112829177,-12.55447896201079,9.818873048066358,-12.645487128202959,-10.80607322716916,-24.382181013041645,-24.382961277406725,-13.925277545799492,15.668514708525093,-10.89698873906592],[-17.258749040767096,-1.6998536177820311,-1.3285806378919758,-5.973088376384899,37.555933673609836,4.427383601121934,-20.761460359265577,38.49631563040925,-4.799860863745903,39.54929106074501,3.9128576376252404,16.519580837337212,0.15052559769805876,-30.029858803878522,-19.59636725727054,-9.048874692443949],[-9.900509934861486,-13.949591309540631,3.4223614681912884,-15.34271342273921,19.128755597995376,-4.448615976290812,-14.21523522325082,6.869746350792528,-14.88910118064409,1.6415248893967096,-5.305988859095831,-10.646514539770397,20.74822060122655,-3.358041644198753,-15.050755439932564,-25.86349784956491]],[[-10.496195908647884,1.9263067050360743,-15.023441002937329,-14.171666011487343,13.06330959913146,-24.247267384120693,7.823833864567133,39.12872699060907,9.693785847510375,-5.483642481305221],[14.029045494962265,-9.19301832167275,11.856495729799779,-21.979055266598127,-25.135605194602366,9.747017678493211,8.700394413000147,-9.479808546998406,2.7574092699170114,-3.778276202946976]]],"biases":[[0.1996407267840029,-0.4288695679651636,-1.9074817414417342,7.069732312994783,6.248608144479965,-2.800247520869924,-1.3834384940518607,-0.8960399580009661,-3.305136063578484,-3.6060242709004835,1.8520897293897778,-9.756130457355491,2.784096173825639,-4.326070090825091,-0.005370489070803569,5.702518479898483],[5.456983210602213,-3.3448545434607326,6.191744617280377,-3.3124393664945817,4.068077148644088,0.44957587445959546,6.933243852164261,3.336131372379367,5.534816473816163,-6.997993692308754],[-1.128650034583535,1.8412034099679717]],"_generation":63627,"_fitness":0}