{"layers":[12,16,10,2],"weights":[[[50.875969633010754,-15.605192585862625,73.18566156188749,-29.514844834172013,26.817939672491644,90.68053231433903,-130.18913608470584,-62.644761261203385,-34.92633714725505,-34.49892838658052,41.06212903681825,-106.51944181139903],[-10.727097091674004,-73.66612639932842,-102.9832772118091,17.169354878607084,-33.79047682370162,-23.34089966071364,-36.00339424236095,-93.23412071661296,88.0252411072231,-72.03003677945239,-70.51168343287029,-71.59578041746597],[-0.018582293854151777,-0.36396512999858044,31.414161852705735,-59.8789651912725,-62.142639928089665,85.535487302122,-49.342417038898574,-37.2173629625325,8.659711185120065,17.060795281091806,112.97518617202071,85.64290991043599],[-69.73285263385333,-0.14722134589110897,-32.596534811672434,52.51237125373333,166.13195661239536,-85.84472679871779,-16.403589851100076,37.97929591902009,-2.8267164258184985,-40.25335759477782,-6.489599125244234,24.311200089279954],[27.814982116613074,-28.22225859964329,9.299818877639892,-4.574798846851813,73.13779104952735,-14.71299142843826,56.745342536661155,-29.45665651175241,17.542321707418278,42.48802434560994,-12.012578725899209,55.93219932307793],[83.40970017690447,-10.57694893141113,-82.22890122506332,-70.53707929881203,41.61714970685239,-33.62250694237262,-18.140148833531704,-11.162079717784538,69.32597370053172,40.80145710454646,-36.84475984143886,-5.823747101234774],[-38.70135477069183,48.188464660228625,64.42594032995102,-43.50675964514856,-69.54784432124198,-38.62412340968847,-77.92246935526465,-16.67270847363068,-74.68244518217142,52.14901609080615,1.1302033998758383,26.578746317945924],[18.83746249971406,-37.55166769467159,37.401678976491695,-31.870794364949884,59.33557247246754,-20.16902743189289,-12.87580080524548,-15.064962075750756,-60.02679277971824,101.98988972357583,-32.20939192451372,136.83137035736965],[-10.55944767482541,-11.683121690805063,-41.25344997092997,52.457172240558485,-39.84780065627886,99.00294949382294,5.006984773259549,93.63491008870675,13.479862593996067,-13.399502331619367,-13.73555999991695,2.011292115946612],[87.67453024593013,91.3181653455277,-121.45410011677214,-52.808056228077405,-58.64431984045426,-5.7786357347594866,29.48922305073849,20.636920096324925,0.8920015251127016,34.48838297122384,-21.31559681459217,-67.00140901086729],[-35.67769774841279,49.11211420140134,34.57380390402435,0.45834833971424077,11.130524451627558,55.260410906897334,32.69829682087039,46.516363745317996,9.274209160361918,-39.286765394756074,15.023771732844502,-5.478307118351738],[10.972485727076329,-61.464111000753576,71.70420372130513,-46.926223553793655,48.42008975774945,66.5972823209943,-35.13173685315507,30.514364029466762,32.89090473007393,-18.347999454226972,11.778273289096838,84.83689586111541],[-82.65337820567152,-30.671075864516325,24.97479145586592,-61.230935913994045,30.80279026656167,1.970957483121363,47.79264282243567,6.253311518181003,7.857339500402436,-101.89800782995721,9.562378275041844,16.048467680465556],[42.15376412494089,-73.88448391893803,22.504579880351518,69.64296762119542,33.48741851864621,-29.631453105066434,-47.6242363807429,-116.20779062264826,40.99582592045619,56.27543629195657,21.05754565914758,89.9168331074371],[-11.542352719295758,-52.1146978381903,-22.792474552560883,96.85503683639521,30.27508885695039,54.14717819900089,-16.90373411889715,15.695683357050259,-110.8420565494774,122.78209666649016,108.32555549999951,-5.562369371513547],[63.34691623498647,68.73222900929498,-63.39458085846223,-150.3115285323746,-29.813296185040702,-8.609411493687501,-31.95750724430217,-96.90793595113992,-108.56981300156572,-48.39018935705592,22.226917656936227,111.19437836173016]],[[-2.0593626916807954,58.79437976040168,-10.769055659087428,-59.93011248660888,99.36998331786688,-30.264846010293624,-15.835198888586596,-15.40788471429082,5.275130919010874,-55.75563936892689,-70.82422577044242,12.032098577318509,31.35064307509336,45.048811143672935,-61.73246657528625,19.217842598565515],[17.025238026221277,-52.400360100505814,10.1607068462415,37.377877768872885,-29.571738530541687,-35.77688898241946,71.55661388066306,1.642086216130468,58.62073098632093,61.42970178665114,-12.448059154175416,3.692996966885039,-121.13423367977866,10.322123407644419,-17.687943294201578,-3.31729585973583],[-82.6532992902801,-29.98479594613499,4.511232773485152,-70.02901024941187,-67.76264435115684,51.629237796354516,-76.22625608229602,-15.456333908099745,77.85190173948344,121.60585010538789,-26.121290573207457,10.262988071616899,-11.239757760481227,-28.26427535315084,-25.806194898561095,33.03626175536419],[66.40491416379979,21.206712054009206,13.335678797832443,-2.391111716358756,41.95997375370522,-45.57225732576946,-39.9217259557822,24.64709716433252,-26.93026669901126,74.46485922950396,7.366335980396929,52.83464765577671,18.145655313950652,-5.102772063214012,-58.590706452751405,8.24844570590357],[6.70167707577715,-25.189022187332554,-89.30618850214455,24.460537270123638,8.438995524566373,-13.596416193187544,-11.985982518530992,34.48371355767013,-65.42278966466479,53.24414452762511,61.14595674493869,20.153252861216274,-61.751921208881086,-13.502593387163959,14.395295255825637,39.90069509888691],[-112.62880671700849,-17.42390502325288,-26.22974025518455,58.58279954116068,94.78133221672792,21.021660884027508,-14.77608350350445,11.956354058169707,-61.95833711646902,-38.646953614868075,-43.608791066740984,-12.470875253555318,41.518675158190376,-44.05095475403115,25.465713270647623,-6.600466522384739],[-116.73661610682049,41.43821108539643,-1.2916592224072643,46.72751774496116,146.93061101568773,-63.21952286549918,37.78005173797728,-7.9986514671705,-30.455534316135417,55.3997978627011,-23.194059384386122,-32.511230836200696,-109.027684803463,-61.41090960108079,-31.907742690533706,-40.30869541192747],[-68.20768991457348,-3.326762018256566,59.760638227187705,-99.26457271666196,-22.506626880380395,-36.612837729310556,100.21483328300631,-43.75101865348149,77.02271584981175,6.249406200064554,-41.31388434616425,-49.81734087255265,-77.6325433949191,-0.810760567836049,46.46919710661735,51.39925622049139],[43.15024974004145,3.575365494219795,16.781188069133172,-82.21519453045201,-18.128305794431228,-7.807392931947973,-79.00808890378684,133.7568523717779,-7.935236982171761,18.02640262859244,-159.53164414511625,138.6308126066527,-45.2867165378017,-92.08670655740278,-56.26143167246119,-11.54757652747026],[-88.41876960811683,-63.54211077971256,91.59585995553351,3.1255909804440236,27.520576761561635,8.73702782887889,11.158100432050857,-4.234245357280673,-58.126782889254116,36.71350431366075,-36.92888144739212,84.22411669543041,28.701029722232875,-44.24419337152382,-112.38342995905693,-10.406934733523894]],[[27.131921702159136,-41.98567350987805,-33.62479128869225,-66.38951815649786,-71.4218764033084,-49.97870740056745,-22.7168188745419,84.62490747937305,56.29504287907024,-32.859966380828176],[45.308268436297496,-61.68594740956875,60.71727187504069,-3.716285589635747,-62.70408454907811,41.88104840717946,-76.20630304012258,-43.426016068498825,-116.4530515150292,-78.91558932592152]]],"biases":[[3.9029453152689335,37.376644362199706,31.655430880920285,16.145541446776495,24.003589158013884,9.238833420320226,-17.3932704015558,-12.587587013070198,-10.136752659401546,6.789739273228528,26.720837769512503,-8.799690115466683,13.785512554980972,-0.37761414627733103,25.468410245614656,14.077304073960105],[29.22360559409761,-13.489464411061315,37.16479174172552,-11.054579234306946,-12.319610695892626,1.7237690839872177,11.156325497754569,-0.6726194350143274,17.21972497990617,-1.5715381369887782],[5.82576995358829,-9.820261824682845]],"_generation":686627,"_fitness":0}