{"layers":[12,16,10,2],"weights":[[[41.53771895334281,10.225425165613672,73.85084405506366,-3.755203101481185,42.64969488230117,36.19562907774905,-88.45026343675643,-68.8134020079492,-27.16690557771744,-33.44168232843443,-0.8078384574378163,-34.185794636508454],[-29.97271848472529,-29.317264782061606,-40.753464734746544,-11.147518231279157,-62.62251462402016,-34.20395209946761,-50.88654235392282,-69.13333074215443,51.543353525769625,0.6518558948033056,-87.96308380744571,-47.06248326219205],[-6.569574011587026,-14.993351985628525,25.27337886774851,-10.463301653977355,-30.27342333749147,72.79693526809442,-36.135785000540125,-4.031072542987525,26.923728158405194,12.37996582673297,69.98003007044346,32.749481702739644],[-23.312331682688296,6.036384262140337,-36.578013586294915,45.898934736550636,147.28220422665623,-110.68927294415754,8.261005403613552,27.981898951461876,-13.95512702083349,-11.264633239209246,-5.242890794800984,57.988905595088006],[12.016060325289455,-9.878197968699288,-2.2023548051746173,14.852641195582839,76.80414999739116,-29.91596778129617,45.22604393323253,-13.380371378914786,3.7376711248509125,23.165661303118505,-38.71532408687366,-14.048023646801495],[19.19061133349901,9.688047694670946,-47.9888691521012,-83.65114906378271,32.526568127352576,-30.182559516724925,24.407101287750617,25.52002445149548,103.75469610494541,47.92275342519265,5.2760988731674185,22.906265930061004],[-60.63444327093085,-4.322135767302338,8.833802436486593,28.141453002577997,-38.90807303703544,-19.387181750762558,-47.2153910160227,15.403966598513877,-35.73285731477047,-2.3667210770350118,-10.9392055938365,26.160598177025474],[-1.119760336188215,-54.17755056139055,0.17623050850501942,-63.643445265674416,28.934631668758044,4.52433764716519,24.869566192813018,-40.724608177779864,-45.576630391153806,79.50673353834789,-44.30594306756653,69.88620724142059],[26.242366288510897,17.005333562366616,-40.34134059600738,86.12504912328257,-14.222635673122596,58.67328192609648,23.530061185510302,23.360492645600807,4.180642666708216,-26.012853210078205,-18.387727360453034,4.87617991446092],[86.58379905370455,104.742569267558,-98.2718130057169,12.462314762018668,-51.580040978744805,-0.3614691415571464,24.4316460976296,13.600661601087454,23.157841022130874,13.223866456475006,-21.636938373359182,-32.379570464362764],[-31.639681945126092,14.548338868194893,47.393011070157314,64.29618850467583,13.939296915143935,46.24933794940303,4.998366678985769,3.173911253119908,-17.030354879048712,-46.56217763364891,51.903622355064485,-56.062634459135225],[55.50322338796144,6.512340777129262,30.884904161686126,-37.09785892370911,108.0789403536841,63.95095887699239,9.856149129091902,22.646270812714686,-1.2166958850734049,-18.349358352929976,-23.044915263820766,33.31669522052202],[-79.45242949920127,-57.25576857417524,-25.90349127269135,-6.088946439635233,44.30097318163718,6.032969320266993,32.717610507795506,16.58553269062186,1.6497198959501573,-93.42068457348864,-18.593121088040004,17.499662670503824],[27.910925415980863,-60.45491468497108,-41.013723988031806,40.19992352285213,77.5642576490654,8.418132044750362,-33.46758698345351,-71.0305755947066,30.277309475491275,37.219873187813135,0.404092119186793,67.01389252081233],[4.224420894612155,-15.253460984138348,-48.89309925927455,119.3119750803067,27.431016230742745,49.74036612117064,-16.712686245658265,37.121051618166426,-100.8635000161977,55.838314050188956,74.57549003485987,45.11171641614408],[13.050691104693247,56.7403972708115,-64.48319038171977,-147.0934344218281,-52.59567313739986,-3.201025660893354,-21.63327687364756,-52.01387678797935,-66.34684217276903,-40.58786259118873,40.82486799075374,86.88223060058965]],[[11.515115977222585,54.83296381711959,-12.603710398636013,-33.437805579556425,71.30340725515111,-29.598370762930564,-30.424330547407113,6.914265691783833,-54.40555109586785,-51.39198254766621,-55.75784114652183,27.231494436736494,21.2574853990971,57.250136188369446,-51.14093345254391,55.33521974238746],[13.77369858066453,-32.75528557537863,16.538042743660203,31.73992777849197,-0.11592609052569502,-38.43294513618401,35.53464097466742,-7.075270644885695,81.27792479362483,33.38873257163785,-2.666508654582593,6.947076487915867,-52.73880035207879,31.454963489444317,-22.950298985354994,-9.746340689857833],[-62.736001379160264,-37.670299459542846,11.27178823451653,-90.10446443591913,-84.19324088703567,28.486024519342905,-59.72819227459041,-19.2621967509792,27.21785974294236,106.22050032913774,-19.45412502965556,16.49478237609045,-10.744485930375198,-17.15324165500759,-20.162806127047453,42.06530523882244],[55.984359833729954,-27.063872677400756,5.353942861517988,-13.711211396516125,38.06028839559432,-40.89093275377376,-43.15823804741451,21.05330241666717,-41.23400708642349,49.71783145120084,18.45806585578968,29.801462870203363,-10.77045577617145,24.105079665563924,-10.194733078266898,8.788606983021907],[-31.12542049441511,-13.794374005630868,-84.9834759971483,27.170637482949736,-1.066544739196705,41.43113083295699,-20.124466685029642,38.27732812136053,-56.60741531011275,44.60533527694127,32.148820942830916,44.64385072409186,-46.32122195844563,20.592208663281358,10.05678599472093,13.384274480818057],[-64.49432454633597,12.948128102320393,-48.155905909472075,55.77460196507821,63.37685092434792,49.25279884101388,-20.72154192596179,-35.04680974268135,-22.48710970329506,-83.03808143075777,-41.84282800447894,9.584560374780075,18.80830965956156,-2.477085200534046,33.17762365669292,4.247379928837243],[-23.223834367046614,-2.354287597257462,20.072120420827897,20.91891008654331,75.68339230322779,-39.52495176539133,57.92948789683371,-8.953086519496681,7.276944529701575,49.27206362499146,-31.07189070088341,-43.77356938294514,-68.32986347712674,-21.40658595546938,25.641888606232836,-29.6759865347421],[-33.557344655470565,-24.95624846793931,31.724543280212444,-95.74431878927595,-34.59612612150928,1.5282878243391989,38.43158278262289,1.5381165712695284,33.89707275214897,57.873322628757684,-45.048450428683005,-36.91426350034266,-55.2329845890494,0.47118920610554105,69.00740843975247,13.665458522228423],[53.229098428834135,19.061717151694555,-6.287736158173935,-68.79025457903468,-30.745971749155686,-36.29716082065709,-80.7862355023244,97.32369155535773,17.40356891043498,-5.938675937692719,-98.07329869253203,46.55212882288179,-25.62307146184963,-73.60946127803388,-13.860186433638471,-29.635472870168574],[-66.87758469095296,-82.47990663840898,55.45660325521529,21.661237971395988,38.8175015943666,-36.061365615244846,16.46764102337447,-24.769526410479305,11.227666170223157,100.23512934803605,13.935871069154842,29.446108592471518,-11.449936659138727,-55.60531884882653,-73.41787214922643,8.051257826383802]],[[33.034418166270015,-15.30829091737242,-32.78099166306626,-24.148001362695705,-54.522361784286396,-6.331929363570699,-40.08339800577109,80.27283195777406,91.54981555994483,-32.47291332119126],[12.988676327188621,-46.456994819391056,52.872090854392255,-13.0434916658072,-38.21373535380219,37.12440331065463,-66.497234717123,-58.93775970985672,-29.905732018864214,-74.3518516418925]]],"biases":[[13.734299218996053,21.194283109083436,21.892785369376043,24.010533843397198,6.975883875497193,7.665514935962366,-19.664868315654324,-20.139583437073604,-9.852554338470537,-2.6980758566942877,16.277708740143897,-9.596030994785997,20.542882693205794,2.6399643848756282,31.739300772491042,11.680028640449827],[18.089388257831263,1.844122497438106,30.094244196059556,-3.803971302297487,-4.572024400791269,10.117419433583551,17.901805592958574,17.65017229284805,2.82719468172357,4.517109070639935],[-7.696448885306048,-8.524499472349998]],"_generation":481627,"_fitness":0}