{"layers":[12,16,10,2],"weights":[[[-27.314579226779166,-5.5206863054961195,6.101984474853867,-16.102259632431224,24.02581029762226,10.98333132819808,-12.036364320338482,-21.21935445985436,8.798507424093776,-1.4920200191067707,2.294554286303054,-21.722616222941724],[-7.750212701436137,-28.199954869409748,-10.015938023757704,-43.18357446321268,-6.771445873286692,-39.84302703188397,-23.65839448499355,-69.4126242657999,-2.38092248705082,-2.6048497312113965,13.758633575669785,-5.509287772727192],[35.856576830193276,-14.547341997860242,8.347500317675633,23.50551650366868,-69.4994463113589,10.181468833302674,-10.195984038415089,-10.105203867554057,10.755157451622486,9.404899110049723,29.584933288086535,18.013098944022424],[27.336674920900727,-7.909003961676436,-4.430147250405016,16.757756952241376,62.562698290399446,-25.954806903104238,-0.6068205895727479,8.46654327788574,-18.139158349488625,-6.0710775369491685,-12.721400877832677,8.71186247920109],[-12.09751939401077,-4.823961915520432,0.9548376693634305,21.394500529897474,-10.138816120356399,9.575537335596154,-0.32338893025924514,-18.315857060233018,-33.45119932049518,3.7865643337196135,-0.4931423786745434,-0.8103847950068873],[3.302083156517884,6.206620280924247,34.47600874865891,-13.307228407260592,-6.2271011592794165,24.950736316345385,23.424101254607862,-6.3368885369942385,-19.547570716358518,11.534086855894175,12.434915396560772,43.34225783409284],[-2.1247895687071123,17.662830114080002,-27.29598803602112,17.846260810972268,3.446113977174544,1.524823755256353,-12.110090564749704,1.705834315429811,-44.37995094934818,-1.0882270626171775,10.644630143031181,12.107332555509931],[-18.226209244326586,-17.898747028356965,-2.1936992084132467,-13.797098952659896,-7.824545723746268,-3.700464662591906,2.4540354842467687,-54.04581917286676,-14.260932945830772,18.506685819293583,-4.0105270622889595,-25.318499450229353],[31.143373442830786,42.966958858888056,25.967898454332733,23.522428188052317,-5.808025776891041,6.825883180464313,0.7560841646865814,-10.078346737167285,-9.998307330430432,-24.29595980500537,12.3169649920224,-0.13462067349494125],[39.002549105158145,25.284357363227095,-22.39087549009601,-3.5720202733163555,18.447002656157412,-7.520652244854371,-1.489207453322849,8.23134768207946,32.133368866932024,-24.926149831180155,13.842295555656818,-32.60126749169626],[1.0792129692158388,-16.993639784855635,2.257345783307826,-22.364919332364202,-1.6590590995824692,28.738219785191998,3.448688583287682,10.274119839535974,2.8092930787960286,-2.391957221253901,30.203939961908922,-13.922750657206215],[3.305570666934766,19.096133826703554,9.675652136865372,5.124960274101989,61.47693510875393,27.564273546635867,-2.829515090294853,-12.061569478930586,-1.2460372973405254,30.04227736387777,-47.45779880257945,-26.372291574081864],[-29.27236531212964,-7.412417859859902,16.597931742606438,12.434041941235575,43.779937931398166,-11.141470415787197,15.270296062297058,-9.25138433681275,-0.7392653478896338,7.64187462196585,-8.174393927259583,40.35984654227894],[-16.10314224436132,5.848005817844914,23.801972400082228,-6.1325531796797765,17.478998009616973,30.475144028449503,-0.6758111992232411,-12.108613356174018,8.597644108820987,-4.154884699410668,-28.60740151826057,27.289862175642945],[-0.2715979943386641,-6.361347208418038,-32.899093646770105,32.241188498726686,9.786130289877065,2.0458659767896132,-11.938494079564883,27.56582896166578,-25.501701303685515,17.806444891408265,11.452154624217137,40.608079079899206],[20.973542894796477,36.87701333041081,-9.979813997165133,-33.17378593848886,-29.20064970377451,-17.475798983987087,8.717953475215497,4.885276041200408,-19.00280927462868,-5.7810913539950946,-3.167362027255529,18.782666791460063]],[[13.816508413387847,2.5936301385312777,-22.94486705241984,10.148601826763523,26.43831028951664,-15.65734615363978,18.870282937354737,16.790666505596203,-10.884904472239992,-29.5301595446209,-48.22704437364065,2.9124631703126704,-8.461291520332493,3.722010560971685,11.375772933825143,12.856405452032055],[-15.377248646987768,-17.02173471276227,22.105510468096437,24.814867526266568,-39.686875109057844,-6.518247681829924,12.880452956894048,-6.21348655938603,19.78947822175069,16.012481177060224,-9.935532694423934,7.490642750950837,-35.232474110492646,13.597139727960004,-0.154173775600403,22.580990442520765],[6.374855423705549,-14.166884104504494,-1.1574895534459733,-10.296093682540352,-11.479485587633175,10.359591065513607,8.58560909547176,-9.05995117380392,-4.829025998970232,11.370431117941854,-27.466949477900155,35.108744888422336,-17.463822714694334,-41.159000514731545,13.621580425634386,8.406304293076504],[38.45089533038891,6.83440976153188,23.56628415264371,3.230422973025809,41.13368104472876,-1.3714693951866512,-37.223547040513715,28.20190240056884,0.5694544846339504,29.886018839373577,-42.55172674123708,2.7430210217783064,1.1850749638039964,10.965183704482975,12.143828024919193,30.06407385133446],[-26.239440083252,-4.28086754348149,-12.715241672435802,-12.825262355016951,29.89925336414915,5.109274997388102,-16.648017984098985,19.231891897464976,-7.712499352059974,-19.95173722491687,-19.336980471694897,2.8446567056208463,-21.528245341718424,10.713087300736039,2.585901642198484,-13.106457430149309],[22.997877227463057,38.93056486697674,-28.45462544322942,41.42017323694076,5.633952360654932,0.9279227535020191,-18.493339737511985,-15.185627305779544,-7.481638811551224,-25.80918882844159,29.066669845434774,-11.77862116746858,39.944743067622575,-16.42996706046464,-17.60152118060491,-10.133929997115091],[11.874566367159325,13.224655711672488,0.015773854378091465,-6.058252806242642,13.589436860908165,5.972816277194127,35.18303189034885,7.838099633969978,24.49423071930433,18.365641137677994,7.802499799538889,33.24995344021503,6.686882180498999,6.245808623745315,-53.6340262750931,-9.97898180532048],[-20.435163366135562,-39.54287500992458,29.44684063015314,-33.48942576907749,22.900012091304582,10.676697776030045,-17.10740408174935,-14.137394257559004,-1.7954610041732872,-6.060093916269873,-2.877129327360346,-42.06181729600125,-19.82752590318453,-15.131292300200194,24.610324493620343,-15.45773552901855],[-16.36898782653835,-3.0435380983952722,1.1347070611061219,-19.181914708290375,17.505438379125884,-10.162558216038883,-14.144771791230218,43.09297992385645,2.1019590205986507,30.98690819953931,-2.711312735661678,25.71521376357432,-4.8943101359804455,-36.72203233722072,-20.499311345337876,-15.196220891716768],[-21.052147223142082,-9.62132231232006,9.654077781225634,1.7165428729987513,25.059949368536397,-11.69247023633653,-17.150349258054465,0.5064293735004803,-7.048787177391252,6.805254848590028,1.8440333879466422,-0.9634572018850623,13.315060069309524,15.607403072078952,-8.695747413850464,-23.27597441835904]],[[1.740674415647877,-1.4389837507947711,-17.490555904419168,-10.673384910285021,13.520511943328088,-22.405018552405007,-4.3522100844752645,38.002494972073876,21.96850366607531,6.246304507086442],[29.457561733378842,-13.443631312583554,5.674230407779763,-14.473606268508735,-30.919416748086086,13.237291652330056,-6.139166271601449,-20.38070656753583,13.575831022807012,-14.410979466705562]]],"biases":[[1.6647984802727411,6.325799626685025,0.9026254022650799,6.56259485371722,10.903902966178126,-2.2682487805412963,-1.6634684938209274,8.91630980672301,-12.0434265004085,-0.9132005066810588,-3.3784484138623307,-6.062258449581136,3.3671711601817944,0.12584248679324694,0.9181816116212692,3.1628192231661347],[9.13525372247025,0.7384589804015803,7.567067514470791,-1.036232253798241,2.7815199039697758,-1.225019403292408,4.650835015768082,3.3807930399564934,5.9269049554611986,0.024034625823893374],[-1.2860992675235552,0.04272728244782707]],"_generation":91627,"_fitness":0}