{"layers":[12,16,10,2],"weights":[[[30.065780533248773,15.584498524899086,87.18170028493238,2.287482935345594,38.39561057547519,43.09257647801941,-79.38390462903494,-59.23304542803482,-33.01295687376675,-19.749667208003252,17.27229510394236,-38.20928150951527],[-40.83576733915059,-26.680890040009462,-37.69120736688728,-3.3341278110430754,-44.69589719616695,-44.65103023371359,-47.07162779924838,-75.73745871907785,47.04326359637078,-24.059362061112807,-81.51643276312353,-45.16571593124823],[-4.131832422528135,-26.22367883368741,24.859291807912616,-24.31364906009395,-38.81105379403258,89.03827127631585,-27.4046866376815,-18.805573585984416,34.800144317691775,7.794364122115914,85.8713156368356,44.553634680326276],[-21.280101519460175,2.3626743762149394,-32.70958307512424,49.1100575771297,168.95950610977002,-117.99272748940403,19.8374803448368,26.809961975711882,-32.568575848690415,-17.26645857993402,-18.765294245969383,53.94359782599474],[22.579496542588444,-16.869606774549364,-6.385174189744415,4.181277179075028,77.34260866698003,-22.725854607824925,38.756385819617094,-18.8129730737567,7.440158500053887,24.189022817810752,-32.06632378727012,-7.743493101768697],[22.125066637781128,25.20087748341554,-38.38288090547692,-85.591602502551,32.30772818030746,-23.130258432718406,10.936071535503125,15.391313578555593,88.28554366123659,50.39786166101413,-3.851091870558351,30.918493957751274],[-45.03408845961051,12.358831782393128,-5.540298851126885,38.475638979226545,-55.768106581559536,-11.49635722090065,-50.153497021372324,0.4203036171856433,-53.93004102151807,5.661647428323851,-12.10720245491996,24.11163762287411],[5.9002008606993375,-21.6247834848306,8.979875292174224,-54.95670811569816,35.46611914536679,-12.228194252881796,6.165035687760392,-51.55772743804944,-46.78586924912245,69.3742056487474,-48.35044059786387,89.59222678822552],[28.385595840912963,6.048991064316329,-20.34081571783135,65.4188390476167,-28.98672981144493,68.12825962896456,26.838459247879964,34.52987872802267,-10.037243196415632,-27.438486412763723,-18.481963437496546,-10.228459000245213],[67.07570517012195,107.54535280945362,-93.63957418699198,-12.773184028356921,-67.80007047573599,13.997462697284353,35.83710639759372,14.642678624316703,23.494362612794696,29.240331620719562,-21.87672243137652,-49.25610048137029],[-38.127091014507016,39.11605651686992,58.923392397711375,41.12823889922433,14.550753017874198,46.75021183176452,-5.20257264393116,13.247788091955327,-3.3759128496191537,-31.760822320254466,53.33633728512839,-48.82122649106942],[39.29801130246374,-11.316381528590492,30.467736773511437,-39.360894537721954,122.07380685590599,76.48737165178245,1.9475705352800547,9.306529227933787,-4.8208678716141895,-11.413983843410623,-10.291365659881407,38.15621230131106],[-74.00107330527072,-37.474452174685595,-10.818274659114334,-18.716817876831684,58.171030104303206,10.932006891384752,22.877924256660233,8.182244120970116,0.37655000273759376,-97.60241373424019,-24.09290192847848,18.58815967209821],[38.024704152685004,-60.635348104878865,-19.043180621054137,25.700973710676365,88.07871425597693,-3.872295895210633,-55.41553833780746,-91.72404725878516,33.5527787906514,34.76849887135314,-11.851533181380876,54.885539844575625],[-11.839938751974465,-23.23392616468352,-45.43382034871903,106.12274333355728,51.199923923578176,46.65712488101042,-25.7349666891793,26.833750010984296,-99.04494806649292,65.79796401172365,82.05034466683759,38.17049893416423],[0.9192344681723761,62.33390943797094,-54.56243009841682,-140.61534479914627,-50.47740869985415,-16.675883682841736,-17.71884996263804,-55.23604853310236,-62.68118045330719,-38.69417840593892,35.68132629346797,79.4920110443501]],[[-3.0245099142379908,80.09934439785003,-10.268795930179113,-40.86461721483532,74.88645702650628,-32.13682490760625,-36.52713333880298,-26.620292203086642,-58.6983217799086,-60.3588724343684,-61.989256819568155,24.271274246411743,23.19618701421639,63.557412749253274,-71.59646904022475,50.21621458459129],[23.874653293197944,-41.91261235851222,12.045561817959417,38.4625348977851,-7.559600010271217,-33.202015713240876,14.86345334620517,-7.2477527531717785,81.93753285430219,55.17178836314199,-13.606228297765664,-2.5569048244496675,-67.03618000004295,19.74509908109042,-14.768469206067982,-4.633813734324169],[-81.1918897720617,-32.660556495578,19.889436533028974,-87.01694590690035,-83.2466732625329,39.46435850283808,-60.79452813275995,-26.78988738792085,38.74630366433917,94.6213381759761,-21.4618648825175,18.167140958859676,1.976639494271193,-2.0890098153862975,-14.376163240451193,40.165959682215224],[58.300582449790575,-11.413274976510001,-4.473182519168849,2.2231758842846707,45.37163497901395,-43.00922174078763,-32.84550482475454,27.419566706037852,-16.054818225097385,59.08868658006996,20.064548175779123,32.8726364997724,22.29510581297431,15.727925944126088,-46.52159154140656,24.709062980612416],[-24.391851993908755,-10.640509169390663,-92.2816377384471,10.58345613031813,3.1745316027850996,17.449061371102673,-33.14169568958208,53.00105979879642,-53.09721600633663,46.98705553398327,32.97220376322332,42.41145313463987,-43.054309030985664,21.07967903486597,25.401871443201465,27.788806828206205],[-69.68567107049995,14.148331612638755,-16.99850072825915,49.55820949240013,78.1887060194533,47.19790204979335,-25.063716388722607,-41.004002355009135,-26.467135950103092,-76.93155667970726,-38.310393603770166,16.249023848470014,21.29956527944295,-11.203761384377227,31.68537826216178,21.479432114482474],[-30.180501558750457,6.180506757683712,19.36469644427722,13.554905520616789,92.76911620005374,-49.48570589250805,44.79047546893469,12.43784893843164,7.192693800645508,68.69841849077662,-23.678103041592916,-32.88338813524234,-82.6909777426064,-27.79901253809787,18.58881574548102,-39.544962376556484],[-33.10451503157536,-6.338984003432801,26.849970778200973,-89.61549951823199,-27.73119318446349,2.702985928280899,29.04102245244693,-17.18864183705258,45.65472056508549,48.608156472759056,-47.4769696566404,-25.08860546133901,-64.65380460566722,-0.5835461792122288,66.11247631527529,19.950586649390615],[59.59877917423151,32.639276792650364,-16.60052899938839,-66.06085369577823,-25.07813333029369,-29.43894757430371,-98.612135811675,97.75670018957963,-0.5265611851458285,-18.279043461667488,-98.82275312164737,52.91087723886719,-47.96807576335879,-68.90532258488562,-6.536323433935324,-36.44507031040525],[-54.61011514485955,-73.43180015974279,68.11414976400545,14.338805771669605,38.37006613168936,-49.89374214570092,12.800230857792286,-16.070925537396164,3.0804421562104083,88.24025231494745,5.868232960297212,27.23173463985722,6.377247416761403,-60.540276361777806,-78.70038773510777,7.449576502849966]],[[19.357067371990254,-16.500502240484145,-39.81641941595532,-31.64910399630976,-44.98944422342164,-21.424073076254803,-36.761282075026216,94.6761195718893,84.35642430931098,-27.642814856670554],[10.586543433748815,-56.05907877288195,43.018714365724136,-6.79444605204301,-47.139341593286034,37.42519485642623,-65.16159062003304,-75.5021185369388,-43.44282236383293,-87.25579743182121]]],"biases":[[18.124348182165402,21.105478929234607,22.463925294190233,19.860982273164286,7.589912909638307,6.219088195894064,-16.578487385611865,-16.929976999192345,-9.289793289328918,-1.9410498109014678,18.53052340914488,-14.46008417967135,22.66948693384251,0.12174972943388958,24.54987151679434,15.205992855913333],[16.644432678904746,3.487578093888882,27.45140677666079,-6.4904517002176245,-9.210418029574077,10.898766742048144,18.911321668436145,17.34122610989908,9.647548640674353,5.28991977852321],[-3.9880306358727884,-8.08733862884659]],"_generation":511627,"_fitness":0}