{"layers":[12,16,10,2],"weights":[[[18.051700895145487,-5.231230268983578,33.44469736046567,-23.470097973294155,12.15752093407414,42.22787051330635,-46.5962339735315,-62.008624611304704,19.722422333338894,-15.530242751494272,25.998055614433678,-58.782705961293836],[27.162866186601434,-55.533883745210495,-37.24197525334357,-26.291108201756046,-54.575312484696326,-41.74741586028859,-48.7196546388282,-61.01342595943366,19.62122980618151,-19.887254445728683,-3.7407822515983633,-4.014659522727676],[-16.7601730913718,-10.931841123669358,49.348230056029244,10.679477240910504,-68.0343113043167,22.67524319833806,-9.116438286860962,-17.993534304845323,22.3016015282073,41.36395006747617,84.65761966092846,-4.6467516537818305],[2.5863923489606666,35.466181527789864,-4.418819018778914,25.764270475949594,128.52864881135594,-40.70516725919353,-0.17952235385994186,-9.514106551215198,-17.162267365458696,-21.95304967216786,-19.799942797432163,-9.682126535851511],[-23.726568666493478,-31.59384219954491,-15.033314876067049,1.0930205910661808,28.633125246251094,-33.20690498553471,-12.702377795171103,10.616180869356914,-40.520215987969905,13.104053335581558,-19.860916774508386,1.1631138084927464],[37.84076827538354,-11.146066408614596,-38.89896424316116,-56.0279317784941,-16.167320230317706,6.325037906987159,35.482036795559054,4.280198665940883,6.88632938882239,60.63767399021598,-0.3286356867491065,38.60579252083962],[-57.191288255538836,31.047717759348654,-18.235408738870888,27.063928745814046,-18.415778907862965,1.291122734829163,-42.67592375478652,24.199633865903152,-20.594042711162803,-12.08096300775822,7.42490798069482,42.56749677963717],[9.820141711023526,-54.268163162676665,-0.7795389104569278,-16.01646804917814,3.400600898927565,-17.119374886818324,33.31872992647186,-51.8716677247364,-43.464884980070195,21.71964641407489,-29.324850518190157,31.922126681452344],[71.35078521765077,12.773497225118751,5.300411756975457,50.5693762737036,-1.846645820676475,17.643925410576063,5.581695543028474,17.232213093086862,12.74419901246954,-24.202662074318884,18.22433618648951,18.410616792374032],[90.53492917404085,72.41137129778431,-80.64214979583654,-15.052027843773008,-45.3923665452312,-53.03342781180133,42.25006495263448,-20.33347475039917,21.609962291955085,-18.288013651893753,12.637683288367299,-40.14066414244439],[-10.192235866179148,-25.60722380132681,65.63730214667353,8.103500098154639,0.4928432769859808,39.797921743322064,-8.089019433400829,18.637704062332954,-10.355767956979284,-31.68287859486014,32.40611205849948,-39.03968290595347],[15.716898302367332,-7.726652413323837,-1.2832305976664904,-33.38354914447145,120.06250249453592,37.96840118936327,16.934308775067052,19.298238049605363,-31.1580634513475,24.909102015506317,-52.51464466125536,19.861602225016114],[-31.380303303212397,-73.39536331922827,-3.1244107680842648,22.624264534255946,54.22718249812787,14.728504794027758,4.29026143255836,8.68394919034566,-11.593017825093881,27.203080329421937,-13.600847652505605,50.18292288745073],[14.062760315362162,-15.084845988785519,-14.820978948761413,18.021403219342144,89.37468046041191,8.660770793464534,-39.153113569684564,-70.29520660323068,15.734710546189213,37.25350597883167,-17.196569721534196,65.05414285845981],[33.711510582557054,-15.597126872008253,-15.476828884419712,61.99907405352805,13.475481292687757,77.70644698026747,-27.96578152522338,3.845154397352537,-92.64477811940475,26.600586821284434,53.24324786997485,34.7720795040454],[15.502224286146726,36.5704346948894,-18.922701389126214,-107.0287737743786,-57.75583312345209,-21.413225987359162,-42.61468148672968,-24.813477940515753,-21.954293413395078,13.475331847746391,-10.887132085827247,73.43050613414884]],[[16.54196568843177,26.31092270558422,7.720136834082652,-12.454292754496398,72.1968615003015,-28.663470672499418,-24.30309345288979,39.50378474449853,-25.0132105412358,1.9851694981348835,-34.130301335322564,28.94381520639187,16.645001982953225,40.04391832581114,-35.82878267606342,34.53419921052283],[-4.511278989704233,34.0083530529156,23.620084923995304,25.529532840025723,11.209070676392225,8.61219491498804,1.4125667945863678,-21.123366236666925,73.67499844651219,37.25961268459643,1.2748767610363763,13.56122426424425,-67.70709689600875,49.24785723440446,-13.019786464623001,15.285054473576027],[-16.33991323635201,3.3470364039613503,21.990895418392,-71.10306712615315,-37.193765867761705,16.11505839040284,-1.9031222074551422,-69.44153730511002,-0.6355859558143085,60.01162866084743,-55.85474416763875,14.465563773996879,-6.946245899543078,-44.15311426595925,-17.292170157250897,-4.259549479177595],[27.853188961530375,0.2902950770609686,-12.89382441417504,14.414121343476761,6.969971683960076,-19.448859492747165,-34.240405735583984,8.08257362032322,-31.001223484479183,45.19114608825575,-30.068689124171975,33.180903122399684,1.4747909385266675,21.550041869112174,8.631230517820422,41.557483948133495],[-14.473276183593399,-15.193693621861263,10.095074712884767,14.378567624198478,7.55336605747496,10.799802131435932,-4.3410251139088984,31.717965359228327,-59.32912783807783,7.666096558921472,-8.466367688170045,38.372068553890415,-50.01806255698776,16.077788158979132,9.552505828255631,-16.840906835879576],[-25.298758556416328,58.19799383532112,-7.338594302740407,55.01709422714808,25.752172907226374,30.337356201556887,-1.4974197666125877,-5.083164620371013,16.18213714874076,-31.658288506158666,-0.7042263206419792,14.101555130834656,36.6582950960722,-49.750573489076686,-8.061771180690222,28.350111695316965],[-3.048087474209729,32.03318441275519,2.353966957198886,-37.89944231532837,32.52703330676783,-36.62756850573181,55.25873857418501,3.7566805642780277,52.7762947128798,82.23335737440603,-5.8492979179877445,39.458435839647905,-20.766692323586106,-11.039200968183465,-36.57907107402822,-16.643810168027674],[-37.67999565602493,-18.39605301474862,16.015026156902053,-81.49714498348831,-2.3962530262985746,14.810600034852557,8.111887486149561,13.940346908504427,17.818690788858323,12.741718094811388,-12.064407306292182,-24.81258045895838,-41.9071403974706,-27.095631337761482,34.339557777029526,-4.72826178611681],[-19.053441605400028,30.772800919880417,-16.48087368350888,-29.99804354957454,-19.16860632292024,-38.69668468151501,-52.0023735667856,58.708325895243775,27.097475368229393,29.15662645612139,-41.02861188131485,40.35136823639635,-25.501007507890584,-11.385869971503386,0.3230197253307513,0.2943679373195571],[-13.900655880659889,-65.74081302874606,6.880307399810027,67.43272164561019,22.554281133113523,-43.25265157162691,25.8599582687671,-4.687000579290079,-39.51733933540785,67.6578256628172,11.59678576890251,10.137460081238657,-39.61969896042228,8.288185479142305,-27.063904315258945,4.388005149534108]],[[-5.616985983953998,-12.175140617321834,-2.2251903434604987,-21.229704699139027,-22.097599381209285,-10.089603852442476,-32.58714399120553,54.261740910895085,50.64798834378998,-14.796368849469765],[73.50305049765582,-31.348409222338756,35.877499584149994,3.219766005902281,-17.028948681574654,28.51683025030675,-58.2604601559483,-37.330773317724145,7.373038463813603,-60.56599974795677]]],"biases":[[11.073730659310538,19.70153359633898,12.3505063865761,19.142306276933542,12.368506471203007,-4.079244675941302,-9.958506086599582,-4.85268187211903,-15.418360936823706,-7.806055689499452,3.978983523510539,-6.612310335970294,14.813487090241367,7.204004808768752,16.22742854127293,15.849872092281224],[17.337780927490492,2.3780563714911693,18.917702875012612,-8.179846819625483,-6.602944367293716,4.69298019860258,11.703822014134039,9.819649061448589,7.826097612139458,-5.953779867432319],[7.404745083705934,-7.916886388752828]],"_generation":281627,"_fitness":0}