{"layers":[12,16,10,2],"weights":[[[45.83766009733596,2.223274277327418,61.78620255201299,-29.452082525275447,46.01215133323137,76.72595205950935,-123.27302177808933,-50.53202469951762,-42.89003696173134,-25.94455187724364,3.4025339448546776,-74.28183253760847],[-51.68447123646015,-71.27074477064129,-71.521972648471,13.457371690819626,-34.53067950166298,-19.176357805122137,-28.148854989711232,-98.78454626287922,58.56597505433482,-64.60093165882655,-59.786861296050596,-73.48941139523457],[-13.811248337951131,-16.125652253854575,22.022591831276117,-55.77528619800043,-83.34038864840323,92.59926942003506,-49.66085580921557,-9.989125666844657,20.460585957119722,11.017220070744285,90.05376632590523,73.33680711240946],[-70.55415365918488,-2.050939118544832,-39.51029537857181,54.4864227786696,164.22182898254204,-96.65557354130695,-2.356217053927962,44.688930599057166,-55.98081848483828,-49.44920458247902,7.7687636335066435,11.390557016706987],[35.742203993774424,-13.492876253379553,1.8847660863845868,-13.528762345170685,57.644007405516504,-1.3557989595454878,66.4614179388496,-38.93990345875847,31.3353596250599,27.557528966031988,-9.726867520296457,38.23944760408285],[56.59275974900489,-6.7213573857851445,-74.8148482284405,-65.13632427517737,30.208531341695778,-27.852416886702386,-16.756991139640707,-15.809743187544889,82.71268760927668,52.51287982999018,-38.68265809926298,-1.821208549081868],[-29.233006482244516,43.78657972828956,34.80807336692238,9.106362106490478,-86.31391325176698,-51.80310076641102,-73.41755742280841,-19.20159081273239,-49.11541734981939,42.11215025550796,14.689399957853546,40.657883013987814],[28.93768625016863,-57.177484330771534,29.231163717675617,-40.23554202043551,38.77517628346309,-27.390295006970717,-1.054958186780573,-11.135496812086735,-33.012564418638746,95.4106836876718,-14.440482674346294,117.55900716790497],[-17.04616081060355,-2.2006093149504795,-37.99147229304428,62.02193943920439,-10.140308318997265,84.38747952017769,24.706694703447557,41.31972472093265,-5.287232417910002,-15.781519925241852,-2.3725580699436626,8.775623335244191],[82.79989920542039,111.62271166042335,-94.54711736884886,-24.491205818350455,-60.36950507296155,5.26672950687093,7.321182585288726,3.840472761623636,0.9185813672357774,52.56059076511068,-16.383301064349105,-75.27073735112273],[-18.395809953720843,70.95110584666764,38.438240451432314,-6.839248552412335,6.372121334342008,67.37993685944146,18.263682655234074,29.81146252797106,16.02936914307069,-26.336624777905925,24.84360875075173,-37.97718350479994],[14.775236060989409,-51.087317204051466,50.81930421712944,-31.183190254093546,85.18389591202785,66.49569023931306,-36.868771969707645,30.409817216364438,41.8538266636678,-8.423496498224074,-7.458651117325547,68.32850534113047],[-81.27832587203198,-36.51863693005924,-4.749957458367989,-40.81303558448038,30.561606019257777,6.374505891067553,27.249082530764,16.18815754583631,-7.467317898608027,-106.19000440037881,20.024296015326883,-15.141458512732282],[54.55558405008482,-77.10218767458115,13.012853800942182,48.71607995407719,57.65535283004538,-19.71432527884121,-37.56695085616855,-117.56964952868233,48.37339235498102,40.71519865368076,35.48864721898053,90.45217511026121],[-5.927343922014173,-24.921404485641155,-45.44670044972035,122.7571764748615,74.66712594484251,50.930387664550004,-0.9567694725824416,22.942979547475943,-90.47170983514359,87.23387756673493,86.64610103232249,-0.7884292385024533],[15.831457295062359,77.91377650811947,-39.95398590688456,-153.90005078304137,-33.38339888333384,4.674681611316778,-32.222576376024385,-82.40834049941083,-88.50193019659703,-44.18218922945497,19.240324879383728,74.34612058972705]],[[-2.1888055502562334,64.00795226893298,-18.93286880165696,-55.67838399403483,87.39633673090653,-20.22800599398675,4.459663061386027,-30.404331983646735,-26.24063212854975,-56.545830248391965,-65.591313267948,31.14874550988729,5.063744935594856,62.54769644408006,-70.19025189743815,36.933841424184344],[-5.5960025747394075,-37.27672509417789,4.56713777727038,40.987365334020446,-9.936909920857714,-17.605791754611854,29.49267502741046,-19.712267387571526,71.86772775668157,76.60609168794673,-15.628797951573732,-0.805022555066503,-122.14069077019225,14.816675480517805,-10.57787616504702,-17.882904781889877],[-75.23188134585641,-38.77287600968642,-13.939580172903307,-63.10272494913287,-46.62043629079471,59.98805292031751,-59.28777803440019,0.44015184516980654,76.46944929721609,113.77569531436639,-22.92732808636454,9.834303758972718,-28.128934072562263,-8.841139726049272,-25.792400549356923,33.99377151799962],[71.64463056812195,16.949782269780926,8.142099414492705,5.208050496700886,47.48458207219249,-42.97443332848468,-54.859250588029134,33.428236963917406,-28.593760499442688,36.94429797748406,29.114571671128925,33.28705231591141,27.80175522147204,15.30686943465224,-39.407851426090446,-11.421543881291909],[-6.607986314183349,-13.730953584014403,-95.39159777148369,27.381710195688402,1.671053625044533,10.842396033031495,-16.56480800304353,55.399110960128745,-50.76831170300805,57.591109670448716,38.066099655593206,22.308176381752666,-72.24540760792362,-1.5481723443418296,-6.736293560262776,45.33332393218098],[-101.38665440150861,21.28536711682571,-26.836940909963328,47.92711028268894,93.0932322770055,29.70348340141013,-10.747630281582133,7.988360655709054,-34.85972757954299,-70.63588661074921,-50.70334399642956,20.242083719491788,1.255631171894598,-56.39274251854009,27.884338855517615,-13.035299379914365],[-77.83375988422914,30.14464704876158,13.586905367806335,40.98244087029946,127.19194818544064,-63.128495927390034,15.571279268414088,-8.02217024325343,-33.69021223884566,36.57670909526696,-17.632406640159473,-30.982451929254214,-99.82712007974375,-73.76740614877842,1.0013928980496256,-33.23718615103932],[-67.36139778815485,-2.351922120132005,62.217144573284884,-88.76574654338668,-32.85815880273415,-12.638320768116637,92.44233498540676,-30.729686960193582,77.54022636390467,35.659627225814454,-57.8879411056095,-53.05467383206953,-39.29098046940772,-9.040558503905173,54.76158235216093,34.469059632831836],[45.44014432343017,20.52700563673053,10.472380896238743,-69.04772288612081,6.214234757545061,2.038429188512907,-105.91064163205375,120.96558216313905,18.22425757283261,-22.769174712519654,-121.8244905310126,92.0226955735343,-54.46745166325374,-77.90055055366358,-15.133965558955941,-11.64436135053322],[-87.75451236484584,-73.71671713876253,69.90270461625057,2.848074786000757,19.806765905062893,-20.420914852047876,14.633935556045252,-11.25343531204199,-58.562133112982984,53.20771135307351,-28.29031076213775,57.590856704944486,30.586565623383418,-91.03354848588519,-88.83564100671808,4.194092015141283]],[[4.673850523793393,-30.676583597444747,-10.589929864908285,-50.4881079029177,-58.23880265782525,-41.84366682910357,-39.03007783880253,100.82549852905208,51.067284269790875,-20.226797621162802],[24.98352291168469,-55.60787875349046,55.83302407236847,-15.942166228326128,-46.49492800069773,27.080599151100948,-61.575577771800916,-44.00991008170239,-69.55557322167458,-66.76979408572147]]],"biases":[[16.361022526661756,34.08606622160729,26.821632101987305,16.300055073499685,30.96074271008015,6.505036935380263,-16.79964908678256,-5.2456923216314335,-6.077832486641365,8.01356397595057,22.04359198879474,-14.958902848248924,12.11871090895978,5.218059278975079,23.58532195790662,15.798490844976017],[23.502414653714478,-5.4612636103228,38.41385528074952,-5.959891800641567,-8.375200889973737,9.256848234529706,7.066002406018602,4.169622068617513,12.811738351372986,2.1044553430638873],[7.148180700371384,-7.130939891014129]],"_generation":621627,"_fitness":0}