{"layers":[12,16,10,2],"weights":[[[-38.6675655907642,-3.7816804587436454,9.487612275615351,-20.492951828017166,10.10629663876744,11.333621701650907,-6.354106664110291,-15.368195593466083,14.434461931063975,0.9986126989112005,-2.491684095624716,-35.722017341909876],[-22.1937766911324,-28.476246332510698,-24.195599949025887,-37.88398386508368,-18.18257007915245,-49.814923382456854,-29.72310639217982,-69.48680481294609,-16.278001107298387,-5.247750879592497,15.724191669609759,-8.424073173559975],[36.65981303875581,-17.585139224591575,13.856263995839148,22.741516590008697,-60.12104558704569,26.079680897400177,-9.343912677460764,-12.101875770428267,16.737179162546663,1.561443871806958,35.61763915611688,16.011354588479882],[34.10684282292326,-14.464783067205666,-7.637819129214533,27.30120329337634,64.08076624464714,-20.79339922725336,-4.577482013272606,4.779147748399387,-14.511085273169213,-3.022822178224171,-7.66999522370743,17.23843058378877],[-15.844787555833486,-11.832536920977933,-2.6174065549894205,4.4610688806619985,-16.575469247701022,2.984433321381227,3.1920114275440774,-16.3361399044597,-33.71647052101804,3.072510790370884,-10.770626575915987,0.05157528418991986],[8.670468578085282,7.1322348776038975,27.105935176413258,-11.039161229466705,-6.886157067042419,19.682821498167474,25.569188365505543,-5.902655528471618,-25.540629818142232,14.808719925371769,9.270616849553393,46.806907337492476],[-7.986343689283842,19.061309054143493,-13.982805894968433,3.313216648509682,1.4323998959614277,-8.315801935439838,-4.268413350433236,8.980308504307228,-43.61762838043285,-11.958638002505262,15.193870787961579,12.337392958065804],[-13.1349587727064,-22.89759491219219,-2.801816880454563,-21.581917626870784,-13.527476468044501,-9.233290916796342,-3.645033537491197,-46.08264582231441,-12.496931685424839,22.338258796859073,-16.83559490891286,-23.866976729090833],[26.270741841065096,41.33619786617054,15.536389872815388,35.4795650636412,-5.991505196221099,11.910996425897022,-3.792967783002204,-11.625595852997398,1.3955264538702297,-22.143909616286223,-0.7175265547569576,8.077343398253213],[34.18902887334237,31.432658086609866,-26.639200217005303,-14.614075561169972,5.192012078894642,-10.873291059853942,-4.397908308264663,1.2731416544062788,36.775192297120775,-23.162049313710188,8.48282619012198,-32.25626553607165],[-5.888492989196691,-19.861423757912895,-8.25099829846379,-6.930518466883182,-2.3079989577616855,36.36583420095844,7.056977466399553,9.220273482616873,4.602650863610977,-23.345279277822232,24.694114631363835,-14.732762003594681],[-5.297829911209977,24.5226843359568,8.448610285409801,14.875859554146212,60.55952392182325,31.051150268077546,-8.733433870893533,-5.353233250562735,8.89598424354134,12.020353383635065,-36.53201922763449,-11.872924304170827],[-27.941998853242154,-9.107026361046712,16.66722963208424,12.124706150676442,41.137176490048454,-14.160611136179103,16.390120226754906,-5.5067993320987725,1.1268114942786052,5.067585807741388,-9.162032753225569,42.57933181579739],[-21.17502499474179,10.787000125331364,27.552936591225844,-1.8529550971510886,24.594776535845362,32.58018892743055,1.3524250542413414,-21.113888852178395,13.047373313476829,-1.8560342044865323,-33.03432863981746,27.903278457712457],[0.5664944715902406,-7.209883884794709,-39.41355511670855,32.5154648777967,18.27273152807114,2.4707899900841173,-14.04132847348884,22.42665072053593,-33.057734078977475,21.960909283135358,9.577965768865505,33.89592713707503],[18.56237851606388,35.30343934647646,-0.8039107324414939,-36.16336624362266,-15.361187651774971,-17.602348756773985,2.7952787439008873,0.06591108994622441,-3.863881796201973,-1.5494732088240726,7.738400875684312,19.045855370602094]],[[11.451847855217878,15.964883339001238,-22.37372762499217,7.310001530285289,24.350891600305204,-12.046023142966522,25.358787455726553,24.022639816624135,-13.101462653758938,-16.80100906264471,-47.045967473108476,14.674554819031544,-6.534039259323713,4.453616631301731,12.256080535295396,25.482832213671017],[-7.677628718894009,-13.768581167107788,12.462384499294172,30.794329827136078,-40.50774425215476,-7.998131781926674,10.341985805653973,-7.829257051021621,21.800859063894922,24.097285100206005,-6.799638159857182,0.0335923420315324,-39.84127792255915,16.668137390199586,2.7630236346203576,32.191390059847095],[6.280752096462054,-11.74901526279078,13.503031086541723,-9.433869482414266,-9.5164285411347,9.55976018178972,8.571998474379898,-10.847352043620372,-10.70409228576483,19.95509875390137,-15.331429193538668,38.051838959000584,-15.72727009689083,-40.03924498733514,-0.20733186705610446,-4.529153893379894],[35.661137877541144,11.946102000299069,30.291620815960993,1.1819212443655702,51.178003112781006,-4.147426253024041,-46.21285635179587,34.22756666699998,-1.6493616048234583,39.55483939069888,-37.64443886722341,11.90195702432848,1.7600855609953943,8.330388861210979,21.80400458426338,36.305363111428],[-37.380557002708855,-1.4118096295339146,-1.4003631077920407,0.8067080295629927,18.054177051373877,1.5833327599080778,-34.052203698719744,15.458397856510345,-8.304269903485615,-24.162155007595945,-31.871877238732164,7.543050893294222,-12.82960161590192,5.924966453280701,-0.3746768469719779,-25.242921884421662],[15.994919197101392,44.66935402835164,-32.33995071836351,26.12074888926995,3.0601340608209076,3.09066091850544,-21.020796062532114,-25.13517760027478,-11.363598878932589,-25.026936710812276,25.459574485941772,-17.603501528389447,29.32294983570098,-15.86132924450281,-11.296645189369077,-7.676737776499301],[12.161732492115707,8.813676531677034,-1.5117648459000506,-8.80766266796374,11.092649925453038,0.6194434448695556,31.398450316342046,2.5389614890345493,29.893596160202137,7.130673324605633,-1.8984728705105456,24.687924897030896,4.302682537839587,0.9737889257369414,-54.8374321924027,-9.335016559909175],[-21.25080101869186,-36.36624499895576,30.06934732928056,-32.80661615158023,20.260150550145163,14.716257123699265,-17.010190541733092,-14.486869869381593,-8.261367657714553,-15.461270792430076,-0.3233587446682128,-30.1671129142673,-25.47129558314618,-0.42629519598809296,23.25719026997495,-12.18309051149982],[-14.673930594828983,1.1807613915180966,5.566621926641941,-17.541409069082764,3.7424999599699067,-10.456406048025977,-10.997641136233034,25.36949090439761,4.990796921504584,41.56754174227468,-17.075814914661308,14.621990582073382,-7.776270032972303,-26.694282405596315,-19.819247654825777,-11.531314113711934],[-18.748400869200882,-26.005045799663243,10.987770142195012,-0.4840496716914059,27.62393046182519,-11.631047679359295,-6.238936964512428,-2.0797498098673226,-13.396418052704972,-2.3355254364849967,2.7718955359300046,-5.927222138130399,12.724183500830138,15.746353421975126,-8.865646311304285,-14.635265166045615]],[[-0.644905927529083,-2.0522226703888156,-18.750548714295864,-6.948429290363157,6.389739612106214,-15.477753821497195,-9.82487485993893,49.642662335993144,43.86049582650218,11.117170319798939],[23.254847315310098,-21.43830335724207,13.543236340195689,-16.82600435444883,-40.74076830704076,12.73766437378766,-4.534971538610771,-33.16731438454193,17.723281415475387,-13.287724248129376]]],"biases":[[3.8079488274234166,4.078002525949831,1.337931469254799,4.554972200255119,11.070453302697377,-5.040695661553199,-3.034708003455137,7.8619353262841525,-12.339234156093001,-0.6652218761480144,1.5174993553318814,-5.942040745387717,4.353351254966705,0.5368029156713771,1.2641737223832994,3.264564081769354],[7.14858570609233,-2.223208106339163,6.835291412619277,1.105578301473882,1.3657269960219367,-2.5221381777908305,7.713002385075803,4.503545653702777,6.800794791649152,1.034816257324248],[-0.1004907395037342,0.8234846349675605]],"_generation":101627,"_fitness":0}