{"layers":[12,16,10,2],"weights":[[[-27.18075154472163,0.278589026863567,1.4759013655437836,-5.396173257109307,13.099350792167549,3.7999298041700365,-20.461416471702645,-22.898008287511622,-12.19460016017805,2.856375698140053,-5.714753122043135,-8.377965577376916],[-8.566115809235272,-40.38454025707385,-6.589517679326962,-32.55756858986839,4.018267011255562,-26.89444690373135,-6.186856217287646,-68.87663083821641,-4.221441698746767,-0.8154513235515908,-4.756822521988344,-13.289782066405134],[26.38250867133743,-5.092309733158491,8.095000882509735,7.25344723124536,-67.38096744888291,14.600137339246512,-7.470196774912601,-3.4992250983303244,9.404997278122263,10.57576754649637,29.107442226176868,19.977383878115962],[12.785067652578055,-1.8025979284146,3.0954058219844525,13.02484378054622,65.78522076203971,-8.939997999957459,-12.212435493055235,12.042180530513356,-2.8872171810937317,-4.251518183847618,-7.89470745071832,12.470994016089449],[8.668636083451776,-15.91399891427966,-13.525737502332456,13.054554631021084,-2.579709757978813,12.860754988089221,-6.234701645037375,-13.204403390644327,-30.010078573977285,5.643754823408855,-2.2523307716281873,0.9334599981917339],[4.232994319485333,0.7857611764347834,25.235709521697416,-12.37135617154837,-8.432418182921083,18.962849203693597,20.037619141701658,-11.212146133656958,4.145210130497861,5.728197783992333,15.262949314335343,27.630319830659175],[8.411781704041385,11.694718693369342,-20.707569188516906,7.610619499997244,-4.683629618353062,16.36043488369199,-10.683445157147476,-12.28555024948987,-13.098917937270143,-10.089894648706135,9.88109845976542,10.224100448147174],[-12.416370253113083,-13.415850159666002,4.495873336800613,-12.700294238102385,-6.481931063508462,-2.061557640870727,13.164476756584452,-27.239937045674434,17.105666974270573,0.1052542433202385,-8.262821062986673,-16.009224561000686],[10.339168228161137,23.291630119843507,21.11605027230238,13.475741923733835,-14.282174788838226,5.944335180176897,13.12253314525451,-1.453757796233039,-15.851734147680851,-16.200281491862256,4.670890826080222,2.1476579098425206],[29.468809014038975,16.32411445424429,-10.417205693458179,2.432473467529245,5.058330338648064,-17.833161994013537,19.64140767752869,14.463589982794597,10.47545489636372,-34.87962596673887,-6.193675684302752,-18.264289361758365],[-5.047686956926012,-8.75266693184145,-4.5787132367882695,-19.899225929345956,-8.075155596196598,37.869288783605676,9.209171449624089,2.860638621078777,4.531748529834883,3.6474261390473686,11.644013334160281,-8.567415584285868],[12.740348011453301,25.02411042204993,5.815888775669699,-2.3137908649293983,40.32223726565598,27.118004591930674,-3.620063658099236,-7.0042551625025915,-15.5512946046826,26.03552712517085,-33.06706791006962,-16.66946757504652],[-22.17488163715037,6.541453956842252,16.646534154280967,3.6244498296819807,41.80486916676955,-0.12048779714026632,4.090354305668576,-6.581255511495072,-0.8138120058388028,0.6825838077410774,-11.863796529426473,18.218101074408228],[-13.571467974451169,16.00423576599586,11.505656664111958,2.6707543459264627,24.28947488816795,32.388518400379084,-6.8593469542831285,-9.126118414407006,-0.20506219607079035,-8.874833405649282,-29.107941527505165,18.84301203574629],[1.1405757879536251,0.4025682348105031,-35.54245968690281,32.824924107043955,3.6495741757650566,2.1248667724726826,-10.126938335596119,18.84315316099776,-21.52182332490843,28.445592731634747,18.279992833024036,13.61264818562702],[23.939176620536895,29.400306290282774,-10.14499207539981,-28.50905846648586,-17.234329681964276,-12.505911060563069,10.928691334471901,3.341236974959393,-13.382159296015745,-13.122835606273313,12.288999584431394,25.519414425144923]],[[4.301865397088061,8.84539979147756,-18.02180286602134,0.44220182139880776,12.479299759923219,-5.046018164295782,21.79197129544191,6.8569313716840075,-6.384034368011017,-31.907155115456476,-27.670420151732475,-6.086095283256707,-0.33827882775138657,-0.005061608427460562,9.220382916087994,2.2520974686988584],[4.74259317475806,-11.556467576837807,23.518694652979146,6.690098597079816,-40.78146459038135,12.522979904067062,21.41256058416778,4.367521638583383,18.470445598038317,16.213472456118364,-21.977491403728628,-8.274467593618327,-17.36369801436796,12.501328635321704,2.3768878720590316,18.866256035518905],[16.657929572837975,-24.318509402254065,-3.1544696432552595,-6.7245241521461585,-19.84227950156024,1.8839051195033338,14.200718107788374,7.374541518734862,0.3255512913041093,-0.770186590277091,-27.22126324096187,35.90201123381446,-0.37153046114181987,-33.76855319411734,6.375036066671667,9.998157392915335],[19.322557985587625,6.57770762460826,33.94826156452736,3.3914294962081155,26.340181739673838,-18.44815056354604,-36.21068260176907,28.53943123629112,-0.21947709525925072,29.20417761092362,-28.44756292618897,9.117485206519467,-0.8849585924015152,-1.0629037019901715,0.05992496855281154,12.878872735692296],[-15.53150154749208,5.159815992924584,-15.760571289658314,-7.211262192714193,16.519971967434905,11.301740381185738,-22.062725419378328,32.303091791216396,-17.267757309588124,-24.21001531374027,-22.05595774765946,-0.7318278402778515,-8.29657350358567,12.036719412916051,4.0185069254857195,-15.514185706397374],[23.47785039931651,12.933530959027337,-25.283179204455447,29.453072705264802,5.502906277562198,20.604911650271674,-8.884093373061056,6.3814403988126545,2.818627627283265,-20.806691060926806,14.121179110114163,-13.259032902425568,22.591011947002183,-7.090967386037306,-7.401221399456443,-10.720604302943054],[20.278732145254324,12.008663507650455,15.609689828306017,-7.57240438159104,20.86263589953366,7.918120908293916,21.1864160126848,2.8841081233409738,8.22978248252784,14.86449728776793,10.064953500521302,31.14710567719078,7.226982872719017,17.775989715387535,-43.18835163372874,-5.3094935120873945],[-23.864574768868028,-32.55294728129244,28.867060927686097,-23.374949527508612,11.199908719157708,7.9357849679740395,-3.726181358204573,-11.445648528790347,4.010660321548794,-11.834671059660096,-6.234855674297846,-37.77375511530531,-23.52288537165799,-4.843010708862723,20.23430043897498,-12.238472093496311],[-10.834467928862008,-3.462320287323955,-1.0047791980429082,-11.786919493359466,33.308428254405605,0.06903227340270955,-17.28471353569117,39.981894533535915,-12.760829519618966,35.66321308564413,4.824479179526011,25.81520762271131,1.1037506870380358,-31.980076472784,-13.025289152803207,-10.01881661808827],[-17.461575505181223,-10.763458545866394,-7.030859830136579,-13.098274851554446,14.618446521302342,-14.684642771753062,-9.522269385140357,8.296404628018674,-9.659277898777953,0.5213749705313917,4.404711783389666,-6.469724924609453,21.826229677485124,-3.7613157276265174,-14.737448449177872,-32.65033461250661]],[[-15.538396498122932,5.773782901150732,-24.2831634840072,-14.599467487497952,16.833981925633708,-25.665097673002276,2.084563508039086,33.944185956557575,9.735756081538112,2.8608154379651753],[22.23753575901124,-3.093857767617845,1.4752545995452397,-22.643601209570086,-23.001411521713706,9.938374849886742,3.7850126379862217,-9.012143103332004,-2.2000901335166834,0.3109734420216965]]],"biases":[[0.3722117995866042,3.511650940194233,-0.9650299076738091,7.882107657991513,7.11006982321264,-3.847167801457867,-2.8370338437792944,1.8346496552190972,-7.161626123394935,-2.610253780034463,0.9444658681045046,-10.828130710690708,4.179434361743539,-4.79114426730806,1.6547120207657147,3.9987685019796775],[5.683255149153841,-1.5180675124690173,8.81845228040793,-2.387181746372602,2.9621740183029894,1.0026795325625788,5.071891090273286,4.187852933873996,5.564370952850699,-3.8854256158691682],[-1.8841372461321235,1.6860755214216356]],"_generation":69627,"_fitness":0}