{"layers":[12,16,10,2],"weights":[[[42.58486989656284,-13.06754022652563,66.35289996075983,-33.88720503194054,30.728662564636604,86.34192704926237,-131.3896564051471,-59.67434733467533,-26.251068794875444,-30.624479310597255,37.479942394696714,-106.1752346566554],[-14.29272382720271,-64.88516527344346,-106.17633993326582,20.111348952009152,-21.76852793002921,-13.820197232372012,-42.169028682154284,-91.48092926679836,87.67841625359233,-74.77778936710007,-56.99119519124405,-75.42976532289394],[-2.113523901171988,-1.6245143820614838,22.906773528964703,-44.402316665764026,-58.10970984582695,94.02294568728725,-52.35750883903224,-34.74959242831362,13.069454522267788,24.56798858422853,100.09550492597404,95.6746692715738],[-59.90329525042791,2.1548018216424336,-26.521615696976877,38.88034083529919,164.26346669157553,-82.4066336674316,-19.99768384614138,31.134860606452474,-1.1000824757599277,-29.028509023273326,10.50665984979737,33.80865993950625],[34.34015173009595,-28.507709140855134,-6.570287266363795,-6.399322950669315,82.82763205116854,-10.521684951185515,53.2370086743354,-34.28584422284487,25.483633304144544,35.13295375139018,-1.0544420794354787,58.031068222311895],[75.10294102336,-26.367405733529534,-80.40958992430251,-58.88285830082734,51.26264540948596,-49.20987319165339,-11.544327764798252,-0.9981508227115401,88.13873679978201,24.538751923131684,-39.771227589137375,-9.839340347135805],[-50.228358990300904,49.39177720945937,67.66945551415489,-39.76392449438787,-66.48198474814724,-43.093134721382455,-80.3602014062,-18.432313627613908,-84.32800993321962,38.958850148046494,-16.113595789694653,28.133881500028014],[19.469636088937943,-19.6488162838058,45.68738255860321,-44.52942055647301,65.83391137642877,-19.232412287853286,-11.347534235567801,-12.430285386240731,-50.61203634412048,105.47452365865767,-30.90733421948763,128.2996972482975],[-17.406558718627828,-6.036337513328345,-47.74174429702271,52.29988235787595,-35.75695752679954,89.19056175017805,-1.0907147555366028,79.91584122952946,18.986641293969857,-12.841080987783608,-1.1952071472210597,-0.32724691460313843],[86.83577497654622,98.14168522011448,-127.13614349362409,-52.53465065361989,-58.41965862822231,2.567675056089082,26.82167368111837,22.110635588982113,-2.3075627790163553,18.506435785616578,-24.70637660038958,-53.8441430591796],[-38.765360297706614,44.710673332397036,48.7272009848005,3.6016148265715113,26.478531176913894,53.41035890250044,46.339958057789374,32.26113263068824,13.742985761101474,-30.412811353153916,12.059069465400238,-14.918231292314898],[14.538918655084428,-49.65176575617741,71.02531637317635,-48.98381647544561,59.405002192614305,57.63073981242118,-41.33498003565297,23.258595311561518,38.31531341183427,-40.40729158429494,-2.2392379031900056,81.67799351005068],[-78.95603996675943,-31.86290051245827,32.1083397481219,-51.64181624432259,27.750365019670696,2.573348675965483,44.69021033263369,3.707741478901477,25.378352602495678,-109.6878946590228,4.2527998273106515,19.921312844922323],[38.99852779985419,-81.8921283355385,22.880987555974905,79.65787392482105,40.413669953806426,-39.18487881270413,-43.94750393915036,-116.69724952614091,36.80438129006179,55.72713445536614,21.159932533834294,91.52256019792904],[-9.636297490234826,-53.5504344367011,-9.590298172191522,108.03272668649225,12.680580414828226,57.80436935100039,-20.712884130198276,25.999926100174864,-116.94801767935465,113.27186573156345,117.43499374849122,-0.47710940661280293],[58.06810348625834,64.877802420357,-87.75270835856601,-156.6771826877538,-28.736719033476934,-3.593150545521881,-41.69511208058867,-99.14728522664164,-105.20915286014878,-59.75562247475737,16.437491117458443,113.13897137590892]],[[-16.449710357903125,55.062345982232316,-17.575794921399712,-53.97135391544838,98.62890494780098,-30.276818634928233,-20.707533061876823,-14.689500994572112,8.116251631479223,-61.396559145043824,-91.92118391802784,2.75715696816972,17.36207196537911,47.78183269625109,-64.07169108657494,20.482772426350994],[21.122783097281943,-68.63055753983362,5.918404194229176,32.47498244583282,-33.213072375059376,-40.84796781254439,74.74099601782117,-4.92256587645949,59.63352504500884,60.71709513460106,-23.234285242588236,13.99699084227496,-114.17151741833838,-3.452114517917015,-23.66214971548412,16.2683403221277],[-88.00656405724294,-43.321074414628804,1.110039757341483,-64.37823445802547,-66.779450324992,59.004722014440674,-77.43556888654241,4.981038033250334,81.20520451797222,120.84160936987082,-25.549723123856616,9.877177251162593,-22.13017726323776,-31.121180325666007,-28.566420365685115,23.009391652770617],[71.04548352174551,28.332311908540895,11.457734376897669,12.349524954608357,50.37908361677704,-37.72125321654476,-50.80203160410343,21.097167637171733,-25.296499167202544,83.38815632641798,-8.60988849375213,49.2385935341201,22.22341615725577,4.2583885766421306,-64.70388237823609,15.49613228526505],[-6.972442433130251,-29.36773757846531,-103.08125476349836,18.764720914780835,17.141824073868953,-10.627439484704816,-6.412485683763862,23.14523668668956,-59.20325767972813,54.367115345016366,54.728128607659585,21.178858969796902,-49.142209187307294,-8.064768940120414,16.06102643817724,48.52665801689218],[-119.02527169472091,-8.770036758316337,-25.13587161374808,55.963780410898394,103.87506183595067,21.333123556653856,-5.3146270823932955,3.3368289964670867,-54.53793228642695,-40.059490089088825,-49.56526162618451,-3.8279756178184483,37.499649803980006,-50.273406014747145,25.823083749241302,-13.319259726679528],[-117.37386479603535,33.216734021529156,-3.0021357071381396,43.30725309422175,156.27555842932566,-66.47712469102686,35.76104106661634,2.197310175888632,-41.1228679958361,55.053971759921744,-25.472778207880996,-45.68692216849503,-92.86465142750342,-42.18089886841591,-50.76911249937179,-46.526047137388],[-76.19661214332827,9.427472942966899,71.98996691622709,-111.07950234784883,-24.68395336816943,-17.10252812241054,102.63607965143675,-52.6975197685223,67.84344149477313,1.8634375992550194,-43.153026780756804,-28.8843113722183,-60.073674683270255,3.294315688314728,49.543767569605514,38.0476712615024],[48.16442987004934,-0.3379398332354779,13.999485736750284,-68.69279168304094,-12.881187837135819,-0.5298337708249068,-82.7634854408451,130.01310380803153,-10.792470990492811,14.185172722549702,-157.55984409611403,132.93111035620188,-38.376692243228696,-104.73189622372661,-61.7962741694563,-34.77946997950723],[-104.92111379653613,-63.500642176863344,101.60439967585775,-1.4971340471144434,41.13239587334791,20.27447484546688,15.576262146533853,-2.0261884236569703,-66.74834094750854,45.05309170901468,-36.49216115636811,104.06847608600947,40.951876002531016,-48.50313420865514,-110.84641553885135,0.2885383275351546]],[[33.55644381357707,-50.70419315335504,-38.84483179366213,-77.4387795592698,-69.99974564572078,-45.69019420897491,-30.1416881155809,89.14505312822256,54.811355095072955,-48.92602187097852],[21.17517620589909,-70.4441672823501,54.56605116011089,-0.5493776963677992,-41.661679626116424,30.408494404461067,-91.95366126899548,-42.802550280016746,-109.89245352435334,-70.04296005404746]]],"biases":[[8.777443923481037,42.79571864911807,30.3855682913309,19.144294493448413,26.2463587158148,7.069822546738203,-17.035021714930718,-13.064180776720264,-9.49462784799981,6.037234153006476,23.60725334644043,-9.759871653345323,13.969449746607811,-2.084682914062375,27.380740785745132,12.940373002231615],[29.82331301530275,-16.633065990083512,36.90697064636198,-7.745809859644011,-9.857045125148428,1.1881540320809343,10.166906825032997,0.28335524771644377,16.116464741323316,3.054815269530891],[6.436657200106546,-10.405014889258403]],"_generation":701627,"_fitness":0}