{"layers":[12,16,10,2],"weights":[[[33.94990046368694,15.589528630647596,81.17126336943171,-12.46622665490484,42.627000027558175,27.054843327191353,-86.30582489430745,-68.96405944029382,-27.338269503365435,-35.03611209510507,1.8833010479486343,-41.3405375041366],[-28.270457185934937,-40.83113690840568,-40.43149014623485,-15.589013813544673,-58.36917538456262,-37.16148379180357,-58.504964798632955,-66.73792449047222,48.42962989224558,-2.182311894187585,-93.20765308820272,-43.40969551327716],[-1.5593144515196742,-17.99981071503986,31.681547821569374,-17.507567036159564,-34.36163812299079,67.65182281280893,-32.218694059469904,5.155614817741357,27.590020398667104,15.339247036888468,69.49784504238745,37.227431997805695],[-16.67071801952314,5.684354249117222,-36.67186689750931,51.40054748450854,144.5716748104266,-110.33082356233585,1.6479785765927597,30.579763803053563,-21.05535859111978,-12.475092151382704,-2.5145929463137735,53.83099062825148],[-2.5180948038488578,-8.285480268496627,-10.202037547366384,21.75715359803308,74.10963529239626,-35.24245758526931,50.29151871642822,-13.838834259607832,-4.323021555976195,22.03526511626263,-42.48771937364163,-11.698658761568993],[16.44162009739685,8.815832967621851,-43.92593012077631,-88.76163397354247,34.730686125502714,-31.902164852249047,22.081803829239448,27.766630456005416,99.94817850762863,42.85936167793073,10.646862169499475,22.282277180765355],[-65.74591272700415,-5.934162243076985,14.404301738594716,30.666646570311304,-36.1593595450283,-18.931449190679523,-40.335757637971874,17.08579765076888,-32.80329242001667,-3.4879770917788897,-17.90987588363921,21.828445320531667],[5.422065674768013,-57.1355788147645,13.17980807221763,-53.2129545144304,38.26386794172071,5.279490645204526,20.899338334624108,-39.726018948606146,-47.295849346265655,78.86087923375156,-47.73049871022698,67.01482721234528],[25.80319094846103,25.79352138114633,-40.79010052164647,86.12161529688116,-13.19381371693116,61.22748883494252,19.429429179726284,26.250489046758997,3.352686736664158,-35.19655741180616,-23.412712177009947,0.11326121794662532],[79.64755586602568,111.22701397196639,-104.62516486949922,5.374425821605482,-42.54667238741554,-7.619011486978337,23.6548911647559,19.75197806142176,16.575678345199915,10.171915004507927,-16.345624026540243,-34.048002527632555],[-31.727805658299758,25.376961278421906,53.70159086020625,63.324340646821824,19.20647505838575,47.629704721116,10.934708545023273,-1.0500014873789367,-18.209125999175427,-42.889852133912164,51.03192087577689,-56.870187125924225],[62.9589231048741,8.145377858748997,33.689216154910675,-30.260032243683412,105.9064844844293,53.51460275214313,6.476079978571661,22.520264081195425,0.21987492719752166,-21.444352799145598,-26.20429617424133,33.98270323674307],[-79.04969879815276,-54.04540301536255,-20.5741766641528,0.9290126640286347,58.567584564943346,3.728791287233725,35.01647618681073,21.81498388343317,0.5437430793233445,-96.76420923804436,-21.7878289112875,10.54659294428188],[26.577000942028413,-55.62083117142041,-38.51715530907768,40.707442806365286,80.00854412023362,13.198394794515151,-36.14160199362418,-67.81720941270751,29.519261954624586,42.011084992669666,3.0363875047756945,61.40910692484834],[8.963110022906875,-11.522530685514795,-42.087037830622194,118.31577817401117,31.623247671274967,54.831368671628624,-28.22573955769365,37.52982189342844,-105.44763758913969,59.563130487774814,72.37989074977236,35.62983422260487],[17.24457051421546,44.11416104597204,-66.6083087274645,-149.17990685775192,-52.34601795992901,-4.088461575007333,-24.24439094947553,-52.40941549131245,-61.20795040752563,-50.307668317400285,39.01545028433263,89.3628923754216]],[[10.963443843663098,64.88730991723011,-9.757790460373368,-33.45844604018969,67.29869020993661,-32.07107412836449,-34.125364869744814,4.082208028374345,-52.05001266949234,-45.60750844452117,-53.06338557836284,28.888189674496257,29.923813273604384,49.93889683151256,-58.50639239285059,60.406305378040386],[7.08150942350244,-35.060578252388915,15.546114837253674,24.44556555684924,7.295427645611895,-33.72899035743702,34.79992997206347,-9.06446577614145,83.66392969592069,34.595728156047336,2.0213644707432272,13.227654849189747,-52.83875418382941,34.93681529840691,-18.404450204955225,-3.5941685514235884],[-67.90168215171468,-36.100263305514204,11.192690062921631,-85.5087566128378,-81.43127793946137,24.46681920255125,-61.31399061599411,-30.933115248568274,31.28136539861443,97.79522377827101,-21.65220954267355,13.671345666316661,-10.773680473711625,-15.027095933982842,-16.307079070715766,42.44963485959785],[49.01267279119339,-27.63833311161007,-0.20080336429598855,-8.47131951909974,40.63275773731606,-43.49908422138223,-45.69038073487656,17.65370281352792,-41.90954156363457,49.16018825494309,9.464040290636747,31.98378010865385,-11.187465833588599,25.42061866222749,-7.967387703396872,4.297580061574667],[-29.33177399256017,-19.327030929466634,-86.3708453022491,31.056104264556346,-10.831289806617505,43.640113612126854,-14.445132643277153,43.28807502320106,-58.46261950325874,40.738614122690734,29.325398207587757,49.893107771981576,-49.702745344087326,17.401954655583413,12.046721976844832,6.00841880340855],[-66.7531873832367,14.235418133010858,-42.53560762080962,54.87887529795053,65.62797585091148,43.66891843641227,-19.96264771394901,-29.096666911606263,-22.537370049297525,-81.49362433388987,-46.92314414819788,5.991882320575406,19.183337190583334,-7.367940145584233,28.27023938612497,3.249896933365013],[-25.026729010954533,-8.188981015280595,14.475617246951858,18.915258933780997,77.3073395429347,-34.771163969595804,53.394086266720606,-13.892556031760245,5.671114447494684,51.4639895295415,-27.386954599376747,-43.94474522453007,-65.4422309067037,-24.78941976833714,24.45799055379234,-30.800255026011826],[-20.340138538339218,-23.202188955546486,32.08641195708481,-102.38018981554123,-29.09775685588059,4.773086681406896,43.29073180339458,11.60895271328099,38.29103064927777,57.48924614428192,-46.46665099877955,-40.92936502685075,-49.96672438652574,3.5229289926458134,70.72667283330219,8.807783857874599],[53.31253179799466,15.16851849805149,8.444484634768976,-67.31769018209332,-35.20205794332477,-42.62398556238893,-82.02076999346396,95.66910500986839,14.842326314706286,3.7892646642417827,-101.4361516417168,58.82735269693177,-28.95618413200016,-64.36510370540014,-16.27286361865387,-28.594278926506163],[-67.08109551568795,-81.83700012263266,42.18678556506496,27.664058143226878,46.44711631555706,-34.94803553182888,21.94754345551293,-19.13258112036918,12.534981684432895,97.99874173079446,14.855309450256826,35.167219639649936,-4.46446003386855,-46.614292015784564,-75.23465330992379,3.432888842222613]],[[33.29261157365981,-12.181456475444241,-26.12694829378818,-26.898425845757462,-52.90121482902581,-5.276712688249306,-40.04798539784705,82.22424039230174,90.51926537699067,-32.742851622306524],[17.2909525341068,-42.26263742548669,48.516717551603286,-18.860449534212233,-25.73958683283039,40.716337533722196,-62.32732518276981,-54.44389381356296,-27.82561537101368,-72.8465546155794]]],"biases":[[14.197434721671739,22.335019080980892,22.0238249377874,23.79480835355023,6.910446572056787,6.67550782507981,-20.209811884878356,-18.75547376754601,-10.022043129391413,-3.8824868131006425,15.572193108531089,-8.756652562531864,19.150404498939185,2.616064010290486,31.02225709167526,12.978494587227491],[19.59016011692106,1.255731001166018,30.297757675436767,-2.6444357778646506,-2.877645608439025,9.987327704316025,18.158670007297914,19.90564961815821,2.9946632160102764,3.497268964870864],[-5.985845935246792,-8.233995781672341]],"_generation":476627,"_fitness":0}