{"layers":[12,16,10,2],"weights":[[[43.04506922290748,0.4333715849759671,39.08750296996502,-45.74080859382768,11.872865193204081,103.62451433690214,-165.96260823956678,-69.7284722010062,-92.65225114097585,-39.33515496018984,53.145962262204804,-92.94560445525607],[-61.610888611211976,-30.097056823792105,-84.69076901775698,-13.140150106505338,15.029485639076885,-75.2361728114152,-11.59000103348309,-62.336560905772785,64.51763677862347,-57.73263232787495,-67.44741355812272,-93.01941179130581],[-25.6554771972404,58.737757450800494,35.295963514586,-58.44217641557565,-96.36622033935951,143.56170739496858,-23.68463908006511,-60.046620925438155,6.390818619810464,24.321597017134437,117.2930551186793,131.56136757143085],[-62.86531887453393,-45.27303998892403,-11.82377237232107,49.992628076030314,168.26073199295678,-76.02833862037556,-24.316911012206575,3.9424669522209284,-3.6805154784029033,-29.821972431064786,-4.5036564750726145,58.20835128777572],[8.51337259276789,-5.497713537902254,-15.821909819554836,-4.024220074293043,125.56972815682073,-19.884795322020363,57.073729724871,-33.88496771494388,69.34214393905764,62.34711470420355,-32.60443400084894,57.113022713582055],[61.55803296342579,28.64882621029928,-107.15645725932637,-30.783280333506802,102.82503551697083,-34.91835846233716,-26.957290597635975,12.75416334251421,140.8597956789942,-3.4181804990006643,-35.79132480501861,-33.4588573679014],[-40.90624874015998,51.24000955250552,71.21266942100831,-48.70059816859626,-100.97691371662899,-56.75408360536786,-32.86638943156221,9.78158647049857,-91.26903678841269,69.21156309365031,-65.97248535475603,41.25966904987922],[-2.536368267287878,-42.06622273850044,38.33361870048592,6.309319573826119,79.1520499071218,-6.651623647802176,-47.10662753358766,54.689044134780204,-47.36236208641387,111.0464008532244,-80.09400459104974,96.78185174653532],[6.805590467193128,-51.65266935782395,-56.90110464794224,76.70362602592577,-45.20395233725879,56.179018107033585,-21.316420140282396,105.72662690793938,-1.24683568706676,7.262514251083724,-17.785993159132357,32.44817196332801],[74.43984754362594,88.24551229267249,-108.39095373166906,-38.59354082539369,-71.43319202754287,29.38665601124339,20.011418366085003,-2.7753660600958097,-7.062721878455935,17.597956299655777,31.721046334639816,-95.85248212028876],[-31.413525599164252,50.78308001301023,65.5909559336796,26.25768318747162,47.367313848151184,31.381058166434016,55.86111244009768,27.30870386802543,-22.003698209922618,-8.12290215868804,25.35276373637342,-29.196290198264258],[46.97364647650445,-93.46575930296177,68.5736131819174,-34.66755827930046,52.42997490929259,69.96444698828073,-97.12851248127642,18.02999347323206,39.346888212473026,-85.87889402430949,10.329894655166543,84.51543953887342],[-88.28332698017425,-42.36893181117656,19.48406931611806,-39.78869873826255,4.323568410978331,53.129169275493574,52.09064972770148,19.22882306103249,71.8372153941477,-123.5575673514442,25.058845092267948,21.62662222606649],[-3.668084623443193,-90.38144197796852,29.656883112347813,69.18406010801827,33.278053967971466,-46.37648676613704,-62.603058615373655,-55.73349675958919,49.88879779945343,21.4168889069948,14.381347560359577,123.96349471494695],[-16.81268286599369,-107.96777817480505,11.19187402004998,97.65390463576821,-16.95963101064388,14.572317477924209,-22.59440925842725,75.17734674132102,-66.29910201737856,102.50716198657875,75.67910529109862,-4.68489687734683],[54.10826364090456,46.09843694603869,-124.30785066555583,-141.5897885118112,-25.764106216735204,3.6310847032163904,-2.846956682207815,-96.41799039162599,-98.31001368087995,-105.84391526679786,13.289011459059465,133.58605357069183]],[[-40.202593102478886,35.515361787455504,-19.1367999400175,-21.002071068581923,72.38660712918781,-41.2593258910382,-12.69091990745529,-54.22386375306987,-12.294332607584353,-1.8903496752945643,-96.16937057852495,27.52782064703062,25.532274660617542,69.47801854927894,-105.3575890314991,50.38023945760278],[14.757585238899877,-87.20343047818224,-10.422402528758138,56.24413926850692,-18.183494124124284,-9.086425551796099,41.348281668802024,49.12289875507298,76.3330058561763,52.0490845636058,-6.362802286690544,1.9317511256413842,-104.71037589549728,-19.220432102283503,-31.90905911637187,23.762597960952164],[-85.32585716180841,-30.057316010757813,9.60413104486939,-103.03349720165352,-25.553789111193762,76.16425239400836,-102.37684497469607,2.5871436010260105,37.39509055375451,56.089390849282324,14.71661321463684,37.76632466856769,-84.9054372642172,-56.62842632682093,-47.69079261842486,0.02462847296175092],[78.292184741001,-11.073768836634486,13.612195232311947,12.525628366851418,31.198497954576688,-59.38000393888288,-64.27815829114643,36.48091757093615,19.814318956672274,110.7352225234738,-72.67741172566407,-27.640971552956582,20.40186834062772,-11.90623007458255,-23.003739397059373,1.3191444832183623],[21.620569813134793,-98.71162406434115,-112.0911120992443,25.683846716143783,19.537638175655186,-96.31275407385678,-3.309954246886313,39.63439097531068,-70.20566164946989,88.52112381311034,76.68873107944032,25.798044329920508,-63.15548478945745,-40.9895610340028,-12.03273653052961,50.23327551106907],[-155.15750307819033,-3.468681134847224,-55.19251432392549,112.56294485368558,79.31349057059889,15.425158825474197,-52.238415709980444,42.58407886535116,-65.69534375208447,-27.073248765580885,-12.141194307342646,9.793175692989221,23.116454406389305,-26.317529483321835,24.318416644822914,-15.576000716585071],[-117.90567654110764,-6.539909331096611,38.807028183154436,54.856410443226174,196.49795770230165,-73.00229850829392,102.58669943972171,-15.511992792503145,-54.769399346447955,39.5303919705182,-88.78410617507967,-50.42404891298256,-134.233362844896,-18.03459102683508,-72.20471417947837,-60.50939031200727],[-75.46553996996664,-0.77052345810333,50.304946833851886,-117.04887056012147,-40.96163212079442,-28.601894961821912,152.59076207005955,-42.18692564683802,74.3551803313726,-7.215595727072308,-61.79623467651486,-58.313280582219214,-59.59199572957007,9.657465236006473,63.84975311930267,4.152869969713311],[70.02353153244063,53.73252357284094,2.0048157665573125,-23.679378554584144,-17.343897146380694,21.659234420095466,-98.07764561083731,102.86960967344078,18.63805132008708,26.267691406491004,-165.6754591141989,107.56394199362735,-10.838938891465384,-108.1061721279803,-74.46158663124324,10.303178146892012],[-71.9274290936145,-66.34913469846917,143.6494829504425,-37.20088232973993,70.9367594518501,7.363914474863351,6.789871724521658,24.187158298889933,-76.01625864461849,36.6370303319848,-36.52585692811182,143.48335830946354,-12.808679497180187,-79.5795229254302,-117.53461775372128,-28.32873560000103]],[[41.16782159989659,-92.93866754353353,-45.76706483279563,-144.61429841085442,-83.78412846033264,-31.87926856878711,-19.169735745596835,102.79577402028497,68.55376127753831,-103.68083509183069],[80.09037919022173,-102.08557350940978,25.599418607468618,-10.387713605813847,-58.08364271607551,22.873150544499605,-60.230089529816816,-63.28610987966039,-75.771121004846,-59.21006529791841]]],"biases":[[6.78110857060492,38.85331629549437,30.759866008457365,25.087004897464777,24.432171804193665,9.379762634433686,-7.345002450469437,-18.47886758196463,-0.8262396032025051,0.30686006065688975,29.469531132929347,-19.51400352746303,2.1253132054162425,-4.2689126013809755,25.046408785477233,15.354845754462648],[35.1180858087143,-10.862989146920828,50.17704931649773,-8.067576153330815,4.091285712905751,9.334494065279554,7.35135112750493,1.913123605016562,28.13163510454292,1.4426344955479735],[13.977752591836206,-20.979698453334862]],"_generation":866627,"_fitness":0}