{"layers":[12,16,10,2],"weights":[[[-12.466250685980294,-4.421908259196752,29.40735270098455,-49.95138720449251,18.962591096309115,43.03155818439209,-11.765351075699598,-34.234558851257496,7.713144678083472,17.94381269026588,24.019043810232496,-30.057356238666866],[-19.835444122798926,-55.46857934978026,-20.860362902006592,-21.477462991583998,-28.842682853738637,-59.22781097083952,-44.56083607742815,-52.51672956603197,-8.531726703105923,-8.579941508003245,-11.44026358014313,-1.2458674250205117],[12.357903463669757,-3.62741803922906,33.78114751994779,19.75790972762027,-61.71983492396085,16.05937700300423,5.396000806423502,-3.4621460867565066,1.201033298958976,14.43406480260385,64.92034204231862,31.44098195530514],[21.754449546031356,13.72186095423893,-1.933061182521318,30.826938138120017,125.83536733223487,-8.793135869276345,-0.6438870453848768,-3.389064453020754,-5.345563233523502,-33.507225853136696,-27.53569113006411,-8.470207570179735],[-15.89794455122757,-8.62072163473656,-24.498956066073525,25.124305270466778,-9.818426061472874,-31.517537830457872,-29.23166327175559,-21.159381584763363,-41.31573465272122,7.8922206041190845,-14.140350149149926,14.678230716049532],[27.394474270477456,8.9516941834907,-5.931891027816949,-44.473320344465,4.702241865275544,24.497437985992747,43.50207582801205,-10.779623040392327,14.082424859681428,29.94708048974508,-11.319898134219777,45.284481762352655],[-45.96469682210058,41.57422936926887,-25.783434898484913,19.38084693137874,-38.87950264090548,3.869528950909005,-32.267451140536046,8.317799845340852,-54.40933572740309,0.7099348826366304,19.619072469606465,31.149383028834894],[7.105682965744957,-49.40689804355125,20.433426658521654,-37.96230935295193,-19.835782919223963,7.948114105159831,8.741662256112456,-50.97836777040156,-28.633485394852272,13.74655982461185,1.2265842792585893,10.36736654687268],[71.28854021693897,-3.683441298368152,-0.04344898264941788,54.190922485653175,-8.281691838227921,11.909019548355174,8.639502777964895,-4.988120028826845,11.359757730653902,-23.434693830943704,8.165746025224742,29.107627276168873],[66.62198951076124,73.52706530965185,-91.99469807275148,-49.25643743475945,-41.74214017855874,-45.70421202944502,18.76094157439895,-26.412387141663828,25.678581507609795,-14.719779112713418,22.139191748424185,-64.49459075407067],[-30.00932804697369,-38.62926579533315,50.76284482282211,4.833463092302895,-10.980408115927899,58.46473819144735,-10.985203282368524,33.92026819062462,10.694246662102767,-18.50495513726583,14.882327838806043,-30.220515034999742],[-10.206199411428646,9.434597167165062,14.802334513803151,-1.5455321918624356,95.09741096275734,46.917775282170574,-3.4818865860357193,8.846120907548073,-3.57503534243088,39.851320613038204,-66.38085397899465,21.43908716584975],[-32.46376289100284,-39.90229495392372,0.8932316451955606,24.981451274241454,48.99850181875863,-10.013838688142153,6.0539804521991165,-3.1045305466361937,-12.62861094277524,5.706453229276699,-15.856199913598738,58.60938696732091],[17.181671090379453,2.4549524310641044,4.5188458389043875,19.9345841270166,64.3305428887407,5.467820999847884,-25.22073789700303,-57.103656360240926,3.727537827690113,-2.0560516475036827,-36.12282744639522,64.2011474024153],[27.848072638274182,-37.630505085569496,5.330743668239498,40.372945357194396,-4.365697585368487,46.997915170881846,-16.10926979255252,16.343365070132524,-73.77144066588079,10.831123092473721,4.742489974759689,21.479407626565237],[26.52402430094402,38.792419974296024,-0.2188014490864466,-82.50207491325601,-44.906137651526954,-25.793039728942173,-23.40127431974783,-5.565996952633598,-39.57061769674267,56.2841365827567,-6.70968817329138,32.30612499318513]],[[6.893349729122971,0.19520540543153508,-36.73062382629082,-4.049083006427948,61.60606847862737,-28.032255387563573,5.480636900907848,27.052255984079817,-14.466849520743997,-36.80929432451115,-40.15886280105354,25.649996830211425,0.37091866849661315,38.75203284728166,-20.78368290797132,14.894875385243],[-7.792011374784056,-24.164553944683895,3.8769467697241637,33.96607856040521,-14.233283030101985,6.957642570632904,13.859411263530369,-8.032909767263245,61.426995485656136,35.08085338045194,-18.81887094758288,-17.31587726418519,-70.9069379683575,58.25618745850817,-10.964919719677546,4.014533120321578],[9.966126051692246,-22.42151716623134,13.661531268480696,-37.301524640371504,-39.02241058231321,33.18509405758936,22.566285119082973,-47.843062346550965,-20.045982125441213,43.505534836958454,-25.005196243155506,33.50923982452656,7.447621075368008,-18.818262015170227,-10.501467516708498,-10.763058374647121],[33.341027459187835,32.348688630555515,-16.878558444164042,27.376829775876054,28.977461944791006,-5.512280405656655,-46.921933548445075,17.370861524868904,-8.050835214148664,40.78641761338165,-14.494770879579162,23.962609726027946,11.83896456561691,13.755940607942101,4.00431652509866,35.19196592330802],[-6.789430036740722,-11.4943804027515,6.903156357670465,25.767884376737822,12.621007606004707,5.834733180688103,-3.078604036427982,34.94815346016533,-50.37513772126311,-3.4965003915837065,-35.741538390328934,33.42128333237093,-33.854046675473164,-5.5619110131684595,10.284626023271066,-32.44634612658938],[-23.22225200534684,55.153218607900406,-9.395880766997383,28.50202381708005,14.629715995020057,25.911007353383265,10.668400133141466,0.6849387576573001,19.08878148345783,-52.52800388383367,4.56053195431135,6.867046823886649,50.915701732996325,-40.61294250641379,-20.067368590842076,22.560598864667842],[54.34089837444943,0.18755674519302615,-3.1089358905899154,-30.62923989325382,11.516599604650958,-25.107000983858423,31.86763255410761,21.577491397242152,48.57812899354863,53.240950108582986,-13.91443765636729,15.644718901800552,-14.649597119971832,-22.433905072569015,-35.69675200303058,-5.158217968590066],[-32.35634411477463,-24.20461248686752,21.54288319165735,-65.76445066774187,25.220686039023544,-6.863964416860873,4.686974533149984,10.440078218364478,19.24282821120618,7.28226675894884,-11.787281210943625,-44.23830138600022,-25.49053405417416,-34.03274347840308,10.682820263891271,-30.215766414548447],[-15.867146962818936,-8.101432044407183,-15.552072492651476,-24.58963509390176,-13.185103757137362,-4.7078264317610685,-40.70702884582242,41.538378123108096,36.62370201047745,14.450868487222307,-19.286527809689193,52.29746572024631,-29.304109916661442,5.862983675445301,-12.725297445453332,1.7915688109655385],[-19.350447744257075,-63.38985758744914,8.783942618420205,45.694319634572764,-3.9987785629203114,-33.29868475284253,15.663214763159981,-16.449312262052786,-34.19978788604476,40.42993244788562,8.13437604856255,0.010747825694373422,-42.952134143050976,22.38269123509302,-45.28008863406754,-1.2786766289352027]],[[-3.8305122262015976,-6.908013905584185,-0.6605596673392543,-21.24115998446211,-14.35314136085719,-11.792433711841587,-16.781684177227778,42.89644241125673,16.076907222790936,13.072189744796606],[44.63155707627121,-39.30473948648102,27.516643741899152,-10.086948867722437,-27.615200108319947,30.096093247851478,-51.22947173735674,-27.66085176557826,20.65263382063347,-51.250179936073614]]],"biases":[[2.7276947540852152,17.879622424624046,8.547632116150771,6.66074380490433,13.032501049739619,-0.838684075737471,-13.75365815899566,1.5496940428481385,-15.475707892245431,3.4945883095789982,4.266142454396868,-16.484681214499965,9.298776858959439,3.6055326287025165,13.05697144492319,11.797029576234332],[9.309832836109159,1.291943267877713,11.378429556767436,-7.005959066545299,0.49108975340537653,4.788969039667541,12.043463052293871,10.025980396883075,9.314416375575531,1.0217380905627764],[12.881681533586827,-9.187341596956593]],"_generation":216627,"_fitness":0}