{"layers":[12,16,10,2],"weights":[[[25.987489290783437,3.4331189541175564,85.53345406322914,-4.1034099692277035,40.67005898436325,59.93386312933578,-73.11529004998897,-54.83349299164443,-31.12681301376171,-7.310329782198454,12.739151260583254,-49.54735748717529],[-46.26947620919792,-30.935994316759306,-48.76959527364306,21.391090855846233,-35.31267865392542,-45.20403924806813,-63.480039329949996,-69.57206432999675,34.491070589400834,-24.64933840036255,-79.01685603514953,-55.339381310265686],[-14.606500263026208,-24.660132846066098,21.649194741662928,-30.12215761728536,-42.64891146716142,86.27959756519385,-18.738396628073133,-27.42075998274039,25.15446930439001,-1.0713371967436256,92.30818190934602,43.461574703827544],[-31.5467717217101,6.699577497439511,-32.322960192830124,61.598374946776346,169.06648321173245,-114.4292803722204,39.9249078584952,33.39512177207255,-24.68288838000492,-8.720064977802945,-8.211837760533232,37.28041692470573],[28.5682953864419,-28.021936112452536,-7.355052268238954,2.4077487912789453,67.91421144437406,-19.41286057125849,41.88043114451968,-32.62886881038218,1.2425463931312863,26.224598204943266,-18.283478229022982,2.0075037351066136],[31.19150322767368,4.6826370504239065,-38.638763182970074,-74.82749952733772,22.434494669644092,-25.33549422659796,1.0787855878275712,-5.019914956512566,99.83306464478335,47.62752690809788,0.8798573206794416,15.975053451360226],[-47.40589635871619,13.557644587668666,-16.086586655229624,57.2974286516038,-64.7005451043767,-12.809883966961925,-45.165104066560964,6.649896017492141,-54.490353357363766,2.342297201972086,-11.468003535551421,59.05182194457591],[6.557079190836938,-24.98587898338281,-3.2598914650443733,-42.01356070235946,38.48065924291208,-14.354612480041048,20.027029115924172,-27.08755292691755,-51.92963789448913,63.86914559044059,-45.92533537990451,100.00847564459103],[17.857963964572996,-1.8725256983158065,-15.375990655894,52.50593951352401,-31.487674397734015,72.70703841100581,25.7902872448609,36.71206434238769,2.4606098952473516,-10.591289548936494,-10.548731393549636,9.711699886964766],[68.54063370965059,108.7760409542294,-93.02544136497939,-2.7102302320494487,-66.66976160346397,-0.5930035925416429,31.742820018705977,8.579317316190433,14.335711494966182,33.11542881173442,-12.631220626728696,-59.94903816299571],[-38.60946458419884,38.831892014086755,48.055022357002485,29.810341290550667,12.699573372019637,59.61135918004624,5.407774995481457,13.661210431831345,3.5831451845879596,-21.401862457385903,45.54506166561079,-40.50495497938622],[56.15401535603472,-26.828529341679783,20.358511543678272,-38.486260392828726,132.5514349936169,77.10323962032973,0.5247362830970119,7.599054927674312,-6.492297118147291,-10.824040644005663,-8.85004265012953,49.40239626370633],[-74.30881482670328,-21.7298559680495,-8.48483703277811,-22.991830283041583,51.08579049269514,17.218963590944956,30.46007091544702,9.511657249793767,-7.988229711567796,-103.5019357502062,-20.59482583335938,28.12252913238179],[25.84373458108223,-84.50864523582777,-10.622336362463166,17.04299822672449,80.52571133070074,-12.363307450248083,-48.98010118270487,-107.52435979023535,39.12282152321932,26.87999766589042,-3.894273685008869,49.80635448271991],[-7.752135151994078,-30.635053592390737,-49.27309453634225,120.47010957122696,56.08683736436006,41.643771766133,-13.456907224435056,21.587979313500334,-87.42071467854137,74.4650404486736,64.21859413979898,58.622786568037704],[15.440294114385216,59.588917243169796,-60.97199358565705,-140.1702715976477,-53.070968660919185,-17.038162648618734,-23.946271772438436,-53.05093246641054,-69.58041347853629,-13.228074262490493,36.471634494493586,76.33671203569489]],[[-11.11973368021735,69.08300081185354,-15.305645611213457,-44.7128695916593,76.43997708339279,-24.805149030164205,-37.37484270839854,-28.88776091508756,-49.90631423664802,-64.35879895853917,-65.15334521240314,35.13055090525564,9.892306674862128,69.54817992799443,-52.358772021028436,63.763343505580124],[9.245108435890145,-45.35686376103918,-1.340857419885125,53.19438398282719,-4.1348170854187645,-30.00808726750839,12.159558219601283,-4.923575716422173,83.9628551577504,56.25761591254968,-38.64707252866667,-3.519852141106044,-80.42165277978596,17.328047747500772,-11.812884444545341,-3.6029248389189727],[-64.50995636798527,-29.963757382387282,21.781518776494654,-59.88483717470166,-91.27456762171823,45.77893316700049,-46.59230524799438,-1.201323502393616,48.75628234724112,88.32359147916478,-20.796214992586346,14.10179147675432,5.697295217795991,3.3131915301632358,-20.70888251908749,54.25840814633272],[65.60437846498932,-17.22727828074024,-6.333310503424092,-7.432531580602445,50.56407223927441,-52.46856060510054,-40.87352166133748,27.973364053258113,-18.42560581320545,68.81844750905464,24.327214598042122,35.76580817594033,20.415201219939572,14.820653181929282,-38.7150403960064,27.63448790366207],[2.8666655274602637,-5.559133702571425,-103.59702168166615,6.875745122577424,-5.314404333748716,1.0429961120945668,-33.963255939266546,52.31150437519874,-46.67406472139371,49.871155741116354,29.941568915019563,26.408682748288044,-50.27418540401579,12.115951478447943,15.765390186617228,57.789080102492214],[-79.67076744164031,16.158309149541047,-18.24891765693034,45.95608005734174,77.77080014171112,41.67169349445905,-18.908379678324174,-43.48634112341288,-17.864354158470533,-78.92918297606137,-38.84757324954551,18.69586533086875,11.032365431401752,-38.162563775032986,33.72710990281061,17.52590099728901],[-52.920581456158544,15.362809112257745,18.896507440312018,9.635184760517205,87.5266832476072,-43.83302800356458,38.59349245216406,1.5505669829582631,2.3310270927402805,69.3105681732978,-22.05866244914668,-34.070593593780266,-84.67797347825432,-28.38666449614973,26.873652999060695,-41.936647063316435],[-44.6833683708152,-5.6520908513605495,39.562337174193615,-80.84707916383502,-22.35987422293695,-11.329622336727176,46.29724885346391,-18.886263843209772,49.09034561210917,46.85852870728204,-45.01337049314841,-20.469282088250065,-55.89844535104762,-3.470056752889138,76.86847815725096,-8.781796162160983],[71.92009651361946,40.793416431340106,-17.999167149569452,-63.99607173829682,-26.774295847286847,-25.093910152471874,-95.14484797332189,94.41415538947862,0.7923593433666662,-11.707105954243179,-104.36889113214623,64.34615039033662,-48.186539161946406,-67.7384978123497,4.99523357938544,-27.717491954692125],[-65.76497580687158,-74.42412897153142,60.46517676358165,-5.83931560679701,35.589365379737906,-21.854236680502154,28.664097529225554,-5.970544209454677,-14.207199261121456,73.57105604271209,1.8956709851128022,43.9311028649833,-13.73713260830861,-67.9231807982966,-76.8761217852316,7.925008321902471]],[[10.126585247093658,-24.65481091103509,-43.715200803704754,-38.31824414257636,-41.43167332903334,-31.091238930868936,-34.2623203524127,100.45622099416815,79.8478055580439,-18.554937584266664],[13.484225171198402,-49.27680680895856,46.90332117446319,-3.9835640885808528,-37.4889661287744,49.900556161704586,-76.86896681460786,-67.04912581308928,-38.9097969230875,-86.20131778944332]]],"biases":[[21.245784375974655,21.23482532331831,23.8359948251526,23.551749364847133,12.121716739448887,4.031871625778535,-20.888322978457534,-11.921072016567386,-13.643644951833922,-3.991795203043797,22.962040664314365,-16.114759280531192,19.14165125404572,3.700444260828273,27.453687362334232,17.16447951508338],[17.86198107780503,1.8956168994958156,25.476606391360576,-4.204211660290038,-6.080986717910703,10.907014947405207,11.433201695443216,16.438937425745966,8.852730498477857,6.412132748686868],[-0.19783266590635787,-6.879985741652881]],"_generation":531627,"_fitness":0}