{"layers":[12,16,10,2],"weights":[[[45.88837569799142,1.432856258968603,74.98435381006021,-37.62032402837081,36.422635147224355,93.08253501743229,-125.59363197194725,-47.91218932376424,-39.866037678852976,-32.09450761337531,19.142903760543867,-103.88451299064266],[-26.668630918025336,-74.48165743153791,-95.64104551095133,5.460063111723091,-43.174909848388914,-24.17517132467987,-32.70060428718882,-95.1423833815911,64.27031365513686,-63.29070136199772,-48.82404247907715,-77.58453215368075],[-2.8970846450997665,-18.277746846077974,21.09585326720709,-44.89690114755227,-85.81359039981763,85.93567932511353,-59.455333460169136,-12.69532554578714,13.948462158079874,12.43563588870998,91.11050034742797,85.11566413093638],[-70.09979504040975,13.283142152107892,-25.287494401140584,60.13642282424096,185.2630422271226,-98.61783621891068,8.21121514847262,50.26588397974007,-38.82747138256214,-50.31797219137845,4.620737593065037,12.803111463281088],[40.09897430874857,-24.004568257701322,17.436638862034528,1.7018368230573702,65.08219935102981,7.484940324875083,42.65979551746436,-27.68972994563427,37.77561028976494,31.654493242196043,-20.116018523499104,42.540642870333635],[69.38624419057219,2.0176595615818043,-72.26439114600504,-63.93807966473996,34.04424056010709,-15.867100853271637,-9.368223991694276,-24.187600265580905,76.6804846600073,64.14153462570255,-22.188668379417763,5.135584110194554],[-37.63835948884384,44.119262660903814,43.02007388010104,-3.478689186069893,-73.09272086627328,-44.73846408994863,-64.1500612982059,-16.387423341961767,-56.80885782312093,52.66124030665345,8.90000322431127,32.57256498205138],[19.990536753430366,-33.93284401753233,23.124396120819934,-36.742309910793566,42.948425335739564,-11.225519608059237,0.012288224693428718,-15.026854280844939,-40.18720545638161,108.71543187995775,-28.217661398389566,119.43253991798743],[-6.718933109904418,-2.0339126447570215,-29.43245418098504,59.04334033188572,-18.07069039032056,87.70859410692653,22.50509063394849,71.89285010653131,-7.164208162229774,-9.754557460409835,2.521669966928358,-8.58179088217135],[88.75129049872321,108.00926431636256,-103.59630802159396,-50.622750354587545,-57.12018530027669,-11.100630025622438,22.46344948025743,1.0606499548443535,-2.0153559323541943,43.4962722107936,-23.020715933205295,-65.32682448849246],[-22.098725335735097,46.851372137004795,28.12579375844749,10.506852218600207,5.086841333632874,66.36314206294385,16.018623628341736,43.80581585134998,16.094493278414728,-34.71451815236969,24.021868132994694,-47.533177582753645],[2.122348665288756,-52.14984934095052,51.29956337279395,-40.35677507712721,67.96323193181249,63.459610096990495,-27.384852184911264,31.791295309351682,39.2078225886277,-18.220201847398343,-0.8458998486767395,86.03662612551477],[-99.5031938499816,-33.81711579294494,-4.4929353887938674,-47.19985787734202,28.190760816093317,1.659861577506701,48.072481031738825,10.1689555775561,-13.451201259629233,-109.23446184841012,12.7851662931449,-3.1737287286846634],[57.11995181059849,-57.35145431347404,30.725180888046843,46.670007689939084,48.06757180975232,-25.42114647762066,-43.13421102608508,-113.42166876040388,37.6474102324865,55.921165614365705,34.16763790381666,87.62569682704763],[4.938998956031946,-46.93770022723247,-40.52065831535504,101.93952548649489,45.237400285555694,55.3841730189867,-13.959613974985082,38.91081257211415,-102.71311410780297,100.89323700096755,98.6717365478804,8.320707666731934],[49.056404492390705,76.35048355074727,-42.500155294355174,-157.24822608888692,-16.921514729446923,-6.690220371746519,-40.0124405597947,-89.83480886756293,-85.25705149045706,-46.492771824791554,16.560774732919004,80.03899282656444]],[[6.940984676719047,65.73487442122007,-2.778513471474059,-43.124836474195305,98.65323771026712,-21.559858735496483,-8.065126513806964,-20.576281409123386,-1.9761008200097225,-65.51676815816414,-63.672519794989114,16.594708891695934,12.996501721489992,68.89068969504132,-71.04651614263102,37.624741224844854],[-0.8409235503723621,-19.367903120720023,13.284398957014481,32.900732481161754,-18.15007775224903,-31.477418102639007,44.751919455991505,-7.053468124727287,66.43230147381786,54.878859419717124,-9.328698361910012,-10.88027452911367,-108.87148688299283,3.0419453252350706,-17.983118594030614,-19.90506054937934],[-67.74331430859904,-34.57418504290115,0.17290896715062193,-65.2895756468228,-41.26813678684567,55.05331975484656,-62.17708253032834,-13.118355690036205,92.38718781806968,108.00875913674584,-40.40478424323909,-6.303452810012603,-40.10298839189212,-16.28542221968785,-24.029585236103877,12.876526628318985],[82.87363910429781,27.40130095656845,24.576541328445867,-10.312834996733168,34.90855505935036,-53.871680002719756,-37.99555774471645,29.505401882797944,-38.24680357245139,55.65086810104036,21.384633822109947,42.832411979121034,21.732611648574576,4.301358197995917,-44.35975659388742,-13.745050488892975],[-4.438477235411257,-37.16170961950999,-91.0870292358584,26.17492347827035,-14.52414454288343,3.044230864807565,-3.1689573982528807,54.07417875828518,-49.04570988679863,67.27357404520863,38.40536100966931,34.63324898208731,-75.32079073258402,-9.783193327688448,11.013140077540436,71.00657936638585],[-113.32724238253554,13.128804905511894,-30.646306304192546,55.75198187618273,103.29432531393749,16.305717036553897,-24.275279695981755,13.160647045122618,-47.38596255249709,-60.0382751911733,-51.95070791799118,1.5022754937832803,3.7285187136695566,-39.165293385219584,27.592919441210018,1.7524954804437525],[-103.37292110873666,25.33873213413313,-1.8550018169443971,31.47710081393789,120.68076986371234,-47.64592975507974,36.59693178389202,-12.893919029526613,-33.81469239806332,55.00519783860049,-27.610187761163214,-39.366898744101206,-109.88863563611585,-66.6848967443344,-10.406895806526146,-35.597021504570435],[-66.84191784639665,10.09495301415132,63.446943611609775,-94.99113251666292,-20.27824383633068,-37.45757654112624,100.3544116242588,-40.775707603892464,63.09269592468231,39.31659560611774,-30.32947936578424,-41.18716905997472,-63.4349955103065,-16.852551021865867,53.90384276246156,32.990834530116935],[47.402502997561676,31.461369842072642,5.873761792665837,-78.33157760120957,6.565713255771395,-7.888871609985468,-98.96845691415704,118.26813773928815,17.06175814034708,2.6054084607484875,-129.92439674788685,119.77340464180251,-57.09719927127165,-92.10478981667042,-35.21610068104876,-14.532195197120128],[-93.45385397150653,-60.51396124260005,82.08900665756278,13.103006726113394,9.744321567787129,-13.868444472017451,25.64650768409853,-8.41150940342833,-60.71054600603026,48.58340550918394,-45.08337340019274,53.38065796226576,34.502601450468916,-78.82555168034293,-109.26888842587798,-17.501050079033924]],[[4.317655617604235,-33.678802259089565,-24.99471528561404,-64.20012983840223,-61.03860318714203,-46.855645483647656,-38.0784913214807,94.8480397545229,42.48415826213733,-25.671622435855348],[40.83953693047933,-58.64111401781284,71.61582052720532,-8.071251420468736,-42.49745476821528,24.341597057097736,-68.330833707717,-37.68256640682425,-95.88828389242035,-82.15331138889518]]],"biases":[[10.253301149075957,36.31574288142166,24.472555534601494,16.051506385663032,27.049759718141246,8.935640912374115,-15.363636442269488,-5.648555377255402,-6.444894371596403,10.691457114019679,21.2797254546649,-10.258385280071957,14.488733227417612,8.122143580992507,23.770931848738943,13.67643001770148],[26.112407704477366,-9.890458197576004,38.67197029588192,-11.19343252245268,-9.474698037323714,8.37677520947113,6.772036636395153,0.1572986167294093,13.939740413737985,1.0308011510125954],[3.317360244100974,-5.542015566372017]],"_generation":646627,"_fitness":0}