{"layers":[12,16,10,2],"weights":[[[-16.40045719153127,-9.495655095566516,-1.8881618280157848,-13.861035523499842,24.11563522344682,10.171684337196952,-11.691581340874663,-25.515652007464176,-5.515044313989916,-3.4148409916765337,4.4944363387309805,-17.79352174177759],[-4.158250575136064,-43.09526732368591,-10.49011699897058,-45.96639611160825,-8.471330470930605,-32.80735371658838,-26.929562725915662,-72.27208236771077,-3.848333627263045,1.7538948949008493,6.688568568813924,-7.5622455545519305],[36.8998298802375,-14.306013435052575,8.909833785598462,25.694616179135114,-66.82703489399931,2.623707248721502,-6.716433628357397,-6.28924362310066,17.869434191680327,13.132674788277217,30.477313279116807,15.405198344384392],[20.85184456174572,-9.344467752632859,-13.075716477942887,18.37459218950283,66.48191753980616,-21.368797610659563,-3.628579787860955,11.102448975795209,-23.57035256173828,2.1688521220688735,-8.12624793174025,11.807889849647221],[-4.115867926254545,-3.1594780163171543,-6.923389006163398,13.198361444413587,-10.739991082128158,15.211072497923272,-2.522488572844183,-18.453344341175505,-40.86833793382864,7.96214122259674,6.400852948264057,3.0664283297483417],[6.633761237309255,1.2564791393465957,30.44894134931947,-12.074934517435242,-7.728066976394269,26.939992864324942,24.348377718262817,-11.240184042760285,-22.376466566870054,10.631034310020311,7.603293753689992,51.19110666950363],[1.2391936980077163,19.046356006687894,-25.79220293276676,4.842186724808868,-4.3252103530780746,-1.0935394380449737,-20.615752216894546,-4.625200172290124,-37.4825783304109,-9.217998013622486,12.500516096660403,10.592049909585146],[-23.99857770496629,-18.983919211851664,3.986645860192725,-6.148309783585402,-10.564859595139538,-7.758017520417284,1.7233713755132083,-49.92023580683078,-16.027098837870913,9.599126570207085,-8.301796353509127,-18.874408038518595],[27.29079280681433,45.02361479595744,25.511608517199676,22.264406598106415,-10.216702467230741,10.341158292879758,6.828245384569849,-12.8496060684648,-17.348444130905445,-22.48224732673574,2.9083402705783095,-1.5705606487916621],[32.88453680942017,27.660759385067877,-14.679345981876994,0.07191518316326335,12.427681891006076,-11.771376658176175,3.565376138877424,11.634660013561609,33.330804033260996,-24.450333683149132,5.194806214708155,-21.3345528466559],[-2.770449000118669,-19.31383137101765,-2.041626034760437,-30.064826362092717,4.490034458994993,30.815633669960576,4.89584596055804,5.133533951344722,-2.1616781043335154,2.0777487115825672,24.55167365946631,-14.468260590362474],[-1.344788806554722,25.398601895050984,9.557663217187358,2.8081467875986967,64.21864207186078,27.727863066140866,-2.730944736474713,-9.568050590863756,-8.49832966725156,16.592302654171238,-39.89797805607303,-30.23616927105211],[-26.8037478350588,-9.26662935294392,23.63118958753555,20.42083702399095,44.59871568559945,-8.08679533201032,7.756016554442603,-9.535377967284719,-2.007948428832585,4.201136351884283,-9.027140010389033,40.428015977307346],[-11.768012254571419,4.752798759278926,21.67203148761492,-8.185379503078225,27.53762455242505,24.883539599261287,-3.5048552649184357,-12.303046721215408,10.137912250349835,-13.249744127082481,-26.296397079897748,20.143807462691996],[-5.9698696276836065,-8.252385011280722,-36.680089247383705,26.49277267622573,12.774758713780056,-1.4659161807671808,-10.982467523065464,22.810725440583983,-32.545671430535286,21.67711539338455,11.83033214058287,27.589278390191318],[19.188079638491093,32.70855952986732,-15.971980434814656,-29.243928073041783,-22.444923711255925,-20.263042834343896,4.562530443792077,0.3782981289783889,-14.268627352064533,-9.805599657331019,2.697623406017128,12.95030359560816]],[[14.791595050257227,0.11194141428272215,-21.149448855749355,7.820665422852907,26.485043968831548,-14.55369818616025,9.748019666772105,18.39590722780518,-13.332935582535317,-36.464883351953844,-43.341728317327494,11.295513792444531,-3.46046227514368,5.458062829462389,5.938070815775501,10.872516072089494],[-9.616984922294014,-12.916896480188798,29.947587577735902,10.400716666834937,-43.864639153530916,-0.48653366003401644,7.028718061361603,-2.83955048424071,16.235716273137104,14.835949077241748,-5.078240052969823,-2.5059037278874503,-32.68824318237033,23.475194203996136,-0.4192148329118355,20.87323163147818],[11.14907501547824,-18.397230468418964,-7.564295927181916,-3.5004842886029173,-13.26972088591194,9.185997517621033,10.586961527518037,1.1710898589013639,-9.284255457775798,-1.9122250216397683,-39.337332034469874,35.49496216574963,-12.36321490894382,-43.71280062072887,11.365743987227264,9.846461248627593],[33.2047232318829,20.79501832222971,26.45886986533115,-4.041076377782947,30.092944492412308,-2.7232111002892396,-35.64971892396943,33.075295294791424,8.13892404987157,26.646962514517014,-38.63004025262463,10.886789683903379,-0.21974430102648188,11.28869937661174,5.743667248508768,21.86788203435272],[-30.257502149467534,-7.878916502035798,-19.783722203355065,-8.009617985655558,27.20302290727016,7.711635520754508,-13.16332631370794,30.07398047877845,-6.963585316985836,-25.051952388504542,-20.557891563817467,5.029442769327202,-17.8176203182109,9.245475443464489,2.9088628486035284,-16.253961821731153],[17.350366198235132,38.50441820164162,-28.587689312450877,31.356349218092383,-1.107643326520622,-1.1861869995606231,-14.599877789532062,-10.36720938521811,-5.421857743779422,-33.46026637121661,25.481818580222967,-8.7319362856538,35.8547011363247,-9.03317676790291,-17.86324587119798,-2.2988578183030097],[15.095315515418346,17.010279837822505,-1.6145187327579205,-8.122537871271717,13.925018094353076,4.701622466378429,30.548198171235086,4.989905960547473,18.08099294225395,16.743386855886303,8.16228089139884,31.347166086609395,12.526307628122039,8.882871030417078,-50.60882173090648,-0.289629849552694],[-25.79151500512233,-38.00183036733436,24.879031098481857,-37.750381764288306,19.332394710839594,10.922388687115262,-12.031118364937578,-9.9243001732798,7.786479994609264,-8.90026968416754,-3.971718485451322,-45.318801963959565,-18.39736557904245,-7.456347644258466,25.492684283193018,-17.423762937036884],[-12.892121081192972,3.459669926606108,1.941126472887659,-13.359806908740774,27.943585678485267,1.0767706192581608,-15.889511900088644,37.9794641943725,-5.2303787633997505,28.301101488994757,-1.9585034500888543,27.98035006902068,-4.905453594278338,-34.17323941560677,-20.881744523891825,-17.759479280932254],[-21.86028364067501,-13.632245736476372,12.968601552963142,-5.233729138996077,15.976428441299804,-11.484855389603297,-11.004873972211652,-5.364198966836526,-11.703987389150162,6.068858480136801,-0.03612179683264305,3.2784061773233746,20.5844118201123,12.145845081467858,-18.171995199427258,-23.119751523370773]],[[-3.8036540079458394,7.417516361732467,-25.985828446798045,-17.024267035325035,19.532319044472448,-21.941577948643385,4.283041185661463,35.480982356069184,31.337343357660064,4.575414846206069],[30.082974597624144,-12.340707743019061,3.112083306893869,-17.021238110400148,-30.803858828378328,17.028238961937717,-0.7418660472981622,-12.574347966628059,9.912573975346183,-6.115790498632496]]],"biases":[[0.41770814478788937,5.871718060548883,2.6760412037071504,6.532398030016312,11.75679121748783,-3.496625897191596,-3.423796916134671,6.9526055683845245,-11.512558858888156,-1.161889658433746,-1.8684590696938674,-6.305758482744901,1.683747358155163,0.8214585095557607,1.3046800390420803,4.014588752456988],[8.315282761894121,0.7027730610770123,6.8275895842932535,-1.9952484642892914,3.0627430404705214,-0.05763722658865926,4.038840244245708,3.8573567090240015,3.8916449575920837,-0.053739084077405005],[-2.013446296353232,-0.5158846415096638]],"_generation":86627,"_fitness":0}