{"layers":[12,16,10,2],"weights":[[[40.52730733013883,10.031992923438285,49.74830458575751,-8.704256818125621,29.282943253492565,89.17732731693054,-151.80475485979434,-68.97703067614448,-67.74932869531476,-3.4131442519031343,38.08943367367205,-102.79964146224057],[-19.77996137958301,-43.76033383610991,-83.99728049546596,11.268550271125598,-2.319381942366368,-26.211459222316343,-18.336029034096654,-74.8340968449651,80.58014937033616,-41.2624000234707,-60.88745911726018,-104.60590668597983],[-14.216700994658515,38.804178848701774,15.88884893703403,-64.73413865176846,-60.713665815716055,113.60909039684155,-19.39268300736317,-51.06189763544314,9.208290108573925,28.692304129849372,108.10702155224631,99.70585896066461],[-61.37133872594411,-36.65679052172448,-2.0705635208847277,58.26666027995072,162.04923207662,-84.17481935953808,-28.047940285942058,9.72178812709505,-18.00445311053106,-31.300740275000354,-1.918122280784994,40.022737516415674],[26.44622150087485,-17.40026169903298,-14.89098971377538,-2.890946398112231,108.40520909755243,-7.976985832613623,52.032125081740276,-38.035291132670864,57.34259165322163,53.572426332364934,-8.51075492604913,68.23626892468339],[83.9917994874061,8.18659978904095,-72.9100338630536,-24.780666437357432,92.83177390603812,-55.36485232414435,-25.73918934976826,24.114698137186874,121.02385186381488,27.4724863499692,-42.9035748198997,-15.354849590062038],[-54.83802211163728,62.253558159430554,75.92270136423188,-37.322402572278875,-89.89344278556972,-35.66725104962799,-45.51808013006275,11.468747636423307,-73.5149119968167,61.2102221412334,-45.5583454987397,28.011483365460087],[14.950735032822674,-38.58932582944196,0.9022447243416107,-14.662215661162822,15.923471521139703,-22.627634732500542,-23.171300271413262,11.046355305289657,-61.577957556419975,141.16668930831847,-39.38091325937932,104.5109346431683],[-4.118021843769565,-21.306589722679604,-52.663671463339874,82.99157303650904,-13.479760430353402,66.93305945764551,-22.78318048197159,87.09776045997936,-4.909164321254968,3.1179889449243876,-23.661218720098386,-4.44351504295464],[73.13519347838115,97.94278641116897,-114.08863515737995,-22.774821814915537,-47.16068018922293,6.69108422902875,44.193490379297614,11.636987249304473,-8.479450996089373,31.993577116429748,-9.573247808954198,-88.49364500877329],[-21.01660465210587,60.878484056827354,77.31187763190086,23.994738954711433,35.29822769952457,47.38136463404127,56.63023421942543,10.670617302526612,4.858770528550138,-24.32081762928613,15.704046665856987,-22.16580208700596],[23.839240589016118,-77.11307501511229,70.82121222311896,-75.29497186279775,64.93862976546465,77.14971345457022,-60.33220363428383,11.113979039013099,9.668448642857411,-43.41313002284978,0.13306447962711457,75.33248108953255],[-77.04379070641085,-44.73185816507611,18.341657206000257,-45.32090141916638,20.153473946288774,22.84665553839524,47.29153289370117,14.389723714299151,45.08081264793241,-107.44937175853515,22.306272987686665,25.31768112184946],[10.43951461715469,-86.79929355753802,40.71254392583228,94.65946013701299,48.95225116036658,-26.897993780546923,-37.32041224568613,-80.11083855648116,68.05470605150987,32.720088540844564,22.10629708237177,135.82426518358636],[-23.207224312362037,-75.40098606381126,13.757512336821566,102.12564465648008,-5.546560616885669,31.284170127341483,-18.97348866186161,33.88283245207712,-96.91655141786619,82.22263846260877,103.83921285107647,-25.323349841600923],[36.12182345048011,59.111142168044495,-123.7162619782213,-151.13594526545657,-26.055232053261015,-7.032966508871821,-17.879787613145385,-81.52542334747216,-99.8815070106539,-77.39058396390031,5.874835990149805,115.28679788781334]],[[-14.092155233876083,51.612253016225274,-16.977206173376302,-29.470787856471432,86.3210821625934,-11.051569689448625,-2.975467055526049,-30.8461671192512,21.288303960206793,-38.05124922437242,-85.25431475409285,1.9359543005416577,16.101133349401238,36.7588868888681,-86.13254776679605,45.768623164055626],[31.301226891070154,-70.64870691941135,-2.3525744553668377,40.557326079462065,-35.64721319077346,-53.50781466835355,53.87439403514199,19.619241527319346,64.22456877740505,55.81312568598778,-21.980409640472967,37.85567161559649,-65.11234037344936,7.8041771379442455,-5.978203839395585,17.430616329284124],[-91.85429361492147,-50.348952720215536,33.4093190622126,-101.02877973646099,-45.248285978545454,47.043254709807336,-98.21553463419666,-2.66464720034719,70.51164322905022,74.08355387795989,-10.155840332831096,15.000961998544744,-38.54817139903142,-39.61328229100595,-51.261302332779074,-1.753539557496265],[66.55597205898722,-6.179014356576336,35.68766547526487,23.56365237244074,40.59320614056293,-77.5722363301528,-56.89822079212767,11.529202475951955,17.271542280275355,78.44004771512668,-25.418884591932983,38.91878511074307,14.048918080279615,-13.148834427047346,-72.01854019376556,26.469645339242323],[4.400361707890699,-68.25142132679673,-90.54812608111416,32.76559490236813,27.971043165295214,-59.57908283669618,-11.10844180006968,32.77515466812396,-28.538566206678915,84.55815806361589,45.18072343782754,27.52487096409704,-39.889420818968325,-21.246122947182446,8.040617558720996,41.27832036343053],[-141.7471222388562,13.800271184840792,-42.84949506473989,70.5072947543091,93.5795781386258,22.265571367069455,-27.684622446507888,29.470331722951556,-62.37054783607273,-14.544882088218133,-25.65741213894073,7.218711010462169,16.325536141355347,-25.193907197704174,56.1838226641823,-7.361019793514188],[-101.3312846198909,5.148154461701884,11.518836493781265,44.580745029743525,161.54513021604686,-55.38448890548676,61.37998837227228,-5.428374548171742,-24.636364613065002,14.24751643157238,-61.1002316077986,-55.425237807662526,-123.692341857288,-48.452157869677464,-36.367111302809015,-62.02916732445278],[-77.61092617842803,34.342456368516196,49.66728873135672,-151.5645034371246,-9.77006767865236,-29.81619066989404,121.74156885386856,-26.91261965065832,73.66285669160132,6.9927532018302205,-58.11464842635486,-34.01091855238654,-63.80271235509901,38.15544891042263,82.6244037381643,21.06589654036331],[35.893559150836666,31.864757412748258,14.379180870423493,-23.776124895795853,-45.83811360208013,18.22398262746094,-103.57850148655635,124.49673686096027,1.6550168398259868,47.32106909532616,-143.10875878215072,148.70762760797635,-25.45316660237646,-120.392979149527,-86.76494027098704,-21.08600107015182],[-65.80161314051996,-83.5800705933847,138.3364614553038,-47.33040388481055,58.97981070549095,9.627969644765848,11.381869910715206,0.42880109253599674,-82.74500423273304,36.15754913817462,-2.178132373403992,132.74639968309094,-2.892496575205757,-63.372389709629154,-113.12254395525771,-0.21845000963526423]],[[30.26367511034604,-55.01407473614742,-62.61143974337356,-121.5465753121093,-100.96894855978697,-45.939612845350545,-27.768481199573195,94.76731115654881,66.16464229980996,-88.6527474636594],[70.59401577112745,-90.5149975059463,40.82822963832195,7.9397551764278225,-56.36366478915608,30.152224997740298,-103.20643153206917,-39.017417605583596,-98.24413651389504,-58.52041809988552]]],"biases":[[6.666577338132958,46.86734801567767,33.440822953135836,15.114869736669766,27.810244178551997,9.405836107311337,-13.405443174779133,-15.955801473231972,-13.067296227062444,7.049112281993767,17.70021436435172,-14.642862101129179,9.787330259319784,0.8461933396922271,24.229658476633904,11.6542380059509],[37.87889196294151,-12.682436768897995,42.3233290371853,-14.28697886065666,-0.944262394383515,-0.34607748169508035,4.047861697294136,2.390306947417266,22.975721524407653,2.334896120545528],[7.098888090501862,-22.96014785354678]],"_generation":781627,"_fitness":0}