{"layers":[12,16,10,2],"weights":[[[35.224234144998576,-15.508641379626589,76.33206232979575,-28.91917307932455,31.539746357063702,95.27845733867207,-134.76610189435368,-73.12393873560409,-27.429958438348205,-26.616064689357547,42.32384261483277,-103.90456237565846],[-12.949007410451328,-70.75239354281304,-101.62170623772796,23.53021220201167,5.868777361368871,-36.13861628542254,-33.434422431205945,-82.00604454414939,96.7290330978025,-76.43956418816525,-51.450968427979106,-81.84823291514638],[-23.457790606723677,4.358133182805345,32.380962028686625,-63.9839878868822,-61.041264953530955,105.84759478740868,-58.19106946551224,-36.136923926913965,5.434068344211542,35.956540699557806,110.02599441301905,97.4098624558738],[-54.393850342207706,-9.079520871199549,-21.98762119249929,40.9228089120243,164.2831237804158,-78.7134009827213,-24.192357901476136,27.105510644550698,-10.353634661804168,-18.631321064386587,19.283554639116357,37.070843769199946],[16.968696616594,-30.027558039097165,-12.26835663527553,-9.833644907203752,74.36174694246037,-5.874561497592695,57.49275004603707,-26.972024584008228,37.60340940887793,30.722931467210703,-20.200399655122695,71.8503015095081],[78.83075938777971,-18.28664278511598,-81.472282716961,-60.84528359764089,72.0014978097566,-56.9567986214361,-9.229448542339936,0.8284255399408665,108.50945707914687,27.169167153442444,-38.56556593545699,-21.189342847876237],[-60.14881924082983,54.25106051215335,61.587878252944485,-47.24980528236417,-73.16833815192695,-57.33427082151829,-80.2480173841181,-24.379641750025705,-72.6632179280662,57.057344113207435,-19.36599707161981,20.924388406053982],[8.023774780662118,-27.516826440180544,27.798325042500817,-41.61428519660359,56.42489411957275,-6.284247348830881,-23.34039634337637,2.9661332305292842,-66.02952031599979,110.2646564970943,-34.44963698587462,114.68424470416717],[-20.03821242702947,-7.064576110390897,-46.6543753425921,72.08109143135106,-31.046159827771856,77.95854757419318,1.866787274817823,83.34635580918949,8.158632708339729,-11.822619272318574,-11.160345289952575,4.659493433572894],[81.16284185790806,99.35887527775058,-129.82378053159792,-54.808458743045676,-51.64766242947766,0.10864920217131543,46.04371592489102,25.43935398481364,-8.273528414459294,22.758992195684055,-22.953662858935015,-65.78498586081193],[-56.45885021430473,36.29650278013178,65.99105327933064,18.78939027130748,22.469716412052033,42.53189144208713,47.72945968976642,24.908539181425716,-0.8544839814672808,-13.704786162179431,14.0548757458265,-3.2656497414361803],[16.116879369147156,-56.58214840312746,85.45536186769982,-56.72144370896111,61.077560481661486,58.076440190692885,-49.54938885403032,24.800274892494237,30.783616895675404,-46.521635416689314,-0.2819081476688258,79.05274802004752],[-82.72791149824941,-38.29741311493061,18.755506868281195,-56.05320305991357,21.913789542773063,-3.5226365453603097,44.51752437407254,7.80861453459273,48.641157699415594,-107.13468745944591,10.110084120686828,19.739909332127887],[23.985443575641934,-87.27826390212523,28.346554695628797,76.26420870015953,48.85041702029565,-55.0687500601242,-41.46717943047543,-117.89319200662348,29.715953685224722,39.04852055654713,16.847097651785454,97.96254439256556],[4.588072080673949,-54.1248350888294,-3.9642253056620036,108.60991129313102,14.889219465108207,51.11946555889824,-14.786293258008913,22.596361407295436,-101.58861372736804,115.69995935979007,106.93900345026093,6.98351420187088],[45.660697747906696,62.59920892880147,-100.92759257111233,-140.4144209870781,-21.64951018160547,-2.450218021980946,-24.380144996994318,-95.0665145282158,-98.6553705889986,-44.894405570835396,26.54814064220989,111.83907448067836]],[[-1.7878327670010337,51.48177356049719,-13.560912008123337,-51.4582026787144,90.35155745102576,-33.29998012723612,-11.46302036749771,-16.847643744719583,5.814168791535125,-59.78345860546906,-90.01277769595292,-13.75641892239322,8.549602591837681,44.6725308459481,-51.24625569957921,23.20393780403086],[17.854916308370314,-72.10179534099616,12.147592019895544,23.12558459609002,-29.819014928796523,-44.44994040436653,79.60612926279481,6.729992779757779,38.92927902030583,63.34459969165103,-26.3633593541735,22.68497344039854,-103.70531011765192,2.8993495943071217,-26.50117161543122,29.580072800030447],[-95.99449109140056,-35.59306621217807,11.492587668423722,-69.37815649904762,-47.07346442028956,48.546105847336435,-73.60022401913254,-1.1350550602665033,79.10174219767285,101.46767327420322,-39.47586421036733,11.014086441369196,-35.20545032254124,-60.21124149783991,-28.259235782474985,1.1593880451244416],[76.69023421594403,29.236550463810044,19.881902221383207,3.537214363255422,46.08947134183702,-58.14049104611574,-66.3001167546563,15.38594437694148,-1.2074903827537828,68.33624086865838,-19.38489727129299,58.23139662914505,28.603048427608144,-4.332139908349157,-61.81489908509647,8.878896955529356],[1.1514143572957907,-34.98821805021144,-98.76116342363092,22.505896592328256,7.44944442976185,-22.759952084893484,5.899905900437894,14.720508469075613,-57.48233444931426,69.64979259207225,51.28089675694296,17.15771367859437,-52.4339062710643,-16.269123746810735,21.882583870273912,38.70696796593029],[-119.0662748430942,6.319700065245614,-31.70784411124562,69.28955212450632,103.05466481687402,18.83935397004651,-7.356526638407015,19.118325626011202,-46.181168603257966,-34.33249415033555,-46.63813554831584,-9.328278092545613,39.96192654051298,-47.110870872596365,38.01068891974018,-3.9522177903232913],[-108.62844744073274,33.35433171283956,2.1810990881620063,43.16934033324392,163.97119581185456,-72.27448162801547,44.33786168006086,-0.3677519138743427,-38.46583358184103,25.785054667488676,-40.72449073908068,-49.41845316953361,-88.19563428604262,-42.04780944317695,-32.89339042243783,-35.751810800486325],[-49.481955595474126,12.95268912707035,69.23043471933919,-103.74015825240417,-25.33730751892017,-29.97655374108583,109.79359083948673,-39.468160286076404,77.53047156581036,1.9405485110146679,-51.08052063899744,-33.727760927039185,-66.44062427418741,2.609453917233245,60.9263647065434,19.839762790165697],[47.00488010228333,12.827706325453821,5.167527321382035,-65.73061303652592,-22.510434332819216,-5.7410504961189766,-81.85113881321335,131.428810125079,0.902986419408261,10.429843343624793,-152.41870579804015,146.60752175633044,-40.59038221062943,-107.88002545880835,-65.89522187909137,-47.553309425616874],[-91.66479485815184,-61.12097456730628,122.54329947064464,-6.224231456269858,40.12265549814888,13.534146985497737,15.956285677831575,1.5899397041127599,-87.53973211064984,52.427330174297936,-29.893887138860773,121.60388722276997,26.88047723077672,-56.09648785830379,-115.75429897751629,11.965772786215856]],[[24.961395502386473,-55.76437520802303,-40.53934436370218,-84.49545102121103,-69.33664779445455,-47.09346742208501,-35.1037255921262,91.35645706912524,52.98717200440963,-60.411198645292224],[23.775553137970057,-77.98561445599118,50.19837905348334,-3.517066212620404,-39.52398002411625,22.551902536418652,-97.48596099600951,-35.13457932437796,-108.54600349935775,-54.81582560101749]]],"biases":[[8.659113911418364,44.646100676146766,29.76050641838635,21.442903815027616,26.13750137721601,10.378742820281659,-17.784369669411277,-15.410269876893995,-8.125442948447953,1.763644461682511,21.087543197312478,-9.799611890369995,11.867525633406515,-2.995592829698689,26.7137517698519,10.179657634480918],[28.724108008336042,-12.210396211808998,40.39195758510384,-7.899490429724709,-9.811138746159305,-4.100109677116087,7.568030362974724,4.176945613265801,18.064809119826144,4.046136592865165],[5.778997680471091,-13.868595804933829]],"_generation":721627,"_fitness":0}