{"layers":[12,16,10,2],"weights":[[[51.114991047359766,-0.7352630213582271,64.90275677800825,-23.83038223850038,50.405243643548026,77.61410281472084,-117.03651354247405,-46.95493780955606,-41.58273116028013,-15.771800216866417,-2.955023464710563,-70.67453325847455],[-45.22898320649058,-74.34522341557766,-76.07056902014943,19.50857250906947,-45.584563232981374,-18.49441470898459,-30.491270153386697,-90.99000355125763,70.98842275452856,-60.22349758543561,-58.80717701579919,-72.86382882828529],[-11.881181965406004,-17.42295513231603,19.952812212345144,-53.49155896334712,-79.49109376365234,90.03176845147367,-44.594286672707575,-2.444868860024432,29.68519408928614,4.91577516683205,91.2254427610865,75.45290024858217],[-75.2397680327404,-5.097941848767898,-40.73500986640963,59.72515314513905,167.7186982162955,-98.18663216734186,6.039378696080181,51.667096280291815,-50.390883889294216,-42.948037118988644,12.093410623295819,29.56110386567004],[39.92760616137955,-6.764382237499612,2.274622396441435,4.858927555632193,60.1540054597274,-11.874250317907613,62.241884658837904,-33.128442760211556,26.097684089182586,31.53675315185939,-18.962099669646353,24.162414816288603],[54.460234421172885,-15.469379802387014,-71.2363858237935,-71.95468753899196,40.86722905349337,-24.33263011756131,-7.459538632635166,-25.113423322753533,90.35973243804776,46.979537086711815,-50.18841625307018,-2.2971693854400494],[-23.95893369145346,38.85624813599383,31.61305513296543,23.96698961818103,-94.38243121316448,-50.89473208351818,-75.83195370097859,-15.589815516212559,-45.71880679701843,41.35300622791343,14.25331221911124,41.520795760686134],[21.570525937153036,-37.052627327805446,29.87869044653181,-31.783051205853422,44.331939005546,-23.097691716704166,6.017899182906071,-6.928174216816684,-25.50726875188895,91.04856247603273,-7.923223938324699,122.15295078182177],[-22.676678647513224,-2.0981655431796526,-34.86184818636349,51.57373358719079,-10.58166786893895,77.07295382578427,20.77240036884692,37.73270143701603,-8.959339180009668,-9.80978356139758,5.269216129494846,9.392985348393555],[73.94715594205428,108.54870380168994,-89.00790939824337,-16.368260871041176,-55.251269560190735,6.271246620502937,9.766745402700476,6.2096063898142315,3.3781013186757227,47.07389032074859,-13.87537834568361,-72.5718048074085],[-20.379922570402748,75.01542845302453,47.18757785846986,-1.377643987798538,10.597973732338545,67.90976841448612,13.143443089232864,25.33312464450561,17.62724009925026,-44.41553087711838,30.55689249935002,-31.425896091125775],[23.518162250493738,-58.52304550303731,44.80322197733907,-39.6771002863416,89.1207764717461,65.79366473985829,-30.90183131773252,15.257745904316954,47.218390623869965,-2.6385181662168447,-13.963709041302062,71.44381646629803],[-87.54380126205828,-32.60334522462998,-5.8556869782181415,-40.90338821230448,35.65269716152497,16.038899017374952,29.93008063460068,7.028248834120635,-9.095681528491662,-104.85488993086972,11.46124500992105,-6.361503750665417],[56.02384262318615,-83.48230553125372,14.754946152431856,49.39576943298386,55.52227787402727,-21.665076969313333,-37.40648987882141,-117.40964063802316,47.81792442411264,33.35340454046765,21.02005411898671,85.95615454673421],[-4.583307943459658,-17.93109331295421,-31.38563266940041,119.74251647704648,71.59674695554595,44.05346230066758,-10.159327192141829,25.481115028903524,-86.83888293752793,80.07377309211516,87.6930736388469,-8.4184077262322],[7.627565341544787,84.05413057117704,-32.81062409018801,-153.4906166674885,-28.967109241056825,6.10675089802717,-28.910104284754095,-77.09339602661368,-89.27457524214921,-44.41673674951786,20.805576113762264,76.91393350730922]],[[1.2615272539957956,65.76599031634481,-31.928285497582838,-46.373330234470416,85.0123044134032,-26.722755344348467,7.395787686985665,-37.52824667394692,-29.77236794067605,-74.18966671499979,-67.11274112815087,31.02246406092219,7.447426891706069,55.74149589729531,-71.2516078881082,44.50766576005338],[-1.3495538700366725,-50.04977943043368,17.55068804645652,32.31063191261123,8.215807105312857,-17.93265538925593,12.370080252296955,-12.254456930963613,71.85010474965749,78.05719142295739,-14.681387639628014,-0.01741251948793777,-120.82528251483336,17.020071072238046,-7.783821977228816,-13.969944200384424],[-67.7038693692971,-32.10028892191456,-14.165121326132372,-54.08155339260434,-52.322348603252046,70.3342211297704,-65.66403326437698,-13.851898069825083,78.0935795034834,109.66317071066342,-19.419647557720545,0.842969099626145,-31.638417100818653,-3.4260752468015014,-30.604646343633707,35.22993521965843],[81.8310452978503,19.22377085241032,22.22234471097768,12.772030750507096,49.33039433770665,-37.07554653167928,-53.71314762495971,28.952628130188778,-25.875385385637895,35.80936878654127,34.70109492423233,35.17232031518346,36.23896304444589,29.291786417527202,-44.586351586194766,-4.378938582765701],[-14.668103268075722,-8.639346868593877,-90.46479580209451,28.01064498298189,-7.853031739897497,9.821877246212436,-21.070808369991127,62.08869332908214,-42.35055108570102,55.17525941328432,38.61141787242021,25.27955056015197,-69.81566203327183,6.908353115879683,-10.689534216436002,43.97975224818845],[-96.71842164826866,20.33664082903753,-31.154088168534127,54.183377280006155,96.33139194513619,39.32240783529094,-12.288967485949575,4.568897892138413,-28.490853006211356,-68.62513864309842,-49.246242243846865,10.34151267983222,9.907749072999259,-63.369191430332066,29.631390757670086,2.8276727951985814],[-83.10010797692418,29.226117942367377,3.4912156917256882,21.559120202813407,125.79394374446225,-65.37075931485823,13.40904576422797,-2.1539257926543334,-29.562290063804365,46.088466004611526,-4.763168578818911,-37.30602569145251,-110.30021729834607,-56.20436400245228,-0.40609845476380374,-32.58913046986474],[-72.95147285515205,-6.028726726949884,51.28591540282136,-95.79622080546937,-15.755074129161567,-8.074101909851601,93.41479059986152,-24.015588960960823,82.27481144980683,39.46716657552177,-48.01128727252705,-40.312154856411034,-43.911099980952216,-6.78101902175625,66.04726314529077,34.810401775935205],[58.56860387179868,15.333339593389269,12.604511655124488,-81.61360382879337,-5.961541878294981,-7.491565028716784,-100.89261005345107,128.48976335376875,8.734844506809615,-14.911385390866938,-124.28850066583058,92.81434486828327,-50.69501616295542,-89.7119852412165,-19.354343421167663,-18.980985881133577],[-85.56922861343318,-64.41022192367866,71.42972225266615,2.064079060967623,16.598513225581645,-14.269523357358372,16.61703298276516,-6.1152511444479005,-57.39607173274449,55.60578493852145,-21.543328852805146,41.27362918528698,40.62135966353558,-86.19823705857681,-99.19350668204686,4.509041420433947]],[[0.047512516299016413,-32.66450529805685,-14.04675829531275,-43.81882280599476,-49.73970860532454,-45.164272174121194,-42.765022034194786,108.07773846008011,56.40119472375807,-9.218845069179423],[26.983946018302028,-59.50401428432596,55.45629810008686,-23.13438584735214,-47.08538513938036,39.56366926235996,-73.18323732937274,-42.45004065885346,-72.02696117395796,-65.21678954358754]]],"biases":[[15.42474902680207,33.69902037194194,21.49754573663048,15.137277714389782,27.66249182647892,6.194933683133557,-17.265930970235956,-2.0680685021404095,-4.6946124900781045,6.9152806277706445,20.95178892792096,-17.000355113299474,11.567954657092402,2.5672229319732947,22.422617039256366,17.844296100680904],[22.322511298336554,-3.316209053053071,37.07464850983349,-4.387480503216775,-6.68798845962284,9.355787178169441,8.48093979906368,7.533988843508421,12.671922585257272,5.009972806813144],[5.71185465989817,-6.393434143819846]],"_generation":611627,"_fitness":0}