{"layers":[12,16,10,2],"weights":[[[14.291798676295931,-24.46367797154267,40.682963765936854,-23.1346420574996,2.748486047882751,49.90834739915543,-44.814356140235084,-64.35378115606066,11.928482200767602,-26.38764638683826,10.132546712746016,-73.46273701736553],[15.087464983156899,-52.595872992271694,-19.31060128381674,-32.888928069437846,-26.691963798920007,-47.06979044475706,-24.719760436561565,-53.429650479906805,44.92813328757537,-16.904344034575608,-14.729746867560616,-4.0235821626750266],[-37.487829755469114,-27.694412973152268,31.892811238009678,17.719448202487428,-79.87728286679453,24.330984642031133,-21.944016078930424,-53.43213133127235,12.702148987518573,30.358683797981843,92.9797258859321,10.974895421671635],[-1.5380520909206856,23.71777346862022,-9.577155106988993,37.04092362070407,123.44071903923106,-60.65590261284528,2.3478765242150215,-26.948737558189556,-11.543305754400533,-21.493392389610108,-0.39856430239013724,5.299573001467177],[-23.899255693811522,-34.4620158839701,-26.114819417223156,-12.312755824533154,61.68216834556173,-45.0894170430278,4.946890135507612,7.483133279565211,-18.95504139289397,30.266011962180986,-13.799340160541927,7.468276385364808],[53.89682561750587,-19.403624675232095,-24.828986625228943,-75.99022380495657,-8.726861450713011,17.211574664476863,37.661595903490785,5.812778544185278,13.208576317805333,61.11796510783633,17.305897577012534,21.736745785453923],[-56.89819921689897,30.096353395542476,-56.480583445160796,17.388813429879907,-19.60228638248036,11.969799766110707,-45.10636088196579,33.37523355324253,-13.433396981235264,-15.991083750873454,12.721895871239614,36.01263925524602],[7.220100409834981,-48.16427116018648,7.8176030228867415,-46.74781203395445,3.8054312337512646,-8.759443481609077,52.6888237296645,-38.98236077496295,-44.34969116033712,32.76341948674955,-24.072485574387027,38.32647528067349],[53.256063713926316,16.101503451025824,-7.4167540034548685,35.667362593142414,7.65520765321426,16.165104437269697,-22.75294193561627,-0.7446144297601855,18.168166445095732,-28.50920805716069,18.939678676675953,11.287776462503576],[85.42418548479313,83.52439360816074,-98.7505716926502,-3.665968472813246,-57.10164891137506,-13.286159539886707,34.23593139086783,-25.6866465713116,13.076895854073063,-32.36319242940599,25.29097739975754,-18.500227791721272],[-11.869871187841396,-36.12036031471729,68.95261483362519,21.632622168987155,-3.181516478606638,27.073098971284992,-9.893724248616886,8.316855488652632,-33.303308086981176,-20.77028558935561,7.227609954909127,-49.34027725440469],[35.1324538780384,-16.601209958671696,9.56374942644495,-27.37125925921999,125.09676316145246,26.151781372814334,23.89290356954022,36.35001576596185,-23.511566950723992,24.80467001964078,-34.96360299741759,34.75827364587581],[-19.432441421378012,-67.57508742195176,-4.868912848546156,47.672069209270916,69.37864115191886,9.176226705967085,14.834915029445733,-21.350662733898186,-2.7929465243670144,9.925228468848905,-10.667946059418751,53.19533667625615],[-12.5871782762159,-12.661683433531833,-32.56163124702285,18.9496507612133,87.60152551974416,4.72893205989579,-56.30782038457741,-64.01679467575265,15.99166843859576,38.49770658805065,-14.502705312185448,58.69184655650413],[21.708179007381087,-21.99291113042019,-28.372505084365784,79.04669672996161,17.423930459408645,82.76389038836737,-20.215671109356553,6.886800877194119,-104.06523202815252,30.76340133551414,50.12590804981273,18.39256431437662],[15.051927333059588,31.134877085467426,-13.509151005499668,-117.73980830418927,-60.180500571324615,-18.34323398490008,-51.157595281181074,-36.77169690777199,-0.1401917526181667,-7.3457992224843,18.648274960090756,79.82667203082026]],[[19.48168373429241,20.198774554948994,1.8140186811813492,-15.021138227250692,68.86015930674195,-20.051434013339165,-22.233371402228112,-0.7205231684045569,-18.481771737543724,-4.828247230151461,-47.229756546335274,27.787324363610246,2.737733663448084,42.532950651097494,-33.80277886857845,17.84260325852832],[-7.981942978009848,18.365000806456628,12.883493492268567,32.87881498661739,25.998570717182087,-8.036016306377947,14.41257192035172,-3.0808266366141552,85.27943231427996,24.97902003753015,29.615636640863997,32.08396321685569,-59.08902257838498,38.228501283638145,-8.88742161649365,30.16254911558048],[-30.93692189215185,29.94780345242541,34.18303601452603,-70.17640991209389,-39.119355450969884,11.407374229042965,-17.261141046626445,-71.02869433712492,-3.4480919271078614,97.73820252940061,-48.9049606369697,30.22931351007161,0.5186010606549945,-35.552779375140354,-27.21168348195479,14.15878897863362],[15.649946238803768,-16.20256895577587,-9.812691702826998,15.574072442820416,10.924577289837316,-43.91469336537389,-49.57497242693379,13.48813444801755,-41.76257909578367,43.66662180488107,-33.21843137889752,26.98591652820662,-8.622982183170281,7.364394775001828,2.476491505388683,30.077082707597995],[-42.106773260967564,-15.352954015209509,-11.321186703514316,29.834908959680433,12.35192050938848,18.613662674516185,2.6273541237206155,41.4046075682286,-58.59941057365469,9.983323261019589,-3.6844730049304872,53.493586799826865,-40.64764105381153,-2.31104347813311,14.008407132414627,-0.44617119078200634],[-35.268539424631236,49.79348889789958,-10.05784588623958,49.50617592545036,16.484800040155264,32.48282365350286,-23.401523449080848,-3.381412349882801,-8.643925096892737,-50.640889824024086,-27.772322708810357,12.498257349604776,41.824428944375335,-26.650530003474906,-2.475005098255333,9.85329552718114],[-13.241503470152011,28.170889912920106,21.746166622085514,-13.521528506813533,48.20116791883805,-31.246797263811906,75.53681254012847,-2.193488500117337,61.63763864845096,78.59547305947294,-0.11239706183772935,47.16707344107797,-32.892728646721885,-0.23455742329843904,-41.29081645261561,-16.24188450505112],[-15.80131736126732,-14.811824203665063,27.121668372320453,-84.52011615168556,-24.986583023503137,11.755613036415987,-3.499743111517132,15.119352320553425,28.949635256129156,13.894003712119163,-20.87622487790264,-7.053526525514172,-35.46847032392063,-18.6559549945427,40.97689706226136,-0.5856808986392058],[1.9546799170632383,31.31578968882123,-7.093011234686812,-40.31145019076393,-3.151028232893382,-55.11252039632992,-33.240035303426275,66.38632199353505,14.437221185129399,30.968903953229706,-56.982945941944145,40.59977257720719,-20.321976859443527,-18.143240647247232,-0.1966638923564467,4.327073760314093],[-29.7107763598454,-59.62563473292982,32.81986031846338,51.84952837698573,54.49028659749498,-52.930751372582954,19.31576700969406,-6.804888756048103,-19.743450265962945,92.34702022139625,16.30660818783072,19.438685183781175,-31.600849082622034,-12.634062709362782,-51.58466408468348,-2.8238848640791288]],[[0.8925649393899752,-11.693127783228151,-15.919891646631136,-18.885425711664492,-16.274083985685085,-6.689759487196663,-27.0540759041793,57.78080241516748,40.21832509874284,-29.61789915908615],[79.34000802516368,-28.069098338008533,27.3497900635677,-3.5899390650425733,-13.012726014206367,31.8895494327809,-64.46046078808698,-33.38155605075206,22.569500625021345,-58.204684224125984]]],"biases":[[11.274294221390052,21.331998295119703,8.411034247432822,18.844710913983437,8.545624593029782,0.8697718977317768,-10.409280252028285,-9.54030430249391,-13.835398919086797,-9.790094119068769,7.095550201374842,-13.958337633992262,16.88079960451186,6.803260290071237,19.026098814577725,16.110903609279905],[15.955604232328902,1.7786438532840498,16.95696290058422,-6.455697566676179,-0.565367060210621,0.43935024415918456,16.82215443439433,16.911488599112502,4.11809787802042,-7.437517281965748],[3.3898352913343235,-8.06343048744812]],"_generation":316627,"_fitness":0}