{"layers":[12,16,10,2],"weights":[[[33.48000190043736,9.500822489282108,81.88789505784533,-33.37227943476788,38.53074456309984,30.644650229497078,-78.80024629113791,-79.80075314200491,-24.460288809936912,-27.82520803121345,2.095494998388883,-47.87508896854225],[-23.645699694850038,-44.6713293934623,-59.18108571720872,-10.283492661189388,-42.707206552040844,-35.133906149928045,-55.82153457822449,-68.6952553619603,56.91649968132853,6.868602801071027,-70.01327481210747,-32.427211751127196],[-3.9084564543948455,-24.723664946523442,24.969323843048443,-5.11931820787303,-51.20143790838342,73.1441619871132,-24.02828606141601,-3.4926377909360897,31.34944197108534,14.345861497423664,64.48624016968307,19.118362925894647],[-26.708314720436825,2.2969466026119254,-27.985370684224193,47.61648631472419,135.74986165033755,-98.43045646550148,-2.274099953760967,17.68714940455774,-16.514322614118292,-1.9538064880563892,-7.447666488500622,42.83605303486014],[-16.69515050835047,-24.38121703417687,-12.904962106391919,17.37423094208332,68.17833407824212,-4.407413583947819,50.5747864770358,-12.16772079898798,19.069878106568336,17.49812224139943,-47.32155306546973,-7.7049700257659675],[15.29742928406613,3.622280987598886,-48.24189893204828,-83.34437923055562,37.993050228685625,-8.53755533093089,31.78259839256354,16.28264948745615,94.74396284923922,55.1097932730042,46.046105377010655,32.1358099555018],[-74.56441325168873,14.638749215282239,11.39487151477381,20.202821978914304,-22.95346138920694,-15.98061428620209,-34.19370544466322,25.239617990028243,-35.17844717722877,-10.135026232658769,1.1061666368563756,23.948033738997825],[1.3273499716051975,-60.735263634605275,8.41416220762062,-54.93760688563937,32.0914613479407,1.4801030660968109,46.57091404893658,-39.98685817239618,-37.683564456972604,67.46730210963571,-55.231146867646814,44.1233499113864],[47.170619039661155,9.840372567859315,-30.163493331862323,67.91726613075542,-16.58998984673806,36.65325039042018,4.3050463886354695,14.397199269592399,20.34536069594858,-47.28870762429758,-16.409991158677197,4.024949311213697],[72.28824418105923,119.40254451226176,-100.4553764917653,-3.976220296122626,-43.2041434759374,-0.4622010502105419,19.543057956561615,19.00281377813426,19.458888399884675,11.773540594481679,-1.268667190669862,-46.31661107549929],[-37.25703783408287,9.98875474493996,61.19779183124086,72.57226465190011,14.244077255078606,47.69462160267916,1.9207618881941246,17.23300619768612,-20.07510294368555,-34.3934444751346,62.58550809497891,-62.45637128703245],[57.76457579183061,-10.357953516315028,16.180973397969765,-25.876381587404747,113.77961538389785,50.61774855691641,14.710678140884374,14.229108524616938,1.9728492879371327,-15.620577043669522,-38.36650503386629,46.63536022209752],[-77.47077229400269,-51.87279594277802,-18.990136927687423,8.912301353170468,57.34460014953319,-2.827812614308961,27.68159184736029,4.562636956657891,7.042754896926317,-83.97121921696723,-31.35109920010162,13.051382991734563],[33.488676181592396,-67.51023618084317,-54.569462989069926,37.7033806450744,98.48689516173974,31.86822353026831,-45.318793887809555,-61.32030960087398,31.123757756246636,55.82272133380661,3.35567225236382,67.02970806063412],[3.6894924124565716,4.563233808290935,-47.760681932795535,100.86864331055527,28.084480890509205,57.4141552292424,-32.43263133093715,36.705631604426,-97.68490458860917,77.48817115128878,70.13496145278539,42.47616122491553],[15.419588986353062,60.302813384717545,-53.113416013113984,-137.9113965270237,-70.06615873642603,-11.591009754849733,-3.2234702083641533,-45.6143693676921,-43.2450712141007,-53.456066286345354,32.852960992038554,104.06618662952017]],[[-6.032198319402984,55.185878981383794,-1.5264513494763907,-27.941124777481622,74.68185568470517,-14.459491057396123,-45.95459778482072,24.56643911746281,-47.53021715523348,-36.5922861791815,-43.37135352829307,28.307413555822418,30.667669206608828,52.2430571107147,-54.67206908428784,50.45981824286932],[16.660302556717404,-35.27231714022381,16.872976485944577,31.661156558546292,2.129525557308964,-19.61584251920347,37.286282711647715,-18.99798789663557,98.81515789192999,46.834192527400035,0.8217010403002125,10.016224846471676,-59.97016220418971,33.79825091618999,-8.219932262244898,-2.2842112580357985],[-49.4625513577592,-27.242601629190524,18.74344612340623,-75.28123771751471,-73.18471336262974,28.29380065403639,-62.8185504472839,-35.71113893178496,20.76614179327897,94.83600082750414,-28.240555567550842,30.572436830180603,-34.591742913494315,-27.81373722544345,-21.36143453078227,46.076380190775474],[48.11904038616698,-31.049974478605563,-14.249402005662354,3.2464156176661727,43.35257790492975,-32.00537082089688,-40.34692494942059,17.189367308026483,-55.41765178085803,58.34129591216418,-5.622109063226472,24.458717910633435,-12.015338605366116,23.39303066813652,9.529866951601425,26.247864741190355],[-27.024670566914928,-18.358721915388614,-53.53694225691468,25.351498319062735,-21.394337678456303,48.48201280444655,-7.334882633241874,36.17245752738303,-60.1895878363346,54.24348623220465,21.830716240977285,56.733391790038226,-37.93458058704731,28.747278365248565,12.956201994326802,-3.275321766832739],[-51.15885968017504,26.45966303668092,-23.761229291944247,49.27791331420829,42.50513595996229,40.816756593556434,-18.492652473023618,-13.539928760195766,-13.449599525279984,-65.62121343270996,-43.99793934756322,4.855058456345084,25.61441264411742,0.2103614963929517,34.18904604410531,6.648570032893544],[-47.90325220738329,-13.394406322549958,18.881379770520947,8.282035106557442,82.28936391107787,-34.84860290503648,68.54389998847564,-21.556480760078905,16.497426123289515,51.67652836023945,-35.70259609167661,-29.49497689079932,-55.88360613059311,-26.554390144476905,16.94990777131978,-46.41927612878129],[-13.412284808529735,-27.813340357250237,45.79247749980717,-110.8656488092668,-33.263533696835,32.79690660630516,39.41438638983638,17.918576667266347,34.781162681925736,61.2897408469024,-38.24609913756321,-32.38295402091737,-44.246254613613644,-8.784227647940348,65.43960721326732,7.5686134771876254],[22.512307910982486,34.85074820879723,7.9597897934771575,-53.2975230147715,-32.96390741984157,-53.94233566564512,-52.81114221503213,102.08632469554854,7.976239002541565,14.866387146013714,-76.20859556051501,55.97103398760456,-28.454398374276472,-54.40107501393644,-15.53673902262879,-36.653184134626294],[-48.225053847960886,-79.84787665936356,35.29244017201137,41.81545322736747,53.83816878434328,-53.40595634999266,34.712943802743276,-27.842705448087997,1.8292588650541666,95.1490208607671,23.799501765296313,37.20759568992359,3.2340888040964244,-44.24797096635565,-61.6092193690359,-3.4975452648328367]],[[29.019197262037814,-5.058563558794288,-30.672996860048453,-39.46474653794936,-57.65048803974317,-1.1982578846184506,-35.481350765771865,85.86824346008795,103.9008606710783,-37.88088510132877],[26.890224211861426,-38.85275048945793,32.9749406027214,-16.045936014279235,-21.759759793673567,38.75561346090878,-54.32297967943171,-42.116808186090836,-7.481091824941918,-73.55914391247023]]],"biases":[[17.72951064497734,18.730053139323058,22.850589755991635,27.749384144680732,7.685199010826499,3.108777019927134,-16.87696392361229,-13.14596593121465,-5.804441370279099,-2.5963183824820897,15.118473250831222,-9.342092992529558,22.32949795531717,-0.9615731686786754,25.15543537974181,15.364384596322854],[20.67646631557815,-3.8222570781068392,29.658687805970516,-2.641138033937311,0.31237807131950085,9.575280713742668,13.084642937568502,18.672236068975415,4.412780596928404,-0.22808211945138177],[-10.398288822159495,-12.474881591346692]],"_generation":451627,"_fitness":0}