{"layers":[12,16,10,2],"weights":[[[4.893842168512139,6.49427601535793,-7.911870750386815,0.30430722929468507,7.6075966157562975,10.480619361064074,-8.55930683370672,-0.07995838499495372,1.729167588840483,3.0877466022318143,-5.133444533868723,-0.40599292141731436],[-5.371384309429254,-11.468060862327237,-14.034626434977609,-3.809335782099205,14.547458273152833,-1.6054178534761896,-4.565012014931223,0.8073855154813989,-3.64653147424825,3.050067783124268,1.927413509873366,-9.805717433396161],[8.566424208523804,1.7198850418676859,-13.200871047389134,5.021284535257739,-24.883027683636826,5.2402861350363885,-4.013274240901494,-3.550204688946769,1.1486536732067039,4.331645954087407,13.550014839727037,-1.8205089558467482],[-6.0042409450744305,-0.20113102437780525,4.754682016563892,8.397650770657552,21.594019546217314,-2.854548122700587,-1.50013786652961,-4.260943389257101,-0.17680367794320484,1.9431706617896072,-3.611043516012436,-9.841681679097192],[2.5775220615661594,-2.0661786141338796,-2.8045382309241695,4.396866061913055,-12.122407064659788,1.4225379068894415,-5.717344970473485,-2.2583755800190137,-16.577466902628082,17.364481339106216,6.695202196311518,-13.717555847603585],[-2.8483222463738738,-5.880921196797292,-1.072622433361559,-1.6962468780613253,-3.1067356620955158,6.206689821297414,-7.823794459790151,9.791909999143556,14.703505352281416,2.8100034215339456,-7.1656921217515706,15.227629103960604],[4.366922036068044,8.075815881976425,-9.2539011656285,7.940848956203871,-10.467069742469391,7.247049514527153,7.645750438208082,3.8936700941540527,5.283014125320748,-17.289893306505384,0.8710435059906746,8.772029430831902],[-4.7762210203549555,2.2067502430812533,-14.77559754771244,1.977026960549615,-6.707371973504134,6.820898342893489,-0.6196364383852879,-4.957234796020632,3.835839495737539,-4.518785718819023,-1.302763439226759,-5.006982699828326],[4.040029263174585,6.6207907504734145,7.459246794073743,-0.5436362362790688,-20.555099353648004,2.4787326244150814,5.635407812438344,-1.7673146395841197,3.721721922475732,1.8538062331876979,6.475210413076678,3.5032927992784884],[15.154159864685033,15.590951429302875,5.508951291455368,9.571942331011021,4.926969049977937,9.961683645449922,0.36639921226651956,-0.6772674316521321,3.445869433753473,-9.822221067856487,-7.8160300283114,7.986802198710493],[-0.8702920460921179,-0.615404056589713,-1.7332123802725494,-11.093439633220681,-19.367873210847584,23.859121538753516,6.776639363051052,0.7444176778743274,13.309757471066243,6.437626350180523,7.384983798645332,-6.228011762173596],[-2.8709557486225297,11.01112990934419,0.911819091396716,1.7469506156494263,7.395782924467358,5.237540478748332,-0.03739995561506477,3.5169222790603114,-9.740689530277658,3.991236191343577,-12.06220669728729,-7.259887557162097],[-4.635990559707104,14.9761522709262,6.6459728406599154,1.2143803989192716,17.71332570266746,3.930321667961404,9.105176851979,-0.668163676647608,-0.6009257674445286,1.1877908713999357,-8.306555165409765,9.276140778719485],[5.508458825315961,-4.217132673130865,-7.71325804158901,11.943255998370502,17.464367546733797,18.62912113478366,1.4751971677702518,-10.105160469857866,-3.7723955040431654,-4.750097643579032,1.0074932082348782,15.371802362779492],[9.091670783664457,8.424411001477296,-16.94048001308229,2.5104249400525607,1.0148261392316917,-3.9487788464502542,-0.8955984168052805,-2.2712888398534075,3.564446667773586,-5.573015469379122,-5.004225813792111,0.03940017525020054],[14.801874578515898,15.166331532685438,-23.27733007889075,-10.564452721416014,-7.566875168288236,-5.147535893588286,2.529105427892346,1.5581053306542376,-4.9042759852921565,3.0352383336890343,0.24033701524348333,-6.242982314847125]],[[11.708235243637345,2.949326296956404,-10.715007761076773,-5.79741051268743,-2.1615319495989875,-2.54813736076855,4.65284669630096,-3.3133591681051615,4.279431515939364,-8.807844451357832,-9.360370336884994,-6.786667727840621,-3.38255920812674,9.666208747268884,-3.4317407416145387,8.692813241708961],[-6.649081725181224,0.9487265309189722,-4.006159538388701,9.99803341857225,-16.97073529002805,4.3320632244276975,10.116748052167518,-3.082398014680035,-1.7737286724545709,6.37055260284156,-10.220322032774046,4.1170867434462535,4.616968898147704,17.777666625111483,15.877352861920322,16.251249325749285],[-3.557359523813238,-6.678688479382361,-2.329627666445465,-14.629419803596258,-6.138378574973825,6.5912427948849075,6.942736957162779,2.365055185587903,-0.5895735606136714,-8.104637252132376,-7.855564041918735,14.32171764484435,3.361326704793522,-23.94861329204819,-18.348171747107703,0.8434102063590455],[6.774753986188201,-3.2729314893031245,-1.8600989563905799,11.270628949849403,4.786307537855827,-4.964386415578135,2.797863063188618,7.0168537651101435,5.600907299901638,14.141709844234166,-6.758253727243241,12.689348048081952,2.7918896314987647,-2.0495537660476733,-5.455758215660119,-1.3961997763913265],[-0.7108777711384423,-2.4429189826405286,-6.57780038987454,3.8404800988651395,10.277397259073009,-6.418082835844413,-9.64721953760245,6.703024633127265,9.13569031957835,-10.040035599256752,-3.6850000293189056,15.285003456666546,0.17093412112098894,-2.9613405995530218,15.258809453781126,3.546627525101359],[14.093306277589996,1.4818511988760121,-8.915103510732305,11.482065032720618,0.3533913280272327,-0.11339879068921008,-3.5199998505036283,1.7105604550444422,-10.601545996665637,-2.739170016733846,7.037930872883895,-2.463517535642033,9.581664408604494,2.9451643813043065,-6.799619630737159,2.078705228436825],[1.8272396031452214,-1.6606989948049593,8.617606796408207,-21.059506990162358,-4.090994187032429,-3.8945346651269803,10.276045202144623,-3.207460021969222,4.5100854968572595,-0.3308050648863696,-1.4623005679033776,17.397358906144003,0.03190235073779944,14.19200339263358,-2.6044677429690224,7.003128140356901],[-17.754558707747638,-10.088715571572868,10.529426112946249,-15.448429584153331,12.917628090386023,6.115765957649435,3.6153353428064237,6.248649857991747,12.401981551939686,3.461681073264861,4.30889255989102,1.184935506512665,-3.5882200556194737,1.1066030447415944,5.32409019036626,-9.732215651052696],[-8.175082668502066,1.3190283016047781,3.264058065998728,1.996823546462601,-4.338810536976557,-4.9081155380714145,-5.528629413572685,11.516364260141035,-6.244494127368823,2.656584714793668,-2.751525840027732,-2.3889071462370293,1.3971684335277799,-2.464602916988151,-18.887271911244255,-8.349553757961617],[-5.1503764535165155,3.8078179579639793,1.8293722414193954,-4.223265660544822,10.621867901577314,5.5963091153629785,0.8619004925548548,9.905731898092062,0.27654027026220296,3.529215644047957,3.340317227590133,-6.032009942356432,5.652347495993817,-1.4846510689890948,-4.276957335697056,-13.048341126653089]],[[-1.6396865600455095,-2.4458442306023573,-5.700125701503397,-5.373981377895335,-5.024714899527866,-14.412705618612838,-7.129450969777968,19.614681915299123,-1.2012820051172535,12.617051953928202],[-3.7346997017500247,1.14087953712214,3.2782840031947775,-10.05686195861092,2.627178250182189,7.91762599401677,-0.9072402311934388,-6.231822446240296,-4.065442408175244,7.765419326232275]]],"biases":[[-0.025742797073023897,-2.101562356011217,0.02791573139569292,3.016811800465444,0.7085157894194122,-2.9420567876706207,-1.1206653855181181,1.7384206690200383,0.0047728567094253525,1.966643238301095,1.5861536571712718,-0.13181601466475998,1.230370337839955,0.048355310994448016,-4.461034376770267,-0.9444892710513044],[4.803031147748541,-0.9984453036616587,1.8426164831353633,-1.8997721472353009,0.16551198465973938,0.7009715311615505,0.008974082886873659,0.38831405912668476,3.159919506186705,-3.428719900526132],[0.7475263258826412,1.704040820242952]],"_generation":13527,"_fitness":0}