{"layers":[12,16,10,2],"weights":[[[28.959048309278856,7.0973932652082,79.68666183020616,-31.26312059147306,34.285832101688115,29.550150642927008,-80.81102337195304,-85.12169999903013,-21.56977887302378,-31.067120267569212,5.525465805352103,-56.20301815949879],[-20.136689123849617,-40.04890722393588,-59.16402350267119,-7.9835480275278075,-39.21279373923214,-37.641285663666395,-61.96407833088878,-71.67063347116085,55.724627370069186,11.61890367794267,-56.143817375512114,-34.7299828328899],[-2.964110299580945,-22.734269929322853,16.42416321880839,-3.6481906143616727,-53.76758232639773,76.93052048901167,-17.619860665389353,-9.388828683901492,26.73040499174216,13.262486577587213,65.4937261653898,15.364466054710798],[-25.155755925124144,3.6080748680288774,-34.69477365670267,48.63714144879127,141.69650211170148,-89.58822821957078,-3.803188684426734,18.033595724524453,-19.61863664351139,0.525071853898227,-9.795143370033779,49.29824856796369],[-7.542969852457088,-21.27727171764713,-15.376375840037737,15.405278331006887,63.035943457992765,-2.8327760815920513,43.29647695285366,-15.065629139614028,13.989483565257531,17.410704636035693,-42.58827823735045,-8.887792531956947],[21.99538950969033,0.7046333728620013,-46.99173027634248,-89.13136069065538,37.220154594872554,-3.69394341157105,38.37087019273734,8.657858390217177,96.50471169526813,53.41899248067073,42.9508613272737,33.3267624717184],[-72.3231486992836,12.107847992574188,6.151434545107799,24.643690062653796,-22.658158949336755,-17.210029845994836,-34.605518755177044,20.53158991418564,-38.33681573577846,-6.917827932420734,-9.295311309189962,33.38796944621744],[0.03399412044604275,-67.64622781658652,-7.319343120665063,-53.68716735836126,24.753688142985233,0.4328337245772813,42.190096963469124,-43.88931817298235,-31.7310789642821,56.61579993993663,-51.00167103767025,45.201186932774995],[48.680311216017905,18.435479613961757,-32.82513863932447,59.07306293525765,-21.940464955355964,36.31025455702026,12.386533662410939,11.205079448824407,22.422477064588477,-43.45212518211366,-16.64614465901567,17.90049999217493],[73.73995210968829,116.49732668397938,-95.3809528127165,1.4996224114088281,-41.559058004696716,1.2122615777341652,19.223360230482633,25.77656054358749,10.369345217003042,-3.906350427618826,0.10268394552395177,-51.54150132563467],[-38.032920312392925,14.162974068553087,62.60423333250965,73.69663524573477,9.443208726520556,50.31959383254423,5.722340821424173,13.968642466227916,-11.815863662523261,-32.163391537604554,64.70216621156388,-55.72723666214623],[58.92901396543186,-8.547668202844962,20.70267999092094,-22.411659842409353,118.33211634402544,46.70061295523781,15.84937908977888,11.640379793905568,7.776697836557153,-15.079467461698746,-40.068582848112364,44.13121176452805],[-75.15566352733754,-42.83781870532541,-18.580314707257507,7.187371634881075,60.019873955324655,-5.5414157389225585,18.98710488065249,6.583711532841031,18.45878869302502,-72.80609453853788,-33.15874277454987,14.295395478777417],[30.35125280358215,-71.29199384421472,-50.83245124823238,32.66867019885,100.65492506777412,36.35620006419165,-40.18344283406487,-64.92826485773509,34.16105295581839,56.07419277624979,3.5958327646863966,68.3765334457624],[0.10547654464162795,2.436759109572039,-37.20668018517964,99.69893724125362,27.881909130226354,50.19873004266273,-28.189967971263762,45.6001416083649,-102.68567740093589,80.78834069059235,75.53905599348735,37.34920763459943],[10.585564237424629,56.17327228076956,-53.67202533442483,-132.28774835094586,-65.94561603010331,-14.782179083945248,-7.0366653531381385,-38.30780284189099,-51.42483104047012,-49.98432700186462,31.35473964936512,99.72086168197212]],[[-2.7090886741458453,54.459007270029964,-4.980871450619843,-22.3213598248918,85.18575030032049,-3.4968387625424113,-38.879816914128654,19.414526868953097,-49.81110866899176,-41.194016720447564,-51.28886360072136,29.321727189235435,36.03628033794103,56.40007723406408,-43.687181923701324,57.667326844071745],[11.455922785747935,-31.67016277213413,14.697005906332748,34.560512135774665,5.939687607291327,-33.507277810579104,40.88468138218504,-26.212322486926016,99.73665328880665,47.32254944613826,7.2708801550474975,14.224330134582914,-55.907311881059535,32.49730954431722,-10.825621886103507,-0.8489963925489016],[-46.24876197293952,-22.716930039892436,21.340177306233226,-77.79830361975466,-67.62597050387355,23.159086213150836,-64.49220727763381,-42.2435333292318,15.185621494854875,97.968047813119,-27.969004863392048,25.41283372137143,-27.82165807638611,-34.575131274041375,-24.95783721500687,44.06424878377249],[43.894807883861816,-25.45090407406775,-24.206799279041253,6.769697721154056,48.02789758070924,-32.42565150750685,-51.275642586330505,20.535905521083144,-62.72801841818506,60.706018464587004,-8.913943615312725,27.886539025507307,-6.387369811100529,19.98375673703929,6.81352912426891,27.330423530474636],[-30.82045499099805,-16.78485540580217,-61.62551481905643,18.9871609567892,-22.99377247603728,47.08376073448896,-7.647812108556085,45.093438880827634,-60.92858089531837,45.05784046093641,18.975095704946632,56.60105616353126,-36.84826483127218,28.665406961301652,15.356942104042457,8.08708151883035],[-48.94894209919898,30.229761341235363,-26.47793299257312,50.283136536366364,42.067029513961344,39.983045839700154,-21.582885144525,-13.882382728641609,-18.991491846840653,-68.75101156902629,-45.98808037021766,-1.937634742202567,16.30786058902797,-1.225611895947045,41.2328041636083,3.961853312358949],[-45.069585313954505,-13.46926685040742,25.287315545706804,1.4246627132886587,75.73610186127098,-30.480692755173486,55.5853803675636,-15.860537494599317,23.616016952794592,50.3720495975034,-23.498910102012548,-21.026752913352215,-48.595630730690196,-28.90027938395044,14.45100087302526,-43.66066382214769],[-7.148886834389349,-26.00614447761892,43.47508720997769,-112.83248071723486,-30.097753927378164,31.059477334329262,29.608060941608677,16.205355892652513,38.62858911555579,61.78076948075805,-37.39820920917995,-34.388198121628214,-50.16511007997731,-4.887665525248984,64.4082477001926,4.941252221638543],[21.6619920925717,28.794747402680787,9.660133823818223,-50.52795854514389,-32.992066043761135,-53.872887443762764,-53.08259696653272,102.30393100309509,2.8910720126986758,10.455286251911913,-76.68994104150302,67.71947655986169,-20.35670531360103,-43.01293504487146,-17.01237112404101,-35.129471697073654],[-38.81527252962046,-70.31332365308414,38.09428478255016,34.74458222683913,49.89463250224086,-54.028390934252805,37.17822229467194,-31.003824619177557,4.796086590811172,98.3073849248066,26.00372722195359,51.05308922349975,-5.806783671502251,-44.121336909370775,-59.977851576878415,6.546998870102871]],[[33.16833252704072,-0.9982971146140684,-21.493489222548344,-45.44662927028919,-65.86449140952422,5.865363888526317,-33.01572326025767,83.01334301250792,98.5412677903381,-35.604729089043005],[23.56958484198811,-44.224306302879214,30.70716936288946,-6.95321233172695,-19.006776338600236,39.3825726809565,-55.95117236265476,-41.040589925286135,-5.5666069886040965,-77.21658235120762]]],"biases":[[16.864123883071752,20.838770945480434,22.075363948405236,28.412988431686408,9.263559076408148,2.657934728677551,-17.771556773300706,-13.72502476239354,-5.573199512507847,-4.42277135854317,11.576323595058064,-9.903187569738007,22.6937548520699,-0.07536669770800994,26.37741282962288,16.69305430648066],[21.41298434037948,-0.14996971818031907,29.27843853467985,-2.321856340455624,-1.1746719411020397,9.268708232539787,14.623725634808629,18.505067960633284,6.20722438426887,-0.3853006665510359],[-8.642174321650778,-12.081438755920198]],"_generation":446627,"_fitness":0}