{"layers":[12,16,10,2],"weights":[[[17.469380000245394,-7.438214033045264,41.1164010978479,-21.966368788182493,12.288797701057346,47.163451600115806,-49.64445642766368,-66.01134552972638,17.796063315465062,-22.143904234564204,15.397259727424581,-60.04256664272573],[21.322893436175935,-62.45158800277404,-30.402404502264236,-41.28513667222564,-45.73854745695719,-49.274782108166505,-38.41640844942998,-64.8142158524729,21.196762107228153,-22.59628364695231,-4.172350506558544,2.289540179382212],[-22.934337818630244,-16.34946004530408,39.2549481297785,9.8980325826585,-65.79468338035852,33.10291092570179,-11.513373121807888,-23.896206947567048,13.40719334855213,40.05405985188023,89.2334784285154,14.42280739788931],[-1.8010327849552792,35.64018192889888,0.7679054602867029,31.64909762035996,135.75904438612082,-36.03862006596238,-2.655850132221374,-19.40970639743822,-13.04789143845066,-26.54937377827673,-9.601172285389207,-5.048397350734287],[-23.790664235508828,-39.232483150697604,-17.586689744441404,-10.03707571109211,42.76404604789632,-30.004972357641968,2.622113459863802,7.044510480500467,-36.1053123636365,14.049015470931542,-18.755689112978356,0.36029394686732974],[41.7151941720643,-18.439205245749367,-36.68536276798118,-72.93244360814154,-4.789390971751374,-4.588958554911217,30.11179375239703,3.1855190937474376,11.925254647174711,67.89961614663827,14.132727419960062,28.192521705003678],[-63.87268346366266,34.81084416215431,-38.061095788646284,27.713866287963093,-15.779524725448919,-0.1974334282700047,-40.11449323593888,22.364442626238578,-32.951150011596695,-3.8561026604999067,-0.8164234102082673,38.04402034317077],[2.919801864781527,-49.91464470941298,0.8344501222379448,-23.216373481109706,-2.1211870660395595,-8.352420595314836,30.257272136898123,-45.15603148165602,-46.40526365228644,37.39412769032271,-24.553925495790377,37.59731524209417],[65.33218764729646,5.09341063986671,12.3716430418995,47.061203429225,10.423273384434417,17.260685249830278,-1.6495963165220429,5.28219995936451,18.8643169376754,-32.948160627266006,14.814964127588183,14.855663219554549],[83.57899552783222,79.89428256060529,-83.87903384172314,-19.340106388609378,-61.5960515446239,-37.46822500782892,38.91707264323381,-12.090855461252856,16.101272157612996,-21.792982021987026,21.625317425730465,-35.7832627659459],[-10.487866778912899,-30.61640761071615,54.73073839867401,9.711626736615823,11.785582537606157,28.65148938132837,-11.386581235434955,7.877795043592741,-18.05901532747715,-24.596260356379616,26.808927970614164,-47.68174452209181],[25.491330218873024,-9.05336752324956,9.350578374098427,-23.888575372949937,119.52937693932213,25.215548106417273,16.889525853218096,23.014942808074494,-33.00102311903275,32.874947604624325,-44.444292205181235,24.169775099798546],[-25.715483651496985,-77.35621807829307,6.430756608804973,21.302833561850324,62.57213314273972,15.913200896025316,9.936793701850526,8.920741048644834,0.7601843832784987,30.40107545168644,-9.230894313102372,46.93859625031873],[0.7760427371431332,-19.467414548088588,-30.54103555248596,9.612334066834649,100.21553939126797,8.728448885049907,-47.18185643822004,-73.6540631659698,21.494020775344477,38.463674678657014,-9.6676217212767,62.68604013136916],[37.15908017479507,-22.32607950951163,-20.97694340576953,67.13625479306243,16.058453477114476,74.14416755598607,-29.105589575155552,2.9787473822775157,-93.02530650617955,24.678941979403156,58.87182930888164,30.095415002702048],[22.697988580885273,34.70336581090104,-8.443848052020794,-113.87756171883666,-50.06404423853961,-29.215577953388117,-52.626669938316255,-38.648183225002676,-33.37958687542545,7.8404443286782355,0.06583751229072432,68.22302724346063]],[[17.148654211744134,24.346942266575827,-5.062408319556943,-9.885387573745955,75.1218879408166,-25.405121506862177,-21.370488360988592,28.271005289866995,-36.552762372618425,3.512449391458981,-42.2769586025262,33.92983937241761,10.588661016157465,41.73563183056902,-36.679763219786395,29.319557145691412],[1.9320914023177649,31.903051689463183,22.146328449145074,35.28854869657193,7.2862237651756105,14.671040078087369,-0.3366261962791711,-25.640368696739372,75.8280565139213,34.920541700414496,23.55235671563813,22.05924704525316,-65.04461417310014,60.17641497186877,-9.521004946544426,15.070452776642265],[-14.288572267046616,10.07927281606017,38.42752945228931,-78.93621239811142,-42.18858397953447,10.307284070901096,5.300140055755085,-63.82314965411207,3.3330343758920202,65.94888817278051,-49.771036538393254,16.04145011030973,0.40342940836252617,-41.42845164361297,-18.884036507632395,-3.296414118404645],[24.551052572246466,-1.0879867946523867,-15.207825788428291,16.40222332683131,-1.617203026917438,-31.833337927784,-48.83332080284153,11.39376560638743,-37.321113008176106,43.344256243964296,-34.653882587782924,37.020274243299525,5.415443848001399,14.889533113677341,9.149940051794744,45.08456027035428],[-23.16963066682575,-17.14221736471335,-8.393308931738293,18.202931581996737,13.075925378449007,19.36973120819749,-8.461793104072694,33.451461055292064,-66.64757655682503,8.186416599082817,-8.617956582022506,46.79047791604374,-49.31358872552981,2.2939149850476843,-0.8350190237169918,-8.958124823798416],[-36.29960459631688,50.73995594821569,1.8564043679230111,57.52374637888599,12.801262780624707,33.54128353385429,-14.772012337139383,2.0862340085283213,16.07652616579074,-41.261645552666884,-7.480914793029973,16.32379116220425,31.020848639597123,-37.83395273773192,-10.916678679845328,21.498105833692968],[6.9671439346988056,29.1841959926472,5.122751763097231,-23.80770816159492,39.26885076176299,-20.328230016940473,64.1714087904498,9.988435554637336,44.66801828217022,92.66251418654512,4.08060242800822,50.4864965018058,-20.82026132508384,-12.516507979183833,-44.005732691391586,-11.504179975419852],[-26.606270806490468,-10.991035459804019,18.418667301392855,-81.0301374875828,-10.163533344671215,14.24013861194226,8.305217003404914,8.560765702173317,24.72983507350643,24.243017516594083,-6.8092696286244925,-13.625507170984752,-37.05369431882131,-17.898193300852455,29.632921415601974,13.13847511176162],[-5.712915670897662,33.52881582855454,-17.226289493505877,-24.63263984667048,-23.10847585904961,-53.83424226195729,-51.06602529961453,59.281657407274025,25.867524776686118,33.26938650814198,-48.09620997067559,55.19080537352093,-25.06831486361792,-8.9199980589977,1.2994721047375808,-12.646773586132111],[-19.441394218938036,-56.784955186936536,26.24942415866452,61.60072678995465,28.656279452039936,-47.28319147435652,15.8438802030687,-7.43444189400385,-41.10167210522809,78.06380095168136,2.8064764937864823,18.294325977811887,-36.62151880415996,-0.7596248790960636,-41.849365519654896,8.565859259509665]],[[0.4682113549711446,-11.72690138759812,-4.5324012254377415,-17.558377715612917,-23.381210146979125,-1.5672446302524257,-23.960346607937947,66.14107942500941,39.6446804103901,-10.924344388837278],[74.67383616317657,-27.656804270985585,32.52449792570423,0.027367876815574302,-28.513502744213817,33.15066949015344,-64.47576516901256,-48.247242791201415,13.060697654271312,-58.89761128106147]]],"biases":[[13.98696418103493,21.47809922822312,9.547154021103166,18.64696659184628,11.851566876959383,-3.9426812537734204,-10.917951134047888,-4.069636769171314,-15.165521830467437,-7.54827991222957,3.273273007648939,-8.15428489347341,15.203992407725007,6.104080852328649,15.126866648071367,16.85161083206636],[18.965737737138664,-0.718025611514148,18.88462072026903,-5.1458256434473935,-2.0916025744857536,3.845855332428537,16.028988270610427,8.405932376262047,5.599118501450381,-5.650464218036415],[9.143588672857316,-9.304587581529056]],"_generation":291627,"_fitness":0}