{"layers":[12,16,10,2],"weights":[[[58.25472487987445,6.337172329828507,22.75306891203633,-28.64913549975538,24.400509729367062,99.17764232571083,-154.8210591083799,-74.1561775759154,-72.38981110594305,-7.079574482387399,46.7593714210502,-84.33079693130365],[-48.98938041447765,-34.6863605495814,-95.82351560703066,-10.41692027133296,-4.631213361635557,-42.67840581869397,-16.929430002714465,-57.61955180543385,78.65424957579954,-48.235617852785836,-51.76476996762205,-91.71738219589028],[-26.792478779272958,45.62437230062631,34.205171143876846,-75.44647500104384,-71.60129929582675,120.74856023459421,-10.58897274103744,-51.52544454206681,4.135375353878911,35.17417646267737,102.56718086310094,110.64191762565446],[-61.59013343733186,-40.23176438424029,-0.42475600759790766,54.607592045701494,170.7465351982122,-84.44262510070655,-24.535198601914615,11.61485092669353,-4.376085790637607,-19.640263163635495,-3.0006916294688497,36.104247070053056],[1.8516902394348593,4.649878059633898,-20.330243940922767,-11.01520773890058,117.93473353804103,-10.82399718631165,56.88664579575051,-34.35473337903503,56.485212962094046,63.71916343716342,-21.553371073807046,67.92807597880567],[80.88195210064781,11.55016712194374,-89.49009910591816,-44.71120707347153,109.0533742829679,-47.065692648619056,-37.609639127575825,18.67926990287181,129.8242780292547,8.61594541365122,-23.689049488531698,-22.159888488731617],[-35.81636861076703,33.44314515680239,60.264306331938705,-21.823236209301548,-97.33952104768012,-59.562112799023375,-44.638982767721046,13.596906731254625,-84.91723657235637,58.47328443861159,-31.177915582700187,31.15604967220221],[-1.0210090779099938,-54.94063370303905,29.84390696612646,-9.533270087802784,53.5436808484855,-13.818795448222984,-20.854403893333615,26.847895672550624,-54.03330579298445,133.5025572809291,-68.30986563709232,108.94849762208732],[1.5681240020857974,-39.99199860451074,-52.96351376901415,74.08705737128884,-34.60846614393155,57.180672790939454,-9.425351835724308,105.00842705008748,5.91598933241802,13.130901301107478,-21.647868750595357,9.629841863540262],[80.36005094001833,95.26893614145746,-99.54915793725057,-25.99595663211524,-47.60477480357337,30.98608560473026,38.66837808791189,8.087130767227265,-27.554521794447137,9.999679538611025,-11.113923273445323,-93.51977932469072],[-9.606615153162826,55.31266647865077,51.31174855056076,39.675147680052476,47.98664413960626,55.488459530252285,63.77772859565736,8.342502287541246,-5.594170352618955,-9.829182132740815,24.835776408939743,-17.874576346649548],[30.908437024227123,-75.96622318435857,71.37101470031722,-39.43469187266307,72.88635884649082,57.51738756407951,-83.29972279533654,6.4636427321660035,11.397362992282247,-64.7257843276367,4.974329392321222,70.27813974519883],[-72.86367161775075,-40.31793357245368,30.48336869965295,-47.995713912480085,4.960022555762183,55.262656990894676,43.768098159633894,10.554663339397857,48.02432583077319,-109.67758387421334,25.621347549507888,23.341144337873864],[-32.22662094179168,-92.2345152905265,45.17501529560309,68.94781731887564,62.72021642818444,-17.118631434483266,-47.30012998816139,-62.388214364510326,53.70253866124725,28.243011938663557,9.495187533195379,141.3438131210829],[-20.309772307971198,-83.06419051202468,2.5074003226342905,116.0550606465119,-26.042934817969595,24.744391541411236,-28.039686041452605,63.90259421290555,-92.50474329354395,79.37722868283318,93.06008627514798,1.644775501300743],[25.365635359217862,55.494152930828946,-133.1296101123967,-150.80495203105258,-24.203717780662416,-0.3331121368915118,-10.711195171417081,-88.70677200699947,-104.50581530932037,-100.19976895508051,-3.713424572751604,125.73978502363542]],[[-26.573332946286563,44.688695652062165,-9.34775196593443,-47.327307348839255,78.76282691646408,-24.52474172458285,-8.991057168942618,-33.61106719883398,2.208832637990342,-17.177785483860657,-80.69988813869229,16.231846222961067,12.262830670268416,41.69852815081848,-120.05732922056215,53.85068014980087],[27.86319219871688,-81.5695498456802,-7.897870185466696,29.17567100467457,-22.664805421028806,-34.80022792719344,62.06963163790996,37.51834554151148,63.20428943986844,57.108234496523544,-21.54956915977623,30.425359292471498,-76.8030827406567,15.389179951431277,-7.894452638603246,23.646372010424365],[-103.22626208802563,-62.841306847005434,28.73454266151696,-114.7216003068705,-29.31767603611209,63.04491538845324,-95.73851937139023,-7.958114945088677,58.055767930062615,66.51384014357491,12.64325391309859,33.938005437897466,-60.355374482067624,-50.696259943449974,-45.60595241011208,-16.309162064107593],[61.847253294378994,12.849811610597031,31.718339794477195,32.49973106650772,38.818166070204825,-66.93685105802363,-55.536236636893044,28.75887146257287,50.766340601595516,89.60860998278234,-37.349841632985544,18.30543827926933,15.335921818534672,-40.23330782601447,-63.93459463918293,16.292166073147644],[8.37414048066814,-76.03027571238815,-85.12783520683344,29.38832695826114,17.97256022763314,-73.50864386233678,-19.567422978339074,48.86655231153846,-29.428797935943543,101.73271488223884,47.71051759035793,35.64271326814615,-35.38623191107793,-22.235508284385947,-10.428212008908138,37.593763578778244],[-133.55911877733854,-4.848261771540209,-34.231972431617926,101.25309796963978,101.85633784415909,9.208026448927088,-37.61325728749102,40.777123473158284,-57.74152987370544,-35.81605148630461,-16.263513906602597,9.700678737575377,10.160944393596557,-33.676503060275756,37.97677055579557,-17.580920403610882],[-110.2556977827899,-4.381477039286177,17.772686102292088,42.085247573575344,185.07171677259228,-55.01354464706072,85.06700609996635,-16.23587046197436,-51.741624290227705,-2.8738611161250343,-62.568751195798995,-77.01524132188956,-128.4433912479507,-8.860657665450544,-37.39074666155909,-56.81202315973797],[-66.10039280152824,13.197811231404438,78.26231346037301,-145.8960581159794,-28.428573087548553,-32.707076090279536,140.9152165038548,-38.434156686780035,74.6292419026334,1.2724086826173608,-61.15719373156207,-40.627333623880865,-81.57433402021451,33.621335131979194,75.90166727613835,6.2096660679669995],[54.061506319757214,48.621803643716994,3.0559015737535002,-6.13042564993766,-23.329679063250506,22.109589298096555,-99.86681154388695,113.72140884492833,28.457994605916575,22.70903411297501,-138.16066811332166,144.62560807611143,-37.291633602900916,-134.55835812107907,-85.47136719846311,-6.651186612461471],[-80.55584239214919,-74.40761518014527,143.59243630711438,-39.18381303201673,53.98148687245546,12.548779349171062,-12.65689532206256,-1.365691386000973,-69.56006151579274,31.08649501959302,-8.115698678979669,143.32466702970717,-14.776475969034312,-57.157030289171885,-111.81479346021021,-28.252220943674764]],[[27.812972573660286,-76.12659949951238,-37.978787127997045,-119.9136663311027,-83.34030443468524,-35.958390445536246,-26.011207018846115,109.61481801412775,62.60124261648651,-78.86365296497135],[88.05032678224416,-97.26178472556174,43.87093523167634,-1.5556892152888488,-56.27052589744831,22.362848774426965,-68.51187127787975,-39.47263953337294,-90.8504839919786,-55.20532475671624]]],"biases":[[6.123689304271965,44.77206974833105,32.019291643970256,18.962969809355062,24.541190583487218,6.704273714973616,-9.13826481944173,-11.75694496210781,-8.40671737241287,7.907045018481122,26.60200799921846,-13.99647274021661,8.71741620374845,1.2777640912451624,24.463954859245117,16.777436380025964],[40.36246458039198,-11.08273891557385,42.04428737834886,-17.134957614653082,0.6985801056805558,2.3696252728731126,5.072562845037888,5.36676094217071,24.449260080884244,2.698333440927041],[5.753013668960791,-26.462499672246167]],"_generation":816627,"_fitness":0}