{"layers":[12,16,10,2],"weights":[[[29.148912599503134,11.490978010679825,98.7352108775264,-7.4991664391255455,32.63030787890711,50.67892794946279,-78.46037859111847,-59.900774713893256,-35.470014488873076,-15.309715566249835,20.252589538011502,-46.06009837343393],[-38.915290267191004,-33.13374929226933,-40.0853681601123,11.392005722548353,-37.04886879764111,-47.154915900252874,-55.07410862534111,-67.47538321967748,42.5938338611811,-23.86527027601132,-82.05451162584971,-53.52416436065981],[-8.355950543358396,-27.960192591162002,12.061000246159743,-18.23554935148092,-37.4883964405349,86.38081863451704,-24.313368602877418,-14.101175488890469,33.79329809333043,6.8845278155724845,89.30406109842195,41.038397563124015],[-24.471826212220112,7.3122688511986205,-27.82736610706552,53.73035102720897,169.28636207259706,-114.19992760167732,32.561854461018505,22.84676165968568,-25.209504179491166,-18.78788279436018,-12.748485674850022,42.075027827927634],[20.780011901857378,-24.716856863279325,1.8535418027284198,3.1880212810760695,75.55415096030745,-14.852856944954889,39.1167419303264,-28.728745059034967,9.878332492700244,30.14407721910764,-30.001956191279813,3.5128413814567576],[18.90509308005692,12.08306972830971,-36.585195793262244,-69.33021394091038,22.76633937568058,-24.208050915582557,9.179398142010237,-2.3939310670805676,108.9826014631496,47.87669666815557,4.191783026556877,21.521904030688088],[-42.129821482106095,22.12536600876019,-11.581494243145833,53.43397222615303,-57.25348874109319,-9.567582853086135,-40.596334636520304,-1.2551542697996694,-56.94512499736965,3.6898989745412365,-20.276018273985944,40.62318155049453],[-3.4169705881927257,-19.258317673507545,3.613125741673316,-45.914647734318734,31.85107269195292,-8.537712493107234,18.56403353315585,-45.667391308398834,-51.87566088609669,69.05749256216603,-49.82135009037487,107.46235003286013],[13.718806040449934,7.896881321233626,-14.875227311104837,59.32739620356988,-31.440271923110092,68.02183457662993,32.069904528061755,29.114146410699203,-2.295085932620497,-19.559772264127723,-16.904183883340398,3.7998704047028045],[57.554990622120926,113.53054745680213,-94.87234393446718,-7.674331780091844,-64.6986311720593,2.1459081886248867,33.14324684941113,15.998432899197004,34.70388290203702,23.789330224772765,-24.32142147203738,-59.68839883790496],[-38.49332408670553,30.677553436077243,47.05278484400641,29.10502669236557,14.145759048087168,61.634191269278034,2.229291080609889,18.881776441734065,-12.75007052994611,-25.273539927324272,52.89001394793566,-44.16864491819095],[59.28325869065156,-18.47844220693348,26.782313019650605,-38.21367025768197,131.53199079203662,68.28116737364503,-1.3362248792051528,3.1119905014785876,-5.976138867504099,-12.22740620473643,-15.075221217356336,39.51621307171243],[-75.60353996638685,-28.919722136636373,-2.18440288642909,-12.04674726522082,59.86879303929892,13.979092735966562,30.753647902772038,2.7129089160428284,-5.3676941875768325,-92.43213807702504,-22.102865071913325,15.291220285669928],[29.987234424239215,-78.03329243659866,-10.264751766840737,21.20646760472022,77.91648710050406,-11.036335174252361,-42.48224984781551,-104.58970159683217,31.894762398980333,39.81035794705784,-12.132930680802005,50.799783331497444],[-12.439606189649679,-26.242386764983205,-51.010598210156054,113.27270391704215,50.10932258355019,38.83857426068872,-17.404917683065776,21.686572011759875,-102.09483710728259,65.2206478337978,77.64949566711942,53.68510795249344],[-1.6393411074601068,65.46281815744369,-58.55005473261235,-133.83346297755293,-45.4105006728308,-13.599278399287607,-23.722801867243152,-50.01655870851323,-69.7747297836549,-26.446839097657275,35.58267253385197,67.95374795229942]],[[-13.027289536214784,75.42450819357447,-13.569820031448998,-42.559948752366665,72.01442955156666,-21.564476957008864,-30.29817063544331,-34.0789528654223,-55.687817740615294,-67.03150268265483,-75.04187962050574,27.80477558272465,32.84608564932818,59.71762090954497,-69.55022143651345,51.17167412634718],[11.667940496867951,-44.67573657963966,-2.627582490077813,42.19944924021559,-0.5902215932590398,-32.7551096865205,11.773018807144867,-4.682366980750704,80.07590670604111,45.45149099618051,-21.86106601551255,-4.608293671486948,-70.28208426613949,20.92489413189822,-22.721992317520172,1.2348827592272749],[-71.98201698428441,-32.67556288179482,21.009531867959932,-68.54739373770087,-84.14306388630222,43.66825115061387,-57.96638281910214,-14.610828519923107,47.694476698937734,87.02134033773098,-24.54427465437577,21.575190378641988,11.200607049022013,-5.005356226973773,-13.718280828178585,55.18948144377765],[63.72618518324103,-4.45845039918523,2.4368773652256275,-6.2047093847514585,46.44931376583619,-52.951481652436364,-31.660692967802778,29.63911154642106,-28.59690915469579,70.08206831741589,19.814151120520258,33.10596290221505,17.714225252834538,21.804756835229067,-40.87737337663626,30.42078085215082],[-17.18969728641872,-10.963178109199621,-98.15488122247632,7.52460052174336,-3.727522383076268,6.089652286950121,-23.05394449640688,54.70734664281066,-46.75319982458694,52.71032174453837,33.724138960725725,34.87502579890523,-39.95968875048062,20.5560940316373,22.630970583711388,45.52579790211546],[-80.9538200294237,15.392897364932256,-12.379286115651334,50.32750528484383,82.9524544178076,41.29228707930482,-27.07143037931634,-46.35677054706001,-30.05566184377881,-77.9752278105663,-30.136696325915686,14.210979096235075,13.012178183367986,-23.73697136649491,25.460961025093805,28.9697152623251],[-40.252695580178646,7.292333694880076,25.268977944060126,12.065263875801158,78.35903820059296,-44.50167787985711,32.76147086614712,9.583798408575856,4.759146696081289,70.42324392300074,-25.35595896046463,-37.04703525788322,-87.28077020430877,-36.576303638163544,16.75392960963969,-37.38650863213876],[-33.986916675780236,-6.886677170400963,26.791847476759248,-85.94849952212759,-29.224704868712887,-8.493344281794654,42.52150066168435,-19.236138125189548,47.52529846165573,43.145742270906645,-41.368496392030494,-24.134487163613915,-58.43558358681017,-2.8541858008900687,67.9160224938935,0.7004104261919444],[64.01608340544031,30.77131913636726,-10.733118713853624,-69.71521968183633,-20.814695770579025,-36.55724832105891,-91.08804433779596,98.48017762555465,-1.154904774812385,-25.222309163568468,-104.89728752479354,62.13498483525263,-39.23136791500993,-62.30351683329466,5.92788661136765,-34.104205635735795],[-61.17963030598985,-68.28216875567998,68.02242764181591,7.7584729092036335,47.03499365161911,-35.19987517135974,15.26880677987331,0.9925377601538623,-4.5191089905930255,83.07780192365793,4.395437939982509,47.58827305748724,-1.7656161835743198,-60.60535353321633,-72.40653239540055,1.7175773433671575]],[[21.18219035079682,-25.386496005889747,-41.317763269943924,-45.75580121070584,-46.336087526716554,-32.62362166064287,-38.546862451052284,87.7589094387072,80.70372681254045,-25.90611961460432],[19.792618517233844,-47.95425673777588,47.3481578197346,-3.3889497232967027,-35.91853061700089,46.671405494708694,-69.01961116237061,-78.22675954829161,-44.22099180746864,-84.16409892446599]]],"biases":[[16.871171753062683,20.67917815241136,24.899641750279827,22.82408280433944,8.996927781921658,3.9468772543516515,-17.894494759568172,-11.47534667497765,-13.1871298051516,-4.907884206111855,20.407499881886224,-13.483690394387992,20.604837823882022,1.592291010137895,26.383174312056795,16.507722038362367],[18.734400749882266,4.5040851173125045,25.98946079078552,-6.859496813029294,-7.396431491532052,11.105079693174403,15.780735902497744,15.929456096725234,9.42333346031756,7.578381078318961],[-1.2285972289085227,-5.794320401626566]],"_generation":521627,"_fitness":0}